svm_type c_svc
kernel_type linear
nr_class 2
total_sv 9053
rho 0.808247
label -1 2
nr_sv 4359 4694
SV
0.25 38:1 
0.25 11:1 12:1 13:1 14:1 15:1 
0.25 5:1 16:1 17:1 18:1 19:1 20:1 21:1 
0.25 22:1 23:1 24:1 
0.1947529645180703 25:1 26:1 27:1 28:1 29:1 30:1 31:1 32:1 
0.25 33:1 34:1 35:1 36:1 
0.25 37:1 38:1 39:1 40:1 41:1 
0.25 43:1 50:1 51:1 53:1 
0.25 43:1 50:1 51:1 61:1 
0.25 63:1 64:1 65:1 66:1 
0.01000101896036878 1:1 2:1 3:1 4:1 5:1 6:1 
0.25 67:1 68:1 69:1 70:1 71:1 72:1 73:1 74:1 
0.08362995027340649 81:1 82:1 83:1 84:1 85:1 86:1 
0.1749068833489201 21:1 97:1 98:1 99:1 
0.25 66:1 100:1 101:1 102:1 103:1 104:1 
0.25 105:1 106:1 107:1 108:1 109:1 110:1 
0.25 11:1 12:1 13:1 14:1 15:1 
0.25 120:1 121:1 122:1 123:1 124:1 125:1 126:1 127:1 128:1 129:1 130:1 
0.03801576972774057 44:1 131:1 132:1 133:1 
0.08902883438695029 136:1 137:1 138:1 139:1 140:1 141:1 142:1 143:1 
0.25 158:1 159:1 160:1 161:1 
0.25 162:1 163:1 164:1 165:1 166:1 167:1 
0.25 126:1 168:1 169:1 170:1 171:1 172:1 
0.25 43:1 177:1 178:1 179:1 180:1 181:1 
0.25 22:1 23:1 24:1 
0.25 37:1 38:1 39:1 40:1 41:1 186:1 187:1 188:1 189:1 190:1 
0.25 134:1 193:1 194:1 195:1 196:1 
0.005079618081936284 5:1 90:1 134:1 135:1 
0.25 75:1 96:1 216:1 217:1 218:1 219:1 220:1 
0.25 136:1 137:1 138:1 139:1 140:1 141:1 142:1 143:1 
0.1761407379823021 43:1 50:1 51:1 236:1 
0.2205104323921788 5:1 16:1 17:1 18:1 144:1 145:1 146:1 
0.25 171:1 251:1 254:1 255:1 256:1 257:1 
0.25 21:1 261:1 262:1 263:1 264:1 265:1 
0.25 87:1 266:1 267:1 268:1 269:1 270:1 271:1 
0.25 86:1 272:1 273:1 
0.25 274:1 275:1 276:1 277:1 278:1 
0.25 5:1 90:1 134:1 135:1 
0.25 279:1 280:1 281:1 282:1 283:1 
0.1303348617174036 284:1 285:1 286:1 287:1 
0.01107787779351796 261:1 262:1 288:1 289:1 290:1 291:1 292:1 293:1 
0.25 10:1 294:1 295:1 296:1 
0.25 44:1 131:1 132:1 133:1 
0.1269426123252206 21:1 92:1 208:1 297:1 298:1 299:1 
0.25 301:1 302:1 303:1 
0.25 5:1 284:1 304:1 
0.25 194:1 
0.25 133:1 307:1 308:1 
0.25 151:1 
0.25 21:1 313:1 314:1 315:1 
0.25 8:1 101:1 102:1 316:1 317:1 318:1 319:1 
0.25 10:1 294:1 295:1 296:1 
0.25 330:1 331:1 332:1 
0.25 21:1 92:1 333:1 334:1 335:1 
0.25 14:1 111:1 336:1 337:1 338:1 339:1 
0.25 327:1 328:1 340:1 341:1 342:1 343:1 344:1 345:1 346:1 347:1 348:1 349:1 350:1 351:1 
0.25 86:1 352:1 353:1 354:1 355:1 356:1 
0.25 194:1 
0.25 292:1 357:1 358:1 359:1 
0.25 292:1 363:1 364:1 365:1 
0.25 8:1 101:1 102:1 316:1 317:1 318:1 319:1 
0.25 366:1 
0.25 41:1 51:1 58:1 175:1 260:1 303:1 375:1 376:1 377:1 378:1 379:1 380:1 
0.1982281911642793 43:1 50:1 51:1 381:1 382:1 
0.25 314:1 393:1 394:1 395:1 
0.25 406:1 
0.1325782824548059 44:1 247:1 411:1 412:1 413:1 
0.25 10:1 294:1 295:1 296:1 
0.25 14:1 82:1 111:1 336:1 339:1 
0.07912689806791738 44:1 107:1 322:1 411:1 414:1 415:1 416:1 
0.25 26:1 417:1 418:1 419:1 420:1 
0.25 44:1 131:1 132:1 133:1 
0.1155096997529534 75:1 148:1 178:1 226:1 421:1 422:1 423:1 
0.25 91:1 333:1 334:1 424:1 425:1 426:1 427:1 428:1 
0.25 40:1 448:1 449:1 450:1 451:1 
0.25 452:1 
0.2281581435818094 453:1 454:1 455:1 456:1 457:1 
0.25 340:1 341:1 343:1 344:1 345:1 346:1 347:1 348:1 462:1 
0.25 463:1 464:1 465:1 466:1 
0.2392902945564082 327:1 328:1 462:1 466:1 467:1 468:1 
0.25 469:1 470:1 
0.25 465:1 466:1 
0.25 462:1 
0.25 471:1 
0.25 465:1 466:1 
0.25 462:1 
0.25 131:1 403:1 472:1 473:1 474:1 475:1 476:1 477:1 
0.25 136:1 477:1 478:1 479:1 480:1 481:1 482:1 483:1 484:1 485:1 
0.25 470:1 
0.25 465:1 466:1 
0.25 405:1 
0.25 485:1 486:1 487:1 488:1 489:1 490:1 
0.25 141:1 142:1 473:1 480:1 491:1 492:1 493:1 494:1 495:1 
0.25 485:1 
0.25 231:1 403:1 465:1 466:1 467:1 496:1 497:1 498:1 
0.1077987419920917 327:1 328:1 469:1 499:1 500:1 501:1 
0.25 502:1 
0.2088361635374029 9:1 327:1 328:1 342:1 465:1 503:1 504:1 
0.25 182:1 
0.25 485:1 505:1 
0.25 77:1 192:1 511:1 512:1 513:1 514:1 515:1 
0.25 516:1 517:1 518:1 519:1 520:1 521:1 522:1 
0.06577676109919085 26:1 149:1 527:1 528:1 
0.25 38:1 529:1 530:1 531:1 532:1 533:1 534:1 535:1 536:1 537:1 
0.08737835041867852 166:1 167:1 414:1 415:1 458:1 459:1 460:1 
0.25 79:1 392:1 538:1 539:1 540:1 541:1 
0.25 551:1 552:1 553:1 554:1 
0.08217835302312916 28:1 36:1 555:1 556:1 557:1 
0.25 149:1 558:1 559:1 560:1 
0.1441117329417599 453:1 454:1 455:1 456:1 457:1 
0.25 518:1 519:1 520:1 521:1 522:1 568:1 
0.25 83:1 131:1 523:1 569:1 
0.25 182:1 
0.25 9:1 405:1 465:1 503:1 504:1 
0.02740442356145129 38:1 41:1 570:1 571:1 572:1 573:1 574:1 575:1 576:1 
0.25 44:1 577:1 578:1 
0.25 12:1 154:1 379:1 579:1 580:1 581:1 
0.25 279:1 412:1 582:1 583:1 
0.25 588:1 589:1 590:1 
0.25 151:1 591:1 
0.25 151:1 312:1 591:1 592:1 
0.25 7:1 137:1 600:1 601:1 602:1 603:1 
0.25 27:1 86:1 211:1 614:1 615:1 616:1 
0.25 551:1 552:1 553:1 554:1 
0.2128439374244232 28:1 36:1 555:1 556:1 557:1 
0.04107457130334779 626:1 630:1 631:1 632:1 633:1 634:1 
0.25 110:1 117:1 601:1 640:1 641:1 
0.03914264835397818 131:1 403:1 462:1 472:1 473:1 474:1 476:1 477:1 545:1 
0.25 366:1 650:1 
0.25 83:1 131:1 523:1 569:1 
0.04224364873090224 651:1 652:1 653:1 654:1 
0.25 60:1 654:1 
0.25 33:1 473:1 555:1 658:1 659:1 660:1 661:1 662:1 663:1 664:1 665:1 
0.25 33:1 274:1 672:1 673:1 674:1 675:1 
0.2309363456227968 51:1 155:1 203:1 205:1 676:1 677:1 678:1 
0.25 626:1 630:1 631:1 632:1 633:1 634:1 680:1 
0.1719643082658038 146:1 626:1 627:1 628:1 629:1 
0.0298995584409158 51:1 232:1 686:1 687:1 
0.25 51:1 688:1 
0.25 690:1 
0.25 232:1 691:1 
0.25 51:1 55:1 241:1 692:1 
0.25 273:1 704:1 
0.25 64:1 284:1 709:1 710:1 
0.1312624873835269 21:1 86:1 337:1 712:1 713:1 714:1 715:1 716:1 717:1 
0.25 261:1 262:1 412:1 724:1 725:1 726:1 727:1 728:1 729:1 
0.25 429:1 731:1 732:1 733:1 
0.25 44:1 131:1 132:1 133:1 
0.2240208179690413 26:1 149:1 527:1 528:1 
0.25 51:1 57:1 414:1 415:1 742:1 746:1 
0.25 77:1 192:1 511:1 512:1 513:1 514:1 515:1 
0.08265292721462306 33:1 473:1 555:1 658:1 661:1 662:1 663:1 664:1 665:1 
0.25 86:1 557:1 772:1 773:1 774:1 775:1 
0.25 77:1 192:1 511:1 512:1 513:1 514:1 515:1 
0.25 55:1 759:1 792:1 793:1 794:1 
0.25 599:1 825:1 826:1 
0.25 27:1 117:1 156:1 840:1 841:1 
0.25 44:1 131:1 132:1 133:1 
0.25 210:1 559:1 560:1 844:1 845:1 846:1 
0.25 15:1 20:1 170:1 523:1 629:1 847:1 848:1 
0.25 66:1 192:1 853:1 854:1 
0.25 21:1 36:1 830:1 855:1 
0.25 15:1 697:1 777:1 
0.25 21:1 36:1 830:1 855:1 
0.09636978978039988 231:1 407:1 871:1 872:1 873:1 874:1 
0.2112720487791616 20:1 21:1 220:1 876:1 877:1 
0.25 8:1 782:1 882:1 883:1 884:1 885:1 886:1 887:1 
0.25 86:1 163:1 594:1 595:1 891:1 892:1 
0.25 50:1 51:1 55:1 
0.25 43:1 901:1 902:1 
0.25 21:1 36:1 830:1 855:1 
0.117486202031687 26:1 105:1 149:1 337:1 830:1 875:1 
0.25 149:1 227:1 934:1 935:1 
0.25 44:1 131:1 132:1 133:1 
0.25 66:1 947:1 948:1 949:1 950:1 
0.25 8:1 782:1 882:1 883:1 884:1 885:1 886:1 887:1 
0.25 968:1 969:1 
0.25 46:1 231:1 970:1 971:1 972:1 
0.25 231:1 970:1 971:1 972:1 973:1 
0.25 231:1 971:1 972:1 974:1 
0.25 231:1 975:1 976:1 977:1 
0.25 389:1 978:1 979:1 980:1 
0.25 86:1 986:1 987:1 988:1 989:1 
0.25 116:1 245:1 246:1 666:1 995:1 996:1 
0.1807238928630381 43:1 50:1 51:1 207:1 1012:1 1013:1 1014:1 
0.07395721200786698 149:1 939:1 940:1 1029:1 1030:1 
0.007373599698266179 432:1 551:1 552:1 587:1 1031:1 1032:1 1033:1 1034:1 
0.25 44:1 411:1 1036:1 1037:1 1038:1 
0.0944766537789066 102:1 177:1 429:1 599:1 967:1 1044:1 1045:1 1046:1 1047:1 1048:1 1049:1 1050:1 1051:1 
0.25 44:1 131:1 132:1 133:1 
0.25 606:1 607:1 649:1 1052:1 
0.25 1056:1 1057:1 1058:1 1059:1 1060:1 1061:1 1062:1 1063:1 
0.25 771:1 943:1 1066:1 1067:1 
0.25 1074:1 
0.08635054956133534 76:1 281:1 282:1 283:1 1001:1 1002:1 1003:1 1004:1 1005:1 
0.25 182:1 
0.1355020082730996 721:1 1076:1 1077:1 1078:1 1079:1 
0.25 1092:1 1093:1 1094:1 1095:1 
0.25 71:1 155:1 435:1 446:1 1106:1 
0.1858095936368916 38:1 41:1 347:1 963:1 1107:1 1108:1 
0.25 1109:1 1110:1 1111:1 1112:1 
0.25 63:1 66:1 556:1 1117:1 
0.25 402:1 736:1 1118:1 1119:1 1120:1 
0.25 319:1 1121:1 1122:1 1123:1 1124:1 1125:1 1126:1 1127:1 
0.25 136:1 1048:1 1130:1 1131:1 1132:1 1133:1 1134:1 
0.25 1142:1 1143:1 
0.244028303942691 647:1 834:1 1145:1 1146:1 1147:1 
0.25 651:1 1128:1 1153:1 
0.25 1057:1 1058:1 1060:1 1154:1 1155:1 
0.25 136:1 1048:1 1130:1 1131:1 1132:1 1133:1 1134:1 
0.25 1158:1 1172:1 1173:1 1174:1 1175:1 1176:1 
0.25 27:1 36:1 86:1 938:1 1185:1 1186:1 
0.25 319:1 1121:1 1122:1 1123:1 1124:1 1125:1 1126:1 1127:1 
0.1695240991505991 43:1 50:1 51:1 1196:1 1197:1 
0.2479823650266268 136:1 1048:1 1130:1 1131:1 1132:1 1133:1 1134:1 
0.25 1057:1 1058:1 1060:1 1154:1 1155:1 
0.25 1121:1 1199:1 
0.25 1121:1 1144:1 
0.25 1200:1 1201:1 
0.25 361:1 1202:1 1203:1 
0.2492288268262596 365:1 472:1 940:1 1204:1 
0.25 721:1 1203:1 1205:1 1206:1 1207:1 
0.2427589705100023 336:1 423:1 950:1 1208:1 1209:1 1210:1 1211:1 1212:1 
0.25 1158:1 1172:1 1173:1 1174:1 1175:1 1176:1 
0.25 5:1 756:1 
0.25 764:1 1156:1 1219:1 1220:1 
0.25 44:1 131:1 132:1 133:1 
0.25 1121:1 
0.25 41:1 126:1 140:1 168:1 169:1 486:1 1229:1 1230:1 1231:1 
0.07617087796066604 604:1 605:1 671:1 1240:1 
0.25 75:1 89:1 192:1 
0.25 1253:1 
0.1830240662893468 9:1 1254:1 1255:1 1256:1 1257:1 1258:1 1259:1 1260:1 
0.25 397:1 565:1 1261:1 1262:1 1263:1 1264:1 
0.002415580971447555 148:1 390:1 610:1 862:1 1265:1 1266:1 
0.25 59:1 361:1 1271:1 1272:1 1273:1 1274:1 1275:1 1276:1 
0.25 50:1 55:1 241:1 
0.25 50:1 55:1 241:1 
0.25 50:1 51:1 55:1 
0.25 50:1 51:1 55:1 
0.25 87:1 1295:1 
0.25 110:1 681:1 846:1 1087:1 1299:1 
0.25 1307:1 1308:1 1309:1 1310:1 
0.25 116:1 208:1 666:1 1131:1 1243:1 1318:1 1319:1 
0.25 1253:1 
0.25 132:1 133:1 
0.25 44:1 131:1 132:1 133:1 
0.25 89:1 192:1 1043:1 1323:1 
0.002775933216558147 8:1 21:1 92:1 1249:1 1332:1 
0.25 73:1 513:1 649:1 1061:1 1242:1 1333:1 1334:1 1335:1 1336:1 
0.25 386:1 513:1 1242:1 
0.01463515323931304 220:1 610:1 1343:1 1344:1 1345:1 1346:1 1347:1 
0.1022061204091596 193:1 271:1 527:1 767:1 1082:1 1340:1 1349:1 1350:1 
0.2453797515155197 220:1 610:1 1343:1 1344:1 1345:1 1346:1 1347:1 
0.224378310865286 560:1 1040:1 1340:1 1342:1 1349:1 1356:1 1357:1 1358:1 1359:1 
0.25 817:1 1237:1 1360:1 
0.25 788:1 789:1 790:1 
0.25 40:1 448:1 449:1 450:1 451:1 
0.07845162683536455 165:1 535:1 841:1 942:1 1365:1 1366:1 
0.02785411018177909 387:1 388:1 1039:1 1226:1 1296:1 1297:1 1298:1 
0.25 1378:1 1379:1 1380:1 1381:1 1382:1 
0.25 1131:1 
0.25 87:1 271:1 1347:1 1383:1 
0.25 131:1 132:1 133:1 
0.2363209891414262 560:1 1040:1 1340:1 1342:1 1349:1 1356:1 1357:1 1358:1 1359:1 
0.25 68:1 338:1 526:1 1390:1 1391:1 1392:1 1393:1 1394:1 1395:1 
0.25 66:1 1396:1 1397:1 1398:1 1399:1 
0.1603546636525554 1234:1 1400:1 1401:1 1402:1 1403:1 1404:1 1405:1 1406:1 1407:1 
0.25 465:1 1416:1 
0.25 466:1 1417:1 
0.25 468:1 1419:1 
0.107000313052118 26:1 28:1 29:1 30:1 480:1 1306:1 1337:1 1421:1 
0.25 145:1 200:1 201:1 1420:1 
0.25 88:1 89:1 1428:1 1429:1 
0.25 191:1 
0.2058491624588456 454:1 1434:1 1435:1 1436:1 1437:1 
0.25 231:1 1370:1 
0.25 1434:1 1437:1 
0.25 43:1 50:1 207:1 1278:1 1440:1 
0.25 66:1 220:1 1445:1 
0.09792732323313288 145:1 1420:1 
0.25 312:1 393:1 1456:1 
0.25 1428:1 1429:1 1460:1 
0.25 1474:1 1478:1 
0.25 465:1 1416:1 
0.25 466:1 1417:1 
0.25 468:1 1419:1 
0.08457332041365552 51:1 205:1 206:1 258:1 1484:1 1485:1 1486:1 1487:1 
0.25 126:1 140:1 292:1 1488:1 1489:1 1490:1 
0.2012038265040934 87:1 503:1 794:1 862:1 1496:1 
0.25 44:1 
0.1669540881790414 458:1 1457:1 1458:1 1459:1 
0.25 182:1 
0.25 135:1 506:1 1217:1 1520:1 
0.25 26:1 66:1 1347:1 
0.25 26:1 28:1 29:1 30:1 480:1 1306:1 
0.25 614:1 1449:1 1450:1 1451:1 1452:1 
0.25 1521:1 
0.194040615169616 88:1 89:1 171:1 216:1 407:1 412:1 1522:1 1523:1 1524:1 1525:1 
0.25 182:1 
0.25 110:1 931:1 1119:1 1531:1 
0.2325949730784485 88:1 412:1 1519:1 
0.05042410175725838 87:1 300:1 353:1 1512:1 1513:1 1514:1 1515:1 1516:1 
0.1269076396684121 75:1 1534:1 1535:1 1536:1 1537:1 1538:1 
0.25 363:1 1543:1 1544:1 1545:1 1546:1 1547:1 
0.25 126:1 140:1 292:1 1488:1 1489:1 1490:1 
0.25 182:1 
0.1031023041498445 111:1 156:1 1517:1 1518:1 
0.0635677025598716 424:1 507:1 508:1 1090:1 1311:1 1396:1 1557:1 1558:1 1559:1 1560:1 
0.25 1474:1 1478:1 
0.25 112:1 561:1 1562:1 
0.2324493498805343 26:1 135:1 193:1 384:1 506:1 578:1 952:1 1441:1 1575:1 
0.25 168:1 266:1 865:1 1314:1 1580:1 1581:1 1582:1 
0.25 136:1 1004:1 1585:1 1586:1 1587:1 1588:1 1589:1 1590:1 
0.25 135:1 506:1 1217:1 1520:1 
0.2219537104686912 27:1 227:1 231:1 527:1 1592:1 
0.25 50:1 51:1 55:1 241:1 
0.02196493696560041 320:1 519:1 718:1 1445:1 1601:1 1602:1 1603:1 
0.2285153441674464 22:1 76:1 164:1 398:1 1366:1 1576:1 1577:1 1578:1 1579:1 
0.25 406:1 940:1 1609:1 1610:1 1611:1 1612:1 
0.25 135:1 506:1 1217:1 1520:1 
0.1346680054592199 208:1 217:1 250:1 1091:1 1613:1 1614:1 
0.25 36:1 86:1 170:1 171:1 172:1 529:1 1615:1 1616:1 
0.25 26:1 66:1 1347:1 
0.1531202440650479 136:1 473:1 555:1 658:1 1004:1 1586:1 1587:1 1588:1 1589:1 1590:1 
0.25 86:1 122:1 126:1 170:1 171:1 1077:1 1622:1 1623:1 1624:1 
0.25 651:1 1024:1 1291:1 
0.01508135500724802 654:1 960:1 1024:1 1291:1 
0.25 651:1 
0.1650133319762385 120:1 604:1 605:1 939:1 1627:1 
0.25 1636:1 1637:1 1638:1 
0.25 1639:1 1640:1 
0.25 1641:1 
0.25 1642:1 1643:1 1644:1 
0.25 1645:1 1646:1 
0.25 26:1 66:1 1347:1 
0.196306254459538 914:1 1288:1 1555:1 1657:1 1658:1 1659:1 1660:1 
0.2099376873771966 208:1 217:1 250:1 1091:1 1613:1 1614:1 
0.1894807960312978 86:1 211:1 581:1 1500:1 1667:1 1668:1 1669:1 
0.1768309733191418 101:1 165:1 414:1 554:1 1670:1 
0.25 88:1 89:1 880:1 1043:1 1323:1 1679:1 1680:1 
0.1664305958685714 764:1 1106:1 1134:1 1590:1 1689:1 
0.25 26:1 66:1 1347:1 
0.06841301597157692 649:1 1699:1 1700:1 
0.1617050435681691 191:1 718:1 943:1 1716:1 1717:1 1718:1 
0.2177867438863189 721:1 986:1 1078:1 1723:1 1724:1 1725:1 1726:1 
0.03051063008589266 1501:1 1738:1 
0.25 15:1 642:1 1743:1 1744:1 1745:1 1746:1 
0.1535921648046238 120:1 292:1 625:1 1170:1 1747:1 
0.2273540482290694 33:1 401:1 1750:1 1751:1 1752:1 1753:1 1754:1 
0.1604219881986571 148:1 422:1 512:1 702:1 1712:1 1713:1 
0.1304212507682276 35:1 86:1 622:1 1077:1 1720:1 1768:1 
0.04373154381862588 157:1 1418:1 1771:1 1772:1 
0.1141078461981648 110:1 116:1 666:1 806:1 1506:1 
0.1458039053438958 76:1 157:1 862:1 917:1 1776:1 1777:1 1778:1 
0.25 1501:1 1738:1 
0.1006242103539945 41:1 480:1 902:1 1485:1 1486:1 1798:1 1799:1 1800:1 1801:1 1802:1 1803:1 
0.25 524:1 676:1 995:1 1040:1 1259:1 1729:1 1730:1 1803:1 
0.2172299783606941 524:1 676:1 995:1 1040:1 1259:1 1555:1 1729:1 1730:1 
0.2046149103562304 203:1 1533:1 1813:1 1814:1 1815:1 1816:1 1817:1 1818:1 
0.25 69:1 286:1 
0.25 21:1 
0.25 56:1 1843:1 1844:1 1845:1 1846:1 1847:1 1848:1 
0.1666858174519883 40:1 197:1 1352:1 1555:1 1845:1 1851:1 1852:1 1853:1 1854:1 1855:1 
0.2393236486721638 206:1 1500:1 1502:1 1555:1 1856:1 1857:1 1858:1 1859:1 1860:1 1861:1 
0.03529402376665063 13:1 34:1 105:1 206:1 1484:1 1555:1 1890:1 1891:1 1892:1 1893:1 1894:1 
0.242513955656618 82:1 583:1 1070:1 1219:1 1313:1 1555:1 1909:1 1910:1 1911:1 1912:1 1913:1 1914:1 
0.25 861:1 1426:1 
0.07912329278759719 435:1 625:1 1860:1 1915:1 1916:1 1917:1 1918:1 1919:1 
0.25 1555:1 
0.05814029877659019 36:1 86:1 759:1 933:1 1083:1 1648:1 1921:1 
0.2225698521916885 82:1 1624:1 1773:1 1774:1 1775:1 
0.25 87:1 355:1 503:1 529:1 551:1 794:1 
0.07583116816629243 126:1 227:1 529:1 1615:1 1922:1 1923:1 1924:1 1925:1 
0.25 191:1 
0.25 45:1 1503:1 
0.25 182:1 
0.25 220:1 560:1 1106:1 1940:1 1941:1 1942:1 1943:1 1944:1 
0.25 154:1 392:1 792:1 1949:1 1950:1 1951:1 
0.2482416199718479 68:1 1056:1 1149:1 1213:1 1952:1 1953:1 
0.25 1001:1 1954:1 1955:1 1956:1 
0.25 18:1 86:1 417:1 1957:1 1958:1 1959:1 1960:1 
0.25 1438:1 1574:1 1961:1 1962:1 1963:1 
0.25 110:1 1967:1 1968:1 1969:1 1970:1 1971:1 
0.25 368:1 1131:1 1938:1 1974:1 1975:1 1976:1 
0.25 113:1 148:1 541:1 1699:1 1980:1 
0.25 149:1 1982:1 1983:1 
0.01985541548266308 68:1 329:1 693:1 694:1 1213:1 1244:1 
0.2416196257425597 594:1 595:1 1984:1 1985:1 
0.25 45:1 1503:1 
0.25 49:1 179:1 221:1 
0.25 56:1 279:1 454:1 957:1 1986:1 
0.1106157550294335 347:1 777:1 1235:1 1987:1 1988:1 
0.25 1992:1 
0.25 66:1 708:1 1347:1 1993:1 
0.25 231:1 1920:1 2003:1 
0.25 32:1 570:1 571:1 
0.08738359305122573 384:1 542:1 1695:1 1739:1 1740:1 2021:1 
0.25 45:1 1503:1 
0.04517533736328103 165:1 890:1 1336:1 1478:1 2028:1 2029:1 
0.25 155:1 767:1 814:1 1075:1 1082:1 
0.25 32:1 570:1 571:1 
0.25 20:1 73:1 2030:1 2031:1 2032:1 2033:1 
0.25 159:1 812:1 994:1 1015:1 2034:1 
0.25 86:1 1491:1 2035:1 2036:1 
0.1199529728743976 25:1 26:1 27:1 28:1 29:1 30:1 31:1 32:1 
0.25 10:1 2041:1 
0.25 231:1 1920:1 2003:1 
0.25 86:1 713:1 997:1 2043:1 2044:1 
0.2449640871664681 594:1 595:1 1984:1 1985:1 
0.25 915:1 916:1 1075:1 2049:1 2050:1 2051:1 
0.1139186827577474 336:1 452:1 1337:1 1421:1 1889:1 2013:1 
0.25 149:1 708:1 1993:1 2055:1 
0.023754477052866 221:1 778:1 1212:1 1753:1 2056:1 
0.06828667638050813 27:1 325:1 930:1 2057:1 2058:1 
0.1429219411738203 111:1 765:1 1234:1 1955:1 
0.2190646101329747 142:1 414:1 453:1 1698:1 2014:1 2015:1 2016:1 2017:1 2018:1 
0.25 27:1 325:1 930:1 2057:1 2058:1 
0.25 191:1 
0.25 10:1 2041:1 
0.25 82:1 417:1 2080:1 2081:1 2082:1 
0.1151660635553963 27:1 325:1 930:1 2057:1 2058:1 
0.25 361:1 944:1 
0.25 10:1 2041:1 
0.1073028646909024 1491:1 1955:1 2098:1 
0.25 111:1 765:1 1234:1 1955:1 
0.25 211:1 231:1 464:1 1145:1 
0.25 109:1 1288:1 2099:1 2100:1 
0.25 86:1 230:1 594:1 595:1 1077:1 2105:1 
0.25 36:1 126:1 211:1 336:1 1114:1 2111:1 2112:1 
0.25 3:1 9:1 1179:1 1479:1 2113:1 
0.1624707013704036 73:1 525:1 535:1 942:1 1335:1 2068:1 
0.25 849:1 850:1 
0.25 851:1 
0.25 852:1 
0.05574140775327015 654:1 850:1 2116:1 
0.1797773904476591 21:1 92:1 2071:1 2117:1 
0.02354823262243845 1078:1 1712:1 
0.25 1739:1 2121:1 
0.25 1926:1 
0.25 27:1 36:1 86:1 155:1 2088:1 2130:1 2131:1 
0.07913965866521473 68:1 69:1 203:1 459:1 2132:1 2133:1 
0.25 193:1 231:1 300:1 1740:1 1888:1 2134:1 2135:1 2136:1 
0.25 1078:1 1712:1 1740:1 
0.25 705:1 2145:1 2146:1 
0.25 84:1 453:1 489:1 683:1 2150:1 
0.0308647807650454 21:1 86:1 105:1 163:1 1465:1 2155:1 2156:1 2157:1 2158:1 
0.25 37:1 40:1 734:1 998:1 2164:1 2165:1 2166:1 2167:1 2168:1 
0.102930356238956 3:1 9:1 1479:1 
0.25 68:1 69:1 70:1 167:1 443:1 
0.25 173:1 2191:1 2192:1 
0.25 1078:1 1712:1 1740:1 2193:1 
0.25 1186:1 2194:1 2195:1 2196:1 2197:1 
0.25 86:1 274:1 
0.25 123:1 1685:1 1825:1 2198:1 
0.25 149:1 2206:1 
0.25 21:1 279:1 372:1 1700:1 2207:1 2208:1 
0.25 109:1 157:1 612:1 834:1 902:1 2209:1 2210:1 
0.25 651:1 2213:1 2214:1 
0.2169864297426341 567:1 777:1 787:1 1860:1 2218:1 2219:1 2220:1 2221:1 2222:1 2223:1 
0.25 1160:1 1161:1 1162:1 1462:1 
0.25 2224:1 
0.25 33:1 2014:1 2215:1 2225:1 2226:1 2227:1 2228:1 
0.25 2229:1 2230:1 
0.25 2082:1 2231:1 
0.25 1289:1 2232:1 
0.25 2233:1 
0.25 2234:1 2235:1 
0.2260618648100395 193:1 702:1 777:1 2135:1 2236:1 
0.25 1160:1 1161:1 1162:1 1462:1 2238:1 
0.25 1289:1 2232:1 2244:1 2245:1 
0.1806551200902808 189:1 1289:1 2014:1 2215:1 2226:1 2232:1 2234:1 2246:1 
0.25 121:1 2235:1 
0.25 391:1 2251:1 2252:1 2253:1 
0.1214881908867046 21:1 50:1 55:1 235:1 1268:1 2019:1 2259:1 2260:1 
0.25 51:1 55:1 2266:1 
0.25 86:1 238:1 1425:1 2274:1 
0.1190584290325342 149:1 614:1 2010:1 2275:1 
0.25 1186:1 2194:1 2195:1 2196:1 2197:1 
0.03144796946739954 1118:1 1997:1 1998:1 1999:1 2000:1 2276:1 
0.25 208:1 224:1 702:1 
0.25 1160:1 1161:1 1162:1 1462:1 
0.25 14:1 329:1 1084:1 1085:1 1086:1 1138:1 2280:1 
0.01402103164370903 86:1 410:1 546:1 1232:1 2285:1 2286:1 2287:1 
0.25 45:1 61:1 958:1 1505:1 1551:1 1664:1 2094:1 2288:1 
0.25 20:1 224:1 1421:1 2236:1 2289:1 2290:1 
0.2195291366569596 149:1 614:1 2291:1 
0.25 862:1 2292:1 2293:1 
0.1904925453264587 87:1 479:1 1331:1 2164:1 2298:1 2299:1 2300:1 2301:1 
0.09770521724233489 402:1 458:1 459:1 460:1 2132:1 
0.25 105:1 900:1 1434:1 2238:1 2306:1 
0.25 257:1 389:1 455:1 2307:1 2308:1 2309:1 
0.06967732689491919 112:1 173:1 224:1 2315:1 2316:1 2317:1 2318:1 
0.03559666196357388 87:1 336:1 445:1 503:1 529:1 794:1 906:1 2319:1 
0.25 906:1 2119:1 
0.25 136:1 149:1 2325:1 2326:1 
0.04988191768779233 565:1 1112:1 1526:1 2329:1 2330:1 2331:1 
0.25 402:1 458:1 459:1 460:1 2132:1 
0.25 87:1 479:1 1331:1 2164:1 2298:1 2299:1 2300:1 
0.25 136:1 635:1 2334:1 2335:1 
0.04904573814982994 26:1 802:1 1480:1 1481:1 
0.25 354:1 411:1 2344:1 2345:1 2346:1 2347:1 
0.25 178:1 193:1 610:1 768:1 1194:1 1526:1 2007:1 2329:1 
0.02000779169850122 156:1 220:1 513:1 1607:1 1767:1 
0.25 969:1 1720:1 2348:1 2349:1 
0.25 354:1 411:1 2345:1 2353:1 
0.25 1056:1 1452:1 1700:1 1847:1 1990:1 
0.25 66:1 459:1 
0.2304186882322485 104:1 112:1 444:1 1506:1 2362:1 
0.25 642:1 2363:1 2364:1 2365:1 
0.25 12:1 68:1 69:1 157:1 1380:1 2371:1 
0.25 163:1 1999:1 2000:1 2373:1 
0.25 26:1 802:1 1480:1 1481:1 
0.25 86:1 1719:1 2376:1 2377:1 
0.09337107981685487 165:1 221:1 669:1 2049:1 2378:1 2379:1 
0.2087901837223699 454:1 486:1 1426:1 1760:1 2327:1 2336:1 2337:1 
0.25 559:1 560:1 2383:1 
0.2221868641548079 969:1 1720:1 2349:1 2384:1 2385:1 
0.25 26:1 238:1 683:1 889:1 2007:1 
0.1049823620543165 646:1 1034:1 2390:1 2391:1 
0.25 933:1 
0.25 933:1 
0.25 933:1 
0.25 933:1 
0.2085628032269661 651:1 2394:1 2395:1 
0.25 652:1 653:1 654:1 
0.1565198385734058 653:1 654:1 655:1 
0.25 60:1 654:1 
0.08865133666875913 79:1 565:1 2322:1 
0.25 26:1 
0.25 26:1 802:1 1480:1 1481:1 
0.25 86:1 95:1 137:1 2285:1 2408:1 2409:1 2410:1 
0.25 79:1 565:1 2322:1 
0.25 2145:1 2425:1 2426:1 
0.03988026610751668 20:1 211:1 212:1 510:1 2120:1 2427:1 
0.2490448608971747 26:1 802:1 1480:1 1481:1 
0.1626571809949217 42:1 56:1 2436:1 2437:1 
0.2353103095157631 2040:1 2442:1 2443:1 
0.25 704:1 749:1 2036:1 2446:1 2447:1 
0.25 136:1 635:1 2334:1 2335:1 
0.1052598281871669 149:1 1225:1 1399:1 1826:1 2452:1 2453:1 
0.1397504784021503 651:1 858:1 859:1 860:1 
0.25 149:1 1148:1 1503:1 
0.25 136:1 635:1 2334:1 2335:1 
0.25 75:1 545:1 2207:1 2459:1 2460:1 
0.175929166080664 881:1 1118:1 1149:1 1953:1 2095:1 2474:1 2475:1 
0.25 15:1 503:1 1315:1 2478:1 2479:1 
0.05569349673648074 211:1 212:1 541:1 649:1 2104:1 2480:1 2481:1 2482:1 
0.25 173:1 810:1 931:1 
0.07299869292659918 136:1 635:1 637:1 1950:1 2334:1 2335:1 2489:1 2490:1 
0.1504597875198724 77:1 1723:1 2461:1 2462:1 
0.0812628744408474 410:1 546:1 1539:1 1790:1 1791:1 2444:1 2445:1 
0.25 651:1 775:1 960:1 
0.25 651:1 859:1 2394:1 
0.25 193:1 231:1 2513:1 2514:1 2515:1 
0.1430638419861286 17:1 1106:1 1318:1 1607:1 2529:1 2530:1 2531:1 2532:1 2533:1 2534:1 
0.25 370:1 1141:1 2177:1 2540:1 
0.25 655:1 1530:1 2342:1 2547:1 
0.25 287:1 523:1 2548:1 2549:1 2550:1 2551:1 
0.25 610:1 1119:1 1943:1 2552:1 2553:1 
0.25 29:1 30:1 36:1 112:1 2555:1 2556:1 
0.25 940:1 2560:1 2561:1 
0.1772144096451775 20:1 2562:1 2563:1 
0.25 26:1 2566:1 2567:1 2568:1 
0.25 458:1 459:1 460:1 1920:1 2579:1 2580:1 
0.25 2581:1 
0.25 127:1 1111:1 2585:1 
0.1300375714581141 73:1 142:1 2586:1 2587:1 2588:1 2589:1 2590:1 
0.25 337:1 997:1 1039:1 2592:1 
0.1327785434125356 26:1 2581:1 2595:1 2596:1 
0.25 458:1 459:1 460:1 1920:1 2579:1 2580:1 
0.25 1376:1 
0.25 861:1 
0.25 9:1 
0.25 26:1 2595:1 2596:1 2605:1 2606:1 
0.25 1231:1 2611:1 2612:1 2613:1 2614:1 2615:1 
0.07927069412465963 545:1 788:1 789:1 790:1 791:1 
0.25 754:1 1695:1 2021:1 2617:1 
0.25 26:1 
0.05900893207385526 231:1 2624:1 2625:1 
0.1390356199367893 635:1 2372:1 2390:1 2627:1 2628:1 
0.01109142394955628 21:1 165:1 2599:1 2631:1 2632:1 
0.25 635:1 2390:1 2627:1 2628:1 
0.1269273342095088 127:1 1915:1 2520:1 2521:1 
0.25 624:1 2633:1 2634:1 2635:1 
0.25 1773:1 2389:1 2636:1 2637:1 
0.25 20:1 2562:1 2563:1 
0.25 513:1 862:1 1873:1 2278:1 2640:1 2641:1 2642:1 
0.09716986746040954 21:1 92:1 
0.25 411:1 1888:1 2647:1 2648:1 
0.25 2390:1 2627:1 2628:1 
0.25 26:1 2595:1 2596:1 
0.25 757:1 2654:1 2655:1 
0.25 565:1 2656:1 
0.1376882504297255 193:1 1077:1 1165:1 1448:1 1695:1 2390:1 2657:1 2658:1 2659:1 
0.04117247821309734 5:1 66:1 231:1 2599:1 2600:1 2601:1 
0.25 127:1 1111:1 2585:1 2661:1 
0.25 20:1 2562:1 2563:1 
0.25 1774:1 2664:1 2665:1 2666:1 2667:1 
0.07053655920205795 17:1 622:1 997:1 1838:1 2668:1 2669:1 2670:1 
0.25 20:1 537:1 646:1 2671:1 2672:1 
0.07867661202351953 513:1 862:1 1873:1 2278:1 2279:1 2641:1 2642:1 
0.2265603140906257 5:1 66:1 231:1 2599:1 2600:1 2601:1 
0.05631940419918396 26:1 1448:1 2673:1 2674:1 
0.25 513:1 862:1 1873:1 2278:1 2640:1 2641:1 2642:1 
0.1633675712451785 72:1 299:1 745:1 985:1 1774:1 1984:1 2675:1 2676:1 
0.2488468435134938 20:1 2562:1 2563:1 
0.2497905091938943 17:1 622:1 997:1 1838:1 2668:1 2669:1 2670:1 
0.04203282256295815 133:1 2169:1 2199:1 2677:1 2678:1 2679:1 2680:1 2681:1 2682:1 
0.25 13:1 64:1 2683:1 2684:1 2685:1 
0.25 1380:1 2692:1 2693:1 2694:1 2695:1 2696:1 
0.25 66:1 1347:1 2703:1 
0.003474932653492392 21:1 92:1 1296:1 1648:1 2660:1 
0.25 26:1 1448:1 2673:1 2674:1 
0.25 651:1 2395:1 2708:1 
0.25 2712:1 2713:1 2714:1 
0.1752662123365896 537:1 2049:1 2050:1 2653:1 2671:1 2672:1 
0.25 472:1 2009:1 
0.1691390934824398 42:1 193:1 300:1 595:1 1576:1 2003:1 2720:1 
0.0660484415207887 27:1 860:1 1179:1 2689:1 2690:1 2691:1 2721:1 
0.25 91:1 424:1 507:1 674:1 809:1 
0.25 354:1 1784:1 2724:1 2725:1 
0.25 42:1 48:1 2565:1 
0.25 2009:1 2730:1 2731:1 
0.25 179:1 1632:1 2250:1 2733:1 
0.25 26:1 
0.25 131:1 163:1 2734:1 
0.25 646:1 1034:1 2736:1 2737:1 
0.1684551028622101 363:1 364:1 1984:1 2738:1 2739:1 2740:1 
0.09781489425433235 142:1 555:1 940:1 1292:1 2742:1 2743:1 2744:1 2745:1 
0.1580255381910812 238:1 412:1 1772:1 2746:1 2747:1 2748:1 2749:1 2750:1 
0.25 354:1 1784:1 2724:1 2725:1 
0.25 36:1 939:1 1627:1 1918:1 2538:1 2751:1 
0.25 168:1 1038:1 2232:1 2754:1 2755:1 2756:1 
0.25 42:1 48:1 221:1 2565:1 
0.25 131:1 163:1 2734:1 
0.2422810721044255 114:1 157:1 888:1 1085:1 1086:1 2361:1 2773:1 
0.25 6:1 1099:1 2775:1 
0.25 68:1 69:1 90:1 918:1 1249:1 1932:1 2776:1 
0.1971018189007424 584:1 1070:1 1585:1 2340:1 
0.25 179:1 1632:1 2250:1 2733:1 
0.25 21:1 92:1 
0.25 66:1 687:1 966:1 1992:1 2787:1 
0.09264551470169417 112:1 879:1 1060:1 1131:1 2550:1 2792:1 
0.25 9:1 334:1 335:1 2793:1 2794:1 2795:1 
0.25 163:1 306:1 1377:1 2796:1 
0.25 757:1 1316:1 1467:1 
0.25 20:1 284:1 393:1 2798:1 
0.25 529:1 531:1 532:1 2799:1 
0.25 2203:1 2800:1 
0.25 131:1 513:1 1377:1 
0.25 66:1 687:1 966:1 1992:1 2787:1 
0.1882823102630975 9:1 334:1 335:1 2793:1 2794:1 2795:1 
0.25 529:1 531:1 532:1 2799:1 
0.25 428:1 1090:1 1685:1 2819:1 2820:1 2821:1 2822:1 2823:1 
0.25 1844:1 2824:1 
0.25 624:1 2271:1 2618:1 2619:1 2620:1 2621:1 
0.04386890049592524 86:1 356:1 1465:1 1580:1 1720:1 
0.25 6:1 1099:1 2775:1 
0.25 182:1 559:1 560:1 
0.2396847023992244 1684:1 2838:1 2839:1 2840:1 2841:1 2842:1 
0.2142639869955064 255:1 647:1 1146:1 2806:1 2807:1 
0.1118797153373957 9:1 2535:1 
0.25 6:1 36:1 86:1 437:1 1097:1 2852:1 2853:1 
0.25 66:1 149:1 1126:1 
0.02969403531502007 247:1 1651:1 
0.1402468126079828 526:1 635:1 981:1 2873:1 2874:1 
0.25 51:1 654:1 
0.01445130782222856 285:1 384:1 757:1 1467:1 
0.25 86:1 626:1 713:1 998:1 1989:1 
0.1797807506815984 27:1 925:1 1122:1 1123:1 1228:1 
0.1969344279241374 26:1 131:1 2180:1 2181:1 
0.25 708:1 1816:1 2886:1 
0.1643640962398599 345:1 346:1 691:1 767:1 2167:1 2320:1 2892:1 2893:1 2894:1 2895:1 
0.2033808832384822 89:1 407:1 775:1 799:1 1642:1 2905:1 2906:1 2907:1 2908:1 
0.25 379:1 1451:1 
0.25 65:1 86:1 138:1 2921:1 2922:1 
0.23109891115651 26:1 131:1 2180:1 2181:1 
0.2141156343386085 75:1 155:1 192:1 1060:1 1131:1 2923:1 
0.25 234:1 2451:1 2845:1 2846:1 2924:1 
0.1304381967467452 112:1 221:1 1943:1 2498:1 2928:1 
0.2304093955386807 9:1 2535:1 
0.25 149:1 2931:1 2932:1 2933:1 
0.2257220710567795 35:1 86:1 1039:1 2934:1 2935:1 2936:1 
0.25 651:1 849:1 1238:1 
0.25 17:1 277:1 721:1 1305:1 2909:1 2937:1 
0.25 320:1 654:1 2944:1 
0.1028215256142463 27:1 654:1 1438:1 2944:1 
0.25 1128:1 1153:1 
0.2302078791494226 83:1 637:1 1255:1 2900:1 2901:1 2902:1 2903:1 
0.1264759522252203 91:1 424:1 2660:1 
0.2062251014624661 861:1 2955:1 
0.05676945526054202 1165:1 1377:1 1526:1 2884:1 2956:1 2957:1 
0.25 165:1 1131:1 2958:1 2959:1 
0.009393537830811654 20:1 107:1 2960:1 2961:1 2962:1 
0.25 753:1 2964:1 
0.25 535:1 559:1 560:1 942:1 
0.25 20:1 82:1 86:1 2967:1 2968:1 
0.25 17:1 277:1 721:1 1305:1 2909:1 2937:1 
0.25 174:1 301:1 410:1 541:1 546:1 1539:1 
0.25 64:1 284:1 
0.25 612:1 2974:1 
0.04302810954457954 26:1 274:1 2135:1 2975:1 2976:1 2977:1 
0.25 107:1 2961:1 2962:1 2978:1 
0.25 20:1 203:1 390:1 2979:1 
0.25 1734:1 2780:1 2980:1 2981:1 
0.25 21:1 92:1 
0.1773675241409865 36:1 86:1 255:1 507:1 704:1 918:1 2982:1 
0.25 849:1 850:1 
0.25 852:1 
0.25 849:1 851:1 
0.0124454027867591 149:1 332:1 882:1 
0.2488739095406607 1165:1 1377:1 1526:1 2884:1 2956:1 2957:1 
0.25 9:1 
0.25 384:1 1649:1 2955:1 2972:1 
0.25 556:1 2986:1 
0.25 91:1 105:1 
0.25 612:1 2974:1 
0.25 105:1 231:1 2991:1 
0.25 329:1 2531:1 2992:1 
0.25 1389:1 2268:1 
0.25 1376:1 1783:1 2993:1 2994:1 
0.1981963645431371 157:1 205:1 3002:1 3003:1 3004:1 
0.25 556:1 2986:1 
0.2303039332778979 20:1 222:1 329:1 1160:1 1366:1 2268:1 2677:1 3010:1 
0.003217174908157903 2840:1 3011:1 3012:1 
0.25 612:1 2974:1 
0.07089862314667583 86:1 126:1 526:1 2285:1 2593:1 
0.25 3016:1 
0.25 21:1 92:1 
0.25 9:1 
0.25 647:1 936:1 3017:1 
0.25 149:1 1075:1 1438:1 2292:1 3018:1 
0.02321880877365027 84:1 322:1 323:1 324:1 
0.25 116:1 2017:1 
0.25 2888:1 3025:1 
0.25 3026:1 3027:1 
0.25 1902:1 
0.25 2888:1 
0.25 3016:1 
0.25 2840:1 3011:1 3012:1 
0.25 549:1 936:1 3017:1 
0.151563118323257 1252:1 1643:1 2199:1 3032:1 3033:1 3034:1 
0.25 26:1 
0.25 36:1 269:1 271:1 605:1 1719:1 
0.25 20:1 26:1 326:1 1164:1 1447:1 
0.25 2114:1 2805:1 3035:1 
0.25 3036:1 3037:1 
0.25 292:1 1685:1 3038:1 3039:1 
0.25 1774:1 2804:1 3040:1 3041:1 
0.25 2085:1 3007:1 3042:1 
0.1607985991891998 36:1 721:1 1028:1 1811:1 1825:1 2154:1 3043:1 
0.25 647:1 936:1 3017:1 
0.25 20:1 26:1 326:1 1447:1 3053:1 
0.25 148:1 347:1 2611:1 3065:1 3066:1 3067:1 3068:1 
0.25 2840:1 3011:1 3012:1 
0.25 220:1 266:1 3072:1 
0.25 2267:1 3073:1 3074:1 
0.25 289:1 624:1 2271:1 2618:1 
0.25 178:1 247:1 412:1 
0.25 2689:1 2690:1 3094:1 
0.25 127:1 1111:1 2585:1 
0.25 71:1 1475:1 1793:1 3096:1 3097:1 3098:1 
0.25 711:1 3022:1 
0.1411227684081233 424:1 479:1 997:1 2173:1 
0.25 337:1 997:1 1039:1 2592:1 
0.25 1027:1 1028:1 
0.25 1025:1 2377:1 2573:1 3106:1 3107:1 3108:1 
0.03674744991160669 610:1 1505:1 1551:1 2593:1 3061:1 3062:1 3063:1 3064:1 
0.25 178:1 247:1 412:1 
0.04962498494089531 361:1 1685:1 2346:1 3114:1 3115:1 3116:1 3117:1 
0.1530179261826042 387:1 388:1 646:1 3118:1 3119:1 3120:1 
0.25 123:1 2425:1 
0.1862898132257511 260:1 2040:1 2184:1 3121:1 
0.2428948275827238 205:1 206:1 210:1 2201:1 
0.02210805160360354 289:1 624:1 2271:1 2618:1 2619:1 2620:1 2621:1 
0.04722219875687099 211:1 212:1 444:1 927:1 2209:1 2256:1 
0.0399187591182846 868:1 2040:1 2858:1 3123:1 3124:1 3125:1 3126:1 3127:1 3128:1 
0.02876503942259548 861:1 3125:1 3126:1 3132:1 3133:1 
0.03834264344010705 221:1 640:1 1070:1 2552:1 
0.1992026600649544 446:1 1075:1 1597:1 1753:1 3051:1 
0.25 92:1 1350:1 
0.08953029222619735 925:1 3058:1 3134:1 
0.25 2689:1 2690:1 3094:1 
0.1357763699870869 91:1 424:1 3138:1 
0.25 2346:1 3139:1 3140:1 
0.09871003112472075 868:1 2040:1 2858:1 3123:1 3124:1 3125:1 3126:1 3127:1 3141:1 
0.2345983907454383 9:1 66:1 3142:1 
0.2167860859234367 647:1 1612:1 1942:1 3143:1 3144:1 
0.25 2690:1 2752:1 3094:1 
0.1999706921229225 149:1 332:1 3146:1 3147:1 
0.05745865689242453 1451:1 1579:1 3120:1 3152:1 3153:1 
0.25 671:1 868:1 3132:1 3157:1 
0.25 2689:1 2690:1 3094:1 
0.25 221:1 1441:1 3159:1 
0.076772026688471 444:1 1084:1 2381:1 2508:1 3165:1 
0.1624676296641967 9:1 263:1 335:1 3090:1 3102:1 3103:1 
0.25 1793:1 2116:1 3154:1 3166:1 
0.1825914471058462 1434:1 1464:1 2267:1 3167:1 3168:1 
0.25 15:1 1612:1 3080:1 3178:1 3184:1 3185:1 
0.25 26:1 879:1 1186:1 1448:1 
0.25 1083:1 1345:1 1346:1 
0.25 782:1 1105:1 1315:1 2526:1 3200:1 
0.25 251:1 599:1 
0.25 62:1 247:1 1692:1 
0.25 26:1 
0.25 71:1 1475:1 1793:1 3096:1 3097:1 3098:1 
0.01482356246124935 191:1 229:1 257:1 547:1 718:1 943:1 1264:1 3083:1 3084:1 
0.25 26:1 879:1 1186:1 1448:1 
0.25 15:1 1612:1 3178:1 3184:1 3208:1 
0.25 149:1 3210:1 3211:1 
0.25 319:1 604:1 605:1 3219:1 
0.25 26:1 
0.25 2574:1 3230:1 
0.168964868117939 66:1 559:1 560:1 1653:1 3231:1 
0.2227923511324009 325:1 802:1 3232:1 3233:1 
0.1635455039265991 42:1 697:1 2647:1 2988:1 
0.25 313:1 2995:1 3234:1 
0.25 231:1 271:1 2237:1 3236:1 
0.25 371:1 3237:1 3238:1 3239:1 
0.25 2563:1 3240:1 
0.25 649:1 668:1 1790:1 2201:1 2531:1 
0.25 1548:1 2072:1 3244:1 3245:1 
0.25 26:1 
0.06579958346380729 123:1 211:1 231:1 2145:1 3229:1 
0.25 412:1 3247:1 
0.25 711:1 3022:1 
0.0811243995551178 149:1 177:1 2643:1 3248:1 3249:1 
0.25 424:1 479:1 997:1 2173:1 
0.25 52:1 230:1 535:1 942:1 1056:1 1118:1 
0.25 111:1 
0.25 1027:1 1028:1 
0.25 681:1 3251:1 3252:1 3253:1 
0.2163768343278065 66:1 559:1 560:1 1653:1 3231:1 
0.2435274473222579 412:1 2077:1 2078:1 3058:1 3254:1 
0.25 371:1 3237:1 3238:1 3239:1 
0.0464865943223613 231:1 454:1 1434:1 3099:1 3100:1 
0.25 654:1 960:1 2063:1 
0.25 232:1 654:1 3260:1 
0.02741826858540744 232:1 654:1 1152:1 2063:1 
0.25 337:1 997:1 1039:1 2592:1 
0.25 84:1 322:1 323:1 324:1 
0.25 424:1 479:1 997:1 2173:1 
0.25 117:1 3263:1 3264:1 
0.25 91:1 3265:1 3266:1 3267:1 
0.25 9:1 2874:1 
0.2021220185156846 13:1 47:1 126:1 338:1 1069:1 1078:1 3269:1 3270:1 3271:1 3272:1 
0.01289770033612444 182:1 183:1 513:1 3096:1 
0.25 123:1 1186:1 3095:1 
0.25 155:1 458:1 
0.25 1131:1 3096:1 3278:1 3279:1 
0.08326934724898842 231:1 518:1 2892:1 3280:1 3281:1 
0.25 424:1 479:1 997:1 2173:1 
0.25 83:1 719:1 722:1 1530:1 
0.25 681:1 3251:1 3252:1 3253:1 
0.2395890510495646 13:1 47:1 126:1 338:1 1069:1 1078:1 3269:1 3270:1 3271:1 3272:1 
0.25 3297:1 3298:1 3299:1 3300:1 
0.25 9:1 2874:1 
0.25 26:1 149:1 
0.25 155:1 458:1 
0.1595930397517881 1634:1 3282:1 3283:1 3284:1 
0.25 9:1 
0.25 91:1 768:1 3333:1 
0.25 496:1 1056:1 1118:1 1493:1 3336:1 
0.1987964757015687 116:1 331:1 3337:1 3338:1 
0.25 230:1 271:1 273:1 1604:1 1605:1 2711:1 3343:1 3344:1 3345:1 
0.2396924148849398 66:1 550:1 610:1 647:1 
0.25 123:1 1186:1 3095:1 
0.25 49:1 215:1 648:1 996:1 3152:1 
0.25 1027:1 1028:1 2520:1 3354:1 
0.25 182:1 183:1 185:1 656:1 
0.25 116:1 668:1 1585:1 3357:1 3358:1 
0.25 45:1 260:1 626:1 3319:1 
0.25 255:1 319:1 329:1 740:1 902:1 3361:1 
0.25 230:1 271:1 273:1 1604:1 1605:1 2711:1 3343:1 3344:1 3345:1 
0.25 652:1 653:1 654:1 
0.25 60:1 654:1 
0.25 91:1 1342:1 3374:1 3375:1 
0.25 1027:1 1028:1 2520:1 3354:1 
0.25 148:1 260:1 422:1 
0.0289923445912651 792:1 1501:1 1591:1 1668:1 2093:1 2729:1 3366:1 3367:1 3368:1 3369:1 
0.09160768323769285 45:1 626:1 3319:1 3320:1 
0.01758227682434097 251:1 950:1 1336:1 3349:1 3388:1 3389:1 
0.25 110:1 2362:1 3390:1 3391:1 3392:1 
0.25 401:1 505:1 642:1 1751:1 
0.25 260:1 538:1 740:1 
0.0101111686656036 75:1 1444:1 2052:1 3396:1 
0.25 182:1 183:1 185:1 756:1 3397:1 
0.25 1027:1 1028:1 2520:1 3354:1 
0.25 606:1 607:1 649:1 1926:1 3398:1 3399:1 
0.25 545:1 788:1 789:1 790:1 791:1 
0.25 545:1 788:1 789:1 790:1 791:1 
0.1605924988995692 62:1 247:1 1071:1 2314:1 3180:1 3181:1 
0.1777497824187297 36:1 68:1 271:1 1025:1 2987:1 3415:1 3416:1 
0.1831321746461738 148:1 1102:1 1152:1 1193:1 3409:1 3418:1 
0.043033724783196 76:1 943:1 2119:1 3080:1 3403:1 
0.25 148:1 1102:1 1152:1 1193:1 3409:1 3418:1 
0.2056490032328804 1106:1 1119:1 1444:1 3429:1 3430:1 3437:1 3438:1 
0.25 135:1 183:1 474:1 655:1 1734:1 1915:1 
0.1342070088279381 148:1 422:1 1696:1 3029:1 3366:1 3443:1 
0.02690631886859082 15:1 221:1 356:1 1152:1 1193:1 3446:1 3447:1 
0.25 610:1 3416:1 
0.25 545:1 788:1 789:1 790:1 791:1 
0.1541766985881369 91:1 3306:1 3455:1 3456:1 3457:1 3458:1 
0.25 610:1 3416:1 
0.25 42:1 2436:1 2437:1 3435:1 3436:1 
0.25 20:1 25:1 79:1 279:1 399:1 1056:1 
0.25 148:1 422:1 1696:1 3029:1 3366:1 3443:1 
0.25 2278:1 2528:1 3466:1 3471:1 3472:1 3473:1 3474:1 
0.2334514149450095 60:1 626:1 3475:1 3476:1 
0.25 231:1 379:1 1452:1 
0.25 39:1 1501:1 2093:1 3414:1 3440:1 
0.25 164:1 1384:1 1590:1 3485:1 3486:1 
0.25 20:1 817:1 3487:1 3488:1 3489:1 
0.25 42:1 3435:1 3436:1 
0.1135438003019322 535:1 874:1 942:1 2104:1 3496:1 3497:1 3498:1 
0.25 744:1 983:1 3499:1 3500:1 3501:1 
0.25 20:1 25:1 79:1 279:1 399:1 1056:1 
0.25 68:1 149:1 
0.25 3504:1 
0.06156643285803012 651:1 953:1 3505:1 
0.25 84:1 322:1 323:1 324:1 
0.09331634579809374 91:1 1043:1 2408:1 3507:1 3508:1 3509:1 
0.25 1773:1 3512:1 
0.1245798992439304 407:1 969:1 1034:1 1527:1 
0.25 2358:1 2360:1 
0.25 744:1 983:1 3499:1 3500:1 3501:1 
0.25 26:1 149:1 
0.07996907954120255 407:1 831:1 
0.25 164:1 1384:1 1590:1 3485:1 
0.25 1496:1 2115:1 2470:1 
0.25 454:1 799:1 1618:1 2637:1 
0.25 453:1 3355:1 3521:1 3522:1 
0.25 424:1 3524:1 3525:1 3526:1 
0.25 230:1 1190:1 1687:1 3487:1 3528:1 
0.25 1263:1 2455:1 3529:1 3530:1 3531:1 3532:1 
0.25 149:1 252:1 3533:1 
0.02388365821755462 42:1 339:1 704:1 2763:1 2954:1 3535:1 3536:1 
0.25 2358:1 2360:1 
0.081057324341839 149:1 1590:1 2182:1 2522:1 
0.25 319:1 604:1 605:1 785:1 
0.25 2712:1 3540:1 3541:1 
0.25 1033:1 2358:1 2360:1 
0.25 799:1 3550:1 3551:1 
0.06641249636311945 231:1 926:1 938:1 1234:1 3511:1 
0.25 424:1 3524:1 3525:1 3526:1 
0.03268913829671509 165:1 953:1 998:1 3561:1 3562:1 3563:1 
0.25 801:1 1095:1 3566:1 
0.06691855004964711 15:1 605:1 972:1 2980:1 3578:1 3579:1 3580:1 3581:1 
0.1212592771170898 10:1 2888:1 2891:1 3559:1 3560:1 
0.25 715:1 999:1 2199:1 2492:1 
0.06807800024496653 221:1 846:1 1056:1 2497:1 2498:1 
0.25 66:1 68:1 1164:1 1549:1 
0.25 1489:1 1774:1 3584:1 3585:1 
0.25 45:1 230:1 540:1 646:1 1190:1 1664:1 2183:1 
0.25 1286:1 1473:1 2559:1 
0.137181378177105 1286:1 1473:1 2559:1 
0.0836803688525818 12:1 131:1 391:1 2526:1 
0.25 3:1 71:1 250:1 1190:1 
0.25 251:1 255:1 3243:1 3605:1 
0.25 131:1 2160:1 3608:1 
0.25 625:1 1528:1 3437:1 3611:1 
0.25 574:1 1286:1 2699:1 3304:1 
0.01886160478908147 1033:1 1956:1 2358:1 2360:1 
0.25 3289:1 3612:1 3613:1 
0.05439411229025153 77:1 512:1 513:1 514:1 785:1 1179:1 3538:1 3539:1 
0.09699562822358823 227:1 1286:1 2195:1 3616:1 3617:1 
0.002374553518022109 2098:1 2240:1 2488:1 2570:1 2804:1 2808:1 
0.02820146869316678 27:1 614:1 1825:1 3505:1 3622:1 
0.25 3623:1 3624:1 
0.25 594:1 595:1 3625:1 3626:1 
0.1439405590482513 389:1 3627:1 
0.08609179568690792 55:1 68:1 69:1 894:1 921:1 2945:1 3288:1 3636:1 
0.25 1310:1 3637:1 
0.25 178:1 635:1 1103:1 1104:1 1493:1 1532:1 1533:1 2435:1 
0.25 1501:1 3227:1 3640:1 
0.25 149:1 951:1 3641:1 3642:1 
0.25 154:1 263:1 805:1 1463:1 
0.07804468021856495 420:1 1711:1 3051:1 3654:1 3655:1 3656:1 
0.25 45:1 303:1 1472:1 3614:1 
0.25 829:1 3658:1 3659:1 
0.25 651:1 1128:1 1153:1 
0.2225614448532968 443:1 2372:1 3564:1 3661:1 3662:1 
0.25 36:1 95:1 437:1 3666:1 
0.2322455918199414 326:1 1003:1 3667:1 3668:1 3669:1 3670:1 
0.1905735542995305 77:1 3671:1 3672:1 
0.177535134999112 182:1 183:1 185:1 321:1 322:1 
0.25 20:1 105:1 781:1 782:1 
0.2228862267235688 443:1 2372:1 3564:1 3661:1 3662:1 
0.25 2973:1 3389:1 3588:1 3684:1 
0.25 2425:1 2830:1 3381:1 
0.1647761622689966 857:1 1118:1 3686:1 
0.25 57:1 178:1 635:1 637:1 3687:1 
0.25 182:1 183:1 185:1 322:1 
0.25 66:1 614:1 1291:1 
0.25 66:1 1994:1 3289:1 
0.232503078395039 45:1 898:1 907:1 3692:1 3693:1 
0.25 154:1 263:1 805:1 1463:1 
0.25 651:1 960:1 3699:1 
0.25 326:1 1003:1 3667:1 3668:1 3669:1 3670:1 
0.25 84:1 322:1 323:1 324:1 
0.05714096021398803 230:1 326:1 2528:1 3668:1 3669:1 3670:1 3702:1 3703:1 
0.1549328633410619 313:1 1501:1 3234:1 
0.25 131:1 140:1 1469:1 3708:1 
0.25 1308:1 1492:1 3710:1 
0.25 75:1 178:1 
0.04919779036115749 20:1 626:1 683:1 1462:1 2050:1 2989:1 3694:1 
0.25 1077:1 
0.25 107:1 858:1 873:1 874:1 1094:1 1209:1 
0.00846423248778517 41:1 1209:1 3712:1 3713:1 
0.2243691109454872 313:1 1501:1 3234:1 
0.25 182:1 183:1 185:1 461:1 
0.171322995937858 122:1 145:1 322:1 921:1 2670:1 3697:1 3698:1 3722:1 3723:1 
0.2054847977610847 1684:1 1685:1 3535:1 3724:1 
0.25 461:1 1341:1 
0.25 27:1 651:1 2693:1 
0.25 112:1 655:1 900:1 2264:1 2316:1 
0.25 713:1 3733:1 
0.25 385:1 512:1 713:1 
0.1273177634117693 66:1 154:1 3738:1 
0.1994111520702587 75:1 1942:1 1967:1 1968:1 
0.25 182:1 183:1 185:1 656:1 
0.25 404:1 627:1 848:1 2001:1 2077:1 2078:1 3741:1 
0.1167967416081182 494:1 576:1 715:1 2840:1 3707:1 
0.06656351286259823 184:1 925:1 2631:1 2654:1 
0.25 926:1 953:1 
0.05709021744575709 41:1 2638:1 3747:1 3748:1 
0.25 3724:1 3749:1 
0.25 340:1 529:1 2574:1 3750:1 
0.25 187:1 446:1 3752:1 
0.25 75:1 3759:1 
0.1120261755304792 13:1 205:1 600:1 601:1 955:1 2053:1 3765:1 3766:1 
0.2275992673057764 36:1 610:1 1179:1 1311:1 1505:1 3771:1 3772:1 3773:1 3774:1 3775:1 
0.02170313725066508 231:1 997:1 1448:1 2077:1 2078:1 2937:1 3661:1 3777:1 3778:1 
0.25 331:1 1992:1 
0.25 221:1 355:1 882:1 3572:1 
0.25 301:1 1377:1 3780:1 
0.25 69:1 168:1 521:1 3785:1 
0.25 1483:1 3786:1 
0.0504027780777592 41:1 2009:1 3753:1 3793:1 
0.25 220:1 1117:1 
0.25 20:1 183:1 185:1 321:1 322:1 
0.1079435788131129 1033:1 1099:1 2784:1 3794:1 3795:1 3796:1 
0.1330304740675539 105:1 279:1 412:1 1711:1 3675:1 3797:1 
0.25 2049:1 2529:1 2530:1 3801:1 3802:1 3803:1 
0.25 640:1 1106:1 2139:1 2140:1 3047:1 3804:1 
0.2469930787536126 191:1 322:1 1576:1 1704:1 2654:1 
0.227723708895978 68:1 1213:1 1377:1 3805:1 
0.25 861:1 3812:1 
0.25 8:1 66:1 2587:1 
0.03530035908379383 51:1 224:1 900:1 1001:1 1374:1 1375:1 2153:1 
0.205813497630472 45:1 443:1 1374:1 1375:1 1379:1 3816:1 
0.25 274:1 275:1 893:1 1938:1 2096:1 3748:1 3817:1 3818:1 
0.25 20:1 183:1 185:1 321:1 461:1 
0.25 1177:1 3810:1 
0.25 42:1 697:1 1805:1 3820:1 
0.25 27:1 407:1 871:1 873:1 2222:1 3821:1 3822:1 
0.1983032808092144 329:1 538:1 1306:1 1598:1 3088:1 3823:1 
0.25 329:1 2104:1 3278:1 3830:1 
0.25 156:1 1726:1 2552:1 3831:1 
0.25 74:1 778:1 3647:1 3832:1 3833:1 3834:1 3835:1 3836:1 
0.1987601329616356 17:1 69:1 221:1 1466:1 2190:1 3823:1 
0.1974862152289056 217:1 534:1 535:1 827:1 3842:1 3843:1 
0.25 827:1 1048:1 3844:1 3845:1 
0.25 319:1 604:1 605:1 2654:1 
0.25 667:1 1997:1 1998:1 2005:1 2276:1 3858:1 3859:1 
0.25 2145:1 2593:1 3860:1 
0.25 516:1 656:1 
0.25 313:1 3234:1 3417:1 3866:1 
0.03231373297117163 20:1 154:1 1141:1 2146:1 3868:1 3869:1 3870:1 
0.25 149:1 494:1 3871:1 3872:1 
0.1230667013305231 87:1 2209:1 
0.25 234:1 2451:1 
0.25 51:1 155:1 215:1 515:1 2262:1 2757:1 
0.25 667:1 1997:1 1998:1 2005:1 2276:1 3858:1 3859:1 
0.01781609468827662 75:1 2190:1 3790:1 3791:1 
0.1088851599496955 105:1 286:1 298:1 3734:1 
0.13161992665585 42:1 3854:1 
0.25 62:1 234:1 3884:1 
0.1089954041060378 42:1 697:1 3863:1 
0.1602351811255437 187:1 221:1 3654:1 3866:1 
0.05427713234205515 754:1 897:1 1779:1 2021:1 2617:1 2882:1 3885:1 3886:1 3887:1 
0.25 654:1 1024:1 1291:1 
0.2353717498544225 651:1 654:1 1542:1 1625:1 
0.1791875245417196 654:1 960:1 1542:1 1625:1 
0.25 62:1 2148:1 3256:1 3888:1 3889:1 3890:1 
0.25 3724:1 
0.25 2493:1 2498:1 3891:1 3892:1 
0.25 897:1 1779:1 2617:1 2882:1 3885:1 3893:1 
0.25 105:1 286:1 298:1 3734:1 
0.1035872040180208 208:1 541:1 1091:1 1539:1 3330:1 3865:1 
0.25 20:1 183:1 185:1 321:1 756:1 
0.1043029486634067 50:1 55:1 235:1 241:1 2623:1 3877:1 
0.2477662943958038 208:1 1091:1 3027:1 3907:1 3908:1 3909:1 
0.25 105:1 1876:1 3504:1 
0.1293291612288479 190:1 467:1 526:1 3910:1 
0.25 559:1 560:1 561:1 3912:1 
0.25 105:1 266:1 913:1 1111:1 3914:1 
0.25 1538:1 2267:1 
0.25 897:1 1779:1 2617:1 2882:1 3885:1 
0.25 182:1 183:1 185:1 756:1 
0.25 2645:1 3865:1 3919:1 
0.25 118:1 231:1 2371:1 3921:1 
0.25 516:1 656:1 
0.005142300743144469 165:1 2371:1 2599:1 
0.2297450262799998 208:1 1030:1 1091:1 3920:1 
0.25 651:1 
0.25 578:1 955:1 1047:1 1720:1 1761:1 3928:1 
0.24358189743667 1530:1 3929:1 3930:1 
0.2496979052780685 208:1 1030:1 1091:1 3920:1 
0.04230449426924103 440:1 441:1 1119:1 2183:1 3567:1 
0.05581159319836064 73:1 1078:1 1217:1 2146:1 3941:1 3942:1 
0.25 17:1 248:1 739:1 3943:1 
0.25 1530:1 3929:1 3930:1 
0.04332250480771051 208:1 1091:1 1105:1 1157:1 3695:1 
0.25 182:1 183:1 184:1 185:1 
0.25 1060:1 2973:1 3945:1 3946:1 3947:1 3948:1 
0.25 578:1 955:1 1047:1 1720:1 1761:1 3928:1 
0.25 149:1 685:1 1994:1 
0.25 2715:1 
0.08288528870791741 918:1 1530:1 3929:1 3949:1 3950:1 3951:1 3952:1 
0.25 117:1 714:1 1179:1 1373:1 
0.25 73:1 559:1 3837:1 3957:1 3958:1 3959:1 3960:1 
0.25 178:1 571:1 2042:1 2456:1 3017:1 3505:1 3964:1 
0.1630627006954455 232:1 1152:1 3972:1 
0.25 66:1 252:1 1324:1 3975:1 
0.2498522772542765 208:1 1091:1 1105:1 1157:1 3695:1 
0.001245348436520444 117:1 714:1 1179:1 
0.07946282368285783 182:1 183:1 185:1 321:1 322:1 
0.25 66:1 3148:1 
0.25 863:1 864:1 2674:1 
0.25 741:1 858:1 3985:1 
0.25 42:1 697:1 1381:1 1558:1 3986:1 3987:1 
0.1751602660300638 320:1 3007:1 3796:1 3940:1 3988:1 3989:1 3990:1 
0.1448444094041752 420:1 751:1 855:1 3991:1 3992:1 3993:1 3994:1 3995:1 
0.25 182:1 183:1 185:1 322:1 
0.1227457438269176 20:1 379:1 679:1 953:1 1395:1 4000:1 
0.25 2267:1 2981:1 4003:1 4004:1 4005:1 4006:1 
0.25 66:1 252:1 1324:1 3975:1 
0.003776487373064217 47:1 524:1 527:1 1040:1 1826:1 4008:1 4009:1 4010:1 4011:1 
0.2034904564665896 68:1 69:1 636:1 777:1 1943:1 3966:1 
0.25 403:1 474:1 4015:1 4016:1 
0.25 384:1 1807:1 
0.25 231:1 2876:1 4030:1 4031:1 
0.03875598052069932 432:1 3365:1 4032:1 4033:1 4034:1 4035:1 
0.1308825879780203 772:1 3654:1 4044:1 
0.02880154204289073 68:1 434:1 544:1 618:1 2004:1 2789:1 4053:1 4054:1 
0.25 286:1 548:1 838:1 4059:1 
0.25 14:1 742:1 3766:1 4060:1 
0.25 325:1 403:1 474:1 4069:1 4070:1 4071:1 
0.08022243500055258 40:1 432:1 847:1 1947:1 4022:1 4080:1 4081:1 4082:1 
0.2484667649892085 65:1 269:1 519:1 704:1 767:1 999:1 1517:1 4083:1 4084:1 
0.25 290:1 625:1 1409:1 4085:1 
0.2078293983780724 287:1 2072:1 4088:1 4089:1 
0.1716949081203896 65:1 284:1 778:1 1970:1 4096:1 4097:1 
0.25 688:1 803:1 902:1 1468:1 4101:1 
0.25 3900:1 4104:1 4105:1 4106:1 
0.25 69:1 4107:1 4108:1 
0.25 308:1 2089:1 3428:1 4109:1 4110:1 
0.25 1240:1 4111:1 4112:1 
0.25 27:1 2137:1 3717:1 4124:1 
0.25 255:1 266:1 1048:1 1825:1 2826:1 4126:1 4127:1 
0.25 224:1 231:1 
0.120453392509195 829:1 1154:1 1420:1 3458:1 4128:1 4129:1 4130:1 
0.25 767:1 2425:1 2758:1 4146:1 4147:1 
0.25 286:1 1701:1 
0.1679361673748766 321:1 2718:1 4165:1 4166:1 4167:1 
0.25 251:1 721:1 1350:1 3963:1 4170:1 
0.01237608660449722 6:1 21:1 326:1 1331:1 2600:1 4179:1 4180:1 
0.09575286564525731 414:1 766:1 2016:1 4182:1 4183:1 4184:1 
0.0946714948322805 51:1 155:1 234:1 2924:1 4185:1 
0.25 50:1 62:1 4186:1 
0.25 20:1 107:1 155:1 184:1 4192:1 4193:1 
0.25 400:1 2547:1 3170:1 3301:1 4207:1 4208:1 4209:1 
0.25 37:1 38:1 528:1 4210:1 
0.1746127756657552 194:1 3439:1 4211:1 
0.25 4217:1 4218:1 
0.25 21:1 40:1 234:1 449:1 4219:1 
0.07673350305024303 179:1 3080:1 3761:1 4220:1 
0.25 183:1 312:1 874:1 3381:1 4105:1 
0.25 325:1 764:1 2093:1 4228:1 4229:1 
0.1668183390736093 309:1 469:1 480:1 905:1 2651:1 4222:1 
0.25 224:1 306:1 1469:1 4222:1 4233:1 
0.25 1991:1 2252:1 4235:1 4236:1 
0.25 830:1 3619:1 4239:1 
0.1686520961869654 1857:1 3158:1 4245:1 4246:1 4247:1 4248:1 4249:1 4250:1 
0.25 3429:1 
0.25 287:1 2072:1 4088:1 4089:1 
0.25 14:1 1864:1 4142:1 4288:1 4289:1 4290:1 
0.25 141:1 314:1 4302:1 4303:1 4304:1 
0.25 440:1 441:1 3169:1 
0.25 711:1 1530:1 2404:1 4309:1 4310:1 4311:1 
0.25 57:1 1317:1 2056:1 2179:1 
0.05727196882403504 950:1 1257:1 1313:1 1314:1 1671:1 1758:1 3435:1 4319:1 
0.05670762649747239 34:1 287:1 420:1 610:1 3651:1 4095:1 4325:1 4326:1 4327:1 4328:1 
0.25 44:1 79:1 434:1 3330:1 
0.1683216542167465 4337:1 4338:1 
0.25 3900:1 4104:1 4106:1 4343:1 
0.0688894887656586 60:1 2355:1 3203:1 4349:1 
0.25 4337:1 4338:1 
0.02695864468411827 28:1 587:1 4283:1 4285:1 
0.25 209:1 231:1 322:1 707:1 1223:1 3624:1 
0.004773648045740274 286:1 1070:1 1701:1 4374:1 
0.1670125398417005 136:1 141:1 450:1 493:1 1410:1 1445:1 4330:1 
0.25 73:1 1970:1 3336:1 4376:1 4377:1 4378:1 
0.03598805109825322 88:1 89:1 412:1 880:1 1332:1 4383:1 4384:1 
0.25 2719:1 4385:1 4386:1 4387:1 
0.25 1151:1 2980:1 3182:1 3435:1 4388:1 
0.1800502844229813 940:1 1947:1 2984:1 4391:1 4392:1 4393:1 
0.25 35:1 40:1 255:1 4133:1 4394:1 
0.25 37:1 38:1 40:1 41:1 963:1 4395:1 
0.25 1876:1 2526:1 
0.07251388301017642 2449:1 2623:1 4223:1 4396:1 
0.05054680298545046 1494:1 2243:1 2651:1 4401:1 
0.05458045375109234 286:1 412:1 1409:1 
0.25 73:1 174:1 1366:1 2984:1 4408:1 
0.25 21:1 1971:1 2440:1 3924:1 4411:1 4412:1 4413:1 
0.25 105:1 521:1 3591:1 4417:1 
0.04287572922679797 107:1 110:1 112:1 155:1 576:1 3332:1 4193:1 
0.1089352691871916 432:1 767:1 1239:1 4418:1 4419:1 
0.25 9:1 276:1 
0.25 2341:1 4297:1 4422:1 4423:1 4424:1 
0.25 1226:1 3677:1 4050:1 4428:1 4429:1 4430:1 4431:1 
0.25 662:1 3890:1 4432:1 
0.25 69:1 2380:1 4107:1 4108:1 
0.25 1428:1 4433:1 
0.25 116:1 285:1 666:1 
0.25 434:1 599:1 679:1 1664:1 4441:1 4442:1 
0.1498669671660599 687:1 1947:1 2622:1 4451:1 
0.25 65:1 1464:1 4458:1 4459:1 4460:1 4461:1 
0.25 687:1 950:1 4462:1 4463:1 4464:1 4465:1 
0.25 98:1 122:1 325:1 4472:1 4473:1 
0.25 20:1 79:1 231:1 988:1 1403:1 3934:1 4474:1 
0.25 1102:1 4476:1 
0.25 65:1 255:1 1151:1 3131:1 
0.1198440730539538 480:1 2863:1 2864:1 3051:1 
0.25 98:1 1895:1 4479:1 4480:1 4481:1 4482:1 4483:1 
0.25 8:1 944:1 1449:1 2570:1 4485:1 4486:1 
0.03055842671911659 60:1 3282:1 3622:1 4498:1 4499:1 4500:1 4501:1 
0.25 767:1 2583:1 4388:1 4389:1 4390:1 
0.25 325:1 4503:1 
0.1837180673131325 15:1 270:1 1313:1 1314:1 1518:1 2980:1 3435:1 4504:1 4505:1 
0.25 14:1 1864:1 4346:1 4510:1 4511:1 
0.25 15:1 322:1 1288:1 4488:1 4512:1 4513:1 
0.07782248177127588 107:1 266:1 902:1 917:1 1252:1 1693:1 3499:1 4514:1 4515:1 
0.25 107:1 1146:1 2304:1 
0.25 1273:1 2922:1 4516:1 4517:1 
0.25 559:1 560:1 881:1 
0.25 20:1 187:1 208:1 1867:1 4041:1 4520:1 
0.25 14:1 187:1 287:1 543:1 2072:1 2399:1 4521:1 4522:1 4523:1 4524:1 4525:1 
0.25 1470:1 1896:1 2980:1 
0.2061516999669022 1039:1 1577:1 
0.25 20:1 79:1 929:1 1403:1 3934:1 4535:1 
0.08875380416960151 567:1 651:1 1449:1 3227:1 3610:1 3617:1 4545:1 4546:1 4547:1 
0.25 55:1 1235:1 1618:1 2509:1 3587:1 4058:1 4388:1 4548:1 
0.25 15:1 42:1 3854:1 
0.1800722191653406 78:1 247:1 379:1 412:1 1692:1 4534:1 
0.1146868201777728 21:1 122:1 679:1 1602:1 3062:1 3138:1 4552:1 4553:1 
0.25 9:1 683:1 4555:1 
0.25 2840:1 4557:1 4558:1 
0.04058470763498393 79:1 929:1 4186:1 
0.06619404078821363 50:1 107:1 3368:1 4186:1 4565:1 
0.25 1039:1 3070:1 4566:1 
0.25 2119:1 2351:1 2415:1 
0.2001834877436163 1:1 257:1 840:1 940:1 1504:1 1997:1 1998:1 4577:1 4578:1 
0.25 3220:1 
0.25 2466:1 3728:1 4581:1 4582:1 4583:1 4584:1 4585:1 
0.25 255:1 1882:1 3406:1 4587:1 4588:1 
0.1833464480970366 20:1 21:1 479:1 1330:1 4193:1 
0.25 933:1 983:1 
0.1414388235498988 127:1 830:1 2573:1 3619:1 4239:1 
0.25 3226:1 4443:1 4600:1 4601:1 4602:1 4603:1 
0.07387958401305325 20:1 286:1 718:1 2656:1 2929:1 4379:1 4380:1 4381:1 4382:1 
0.25 111:1 114:1 115:1 371:1 434:1 
0.25 5:1 285:1 1361:1 4181:1 4606:1 
0.25 47:1 2717:1 4607:1 4608:1 4609:1 4610:1 4611:1 4612:1 4613:1 4614:1 4615:1 
0.25 325:1 4503:1 
0.25 60:1 3282:1 3622:1 4498:1 4499:1 4500:1 4501:1 
0.09904460973218421 736:1 835:1 1264:1 1311:1 4035:1 4267:1 4377:1 4617:1 4618:1 4619:1 4620:1 
0.25 231:1 243:1 4621:1 4622:1 
0.25 2719:1 4385:1 4386:1 4387:1 
0.25 1292:1 1468:1 1469:1 4237:1 4627:1 
0.25 1102:1 4476:1 
0.25 681:1 4628:1 
0.25 1309:1 1692:1 2441:1 4633:1 
0.25 133:1 308:1 322:1 2660:1 4643:1 4644:1 4645:1 
0.25 898:1 4038:1 4641:1 4646:1 4647:1 4648:1 
0.25 749:1 4658:1 
0.25 1260:1 2009:1 4661:1 4662:1 
0.1029319374014393 208:1 556:1 1170:1 1221:1 4665:1 
0.25 133:1 308:1 714:1 2660:1 4643:1 
0.25 4:1 526:1 1110:1 
0.01882060258567557 1465:1 1576:1 2418:1 3728:1 
0.25 386:1 785:1 2214:1 
0.25 410:1 546:1 4674:1 4675:1 
0.25 20:1 208:1 1234:1 2526:1 3872:1 4692:1 
0.25 612:1 4621:1 4699:1 
0.08728037583847732 249:1 718:1 745:1 2876:1 4700:1 4701:1 
0.25 290:1 486:1 4702:1 4703:1 4704:1 
0.009022725472481789 270:1 555:1 1012:1 1268:1 1632:1 2719:1 4386:1 
0.109006546209789 51:1 112:1 2547:1 3935:1 4028:1 4207:1 
0.25 992:1 3569:1 4717:1 4718:1 
0.1835453649129005 5:1 208:1 544:1 567:1 830:1 2302:1 4722:1 
0.25 924:1 1309:1 1734:1 
0.25 73:1 1986:1 3389:1 3392:1 4729:1 
0.0786898081818245 9:1 427:1 1166:1 1234:1 1756:1 4732:1 4733:1 4734:1 
0.25 65:1 687:1 1236:1 1632:1 1829:1 2835:1 4735:1 
0.25 208:1 626:1 679:1 2440:1 
0.25 225:1 3468:1 4749:1 4750:1 
0.25 65:1 208:1 227:1 385:1 688:1 3812:1 4755:1 4756:1 
0.25 1218:1 1644:1 4322:1 4349:1 4757:1 4758:1 
0.25 1643:1 4763:1 
0.25 319:1 749:1 997:1 4254:1 4769:1 
0.1024646196226815 21:1 1171:1 2449:1 4168:1 4771:1 
0.25 442:1 1463:1 4614:1 
0.02662419684444684 167:1 778:1 1444:1 2243:1 4052:1 4735:1 4776:1 
0.01165815878030105 290:1 432:1 767:1 1239:1 1583:1 4777:1 4778:1 
0.007256753721986846 767:1 1714:1 
0.25 131:1 229:1 420:1 808:1 985:1 3051:1 4782:1 
0.1591296017835519 718:1 1108:1 3573:1 4321:1 4784:1 4785:1 
0.25 399:1 544:1 1186:1 1396:1 3138:1 3499:1 
0.25 208:1 827:1 2572:1 3934:1 4135:1 4786:1 
0.2360516132497783 754:1 4405:1 4638:1 4789:1 4790:1 4791:1 
0.25 1179:1 1542:1 1608:1 1989:1 3101:1 4212:1 4471:1 4792:1 4793:1 
0.03116528621347276 65:1 208:1 385:1 410:1 546:1 749:1 3224:1 
0.01820837525439648 518:1 589:1 799:1 1415:1 2041:1 4294:1 4796:1 4797:1 
0.25 2072:1 2556:1 3298:1 3389:1 4008:1 4799:1 4800:1 4801:1 
0.002487544649753353 333:1 681:1 1164:1 1693:1 1888:1 2875:1 
0.25 208:1 949:1 4543:1 
0.25 208:1 1056:1 3085:1 
0.25 1332:1 2304:1 4806:1 
0.02051748326025843 224:1 379:1 540:1 882:1 1525:1 1888:1 4388:1 4810:1 4811:1 
0.25 21:1 4814:1 4815:1 4816:1 
0.03951883415626206 92:1 371:1 399:1 4824:1 4825:1 
0.01662089944890259 29:1 327:1 328:1 1660:1 2076:1 4144:1 4718:1 4828:1 4829:1 4830:1 
0.25 40:1 187:1 354:1 448:1 449:1 450:1 451:1 4832:1 
0.25 637:1 681:1 1436:1 2187:1 4759:1 4840:1 
0.25 208:1 321:1 385:1 
0.2225468479169862 41:1 260:1 376:1 377:1 1226:1 3511:1 3776:1 4116:1 4849:1 
0.25 208:1 321:1 385:1 
0.25 315:1 766:1 1186:1 1299:1 2660:1 3259:1 
0.25 4861:1 
0.112090116547958 76:1 208:1 353:1 1959:1 2930:1 4862:1 
0.25 4111:1 4863:1 4864:1 
0.0687354095246769 3220:1 4869:1 4870:1 4871:1 
0.2306741444256598 3220:1 4869:1 4871:1 4872:1 
0.2492324473436842 3220:1 4869:1 4870:1 4871:1 
0.25 3220:1 
0.25 3220:1 
0.25 199:1 449:1 4877:1 
0.25 507:1 546:1 573:1 1339:1 4130:1 4878:1 
0.09519204709580013 2393:1 4508:1 4885:1 4886:1 4887:1 4888:1 
0.25 453:1 882:1 1572:1 2471:1 4158:1 4892:1 4893:1 
0.04903584560854397 230:1 1186:1 1226:1 2623:1 4894:1 
0.02155460018296634 69:1 687:1 3809:1 4373:1 4905:1 4906:1 
0.25 92:1 4907:1 
0.05127604444727466 584:1 1134:1 3573:1 4910:1 
0.25 1701:1 3809:1 
0.01249859435690056 1226:1 2687:1 4911:1 
0.25 361:1 2674:1 4912:1 
0.25 20:1 399:1 641:1 4149:1 
0.25 229:1 902:1 
0.2350889673728853 2566:1 2623:1 3450:1 
0.07423114464266806 39:1 231:1 1418:1 3512:1 4918:1 
0.25 285:1 1829:1 2195:1 3461:1 4919:1 4920:1 4921:1 4922:1 
0.25 151:1 185:1 347:1 4913:1 
0.25 916:1 
0.08481163180311327 567:1 573:1 1453:1 2364:1 4924:1 4925:1 
0.25 1385:1 4768:1 4926:1 4927:1 
0.25 526:1 
0.25 17:1 4930:1 4931:1 4932:1 4933:1 
0.01840431657976891 290:1 4151:1 4269:1 4468:1 4837:1 
0.25 62:1 112:1 185:1 396:1 1198:1 3256:1 
0.2323660834552521 187:1 792:1 1428:1 1970:1 4939:1 
0.25 18:1 22:1 319:1 1738:1 4941:1 4942:1 
0.25 155:1 199:1 449:1 450:1 451:1 1409:1 
0.05046755630068603 327:1 484:1 1257:1 1329:1 2231:1 4949:1 
0.07377567529298946 718:1 1179:1 1204:1 3173:1 4364:1 4471:1 
0.25 1165:1 1354:1 2072:1 3711:1 3764:1 4153:1 
0.0642284762690627 442:1 1259:1 1644:1 
0.1497305766125767 170:1 225:1 3468:1 4749:1 4750:1 
0.2113051448376626 171:1 407:1 546:1 567:1 1041:1 1339:1 4953:1 4954:1 
0.1329887626482542 76:1 208:1 353:1 1959:1 2930:1 4862:1 
0.00272347889311464 87:1 480:1 1418:1 4960:1 4961:1 4962:1 
0.25 4338:1 
0.25 437:1 774:1 1385:1 3362:1 3622:1 4976:1 4977:1 
0.25 1759:1 4978:1 4979:1 4980:1 
0.1208118576457316 229:1 526:1 902:1 4236:1 4989:1 4990:1 
0.04111905743141959 542:1 4089:1 
0.25 216:1 412:1 685:1 4418:1 4445:1 4446:1 4994:1 
0.25 707:1 5003:1 5004:1 5005:1 
0.25 707:1 5003:1 5004:1 5005:1 
0.248870595537849 65:1 953:1 4972:1 5007:1 5008:1 5009:1 
0.1443775584957283 182:1 480:1 1787:1 3006:1 4147:1 4445:1 4446:1 5013:1 
0.01894075294984517 1288:1 2453:1 2553:1 3289:1 3365:1 4040:1 5016:1 
0.225294568630893 65:1 1134:1 1598:1 1770:1 2863:1 4040:1 5016:1 5017:1 
0.1621981683813259 687:1 4373:1 5027:1 5028:1 
0.1153988280520771 327:1 328:1 465:1 466:1 499:1 5029:1 
0.01264609994356611 327:1 328:1 1291:1 5039:1 
0.1853130675443991 21:1 67:1 131:1 473:1 961:1 1297:1 1443:1 4397:1 
0.004308298898514296 25:1 327:1 328:1 474:1 5043:1 5044:1 5045:1 
0.25 479:1 559:1 560:1 1134:1 1804:1 2467:1 
0.06917868277082331 285:1 1947:1 2717:1 3461:1 5046:1 5047:1 
0.25 46:1 1520:1 1829:1 5048:1 5049:1 5050:1 5051:1 
0.105730956781131 148:1 347:1 648:1 677:1 5062:1 5063:1 5064:1 
0.1874678311232601 231:1 327:1 328:1 1159:1 4213:1 4397:1 5082:1 
0.25 398:1 1039:1 4230:1 5086:1 5087:1 5088:1 5089:1 5090:1 
0.25 4010:1 4056:1 4245:1 5097:1 5098:1 5099:1 
0.05523867716962781 944:1 1174:1 1175:1 4397:1 5100:1 
0.25 122:1 559:1 954:1 1503:1 2017:1 
0.25 2679:1 2681:1 5103:1 5104:1 5105:1 
0.25 1398:1 4514:1 5106:1 5107:1 
0.1039878728144778 407:1 559:1 560:1 769:1 3325:1 3846:1 5113:1 5114:1 5115:1 
0.25 314:1 5124:1 5125:1 
0.25 701:1 2702:1 4463:1 5046:1 5132:1 
0.06865524000491183 138:1 676:1 3048:1 5146:1 5147:1 5148:1 5149:1 5150:1 5151:1 5152:1 5153:1 
0.25 327:1 328:1 5039:1 
0.002668474637219071 371:1 571:1 1311:1 1958:1 5172:1 5173:1 
0.04142205756094865 9:1 4539:1 
0.25 9:1 4539:1 
0.25 365:1 767:1 1394:1 4741:1 5200:1 5201:1 5202:1 
0.25 371:1 
0.104105977916018 284:1 2302:1 4707:1 4867:1 4986:1 
0.25 151:1 3812:1 
0.25 208:1 559:1 560:1 1144:1 1577:1 5220:1 
0.1265153794756401 15:1 456:1 4322:1 4334:1 5225:1 
0.25 589:1 765:1 2635:1 4101:1 4797:1 5226:1 
0.25 26:1 183:1 1048:1 1907:1 4009:1 4584:1 4585:1 
0.25 230:1 1146:1 3008:1 5227:1 
0.25 5236:1 5237:1 5238:1 
0.25 151:1 185:1 527:1 
0.25 424:1 2589:1 2691:1 5240:1 5241:1 5242:1 5243:1 
0.25 1284:1 4582:1 5244:1 5245:1 
0.25 231:1 434:1 4376:1 4591:1 5252:1 5253:1 
0.25 292:1 420:1 1877:1 4160:1 5256:1 5257:1 
0.01594905640570555 1186:1 1198:1 1833:1 1850:1 4357:1 
0.1737811789652022 1342:1 2169:1 3592:1 5264:1 5265:1 5266:1 
0.25 403:1 1644:1 3575:1 4599:1 4910:1 
0.25 1186:1 1696:1 4016:1 5273:1 5274:1 5275:1 
0.25 992:1 5268:1 5291:1 
0.1237234179067628 21:1 155:1 208:1 870:1 3300:1 4453:1 4786:1 5292:1 
0.25 665:1 798:1 799:1 4850:1 
0.25 151:1 185:1 347:1 2465:1 4913:1 
0.25 1271:1 1564:1 1784:1 4321:1 
0.25 13:1 1170:1 1643:1 2003:1 3831:1 3876:1 
0.1274056360734091 615:1 1508:1 2623:1 4974:1 5311:1 5312:1 
0.25 46:1 306:1 516:1 
0.25 387:1 2160:1 4931:1 5322:1 5323:1 
0.25 407:1 744:1 3999:1 5254:1 5324:1 5325:1 5326:1 
0.0348945693650383 21:1 850:1 3745:1 
0.2201746395384565 1147:1 4080:1 5339:1 5340:1 
0.1185480937586862 2574:1 3171:1 5341:1 5342:1 5343:1 
0.25 1147:1 4080:1 5339:1 5340:1 
0.03997560288269897 470:1 547:1 1772:1 2004:1 3091:1 
0.25 1812:1 5148:1 5345:1 5346:1 5347:1 5348:1 
0.06262835026509825 1165:1 2635:1 4061:1 4301:1 4415:1 4416:1 5356:1 5357:1 
0.02002591839722766 65:1 745:1 1224:1 1585:1 1840:1 3900:1 4735:1 
0.2036033758695907 627:1 628:1 1792:1 3289:1 4752:1 5366:1 
0.25 286:1 287:1 356:1 1858:1 5072:1 5073:1 5074:1 
0.25 1608:1 2691:1 2721:1 5240:1 5377:1 5378:1 
0.2127664076566158 138:1 1072:1 1759:1 4064:1 5055:1 5379:1 
0.05866754117454284 65:1 209:1 284:1 708:1 749:1 2059:1 
0.25 286:1 287:1 356:1 1858:1 5072:1 5073:1 5074:1 
0.1551905238427571 1033:1 2123:1 2358:1 2360:1 3770:1 5381:1 
0.07680190997799477 627:1 628:1 1305:1 1379:1 1745:1 5385:1 5386:1 5387:1 5388:1 
0.25 20:1 227:1 5389:1 
0.25 255:1 5406:1 
0.160923834434145 37:1 38:1 407:1 1645:1 5407:1 5408:1 5409:1 5410:1 
0.25 2702:1 3297:1 4081:1 4406:1 5411:1 
0.25 290:1 4269:1 
0.25 2486:1 4056:1 4897:1 5413:1 5414:1 
0.248713502766839 363:1 3165:1 5415:1 5416:1 5417:1 5418:1 
0.25 354:1 5420:1 5421:1 
0.1646494931079159 40:1 197:1 603:1 1641:1 1863:1 5422:1 
0.25 37:1 38:1 700:1 856:1 1645:1 5101:1 5434:1 5435:1 5436:1 
0.25 224:1 226:1 702:1 
0.08817450347843842 1281:1 1630:1 5021:1 5022:1 5443:1 5444:1 
0.218154942424721 432:1 507:1 758:1 798:1 799:1 902:1 4850:1 
0.140805876292259 511:1 589:1 799:1 2635:1 4128:1 4194:1 4258:1 4691:1 4797:1 4909:1 5449:1 
0.25 290:1 417:1 1896:1 
0.25 2843:1 5457:1 
0.25 913:1 946:1 1186:1 1850:1 5459:1 5460:1 
0.1157946601014866 20:1 627:1 628:1 1379:1 5385:1 5386:1 5462:1 
0.08922992258335219 1021:1 1518:1 3764:1 4837:1 5464:1 
0.25 1389:1 5465:1 5466:1 5467:1 5468:1 5469:1 
0.25 107:1 266:1 1351:1 1780:1 4515:1 
0.02675406088827834 739:1 2493:1 4105:1 5472:1 5473:1 
0.25 1330:1 2153:1 5418:1 5474:1 5475:1 
0.06013198585157507 615:1 1622:1 3316:1 5477:1 5478:1 5479:1 5480:1 
0.25 1328:1 5148:1 5484:1 
0.25 107:1 266:1 576:1 2858:1 4123:1 4515:1 5487:1 
0.2158042170862456 231:1 403:1 525:1 978:1 2614:1 5032:1 5033:1 
0.25 1203:1 1453:1 4043:1 4753:1 5488:1 
0.25 368:1 631:1 632:1 940:1 2622:1 3898:1 
0.1337555317893773 627:1 628:1 1792:1 3289:1 4752:1 5366:1 
0.02888798113597337 37:1 38:1 199:1 820:1 898:1 1025:1 2009:1 5041:1 5496:1 
0.2185305255694718 407:1 1524:1 5386:1 5499:1 5500:1 5501:1 5502:1 5503:1 
0.25 1133:1 4931:1 5391:1 5505:1 5506:1 
0.25 1644:1 
0.1977680221807226 929:1 1335:1 2445:1 2857:1 5509:1 5510:1 5511:1 5512:1 
0.04995937699635655 211:1 2152:1 5516:1 5517:1 5518:1 
0.25 69:1 325:1 2671:1 3229:1 5401:1 
0.25 25:1 2954:1 5520:1 5521:1 
0.25 122:1 1111:1 5522:1 5523:1 
0.25 173:1 4910:1 5527:1 5528:1 
0.25 817:1 2200:1 5532:1 
0.128628039079998 77:1 1468:1 5349:1 5535:1 
0.25 2796:1 5481:1 5483:1 
0.1418787542802043 767:1 1237:1 1821:1 4182:1 5264:1 5536:1 
0.25 1059:1 1146:1 2133:1 2304:1 
0.25 819:1 1494:1 
0.25 101:1 778:1 3028:1 5548:1 
0.25 888:1 3680:1 4391:1 5550:1 5551:1 5552:1 
0.25 683:1 1425:1 2182:1 2869:1 4409:1 5553:1 
0.2017171748509474 1075:1 1947:1 1948:1 5554:1 5555:1 5556:1 5557:1 5558:1 5559:1 
0.25 8:1 84:1 155:1 396:1 652:1 3364:1 
0.043082035797647 497:1 507:1 1585:1 1808:1 1809:1 5560:1 5561:1 
0.25 482:1 3569:1 4056:1 5563:1 5564:1 5565:1 
0.2480549090745243 368:1 1497:1 1692:1 2243:1 4478:1 5566:1 5567:1 
0.25 1333:1 2441:1 2502:1 4023:1 5562:1 5572:1 
0.2286924927648509 497:1 507:1 1585:1 1808:1 1809:1 5560:1 5561:1 
0.1900878092347067 1151:1 2573:1 3286:1 4201:1 4388:1 4760:1 
0.25 389:1 827:1 2630:1 4135:1 
0.03202318661881545 199:1 205:1 417:1 3232:1 4850:1 5587:1 5588:1 
0.25 20:1 303:1 718:1 1702:1 
0.09392918229674328 589:1 2436:1 2622:1 2868:1 2949:1 3298:1 4797:1 4800:1 5168:1 5594:1 5595:1 5596:1 
0.25 234:1 1013:1 5597:1 5598:1 5599:1 
0.25 142:1 820:1 3269:1 3801:1 4819:1 5603:1 
0.25 20:1 174:1 396:1 787:1 
0.25 4186:1 
0.1319426614396993 50:1 787:1 4186:1 
0.25 1217:1 1383:1 1476:1 5613:1 5614:1 5615:1 5616:1 
0.25 2623:1 5623:1 
0.25 171:1 588:1 655:1 902:1 
0.25 772:1 2185:1 2304:1 3316:1 
0.02256757560692298 850:1 2004:1 2059:1 2293:1 3769:1 4253:1 4604:1 5626:1 
0.25 363:1 3165:1 5415:1 5416:1 5417:1 
0.25 1391:1 2072:1 5627:1 5628:1 5629:1 
0.2318247352499059 424:1 4234:1 4547:1 5630:1 5631:1 5632:1 
0.25 4494:1 5634:1 
0.25 105:1 595:1 902:1 
0.01682035424315745 131:1 420:1 610:1 
0.1526796221432574 290:1 625:1 1409:1 1903:1 5640:1 5641:1 
0.009033433845471107 59:1 105:1 2464:1 3109:1 
0.25 105:1 1324:1 
0.1509059922734248 33:1 1020:1 1585:1 5575:1 5576:1 5577:1 5578:1 
0.25 589:1 2042:1 2949:1 4258:1 5595:1 5642:1 5643:1 5644:1 
0.25 167:1 1255:1 1630:1 5021:1 5534:1 5645:1 
0.1215896360736891 1004:1 2637:1 3282:1 5620:1 5621:1 5651:1 5652:1 
0.1038865187696417 588:1 812:1 880:1 5655:1 5656:1 
0.1533276641581533 724:1 727:1 1002:1 3217:1 3436:1 5268:1 5660:1 
0.2119812332098154 76:1 113:1 1316:1 2894:1 5128:1 
0.05806779688494704 1070:1 3658:1 5665:1 
0.25 325:1 403:1 474:1 4069:1 4070:1 4071:1 
0.25 450:1 1114:1 5111:1 5231:1 
0.2172968575093456 167:1 1630:1 5021:1 5022:1 5123:1 
0.25 155:1 550:1 
0.25 1321:1 2072:1 3269:1 5144:1 5361:1 
0.09909973257758284 231:1 2609:1 2679:1 3083:1 3282:1 5681:1 5682:1 
0.25 767:1 1075:1 1364:1 5683:1 5684:1 
0.1575601573562007 68:1 822:1 1213:1 1324:1 2375:1 
0.1176996355111619 231:1 4016:1 4785:1 5524:1 5525:1 5526:1 
0.25 950:1 1556:1 2205:1 4409:1 4725:1 
0.2463765206754837 503:1 1612:1 2027:1 3189:1 4227:1 4512:1 4592:1 5293:1 5639:1 
0.2386203367326339 21:1 40:1 90:1 5701:1 5702:1 
0.25 208:1 3924:1 5707:1 
0.09065711699200042 939:1 2102:1 3167:1 4056:1 4473:1 5708:1 5709:1 
0.2093600352720126 421:1 611:1 1728:1 4373:1 5711:1 5712:1 
0.05951695098991085 434:1 470:1 2243:1 3091:1 5702:1 
0.25 65:1 5357:1 
0.1860526869245264 429:1 681:1 5591:1 
0.25 27:1 906:1 927:1 2304:1 4268:1 5756:1 5757:1 
0.1997373149199759 322:1 414:1 799:1 1566:1 2016:1 3468:1 4508:1 4886:1 5186:1 5187:1 
0.004609321611578604 231:1 266:1 446:1 2837:1 2843:1 5767:1 5768:1 
0.25 121:1 442:1 768:1 769:1 2095:1 5771:1 5772:1 5773:1 
0.03551619339692678 67:1 105:1 412:1 519:1 869:1 3093:1 
0.25 1175:1 3160:1 5780:1 
0.25 5785:1 5786:1 5787:1 
0.25 3267:1 4249:1 5788:1 
0.25 167:1 197:1 985:1 5789:1 5790:1 5791:1 5792:1 5793:1 
0.01033966834148145 432:1 1515:1 4101:1 4258:1 4848:1 4849:1 5288:1 5393:1 5800:1 5801:1 
0.006725881823127073 391:1 2635:1 5802:1 5803:1 5804:1 
0.25 129:1 1177:1 2020:1 2948:1 4396:1 5808:1 
0.1038263583002655 25:1 238:1 287:1 2826:1 4138:1 5684:1 5810:1 
0.25 761:1 1061:1 3317:1 
0.25 175:1 3182:1 4058:1 5816:1 5817:1 5818:1 
0.25 167:1 586:1 985:1 1299:1 3255:1 3684:1 
0.05982162218493509 59:1 1002:1 1217:1 3139:1 5490:1 5647:1 5821:1 5822:1 
0.1374973779316847 208:1 321:1 385:1 1919:1 2572:1 5825:1 
0.1865206942211178 559:1 560:1 597:1 802:1 1165:1 1889:1 4061:1 5826:1 5827:1 5828:1 5829:1 
0.25 718:1 5000:1 
0.0890440067759351 37:1 38:1 199:1 432:1 588:1 1025:1 1410:1 3899:1 4531:1 5830:1 5831:1 
0.186828064788892 704:1 1692:1 1742:1 4122:1 5832:1 
0.25 1674:1 3076:1 4055:1 5654:1 5833:1 5834:1 5835:1 5836:1 
0.25 5837:1 5838:1 
0.05997078270234985 404:1 450:1 1339:1 4776:1 4925:1 4954:1 5841:1 5842:1 5843:1 
0.2471318218758846 1309:1 4158:1 4844:1 5846:1 5847:1 
0.09384893629040926 953:1 1500:1 2007:1 2615:1 5850:1 
0.25 1309:1 1673:1 2240:1 4364:1 
0.25 327:1 328:1 2568:1 4780:1 5856:1 
0.1076860421687856 14:1 287:1 3916:1 4794:1 5864:1 5865:1 
0.25 2408:1 2783:1 3075:1 5866:1 5867:1 
0.1594281174954358 339:1 1518:1 2436:1 3225:1 3468:1 5868:1 5869:1 5870:1 
0.1175425182259472 3220:1 3770:1 4353:1 
0.25 167:1 951:1 4037:1 4038:1 5879:1 5880:1 
0.1697368205506363 424:1 1036:1 3062:1 
0.1199766489485923 255:1 1186:1 1249:1 1313:1 1314:1 4818:1 5885:1 5886:1 5887:1 5888:1 
0.2086401281990017 127:1 2012:1 3926:1 4651:1 5897:1 5898:1 
0.141826761569267 906:1 1631:1 2185:1 2304:1 5756:1 
0.25 3094:1 4058:1 5817:1 5818:1 5900:1 5901:1 
0.25 20:1 638:1 
0.25 290:1 4151:1 4239:1 5740:1 5911:1 
0.25 429:1 681:1 5591:1 
0.25 1309:1 5151:1 5846:1 5847:1 
0.2475111544021069 2243:1 4772:1 5896:1 5916:1 5917:1 5918:1 
0.1282866324963032 25:1 33:1 371:1 2275:1 3712:1 5919:1 
0.25 3967:1 3968:1 5920:1 5921:1 5922:1 
0.25 704:1 2218:1 2617:1 3722:1 3887:1 5923:1 5924:1 
0.25 1151:1 1391:1 2016:1 5111:1 5930:1 
0.02828931809889307 231:1 510:1 3591:1 5720:1 
0.2437715822416662 51:1 1466:1 2897:1 3427:1 3938:1 5937:1 
0.25 559:1 560:1 798:1 799:1 954:1 955:1 956:1 5874:1 5875:1 
0.25 525:1 1528:1 2426:1 3439:1 
0.25 290:1 1903:1 4269:1 5944:1 
0.25 101:1 725:1 
0.02395001859580913 544:1 559:1 560:1 902:1 954:1 955:1 956:1 2360:1 3518:1 5945:1 
0.25 410:1 902:1 5227:1 5946:1 5947:1 5948:1 
0.1922080382520189 44:1 5873:1 5952:1 
0.1475923118986195 2583:1 3665:1 5806:1 5909:1 5955:1 5956:1 5957:1 
0.2196948707244419 480:1 2027:1 3609:1 4592:1 4991:1 5891:1 5892:1 
0.1888024110568993 2072:1 2452:1 3415:1 3728:1 4055:1 5006:1 5965:1 
0.1742496095528941 252:1 1124:1 1855:1 2243:1 2861:1 3014:1 4512:1 
0.25 801:1 907:1 1020:1 4518:1 4599:1 5256:1 5634:1 
0.25 2897:1 4776:1 4954:1 5841:1 5842:1 5980:1 
0.1939606617100753 11:1 480:1 1190:1 2416:1 5293:1 5978:1 
0.1055253742593676 988:1 1760:1 3107:1 3227:1 5084:1 5474:1 5985:1 5986:1 5987:1 5988:1 
0.25 1068:1 2858:1 5526:1 5959:1 5989:1 
0.25 20:1 38:1 217:1 963:1 4117:1 
0.25 199:1 788:1 789:1 1170:1 3257:1 5992:1 5993:1 
0.25 510:1 559:1 560:1 3061:1 5784:1 
0.25 3842:1 4157:1 4547:1 5185:1 5252:1 5994:1 
0.25 321:1 2718:1 5996:1 5997:1 
0.25 1186:1 6003:1 6004:1 
0.25 2425:1 
0.2405283846595178 41:1 2009:1 6010:1 6011:1 6012:1 
0.25 187:1 829:1 3754:1 6013:1 6014:1 6015:1 
0.09728361563226791 9:1 537:1 3690:1 5857:1 6016:1 6017:1 
0.1132848879161156 249:1 422:1 456:1 836:1 5239:1 5981:1 
0.2239772942251686 402:1 687:1 1072:1 1235:1 6027:1 6028:1 
0.07364103714160634 412:1 775:1 1239:1 4358:1 6023:1 6024:1 
0.25 331:1 2355:1 
0.004729174032880583 327:1 328:1 406:1 465:1 496:1 1838:1 6030:1 
0.25 3654:1 5078:1 5081:1 5379:1 6031:1 6032:1 
0.1126366139559922 39:1 191:1 798:1 799:1 1103:1 4258:1 4295:1 4296:1 5288:1 
0.25 208:1 1632:1 4963:1 6042:1 6043:1 
0.1131447079546011 1618:1 5350:1 5793:1 6046:1 6047:1 6048:1 
0.25 1956:1 3516:1 6056:1 
0.25 231:1 266:1 525:1 2837:1 2843:1 4583:1 5767:1 5768:1 6057:1 
0.03608789153738884 398:1 1039:1 2673:1 4269:1 4564:1 5086:1 5089:1 5090:1 5283:1 6037:1 
0.25 859:1 4405:1 4522:1 
0.25 25:1 37:1 38:1 1107:1 4117:1 6061:1 
0.04699051586503394 51:1 69:1 711:1 3083:1 4931:1 5015:1 
0.25 626:1 762:1 6065:1 
0.25 3131:1 6066:1 
0.25 367:1 420:1 2426:1 
0.25 95:1 1289:1 2072:1 3764:1 4035:1 6070:1 
0.1174971998347184 888:1 1807:1 3101:1 5868:1 
0.25 3512:1 4338:1 
0.08622478371288431 1845:1 1853:1 2501:1 3665:1 4453:1 5895:1 5896:1 6076:1 6077:1 6078:1 
0.25 688:1 1888:1 3610:1 4070:1 
0.25 98:1 171:1 172:1 764:1 857:1 1632:1 6080:1 6081:1 
0.25 337:1 4241:1 
0.0459106950413911 105:1 902:1 1825:1 3043:1 4357:1 6040:1 6085:1 
0.07276388772037849 521:1 767:1 1081:1 1082:1 6086:1 6087:1 6088:1 
0.08685829224623069 70:1 174:1 443:1 1317:1 1533:1 1796:1 2243:1 
0.05489368149229542 1309:1 3768:1 4603:1 6090:1 6091:1 
0.1960783498576076 576:1 595:1 741:1 2531:1 2679:1 5489:1 6092:1 6093:1 6094:1 
0.25 820:1 913:1 1931:1 4226:1 6101:1 6102:1 
0.25 112:1 281:1 282:1 283:1 1002:1 1003:1 1004:1 1005:1 4407:1 
0.1886390878910095 688:1 1150:1 2036:1 2149:1 2671:1 4779:1 5295:1 6106:1 
0.25 92:1 338:1 1470:1 1998:1 6107:1 6108:1 6109:1 
0.2265004002435541 143:1 155:1 718:1 1333:1 2074:1 6110:1 6111:1 6112:1 
0.25 8:1 101:1 396:1 816:1 2987:1 
0.25 4617:1 4618:1 5811:1 5824:1 6113:1 6114:1 
0.25 287:1 2072:1 3596:1 5640:1 6115:1 
0.25 687:1 940:1 1612:1 2212:1 6116:1 
0.25 1129:1 
0.25 1075:1 1082:1 3711:1 5640:1 
0.02169238939463384 685:1 3447:1 3978:1 4254:1 4437:1 4992:1 6117:1 
0.1214060026958722 98:1 2583:1 4648:1 5348:1 6118:1 6119:1 
0.2162676634227315 3255:1 4219:1 5800:1 6120:1 6121:1 6122:1 6123:1 
0.20430391353164 227:1 2583:1 4903:1 5909:1 6125:1 6126:1 
0.25 1077:1 1503:1 
0.25 363:1 364:1 505:1 1179:1 2721:1 3338:1 6135:1 
0.25 67:1 926:1 4997:1 5319:1 6138:1 6139:1 6140:1 
0.05367825871348146 3592:1 3654:1 6141:1 6142:1 6143:1 6144:1 6145:1 6146:1 6147:1 
0.25 1309:1 4070:1 
0.005079885745161142 27:1 420:1 454:1 6159:1 6160:1 
0.2221787588104582 1468:1 5293:1 5583:1 6167:1 6168:1 
0.25 687:1 1808:1 1809:1 6176:1 
0.25 704:1 3119:1 4748:1 6177:1 6178:1 6179:1 
0.25 224:1 1860:1 3291:1 5142:1 6180:1 6181:1 6182:1 
0.25 559:1 560:1 2377:1 5794:1 6188:1 
0.25 255:1 287:1 2992:1 4203:1 4525:1 4752:1 5164:1 
0.25 888:1 1020:1 1812:1 2196:1 6189:1 6190:1 6191:1 
0.25 26:1 57:1 656:1 3269:1 4553:1 6192:1 
0.1189118309674784 69:1 323:1 950:1 1129:1 3226:1 6193:1 6194:1 
0.25 904:1 1634:1 5528:1 6202:1 6203:1 6204:1 6205:1 
0.05998845203604315 707:1 1146:1 2169:1 4201:1 5986:1 6206:1 
0.25 2384:1 2676:1 4491:1 5405:1 6207:1 6208:1 6209:1 6210:1 
0.09796757247098266 490:1 944:1 4734:1 5685:1 5822:1 6211:1 
0.04613419471330744 42:1 3393:1 4011:1 4619:1 6212:1 6213:1 
0.25 983:1 2981:1 6214:1 
0.07938652400401555 258:1 4495:1 4617:1 4618:1 5811:1 5812:1 6215:1 6216:1 
0.0001028436877471228 424:1 1807:1 6217:1 6218:1 6219:1 
0.1038894157541371 2375:1 2540:1 4617:1 5811:1 6221:1 
0.1567630854090213 1381:1 1556:1 1948:1 6225:1 6226:1 6227:1 6228:1 
0.1992034377100443 287:1 1436:1 5005:1 6185:1 6186:1 6187:1 
0.25 208:1 1243:1 
0.1667765842738065 2352:1 3394:1 4245:1 6159:1 6238:1 6239:1 
0.07810582142063584 655:1 3712:1 5602:1 6242:1 6243:1 6244:1 6245:1 6246:1 6247:1 6248:1 6249:1 
0.1718174802392478 38:1 41:1 902:1 1465:1 1800:1 2440:1 6231:1 6253:1 
0.2493441208624679 327:1 328:1 342:1 1259:1 5209:1 5210:1 
0.25 131:1 584:1 603:1 
0.09177637249088534 620:1 717:1 3566:1 3794:1 4259:1 4848:1 6270:1 6271:1 6272:1 
0.04041656619858321 131:1 1146:1 2190:1 3768:1 
0.1656612973292108 751:1 1107:1 1164:1 1524:1 4117:1 
0.25 1597:1 4080:1 6276:1 
0.25 647:1 1146:1 1199:1 
0.03560519522721507 526:1 1329:1 1572:1 3302:1 3575:1 6286:1 
0.03459475508713014 432:1 662:1 1107:1 3255:1 4853:1 5455:1 5800:1 5839:1 6120:1 
0.25 551:1 587:1 4079:1 
0.25 950:1 1236:1 4236:1 6289:1 6290:1 
0.25 259:1 1154:1 4062:1 4459:1 5455:1 
0.01062369996532949 424:1 1807:1 6217:1 6218:1 6219:1 
0.25 482:1 2715:1 4016:1 6295:1 
0.25 133:1 6304:1 6305:1 6306:1 6307:1 6308:1 
0.1534774889365547 164:1 224:1 1825:1 1959:1 6310:1 6311:1 
0.25 824:1 3761:1 
0.25 2292:1 3284:1 5774:1 6323:1 
0.25 614:1 663:1 883:1 1254:1 2203:1 6324:1 
0.25 1773:1 1839:1 2516:1 
0.25 2240:1 3658:1 
0.25 38:1 112:1 963:1 4696:1 
0.25 542:1 3761:1 4971:1 
0.25 1070:1 3283:1 4468:1 
0.25 5754:1 6333:1 6334:1 6335:1 6336:1 6337:1 
0.116651804012006 950:1 1385:1 4064:1 4065:1 5740:1 6338:1 
0.07782759147733084 3842:1 4157:1 5185:1 5252:1 5474:1 
0.04413408218348119 1234:1 1599:1 2404:1 3327:1 4617:1 4726:1 5843:1 
0.06443100028330696 939:1 2691:1 3468:1 4076:1 4785:1 5335:1 5680:1 
0.25 41:1 352:1 438:1 1105:1 2643:1 
0.25 6349:1 6350:1 6351:1 
0.1561410473425587 234:1 537:1 3499:1 4760:1 5895:1 6218:1 6352:1 
0.25 1286:1 3138:1 6058:1 6353:1 6354:1 
0.25 6300:1 6356:1 
0.25 25:1 3568:1 4968:1 6362:1 6363:1 
0.25 231:1 774:1 
0.25 1129:1 
0.09671776106918355 407:1 812:1 6084:1 
0.1422175409388621 128:1 891:1 1086:1 4462:1 6375:1 6376:1 6377:1 6378:1 
0.2209593542670818 327:1 328:1 3462:1 3463:1 6379:1 6380:1 
0.25 972:1 1090:1 1722:1 4066:1 4643:1 5669:1 6250:1 6251:1 
0.1226025389491993 122:1 943:1 1123:1 2076:1 2426:1 6388:1 
0.25 101:1 2764:1 3875:1 4637:1 6389:1 
0.1692914938346085 100:1 101:1 2240:1 2285:1 6393:1 
0.25 3749:1 3993:1 5706:1 6400:1 
0.25 634:1 2455:1 4077:1 4937:1 
0.25 98:1 1129:1 3843:1 6410:1 
0.115051898040246 230:1 767:1 4225:1 4377:1 4480:1 4894:1 6412:1 6413:1 
0.25 65:1 555:1 6415:1 
0.25 123:1 359:1 679:1 2010:1 
0.1343826636883435 1641:1 2798:1 3712:1 6143:1 6242:1 6419:1 6420:1 6421:1 6422:1 
0.01494640525897475 754:1 3381:1 4651:1 4830:1 6424:1 6425:1 6426:1 6427:1 6428:1 
0.1209048988461048 126:1 744:1 1039:1 1112:1 1179:1 2488:1 2721:1 4564:1 6434:1 
0.05984456460766834 21:1 23:1 427:1 542:1 6435:1 
0.25 285:1 1165:1 6436:1 
0.05460348816197998 68:1 69:1 163:1 1805:1 3616:1 4335:1 5315:1 5534:1 
0.2440184264999669 723:1 739:1 1038:1 1186:1 5293:1 6444:1 
0.25 612:1 2196:1 
0.1265190050481665 51:1 537:1 3284:1 6448:1 6449:1 6450:1 6451:1 
0.25 20:1 421:1 4439:1 6458:1 
0.25 531:1 532:1 1077:1 3075:1 
0.1380252672502899 290:1 605:1 625:1 2966:1 
0.04335308308198309 231:1 764:1 982:1 1840:1 4334:1 
0.0410523083836607 321:1 2718:1 6461:1 6462:1 
0.25 1467:1 3265:1 4934:1 6464:1 6465:1 
0.22383783123273 3075:1 6112:1 6466:1 6467:1 6468:1 6469:1 6470:1 6471:1 
0.25 482:1 797:1 1086:1 2296:1 2802:1 3760:1 6074:1 6472:1 
0.25 50:1 537:1 4186:1 
0.25 46:1 226:1 312:1 4187:1 4188:1 4272:1 
0.06332335885991278 287:1 511:1 718:1 1129:1 4032:1 4033:1 6416:1 6417:1 
0.2025646806702492 15:1 225:1 3393:1 4064:1 4065:1 4217:1 6476:1 
0.25 557:1 2336:1 2337:1 4851:1 6480:1 6481:1 6482:1 
0.25 206:1 1186:1 1331:1 2180:1 4928:1 6483:1 
0.25 4401:1 4643:1 6487:1 
0.25 3:1 912:1 3444:1 5502:1 5959:1 6489:1 6490:1 
0.06183422242490352 274:1 5233:1 6495:1 6496:1 6497:1 
0.1707357185153006 3083:1 3676:1 4942:1 5574:1 6163:1 6164:1 6165:1 6166:1 
0.25 4293:1 4300:1 4593:1 6505:1 
0.1413255085969611 227:1 6506:1 6507:1 6508:1 
0.25 308:1 2252:1 3610:1 6512:1 6513:1 6514:1 
0.25 274:1 334:1 506:1 507:1 4512:1 6515:1 6516:1 6517:1 
0.25 261:1 262:1 407:1 871:1 4764:1 6518:1 6519:1 
0.25 722:1 1057:1 1058:1 6511:1 6520:1 
0.05863304677992635 766:1 1162:1 4092:1 6373:1 
0.25 1165:1 4651:1 5532:1 6424:1 6425:1 6426:1 6427:1 6428:1 
0.232932784847613 227:1 4082:1 5412:1 6523:1 6524:1 
0.06984847271944687 338:1 768:1 985:1 1445:1 1942:1 4774:1 6526:1 
0.25 2252:1 6527:1 
0.2371668623279072 480:1 1093:1 1801:1 4321:1 6529:1 
0.25 1269:1 6496:1 6497:1 6530:1 6531:1 
0.25 889:1 1162:1 6532:1 6533:1 
0.03898184983505656 20:1 208:1 226:1 1002:1 1502:1 1632:1 1692:1 6534:1 6535:1 6536:1 6537:1 
0.25 123:1 571:1 1331:1 2118:1 6540:1 
0.25 123:1 571:1 1331:1 2118:1 6540:1 
0.243175404848305 1903:1 2142:1 6454:1 
0.25 1260:1 2196:1 2289:1 
0.2253668828129073 1903:1 2142:1 6454:1 
0.25 23:1 427:1 542:1 6435:1 
0.25 51:1 689:1 785:1 4959:1 
0.06902439609834018 824:1 2003:1 3083:1 4576:1 6433:1 
0.1129820468458494 588:1 1430:1 3283:1 3297:1 6552:1 6553:1 
0.2428664970752576 363:1 364:1 2679:1 6559:1 6560:1 
0.25 363:1 364:1 2679:1 6559:1 6560:1 
0.02285709493278922 421:1 562:1 599:1 1023:1 4437:1 4992:1 5585:1 6555:1 6556:1 
0.2360606017733334 82:1 231:1 571:1 1540:1 4102:1 
0.2072199996634094 647:1 1615:1 2304:1 3451:1 5290:1 6084:1 
0.05895415210745004 526:1 799:1 865:1 2780:1 5767:1 6566:1 6567:1 
0.07985843662920815 319:1 766:1 1129:1 1820:1 1983:1 4492:1 6568:1 
0.25 812:1 6569:1 6570:1 
0.1065546774494516 410:1 531:1 546:1 6571:1 6572:1 
0.25 812:1 3482:1 6569:1 6570:1 
0.04977756579223196 137:1 767:1 6573:1 6574:1 6575:1 
0.08095223793125129 319:1 333:1 361:1 1060:1 1618:1 3284:1 
0.25 1292:1 1295:1 1950:1 
0.25 76:1 226:1 1355:1 1404:1 1855:1 3414:1 4995:1 5455:1 6587:1 
0.1380732843845863 101:1 1022:1 1565:1 4550:1 4637:1 6588:1 
0.25 137:1 2252:1 3826:1 4104:1 4147:1 5755:1 5947:1 6589:1 
0.02484297960480115 101:1 231:1 685:1 1919:1 2699:1 6599:1 
0.002924762637168413 1812:1 1896:1 3406:1 3435:1 3520:1 4232:1 6602:1 
0.25 27:1 255:1 287:1 2025:1 
0.1206322472655853 325:1 1556:1 1948:1 2876:1 6606:1 6607:1 
0.2234601298766315 1415:1 2858:1 4203:1 4914:1 5192:1 6608:1 6609:1 6610:1 
0.102086237266866 41:1 206:1 6612:1 
0.25 1445:1 2190:1 2796:1 
0.171804223521396 420:1 766:1 4009:1 4954:1 6614:1 
0.25 511:1 1424:1 1556:1 1948:1 1978:1 5351:1 
0.04507285909753656 321:1 2718:1 6618:1 6619:1 
0.25 101:1 669:1 707:1 4201:1 6620:1 
0.0004878219334680559 651:1 2169:1 5114:1 5265:1 6283:1 6624:1 6625:1 6626:1 6627:1 
0.1362778817471154 651:1 2169:1 5114:1 5265:1 6283:1 6624:1 6625:1 6626:1 6627:1 
0.25 46:1 185:1 3355:1 4173:1 
0.01550611469276175 457:1 925:1 3444:1 4061:1 4766:1 6652:1 6653:1 
0.25 1889:1 5184:1 5395:1 6655:1 6656:1 
0.25 155:1 234:1 2451:1 2924:1 4011:1 5296:1 
0.1127543412352887 1812:1 1896:1 3406:1 3435:1 3520:1 4232:1 6602:1 
0.25 651:1 1107:1 1855:1 3776:1 4206:1 5893:1 6283:1 
0.063079463662645 768:1 815:1 1890:1 1905:1 4924:1 
0.25 992:1 1443:1 4584:1 6665:1 6666:1 
0.003267952828439055 27:1 1542:1 3145:1 4234:1 
0.1777096808071655 27:1 1542:1 3145:1 4234:1 
0.1821929115772988 1150:1 2843:1 5114:1 
0.25 650:1 1070:1 1179:1 2721:1 
0.25 1226:1 1508:1 2743:1 5312:1 
0.25 650:1 1070:1 1179:1 2721:1 
0.25 1548:1 1826:1 2656:1 6673:1 
0.08200805216040385 625:1 6674:1 6675:1 
0.02113406414404548 10:1 412:1 799:1 1381:1 2222:1 4300:1 4603:1 6676:1 
0.003028716834046019 25:1 525:1 3807:1 4227:1 6031:1 6677:1 6678:1 
0.1717083356861606 325:1 1234:1 2858:1 5550:1 5706:1 
0.25 4:1 1234:1 3059:1 5531:1 6681:1 6682:1 
0.25 6685:1 
0.001736316930641684 707:1 917:1 1556:1 1948:1 2509:1 4353:1 4444:1 4571:1 5494:1 
0.25 1104:1 4025:1 6687:1 6688:1 
0.004591299606709682 553:1 3988:1 5372:1 6689:1 
0.25 105:1 320:1 1831:1 
0.01572576568752444 290:1 625:1 817:1 4371:1 5640:1 
0.08896814299525578 553:1 3988:1 5372:1 6689:1 
0.25 40:1 105:1 323:1 449:1 6692:1 
0.25 226:1 2623:1 2924:1 
0.03233205086608486 51:1 3255:1 6122:1 6693:1 
0.25 3909:1 
0.1384669839997932 17:1 594:1 595:1 1804:1 4623:1 6699:1 6700:1 
0.2062282104167344 636:1 1038:1 2624:1 4915:1 
0.1434473903563043 688:1 1556:1 1820:1 3489:1 4022:1 4444:1 6703:1 6704:1 
0.25 354:1 6333:1 6334:1 6335:1 6336:1 
0.25 636:1 1038:1 2624:1 4915:1 
0.04847942547107455 1703:1 1838:1 4023:1 4061:1 4445:1 6687:1 
0.25 231:1 1888:1 6721:1 
0.25 637:1 5453:1 6723:1 6724:1 6725:1 6726:1 
0.25 902:1 1025:1 1801:1 4766:1 4897:1 4954:1 
0.1467726724629287 895:1 4023:1 4210:1 5704:1 6026:1 6735:1 6736:1 6737:1 
0.05865584088366535 953:1 1528:1 3809:1 5591:1 
0.03622880812570006 25:1 525:1 3807:1 4227:1 6031:1 6677:1 6678:1 
0.25 222:1 519:1 537:1 550:1 772:1 1574:1 6265:1 
0.25 226:1 2623:1 2924:1 
0.25 238:1 1335:1 1738:1 6745:1 6746:1 
0.1212598674370157 120:1 1025:1 4766:1 5006:1 6350:1 6749:1 
0.1089182052980982 9:1 1300:1 1305:1 6750:1 
0.226617678039559 766:1 1565:1 4437:1 6752:1 6753:1 
0.1103727084386999 457:1 1515:1 2502:1 3075:1 4446:1 4766:1 6758:1 6759:1 
0.1241741471579332 27:1 98:1 1590:1 3192:1 4512:1 6005:1 6509:1 6770:1 
0.03175806906343804 687:1 769:1 1129:1 5971:1 6773:1 
0.25 20:1 269:1 830:1 1760:1 2256:1 2818:1 6045:1 
0.0156777098721738 27:1 420:1 454:1 6159:1 6160:1 
0.1524374271195139 594:1 3076:1 6781:1 6782:1 
0.002567612556527177 287:1 1518:1 4105:1 6063:1 6783:1 
0.04345175745621862 65:1 90:1 224:1 4735:1 6480:1 
0.25 1559:1 3076:1 4700:1 6791:1 6792:1 
0.235366227446065 625:1 6674:1 6675:1 
0.160928634493519 28:1 66:1 337:1 507:1 4115:1 4893:1 
0.25 486:1 1174:1 2272:1 3465:1 6793:1 
0.09178813637597683 165:1 320:1 333:1 713:1 6083:1 
0.006435085786579513 20:1 21:1 679:1 1324:1 3745:1 6795:1 
0.2450409895201701 2358:1 2517:1 5166:1 6797:1 6798:1 6799:1 6800:1 
0.25 40:1 448:1 449:1 463:1 1061:1 
0.1202179973371078 321:1 2718:1 6802:1 6803:1 
0.001199290439513424 249:1 255:1 496:1 503:1 562:1 718:1 1820:1 5892:1 6768:1 
0.1301480857956746 42:1 285:1 3202:1 4920:1 6808:1 6809:1 
0.25 50:1 1281:1 4186:1 
0.25 1428:1 4337:1 
0.07785504518081889 117:1 315:1 3167:1 4573:1 5460:1 6810:1 
0.25 50:1 792:1 4186:1 
0.25 1428:1 4337:1 
0.249572400969739 625:1 6674:1 6675:1 
0.1285657151211046 620:1 1086:1 1239:1 3775:1 3794:1 4258:1 5174:1 
0.02024887534609871 883:1 1002:1 1677:1 4716:1 5405:1 5522:1 5523:1 
0.1781569609095175 767:1 1081:1 1364:1 6825:1 
0.05487821597026758 73:1 131:1 521:1 2517:1 4331:1 5736:1 6826:1 
0.25 288:1 1415:1 1877:1 2061:1 3122:1 4701:1 6828:1 6829:1 
0.2132804954856105 287:1 1518:1 4105:1 6063:1 6783:1 
0.25 916:1 
0.06768548665224258 769:1 1129:1 1992:1 4937:1 6833:1 
0.07879925692409571 1239:1 1342:1 2096:1 2635:1 4191:1 4294:1 6834:1 
0.25 3768:1 
0.25 3768:1 
0.25 902:1 4911:1 5319:1 6281:1 6835:1 
0.25 89:1 1467:1 5069:1 5855:1 
0.09422951468434949 886:1 1151:1 1556:1 1736:1 1948:1 4571:1 6841:1 6842:1 6843:1 
0.25 625:1 6674:1 6675:1 
0.25 1577:1 2802:1 
0.25 127:1 231:1 5069:1 
0.25 12:1 189:1 389:1 1133:1 2029:1 3719:1 6852:1 6853:1 
0.25 284:1 323:1 1221:1 2066:1 6854:1 6855:1 6856:1 
0.25 127:1 231:1 5069:1 
0.1486185091577161 902:1 1308:1 1839:1 2173:1 4075:1 
0.2317482717271825 916:1 3592:1 5011:1 
0.25 766:1 3796:1 6864:1 
0.08238031802830423 535:1 1178:1 1664:1 1873:1 2008:1 4009:1 6865:1 
0.1146338574142265 42:1 1249:1 3766:1 6809:1 6868:1 6869:1 
0.25 290:1 4522:1 6870:1 
0.25 290:1 4522:1 6870:1 
0.25 1876:1 5198:1 6872:1 
0.144993248858019 127:1 287:1 2225:1 2738:1 4774:1 
0.25 127:1 287:1 2225:1 2738:1 4774:1 
0.25 105:1 196:1 708:1 982:1 1614:1 
0.230124553702042 27:1 519:1 1773:1 6877:1 6878:1 
0.1083408655343781 27:1 420:1 454:1 6159:1 6160:1 
0.2341947885946571 10:1 295:1 296:1 6885:1 6886:1 
0.003350288936157797 110:1 454:1 732:1 775:1 1433:1 1978:1 
0.25 10:1 295:1 296:1 6885:1 6886:1 
0.0270408981295245 112:1 593:1 767:1 1075:1 1080:1 1082:1 2906:1 4407:1 
0.09443545474658176 133:1 1288:1 1855:1 2199:1 5445:1 6888:1 6889:1 6890:1 
0.25 290:1 319:1 4151:1 4702:1 4703:1 6892:1 
0.25 290:1 319:1 4151:1 4702:1 4703:1 6892:1 
0.00292360002687552 446:1 802:1 1661:1 4613:1 6896:1 
0.25 829:1 1234:1 1793:1 1989:1 2523:1 4063:1 
0.25 829:1 1234:1 1793:1 1989:1 2523:1 4063:1 
0.141558160148077 39:1 127:1 2652:1 3085:1 4514:1 6903:1 6904:1 
0.25 3909:1 
0.25 226:1 1147:1 4531:1 4923:1 6537:1 6906:1 6907:1 6908:1 
0.25 1002:1 
0.25 6911:1 
0.2139483861561773 379:1 5338:1 5955:1 6918:1 
0.1250210499465292 603:1 1379:1 4077:1 5070:1 6922:1 6923:1 6924:1 
0.25 706:1 1324:1 3780:1 6925:1 6926:1 
0.1218921216915636 1025:1 1801:1 3242:1 4090:1 4766:1 
0.1392468017897053 247:1 412:1 6929:1 6930:1 
0.25 50:1 1477:1 2148:1 4186:1 
0.1124331758022397 715:1 4023:1 4055:1 4377:1 6931:1 
0.25 4511:1 
0.25 916:1 958:1 
0.25 131:1 1244:1 2363:1 
0.25 1136:1 3077:1 6230:1 6916:1 6927:1 6938:1 
0.1175251754573026 284:1 1876:1 2229:1 4441:1 5747:1 6319:1 6320:1 6942:1 
0.25 766:1 990:1 1585:1 6035:1 6946:1 
0.1414101376650369 2565:1 3728:1 4782:1 4970:1 
0.2257149129766118 741:1 1025:1 3520:1 4637:1 6594:1 6958:1 
0.152508103046081 170:1 1309:1 2692:1 6964:1 6965:1 6966:1 6967:1 
0.05821059606013539 68:1 688:1 1223:1 1565:1 3296:1 5585:1 
0.1832565321167582 69:1 687:1 4011:1 4020:1 4906:1 6975:1 
0.25 936:1 1483:1 1525:1 6977:1 6978:1 
0.2044055630447507 902:1 1508:1 1834:1 1889:1 6983:1 6984:1 6985:1 6986:1 
0.2118900108357656 21:1 6990:1 6991:1 
0.2095251756651555 442:1 1304:1 2179:1 3730:1 4331:1 6992:1 6993:1 6994:1 
0.25 507:1 871:1 1876:1 2256:1 3946:1 4200:1 6995:1 6996:1 
0.25 321:1 2718:1 6914:1 6998:1 
0.2157759500154431 25:1 939:1 2285:1 7001:1 7002:1 
0.25 205:1 1811:1 2035:1 3467:1 4282:1 5195:1 
0.1951908705446429 1843:1 2154:1 2364:1 3182:1 4364:1 4388:1 7003:1 7004:1 7005:1 
0.25 289:1 792:1 1106:1 3057:1 7011:1 7012:1 
0.1847109583422196 466:1 992:1 1174:1 4658:1 5209:1 6271:1 7013:1 7014:1 
0.25 711:1 
0.25 711:1 1703:1 
0.25 336:1 763:1 2965:1 4810:1 4932:1 7019:1 7020:1 7021:1 7022:1 
0.25 4617:1 4618:1 4948:1 6658:1 6806:1 
0.25 89:1 204:1 412:1 588:1 1247:1 1577:1 1579:1 
0.25 3592:1 3930:1 7024:1 
0.02429487433431891 363:1 364:1 1039:1 4269:1 4564:1 5283:1 6037:1 7027:1 7028:1 
0.1220980135259044 363:1 364:1 1039:1 4269:1 4564:1 5283:1 6037:1 7027:1 7028:1 
0.25 434:1 559:1 775:1 822:1 5750:1 7032:1 7033:1 
0.25 88:1 811:1 2065:1 4686:1 5855:1 
0.104433184695862 112:1 1039:1 1212:1 1465:1 1865:1 3054:1 4407:1 6686:1 7034:1 
0.25 2207:1 4037:1 4038:1 4141:1 7035:1 7036:1 7037:1 
0.25 339:1 945:1 946:1 7041:1 7042:1 7043:1 
0.25 799:1 1867:1 2035:1 3023:1 3051:1 
0.001721552883606865 9:1 912:1 1305:1 1835:1 2753:1 7044:1 7045:1 7046:1 
0.001628351648414889 719:1 2538:1 3712:1 4126:1 4358:1 7047:1 7048:1 7049:1 7050:1 
0.1454455336505949 446:1 1607:1 4157:1 7051:1 
0.09205566232113027 719:1 2538:1 3712:1 4126:1 4358:1 7047:1 7048:1 7049:1 7050:1 
0.25 435:1 
0.25 435:1 
0.25 767:1 1233:1 
0.0003896894316278821 486:1 526:1 2240:1 7063:1 
0.1539021430810926 623:1 895:1 3566:1 3846:1 4210:1 7054:1 
0.2092761492854427 486:1 526:1 2240:1 7063:1 
0.25 286:1 2228:1 4531:1 6459:1 6460:1 6487:1 
0.00625528634370947 506:1 507:1 950:1 1311:1 1559:1 7067:1 7068:1 7069:1 
0.1907793443998563 287:1 1518:1 2119:1 7070:1 
0.25 550:1 655:1 4683:1 5845:1 
2.752318217474903e-05 625:1 6674:1 6675:1 7074:1 7075:1 
0.07583800845498723 1129:1 1163:1 1311:1 1492:1 6646:1 7076:1 7077:1 
0.2121597953835269 421:1 905:1 4748:1 5152:1 5704:1 7079:1 7080:1 
0.25 4145:1 4178:1 5721:1 
0.05545636496902589 117:1 336:1 1640:1 4144:1 7089:1 7090:1 7091:1 
0.25 4145:1 4178:1 5721:1 
0.25 72:1 1129:1 1467:1 7093:1 
0.25 7098:1 7099:1 7100:1 7101:1 7102:1 7103:1 7104:1 7105:1 7106:1 
0.2372035827856611 312:1 2567:1 7107:1 
0.25 3171:1 5218:1 7109:1 7110:1 7111:1 7112:1 
0.25 734:1 7116:1 
0.25 2594:1 
0.25 353:1 370:1 1456:1 7117:1 7118:1 
0.07025571987850944 197:1 1396:1 5873:1 6003:1 6897:1 
0.25 2595:1 
0.25 6218:1 
0.25 944:1 1250:1 
0.25 4572:1 
0.25 3377:1 
0.25 194:1 507:1 927:1 1227:1 7129:1 
0.1247828797448517 735:1 1433:1 1822:1 3996:1 
0.09039739148477589 231:1 348:1 370:1 4675:1 7133:1 
0.25 654:1 1456:1 4916:1 
0.25 151:1 348:1 
0.25 231:1 5838:1 
0.25 25:1 192:1 367:1 4968:1 
0.25 2960:1 6370:1 
0.25 7151:1 
0.25 189:1 4721:1 
0.25 66:1 192:1 1186:1 1328:1 1385:1 7132:1 
0.25 2248:1 2978:1 3153:1 
0.01803503682387949 232:1 7156:1 7160:1 
0.25 3047:1 4938:1 
0.25 3845:1 5575:1 7173:1 7174:1 
0.25 1381:1 3567:1 
0.25 7176:1 
0.25 46:1 1782:1 7147:1 
0.25 5218:1 7112:1 7179:1 7180:1 7181:1 
0.25 3120:1 3845:1 5188:1 
0.07298339991148733 629:1 1160:1 2415:1 4439:1 
0.25 7187:1 
0.25 4550:1 7186:1 
0.25 131:1 470:1 
0.25 15:1 193:1 384:1 1576:1 4661:1 5395:1 7209:1 
0.25 1653:1 
0.25 2230:1 
0.25 20:1 87:1 
0.25 435:1 1919:1 
0.25 21:1 1000:1 2521:1 
0.01753209991822545 9:1 1758:1 7207:1 
0.25 1134:1 
0.25 881:1 7239:1 
0.25 182:1 
0.25 112:1 1738:1 1845:1 4233:1 
0.25 1844:1 2127:1 3732:1 7152:1 
0.25 1578:1 7273:1 
0.25 332:1 1651:1 5296:1 
0.25 3135:1 7276:1 
0.25 427:1 1566:1 3523:1 
0.2336051790444182 530:1 531:1 1478:1 4592:1 7281:1 
0.25 808:1 2488:1 
0.25 1417:1 6378:1 7162:1 
0.02231050765611921 216:1 1272:1 1520:1 2127:1 7307:1 7308:1 7309:1 7310:1 
0.25 231:1 
0.25 7312:1 
0.2174995208538261 105:1 3831:1 6973:1 
0.25 1653:1 
0.25 394:1 
0.25 638:1 
0.25 389:1 2501:1 
0.1059289226259083 320:1 3690:1 4582:1 4599:1 4715:1 7096:1 7324:1 7325:1 
0.25 7330:1 
0.1556660915439297 182:1 272:1 424:1 616:1 3986:1 4032:1 7149:1 7333:1 7334:1 7335:1 7336:1 
0.07205487681954539 301:1 3732:1 3923:1 7152:1 7256:1 
0.06402181312245939 638:1 7199:1 
0.1323477099438352 1308:1 1720:1 
0.25 9:1 
0.25 756:1 3137:1 
0.25 4511:1 7352:1 
0.25 7353:1 
0.25 775:1 
0.25 2394:1 
0.25 289:1 501:1 4721:1 
0.1133495605864396 231:1 287:1 1198:1 1919:1 4271:1 7354:1 7355:1 
0.25 7356:1 7357:1 
0.25 96:1 
0.1883548197030189 512:1 2870:1 3173:1 4820:1 7360:1 7361:1 
0.25 289:1 501:1 4721:1 
0.2441835304177274 1270:1 1970:1 7374:1 7375:1 7376:1 
0.25 57:1 1328:1 1385:1 3014:1 
0.25 1947:1 2734:1 4391:1 7379:1 
0.25 311:1 
0.25 3207:1 
0.25 224:1 928:1 1438:1 
0.25 619:1 4488:1 7385:1 
0.25 384:1 507:1 
0.25 1738:1 1919:1 
0.25 3172:1 4280:1 
0.0959612433363138 27:1 68:1 1164:1 1827:1 3301:1 
0.09918835636943721 224:1 323:1 4721:1 6596:1 
0.25 224:1 1024:1 4721:1 
0.25 817:1 
0.25 26:1 2883:1 5489:1 7399:1 
0.1875049881499005 96:1 314:1 320:1 1377:1 1525:1 1585:1 2941:1 3169:1 7096:1 7408:1 
0.25 4528:1 
0.25 224:1 4721:1 
0.25 5489:1 
0.02611383406536086 66:1 197:1 6621:1 
0.002155761263076904 300:1 906:1 3196:1 5389:1 5489:1 
0.25 1447:1 
0.25 4885:1 7416:1 
0.25 7417:1 
0.25 439:1 619:1 983:1 3859:1 5035:1 5859:1 7162:1 
0.25 26:1 1447:1 
0.25 105:1 863:1 864:1 3109:1 4962:1 
0.25 427:1 634:1 
0.25 208:1 734:1 
0.25 300:1 399:1 981:1 7397:1 
0.1084895118973145 224:1 3758:1 4721:1 7427:1 7428:1 
0.25 2668:1 5125:1 7434:1 
0.25 224:1 4721:1 
0.25 224:1 4721:1 7436:1 
0.25 7439:1 
0.25 3739:1 
0.25 981:1 
0.25 56:1 785:1 1956:1 4306:1 7145:1 
0.1276776726397868 234:1 1867:1 2364:1 5140:1 5568:1 7451:1 7452:1 7453:1 7454:1 
0.25 20:1 1535:1 4736:1 5857:1 7457:1 7458:1 7459:1 
0.25 384:1 1742:1 6017:1 7461:1 
0.25 26:1 1448:1 
0.25 1018:1 5511:1 7464:1 
0.25 26:1 
0.25 1288:1 6065:1 
0.25 4089:1 
0.25 300:1 7478:1 
0.25 20:1 
0.25 7158:1 
0.25 312:1 
0.1975959540105484 224:1 411:1 859:1 2700:1 3769:1 7154:1 
0.25 1458:1 4903:1 7486:1 
0.25 2420:1 7489:1 
0.25 238:1 854:1 2248:1 7498:1 
0.02178216759716109 64:1 284:1 2880:1 5785:1 
0.25 384:1 919:1 7503:1 7504:1 7505:1 
0.25 986:1 1664:1 1742:1 3653:1 7509:1 
0.25 1396:1 
0.25 1225:1 
0.25 177:1 348:1 610:1 854:1 1892:1 
0.25 7517:1 
0.25 369:1 4707:1 
0.25 8:1 1238:1 2320:1 7520:1 
0.25 370:1 2323:1 5526:1 7522:1 7523:1 
0.25 1526:1 7524:1 
0.02746046875446935 384:1 4118:1 5440:1 
0.25 619:1 
0.1614150666808068 8:1 66:1 87:1 183:1 1048:1 3732:1 4550:1 5321:1 7518:1 7525:1 7526:1 
0.25 331:1 4896:1 
0.25 7493:1 
0.1044607213325797 17:1 1181:1 4661:1 5148:1 7134:1 
0.05334857960944919 44:1 637:1 1463:1 1687:1 1749:1 7531:1 
0.25 658:1 850:1 
0.25 7530:1 
0.25 325:1 608:1 2466:1 3061:1 7438:1 7534:1 7535:1 
0.25 1709:1 7536:1 7537:1 
0.25 1104:1 2005:1 2186:1 5809:1 6942:1 7545:1 7546:1 
0.112275500194964 1225:1 1436:1 1520:1 2186:1 2656:1 3050:1 3507:1 5947:1 
0.25 610:1 7553:1 
0.25 26:1 255:1 
0.25 565:1 
0.25 7564:1 
0.25 7565:1 
0.25 9:1 
0.25 4938:1 
0.04231828147839246 28:1 4032:1 4091:1 7154:1 7571:1 
0.25 3207:1 
0.25 2086:1 3439:1 7579:1 7580:1 
0.25 320:1 1931:1 7581:1 7582:1 
0.25 1476:1 1578:1 2292:1 2611:1 
0.25 701:1 6956:1 7593:1 
0.25 182:1 
0.25 311:1 1671:1 
0.25 182:1 1181:1 
0.25 2405:1 3923:1 
0.25 9:1 
0.25 1177:1 1858:1 7595:1 
0.25 7596:1 7597:1 
0.25 2525:1 
0.1602284614965812 424:1 5964:1 6378:1 
0.25 2526:1 7605:1 
0.25 1881:1 7606:1 7607:1 7608:1 7609:1 
0.25 562:1 
0.25 8:1 371:1 4865:1 
0.25 121:1 5350:1 5379:1 7613:1 7614:1 
0.25 486:1 507:1 2248:1 7615:1 
0.25 303:1 2288:1 2393:1 
0.25 435:1 3538:1 
0.0613623289387993 751:1 2455:1 7617:1 7618:1 
0.25 7279:1 
0.25 4493:1 4522:1 7623:1 7624:1 7625:1 7626:1 
0.25 1915:1 
0.06649829567266652 20:1 112:1 1738:1 1919:1 2382:1 3735:1 
0.002678501332321637 3186:1 4173:1 6621:1 7147:1 
0.2165823476431853 56:1 177:1 2700:1 4306:1 4721:1 7145:1 
0.25 322:1 401:1 
0.185916275963322 149:1 150:1 584:1 2770:1 7640:1 
0.09312199829388744 750:1 751:1 
0.25 424:1 929:1 7642:1 
0.25 7643:1 
0.09894823784874125 208:1 407:1 859:1 1473:1 5951:1 7644:1 
0.2398017797454971 105:1 4536:1 6378:1 7646:1 
0.09527097431575508 2394:1 7224:1 7653:1 
0.1671701397971313 210:1 231:1 650:1 1217:1 1266:1 7655:1 7656:1 
0.25 105:1 
0.25 105:1 
0.25 105:1 
0.1371568451691434 177:1 259:1 993:1 3156:1 3812:1 4573:1 5102:1 7076:1 7657:1 
0.25 1077:1 2626:1 2811:1 7660:1 
0.25 1483:1 2670:1 4567:1 5331:1 7664:1 7665:1 
0.2091508792153608 4721:1 7138:1 7139:1 
0.25 131:1 704:1 
0.25 509:1 530:1 
0.25 21:1 2291:1 5015:1 
0.25 704:1 
0.25 817:1 3304:1 4754:1 4853:1 
0.25 591:1 658:1 1668:1 3992:1 7614:1 7670:1 
0.193045033743605 220:1 1023:1 3874:1 5102:1 7589:1 
0.25 735:1 1915:1 
0.25 4335:1 4437:1 4883:1 
0.25 646:1 
0.01657610292845012 28:1 226:1 2420:1 
0.25 2420:1 
0.25 9:1 
0.25 113:1 6621:1 
0.25 182:1 
0.25 758:1 861:1 7285:1 
0.25 7107:1 7162:1 
0.1499825591426598 131:1 177:1 429:1 2894:1 3422:1 3699:1 4747:1 7676:1 
0.25 785:1 2392:1 
0.25 5631:1 
0.25 7677:1 7678:1 
0.25 5533:1 
0.1354978477173313 446:1 734:1 1018:1 5197:1 7696:1 7697:1 7698:1 7699:1 7700:1 7701:1 
0.03130682504887524 259:1 396:1 923:1 1311:1 1743:1 4561:1 
0.25 20:1 21:1 1000:1 2287:1 7707:1 7708:1 
0.25 1381:1 2623:1 7716:1 
0.25 231:1 3062:1 5579:1 
0.25 2387:1 
0.25 7718:1 
0.1551147687065918 745:1 1681:1 7531:1 7618:1 7719:1 
0.25 60:1 135:1 7589:1 7720:1 
0.07899079295420723 286:1 1136:1 1814:1 6675:1 7722:1 7723:1 7724:1 7725:1 
0.25 2874:1 5383:1 5516:1 
0.1271816217481631 370:1 1456:1 2448:1 2700:1 4537:1 7544:1 
0.2337067245794703 592:1 650:1 1113:1 2831:1 5402:1 7728:1 
0.1436994728533542 59:1 310:1 2767:1 4282:1 5806:1 7138:1 7139:1 
0.0153883367234977 140:1 259:1 2831:1 5102:1 
0.08624232234269827 177:1 846:1 1379:1 1720:1 1735:1 
0.25 131:1 704:1 
0.25 378:1 619:1 2456:1 
0.1318215533963482 46:1 531:1 633:1 3284:1 4592:1 5601:1 7281:1 
0.25 46:1 1456:1 3080:1 7737:1 
0.25 860:1 928:1 
0.25 224:1 859:1 7743:1 
0.03503904342796179 73:1 1406:1 2283:1 7138:1 7139:1 7746:1 7747:1 7748:1 7749:1 7750:1 7751:1 
0.25 1641:1 1748:1 7752:1 7753:1 
0.25 101:1 817:1 4264:1 
0.25 7147:1 
0.007498838793805316 518:1 960:1 5815:1 7156:1 7159:1 7161:1 7756:1 7757:1 
0.25 1181:1 4528:1 5181:1 
0.25 1499:1 7759:1 
0.25 1181:1 2892:1 
0.25 1288:1 6065:1 7107:1 
0.25 531:1 538:1 2059:1 
0.03055428165549315 163:1 824:1 2760:1 3728:1 7768:1 
0.171472887996247 314:1 1728:1 1767:1 2589:1 4647:1 5733:1 7760:1 7761:1 
0.25 2054:1 7224:1 7533:1 7773:1 
0.25 440:1 441:1 7774:1 7775:1 
0.25 512:1 1634:1 3604:1 7778:1 
0.25 735:1 4470:1 6951:1 7783:1 
0.05944262039106726 57:1 1144:1 1385:1 1919:1 2288:1 7364:1 7546:1 
0.25 3171:1 7086:1 7784:1 7785:1 7786:1 7787:1 
0.25 530:1 
0.1528356665050907 33:1 2701:1 2832:1 4109:1 4522:1 7096:1 
0.25 2892:1 
0.25 3550:1 7656:1 
0.25 231:1 3355:1 
0.25 735:1 1696:1 5904:1 
0.25 594:1 
0.25 4162:1 5533:1 7562:1 
0.25 314:1 2854:1 5533:1 
0.25 129:1 403:1 1607:1 1882:1 
0.25 314:1 2854:1 5533:1 
0.01796632798800707 320:1 591:1 817:1 4493:1 4582:1 7096:1 7188:1 
0.25 226:1 319:1 2420:1 
0.2263049268210998 997:1 1822:1 3645:1 4544:1 6951:1 
0.25 220:1 296:1 1158:1 3255:1 
0.01420762324232583 226:1 231:1 2987:1 3377:1 4673:1 7793:1 
0.25 6621:1 7205:1 
0.25 20:1 1880:1 7796:1 
0.25 20:1 
0.25 1653:1 
0.25 325:1 2668:1 2669:1 7799:1 7800:1 
0.1274931320173281 1004:1 1210:1 2667:1 5657:1 7618:1 7801:1 7802:1 7803:1 7804:1 7805:1 7806:1 7807:1 
0.1604283898532015 319:1 1888:1 2087:1 7394:1 
0.25 1629:1 
0.04775083659036392 56:1 1960:1 2687:1 4584:1 4585:1 7071:1 7618:1 7809:1 7810:1 
0.25 1703:1 2629:1 4277:1 5440:1 7793:1 
0.25 165:1 
0.25 7224:1 
0.25 139:1 923:1 2293:1 2456:1 3223:1 
0.25 443:1 2283:1 5686:1 7816:1 7817:1 
0.25 3576:1 
0.25 1113:1 3732:1 4836:1 
0.25 117:1 
0.08144335503229962 385:1 2687:1 4038:1 4647:1 5733:1 6029:1 7096:1 7329:1 7822:1 
0.25 15:1 21:1 57:1 1792:1 
0.07201601319229997 226:1 820:1 1767:1 2687:1 2706:1 3169:1 4038:1 4647:1 7760:1 7822:1 
0.25 238:1 559:1 560:1 2567:1 3414:1 
0.25 1377:1 3186:1 
0.25 1077:1 
0.25 3186:1 
0.25 101:1 231:1 367:1 
0.25 620:1 815:1 
0.25 3996:1 
0.06165309118931948 314:1 320:1 820:1 1238:1 2706:1 4365:1 7804:1 
0.25 101:1 3608:1 
0.25 20:1 774:1 945:1 1341:1 1919:1 4070:1 5516:1 7833:1 
0.25 105:1 226:1 559:1 560:1 2071:1 7313:1 
0.25 3996:1 
0.2109463365791102 745:1 1681:1 1682:1 7719:1 
0.25 100:1 101:1 284:1 
0.25 69:1 6030:1 7842:1 7843:1 7844:1 
0.25 1700:1 3554:1 
0.25 20:1 997:1 1822:1 2114:1 2967:1 
0.25 3135:1 7251:1 
0.02716481140760397 906:1 2687:1 2706:1 4735:1 7409:1 7618:1 7804:1 7810:1 7849:1 
0.1147576532906786 4089:1 4885:1 6369:1 7852:1 
0.25 799:1 1767:1 2870:1 3172:1 4581:1 7857:1 
0.25 620:1 815:1 
0.25 20:1 749:1 2283:1 7860:1 7861:1 
0.25 8:1 2464:1 7862:1 
0.25 2394:1 7864:1 
0.25 292:1 
0.25 7867:1 7868:1 7869:1 7870:1 7871:1 
0.25 7867:1 7870:1 7871:1 7872:1 7873:1 
0.25 7874:1 
0.25 7482:1 
0.25 7158:1 
0.25 7159:1 
0.25 7159:1 
0.25 7161:1 
0.1316618826466719 84:1 6312:1 
0.25 1053:1 6021:1 
0.07592543345779285 306:1 1194:1 1234:1 1238:1 1728:1 2345:1 4715:1 7618:1 7804:1 7878:1 7879:1 
0.2365741362987966 1138:1 1433:1 3645:1 
0.25 177:1 224:1 369:1 4721:1 7145:1 
0.25 292:1 4120:1 
0.25 25:1 3290:1 
0.04701090114590469 150:1 456:1 939:1 998:1 1203:1 1718:1 4544:1 7579:1 7886:1 7887:1 
0.2239968160884475 127:1 4392:1 7217:1 7227:1 7889:1 
0.25 8:1 7273:1 
0.25 619:1 
0.228988855441832 622:1 1826:1 3389:1 3996:1 
0.25 2501:1 
0.1888020116784136 1433:1 1767:1 3760:1 5092:1 7745:1 7894:1 
0.002373406687861699 1767:1 2687:1 4091:1 5092:1 6800:1 7409:1 7762:1 7895:1 7896:1 
0.0638775328773379 1956:1 2687:1 5092:1 
0.25 105:1 4886:1 7897:1 7898:1 
0.25 1511:1 2443:1 7899:1 
0.25 764:1 5331:1 5541:1 6496:1 
0.2138804763347608 50:1 303:1 1317:1 1348:1 2133:1 2288:1 
0.25 454:1 5458:1 6342:1 7332:1 
0.25 8:1 105:1 469:1 1332:1 7909:1 
0.176391896282321 220:1 906:1 983:1 4969:1 
0.1358360824242443 231:1 4237:1 
0.25 7154:1 
0.04882813677523516 292:1 1244:1 
0.25 101:1 4174:1 4865:1 7922:1 
0.01990905333135827 149:1 183:1 311:1 513:1 4865:1 
0.25 385:1 4582:1 
0.07456313072587702 638:1 961:1 1171:1 3916:1 4491:1 7923:1 7924:1 
0.25 1094:1 4544:1 
0.25 202:1 7926:1 
0.0713923174986086 145:1 378:1 1181:1 1268:1 3127:1 7135:1 
0.25 1019:1 1199:1 7923:1 
0.25 1202:1 1956:1 
0.25 619:1 2127:1 3701:1 5188:1 
0.25 92:1 406:1 5801:1 
0.25 577:1 7940:1 
0.02430677107239309 987:1 2687:1 3131:1 4193:1 
0.25 385:1 424:1 7319:1 7715:1 
0.01835028892665388 232:1 7156:1 7160:1 
0.25 7158:1 
0.25 21:1 325:1 
0.2164283906627581 325:1 671:1 2456:1 3722:1 6288:1 
0.25 735:1 2079:1 
0.25 1117:1 7962:1 
0.25 7963:1 
0.25 424:1 5634:1 
0.25 3153:1 
0.25 2191:1 2866:1 
0.25 230:1 5533:1 6288:1 7968:1 7969:1 7970:1 
0.25 6951:1 
0.2285537939718919 220:1 238:1 394:1 
0.25 1163:1 6951:1 
0.06878312319255465 370:1 4845:1 6595:1 7544:1 
0.25 2087:1 5463:1 
