svm_type nu_svc
kernel_type linear
nr_class 2
total_sv 22334
rho -0.649993
label -1 2
nr_sv 11107 11227
SV
0.08200383707958504 204:1 426:1 2012:1 2893:1 3594:1 4084:1 4236:1 4465:1 6760:1 12212:1 17419:1 
0.08200383707958504 5:1 6:1 7:1 8:1 
0.08200383707958504 9:1 10:1 11:1 12:1 
0.08200383707958504 10:1 11:1 12:1 17:1 18:1 19:1 
0.08200383707958504 20:1 
0.08200383707958504 10:1 11:1 12:1 18:1 21:1 22:1 23:1 24:1 25:1 
0.08200383707958504 26:1 
0.08200383707958504 27:1 
0.08200383707958504 10:1 11:1 12:1 18:1 21:1 22:1 23:1 24:1 25:1 
0.08200383707958504 26:1 
0.08200383707958504 28:1 29:1 30:1 
0.08200383707958504 31:1 32:1 33:1 
0.08200383707958504 34:1 35:1 36:1 37:1 
0.08200383707958504 39:1 40:1 41:1 42:1 43:1 44:1 
0.08200383707958504 45:1 46:1 
0.08200383707958504 58:1 59:1 
0.08200383707958504 61:1 
0.08200383707958504 67:1 
0.08200383707958504 68:1 69:1 70:1 71:1 72:1 
0.08200383707958504 73:1 74:1 75:1 76:1 
0.08200383707958504 48:1 70:1 71:1 72:1 77:1 78:1 79:1 
0.08200383707958504 81:1 82:1 
0.08200383707958504 70:1 83:1 
0.08200383707958504 10:1 11:1 85:1 86:1 87:1 
0.08200383707958504 88:1 89:1 
0.08200383707958504 44:1 90:1 91:1 
0.08200383707958504 92:1 
0.08200383707958504 83:1 93:1 94:1 95:1 96:1 97:1 98:1 99:1 100:1 101:1 
0.08200383707958504 103:1 104:1 
0.08200383707958504 27:1 70:1 105:1 106:1 107:1 108:1 
0.08200383707958504 109:1 110:1 
0.08200383707958504 113:1 
0.08200383707958504 114:1 
0.08200383707958504 115:1 
0.08200383707958504 114:1 
0.08200383707958504 103:1 
0.08200383707958504 27:1 87:1 103:1 107:1 
0.08200383707958504 70:1 103:1 107:1 117:1 118:1 
0.08200383707958504 103:1 119:1 120:1 
0.08200383707958504 91:1 123:1 124:1 125:1 126:1 127:1 
0.08200383707958504 46:1 89:1 128:1 129:1 130:1 
0.08200383707958504 34:1 132:1 133:1 134:1 135:1 
0.08200383707958504 136:1 
0.08200383707958504 137:1 138:1 
0.08200383707958504 139:1 
0.08200383707958504 140:1 
0.08200383707958504 141:1 142:1 
0.08200383707958504 143:1 
0.08200383707958504 34:1 107:1 139:1 142:1 
0.08200383707958504 49:1 144:1 145:1 
0.08200383707958504 129:1 146:1 147:1 
0.04000835250183966 68:1 69:1 148:1 
0.08200383707958504 48:1 69:1 148:1 149:1 150:1 
0.08200383707958504 151:1 152:1 
0.08200383707958504 77:1 
0.08200383707958504 27:1 155:1 156:1 157:1 158:1 
0.08200383707958504 70:1 104:1 159:1 
0.08200383707958504 67:1 
0.08200383707958504 163:1 
0.08200383707958504 164:1 
0.08200383707958504 27:1 165:1 
0.08200383707958504 69:1 153:1 
0.08200383707958504 27:1 166:1 167:1 168:1 
0.08200383707958504 89:1 
0.08200383707958504 89:1 
0.004438684385041994 50:1 84:1 89:1 170:1 171:1 
0.08200383707958504 112:1 172:1 173:1 
0.08200383707958504 129:1 
0.08200383707958504 160:1 179:1 
0.08200383707958504 163:1 
0.08200383707958504 182:1 
0.08200383707958504 184:1 185:1 
0.08200383707958504 112:1 
0.08200383707958504 89:1 
0.08200383707958504 53:1 84:1 183:1 186:1 187:1 188:1 189:1 
0.08200383707958504 71:1 191:1 192:1 193:1 194:1 195:1 
0.08200383707958504 204:1 205:1 
0.08200383707958504 70:1 
0.08200383707958504 27:1 
0.08200383707958504 129:1 
0.08200383707958504 77:1 208:1 
0.08200383707958504 129:1 
0.08200383707958504 27:1 55:1 77:1 
0.08200383707958504 129:1 
0.08200383707958504 70:1 153:1 
0.08200383707958504 70:1 207:1 
0.08200383707958504 112:1 
0.08200383707958504 209:1 210:1 211:1 
0.08200383707958504 129:1 
0.08200383707958504 212:1 213:1 214:1 215:1 216:1 217:1 
0.08200383707958504 129:1 
0.08200383707958504 218:1 219:1 220:1 221:1 222:1 223:1 
0.08200383707958504 129:1 
0.08200383707958504 184:1 
0.08200383707958504 76:1 218:1 223:1 224:1 225:1 226:1 227:1 
0.08200383707958504 129:1 
0.08200383707958504 129:1 
0.08200383707958504 10:1 11:1 175:1 228:1 229:1 
0.08200383707958504 129:1 
0.08200383707958504 129:1 
0.08200383707958504 63:1 232:1 233:1 234:1 
0.08200383707958504 129:1 
0.08200383707958504 175:1 235:1 236:1 
0.08200383707958504 129:1 147:1 237:1 
0.08200383707958504 238:1 
0.00505394015716056 59:1 242:1 243:1 244:1 245:1 246:1 
0.08200383707958504 247:1 
0.08200383707958504 129:1 
0.08200383707958504 69:1 84:1 153:1 254:1 255:1 256:1 
0.08200383707958504 129:1 
0.08200383707958504 218:1 257:1 258:1 
0.08200383707958504 129:1 
0.08200383707958504 64:1 77:1 259:1 260:1 261:1 262:1 263:1 
0.08200383707958504 129:1 
0.08200383707958504 268:1 
0.08200383707958504 129:1 
0.08200383707958504 272:1 
0.08200383707958504 129:1 
0.08200383707958504 129:1 
0.08200383707958504 277:1 
0.08200383707958504 278:1 
0.08200383707958504 279:1 
0.08200383707958504 129:1 
0.08200383707958504 281:1 282:1 283:1 284:1 
0.08200383707958504 183:1 286:1 287:1 288:1 289:1 290:1 291:1 
0.08200383707958504 34:1 292:1 
0.08200383707958504 129:1 277:1 293:1 294:1 
0.08200383707958504 129:1 
0.08200383707958504 84:1 102:1 296:1 297:1 298:1 
0.08200383707958504 129:1 
0.08200383707958504 129:1 
0.08200383707958504 129:1 
0.08200383707958504 129:1 
0.04766704561071524 129:1 313:1 
0.08200383707958504 38:1 113:1 310:1 314:1 315:1 
0.08200383707958504 258:1 316:1 
0.08200383707958504 129:1 
0.08200383707958504 318:1 
0.08200383707958504 129:1 
0.08200383707958504 38:1 321:1 
0.08200383707958504 6:1 46:1 229:1 322:1 323:1 
0.08200383707958504 160:1 324:1 325:1 
0.08200383707958504 129:1 
0.08200383707958504 153:1 207:1 218:1 317:1 318:1 327:1 
0.08200383707958504 160:1 179:1 
0.08200383707958504 129:1 
0.08200383707958504 129:1 
0.08200383707958504 328:1 
0.08200383707958504 318:1 
0.08200383707958504 329:1 330:1 331:1 332:1 333:1 334:1 
0.08200383707958504 103:1 335:1 336:1 337:1 
0.08200383707958504 338:1 339:1 
0.08200383707958504 103:1 336:1 337:1 340:1 341:1 342:1 
0.08200383707958504 6:1 349:1 350:1 
0.08200383707958504 328:1 
0.08200383707958504 318:1 
0.08200383707958504 25:1 71:1 91:1 
0.08200383707958504 353:1 354:1 
0.08200383707958504 6:1 356:1 357:1 
0.08200383707958504 358:1 359:1 360:1 361:1 
0.08200383707958504 318:1 
0.08200383707958504 324:1 362:1 363:1 364:1 
0.08200383707958504 365:1 366:1 367:1 
0.08200383707958504 318:1 
0.08200383707958504 318:1 
0.08200383707958504 378:1 
0.08200383707958504 318:1 
0.07199661539923506 124:1 125:1 127:1 318:1 379:1 380:1 
0.08200383707958504 377:1 381:1 
0.08200383707958504 318:1 382:1 
0.08200383707958504 318:1 
0.08200383707958504 384:1 385:1 386:1 
0.08200383707958504 387:1 388:1 389:1 
0.08200383707958504 6:1 349:1 350:1 
0.08200383707958504 160:1 179:1 
0.08200383707958504 19:1 309:1 391:1 
0.08200383707958504 123:1 160:1 378:1 392:1 
0.08200383707958504 393:1 
0.08200383707958504 160:1 324:1 325:1 
0.08200383707958504 160:1 205:1 395:1 396:1 
0.08200383707958504 181:1 397:1 398:1 399:1 400:1 401:1 402:1 403:1 404:1 
0.08200383707958504 310:1 401:1 405:1 
0.08200383707958504 125:1 309:1 
0.08200383707958504 90:1 407:1 
0.08200383707958504 408:1 409:1 
0.08200383707958504 10:1 11:1 12:1 280:1 336:1 412:1 413:1 414:1 415:1 416:1 417:1 418:1 419:1 
0.02485882440347969 420:1 421:1 
0.08200383707958504 16:1 34:1 422:1 
0.08200383707958504 423:1 424:1 425:1 426:1 
0.08200383707958504 276:1 427:1 
0.08200383707958504 248:1 386:1 429:1 
0.08200383707958504 432:1 
0.08200383707958504 432:1 
0.08200383707958504 432:1 
0.08200383707958504 224:1 331:1 436:1 437:1 
0.08200383707958504 432:1 
0.08200383707958504 432:1 
0.08200383707958504 122:1 166:1 
0.02150857200151987 432:1 
0.05762007326455955 72:1 228:1 442:1 
0.08200383707958504 46:1 181:1 
0.08200383707958504 443:1 
0.08200383707958504 68:1 444:1 445:1 446:1 
0.08200383707958504 447:1 
0.08200383707958504 454:1 
0.08200383707958504 64:1 241:1 243:1 259:1 455:1 456:1 457:1 458:1 459:1 
0.08200383707958504 64:1 229:1 240:1 241:1 460:1 461:1 462:1 
0.08200383707958504 176:1 374:1 433:1 463:1 464:1 465:1 466:1 467:1 468:1 
0.08200383707958504 469:1 
0.08200383707958504 198:1 433:1 466:1 470:1 471:1 472:1 473:1 
0.08200383707958504 10:1 11:1 206:1 228:1 229:1 474:1 475:1 
0.08200383707958504 276:1 476:1 
0.08200383707958504 166:1 
0.08200383707958504 481:1 482:1 483:1 
0.08200383707958504 484:1 485:1 486:1 487:1 488:1 
0.08200383707958504 107:1 112:1 
0.08200383707958504 326:1 
0.08200383707958504 508:1 
0.08200383707958504 509:1 510:1 
0.08200383707958504 179:1 
0.08200383707958504 511:1 
0.08200383707958504 47:1 
0.08200383707958504 103:1 153:1 338:1 339:1 512:1 513:1 514:1 515:1 516:1 
0.08200383707958504 120:1 338:1 339:1 513:1 
0.08200383707958504 518:1 519:1 520:1 
0.08200383707958504 125:1 348:1 521:1 
0.08200383707958504 38:1 522:1 523:1 524:1 525:1 526:1 527:1 
0.08200383707958504 528:1 
0.08200383707958504 181:1 533:1 
0.08200383707958504 130:1 534:1 
0.08200383707958504 14:1 22:1 23:1 535:1 
0.08200383707958504 539:1 540:1 
0.08200383707958504 14:1 22:1 23:1 535:1 
0.08200383707958504 165:1 176:1 
0.08200383707958504 542:1 
0.02119618893596973 280:1 527:1 
0.08200383707958504 543:1 
0.08200383707958504 60:1 176:1 544:1 545:1 546:1 547:1 
0.08200383707958504 548:1 
0.08200383707958504 234:1 322:1 443:1 
0.08200383707958504 552:1 
0.08200383707958504 316:1 390:1 
0.08200383707958504 553:1 
0.08200383707958504 554:1 
0.08200383707958504 555:1 
0.08200383707958504 557:1 
0.07578306156645798 169:1 558:1 
0.08200383707958504 84:1 559:1 
0.08200383707958504 172:1 558:1 
0.08200383707958504 489:1 
0.08200383707958504 553:1 
0.08200383707958504 107:1 560:1 561:1 562:1 
0.08200383707958504 67:1 
0.08200383707958504 563:1 
0.08200383707958504 17:1 
0.08200383707958504 18:1 567:1 568:1 
0.08200383707958504 130:1 569:1 570:1 
0.08200383707958504 511:1 
0.08200383707958504 67:1 
0.08200383707958504 375:1 571:1 572:1 573:1 574:1 575:1 
0.08200383707958504 46:1 418:1 576:1 577:1 
0.08200383707958504 384:1 578:1 579:1 580:1 
0.08200383707958504 576:1 582:1 
0.08200383707958504 558:1 
0.08200383707958504 558:1 
0.08200383707958504 592:1 
0.08200383707958504 558:1 
0.08200383707958504 596:1 
0.08200383707958504 558:1 
0.08200383707958504 10:1 11:1 228:1 
0.08200383707958504 229:1 
0.08200383707958504 55:1 107:1 184:1 600:1 601:1 602:1 
0.08200383707958504 558:1 
0.08200383707958504 558:1 
0.08200383707958504 558:1 
0.08200383707958504 264:1 605:1 606:1 607:1 608:1 
0.08200383707958504 558:1 
0.08200383707958504 184:1 229:1 613:1 
0.08200383707958504 24:1 476:1 
0.08200383707958504 422:1 614:1 
0.004665895692764075 480:1 558:1 
0.08200383707958504 373:1 538:1 558:1 576:1 615:1 616:1 617:1 618:1 
0.08200383707958504 169:1 229:1 619:1 620:1 621:1 
0.08200383707958504 179:1 
0.08200383707958504 558:1 
0.08200383707958504 558:1 
0.06041515633753933 19:1 71:1 72:1 107:1 216:1 280:1 622:1 626:1 
0.08200383707958504 422:1 614:1 
0.08200383707958504 627:1 628:1 
0.08200383707958504 202:1 350:1 505:1 629:1 
0.08200383707958504 125:1 179:1 273:1 348:1 630:1 
0.08200383707958504 521:1 
0.08200383707958504 179:1 
0.08200383707958504 558:1 
0.08200383707958504 311:1 531:1 558:1 631:1 632:1 
0.08200383707958504 107:1 
0.08200383707958504 558:1 
0.08200383707958504 633:1 634:1 
0.08200383707958504 635:1 636:1 
0.08200383707958504 234:1 637:1 
0.08200383707958504 6:1 234:1 288:1 638:1 639:1 640:1 641:1 
0.08200383707958504 350:1 642:1 
0.08200383707958504 326:1 
0.08200383707958504 643:1 644:1 
0.08200383707958504 558:1 
0.08200383707958504 103:1 107:1 647:1 
0.08200383707958504 103:1 512:1 648:1 649:1 
0.08200383707958504 153:1 513:1 519:1 520:1 650:1 651:1 652:1 653:1 
0.08200383707958504 153:1 347:1 651:1 652:1 654:1 
0.08200383707958504 103:1 112:1 122:1 176:1 453:1 648:1 649:1 655:1 
0.08200383707958504 103:1 107:1 122:1 625:1 
0.08200383707958504 519:1 520:1 656:1 
0.08200383707958504 248:1 350:1 657:1 658:1 
0.08200383707958504 179:1 
0.08200383707958504 495:1 
0.08200383707958504 125:1 179:1 357:1 659:1 660:1 
0.08200383707958504 6:1 578:1 
0.08200383707958504 179:1 
0.08200383707958504 179:1 
0.08200383707958504 125:1 
0.08200383707958504 5:1 84:1 661:1 662:1 663:1 664:1 
0.08200383707958504 558:1 
0.08200383707958504 667:1 
0.08200383707958504 18:1 19:1 22:1 23:1 558:1 
0.08200383707958504 166:1 378:1 
0.08200383707958504 576:1 
0.03666503274412027 67:1 671:1 672:1 673:1 674:1 675:1 
0.08200383707958504 676:1 677:1 
0.08200383707958504 385:1 
0.08200383707958504 641:1 
0.08200383707958504 425:1 681:1 
0.08200383707958504 44:1 259:1 
0.06030643757309626 84:1 121:1 682:1 683:1 
0.08200383707958504 67:1 
0.08200383707958504 688:1 689:1 
0.08200383707958504 690:1 
0.08200383707958504 103:1 335:1 336:1 337:1 
0.08200383707958504 46:1 
0.08200383707958504 691:1 
0.08200383707958504 691:1 
0.08200383707958504 67:1 
0.03305926370079532 165:1 176:1 
0.08200383707958504 660:1 694:1 695:1 696:1 
0.08200383707958504 27:1 699:1 
0.08200383707958504 700:1 
0.08200383707958504 186:1 457:1 703:1 704:1 705:1 
0.08200383707958504 67:1 
0.08200383707958504 35:1 107:1 706:1 
0.08200383707958504 62:1 
0.08200383707958504 112:1 
0.08200383707958504 708:1 
0.08200383707958504 508:1 
0.08200383707958504 708:1 
0.08200383707958504 27:1 
0.08200383707958504 708:1 
0.08200383707958504 103:1 336:1 337:1 350:1 711:1 712:1 
0.08200383707958504 84:1 713:1 714:1 715:1 
0.08200383707958504 716:1 
0.08200383707958504 45:1 46:1 717:1 
0.08200383707958504 708:1 
0.08200383707958504 64:1 103:1 176:1 515:1 516:1 709:1 719:1 720:1 
0.08200383707958504 48:1 721:1 
0.08200383707958504 300:1 
0.08200383707958504 301:1 
0.08200383707958504 302:1 
0.08200383707958504 303:1 
0.08200383707958504 491:1 
0.08200383707958504 304:1 
0.08200383707958504 722:1 
0.08200383707958504 27:1 723:1 
0.08200383707958504 708:1 
0.08200383707958504 708:1 
0.08200383707958504 708:1 
0.0263911012207816 728:1 729:1 730:1 
0.08200383707958504 708:1 
0.08200383707958504 731:1 
0.08200383707958504 708:1 
0.08200383707958504 733:1 
0.08200383707958504 27:1 176:1 249:1 250:1 734:1 735:1 736:1 737:1 
0.08200383707958504 228:1 
0.08200383707958504 708:1 
0.08200383707958504 67:1 
0.08200383707958504 738:1 
0.08200383707958504 708:1 
0.08200383707958504 741:1 
0.08200383707958504 147:1 229:1 237:1 
0.08200383707958504 708:1 
0.08200383707958504 27:1 241:1 271:1 736:1 742:1 743:1 744:1 
0.08200383707958504 708:1 
0.08200383707958504 708:1 
0.08200383707958504 308:1 492:1 746:1 
0.08200383707958504 60:1 747:1 
0.08200383707958504 272:1 
0.08200383707958504 708:1 
0.08200383707958504 748:1 
0.08200383707958504 708:1 
0.02136121561498968 259:1 749:1 
0.08200383707958504 708:1 
0.08200383707958504 750:1 751:1 
0.08200383707958504 708:1 
0.08200383707958504 708:1 
0.08200383707958504 420:1 684:1 686:1 687:1 752:1 753:1 
0.007773140407405899 708:1 
0.08200383707958504 766:1 
0.08200383707958504 311:1 655:1 708:1 767:1 768:1 769:1 770:1 771:1 
0.08200383707958504 772:1 773:1 774:1 775:1 
0.08200383707958504 326:1 
0.08200383707958504 16:1 422:1 655:1 
0.08200383707958504 6:1 640:1 655:1 777:1 778:1 
0.08200383707958504 779:1 780:1 
0.08200383707958504 666:1 781:1 782:1 783:1 784:1 785:1 
0.08200383707958504 56:1 787:1 788:1 789:1 
0.08200383707958504 679:1 
0.08200383707958504 71:1 755:1 756:1 791:1 
0.08200383707958504 47:1 93:1 792:1 793:1 
0.08200383707958504 794:1 
0.04466488887013871 795:1 796:1 797:1 798:1 799:1 
0.08200383707958504 800:1 
0.08200383707958504 801:1 
0.08200383707958504 14:1 22:1 23:1 24:1 277:1 
0.08200383707958504 657:1 802:1 803:1 804:1 
0.08200383707958504 47:1 805:1 
0.08200383707958504 806:1 807:1 808:1 
0.08200383707958504 809:1 
0.08200383707958504 277:1 810:1 
0.08200383707958504 801:1 
0.08200383707958504 14:1 22:1 23:1 24:1 277:1 
0.08200383707958504 10:1 11:1 12:1 69:1 
0.08200383707958504 137:1 406:1 813:1 814:1 
0.08200383707958504 27:1 161:1 816:1 817:1 
0.08200383707958504 36:1 791:1 818:1 
0.08200383707958504 137:1 403:1 
0.08200383707958504 38:1 258:1 373:1 479:1 819:1 
0.08200383707958504 444:1 535:1 820:1 821:1 822:1 
0.08200383707958504 823:1 
0.08200383707958504 153:1 
0.08200383707958504 104:1 135:1 829:1 
0.08200383707958504 103:1 
0.08200383707958504 122:1 648:1 649:1 
0.08200383707958504 16:1 103:1 
0.08200383707958504 103:1 
0.08200383707958504 47:1 832:1 833:1 
0.08200383707958504 103:1 
0.08200383707958504 103:1 107:1 122:1 648:1 649:1 
0.08200383707958504 153:1 652:1 834:1 835:1 
0.08200383707958504 69:1 173:1 836:1 837:1 
0.08200383707958504 838:1 
0.08200383707958504 839:1 
0.08200383707958504 277:1 
0.08200383707958504 103:1 
0.08200383707958504 593:1 655:1 794:1 840:1 
0.08200383707958504 156:1 652:1 842:1 843:1 844:1 
0.02196889907884127 277:1 
0.08200383707958504 120:1 175:1 228:1 648:1 649:1 825:1 
0.08200383707958504 103:1 
0.08200383707958504 27:1 103:1 
0.005140085852460521 120:1 170:1 652:1 655:1 845:1 846:1 
0.08200383707958504 223:1 240:1 471:1 744:1 834:1 835:1 850:1 851:1 852:1 853:1 
0.08200383707958504 176:1 655:1 855:1 
0.08200383707958504 103:1 
0.08200383707958504 93:1 94:1 103:1 121:1 176:1 189:1 856:1 
0.08200383707958504 103:1 
0.08200383707958504 87:1 103:1 
0.08200383707958504 56:1 104:1 692:1 861:1 862:1 863:1 864:1 
0.08200383707958504 869:1 
0.08200383707958504 871:1 872:1 873:1 
0.08200383707958504 869:1 
0.08200383707958504 869:1 
0.02055961686881592 869:1 
0.08200383707958504 878:1 
0.08200383707958504 228:1 
0.08200383707958504 880:1 
0.08200383707958504 843:1 
0.08200383707958504 881:1 
0.08200383707958504 882:1 
0.08200383707958504 883:1 
0.08200383707958504 880:1 
0.08200383707958504 843:1 
0.08200383707958504 881:1 
0.08200383707958504 882:1 
0.08200383707958504 883:1 
0.08200383707958504 340:1 884:1 
0.08200383707958504 469:1 885:1 886:1 
0.03940513507241352 84:1 170:1 509:1 736:1 887:1 888:1 
0.08200383707958504 489:1 889:1 
0.08200383707958504 68:1 395:1 
0.02179599254715928 273:1 274:1 
0.001434848943006205 108:1 869:1 897:1 
0.08200383707958504 278:1 
0.08200383707958504 53:1 169:1 
0.08200383707958504 876:1 904:1 
0.08200383707958504 496:1 505:1 869:1 
0.021993880141132 489:1 
0.08200383707958504 67:1 
0.08200383707958504 912:1 
0.08200383707958504 27:1 161:1 914:1 
0.08200383707958504 915:1 
0.03400106441322929 344:1 916:1 917:1 918:1 
0.08200383707958504 487:1 919:1 920:1 
0.08200383707958504 919:1 920:1 
0.08200383707958504 38:1 68:1 322:1 
0.08200383707958504 3:1 4:1 
0.08200383707958504 22:1 557:1 689:1 
0.08200383707958504 926:1 927:1 928:1 
0.08200383707958504 805:1 807:1 
0.08200383707958504 800:1 932:1 
0.08200383707958504 125:1 273:1 630:1 933:1 
0.08200383707958504 27:1 649:1 934:1 
0.08200383707958504 27:1 161:1 531:1 935:1 936:1 
0.08200383707958504 940:1 
0.08200383707958504 137:1 352:1 941:1 
0.08200383707958504 944:1 
0.08200383707958504 945:1 946:1 947:1 
0.08200383707958504 137:1 948:1 949:1 
0.08200383707958504 37:1 950:1 
0.08200383707958504 939:1 951:1 952:1 953:1 954:1 
0.08200383707958504 42:1 
0.08200383707958504 955:1 
0.08200383707958504 956:1 
0.08200383707958504 169:1 233:1 
0.06131147983084238 136:1 170:1 860:1 957:1 958:1 
0.0607408171732763 609:1 961:1 
0.08200383707958504 537:1 
0.08200383707958504 27:1 53:1 107:1 108:1 330:1 511:1 561:1 797:1 
0.08200383707958504 48:1 668:1 963:1 
0.08200383707958504 71:1 964:1 
0.08200383707958504 966:1 
0.08200383707958504 959:1 
0.08200383707958504 537:1 
0.08200383707958504 68:1 107:1 395:1 
0.08200383707958504 955:1 956:1 967:1 968:1 969:1 
0.08200383707958504 107:1 561:1 970:1 
0.08200383707958504 67:1 
0.08200383707958504 959:1 
0.08200383707958504 59:1 71:1 
0.02185685169031724 959:1 
0.08200383707958504 48:1 321:1 971:1 
0.08200383707958504 331:1 973:1 974:1 975:1 976:1 977:1 978:1 
0.08200383707958504 573:1 984:1 985:1 986:1 987:1 
0.08200383707958504 992:1 
0.08200383707958504 175:1 447:1 579:1 959:1 993:1 994:1 
0.08200383707958504 340:1 884:1 
0.08200383707958504 222:1 611:1 988:1 995:1 
0.08200383707958504 27:1 57:1 
0.08200383707958504 102:1 898:1 
0.08200383707958504 223:1 250:1 744:1 979:1 999:1 1000:1 1001:1 
0.08200383707958504 489:1 1002:1 1003:1 
0.08200383707958504 194:1 
0.08200383707958504 191:1 590:1 1004:1 1005:1 
0.08200383707958504 90:1 
0.08200383707958504 292:1 
0.08200383707958504 278:1 
0.08200383707958504 53:1 169:1 
0.08200383707958504 107:1 874:1 
0.08200383707958504 761:1 762:1 
0.06348313979037862 300:1 301:1 611:1 624:1 885:1 905:1 
0.08200383707958504 3:1 4:1 
0.08200383707958504 1013:1 
0.08200383707958504 224:1 1015:1 
0.08200383707958504 1017:1 1018:1 
0.08200383707958504 67:1 
0.08200383707958504 107:1 122:1 496:1 505:1 959:1 
0.03590110664330345 50:1 543:1 1019:1 1020:1 1021:1 
0.06241954484441158 127:1 1022:1 1023:1 1024:1 
0.08200383707958504 561:1 
0.08200383707958504 1025:1 1026:1 
0.08200383707958504 1027:1 
0.08200383707958504 848:1 
0.08200383707958504 1029:1 
0.08200383707958504 845:1 
0.08200383707958504 1030:1 
0.08200383707958504 1031:1 
0.08200383707958504 49:1 
0.08200383707958504 107:1 959:1 1032:1 
0.08200383707958504 1033:1 
0.08200383707958504 915:1 
0.08200383707958504 1034:1 1035:1 1036:1 
0.08200383707958504 507:1 
0.08200383707958504 614:1 694:1 764:1 1040:1 1041:1 
0.08200383707958504 6:1 11:1 39:1 133:1 176:1 640:1 643:1 1042:1 1043:1 1044:1 
0.05163602054590714 47:1 375:1 
0.08200383707958504 689:1 
0.08200383707958504 18:1 22:1 23:1 959:1 
0.08200383707958504 44:1 103:1 453:1 1046:1 1047:1 1048:1 
0.08200383707958504 27:1 135:1 165:1 959:1 1039:1 1049:1 
0.08200383707958504 1050:1 
0.08200383707958504 463:1 1051:1 1052:1 
0.08200383707958504 1050:1 
0.08200383707958504 1050:1 
0.08200383707958504 263:1 604:1 1053:1 1054:1 
0.08200383707958504 1050:1 
0.08200383707958504 1055:1 1056:1 
0.08200383707958504 1050:1 
0.08200383707958504 1050:1 
0.08200383707958504 217:1 
0.08200383707958504 1050:1 
0.08200383707958504 611:1 1057:1 1058:1 1059:1 
0.08200383707958504 1050:1 
0.01037144830680386 1055:1 1056:1 
0.08200383707958504 1050:1 
0.08200383707958504 1050:1 
0.08200383707958504 276:1 
0.08200383707958504 186:1 340:1 
0.08200383707958504 1050:1 
0.08200383707958504 1050:1 
0.08200383707958504 1050:1 
0.08200383707958504 175:1 223:1 338:1 437:1 604:1 999:1 1064:1 1065:1 
0.08200383707958504 1066:1 
0.08200383707958504 1050:1 
0.08200383707958504 1050:1 
0.08200383707958504 64:1 241:1 460:1 1067:1 1068:1 1069:1 1070:1 1071:1 1072:1 
0.08200383707958504 1050:1 
0.08200383707958504 222:1 224:1 225:1 1073:1 
0.08200383707958504 1050:1 
0.08200383707958504 458:1 1074:1 1075:1 
0.08200383707958504 228:1 640:1 793:1 
0.08200383707958504 1050:1 
0.08200383707958504 229:1 
0.08200383707958504 167:1 288:1 898:1 
0.08200383707958504 162:1 183:1 471:1 620:1 621:1 640:1 793:1 1076:1 1077:1 
0.08200383707958504 1050:1 
0.08200383707958504 529:1 578:1 590:1 599:1 1050:1 
0.08200383707958504 1050:1 
0.08200383707958504 313:1 758:1 
0.08200383707958504 1050:1 
0.08200383707958504 948:1 
0.08200383707958504 1088:1 
0.08200383707958504 35:1 900:1 
0.08200383707958504 37:1 384:1 578:1 640:1 643:1 793:1 
0.08200383707958504 1089:1 
0.0343643653044676 791:1 1004:1 1090:1 1091:1 
0.08200383707958504 229:1 
0.08200383707958504 67:1 
0.08200383707958504 825:1 
0.08200383707958504 1092:1 
0.08200383707958504 1050:1 
0.08200383707958504 1050:1 
0.08200383707958504 1093:1 1094:1 
0.08200383707958504 395:1 707:1 1097:1 
0.08200383707958504 1050:1 
0.08200383707958504 1050:1 
0.08200383707958504 44:1 122:1 
0.08200383707958504 1050:1 
0.08200383707958504 151:1 152:1 
0.08200383707958504 1100:1 
0.07135814092713107 47:1 56:1 787:1 788:1 843:1 
0.08200383707958504 787:1 
0.08200383707958504 1106:1 
0.08200383707958504 843:1 1073:1 
0.08200383707958504 1050:1 
0.08200383707958504 1111:1 
0.08200383707958504 1114:1 
0.08200383707958504 578:1 580:1 1115:1 1116:1 
0.08200383707958504 59:1 401:1 1112:1 
0.08200383707958504 1050:1 
0.08200383707958504 1114:1 
0.08200383707958504 578:1 580:1 1115:1 1116:1 
0.08200383707958504 925:1 1120:1 
0.08200383707958504 489:1 1121:1 
0.05248900795663308 127:1 1022:1 1122:1 
0.08200383707958504 147:1 233:1 
0.08200383707958504 558:1 1125:1 
0.08200383707958504 558:1 
0.08200383707958504 558:1 
0.08200383707958504 558:1 
0.08200383707958504 17:1 38:1 46:1 236:1 402:1 1129:1 1132:1 1133:1 
0.08200383707958504 11:1 12:1 107:1 236:1 347:1 1134:1 1135:1 1136:1 1137:1 1138:1 1139:1 
0.08200383707958504 558:1 
0.08200383707958504 558:1 
0.08200383707958504 558:1 
0.08200383707958504 1145:1 
0.08200383707958504 558:1 
0.08200383707958504 817:1 
0.08200383707958504 558:1 
0.08200383707958504 558:1 
0.08200383707958504 558:1 
0.08200383707958504 1146:1 
0.08200383707958504 229:1 590:1 998:1 
0.08200383707958504 558:1 
0.08200383707958504 558:1 
0.08200383707958504 558:1 
0.08200383707958504 84:1 102:1 194:1 558:1 728:1 
0.08200383707958504 1147:1 
0.08200383707958504 363:1 1148:1 
0.08200383707958504 558:1 
0.08200383707958504 558:1 
0.08200383707958504 558:1 
0.08200383707958504 113:1 395:1 1152:1 1153:1 
0.08200383707958504 48:1 137:1 492:1 511:1 983:1 1154:1 1155:1 
0.08200383707958504 558:1 
0.08200383707958504 57:1 
0.08200383707958504 27:1 71:1 590:1 678:1 736:1 1062:1 1063:1 1159:1 
0.08200383707958504 224:1 264:1 587:1 608:1 826:1 1003:1 1160:1 
0.08200383707958504 1161:1 
0.08200383707958504 64:1 1162:1 1163:1 1164:1 
0.08200383707958504 716:1 
0.03555915531893022 55:1 56:1 1166:1 1167:1 1168:1 1169:1 
0.08200383707958504 11:1 45:1 194:1 197:1 320:1 558:1 1170:1 
0.08200383707958504 10:1 11:1 228:1 229:1 
0.08200383707958504 558:1 
0.08200383707958504 558:1 
0.08200383707958504 558:1 
0.062440848133822 38:1 558:1 589:1 1172:1 
0.08200383707958504 422:1 614:1 
0.08200383707958504 1173:1 
0.08200383707958504 558:1 
0.08200383707958504 61:1 
0.08200383707958504 558:1 
0.08200383707958504 278:1 
0.08200383707958504 1177:1 
0.08200383707958504 558:1 
0.08200383707958504 25:1 507:1 
0.08200383707958504 326:1 
0.08200383707958504 558:1 
0.08200383707958504 558:1 
0.08200383707958504 558:1 
0.08200383707958504 47:1 70:1 1179:1 1180:1 
0.08200383707958504 313:1 
0.08200383707958504 558:1 
0.08200383707958504 558:1 
0.08200383707958504 558:1 
0.08200383707958504 313:1 413:1 558:1 754:1 1184:1 
0.08200383707958504 1185:1 
0.07876505612252535 481:1 1038:1 
0.08200383707958504 18:1 22:1 23:1 558:1 
0.08200383707958504 1022:1 1193:1 
0.08200383707958504 288:1 
0.08200383707958504 18:1 22:1 23:1 223:1 1183:1 1184:1 
0.08200383707958504 416:1 512:1 1055:1 1195:1 
0.08200383707958504 1184:1 
0.08200383707958504 1179:1 1196:1 
0.03208401962626187 1184:1 
0.08200383707958504 1200:1 
0.08200383707958504 1201:1 1202:1 
0.08200383707958504 1205:1 
0.08200383707958504 369:1 472:1 744:1 1206:1 1207:1 1208:1 
0.08200383707958504 10:1 11:1 475:1 
0.08200383707958504 340:1 600:1 
0.08200383707958504 170:1 240:1 744:1 874:1 1213:1 1214:1 1215:1 1216:1 
0.08200383707958504 14:1 273:1 439:1 873:1 1217:1 1218:1 1219:1 
0.08200383707958504 517:1 1184:1 1220:1 1221:1 
0.08200383707958504 509:1 510:1 1184:1 
0.08200383707958504 278:1 
0.08200383707958504 53:1 169:1 
0.08200383707958504 1226:1 
0.08200383707958504 34:1 1022:1 1228:1 
0.08200383707958504 489:1 1201:1 
0.08200383707958504 130:1 295:1 396:1 1235:1 
0.08200383707958504 130:1 295:1 396:1 1235:1 
0.08200383707958504 1236:1 1237:1 
0.08200383707958504 16:1 255:1 
0.08200383707958504 1036:1 
0.08200383707958504 27:1 
0.08200383707958504 1241:1 
0.03981304360595505 165:1 190:1 207:1 
0.08200383707958504 1241:1 
0.08200383707958504 67:1 
0.08200383707958504 1241:1 
0.08200383707958504 16:1 255:1 
0.08200383707958504 1036:1 
0.08200383707958504 54:1 197:1 640:1 915:1 1123:1 1128:1 1244:1 
0.08200383707958504 1163:1 
0.08200383707958504 1241:1 
0.08200383707958504 222:1 223:1 229:1 1246:1 1247:1 
0.08200383707958504 1241:1 
0.08200383707958504 1241:1 
0.08200383707958504 1163:1 
0.08200383707958504 918:1 
0.08200383707958504 1241:1 
0.06134355791730503 1241:1 
0.08200383707958504 369:1 444:1 744:1 872:1 1249:1 1250:1 
0.08200383707958504 600:1 755:1 756:1 1251:1 1252:1 
0.08200383707958504 11:1 175:1 228:1 229:1 1253:1 
0.08200383707958504 175:1 395:1 
0.08200383707958504 779:1 1254:1 1255:1 
0.02147128581622843 1256:1 
0.08200383707958504 828:1 
0.08200383707958504 243:1 252:1 253:1 736:1 1257:1 
0.08200383707958504 64:1 1257:1 1258:1 1259:1 1260:1 1261:1 
0.08200383707958504 1262:1 
0.08200383707958504 228:1 229:1 649:1 1267:1 
0.0127123358944193 278:1 
0.08200383707958504 1106:1 
0.08200383707958504 113:1 
0.08200383707958504 18:1 422:1 614:1 
0.08200383707958504 313:1 
0.08200383707958504 38:1 294:1 480:1 794:1 1241:1 
0.08200383707958504 1276:1 1277:1 
0.08200383707958504 1022:1 
0.08200383707958504 1279:1 1280:1 
0.0773743740406974 898:1 1283:1 
0.08200383707958504 326:1 
0.08200383707958504 649:1 1267:1 
0.08200383707958504 1284:1 
0.01625191143031693 6:1 27:1 45:1 275:1 340:1 1223:1 1290:1 1291:1 
0.08200383707958504 630:1 1023:1 1293:1 1294:1 
0.08200383707958504 175:1 1240:1 
0.08200383707958504 1295:1 1296:1 1297:1 
0.08200383707958504 110:1 422:1 614:1 1298:1 
0.08200383707958504 1299:1 1300:1 
0.04136742777552784 772:1 1266:1 1301:1 1302:1 
0.08200383707958504 6:1 
0.08200383707958504 395:1 481:1 561:1 900:1 
0.08200383707958504 22:1 23:1 535:1 1119:1 1183:1 
0.08200383707958504 45:1 46:1 165:1 385:1 680:1 1290:1 
0.08140631281396381 153:1 1305:1 
0.08200383707958504 50:1 184:1 
0.08200383707958504 153:1 288:1 755:1 756:1 1307:1 1308:1 
0.08200383707958504 61:1 
0.08200383707958504 1023:1 
0.08200383707958504 61:1 747:1 
0.08200383707958504 45:1 67:1 668:1 1290:1 1310:1 1311:1 1312:1 1313:1 1314:1 
0.08200383707958504 1290:1 1311:1 
0.08200383707958504 420:1 1290:1 1311:1 1315:1 1316:1 1317:1 1318:1 1319:1 
0.08200383707958504 1290:1 1310:1 1311:1 
0.08200383707958504 1329:1 
0.08200383707958504 1329:1 
0.08200383707958504 1329:1 
0.08200383707958504 1329:1 
0.08200383707958504 1329:1 
0.08200383707958504 1329:1 
0.04653551826657055 34:1 1022:1 1228:1 
0.05124647848559647 39:1 350:1 1290:1 1328:1 1332:1 
0.08200383707958504 1329:1 
0.08200383707958504 39:1 42:1 165:1 184:1 1044:1 1290:1 1328:1 1329:1 
0.08200383707958504 67:1 
0.06089441830460352 202:1 234:1 797:1 1333:1 1334:1 
0.08200383707958504 68:1 668:1 674:1 1335:1 1336:1 1337:1 
0.08200383707958504 64:1 146:1 185:1 935:1 
0.08200383707958504 1342:1 
0.08200383707958504 1342:1 
0.02118953876549121 176:1 1329:1 1343:1 
0.08200383707958504 633:1 1344:1 1345:1 1346:1 1347:1 1348:1 
0.08200383707958504 1331:1 
0.08200383707958504 702:1 
0.08200383707958504 561:1 1331:1 
0.08200383707958504 1331:1 
0.08200383707958504 1331:1 
0.08200383707958504 107:1 561:1 
0.08200383707958504 1331:1 
0.08200383707958504 107:1 828:1 
0.08200383707958504 67:1 
0.08200383707958504 1331:1 
0.08200383707958504 1331:1 
0.08200383707958504 1331:1 
0.08200383707958504 76:1 
0.08200383707958504 1331:1 
0.08200383707958504 1360:1 1361:1 1362:1 
0.08200383707958504 1331:1 
0.08200383707958504 1331:1 
0.08200383707958504 1331:1 
0.08200383707958504 1368:1 
0.08200383707958504 1370:1 
0.08200383707958504 1371:1 
0.08200383707958504 1331:1 
0.08200383707958504 58:1 
0.08200383707958504 1331:1 
0.08200383707958504 1331:1 
0.08200383707958504 340:1 
0.08200383707958504 1331:1 
0.05647141086546619 147:1 302:1 727:1 731:1 1247:1 1372:1 1374:1 1375:1 1376:1 
0.0786737208571979 507:1 806:1 1264:1 1331:1 1377:1 
0.08200383707958504 1331:1 
0.08200383707958504 573:1 997:1 1366:1 1380:1 1381:1 1382:1 1383:1 1384:1 
0.08200383707958504 241:1 690:1 1000:1 1309:1 1379:1 1385:1 1386:1 1387:1 
0.08200383707958504 425:1 
0.08200383707958504 229:1 1389:1 
0.08200383707958504 1331:1 
0.08200383707958504 1390:1 
0.08200383707958504 34:1 706:1 716:1 1391:1 1392:1 
0.08200383707958504 53:1 169:1 
0.08200383707958504 71:1 79:1 107:1 317:1 544:1 
0.02475398624708506 1331:1 
0.05880781787497479 299:1 300:1 302:1 303:1 304:1 306:1 624:1 906:1 907:1 
0.08200383707958504 1399:1 
0.08200383707958504 1022:1 
0.08200383707958504 127:1 450:1 1400:1 
0.08200383707958504 1403:1 
0.08200383707958504 234:1 1236:1 1331:1 1405:1 
0.08200383707958504 135:1 437:1 573:1 1406:1 
0.08200383707958504 1407:1 
0.08200383707958504 321:1 1290:1 
0.08200383707958504 1177:1 
0.08200383707958504 313:1 
0.07968311908658494 34:1 181:1 1409:1 1410:1 1411:1 1412:1 1413:1 
0.08200383707958504 42:1 90:1 1414:1 
0.08200383707958504 205:1 396:1 900:1 1415:1 
0.04596848489966483 176:1 346:1 446:1 1416:1 1417:1 
0.04339094291081644 344:1 1298:1 1406:1 
0.07776142456684253 11:1 12:1 197:1 280:1 622:1 1420:1 
0.08200383707958504 71:1 72:1 184:1 1422:1 
0.08200383707958504 1423:1 
0.08200383707958504 131:1 813:1 
0.08200383707958504 772:1 933:1 1298:1 1406:1 
0.08200383707958504 1426:1 
0.08200383707958504 234:1 1430:1 1431:1 1432:1 1433:1 
0.08200383707958504 312:1 599:1 660:1 797:1 812:1 1434:1 
0.08200383707958504 10:1 11:1 12:1 
0.08200383707958504 173:1 599:1 
0.08200383707958504 1298:1 1406:1 
0.08200383707958504 153:1 
0.08200383707958504 207:1 
0.08200383707958504 123:1 772:1 1406:1 
0.08200383707958504 28:1 34:1 36:1 178:1 374:1 511:1 819:1 1298:1 1436:1 
0.08200383707958504 67:1 
0.08200383707958504 966:1 1440:1 
0.08200383707958504 153:1 
0.04280568117674799 34:1 1441:1 
0.08200383707958504 394:1 1433:1 
0.05015996183874889 202:1 1442:1 1443:1 
0.08200383707958504 501:1 
0.08200383707958504 1444:1 
0.03205995933811767 37:1 104:1 203:1 1445:1 
0.08200383707958504 509:1 1446:1 
0.08200383707958504 622:1 1421:1 
0.08200383707958504 107:1 196:1 197:1 509:1 590:1 622:1 1421:1 1446:1 
0.08200383707958504 1444:1 
0.08200383707958504 800:1 918:1 
0.08200383707958504 107:1 686:1 
0.04660183080516158 1444:1 
0.08200383707958504 1201:1 
0.08200383707958504 918:1 
0.08200383707958504 1029:1 
0.08200383707958504 217:1 1453:1 1454:1 1455:1 
0.02006630376861115 63:1 249:1 1194:1 1347:1 1456:1 1457:1 1458:1 
0.08200383707958504 1201:1 
0.08200383707958504 217:1 228:1 340:1 431:1 
0.08200383707958504 448:1 1314:1 1461:1 
0.08200383707958504 1201:1 
0.08200383707958504 1463:1 1464:1 1465:1 
0.08200383707958504 222:1 224:1 241:1 726:1 817:1 1156:1 1466:1 1467:1 
0.08200383707958504 14:1 783:1 1028:1 1347:1 1468:1 1469:1 1470:1 
0.08200383707958504 184:1 280:1 622:1 1190:1 1420:1 
0.08200383707958504 10:1 11:1 87:1 1444:1 1471:1 
0.08200383707958504 53:1 169:1 
0.08200383707958504 1449:1 1473:1 
0.08200383707958504 361:1 768:1 1475:1 1476:1 
0.08200383707958504 350:1 658:1 
0.08200383707958504 48:1 395:1 1190:1 
0.08200383707958504 194:1 
0.08200383707958504 537:1 761:1 932:1 
0.02198252635783349 326:1 
0.08200383707958504 1444:1 1479:1 
0.08200383707958504 127:1 176:1 458:1 639:1 1045:1 1480:1 
0.08200383707958504 537:1 761:1 932:1 
0.08200383707958504 125:1 1481:1 1482:1 
0.08200383707958504 125:1 
0.08200383707958504 631:1 645:1 
0.08200383707958504 1483:1 
0.08200383707958504 34:1 139:1 
0.08200383707958504 795:1 
0.02955456660660117 72:1 1485:1 1486:1 1487:1 
0.08200383707958504 1489:1 1490:1 
0.0414132734029602 80:1 
0.08200383707958504 71:1 72:1 
0.08200383707958504 1491:1 
0.08200383707958504 71:1 72:1 
0.08200383707958504 1492:1 
0.08200383707958504 71:1 72:1 
0.08200383707958504 71:1 72:1 
0.08200383707958504 34:1 1493:1 
0.08200383707958504 10:1 11:1 88:1 517:1 915:1 
0.08200383707958504 212:1 1495:1 
0.04492029987926931 146:1 511:1 
0.08200383707958504 99:1 1425:1 1496:1 1497:1 
0.08200383707958504 293:1 561:1 1499:1 1500:1 
0.08200383707958504 176:1 444:1 
0.08200383707958504 1484:1 
0.08200383707958504 1484:1 
0.08200383707958504 67:1 
0.08200383707958504 27:1 
0.08200383707958504 1484:1 
0.08200383707958504 1484:1 
0.08200383707958504 212:1 1495:1 
0.08200383707958504 538:1 1502:1 
0.08200383707958504 1503:1 
0.08200383707958504 1075:1 
0.08200383707958504 1484:1 
0.08200383707958504 59:1 406:1 458:1 
0.08200383707958504 1355:1 
0.08200383707958504 1513:1 
0.08200383707958504 917:1 918:1 
0.08200383707958504 1484:1 
0.08200383707958504 84:1 437:1 1149:1 1514:1 1515:1 1516:1 
0.08200383707958504 1484:1 
0.08200383707958504 1355:1 
0.08200383707958504 27:1 
0.08200383707958504 1484:1 
0.08200383707958504 529:1 590:1 
0.08200383707958504 1484:1 
0.08200383707958504 1521:1 
0.08200383707958504 250:1 261:1 262:1 1522:1 
0.08200383707958504 1523:1 
0.08200383707958504 10:1 11:1 228:1 229:1 475:1 
0.08200383707958504 1484:1 
0.08200383707958504 35:1 184:1 458:1 778:1 1114:1 1527:1 
0.08200383707958504 71:1 
0.08200383707958504 1484:1 
0.08200383707958504 27:1 
0.08200383707958504 1484:1 
0.08200383707958504 7:1 754:1 1522:1 
0.08200383707958504 37:1 48:1 69:1 70:1 206:1 1529:1 
0.08200383707958504 7:1 1522:1 
0.08200383707958504 34:1 169:1 1470:1 1532:1 1533:1 1534:1 
0.08200383707958504 153:1 1522:1 1535:1 
0.08200383707958504 7:1 94:1 1522:1 
0.08200383707958504 288:1 311:1 383:1 1484:1 1536:1 1537:1 1538:1 
0.08200383707958504 18:1 422:1 614:1 
0.08200383707958504 113:1 
0.08200383707958504 495:1 
0.08200383707958504 480:1 1242:1 1474:1 
0.08200383707958504 1484:1 
0.08200383707958504 311:1 614:1 1177:1 1540:1 1541:1 
0.08200383707958504 1484:1 
0.08200383707958504 1484:1 
0.08200383707958504 1484:1 
0.08200383707958504 1484:1 
0.08200383707958504 153:1 
0.08200383707958504 1544:1 1545:1 
0.08200383707958504 107:1 648:1 649:1 1425:1 1546:1 
0.08200383707958504 103:1 340:1 449:1 1545:1 1549:1 1550:1 
0.08200383707958504 103:1 107:1 122:1 361:1 
0.08200383707958504 639:1 1320:1 
0.08200383707958504 6:1 67:1 85:1 
0.08200383707958504 6:1 11:1 350:1 578:1 1043:1 1557:1 
0.08200383707958504 6:1 
0.08200383707958504 1484:1 
0.08200383707958504 176:1 561:1 1558:1 1559:1 
0.08200383707958504 523:1 638:1 1484:1 1560:1 1561:1 
0.08200383707958504 16:1 22:1 23:1 24:1 1484:1 
0.08200383707958504 67:1 
0.08200383707958504 444:1 
0.08200383707958504 34:1 134:1 316:1 710:1 911:1 1290:1 1564:1 
0.08200383707958504 103:1 336:1 337:1 448:1 710:1 1566:1 
0.08200383707958504 372:1 1115:1 1567:1 1568:1 1569:1 1570:1 
0.08200383707958504 153:1 
0.08200383707958504 1176:1 
0.08200383707958504 384:1 1115:1 1567:1 1574:1 1575:1 
0.08200383707958504 156:1 1578:1 1579:1 1580:1 
0.08200383707958504 11:1 884:1 1583:1 1584:1 
0.08200383707958504 1577:1 
0.08200383707958504 330:1 716:1 1144:1 1585:1 1586:1 1587:1 
0.08200383707958504 1577:1 
0.08200383707958504 1104:1 
0.08200383707958504 1577:1 
0.08200383707958504 1577:1 
0.02094972178914504 1577:1 
0.08200383707958504 228:1 229:1 556:1 
0.08200383707958504 276:1 
0.07331268867219305 103:1 107:1 122:1 336:1 337:1 
0.04720200520239822 82:1 1111:1 1595:1 1596:1 
0.08200383707958504 64:1 999:1 1090:1 1387:1 1600:1 1601:1 
0.08200383707958504 205:1 358:1 437:1 556:1 593:1 1591:1 1602:1 1603:1 
0.08200383707958504 67:1 
0.08200383707958504 11:1 72:1 228:1 229:1 
0.08200383707958504 276:1 
0.08200383707958504 843:1 
0.08200383707958504 882:1 1605:1 1606:1 
0.08200383707958504 1473:1 1604:1 
0.08200383707958504 229:1 670:1 1012:1 1608:1 1609:1 1610:1 
0.08200383707958504 11:1 19:1 72:1 
0.08200383707958504 505:1 
0.08200383707958504 447:1 
0.08200383707958504 133:1 151:1 372:1 1569:1 1575:1 1613:1 1614:1 
0.08200383707958504 1611:1 1615:1 1616:1 
0.08200383707958504 326:1 689:1 
0.08200383707958504 229:1 1321:1 
0.08200383707958504 544:1 
0.08200383707958504 259:1 
0.08200383707958504 22:1 23:1 1119:1 1620:1 
0.08200383707958504 1623:1 
0.08200383707958504 393:1 
0.08200383707958504 1290:1 1564:1 
0.08200383707958504 411:1 
0.08200383707958504 224:1 496:1 521:1 614:1 1110:1 1164:1 1290:1 1573:1 1626:1 
0.08200383707958504 184:1 477:1 1195:1 
0.08200383707958504 51:1 515:1 680:1 1034:1 1035:1 1628:1 
0.08200383707958504 496:1 710:1 1610:1 
0.08200383707958504 53:1 236:1 416:1 437:1 1351:1 1610:1 1630:1 1631:1 1632:1 
0.08200383707958504 1610:1 
0.08200383707958504 411:1 
0.08200383707958504 416:1 512:1 600:1 1545:1 
0.08200383707958504 1610:1 
0.08200383707958504 1610:1 
0.08200383707958504 1636:1 1637:1 
0.08200383707958504 1610:1 
0.08200383707958504 124:1 343:1 472:1 1205:1 1638:1 1639:1 
0.08200383707958504 1610:1 
0.08200383707958504 304:1 
0.08200383707958504 1610:1 
0.08200383707958504 1610:1 
0.08200383707958504 224:1 241:1 744:1 1000:1 1058:1 1634:1 1640:1 1641:1 
0.08200383707958504 1610:1 
0.08200383707958504 390:1 1201:1 
0.08200383707958504 1610:1 
0.005410576264390724 175:1 190:1 874:1 1233:1 1642:1 1643:1 1644:1 
0.08200383707958504 175:1 216:1 439:1 873:1 1645:1 1646:1 
0.08200383707958504 1610:1 
0.08200383707958504 340:1 776:1 802:1 
0.08200383707958504 1610:1 
0.02236195921224951 66:1 369:1 726:1 973:1 1003:1 1055:1 1583:1 1647:1 
0.08200383707958504 1610:1 
0.08200383707958504 1610:1 
0.08200383707958504 85:1 183:1 1610:1 
0.02840827926282288 108:1 1460:1 
0.08200383707958504 53:1 169:1 
0.08200383707958504 84:1 328:1 1610:1 1653:1 
0.08200383707958504 69:1 464:1 1653:1 
0.08200383707958504 11:1 1654:1 
0.08200383707958504 71:1 72:1 1119:1 
0.08200383707958504 1610:1 
0.08200383707958504 343:1 589:1 1653:1 1655:1 
0.08200383707958504 1610:1 
0.08200383707958504 874:1 1610:1 
0.02546031778217447 38:1 762:1 1610:1 
0.08200383707958504 137:1 1020:1 
0.08200383707958504 113:1 153:1 314:1 494:1 614:1 882:1 1610:1 1658:1 
0.08200383707958504 505:1 
0.08200383707958504 1610:1 
0.08200383707958504 1659:1 
0.08200383707958504 259:1 
0.08200383707958504 1660:1 
0.08200383707958504 1610:1 
0.08200383707958504 167:1 422:1 499:1 
0.08200383707958504 577:1 580:1 994:1 
0.08200383707958504 1610:1 
0.08200383707958504 229:1 
0.08200383707958504 1610:1 
0.07826534813676131 378:1 529:1 1290:1 1435:1 1664:1 
0.08200383707958504 313:1 
0.08200383707958504 1610:1 
0.08200383707958504 824:1 
0.08200383707958504 892:1 1474:1 
0.08200383707958504 529:1 
0.08200383707958504 27:1 
0.08200383707958504 98:1 125:1 1666:1 
0.08200383707958504 102:1 898:1 
0.08200383707958504 233:1 1667:1 
0.08200383707958504 67:1 
0.08200383707958504 1667:1 
0.08200383707958504 121:1 236:1 828:1 1039:1 1669:1 1670:1 1671:1 
0.08200383707958504 1667:1 
0.08200383707958504 1667:1 
0.08200383707958504 61:1 
0.08200383707958504 1667:1 
0.08200383707958504 27:1 
0.08200383707958504 1667:1 
0.08200383707958504 1667:1 
0.08200383707958504 1672:1 
0.08200383707958504 63:1 71:1 79:1 288:1 
0.08200383707958504 1667:1 
0.08200383707958504 176:1 1020:1 
0.08200383707958504 76:1 
0.08200383707958504 1667:1 
0.0537890100545506 1667:1 
0.08200383707958504 1673:1 
0.08200383707958504 76:1 107:1 817:1 
0.08200383707958504 207:1 
0.08200383707958504 53:1 
0.08200383707958504 411:1 
0.08200383707958504 76:1 107:1 817:1 
0.08200383707958504 207:1 
0.08200383707958504 1675:1 
0.08200383707958504 363:1 
0.08200383707958504 1681:1 
0.08200383707958504 1682:1 
0.08200383707958504 107:1 
0.08200383707958504 471:1 620:1 621:1 1076:1 1077:1 1667:1 
0.08200383707958504 1106:1 1684:1 
0.05288699398236738 107:1 258:1 360:1 758:1 1503:1 1685:1 
0.08200383707958504 53:1 169:1 
0.08200383707958504 38:1 76:1 491:1 611:1 624:1 762:1 885:1 905:1 906:1 907:1 918:1 1079:1 
0.08200383707958504 61:1 
0.0523888026822777 48:1 49:1 154:1 1687:1 
0.08200383707958504 505:1 
0.08200383707958504 496:1 768:1 1692:1 
0.08200383707958504 181:1 207:1 327:1 
0.08200383707958504 496:1 768:1 1692:1 
0.02279941446660705 1234:1 1667:1 1693:1 
0.08200383707958504 68:1 165:1 284:1 1694:1 1695:1 1696:1 
0.08200383707958504 22:1 23:1 475:1 1117:1 1667:1 
0.08200383707958504 807:1 937:1 1697:1 1698:1 
0.08200383707958504 38:1 130:1 294:1 
0.08200383707958504 1023:1 1702:1 
0.08200383707958504 356:1 357:1 535:1 536:1 537:1 932:1 
0.08200383707958504 71:1 148:1 348:1 1188:1 1703:1 
0.08200383707958504 27:1 310:1 
0.08200383707958504 138:1 1704:1 
0.08200383707958504 18:1 22:1 23:1 1667:1 
0.08200383707958504 372:1 
0.08200383707958504 165:1 659:1 660:1 
0.08200383707958504 328:1 508:1 937:1 1719:1 1720:1 
0.08200383707958504 43:1 56:1 183:1 822:1 1384:1 1495:1 1713:1 1716:1 1721:1 
0.08200383707958504 27:1 37:1 1324:1 1694:1 1696:1 1724:1 1725:1 1726:1 
0.08200383707958504 641:1 
0.08200383707958504 1728:1 1729:1 1730:1 1731:1 1732:1 
0.08200383707958504 34:1 130:1 349:1 420:1 687:1 824:1 1733:1 1734:1 
0.08200383707958504 527:1 
0.05821075443247515 69:1 336:1 710:1 1735:1 1736:1 
0.08200383707958504 1056:1 1737:1 
0.08200383707958504 576:1 791:1 1599:1 
0.08200383707958504 527:1 
0.08200383707958504 1738:1 1739:1 1740:1 
0.08200383707958504 1741:1 1742:1 
0.08200383707958504 288:1 720:1 1290:1 1435:1 1744:1 
0.08200383707958504 34:1 267:1 717:1 1228:1 1480:1 1745:1 
0.08200383707958504 537:1 1738:1 
0.05327839934221314 48:1 49:1 1746:1 
0.08200383707958504 1610:1 
0.08200383707958504 867:1 868:1 
0.08200383707958504 1738:1 
0.08200383707958504 104:1 
0.08200383707958504 1738:1 
0.08200383707958504 1738:1 
0.05797156752652031 300:1 1009:1 1739:1 1750:1 1751:1 1752:1 
0.08200383707958504 1738:1 
0.08200383707958504 176:1 1753:1 
0.08200383707958504 304:1 
0.08200383707958504 1738:1 
0.08200383707958504 1738:1 
0.02042739875084706 1738:1 
0.08200383707958504 600:1 
0.08200383707958504 170:1 253:1 435:1 492:1 983:1 
0.08200383707958504 425:1 
0.06481222706625678 299:1 512:1 590:1 1137:1 1215:1 1754:1 1755:1 1756:1 
0.08200383707958504 1757:1 
0.08200383707958504 229:1 692:1 
0.08200383707958504 1642:1 
0.08200383707958504 176:1 240:1 744:1 
0.08200383707958504 241:1 304:1 604:1 744:1 1645:1 1760:1 
0.08200383707958504 508:1 1205:1 
0.08200383707958504 265:1 304:1 305:1 492:1 744:1 1645:1 1706:1 1761:1 1762:1 
0.08200383707958504 53:1 169:1 
0.08200383707958504 411:1 
0.08200383707958504 197:1 1738:1 1769:1 1770:1 
0.08200383707958504 791:1 
0.08200383707958504 61:1 
0.08200383707958504 137:1 529:1 1080:1 1771:1 
0.08200383707958504 882:1 1738:1 
0.01298002069427903 181:1 1353:1 1774:1 
0.08200383707958504 313:1 
0.08200383707958504 1775:1 
0.08200383707958504 49:1 1776:1 
0.08200383707958504 34:1 1777:1 
0.08200383707958504 350:1 444:1 
0.08200383707958504 496:1 537:1 539:1 
0.08200383707958504 1779:1 
0.08200383707958504 103:1 107:1 
0.08200383707958504 103:1 340:1 648:1 649:1 884:1 1028:1 1387:1 1781:1 
0.08200383707958504 70:1 153:1 176:1 1084:1 1782:1 
0.08200383707958504 103:1 107:1 519:1 520:1 625:1 652:1 1029:1 1030:1 1079:1 
0.08200383707958504 1784:1 1785:1 1786:1 
0.08200383707958504 1787:1 
0.08200383707958504 39:1 133:1 184:1 310:1 477:1 1042:1 1290:1 1328:1 1790:1 
0.08200383707958504 7:1 509:1 510:1 1791:1 
0.08200383707958504 447:1 
0.08200383707958504 1791:1 
0.08200383707958504 1791:1 
0.08200383707958504 67:1 
0.08200383707958504 411:1 
0.08200383707958504 107:1 1132:1 
0.08200383707958504 1792:1 
0.08200383707958504 13:1 71:1 147:1 382:1 1457:1 1791:1 1793:1 1794:1 
0.08200383707958504 197:1 509:1 668:1 1409:1 1446:1 1795:1 1796:1 
0.0219686100070175 1791:1 
0.08200383707958504 153:1 
0.08200383707958504 1176:1 
0.08200383707958504 1798:1 
0.08200383707958504 318:1 
0.08200383707958504 1362:1 1799:1 1800:1 
0.08200383707958504 207:1 
0.08200383707958504 1801:1 
0.08200383707958504 1802:1 
0.08200383707958504 10:1 11:1 228:1 475:1 
0.04776112418994759 57:1 452:1 466:1 469:1 898:1 1805:1 
0.08200383707958504 161:1 250:1 1803:1 1806:1 1807:1 1808:1 
0.08200383707958504 122:1 1809:1 1810:1 1811:1 
0.08200383707958504 238:1 544:1 1812:1 1813:1 
0.08200383707958504 1815:1 1816:1 
0.08200383707958504 228:1 229:1 725:1 
0.08200383707958504 27:1 167:1 373:1 1004:1 1074:1 1303:1 1817:1 1818:1 
0.08200383707958504 19:1 71:1 229:1 484:1 485:1 
0.08200383707958504 1824:1 
0.08200383707958504 242:1 
0.08200383707958504 535:1 787:1 788:1 1283:1 1303:1 
0.08200383707958504 79:1 313:1 1791:1 
0.08200383707958504 505:1 
0.08200383707958504 336:1 448:1 625:1 710:1 
0.08200383707958504 295:1 1825:1 
0.08200383707958504 107:1 1032:1 1791:1 
0.08200383707958504 411:1 
0.08200383707958504 1022:1 
0.08200383707958504 1826:1 
0.08200383707958504 13:1 764:1 1041:1 1409:1 1827:1 
0.08200383707958504 56:1 684:1 686:1 687:1 1819:1 1828:1 1829:1 1830:1 
0.08200383707958504 1831:1 1832:1 1833:1 1834:1 1835:1 1836:1 1837:1 1838:1 
0.08200383707958504 674:1 1842:1 1843:1 
0.08200383707958504 420:1 686:1 687:1 1828:1 1829:1 1844:1 1845:1 1846:1 
0.08200383707958504 330:1 802:1 1004:1 1847:1 
0.08200383707958504 153:1 347:1 1817:1 1818:1 
0.08200383707958504 372:1 1558:1 1559:1 
0.01268918195287978 180:1 332:1 1852:1 
0.06229391091956465 144:1 496:1 1296:1 1853:1 1854:1 1855:1 
0.08200383707958504 1856:1 
0.08200383707958504 1823:1 1859:1 
0.08200383707958504 881:1 
0.08200383707958504 883:1 
0.08200383707958504 955:1 
0.08200383707958504 1068:1 
0.08200383707958504 1860:1 
0.08200383707958504 67:1 
0.08200383707958504 511:1 
0.08200383707958504 1864:1 
0.04662908540856569 317:1 1865:1 
0.08200383707958504 509:1 510:1 1865:1 
0.08200383707958504 288:1 631:1 
0.08200383707958504 135:1 416:1 458:1 1856:1 1866:1 1867:1 
0.08200383707958504 509:1 1446:1 1870:1 
0.008001201457820723 735:1 1823:1 
0.08200383707958504 1873:1 
0.08200383707958504 746:1 1657:1 1874:1 
0.08200383707958504 67:1 
0.08200383707958504 1579:1 
0.08200383707958504 1856:1 
0.08200383707958504 10:1 11:1 475:1 1876:1 
0.08200383707958504 1856:1 
0.08200383707958504 749:1 
0.08200383707958504 1856:1 
0.08200383707958504 1055:1 
0.08200383707958504 1856:1 
0.04426882882729394 64:1 77:1 243:1 302:1 471:1 573:1 1525:1 
0.02198144045932338 1856:1 
0.08200383707958504 55:1 334:1 472:1 593:1 1207:1 1878:1 1879:1 1880:1 
0.02601709383137114 64:1 224:1 240:1 243:1 261:1 1058:1 1207:1 1886:1 
0.08200383707958504 228:1 1881:1 1882:1 
0.08200383707958504 1887:1 
0.08200383707958504 18:1 138:1 934:1 960:1 
0.08200383707958504 38:1 299:1 300:1 301:1 302:1 303:1 304:1 305:1 306:1 983:1 1222:1 1890:1 
0.08200383707958504 589:1 1607:1 1856:1 1891:1 
0.08200383707958504 34:1 523:1 1892:1 1893:1 
0.08200383707958504 113:1 153:1 422:1 494:1 614:1 
0.08200383707958504 502:1 
0.08200383707958504 27:1 
0.08200383707958504 1284:1 
0.08200383707958504 1284:1 
0.08200383707958504 703:1 1897:1 1898:1 
0.08200383707958504 1088:1 1238:1 
0.08200383707958504 194:1 
0.08200383707958504 230:1 576:1 1899:1 
0.08200383707958504 67:1 
0.08200383707958504 229:1 
0.08200383707958504 1860:1 
0.03506552362193777 643:1 915:1 1226:1 1599:1 1881:1 1882:1 1901:1 
0.08200383707958504 153:1 652:1 
0.08200383707958504 103:1 107:1 169:1 523:1 1902:1 1903:1 1904:1 
0.08200383707958504 1860:1 
0.08200383707958504 82:1 103:1 120:1 175:1 176:1 648:1 649:1 652:1 
0.08200383707958504 848:1 
0.08200383707958504 57:1 120:1 652:1 1905:1 
0.08200383707958504 222:1 651:1 652:1 1906:1 1907:1 
0.08200383707958504 103:1 519:1 520:1 625:1 652:1 845:1 848:1 1029:1 1030:1 1552:1 1908:1 1909:1 
0.08200383707958504 522:1 1910:1 
0.08200383707958504 61:1 271:1 
0.08200383707958504 1912:1 
0.08200383707958504 736:1 757:1 1022:1 1024:1 1913:1 1914:1 1915:1 
0.08200383707958504 1860:1 
0.08200383707958504 497:1 
0.03270294483307238 390:1 1916:1 1917:1 
0.08200383707958504 777:1 1917:1 
0.08200383707958504 147:1 561:1 1351:1 
0.08200383707958504 1917:1 
0.08200383707958504 1921:1 
0.08200383707958504 280:1 660:1 911:1 1087:1 1581:1 1846:1 1925:1 1926:1 
0.08200383707958504 206:1 392:1 587:1 1524:1 1930:1 1931:1 
0.08200383707958504 1917:1 
0.08200383707958504 1021:1 
0.08200383707958504 1917:1 
0.08200383707958504 217:1 1020:1 1075:1 
0.08200383707958504 1917:1 
0.08200383707958504 250:1 264:1 437:1 1931:1 1932:1 1933:1 
0.08200383707958504 1917:1 
0.08200383707958504 607:1 611:1 1055:1 1934:1 
0.08200383707958504 1917:1 
0.08200383707958504 1917:1 
0.08200383707958504 1917:1 
0.08200383707958504 1917:1 
0.08200383707958504 64:1 176:1 223:1 439:1 918:1 1040:1 1937:1 1938:1 
0.08200383707958504 1917:1 
0.08200383707958504 1917:1 
0.08200383707958504 228:1 229:1 590:1 1944:1 
0.08200383707958504 1917:1 
0.08200383707958504 1284:1 
0.08200383707958504 1385:1 
0.08200383707958504 1917:1 
0.08200383707958504 1948:1 1949:1 1950:1 1951:1 1952:1 1953:1 1954:1 1955:1 1956:1 1957:1 1958:1 1959:1 1960:1 
0.01906951661237796 38:1 491:1 611:1 624:1 885:1 905:1 906:1 907:1 918:1 1079:1 
0.08200383707958504 107:1 1961:1 
0.08200383707958504 1917:1 
0.08200383707958504 1917:1 
0.08200383707958504 897:1 1962:1 
0.08200383707958504 37:1 68:1 1917:1 1963:1 
0.08200383707958504 27:1 
0.08200383707958504 1917:1 
0.03068891309168424 107:1 239:1 581:1 668:1 1954:1 1964:1 
0.08200383707958504 61:1 
0.08200383707958504 69:1 82:1 1954:1 1965:1 
0.08200383707958504 61:1 
0.08200383707958504 47:1 1965:1 1966:1 1967:1 1968:1 
0.08200383707958504 313:1 1474:1 1772:1 1917:1 
0.08200383707958504 34:1 1228:1 1969:1 
0.08200383707958504 599:1 933:1 
0.08200383707958504 52:1 153:1 384:1 
0.08200383707958504 1118:1 
0.08200383707958504 18:1 19:1 22:1 23:1 169:1 
0.08200383707958504 10:1 11:1 12:1 1974:1 1975:1 1976:1 
0.08200383707958504 1936:1 
0.08200383707958504 1917:1 
0.08200383707958504 1977:1 
0.08200383707958504 1917:1 
0.08200383707958504 1917:1 
0.08200383707958504 406:1 894:1 1979:1 
0.03291141223084375 137:1 406:1 
0.01508722661447808 127:1 137:1 1394:1 1971:1 1980:1 
0.08200383707958504 1917:1 
0.08200383707958504 1936:1 1981:1 
0.08200383707958504 1860:1 
0.08200383707958504 666:1 
0.08200383707958504 103:1 474:1 1038:1 1054:1 1253:1 1785:1 1992:1 1993:1 1994:1 
0.08200383707958504 103:1 107:1 122:1 656:1 1552:1 1997:1 1998:1 
0.08200383707958504 10:1 11:1 12:1 1256:1 1999:1 
0.08200383707958504 521:1 
0.08200383707958504 161:1 
0.08200383707958504 1568:1 
0.08200383707958504 234:1 544:1 
0.08200383707958504 2000:1 
0.02752845370876697 124:1 343:1 746:1 1177:1 
0.08200383707958504 229:1 350:1 1290:1 1313:1 
0.08200383707958504 234:1 2002:1 
0.08200383707958504 836:1 
0.08200383707958504 258:1 316:1 373:1 544:1 1132:1 
0.08200383707958504 1:1 27:1 44:1 668:1 
0.08200383707958504 67:1 
0.08200383707958504 10:1 11:1 12:1 172:1 
0.08200383707958504 67:1 
0.08200383707958504 1163:1 
0.08200383707958504 27:1 
0.08200383707958504 2003:1 
0.08200383707958504 2004:1 
0.08200383707958504 2000:1 
0.08200383707958504 67:1 
0.08200383707958504 710:1 2005:1 2006:1 2007:1 
0.08200383707958504 2008:1 2009:1 
0.08200383707958504 497:1 1106:1 1256:1 2010:1 
0.08200383707958504 384:1 2011:1 
0.08200383707958504 62:1 916:1 1744:1 2014:1 
0.02872606949490033 153:1 
0.08200383707958504 509:1 1446:1 
0.08200383707958504 147:1 1440:1 2016:1 
0.08200383707958504 1146:1 
0.08200383707958504 67:1 
0.08200383707958504 10:1 11:1 67:1 1256:1 
0.08200383707958504 10:1 11:1 197:1 2020:1 
0.08200383707958504 961:1 2018:1 
0.08200383707958504 185:1 579:1 580:1 1875:1 
0.08200383707958504 10:1 11:1 12:1 148:1 
0.08200383707958504 10:1 11:1 12:1 60:1 
0.08200383707958504 10:1 11:1 12:1 
0.08200383707958504 1393:1 
0.08200383707958504 447:1 
0.08200383707958504 920:1 2022:1 2023:1 
0.08200383707958504 1409:1 
0.08200383707958504 198:1 223:1 437:1 1070:1 1149:1 1755:1 2024:1 2025:1 
0.08200383707958504 917:1 918:1 
0.08200383707958504 68:1 870:1 924:1 1460:1 
0.08200383707958504 254:1 
0.08200383707958504 175:1 228:1 229:1 
0.08200383707958504 2030:1 
0.08200383707958504 290:1 
0.08200383707958504 1073:1 2032:1 
0.03612049379363148 2034:1 2035:1 
0.08200383707958504 301:1 
0.08200383707958504 749:1 
0.08200383707958504 2036:1 
0.05354090683480436 27:1 223:1 227:1 437:1 725:1 1137:1 1939:1 2029:1 2039:1 
0.08200383707958504 843:1 
0.08200383707958504 84:1 1156:1 2040:1 
0.08200383707958504 492:1 604:1 1144:1 2025:1 2041:1 2042:1 
0.08200383707958504 1939:1 
0.08200383707958504 778:1 2043:1 
0.08200383707958504 668:1 
0.08200383707958504 639:1 2047:1 
0.08200383707958504 71:1 228:1 725:1 
0.08200383707958504 276:1 
0.08200383707958504 229:1 897:1 
0.08200383707958504 411:1 
0.04323706473770786 288:1 384:1 824:1 1332:1 2050:1 
0.08200383707958504 2004:1 
0.08200383707958504 10:1 11:1 12:1 181:1 484:1 1891:1 
0.08200383707958504 797:1 1614:1 2052:1 2053:1 2054:1 
0.08200383707958504 2055:1 
0.08200383707958504 67:1 
0.08200383707958504 1860:1 
0.08200383707958504 505:1 1256:1 
0.08200383707958504 2:1 326:1 2056:1 
0.06617879190894474 67:1 
0.08200383707958504 667:1 2057:1 
0.08200383707958504 2058:1 
0.08200383707958504 10:1 11:1 12:1 98:1 224:1 1377:1 
0.08200383707958504 275:1 507:1 
0.08200383707958504 18:1 46:1 259:1 322:1 356:1 
0.08200383707958504 259:1 
0.08200383707958504 103:1 512:1 2060:1 
0.08200383707958504 120:1 340:1 374:1 648:1 649:1 1624:1 2061:1 2062:1 
0.08200383707958504 103:1 340:1 529:1 648:1 649:1 884:1 1090:1 1387:1 1600:1 
0.08200383707958504 71:1 72:1 264:1 288:1 717:1 1744:1 2063:1 
0.08200383707958504 38:1 103:1 107:1 518:1 519:1 520:1 625:1 885:1 1029:1 1079:1 2067:1 
0.08200383707958504 10:1 11:1 12:1 795:1 
0.08200383707958504 791:1 
0.08200383707958504 313:1 
0.08200383707958504 791:1 
0.08200383707958504 288:1 1256:1 
0.08200383707958504 1175:1 2068:1 
0.08200383707958504 39:1 48:1 50:1 295:1 824:1 1501:1 1886:1 
0.08200383707958504 18:1 1135:1 2069:1 
0.08200383707958504 313:1 
0.08200383707958504 10:1 11:1 12:1 154:1 827:1 
0.08200383707958504 10:1 11:1 12:1 22:1 23:1 24:1 184:1 275:1 277:1 535:1 
0.08200383707958504 353:1 
0.08200383707958504 344:1 422:1 614:1 2072:1 
0.08200383707958504 2075:1 
0.08200383707958504 290:1 2076:1 
0.08200383707958504 1860:1 
0.08200383707958504 49:1 
0.08200383707958504 62:1 
0.08200383707958504 2083:1 
0.08200383707958504 2084:1 2085:1 2086:1 
0.08200383707958504 967:1 2087:1 2088:1 
0.08200383707958504 79:1 453:1 641:1 2071:1 
0.08200383707958504 259:1 
0.08200383707958504 259:1 
0.08200383707958504 69:1 
0.08200383707958504 62:1 77:1 1307:1 1983:1 
0.03376879587904347 122:1 1082:1 1469:1 
0.08200383707958504 444:1 1256:1 2055:1 
0.08200383707958504 40:1 293:1 378:1 985:1 1327:1 2006:1 2089:1 2090:1 
0.08200383707958504 356:1 1568:1 
0.08200383707958504 1759:1 2091:1 2092:1 
0.08200383707958504 1568:1 
0.08200383707958504 176:1 639:1 1335:1 
0.000504440319162753 1256:1 
0.08200383707958504 1032:1 
0.08200383707958504 576:1 
0.08200383707958504 107:1 439:1 2093:1 
0.08200383707958504 2097:1 
0.08200383707958504 152:1 
0.05773163088939366 411:1 
0.08200383707958504 2097:1 
0.08200383707958504 738:1 
0.08200383707958504 27:1 
0.08200383707958504 125:1 348:1 508:1 
0.08200383707958504 777:1 1090:1 1176:1 1492:1 
0.08200383707958504 2109:1 2110:1 
0.08200383707958504 107:1 1074:1 2112:1 2113:1 
0.08200383707958504 509:1 510:1 
0.08200383707958504 27:1 
0.08200383707958504 27:1 
0.08200383707958504 68:1 107:1 122:1 439:1 576:1 2114:1 
0.08200383707958504 576:1 
0.08200383707958504 59:1 107:1 1074:1 1961:1 
0.07945888958940335 104:1 
0.08200383707958504 104:1 819:1 1038:1 2115:1 
0.08200383707958504 2116:1 
0.08200383707958504 1568:1 
0.08200383707958504 34:1 94:1 795:1 
0.08200383707958504 1021:1 
0.08200383707958504 69:1 107:1 464:1 
0.08200383707958504 310:1 
0.08200383707958504 496:1 777:1 1296:1 
0.08200383707958504 658:1 2125:1 
0.08200383707958504 917:1 1503:1 2125:1 
0.01543292275777816 27:1 59:1 1545:1 1642:1 2126:1 2127:1 
0.08200383707958504 2128:1 
0.08200383707958504 2125:1 
0.08200383707958504 517:1 
0.08200383707958504 2125:1 
0.08200383707958504 304:1 
0.08200383707958504 2125:1 
0.08200383707958504 2125:1 
0.08200383707958504 61:1 843:1 2133:1 2134:1 
0.08200383707958504 2125:1 
0.08200383707958504 1374:1 
0.02200825923237177 57:1 170:1 253:1 435:1 980:1 2132:1 2135:1 
0.08200383707958504 2125:1 
0.08200383707958504 2136:1 
0.08200383707958504 2125:1 
0.08200383707958504 217:1 
0.08200383707958504 918:1 
0.08200383707958504 2125:1 
0.001686268115926069 2125:1 
0.08200383707958504 425:1 
0.08200383707958504 668:1 2145:1 
0.08200383707958504 27:1 57:1 170:1 435:1 736:1 2144:1 2147:1 
0.08200383707958504 63:1 236:1 252:1 1000:1 1645:1 1706:1 2143:1 2150:1 
0.08200383707958504 262:1 512:1 727:1 1073:1 1108:1 1168:1 2144:1 2151:1 
0.08200383707958504 186:1 229:1 
0.08200383707958504 123:1 
0.08200383707958504 153:1 207:1 317:1 327:1 793:1 
0.08200383707958504 504:1 
0.08200383707958504 2004:1 
0.08200383707958504 53:1 169:1 
0.08200383707958504 53:1 169:1 
0.08200383707958504 68:1 232:1 1137:1 2153:1 
0.08200383707958504 313:1 
0.08200383707958504 45:1 69:1 2125:1 
0.08200383707958504 966:1 
0.08200383707958504 65:1 80:1 2155:1 
0.08200383707958504 51:1 147:1 680:1 776:1 
0.08200383707958504 2160:1 
0.08200383707958504 27:1 
0.08200383707958504 2160:1 
0.08200383707958504 567:1 590:1 2162:1 2163:1 
0.08200383707958504 184:1 710:1 2164:1 
0.08200383707958504 351:1 1151:1 
0.08200383707958504 61:1 1475:1 
0.08200383707958504 2162:1 
0.08200383707958504 53:1 107:1 
0.08200383707958504 170:1 612:1 1603:1 
0.08200383707958504 1021:1 
0.08200383707958504 2162:1 
0.08200383707958504 228:1 
0.08200383707958504 2162:1 
0.08200383707958504 654:1 
0.08200383707958504 2162:1 
0.08200383707958504 736:1 2161:1 
0.052817702584259 340:1 437:1 879:1 899:1 1030:1 1144:1 1357:1 2169:1 
0.08200383707958504 57:1 512:1 1028:1 2170:1 2171:1 2172:1 
0.08200383707958504 2162:1 
0.08200383707958504 71:1 72:1 228:1 2175:1 
0.08200383707958504 24:1 
0.08200383707958504 38:1 620:1 621:1 1032:1 
0.08200383707958504 2162:1 
0.08200383707958504 107:1 176:1 623:1 1542:1 
0.08200383707958504 2162:1 
0.08200383707958504 1887:1 
0.08200383707958504 107:1 725:1 2176:1 
0.08200383707958504 76:1 491:1 722:1 905:1 906:1 907:1 918:1 1027:1 1028:1 1030:1 1079:1 
0.08200383707958504 2162:1 
0.08200383707958504 2162:1 
0.08200383707958504 2162:1 
0.08200383707958504 11:1 202:1 2178:1 
0.08200383707958504 544:1 2162:1 
0.08200383707958504 716:1 2179:1 
0.08200383707958504 1556:1 2182:1 2183:1 
0.08200383707958504 299:1 2184:1 
0.08200383707958504 1080:1 2185:1 2186:1 
0.08200383707958504 304:1 2187:1 
0.08200383707958504 8:1 34:1 717:1 1290:1 1313:1 2190:1 2191:1 
0.08200383707958504 2162:1 
0.08200383707958504 577:1 1127:1 2192:1 
0.08200383707958504 2162:1 
0.08200383707958504 1181:1 
0.08200383707958504 2162:1 
0.08200383707958504 641:1 1699:1 
0.08200383707958504 59:1 983:1 2198:1 
0.08200383707958504 102:1 616:1 817:1 1454:1 
0.08200383707958504 34:1 130:1 349:1 420:1 687:1 824:1 1733:1 
0.08200383707958504 77:1 
0.08200383707958504 1290:1 1564:1 
0.08200383707958504 48:1 
0.08200383707958504 2199:1 2200:1 
0.08200383707958504 50:1 2201:1 
0.08200383707958504 395:1 
0.08200383707958504 1004:1 2202:1 
0.08200383707958504 1656:1 
0.00597084330388315 14:1 379:1 2204:1 
0.08200383707958504 1316:1 1333:1 2205:1 
0.08200383707958504 63:1 77:1 2196:1 
0.08200383707958504 27:1 
0.08200383707958504 361:1 994:1 1657:1 
0.08200383707958504 2206:1 
0.08200383707958504 77:1 
0.08200383707958504 77:1 
0.08200383707958504 110:1 139:1 144:1 312:1 692:1 772:1 2209:1 
0.08200383707958504 77:1 
0.08200383707958504 666:1 
0.08200383707958504 806:1 2181:1 
0.08200383707958504 77:1 
0.08200383707958504 77:1 84:1 
0.08200383707958504 77:1 
0.08200383707958504 77:1 
0.08200383707958504 233:1 1353:1 2210:1 
0.08200383707958504 77:1 
0.08200383707958504 218:1 
0.08200383707958504 555:1 
0.08200383707958504 441:1 
0.08200383707958504 59:1 2214:1 2215:1 
0.08200383707958504 2210:1 
0.01008527014521614 183:1 349:1 579:1 580:1 2217:1 
0.08200383707958504 48:1 79:1 181:1 
0.08200383707958504 2019:1 2210:1 
0.08200383707958504 2210:1 
0.07741760353858049 183:1 234:1 422:1 544:1 614:1 
0.08200383707958504 338:1 339:1 513:1 1488:1 2220:1 
0.08200383707958504 113:1 
0.08200383707958504 2210:1 
0.08200383707958504 71:1 130:1 258:1 316:1 
0.02184796770544178 2210:1 
0.08200383707958504 1222:1 1455:1 2216:1 
0.08200383707958504 747:1 
0.08200383707958504 43:1 227:1 573:1 744:1 894:1 2221:1 
0.08200383707958504 2222:1 2223:1 
0.08200383707958504 2224:1 
0.08200383707958504 2227:1 
0.08200383707958504 147:1 170:1 455:1 735:1 736:1 1763:1 
0.08200383707958504 67:1 1859:1 
0.08200383707958504 2097:1 
0.08200383707958504 53:1 169:1 
0.08200383707958504 2230:1 
0.08200383707958504 53:1 169:1 
0.08200383707958504 68:1 79:1 317:1 
0.08200383707958504 505:1 
0.08200383707958504 530:1 894:1 
0.08200383707958504 25:1 71:1 
0.0001364773940291268 2210:1 
0.08200383707958504 1240:1 
0.08200383707958504 391:1 2235:1 
0.08200383707958504 102:1 230:1 
0.08200383707958504 2236:1 
0.08200383707958504 104:1 123:1 
0.08200383707958504 2231:1 
0.08200383707958504 107:1 527:1 1195:1 
0.08200383707958504 1656:1 
0.05570809703906867 1195:1 
0.08200383707958504 184:1 710:1 1190:1 1195:1 1614:1 1897:1 2239:1 2240:1 2241:1 2242:1 
0.08200383707958504 27:1 507:1 2243:1 2244:1 2245:1 
0.08200383707958504 194:1 237:1 422:1 614:1 1238:1 2193:1 
0.08200383707958504 2250:1 2251:1 
0.08200383707958504 2252:1 
0.08200383707958504 861:1 2014:1 2250:1 
0.08200383707958504 861:1 2014:1 2250:1 
0.08200383707958504 49:1 899:1 2078:1 2256:1 
0.08200383707958504 344:1 422:1 614:1 
0.08200383707958504 2236:1 
0.08200383707958504 13:1 71:1 1185:1 1703:1 2258:1 
0.08200383707958504 1426:1 
0.08200383707958504 1021:1 
0.08200383707958504 589:1 
0.08200383707958504 104:1 123:1 
0.04314710149704867 18:1 321:1 
0.08200383707958504 2259:1 
0.08200383707958504 554:1 2260:1 
0.08200383707958504 555:1 793:1 
0.08200383707958504 2259:1 
0.08200383707958504 2262:1 
0.08200383707958504 194:1 2263:1 
0.08200383707958504 2264:1 
0.08200383707958504 194:1 2167:1 2263:1 
0.08200383707958504 1021:1 
0.08200383707958504 71:1 72:1 
0.08200383707958504 2259:1 
0.08200383707958504 64:1 458:1 459:1 471:1 852:1 1144:1 1211:1 
0.08200383707958504 2259:1 
0.08200383707958504 63:1 70:1 253:1 452:1 2265:1 2266:1 
0.08200383707958504 2259:1 
0.06611527901481665 2259:1 
0.004545142691222011 1021:1 
0.08200383707958504 437:1 2267:1 
0.08200383707958504 71:1 190:1 228:1 
0.08200383707958504 176:1 589:1 720:1 1032:1 
0.08200383707958504 79:1 264:1 265:1 640:1 1021:1 2270:1 
0.08200383707958504 2271:1 
0.08200383707958504 2273:1 
0.08200383707958504 1030:1 2161:1 
0.07558282045320339 229:1 692:1 
0.08200383707958504 120:1 452:1 555:1 1030:1 1583:1 2274:1 
0.08200383707958504 59:1 736:1 1132:1 
0.08200383707958504 170:1 435:1 437:1 590:1 1149:1 2265:1 
0.08200383707958504 228:1 229:1 2278:1 
0.08200383707958504 1460:1 2259:1 
0.08200383707958504 38:1 169:1 294:1 
0.08200383707958504 48:1 107:1 285:1 
0.08200383707958504 38:1 76:1 491:1 624:1 762:1 905:1 906:1 907:1 918:1 1027:1 1030:1 1079:1 
0.08200383707958504 485:1 2280:1 
0.08200383707958504 1459:1 1690:1 2281:1 2282:1 2283:1 2284:1 2285:1 2286:1 
0.08200383707958504 2287:1 
0.08200383707958504 79:1 122:1 1190:1 2259:1 
0.08200383707958504 505:1 
0.08200383707958504 69:1 153:1 288:1 350:1 555:1 
0.08200383707958504 396:1 
0.08200383707958504 27:1 
0.08200383707958504 69:1 153:1 288:1 350:1 555:1 
0.08200383707958504 772:1 933:1 
0.08200383707958504 326:1 555:1 
0.08200383707958504 144:1 322:1 343:1 350:1 412:1 1307:1 1454:1 
0.002639964874732942 25:1 232:1 1425:1 2291:1 
0.08200383707958504 385:1 409:1 418:1 933:1 2289:1 
0.06142402814076302 978:1 1307:1 1454:1 2292:1 
0.08200383707958504 2290:1 
0.08200383707958504 978:1 2292:1 
0.08200383707958504 273:1 343:1 409:1 412:1 1353:1 2289:1 2293:1 
0.08200383707958504 429:1 2294:1 
0.08200383707958504 375:1 411:1 412:1 1307:1 1454:1 
0.08200383707958504 409:1 418:1 2289:1 2295:1 
0.08200383707958504 2290:1 
0.08200383707958504 259:1 
0.08200383707958504 27:1 2296:1 
0.08200383707958504 103:1 600:1 935:1 1054:1 1055:1 1785:1 1900:1 1992:1 2300:1 
0.0156556076382045 103:1 153:1 175:1 176:1 515:1 516:1 1128:1 1900:1 2301:1 
0.08200383707958504 172:1 2231:1 
0.08200383707958504 2306:1 
0.08200383707958504 2231:1 
0.08200383707958504 2308:1 
0.08200383707958504 79:1 703:1 1897:1 
0.08200383707958504 2231:1 
0.08200383707958504 2231:1 
0.08200383707958504 116:1 382:1 1747:1 2315:1 2316:1 2317:1 2318:1 
0.08200383707958504 794:1 
0.08200383707958504 2231:1 
0.08200383707958504 2231:1 
0.08200383707958504 113:1 
0.08200383707958504 511:1 
0.08200383707958504 2231:1 
0.08200383707958504 2231:1 
0.08200383707958504 2231:1 
0.08200383707958504 2231:1 
0.08200383707958504 2322:1 
0.08200383707958504 2231:1 
0.08200383707958504 226:1 1339:1 2323:1 
0.08200383707958504 2231:1 
0.08200383707958504 2324:1 
0.08200383707958504 2231:1 
0.08200383707958504 2231:1 
0.08200383707958504 918:1 
0.08200383707958504 2231:1 
0.08200383707958504 451:1 
0.08200383707958504 2231:1 
0.08200383707958504 2231:1 
0.08200383707958504 2325:1 2326:1 
0.08200383707958504 2231:1 
0.08200383707958504 2231:1 
0.04886281249056729 2231:1 
0.08200383707958504 749:1 2329:1 2330:1 
0.08200383707958504 228:1 
0.08200383707958504 750:1 2332:1 
0.08200383707958504 246:1 471:1 472:1 974:1 1227:1 
0.02385821670355016 84:1 147:1 170:1 246:1 1002:1 1227:1 2335:1 
0.08200383707958504 1686:1 1820:1 2231:1 2336:1 
0.08200383707958504 53:1 169:1 
0.08200383707958504 1686:1 1820:1 2231:1 2336:1 
0.08200383707958504 53:1 169:1 
0.04490655767974502 220:1 221:1 246:1 2313:1 2334:1 2337:1 2338:1 2339:1 2340:1 2341:1 2342:1 2343:1 2344:1 
0.08200383707958504 79:1 504:1 2231:1 
0.08200383707958504 505:1 
0.08200383707958504 27:1 
0.08200383707958504 259:1 
0.08200383707958504 313:1 
0.08200383707958504 435:1 630:1 1293:1 1322:1 1394:1 2000:1 
0.08200383707958504 630:1 
0.08200383707958504 102:1 135:1 1887:1 
0.08200383707958504 68:1 2348:1 2349:1 
0.08200383707958504 102:1 135:1 
0.08200383707958504 68:1 2348:1 2349:1 
0.08200383707958504 151:1 176:1 
0.08200383707958504 151:1 176:1 
0.08200383707958504 123:1 2350:1 
0.08200383707958504 151:1 
0.08200383707958504 153:1 278:1 2353:1 2354:1 
0.08200383707958504 447:1 1016:1 
0.08200383707958504 27:1 
0.08200383707958504 2356:1 
0.08200383707958504 2356:1 
0.08200383707958504 555:1 
0.06289769681449564 899:1 
0.08200383707958504 130:1 1162:1 
0.08200383707958504 2356:1 
0.08200383707958504 1025:1 2279:1 
0.02174662411586875 2356:1 
0.08200383707958504 2362:1 
0.08200383707958504 669:1 2363:1 
0.08200383707958504 447:1 
0.08200383707958504 2364:1 
0.04235121210239527 978:1 2292:1 
0.08200383707958504 2356:1 2365:1 
0.08200383707958504 66:1 343:1 843:1 1558:1 2366:1 2367:1 
0.08200383707958504 27:1 736:1 
0.0256229508863785 175:1 1927:1 
0.02370100233843742 590:1 736:1 972:1 1384:1 2372:1 2373:1 
0.08200383707958504 956:1 1683:1 
0.08200383707958504 76:1 299:1 491:1 905:1 906:1 907:1 918:1 1027:1 1028:1 1079:1 
0.08200383707958504 107:1 229:1 521:1 2377:1 
0.06712083329653062 133:1 476:1 633:1 757:1 2098:1 2378:1 
0.08200383707958504 505:1 
0.08200383707958504 2058:1 
0.08200383707958504 151:1 1560:1 1896:1 
0.08200383707958504 13:1 27:1 1928:1 2244:1 2293:1 2383:1 
0.08200383707958504 1114:1 
0.08200383707958504 323:1 350:1 578:1 1119:1 
0.0002201842765019632 2356:1 
0.08200383707958504 1912:1 
0.08200383707958504 961:1 
0.08200383707958504 372:1 781:1 
0.08200383707958504 176:1 2389:1 
0.08200383707958504 103:1 104:1 651:1 652:1 
0.08200383707958504 61:1 
0.08200383707958504 103:1 
0.08200383707958504 194:1 
0.08200383707958504 71:1 103:1 153:1 206:1 475:1 512:1 651:1 652:1 2390:1 
0.08200383707958504 103:1 170:1 435:1 593:1 2273:1 2391:1 2392:1 
0.08200383707958504 71:1 103:1 
0.08200383707958504 120:1 264:1 651:1 652:1 744:1 1367:1 2393:1 
0.08200383707958504 63:1 103:1 340:1 612:1 1079:1 2394:1 
0.08200383707958504 13:1 71:1 103:1 107:1 1029:1 1459:1 1552:1 1908:1 2302:1 2305:1 
0.08200383707958504 38:1 59:1 103:1 518:1 519:1 520:1 652:1 834:1 835:1 845:1 918:1 1079:1 2303:1 2395:1 
0.08200383707958504 27:1 61:1 2396:1 2397:1 
0.08200383707958504 44:1 103:1 453:1 
0.08200383707958504 183:1 508:1 826:1 
0.08200383707958504 102:1 236:1 396:1 2399:1 
0.08200383707958504 2399:1 
0.08200383707958504 2399:1 
0.08200383707958504 2399:1 
0.02350871166755183 2399:1 
0.08200383707958504 1058:1 1059:1 2403:1 
0.08200383707958504 229:1 462:1 
0.08200383707958504 587:1 598:1 836:1 1055:1 2401:1 2404:1 
0.08200383707958504 508:1 
0.08200383707958504 2408:1 
0.08200383707958504 79:1 2399:1 
0.01992988306494363 79:1 320:1 1492:1 
0.08200383707958504 2410:1 2411:1 
0.08200383707958504 194:1 640:1 2399:1 2413:1 2414:1 
0.08200383707958504 1171:1 
0.08200383707958504 1655:1 2307:1 2399:1 2415:1 
0.08200383707958504 53:1 169:1 
0.08200383707958504 292:1 
0.08200383707958504 699:1 
0.08200383707958504 1655:1 2307:1 2399:1 2415:1 
0.08200383707958504 53:1 169:1 
0.08200383707958504 107:1 2417:1 2418:1 
0.08200383707958504 313:1 
0.08200383707958504 505:1 
0.08200383707958504 27:1 
0.08200383707958504 273:1 635:1 1491:1 2422:1 
0.08200383707958504 669:1 958:1 2423:1 2424:1 2425:1 2426:1 
0.08200383707958504 544:1 660:1 
0.08200383707958504 1124:1 2427:1 2428:1 
0.08200383707958504 396:1 544:1 
0.08200383707958504 1115:1 
0.08200383707958504 2431:1 
0.06807088694170313 396:1 477:1 1025:1 2432:1 
0.08200383707958504 234:1 322:1 496:1 
0.08200383707958504 340:1 
0.08200383707958504 124:1 175:1 527:1 528:1 531:1 2433:1 2434:1 2435:1 2436:1 2437:1 2438:1 2439:1 2440:1 
0.08200383707958504 854:1 
0.08200383707958504 34:1 458:1 900:1 2441:1 
0.08200383707958504 25:1 548:1 854:1 2441:1 2442:1 
0.08200383707958504 68:1 176:1 401:1 2443:1 
0.08200383707958504 275:1 853:1 2417:1 2418:1 2444:1 
0.08200383707958504 90:1 761:1 2445:1 2446:1 
0.03332691709385949 59:1 102:1 499:1 1207:1 1457:1 2447:1 
0.05191830939075123 33:1 80:1 119:1 169:1 535:1 2448:1 
0.08200383707958504 1223:1 1668:1 2449:1 2450:1 2451:1 
0.08200383707958504 377:1 885:1 2452:1 2453:1 
0.08200383707958504 1393:1 2454:1 
0.08200383707958504 395:1 
0.08200383707958504 745:1 1606:1 2078:1 2456:1 
0.08200383707958504 745:1 1606:1 2078:1 2456:1 
0.08200383707958504 883:1 
0.08200383707958504 955:1 
0.08200383707958504 1068:1 
0.08200383707958504 63:1 460:1 2042:1 
0.08200383707958504 27:1 2457:1 
0.08200383707958504 69:1 107:1 
0.08200383707958504 854:1 
0.08200383707958504 68:1 104:1 2458:1 
0.08200383707958504 68:1 104:1 2458:1 
0.08200383707958504 1608:1 2459:1 
0.08200383707958504 2460:1 
0.08200383707958504 137:1 184:1 2175:1 2461:1 
0.08200383707958504 107:1 1074:1 2255:1 
0.08200383707958504 107:1 135:1 576:1 
0.08200383707958504 2463:1 2464:1 
0.08200383707958504 37:1 137:1 1310:1 2466:1 
0.08200383707958504 145:1 471:1 496:1 620:1 621:1 
0.08200383707958504 355:1 
0.08200383707958504 2468:1 
0.08200383707958504 1245:1 2469:1 2470:1 2471:1 
0.08200383707958504 1911:1 2352:1 
0.08200383707958504 2472:1 
0.08200383707958504 107:1 122:1 
0.08200383707958504 625:1 2474:1 2475:1 
0.08200383707958504 107:1 1074:1 2408:1 2478:1 
0.08200383707958504 84:1 239:1 255:1 422:1 2398:1 
0.08200383707958504 185:1 
0.08200383707958504 529:1 853:1 1025:1 2479:1 
0.08200383707958504 2480:1 
0.08200383707958504 1058:1 
0.08200383707958504 529:1 853:1 1025:1 2479:1 
0.08200383707958504 107:1 625:1 2101:1 
0.08200383707958504 948:1 2158:1 
0.08200383707958504 1404:1 
0.08200383707958504 908:1 
0.08200383707958504 2486:1 
0.08200383707958504 2486:1 
0.08200383707958504 763:1 2487:1 
0.08200383707958504 2488:1 2489:1 
0.08200383707958504 2486:1 
0.08200383707958504 2486:1 
0.08200383707958504 1837:1 2111:1 
0.08200383707958504 77:1 120:1 122:1 474:1 1809:1 2483:1 2490:1 2491:1 
0.08200383707958504 107:1 
0.08200383707958504 27:1 77:1 161:1 2490:1 
0.08200383707958504 69:1 123:1 124:1 413:1 2463:1 2498:1 2499:1 
0.08200383707958504 68:1 107:1 527:1 824:1 
0.08200383707958504 768:1 
0.08200383707958504 2501:1 
0.01815625691170237 122:1 2505:1 
0.08200383707958504 229:1 2506:1 2507:1 
0.08200383707958504 27:1 45:1 680:1 2508:1 
0.002362669534878652 2111:1 
0.08200383707958504 68:1 90:1 107:1 122:1 
0.08200383707958504 1414:1 
0.08200383707958504 673:1 2509:1 
0.08200383707958504 2444:1 
0.08200383707958504 723:1 2510:1 2511:1 
0.08200383707958504 828:1 
0.08200383707958504 2512:1 2513:1 
0.08200383707958504 68:1 90:1 107:1 122:1 
0.08200383707958504 174:1 
0.08200383707958504 174:1 
0.08200383707958504 174:1 
0.08200383707958504 174:1 
0.08200383707958504 1074:1 
0.08200383707958504 258:1 373:1 2031:1 
0.08200383707958504 2519:1 
0.08200383707958504 174:1 
0.08200383707958504 2520:1 
0.08200383707958504 641:1 736:1 2521:1 2522:1 2523:1 
0.08200383707958504 177:1 288:1 496:1 1296:1 1853:1 
0.08200383707958504 234:1 
0.08200383707958504 61:1 64:1 80:1 1544:1 1881:1 1882:1 2528:1 
0.08200383707958504 658:1 966:1 
0.02644641002550454 348:1 375:1 487:1 614:1 1294:1 
0.08200383707958504 252:1 288:1 1749:1 
0.08200383707958504 159:1 701:1 
0.08200383707958504 46:1 60:1 165:1 747:1 
0.08200383707958504 2533:1 
0.08200383707958504 577:1 
0.08200383707958504 271:1 
0.08200383707958504 2532:1 
0.08200383707958504 2532:1 
0.0660154790650755 2532:1 
0.08200383707958504 2534:1 
0.08200383707958504 350:1 2008:1 2009:1 2073:1 
0.08200383707958504 561:1 
0.08200383707958504 340:1 
0.08200383707958504 1163:1 
0.04758298382722265 153:1 529:1 2413:1 2537:1 
0.08200383707958504 60:1 197:1 322:1 2540:1 
0.08200383707958504 509:1 1446:1 
0.08200383707958504 509:1 1446:1 
0.08200383707958504 184:1 
0.08200383707958504 243:1 264:1 747:1 1163:1 1211:1 
0.08200383707958504 259:1 
0.08200383707958504 71:1 
0.08200383707958504 720:1 1872:1 2454:1 
0.08200383707958504 2546:1 2547:1 
0.0516311736940584 744:1 1525:1 
0.08200383707958504 2548:1 
0.08200383707958504 630:1 2532:1 
0.08200383707958504 1574:1 2053:1 
0.08200383707958504 625:1 
0.06627188959528282 1860:1 
0.08200383707958504 229:1 2177:1 
0.08200383707958504 44:1 1860:1 
0.08200383707958504 1540:1 
0.03797680525555147 191:1 317:1 347:1 505:1 1686:1 1817:1 1818:1 2532:1 
0.08200383707958504 259:1 
0.08200383707958504 422:1 
0.08200383707958504 658:1 2532:1 
0.08200383707958504 71:1 197:1 1130:1 1133:1 1479:1 2550:1 
0.08200383707958504 2553:1 2554:1 2555:1 
0.08200383707958504 44:1 1860:1 
0.08200383707958504 321:1 2532:1 
0.01416465213604261 154:1 578:1 
0.08200383707958504 2551:1 
0.08200383707958504 2551:1 
0.08200383707958504 27:1 
0.08200383707958504 2551:1 
0.08200383707958504 34:1 281:1 561:1 898:1 1340:1 
0.08200383707958504 1845:1 
0.08200383707958504 2551:1 
0.08200383707958504 2551:1 
0.08200383707958504 34:1 130:1 349:1 420:1 687:1 824:1 1733:1 
0.08200383707958504 915:1 1860:1 2558:1 
0.08200383707958504 2551:1 
0.08200383707958504 69:1 464:1 
0.08200383707958504 437:1 458:1 978:1 2292:1 
0.08200383707958504 34:1 153:1 985:1 1088:1 
0.08200383707958504 130:1 2562:1 
0.08200383707958504 2551:1 
0.08200383707958504 207:1 
0.01660481540000019 2551:1 
0.08200383707958504 239:1 255:1 356:1 1860:1 
0.08200383707958504 27:1 45:1 183:1 826:1 
0.08200383707958504 590:1 
0.08200383707958504 2563:1 
0.08200383707958504 112:1 
0.02203855807605854 2563:1 
0.0405887941768678 2566:1 
0.08200383707958504 112:1 148:1 1703:1 2567:1 
0.08200383707958504 1031:1 
0.08200383707958504 229:1 462:1 
0.005378322943262058 2551:1 
0.08200383707958504 269:1 425:1 1674:1 2573:1 2574:1 2575:1 2576:1 
0.08200383707958504 102:1 131:1 2577:1 
0.08200383707958504 175:1 2578:1 
0.08200383707958504 905:1 2582:1 
0.08200383707958504 222:1 874:1 1810:1 2583:1 
0.08200383707958504 102:1 131:1 624:1 2563:1 2587:1 
0.08200383707958504 69:1 102:1 437:1 573:1 665:1 817:1 972:1 2335:1 
0.08200383707958504 2589:1 
0.08200383707958504 53:1 169:1 
0.08200383707958504 107:1 320:1 1703:1 
0.08200383707958504 184:1 1929:1 2377:1 
0.08200383707958504 630:1 2563:1 2593:1 
0.01916092193812209 360:1 361:1 504:1 950:1 2594:1 2595:1 
0.08200383707958504 147:1 561:1 
0.08200383707958504 322:1 328:1 2563:1 
0.06190597073137918 349:1 384:1 643:1 2563:1 2596:1 
2.39382197749706e-05 360:1 361:1 504:1 950:1 2594:1 2595:1 
0.08200383707958504 447:1 1104:1 1105:1 
0.05111397976732575 224:1 1560:1 2597:1 2598:1 
0.08200383707958504 107:1 284:1 529:1 777:1 
0.08200383707958504 2596:1 2600:1 
0.08200383707958504 18:1 22:1 23:1 133:1 321:1 800:1 2563:1 
0.004289901815258529 2563:1 
0.08200383707958504 123:1 576:1 680:1 
0.08200383707958504 355:1 
0.08200383707958504 7:1 
0.08200383707958504 509:1 510:1 
0.08200383707958504 2042:1 
0.08200383707958504 2601:1 
0.08200383707958504 2601:1 
0.08200383707958504 2601:1 
0.08200383707958504 233:1 447:1 1016:1 
0.08200383707958504 229:1 631:1 2601:1 
0.08200383707958504 745:1 1117:1 2042:1 
0.08200383707958504 16:1 147:1 153:1 1218:1 2042:1 
0.05410722790864943 197:1 2604:1 
0.08200383707958504 34:1 148:1 1004:1 2605:1 2606:1 
0.08200383707958504 2601:1 
0.08200383707958504 2601:1 
0.08200383707958504 1073:1 2032:1 
0.08200383707958504 508:1 
0.08200383707958504 2601:1 
0.08200383707958504 2601:1 
0.08200383707958504 2607:1 
0.08200383707958504 2601:1 
0.08200383707958504 2601:1 
0.08200383707958504 2601:1 
0.08200383707958504 1674:1 
0.08200383707958504 1163:1 
0.08200383707958504 2601:1 
0.08200383707958504 229:1 285:1 
0.08200383707958504 2601:1 
0.08200383707958504 2601:1 
0.06536485253591133 2601:1 
0.0217309899082044 1282:1 2386:1 2618:1 
0.08200383707958504 202:1 409:1 2149:1 2619:1 
0.08200383707958504 501:1 
0.08200383707958504 323:1 932:1 
0.08200383707958504 280:1 512:1 622:1 711:1 761:1 1282:1 1955:1 2625:1 
0.04899588423592286 68:1 512:1 557:1 638:1 670:1 977:1 1055:1 1258:1 2626:1 2627:1 
0.08200383707958504 280:1 622:1 1179:1 2626:1 2628:1 
0.08200383707958504 1179:1 2626:1 2628:1 2629:1 
0.08200383707958504 1099:1 2626:1 2628:1 2631:1 2632:1 
0.08200383707958504 1179:1 2626:1 2628:1 2633:1 
0.08200383707958504 339:1 1179:1 2626:1 2628:1 
0.08200383707958504 227:1 1055:1 2626:1 2628:1 2636:1 
0.02026921255521448 280:1 540:1 557:1 622:1 1388:1 2626:1 2628:1 2639:1 2640:1 
0.08200383707958504 2628:1 
0.08200383707958504 107:1 1326:1 2628:1 
0.08200383707958504 97:1 153:1 217:1 589:1 2143:1 2628:1 2631:1 2665:1 2666:1 
0.08200383707958504 271:1 604:1 1070:1 2161:1 2527:1 2626:1 2629:1 2667:1 2668:1 
0.08200383707958504 124:1 343:1 557:1 1150:1 1219:1 1642:1 1869:1 2628:1 2673:1 
0.08200383707958504 184:1 292:1 343:1 1282:1 1955:1 2625:1 2626:1 2628:1 
0.08141975150084464 234:1 
0.08200383707958504 2695:1 
0.08200383707958504 269:1 606:1 1236:1 1994:1 2619:1 2695:1 2702:1 
0.08200383707958504 2695:1 
0.08200383707958504 2695:1 
0.08200383707958504 2695:1 
0.08200383707958504 589:1 
0.08200383707958504 79:1 2695:1 
0.08200383707958504 228:1 292:1 2695:1 
0.08200383707958504 19:1 229:1 
0.08200383707958504 2695:1 
0.08200383707958504 2401:1 
0.08200383707958504 561:1 
0.08200383707958504 2733:1 
0.08200383707958504 561:1 
0.08200383707958504 2695:1 
0.01922724825998173 716:1 900:1 1687:1 2612:1 2734:1 2736:1 2737:1 
0.08200383707958504 1037:1 2401:1 
0.0772462080045547 561:1 2738:1 
0.08200383707958504 2739:1 2740:1 2741:1 
0.08200383707958504 47:1 557:1 
0.08200383707958504 249:1 340:1 716:1 1207:1 2612:1 2651:1 2750:1 2751:1 
0.06491953405838601 97:1 538:1 951:1 2266:1 2628:1 2631:1 2738:1 2748:1 2749:1 2752:1 2753:1 2754:1 
0.08069335869555339 453:1 458:1 2631:1 2760:1 2767:1 2768:1 2769:1 2770:1 2771:1 
0.08200383707958504 2791:1 
0.08200383707958504 557:1 673:1 1351:1 
0.08200383707958504 2797:1 
0.08200383707958504 13:1 165:1 204:1 777:1 837:1 1339:1 1792:1 2687:1 2692:1 2804:1 
0.08200383707958504 120:1 589:1 2798:1 
0.08200383707958504 725:1 1179:1 1906:1 2798:1 
0.08200383707958504 2798:1 
0.08200383707958504 222:1 250:1 573:1 887:1 995:1 1159:1 2798:1 2830:1 
0.08200383707958504 988:1 2798:1 2834:1 
0.07251428823040489 120:1 871:1 2798:1 2836:1 
0.08200383707958504 1946:1 2839:1 
0.08200383707958504 102:1 180:1 866:1 
0.08200383707958504 223:1 224:1 225:1 439:1 458:1 852:1 989:1 1143:1 1762:1 2842:1 2843:1 
0.08200383707958504 589:1 2798:1 
0.08054392112871515 147:1 573:1 593:1 1046:1 1143:1 2722:1 2847:1 2848:1 2849:1 2850:1 
0.08200383707958504 225:1 252:1 606:1 610:1 989:1 1156:1 1518:1 
0.08200383707958504 43:1 170:1 265:1 437:1 446:1 610:1 1378:1 2724:1 2728:1 2851:1 
0.08200383707958504 213:1 214:1 275:1 2483:1 2612:1 2798:1 2801:1 2816:1 2855:1 2856:1 
0.06575495483593229 121:1 347:1 589:1 2798:1 2857:1 
0.08200383707958504 122:1 473:1 736:1 996:1 2149:1 2798:1 2858:1 
0.07190107214906105 102:1 451:1 710:1 827:1 900:1 1006:1 1007:1 1945:1 2862:1 2863:1 
0.06229778150041918 57:1 64:1 458:1 459:1 593:1 610:1 975:1 980:1 2798:1 2864:1 
0.08200383707958504 63:1 64:1 240:1 471:1 852:1 1504:1 2012:1 2798:1 
0.08200383707958504 138:1 458:1 606:1 610:1 2833:1 2872:1 
0.08200383707958504 107:1 134:1 
0.08200383707958504 1007:1 2798:1 
0.08200383707958504 292:1 2798:1 
0.08200383707958504 79:1 1045:1 
0.08200383707958504 2798:1 
0.08200383707958504 2798:1 
0.08200383707958504 68:1 292:1 
0.08200383707958504 107:1 311:1 
0.08200383707958504 2798:1 2876:1 
0.08200383707958504 561:1 859:1 1904:1 2876:1 
0.00619085189504064 320:1 416:1 509:1 510:1 590:1 1212:1 1416:1 
0.08200383707958504 2797:1 
0.08200383707958504 2797:1 
0.08200383707958504 557:1 
0.08200383707958504 2797:1 
0.08200383707958504 355:1 531:1 2886:1 
0.08200383707958504 344:1 523:1 1904:1 2876:1 2887:1 
0.08200383707958504 202:1 397:1 466:1 523:1 1904:1 2876:1 
0.08200383707958504 2888:1 
0.04342770557810414 561:1 1904:1 
0.08200383707958504 293:1 2798:1 
0.08200383707958504 2888:1 
0.08200383707958504 2888:1 
0.08200383707958504 2893:1 
0.08200383707958504 2888:1 
0.08200383707958504 437:1 494:1 2894:1 
0.08200383707958504 19:1 22:1 23:1 2692:1 
0.08200383707958504 465:1 469:1 970:1 1162:1 2630:1 2703:1 2738:1 2916:1 2921:1 
0.01742917896784715 252:1 437:1 1070:1 1750:1 1939:1 2919:1 2926:1 2935:1 2936:1 2937:1 
0.001466332347376165 63:1 170:1 189:1 218:1 265:1 435:1 446:1 458:1 1381:1 2628:1 2926:1 2943:1 2950:1 
0.08200383707958504 186:1 823:1 
0.08200383707958504 1119:1 2955:1 
0.08200383707958504 2958:1 
0.08200383707958504 288:1 410:1 2279:1 2967:1 
0.08200383707958504 56:1 640:1 736:1 1375:1 1930:1 2903:1 2978:1 2980:1 2981:1 2982:1 2983:1 
0.01729785664661256 2646:1 2647:1 2836:1 2967:1 2984:1 
0.0764169702922486 458:1 1143:1 1210:1 1358:1 2967:1 2978:1 2987:1 
0.000906708311724864 57:1 271:1 477:1 588:1 736:1 1722:1 2816:1 2967:1 3000:1 3010:1 
0.08200383707958504 57:1 271:1 444:1 465:1 606:1 610:1 2149:1 2903:1 3011:1 
0.02448047601273566 2967:1 3012:1 
0.08200383707958504 56:1 57:1 63:1 131:1 223:1 439:1 458:1 1645:1 2061:1 2816:1 2856:1 2967:1 2978:1 3013:1 
0.08200383707958504 58:1 121:1 232:1 557:1 1364:1 1522:1 1944:1 2676:1 2967:1 
0.08200383707958504 589:1 
0.08200383707958504 79:1 2967:1 
0.08200383707958504 1460:1 2967:1 
0.08200383707958504 620:1 621:1 2967:1 
0.08200383707958504 84:1 3033:1 
0.08200383707958504 11:1 1435:1 3034:1 3035:1 3036:1 
0.08200383707958504 416:1 736:1 1055:1 1546:1 3038:1 3040:1 3041:1 3042:1 
0.08200383707958504 175:1 176:1 720:1 857:1 956:1 3038:1 3050:1 3051:1 
0.08200383707958504 170:1 457:1 758:1 2395:1 2812:1 3047:1 3059:1 3061:1 3062:1 3063:1 
0.08200383707958504 213:1 214:1 1070:1 2294:1 2395:1 3071:1 
0.08200383707958504 85:1 361:1 1119:1 1289:1 2197:1 2395:1 3038:1 3069:1 3082:1 
0.08200383707958504 123:1 183:1 908:1 3084:1 3085:1 3086:1 3087:1 
0.08200383707958504 3088:1 
0.08200383707958504 620:1 621:1 3094:1 
0.08200383707958504 135:1 
0.08200383707958504 561:1 1131:1 
0.08200383707958504 71:1 104:1 1131:1 
0.08200383707958504 457:1 
0.08200383707958504 34:1 119:1 305:1 306:1 492:1 589:1 1131:1 1222:1 
0.08200383707958504 589:1 
0.08200383707958504 302:1 465:1 466:1 606:1 970:1 974:1 1231:1 1381:1 3114:1 
0.0562006034290805 71:1 228:1 232:1 557:1 797:1 1131:1 3101:1 3115:1 
0.08200383707958504 57:1 223:1 271:1 308:1 477:1 1131:1 1645:1 1760:1 
0.08200383707958504 1131:1 
0.08200383707958504 1131:1 1226:1 1460:1 2248:1 2719:1 2833:1 2872:1 
0.08200383707958504 71:1 1131:1 3127:1 
0.08200383707958504 1131:1 
0.08200383707958504 1131:1 
0.08200383707958504 68:1 1624:1 3129:1 
0.08200383707958504 19:1 71:1 1131:1 
0.08200383707958504 34:1 107:1 1131:1 1706:1 
0.08200383707958504 1131:1 
0.08200383707958504 35:1 1447:1 
0.08200383707958504 356:1 2098:1 3134:1 
0.06900420623280443 133:1 2098:1 2124:1 2378:1 3135:1 3136:1 
0.08200383707958504 11:1 107:1 
0.08200383707958504 71:1 72:1 
0.08200383707958504 346:1 
0.02692924887186108 1131:1 
0.08200383707958504 61:1 370:1 
0.08200383707958504 27:1 45:1 680:1 3137:1 
0.08200383707958504 94:1 2628:1 3138:1 3146:1 
0.08200383707958504 215:1 604:1 736:1 1588:1 2612:1 2655:1 2925:1 3153:1 3154:1 3155:1 
0.08200383707958504 176:1 477:1 589:1 625:1 995:1 2042:1 2651:1 2745:1 3152:1 3160:1 
0.08200383707958504 2628:1 3045:1 3138:1 
0.02336148305390271 2628:1 3045:1 3138:1 
0.05708006506537531 34:1 313:1 1233:1 
0.08200383707958504 51:1 680:1 3137:1 3171:1 
0.08200383707958504 97:1 258:1 790:1 2243:1 3172:1 3173:1 3174:1 
0.08200383707958504 3179:1 
0.08200383707958504 691:1 
0.08200383707958504 397:1 839:1 
0.08200383707958504 234:1 3182:1 
0.08200383707958504 165:1 
0.08200383707958504 3186:1 
0.08200383707958504 511:1 
0.07034367236225794 517:1 2149:1 3186:1 
0.08200383707958504 3186:1 
0.08200383707958504 119:1 525:1 3186:1 3201:1 3202:1 3203:1 3204:1 
0.01847177574153591 3186:1 
0.08200383707958504 525:1 726:1 1055:1 1159:1 3206:1 3219:1 3220:1 3221:1 
0.08200383707958504 736:1 
0.08200383707958504 525:1 593:1 606:1 758:1 2719:1 2903:1 3223:1 3224:1 3225:1 
0.08200383707958504 736:1 744:1 1159:1 2541:1 3227:1 3228:1 3229:1 
0.08200383707958504 3186:1 3234:1 
0.08200383707958504 3236:1 
0.01085720870714128 606:1 1652:1 2652:1 2719:1 2903:1 3237:1 
0.08200383707958504 434:1 2702:1 2719:1 
0.08200383707958504 13:1 56:1 416:1 451:1 752:1 753:1 1846:1 1945:1 
0.08200383707958504 79:1 3186:1 
0.08200383707958504 228:1 292:1 3186:1 
0.08200383707958504 229:1 292:1 3186:1 
0.08200383707958504 525:1 
0.08200383707958504 346:1 
0.08200383707958504 184:1 778:1 2620:1 3246:1 
0.08200383707958504 525:1 
0.08200383707958504 22:1 23:1 183:1 2692:1 
0.08200383707958504 156:1 1137:1 2687:1 3255:1 3256:1 
0.08200383707958504 230:1 355:1 560:1 3258:1 3259:1 3260:1 
0.08200383707958504 6:1 68:1 640:1 672:1 822:1 900:1 2238:1 3261:1 3262:1 3263:1 
0.08200383707958504 372:1 480:1 1904:1 2104:1 3087:1 
0.08200383707958504 94:1 336:1 448:1 501:1 526:1 555:1 710:1 1522:1 3008:1 
0.08200383707958504 1349:1 
0.08200383707958504 710:1 
0.08200383707958504 23:1 2687:1 
0.08200383707958504 2576:1 3101:1 3270:1 
0.08200383707958504 557:1 
0.08200383707958504 555:1 
0.08200383707958504 557:1 
0.08200383707958504 555:1 
0.08200383707958504 79:1 2274:1 
0.08200383707958504 557:1 
0.08200383707958504 555:1 
0.08200383707958504 1179:1 3271:1 
0.08200383707958504 557:1 
0.08200383707958504 555:1 
0.08200383707958504 1179:1 
0.08200383707958504 557:1 
0.08200383707958504 555:1 
0.08200383707958504 1179:1 3272:1 
0.08200383707958504 557:1 
0.08200383707958504 555:1 
0.01228020978890051 1179:1 1820:1 2707:1 
0.08200383707958504 557:1 
0.08200383707958504 555:1 
0.08200383707958504 57:1 588:1 1099:1 2276:1 
0.08200383707958504 557:1 
0.08200383707958504 555:1 
0.08200383707958504 1179:1 2719:1 
0.08200383707958504 557:1 
0.08200383707958504 555:1 
0.08200383707958504 176:1 531:1 720:1 
0.03957698447169082 451:1 555:1 2785:1 3267:1 3279:1 3280:1 
0.08200383707958504 175:1 176:1 720:1 
0.08200383707958504 465:1 573:1 852:1 970:1 1811:1 1820:1 2707:1 3267:1 3284:1 
0.08200383707958504 176:1 228:1 720:1 3267:1 
0.08200383707958504 176:1 720:1 1032:1 3267:1 
0.04910961500171464 57:1 458:1 573:1 610:1 990:1 1143:1 1228:1 1811:1 3072:1 3292:1 
0.08200383707958504 589:1 
0.08200383707958504 370:1 458:1 490:1 1073:1 1511:1 2719:1 2982:1 2997:1 3295:1 
0.08200383707958504 678:1 736:1 1063:1 3296:1 
0.08200383707958504 124:1 343:1 555:1 588:1 1933:1 2911:1 3267:1 3299:1 
0.08200383707958504 57:1 261:1 604:1 744:1 1207:1 1878:1 2070:1 2276:1 3029:1 3030:1 3267:1 
0.08200383707958504 57:1 1383:1 1941:1 2805:1 2997:1 3267:1 3303:1 3304:1 
0.08200383707958504 55:1 107:1 184:1 609:1 657:1 1178:1 1332:1 1458:1 3313:1 3314:1 
0.08200383707958504 107:1 118:1 311:1 336:1 555:1 793:1 1529:1 2078:1 3267:1 
0.08200383707958504 3025:1 3318:1 
0.08200383707958504 79:1 3267:1 
0.05445527741902626 63:1 555:1 641:1 867:1 2791:1 3090:1 3319:1 3320:1 3321:1 
0.05089725279909512 45:1 374:1 509:1 1446:1 3267:1 
0.08200383707958504 36:1 948:1 
0.000156166110672188 63:1 555:1 641:1 867:1 2791:1 3090:1 3319:1 3320:1 3321:1 
0.08200383707958504 44:1 988:1 1010:1 1113:1 1226:1 2724:1 2802:1 2834:1 2874:1 3331:1 
0.08200383707958504 1181:1 2908:1 2909:1 
0.08200383707958504 69:1 70:1 165:1 761:1 2395:1 2646:1 2647:1 2836:1 
0.08200383707958504 68:1 401:1 496:1 
0.08200383707958504 104:1 526:1 689:1 1310:1 2120:1 3241:1 3335:1 
0.08200383707958504 2955:1 
0.0144082860147799 70:1 2307:1 2425:1 2628:1 2646:1 2647:1 2739:1 
0.08200383707958504 10:1 85:1 228:1 517:1 1584:1 2395:1 2628:1 2635:1 2875:1 3341:1 
0.08200383707958504 343:1 345:1 800:1 2395:1 2628:1 2860:1 
0.08200383707958504 13:1 165:1 222:1 273:1 274:1 689:1 
0.08200383707958504 317:1 529:1 951:1 1792:1 1849:1 2245:1 
0.03187843525930351 223:1 736:1 1868:1 2719:1 3352:1 3358:1 3367:1 
0.08200383707958504 223:1 225:1 727:1 2040:1 3352:1 3360:1 3368:1 
0.08200383707958504 1740:1 2742:1 3352:1 3366:1 
0.08200383707958504 17:1 214:1 292:1 1450:1 2724:1 2801:1 2874:1 3352:1 
0.08200383707958504 57:1 225:1 458:1 670:1 826:1 2933:1 3019:1 3352:1 3363:1 3366:1 3392:1 
0.08200383707958504 14:1 206:1 458:1 1502:1 2724:1 2816:1 2845:1 2874:1 3352:1 3395:1 
0.08200383707958504 3101:1 3397:1 
0.01195811570791365 292:1 3352:1 
0.08200383707958504 79:1 3352:1 
0.08200383707958504 305:1 332:1 600:1 1137:1 2572:1 2595:1 2665:1 3401:1 3402:1 
0.08200383707958504 293:1 904:1 
0.08200383707958504 1006:1 1007:1 
0.08200383707958504 346:1 
0.08200383707958504 37:1 323:1 3407:1 
0.08200383707958504 3408:1 
0.08200383707958504 94:1 169:1 633:1 1505:1 1522:1 1974:1 2521:1 3409:1 3410:1 
0.08200383707958504 970:1 3417:1 3418:1 
0.08200383707958504 1827:1 
0.08200383707958504 3426:1 
0.08200383707958504 122:1 521:1 1159:1 3227:1 3426:1 
0.08200383707958504 3426:1 
0.0001686852310900724 161:1 266:1 435:1 458:1 611:1 975:1 2719:1 3430:1 
0.08200383707958504 340:1 2653:1 
0.08200383707958504 3426:1 
0.08200383707958504 122:1 
0.08200383707958504 988:1 990:1 1046:1 1156:1 1381:1 1599:1 3383:1 3426:1 
0.08200383707958504 3426:1 
0.08200383707958504 3007:1 
0.08200383707958504 3426:1 
0.08200383707958504 292:1 3426:1 
0.08200383707958504 677:1 3426:1 
0.08200383707958504 34:1 107:1 125:1 346:1 348:1 557:1 904:1 1195:1 2904:1 3449:1 3450:1 
0.08200383707958504 55:1 107:1 138:1 609:1 657:1 1006:1 1007:1 1332:1 1458:1 3313:1 3314:1 
0.017798802099444 3426:1 
0.08200383707958504 3451:1 
0.08200383707958504 3007:1 
0.08200383707958504 1190:1 
0.08200383707958504 1006:1 1007:1 
0.08200383707958504 346:1 
0.08200383707958504 104:1 184:1 602:1 711:1 761:1 2628:1 3452:1 
0.08200383707958504 82:1 97:1 184:1 602:1 1388:1 2595:1 2628:1 2639:1 2909:1 3453:1 3454:1 
0.08200383707958504 261:1 340:1 812:1 1108:1 1166:1 2646:1 2647:1 3456:1 3457:1 3458:1 
0.07450421633577604 189:1 678:1 725:1 874:1 1055:1 2628:1 2754:1 2822:1 2937:1 3460:1 
0.08200383707958504 921:1 995:1 1003:1 1070:1 1795:1 2655:1 2913:1 3453:1 3464:1 
0.08200383707958504 2628:1 3045:1 3453:1 
0.08200383707958504 719:1 725:1 1264:1 2031:1 2453:1 2896:1 3344:1 3465:1 3466:1 
0.08200383707958504 561:1 649:1 667:1 2931:1 3471:1 3472:1 3473:1 3474:1 3475:1 
0.007678284355157113 64:1 1108:1 1150:1 1357:1 1885:1 2580:1 2655:1 3476:1 3477:1 3478:1 3479:1 
0.08200383707958504 977:1 1526:1 2143:1 2544:1 2655:1 3378:1 3482:1 3483:1 
0.08200383707958504 107:1 184:1 613:1 670:1 1421:1 1703:1 2197:1 2628:1 
0.08200383707958504 47:1 184:1 336:1 555:1 689:1 710:1 793:1 1087:1 3335:1 
0.08200383707958504 121:1 1234:1 2984:1 
0.08200383707958504 521:1 
0.08200383707958504 711:1 
0.08200383707958504 3179:1 
0.08200383707958504 3494:1 
0.08200383707958504 1437:1 
0.01638459834038279 495:1 680:1 997:1 
0.08200383707958504 47:1 184:1 778:1 1006:1 1007:1 3335:1 3507:1 
0.08200383707958504 1481:1 2203:1 
0.08200383707958504 512:1 540:1 710:1 1006:1 1087:1 2653:1 
0.08200383707958504 2909:1 3503:1 
0.08200383707958504 555:1 1425:1 1524:1 
0.08200383707958504 153:1 533:1 1128:1 3503:1 
0.08200383707958504 225:1 264:1 472:1 557:1 1143:1 3399:1 3514:1 
0.08200383707958504 367:1 539:1 593:1 1504:1 1813:1 
0.07254056638551902 224:1 271:1 477:1 555:1 726:1 1157:1 1820:1 2707:1 3514:1 
0.05225877607004278 59:1 214:1 222:1 555:1 1961:1 2728:1 3167:1 3280:1 3503:1 3533:1 
0.08200383707958504 334:1 555:1 2274:1 2424:1 2816:1 2856:1 3139:1 
0.06547443388012535 3007:1 3503:1 
0.08200383707958504 79:1 3503:1 
0.08200383707958504 185:1 
0.08200383707958504 3503:1 3526:1 
0.08200383707958504 229:1 
0.08200383707958504 19:1 2307:1 3506:1 
0.08200383707958504 3539:1 
0.08200383707958504 385:1 
0.08200383707958504 27:1 90:1 168:1 
0.08200383707958504 3503:1 
0.08200383707958504 3494:1 
0.08200383707958504 312:1 578:1 3494:1 
0.08200383707958504 90:1 125:1 359:1 3494:1 
0.08200383707958504 3494:1 
0.08200383707958504 557:1 2833:1 2872:1 
0.08200383707958504 3494:1 
0.08200383707958504 13:1 33:1 42:1 689:1 1288:1 1863:1 2687:1 3547:1 3548:1 3549:1 
0.08200383707958504 6:1 1119:1 1471:1 2620:1 
0.08200383707958504 50:1 341:1 409:1 
0.08200383707958504 66:1 310:1 401:1 3342:1 
0.08200383707958504 165:1 
0.08200383707958504 3556:1 3557:1 3558:1 3559:1 3560:1 
0.08200383707958504 22:1 23:1 107:1 531:1 1131:1 1624:1 2692:1 3567:1 3568:1 
0.08200383707958504 236:1 295:1 624:1 1055:1 2398:1 2687:1 3571:1 3572:1 
0.08200383707958504 11:1 12:1 19:1 22:1 23:1 231:1 712:1 1131:1 2687:1 2692:1 
0.08200383707958504 45:1 71:1 120:1 589:1 970:1 1131:1 1258:1 3098:1 3577:1 
0.08200383707958504 1131:1 1445:1 3270:1 3586:1 
0.08200383707958504 736:1 1131:1 
0.08200383707958504 79:1 175:1 2386:1 3126:1 
0.0007441056748378683 512:1 1131:1 1137:1 2653:1 2656:1 2941:1 
0.08200383707958504 198:1 2149:1 
0.0804091664156556 170:1 212:1 299:1 593:1 979:1 990:1 1058:1 1645:1 1646:1 2704:1 2716:1 3601:1 
0.04815965859739604 46:1 320:1 589:1 1131:1 3603:1 
0.08200383707958504 10:1 11:1 228:1 1131:1 2612:1 
0.08200383707958504 292:1 
0.08200383707958504 228:1 292:1 1131:1 
0.08200383707958504 858:1 
0.08200383707958504 1849:1 3606:1 
0.08200383707958504 228:1 394:1 1131:1 3610:1 
0.08200383707958504 19:1 229:1 1131:1 
0.08200383707958504 113:1 
0.08200383707958504 1255:1 
0.08200383707958504 53:1 153:1 417:1 726:1 1055:1 
0.08200383707958504 294:1 805:1 807:1 2692:1 3068:1 
0.08200383707958504 3629:1 
0.08200383707958504 45:1 46:1 51:1 137:1 328:1 900:1 1310:1 
0.08200383707958504 561:1 
0.08200383707958504 3130:1 
0.08200383707958504 27:1 165:1 
0.08200383707958504 3447:1 3638:1 
0.08200383707958504 3639:1 
0.08200383707958504 3639:1 
0.08200383707958504 3639:1 
0.08200383707958504 3639:1 
0.01220942820542001 3639:1 
0.08200383707958504 1364:1 3025:1 
0.03445359577790692 217:1 589:1 1159:1 1450:1 2722:1 2785:1 3364:1 3655:1 3656:1 
0.08200383707958504 610:1 1740:1 2328:1 3274:1 3639:1 
0.08200383707958504 63:1 79:1 452:1 593:1 612:1 1472:1 2141:1 3663:1 3664:1 
0.009774142862907934 146:1 369:1 466:1 990:1 1472:1 1740:1 2328:1 3639:1 3663:1 3670:1 3671:1 
0.08200383707958504 147:1 593:1 996:1 1642:1 1652:1 2676:1 2724:1 2728:1 3639:1 3653:1 3661:1 
0.08200383707958504 147:1 369:1 593:1 1215:1 2042:1 2372:1 2724:1 2865:1 3661:1 3674:1 
0.08200383707958504 341:1 2997:1 3639:1 
0.07117338519401852 589:1 
0.08200383707958504 79:1 3639:1 
0.08200383707958504 19:1 3639:1 
0.08200383707958504 521:1 
0.08014638045021096 1175:1 2513:1 
0.08200383707958504 1006:1 1007:1 
0.08200383707958504 346:1 
0.08200383707958504 22:1 23:1 183:1 231:1 860:1 1614:1 2692:1 
0.08200383707958504 18:1 68:1 180:1 1085:1 2069:1 
0.06345402047927538 19:1 22:1 23:1 25:1 284:1 480:1 535:1 621:1 1472:1 2620:1 
0.08200383707958504 18:1 22:1 23:1 2239:1 
0.08200383707958504 68:1 
0.08200383707958504 925:1 
0.08200383707958504 509:1 510:1 
0.01416776411985463 48:1 202:1 900:1 1687:1 2463:1 2611:1 3325:1 3689:1 
0.08200383707958504 1349:1 
0.08200383707958504 27:1 1686:1 
0.08200383707958504 3690:1 
0.08200383707958504 13:1 137:1 222:1 241:1 525:1 1645:1 3222:1 3690:1 3702:1 
0.08200383707958504 3690:1 
0.06156304762415617 3690:1 
0.07317659003271892 271:1 374:1 437:1 988:1 1159:1 3374:1 3718:1 3719:1 
0.08200383707958504 14:1 206:1 458:1 1502:1 2724:1 2816:1 2845:1 2856:1 2874:1 3447:1 3690:1 
0.08200383707958504 292:1 1475:1 
0.08200383707958504 228:1 292:1 3690:1 
0.08200383707958504 58:1 138:1 321:1 557:1 1007:1 2378:1 
0.08200383707958504 79:1 3690:1 
0.08200383707958504 525:1 
0.08200383707958504 1006:1 1007:1 
0.05803495473821691 346:1 
0.08200383707958504 3559:1 3734:1 3738:1 
