svm_type c_svc
kernel_type linear
nr_class 2
total_sv 10574
rho 0.784368
label -1 2
nr_sv 5148 5426
SV
0.125 38:1 
0.125 11:1 12:1 13:1 14:1 15:1 
0.125 5:1 16:1 17:1 18:1 19:1 20:1 21:1 
0.125 22:1 23:1 24:1 
0.125 25:1 26:1 27:1 28:1 29:1 30:1 31:1 32:1 
0.125 33:1 34:1 35:1 36:1 
0.125 37:1 38:1 39:1 40:1 41:1 
0.03703534311026446 43:1 50:1 51:1 52:1 
0.125 43:1 50:1 51:1 53:1 
0.125 43:1 50:1 51:1 61:1 
0.125 63:1 64:1 65:1 66:1 
0.03502522460290707 1:1 2:1 3:1 4:1 5:1 6:1 
0.125 67:1 68:1 69:1 70:1 71:1 72:1 73:1 74:1 
0.09249129582331603 81:1 82:1 83:1 84:1 85:1 86:1 
0.125 21:1 97:1 98:1 99:1 
0.125 66:1 100:1 101:1 102:1 103:1 104:1 
0.125 105:1 106:1 107:1 108:1 109:1 110:1 
0.125 11:1 12:1 13:1 14:1 15:1 
0.125 120:1 121:1 122:1 123:1 124:1 125:1 126:1 127:1 128:1 129:1 130:1 
0.05489991096632039 44:1 131:1 132:1 133:1 
0.04804803485112571 5:1 90:1 134:1 135:1 
0.125 136:1 137:1 138:1 139:1 140:1 141:1 142:1 143:1 
0.125 158:1 159:1 160:1 161:1 
0.125 162:1 163:1 164:1 165:1 166:1 167:1 
0.125 126:1 168:1 169:1 170:1 171:1 172:1 
0.125 43:1 177:1 178:1 179:1 180:1 181:1 
0.125 22:1 23:1 24:1 
0.125 37:1 38:1 39:1 40:1 41:1 186:1 187:1 188:1 189:1 190:1 
0.125 134:1 193:1 194:1 195:1 196:1 
0.1170153735862838 5:1 16:1 17:1 18:1 19:1 144:1 145:1 
0.125 5:1 90:1 134:1 135:1 
0.125 75:1 96:1 216:1 217:1 218:1 219:1 220:1 
0.125 136:1 137:1 138:1 139:1 140:1 141:1 142:1 143:1 
0.009114089263943101 43:1 50:1 51:1 236:1 
0.125 171:1 251:1 254:1 255:1 256:1 257:1 
0.08071910019719424 41:1 258:1 259:1 260:1 
0.125 21:1 261:1 262:1 263:1 264:1 265:1 
0.125 87:1 266:1 267:1 268:1 269:1 270:1 271:1 
0.125 86:1 272:1 273:1 
0.125 274:1 275:1 276:1 277:1 278:1 
0.125 5:1 90:1 134:1 135:1 
0.125 279:1 280:1 281:1 282:1 283:1 
0.06006315742026604 261:1 262:1 288:1 289:1 290:1 291:1 292:1 293:1 
0.125 10:1 294:1 295:1 296:1 
0.125 44:1 131:1 132:1 133:1 
0.06206164395387413 21:1 92:1 208:1 297:1 298:1 299:1 
0.125 301:1 302:1 303:1 
0.125 5:1 284:1 304:1 
0.125 194:1 
0.125 133:1 307:1 308:1 
0.125 151:1 
0.125 151:1 312:1 
0.125 21:1 313:1 314:1 315:1 
0.125 8:1 101:1 102:1 316:1 317:1 318:1 319:1 
0.125 10:1 294:1 295:1 296:1 
0.125 330:1 331:1 332:1 
0.125 21:1 92:1 333:1 334:1 335:1 
0.125 14:1 111:1 336:1 337:1 338:1 339:1 
0.125 327:1 328:1 340:1 341:1 342:1 343:1 344:1 345:1 346:1 347:1 348:1 349:1 350:1 351:1 
0.125 86:1 352:1 353:1 354:1 355:1 356:1 
0.125 194:1 
0.125 292:1 357:1 358:1 359:1 
0.125 292:1 363:1 364:1 365:1 
0.125 8:1 101:1 102:1 316:1 317:1 318:1 319:1 
0.125 366:1 
0.0572302531467259 243:1 309:1 310:1 311:1 367:1 368:1 369:1 
0.125 41:1 51:1 58:1 175:1 260:1 303:1 375:1 376:1 377:1 378:1 379:1 380:1 
0.1086196305374892 43:1 50:1 51:1 381:1 382:1 
0.125 314:1 393:1 394:1 395:1 
0.125 406:1 
0.125 10:1 294:1 295:1 296:1 
0.125 14:1 82:1 111:1 336:1 339:1 
0.05844289286529521 44:1 107:1 322:1 411:1 414:1 415:1 416:1 
0.125 26:1 417:1 418:1 419:1 420:1 
0.125 44:1 131:1 132:1 133:1 
0.09495617463809486 75:1 148:1 178:1 226:1 421:1 422:1 423:1 
0.125 91:1 333:1 334:1 424:1 425:1 426:1 427:1 428:1 
0.125 40:1 448:1 449:1 450:1 451:1 
0.125 452:1 
0.125 453:1 454:1 455:1 456:1 457:1 
0.125 340:1 341:1 343:1 344:1 345:1 346:1 347:1 348:1 462:1 
0.125 463:1 464:1 465:1 466:1 
0.125 327:1 328:1 462:1 466:1 467:1 468:1 
0.125 469:1 470:1 
0.125 465:1 466:1 
0.125 462:1 
0.125 471:1 
0.125 465:1 466:1 
0.125 462:1 
0.125 131:1 403:1 472:1 473:1 474:1 475:1 476:1 477:1 
0.125 136:1 477:1 478:1 479:1 480:1 481:1 482:1 483:1 484:1 485:1 
0.125 470:1 
0.125 465:1 466:1 
0.125 405:1 
0.125 485:1 486:1 487:1 488:1 489:1 490:1 
0.125 141:1 142:1 473:1 480:1 491:1 492:1 493:1 494:1 495:1 
0.125 485:1 
0.125 231:1 403:1 465:1 466:1 467:1 496:1 497:1 498:1 
0.1208737637073243 327:1 328:1 469:1 499:1 500:1 501:1 
0.125 502:1 
0.06606071405060746 9:1 327:1 328:1 342:1 465:1 503:1 504:1 
0.125 182:1 
0.125 485:1 505:1 
0.125 77:1 192:1 511:1 512:1 513:1 514:1 515:1 
0.125 516:1 517:1 518:1 519:1 520:1 521:1 522:1 
0.125 26:1 149:1 527:1 528:1 
0.125 38:1 529:1 530:1 531:1 532:1 533:1 534:1 535:1 536:1 537:1 
0.1063241622076079 166:1 167:1 414:1 415:1 458:1 459:1 460:1 
0.125 79:1 392:1 538:1 539:1 540:1 541:1 
0.02683135595581064 131:1 403:1 472:1 473:1 474:1 476:1 477:1 485:1 545:1 
0.125 551:1 552:1 553:1 554:1 
0.125 28:1 36:1 555:1 556:1 557:1 
0.125 149:1 558:1 559:1 560:1 
0.08728719782649176 561:1 562:1 563:1 564:1 565:1 566:1 567:1 
0.01221465165423925 453:1 454:1 455:1 456:1 457:1 
0.125 518:1 519:1 520:1 521:1 522:1 568:1 
0.125 83:1 131:1 523:1 569:1 
0.125 182:1 
0.125 9:1 405:1 465:1 503:1 504:1 
0.06227343490692896 38:1 41:1 570:1 571:1 572:1 573:1 574:1 575:1 576:1 
0.125 44:1 577:1 578:1 
0.125 12:1 154:1 379:1 579:1 580:1 581:1 
0.125 279:1 412:1 582:1 583:1 
0.125 588:1 589:1 590:1 
0.125 151:1 591:1 
0.125 151:1 312:1 591:1 592:1 
0.125 7:1 137:1 600:1 601:1 602:1 603:1 
0.125 27:1 86:1 211:1 614:1 615:1 616:1 
0.125 551:1 552:1 553:1 554:1 
0.07896384398181731 146:1 626:1 627:1 628:1 629:1 
0.09128787276794145 28:1 36:1 555:1 556:1 557:1 
0.1075199919049972 626:1 630:1 631:1 632:1 633:1 634:1 
0.125 110:1 117:1 601:1 640:1 641:1 
0.125 131:1 403:1 462:1 472:1 473:1 474:1 476:1 477:1 545:1 
0.125 366:1 650:1 
0.125 83:1 131:1 523:1 569:1 
0.125 651:1 652:1 653:1 654:1 
0.125 653:1 654:1 655:1 
0.125 60:1 654:1 
0.125 33:1 473:1 555:1 658:1 659:1 660:1 661:1 662:1 663:1 664:1 665:1 
0.125 33:1 274:1 672:1 673:1 674:1 675:1 
0.1019875403965874 51:1 155:1 203:1 205:1 676:1 677:1 678:1 
0.125 626:1 630:1 631:1 632:1 633:1 634:1 680:1 
0.1241816631304766 146:1 626:1 627:1 628:1 629:1 
0.125 51:1 688:1 
0.125 690:1 
0.125 232:1 691:1 
0.125 51:1 55:1 241:1 692:1 
0.125 43:1 50:1 51:1 693:1 694:1 
0.125 273:1 704:1 
0.125 64:1 284:1 709:1 710:1 
0.07565944716219494 21:1 86:1 337:1 712:1 713:1 714:1 715:1 716:1 717:1 
0.0395231580831035 126:1 168:1 718:1 719:1 720:1 721:1 722:1 723:1 
0.125 261:1 262:1 412:1 724:1 725:1 726:1 727:1 728:1 729:1 
0.125 429:1 731:1 732:1 733:1 
0.125 44:1 131:1 132:1 133:1 
0.125 26:1 149:1 527:1 528:1 
0.125 51:1 57:1 414:1 415:1 742:1 746:1 
0.125 77:1 192:1 511:1 512:1 513:1 514:1 515:1 
0.1104056353820242 66:1 192:1 220:1 389:1 511:1 
0.08583060110624681 33:1 473:1 555:1 658:1 661:1 662:1 663:1 664:1 665:1 
0.125 86:1 557:1 772:1 773:1 774:1 775:1 
0.0542351333824873 43:1 50:1 51:1 780:1 
0.125 77:1 192:1 511:1 512:1 513:1 514:1 515:1 
0.125 545:1 788:1 789:1 790:1 791:1 
0.125 55:1 759:1 792:1 793:1 794:1 
0.125 599:1 825:1 826:1 
0.125 27:1 117:1 156:1 840:1 841:1 
0.125 44:1 131:1 132:1 133:1 
0.125 210:1 559:1 560:1 844:1 845:1 846:1 
0.125 15:1 20:1 170:1 523:1 629:1 847:1 848:1 
0.04871468283481988 654:1 849:1 851:1 
0.04872306823936697 654:1 849:1 852:1 
0.125 66:1 192:1 853:1 854:1 
0.125 21:1 36:1 830:1 855:1 
0.125 15:1 697:1 777:1 
0.125 21:1 36:1 830:1 855:1 
0.07712664284823653 231:1 407:1 871:1 872:1 873:1 874:1 
0.09422245236474301 20:1 21:1 220:1 876:1 877:1 
0.125 8:1 782:1 882:1 883:1 884:1 885:1 886:1 887:1 
0.125 86:1 163:1 594:1 595:1 891:1 892:1 
0.1229013735143058 303:1 327:1 
0.125 50:1 51:1 55:1 
0.125 43:1 901:1 902:1 
0.125 21:1 36:1 830:1 855:1 
0.06044099273707165 112:1 208:1 371:1 914:1 915:1 916:1 917:1 918:1 
0.004157969842389188 26:1 105:1 149:1 337:1 830:1 875:1 
0.125 149:1 227:1 934:1 935:1 
0.125 44:1 131:1 132:1 133:1 
0.125 66:1 947:1 948:1 949:1 950:1 
0.125 8:1 782:1 882:1 883:1 884:1 885:1 886:1 887:1 
0.03086923469899268 232:1 429:1 651:1 959:1 960:1 
0.125 968:1 969:1 
0.125 46:1 231:1 970:1 971:1 972:1 
0.125 231:1 970:1 971:1 972:1 973:1 
0.125 231:1 971:1 972:1 974:1 
0.125 231:1 975:1 976:1 977:1 
0.125 389:1 978:1 979:1 980:1 
0.125 86:1 986:1 987:1 988:1 989:1 
0.05487201075451457 149:1 211:1 990:1 991:1 992:1 993:1 994:1 
0.125 116:1 245:1 246:1 666:1 995:1 996:1 
0.125 43:1 50:1 51:1 207:1 1012:1 1013:1 1014:1 
0.1161406854259975 149:1 939:1 940:1 1029:1 1030:1 
0.125 44:1 411:1 1036:1 1037:1 1038:1 
0.08776451505322964 102:1 177:1 429:1 599:1 967:1 1044:1 1045:1 1046:1 1047:1 1048:1 1049:1 1050:1 1051:1 
0.125 44:1 131:1 132:1 133:1 
0.125 606:1 607:1 649:1 1052:1 
0.125 1056:1 1057:1 1058:1 1059:1 1060:1 1061:1 1062:1 1063:1 
0.125 771:1 943:1 1066:1 1067:1 
0.125 1074:1 
0.09399262385993842 76:1 281:1 282:1 283:1 1001:1 1002:1 1003:1 1004:1 1005:1 
0.125 182:1 
0.125 721:1 1076:1 1077:1 1078:1 1079:1 
0.03731717389987284 157:1 550:1 1080:1 1081:1 1082:1 1083:1 1084:1 1085:1 1086:1 
0.1205318459683484 224:1 347:1 537:1 626:1 
0.125 1092:1 1093:1 1094:1 1095:1 
0.125 71:1 155:1 435:1 446:1 1106:1 
0.125 38:1 41:1 347:1 963:1 1107:1 1108:1 
0.125 1109:1 1110:1 1111:1 1112:1 
0.125 63:1 66:1 556:1 1117:1 
0.125 402:1 736:1 1118:1 1119:1 1120:1 
0.125 319:1 1121:1 1122:1 1123:1 1124:1 1125:1 1126:1 1127:1 
0.125 136:1 1048:1 1130:1 1131:1 1132:1 1133:1 1134:1 
0.125 1142:1 1143:1 
0.125 647:1 834:1 1145:1 1146:1 1147:1 
0.125 651:1 1128:1 1153:1 
0.125 1057:1 1058:1 1060:1 1154:1 1155:1 
0.02574572680021501 26:1 149:1 469:1 771:1 
0.125 136:1 1048:1 1130:1 1131:1 1132:1 1133:1 1134:1 
0.125 1158:1 1172:1 1173:1 1174:1 1175:1 1176:1 
0.05100495036850045 647:1 834:1 1145:1 1146:1 1147:1 1178:1 
0.125 27:1 36:1 86:1 938:1 1185:1 1186:1 
0.125 319:1 1121:1 1122:1 1123:1 1124:1 1125:1 1126:1 1127:1 
0.125 43:1 50:1 51:1 1196:1 1197:1 
0.125 136:1 1048:1 1130:1 1131:1 1132:1 1133:1 1134:1 
0.125 1057:1 1058:1 1060:1 1154:1 1155:1 
0.125 1121:1 1199:1 
0.125 1121:1 1144:1 
0.125 1200:1 1201:1 
0.125 361:1 1202:1 1203:1 
0.125 365:1 472:1 940:1 1204:1 
0.125 721:1 1203:1 1205:1 1206:1 1207:1 
0.125 336:1 423:1 950:1 1208:1 1209:1 1210:1 1211:1 1212:1 
0.125 1158:1 1172:1 1173:1 1174:1 1175:1 1176:1 
0.125 5:1 756:1 
0.125 764:1 1156:1 1219:1 1220:1 
0.02684006194230452 149:1 252:1 1223:1 1224:1 1225:1 
0.125 44:1 131:1 132:1 133:1 
0.125 1121:1 
0.03714816584867157 27:1 925:1 1122:1 1123:1 1228:1 
0.125 41:1 126:1 140:1 168:1 169:1 486:1 1229:1 1230:1 1231:1 
0.125 604:1 605:1 671:1 1240:1 
0.125 75:1 89:1 192:1 
0.125 1253:1 
0.07592755050363537 9:1 1254:1 1255:1 1256:1 1257:1 1258:1 1259:1 1260:1 
0.125 397:1 565:1 1261:1 1262:1 1263:1 1264:1 
0.04010999857080296 41:1 126:1 140:1 168:1 486:1 1229:1 1230:1 1231:1 
0.125 59:1 361:1 1271:1 1272:1 1273:1 1274:1 1275:1 1276:1 
0.125 50:1 55:1 241:1 
0.125 50:1 55:1 241:1 
0.125 50:1 51:1 55:1 
0.125 43:1 50:1 51:1 1283:1 1284:1 
0.125 50:1 51:1 55:1 
0.125 87:1 1295:1 
0.125 110:1 681:1 846:1 1087:1 1299:1 
0.002904293494457541 9:1 1300:1 1301:1 1302:1 1303:1 1304:1 1305:1 1306:1 
0.125 1307:1 1308:1 1309:1 1310:1 
0.03156147899151069 42:1 830:1 1312:1 1313:1 1314:1 1315:1 
0.125 116:1 208:1 666:1 1131:1 1243:1 1318:1 1319:1 
0.125 1253:1 
0.125 132:1 133:1 
0.125 44:1 131:1 132:1 133:1 
0.125 89:1 192:1 1043:1 1323:1 
0.04181749349016703 319:1 734:1 1252:1 1324:1 
0.07651223170174498 8:1 21:1 92:1 1249:1 1332:1 
0.125 73:1 513:1 649:1 1061:1 1242:1 1333:1 1334:1 1335:1 1336:1 
0.125 386:1 513:1 1242:1 
0.04575045829824756 220:1 610:1 1343:1 1344:1 1345:1 1346:1 1347:1 
0.1208018885136359 193:1 271:1 527:1 767:1 1082:1 1340:1 1349:1 1350:1 
0.1227942408619955 220:1 610:1 1343:1 1344:1 1345:1 1346:1 1347:1 
0.125 560:1 1040:1 1340:1 1342:1 1349:1 1356:1 1357:1 1358:1 1359:1 
0.125 817:1 1237:1 1360:1 
0.125 788:1 789:1 790:1 
0.125 40:1 448:1 449:1 450:1 451:1 
0.114507189858087 387:1 388:1 1039:1 1226:1 1296:1 1297:1 1298:1 
0.07962324550864482 43:1 50:1 51:1 228:1 792:1 
0.125 1378:1 1379:1 1380:1 1381:1 1382:1 
0.125 1131:1 
0.125 87:1 271:1 1347:1 1383:1 
0.009382079538496832 26:1 861:1 1009:1 1129:1 1387:1 1388:1 
0.125 131:1 132:1 133:1 
0.125 560:1 1040:1 1340:1 1342:1 1349:1 1356:1 1357:1 1358:1 1359:1 
0.125 68:1 338:1 526:1 1390:1 1391:1 1392:1 1393:1 1394:1 1395:1 
0.125 66:1 1396:1 1397:1 1398:1 1399:1 
0.1187128206513451 1234:1 1400:1 1401:1 1402:1 1403:1 1404:1 1405:1 1406:1 1407:1 
0.125 465:1 1416:1 
0.125 466:1 1417:1 
0.125 468:1 1419:1 
0.125 26:1 28:1 29:1 30:1 480:1 1306:1 1337:1 1421:1 
0.125 145:1 200:1 201:1 1420:1 
0.125 88:1 89:1 1428:1 1429:1 
0.125 191:1 
0.125 454:1 1434:1 1435:1 1436:1 1437:1 
0.125 231:1 1370:1 
0.125 1434:1 1437:1 
0.0121143467878997 50:1 51:1 241:1 251:1 1378:1 1438:1 
0.125 43:1 50:1 207:1 1278:1 1440:1 
0.125 66:1 220:1 1445:1 
0.125 145:1 1420:1 
0.04652092860028018 614:1 1449:1 1450:1 1451:1 1452:1 1453:1 
0.125 312:1 393:1 1456:1 
0.09288499861713136 458:1 1457:1 1458:1 1459:1 
0.125 1428:1 1429:1 1460:1 
0.125 1474:1 1478:1 
0.125 465:1 1416:1 
0.125 466:1 1417:1 
0.125 468:1 1419:1 
0.002034085393190044 51:1 205:1 206:1 258:1 1484:1 1485:1 1486:1 1487:1 
0.125 126:1 140:1 292:1 1488:1 1489:1 1490:1 
0.125 87:1 503:1 794:1 862:1 1496:1 
0.125 44:1 
0.09694934512872332 458:1 1457:1 1458:1 1459:1 
0.125 182:1 
0.125 88:1 412:1 1519:1 
0.125 135:1 506:1 1217:1 1520:1 
0.125 26:1 66:1 1347:1 
0.125 26:1 28:1 29:1 30:1 480:1 1306:1 
0.125 614:1 1449:1 1450:1 1451:1 1452:1 
0.125 1521:1 
0.06897891821098744 88:1 89:1 171:1 216:1 407:1 412:1 1522:1 1523:1 1524:1 1525:1 
0.125 182:1 
0.125 110:1 931:1 1119:1 1531:1 
0.1191964837028188 88:1 412:1 1519:1 
0.125 75:1 1534:1 1535:1 1536:1 1537:1 1538:1 
0.125 363:1 1543:1 1544:1 1545:1 1546:1 1547:1 
0.125 126:1 140:1 292:1 1488:1 1489:1 1490:1 
0.125 182:1 
0.125 111:1 156:1 1517:1 1518:1 
0.125 1474:1 1478:1 
0.125 112:1 561:1 1562:1 
0.125 26:1 135:1 193:1 384:1 506:1 578:1 952:1 1441:1 1575:1 
0.125 22:1 76:1 164:1 398:1 1366:1 1576:1 1577:1 1578:1 1579:1 
0.125 168:1 266:1 865:1 1314:1 1580:1 1581:1 1582:1 
0.125 136:1 1004:1 1585:1 1586:1 1587:1 1588:1 1589:1 1590:1 
0.125 135:1 506:1 1217:1 1520:1 
0.06698907140395109 27:1 227:1 231:1 527:1 1592:1 
0.03592257788552222 456:1 1482:1 1483:1 
0.03104890277516739 410:1 546:1 982:1 1020:1 1561:1 
0.125 50:1 51:1 55:1 241:1 
0.01196260699615509 43:1 50:1 231:1 1278:1 1396:1 1600:1 
0.125 22:1 76:1 164:1 398:1 1366:1 1576:1 1577:1 1578:1 1579:1 
0.125 406:1 940:1 1609:1 1610:1 1611:1 1612:1 
0.125 135:1 506:1 1217:1 1520:1 
0.125 208:1 217:1 250:1 1091:1 1613:1 1614:1 
0.125 36:1 86:1 170:1 171:1 172:1 529:1 1615:1 1616:1 
0.125 26:1 66:1 1347:1 
0.125 136:1 473:1 555:1 658:1 1004:1 1586:1 1587:1 1588:1 1589:1 1590:1 
0.125 86:1 122:1 126:1 170:1 171:1 1077:1 1622:1 1623:1 1624:1 
0.125 651:1 1024:1 1291:1 
0.1199300140589824 654:1 960:1 1024:1 1291:1 
0.125 651:1 
0.125 120:1 604:1 605:1 939:1 1627:1 
0.005546926390810616 26:1 66:1 110:1 193:1 429:1 910:1 1628:1 1629:1 
0.125 1636:1 1637:1 1638:1 
0.125 1639:1 1640:1 
0.125 1641:1 
0.125 1642:1 1643:1 1644:1 
0.125 1645:1 1646:1 
0.125 26:1 66:1 1347:1 
0.125 914:1 1288:1 1555:1 1657:1 1658:1 1659:1 1660:1 
0.125 208:1 217:1 250:1 1091:1 1613:1 1614:1 
0.125 86:1 211:1 581:1 1500:1 1667:1 1668:1 1669:1 
0.125 101:1 165:1 414:1 554:1 1670:1 
0.125 88:1 89:1 880:1 1043:1 1323:1 1679:1 1680:1 
0.125 764:1 1106:1 1134:1 1590:1 1689:1 
0.125 26:1 66:1 1347:1 
0.125 649:1 1699:1 1700:1 
0.08607300677120934 148:1 422:1 512:1 702:1 1712:1 1713:1 
0.125 191:1 718:1 943:1 1716:1 1717:1 1718:1 
0.125 721:1 986:1 1078:1 1723:1 1724:1 1725:1 1726:1 
0.125 1501:1 1738:1 
0.125 15:1 642:1 1743:1 1744:1 1745:1 1746:1 
0.07175826103893868 120:1 292:1 625:1 1170:1 1747:1 
0.125 33:1 401:1 1750:1 1751:1 1752:1 1753:1 1754:1 
0.02847169606036601 55:1 1034:1 1144:1 1762:1 1763:1 
0.02593610989052781 156:1 270:1 1111:1 1174:1 1590:1 1764:1 
0.125 148:1 422:1 512:1 702:1 1712:1 1713:1 
0.125 35:1 86:1 622:1 1077:1 1720:1 1768:1 
0.125 157:1 1418:1 1771:1 1772:1 
0.125 110:1 116:1 666:1 806:1 1506:1 
0.125 82:1 1624:1 1773:1 1774:1 1775:1 
0.08895103391995542 76:1 157:1 862:1 917:1 1776:1 1777:1 1778:1 
0.125 573:1 649:1 799:1 1452:1 1783:1 
0.125 1501:1 1738:1 
0.05994337684584236 446:1 1043:1 1271:1 1784:1 1785:1 1786:1 
0.003646204091227648 384:1 713:1 1138:1 1797:1 
0.01750089480872839 41:1 480:1 902:1 1485:1 1486:1 1798:1 1799:1 1800:1 1801:1 1802:1 1803:1 
0.125 524:1 676:1 995:1 1040:1 1259:1 1729:1 1730:1 1803:1 
0.125 524:1 676:1 995:1 1040:1 1259:1 1555:1 1729:1 1730:1 
0.125 203:1 1533:1 1813:1 1814:1 1815:1 1816:1 1817:1 1818:1 
0.1060567951444696 40:1 933:1 1260:1 1485:1 1486:1 1555:1 1798:1 1799:1 
0.125 69:1 286:1 
0.125 21:1 
0.125 56:1 1843:1 1844:1 1845:1 1846:1 1847:1 1848:1 
0.125 40:1 197:1 1352:1 1555:1 1845:1 1851:1 1852:1 1853:1 1854:1 1855:1 
0.1190519232881836 26:1 802:1 1480:1 1481:1 
0.125 206:1 1500:1 1502:1 1555:1 1856:1 1857:1 1858:1 1859:1 1860:1 1861:1 
0.03687308022417091 13:1 34:1 105:1 206:1 1484:1 1555:1 1890:1 1891:1 1892:1 1893:1 1894:1 
0.05377369754575843 82:1 446:1 1555:1 1906:1 1907:1 1908:1 
0.125 82:1 583:1 1070:1 1219:1 1313:1 1555:1 1909:1 1910:1 1911:1 1912:1 1913:1 1914:1 
0.125 861:1 1426:1 
0.07953431123808517 435:1 625:1 1860:1 1915:1 1916:1 1917:1 1918:1 1919:1 
0.125 1555:1 
0.125 36:1 86:1 759:1 933:1 1083:1 1648:1 1921:1 
0.125 82:1 1624:1 1773:1 1774:1 1775:1 
0.125 87:1 355:1 503:1 529:1 551:1 794:1 
0.0948844212427645 126:1 227:1 529:1 1615:1 1922:1 1923:1 1924:1 1925:1 
0.125 191:1 
0.125 45:1 1503:1 
0.125 182:1 
0.06373925180707678 26:1 694:1 861:1 1935:1 1936:1 1937:1 1938:1 1939:1 
0.125 220:1 560:1 1106:1 1940:1 1941:1 1942:1 1943:1 1944:1 
0.125 154:1 392:1 792:1 1949:1 1950:1 1951:1 
0.125 68:1 1056:1 1149:1 1213:1 1952:1 1953:1 
0.125 1001:1 1954:1 1955:1 1956:1 
0.125 18:1 86:1 417:1 1957:1 1958:1 1959:1 1960:1 
0.125 1438:1 1574:1 1961:1 1962:1 1963:1 
0.125 110:1 1967:1 1968:1 1969:1 1970:1 1971:1 
0.125 368:1 1131:1 1938:1 1974:1 1975:1 1976:1 
0.125 113:1 148:1 541:1 1699:1 1980:1 
0.125 149:1 1982:1 1983:1 
0.07199633995622544 68:1 329:1 693:1 694:1 1213:1 1244:1 
0.125 594:1 595:1 1984:1 1985:1 
0.125 45:1 1503:1 
0.125 49:1 179:1 221:1 
0.125 56:1 279:1 454:1 957:1 1986:1 
0.125 347:1 777:1 1235:1 1987:1 1988:1 
0.125 1992:1 
0.125 21:1 92:1 
0.125 66:1 708:1 1347:1 1993:1 
0.125 231:1 1920:1 2003:1 
0.125 32:1 570:1 571:1 
0.05315826228020047 142:1 414:1 1698:1 2014:1 2015:1 2016:1 2017:1 2018:1 
0.080678763726119 384:1 542:1 1695:1 1739:1 1740:1 2021:1 
0.1011746449755961 336:1 452:1 1337:1 1421:1 1889:1 2013:1 
0.125 45:1 1503:1 
0.08209148792943678 165:1 890:1 1336:1 1478:1 2028:1 2029:1 
0.125 155:1 767:1 814:1 1075:1 1082:1 
0.125 32:1 570:1 571:1 
0.125 20:1 73:1 2030:1 2031:1 2032:1 2033:1 
0.125 159:1 812:1 994:1 1015:1 2034:1 
0.125 86:1 1491:1 2035:1 2036:1 
0.125 25:1 26:1 27:1 28:1 29:1 30:1 31:1 32:1 
0.125 10:1 2041:1 
0.125 231:1 1920:1 2003:1 
0.01087057507934932 112:1 1119:1 1441:1 1531:1 2042:1 
0.125 86:1 713:1 997:1 2043:1 2044:1 
0.125 594:1 595:1 1984:1 1985:1 
0.125 915:1 916:1 1075:1 2049:1 2050:1 2051:1 
0.07850121196761151 336:1 452:1 1337:1 1421:1 1889:1 2013:1 
0.125 149:1 708:1 1993:1 2055:1 
0.125 221:1 778:1 1212:1 1753:1 2056:1 
0.125 27:1 325:1 930:1 2057:1 2058:1 
0.05861290662634766 170:1 550:1 739:1 2023:1 2024:1 
0.125 111:1 765:1 1234:1 1955:1 
0.125 142:1 414:1 453:1 1698:1 2014:1 2015:1 2016:1 2017:1 2018:1 
0.125 27:1 325:1 930:1 2057:1 2058:1 
0.0621177155650116 73:1 525:1 535:1 942:1 1335:1 2068:1 
0.125 191:1 
0.125 10:1 2041:1 
0.08596013251977482 84:1 86:1 187:1 1425:1 2073:1 2074:1 
0.125 82:1 417:1 2080:1 2081:1 2082:1 
0.125 27:1 325:1 930:1 2057:1 2058:1 
0.125 361:1 944:1 
0.125 10:1 2041:1 
0.125 1491:1 1955:1 2098:1 
0.125 111:1 765:1 1234:1 1955:1 
0.125 211:1 231:1 464:1 1145:1 
0.125 109:1 1288:1 2099:1 2100:1 
0.125 86:1 230:1 594:1 595:1 1077:1 2105:1 
0.05248150713241378 26:1 861:1 1612:1 2108:1 2109:1 2110:1 
0.125 36:1 126:1 211:1 336:1 1114:1 2111:1 2112:1 
0.125 3:1 9:1 1179:1 1479:1 2113:1 
0.1117419664822232 391:1 1056:1 2114:1 2115:1 
0.125 73:1 525:1 535:1 942:1 1335:1 2068:1 
0.125 849:1 850:1 
0.125 851:1 
0.125 852:1 
0.125 654:1 850:1 2116:1 
0.125 21:1 92:1 2071:1 2117:1 
0.125 1078:1 1712:1 
0.125 1739:1 2121:1 
0.125 1926:1 
0.125 27:1 36:1 86:1 155:1 2088:1 2130:1 2131:1 
0.09217042387205057 68:1 69:1 203:1 459:1 2132:1 2133:1 
0.125 193:1 231:1 300:1 1740:1 1888:1 2134:1 2135:1 2136:1 
0.03292001774065756 410:1 2139:1 2140:1 
0.125 1078:1 1712:1 1740:1 
0.125 705:1 2145:1 2146:1 
0.125 84:1 453:1 489:1 683:1 2150:1 
0.125 37:1 40:1 734:1 998:1 2164:1 2165:1 2166:1 2167:1 2168:1 
0.1172371739412421 3:1 9:1 1479:1 
0.1200691991979627 410:1 2139:1 2140:1 
0.125 68:1 69:1 70:1 167:1 443:1 
0.125 173:1 2191:1 2192:1 
0.125 1078:1 1712:1 1740:1 2193:1 
0.125 1186:1 2194:1 2195:1 2196:1 2197:1 
0.125 86:1 274:1 
0.125 123:1 1685:1 1825:1 2198:1 
0.005434743223838853 9:1 1177:1 2202:1 2203:1 
0.125 149:1 2206:1 
0.125 21:1 279:1 372:1 1700:1 2207:1 2208:1 
0.125 109:1 157:1 612:1 834:1 902:1 2209:1 2210:1 
0.125 651:1 2213:1 2214:1 
0.125 567:1 777:1 787:1 1860:1 2218:1 2219:1 2220:1 2221:1 2222:1 2223:1 
0.125 1160:1 1161:1 1162:1 1462:1 
0.125 2224:1 
0.125 33:1 2014:1 2215:1 2225:1 2226:1 2227:1 2228:1 
0.125 2229:1 2230:1 
0.125 2082:1 2231:1 
0.125 1289:1 2232:1 
0.125 2233:1 
0.125 2234:1 2235:1 
0.125 193:1 702:1 777:1 2135:1 2236:1 
0.125 1160:1 1161:1 1162:1 1462:1 2238:1 
0.125 1289:1 2232:1 2244:1 2245:1 
0.125 189:1 1289:1 2014:1 2215:1 2226:1 2232:1 2234:1 2246:1 
0.125 121:1 2235:1 
0.125 391:1 2251:1 2252:1 2253:1 
0.04939410680034326 43:1 50:1 235:1 985:1 1214:1 2140:1 2258:1 
0.0523392144079908 21:1 50:1 55:1 235:1 1268:1 2019:1 2259:1 2260:1 
0.1224523938674308 51:1 55:1 2236:1 
0.125 51:1 55:1 2266:1 
0.125 86:1 238:1 1425:1 2274:1 
0.1191187222183725 149:1 614:1 2010:1 2275:1 
0.125 1186:1 2194:1 2195:1 2196:1 2197:1 
0.09881122742338241 1118:1 1997:1 1998:1 1999:1 2000:1 2276:1 
0.125 208:1 224:1 702:1 
0.125 1160:1 1161:1 1162:1 1462:1 
0.125 14:1 329:1 1084:1 1085:1 1086:1 1138:1 2280:1 
0.08199985007977748 86:1 410:1 546:1 1232:1 2285:1 2286:1 2287:1 
0.001721124675554766 231:1 906:1 2119:1 
0.125 21:1 92:1 
0.125 45:1 61:1 958:1 1505:1 1551:1 1664:1 2094:1 2288:1 
0.125 20:1 224:1 1421:1 2236:1 2289:1 2290:1 
0.125 149:1 614:1 2291:1 
0.125 862:1 2292:1 2293:1 
0.125 87:1 479:1 1331:1 2164:1 2298:1 2299:1 2300:1 2301:1 
0.02916563265288983 70:1 75:1 110:1 155:1 611:1 702:1 1955:1 2254:1 
0.125 402:1 458:1 459:1 460:1 2132:1 
0.125 105:1 900:1 1434:1 2238:1 2306:1 
0.125 257:1 389:1 455:1 2307:1 2308:1 2309:1 
0.05093463083515177 112:1 173:1 224:1 2315:1 2316:1 2317:1 2318:1 
0.04901752053532946 87:1 336:1 445:1 503:1 529:1 794:1 906:1 2319:1 
0.125 906:1 2119:1 
0.009699917408078351 79:1 565:1 2322:1 
0.125 136:1 149:1 2325:1 2326:1 
0.08545502908937361 565:1 1112:1 1526:1 2329:1 2330:1 2331:1 
0.125 402:1 458:1 459:1 460:1 2132:1 
0.125 87:1 479:1 1331:1 2164:1 2298:1 2299:1 2300:1 
0.125 136:1 635:1 2334:1 2335:1 
0.125 26:1 802:1 1480:1 1481:1 
0.125 354:1 411:1 2344:1 2345:1 2346:1 2347:1 
0.125 178:1 193:1 610:1 768:1 1194:1 1526:1 2007:1 2329:1 
0.125 156:1 220:1 513:1 1607:1 1767:1 
0.125 79:1 565:1 2322:1 
0.125 969:1 1720:1 2348:1 2349:1 
0.125 354:1 411:1 2345:1 2353:1 
0.125 1056:1 1452:1 1700:1 1847:1 1990:1 
0.1242170462483125 606:1 607:1 881:1 2040:1 2356:1 2357:1 
0.125 66:1 459:1 
0.125 104:1 112:1 444:1 1506:1 2362:1 
0.125 642:1 2363:1 2364:1 2365:1 
0.125 12:1 68:1 69:1 157:1 1380:1 2371:1 
0.125 163:1 1999:1 2000:1 2373:1 
0.05206145813207941 217:1 440:1 441:1 2209:1 2374:1 
0.125 26:1 802:1 1480:1 1481:1 
0.125 86:1 1719:1 2376:1 2377:1 
0.1216484643014875 165:1 221:1 669:1 2049:1 2378:1 2379:1 
0.125 454:1 486:1 1426:1 1760:1 2327:1 2336:1 2337:1 
0.125 559:1 560:1 2383:1 
0.125 969:1 1720:1 2349:1 2384:1 2385:1 
0.02099182988197849 454:1 1056:1 1144:1 1199:1 1760:1 2327:1 
0.125 26:1 238:1 683:1 889:1 2007:1 
0.125 646:1 1034:1 2390:1 2391:1 
0.125 933:1 
0.125 933:1 
0.125 933:1 
0.125 933:1 
0.125 651:1 2394:1 2395:1 
0.125 79:1 565:1 2322:1 
0.125 652:1 653:1 654:1 
0.05754187002986888 653:1 654:1 655:1 
0.125 60:1 654:1 
0.125 79:1 565:1 2322:1 
0.125 26:1 
0.125 26:1 802:1 1480:1 1481:1 
0.125 86:1 95:1 137:1 2285:1 2408:1 2409:1 2410:1 
0.07326851628246686 992:1 1027:1 1028:1 1134:1 2411:1 
0.125 79:1 565:1 2322:1 
0.0446871961740904 86:1 610:1 713:1 2419:1 2420:1 2421:1 
0.125 2145:1 2425:1 2426:1 
0.125 992:1 1027:1 1028:1 1134:1 2411:1 
0.031628689908739 610:1 637:1 874:1 1990:1 2432:1 2433:1 
0.125 26:1 802:1 1480:1 1481:1 
0.125 42:1 56:1 2436:1 2437:1 
0.125 2040:1 2442:1 2443:1 
0.125 704:1 749:1 2036:1 2446:1 2447:1 
0.125 136:1 635:1 2334:1 2335:1 
0.08072671609934957 149:1 1225:1 1399:1 1826:1 2452:1 2453:1 
0.125 651:1 858:1 859:1 860:1 
0.125 149:1 1148:1 1503:1 
0.125 136:1 635:1 2334:1 2335:1 
0.125 75:1 545:1 2207:1 2459:1 2460:1 
0.07094374604744952 42:1 48:1 56:1 189:1 232:1 1890:1 
0.125 881:1 1118:1 1149:1 1953:1 2095:1 2474:1 2475:1 
0.125 15:1 503:1 1315:1 2478:1 2479:1 
0.01143393214742382 211:1 212:1 541:1 649:1 2104:1 2480:1 2481:1 2482:1 
0.125 173:1 810:1 931:1 
0.125 136:1 635:1 637:1 1950:1 2334:1 2335:1 2489:1 2490:1 
0.125 538:1 2104:1 2492:1 2493:1 2494:1 
0.07359901171792764 77:1 1723:1 2461:1 2462:1 
0.07280602857444797 410:1 546:1 1539:1 1790:1 1791:1 2444:1 2445:1 
0.125 651:1 775:1 960:1 
0.125 651:1 859:1 2394:1 
0.125 193:1 231:1 2513:1 2514:1 2515:1 
0.125 127:1 1915:1 2520:1 2521:1 
0.009956221025580497 64:1 284:1 2153:1 2527:1 
0.125 17:1 1106:1 1318:1 1607:1 2529:1 2530:1 2531:1 2532:1 2533:1 2534:1 
0.03227047031613624 9:1 2535:1 
0.125 370:1 1141:1 2177:1 2540:1 
0.07497685203411537 142:1 149:1 2544:1 2545:1 2546:1 
0.125 655:1 1530:1 2342:1 2547:1 
0.125 287:1 523:1 2548:1 2549:1 2550:1 2551:1 
0.125 610:1 1119:1 1943:1 2552:1 2553:1 
0.125 29:1 30:1 36:1 112:1 2555:1 2556:1 
0.1003202640902433 77:1 625:1 2500:1 
0.125 940:1 2560:1 2561:1 
0.125 20:1 2562:1 2563:1 
0.125 26:1 2566:1 2567:1 2568:1 
0.0378552168846531 84:1 322:1 323:1 324:1 
0.125 458:1 459:1 460:1 1920:1 2579:1 2580:1 
0.125 2581:1 
0.09437788084878979 136:1 142:1 473:1 2059:1 2061:1 2582:1 
0.125 127:1 1111:1 2585:1 
0.125 73:1 142:1 2586:1 2587:1 2588:1 2589:1 2590:1 
0.125 337:1 997:1 1039:1 2592:1 
0.125 26:1 2581:1 2595:1 2596:1 
0.125 458:1 459:1 460:1 1920:1 2579:1 2580:1 
0.1110483996845542 21:1 2418:1 
0.125 1376:1 
0.125 861:1 
0.125 9:1 
0.125 26:1 2595:1 2596:1 2605:1 2606:1 
0.125 1231:1 2611:1 2612:1 2613:1 2614:1 2615:1 
0.125 545:1 788:1 789:1 790:1 791:1 
0.125 754:1 1695:1 2021:1 2617:1 
0.125 26:1 
0.125 231:1 2624:1 2625:1 
0.125 635:1 2372:1 2390:1 2627:1 2628:1 
0.03070816039238266 612:1 1070:1 2350:1 2351:1 2352:1 
0.125 635:1 2390:1 2627:1 2628:1 
0.125 127:1 1915:1 2520:1 2521:1 
0.125 624:1 2633:1 2634:1 2635:1 
0.125 1773:1 2389:1 2636:1 2637:1 
0.125 20:1 2562:1 2563:1 
0.125 513:1 862:1 1873:1 2278:1 2640:1 2641:1 2642:1 
0.125 21:1 92:1 
0.125 411:1 1888:1 2647:1 2648:1 
0.125 2390:1 2627:1 2628:1 
0.125 26:1 2595:1 2596:1 
0.125 757:1 2654:1 2655:1 
0.125 565:1 2656:1 
0.125 193:1 1077:1 1165:1 1448:1 1695:1 2390:1 2657:1 2658:1 2659:1 
0.01253946007366568 5:1 66:1 231:1 2599:1 2600:1 2601:1 
0.125 127:1 1111:1 2585:1 2661:1 
0.125 20:1 2562:1 2563:1 
0.125 1774:1 2664:1 2665:1 2666:1 2667:1 
0.125 17:1 622:1 997:1 1838:1 2668:1 2669:1 2670:1 
0.125 20:1 537:1 646:1 2671:1 2672:1 
0.08981486705343472 513:1 862:1 1873:1 2278:1 2279:1 2641:1 2642:1 
0.1243370491493069 5:1 66:1 231:1 2599:1 2600:1 2601:1 
0.125 26:1 1448:1 2673:1 2674:1 
0.125 513:1 862:1 1873:1 2278:1 2640:1 2641:1 2642:1 
0.125 72:1 299:1 745:1 985:1 1774:1 1984:1 2675:1 2676:1 
0.125 20:1 2562:1 2563:1 
0.125 17:1 622:1 997:1 1838:1 2668:1 2669:1 2670:1 
0.125 133:1 2169:1 2199:1 2677:1 2678:1 2679:1 2680:1 2681:1 2682:1 
0.125 13:1 64:1 2683:1 2684:1 2685:1 
0.007368529360584843 27:1 860:1 2689:1 2690:1 2691:1 
0.125 1380:1 2692:1 2693:1 2694:1 2695:1 2696:1 
0.125 66:1 1347:1 2703:1 
0.125 26:1 1448:1 2673:1 2674:1 
0.125 651:1 2395:1 2708:1 
0.125 2712:1 2713:1 2714:1 
0.125 537:1 2049:1 2050:1 2653:1 2671:1 2672:1 
0.125 472:1 2009:1 
0.125 42:1 193:1 300:1 595:1 1576:1 2003:1 2720:1 
0.125 27:1 860:1 1179:1 2689:1 2690:1 2691:1 2721:1 
0.1209226718692507 91:1 424:1 507:1 674:1 809:1 
0.125 354:1 1784:1 2724:1 2725:1 
0.125 42:1 48:1 2565:1 
0.125 2009:1 2730:1 2731:1 
0.125 179:1 1632:1 2250:1 2733:1 
0.125 26:1 
0.125 131:1 163:1 2734:1 
0.006708319797487149 612:1 820:1 829:1 1212:1 1311:1 2056:1 2256:1 
0.0529514650018275 211:1 212:1 1238:1 2704:1 2705:1 2706:1 2707:1 
0.125 646:1 1034:1 2736:1 2737:1 
0.125 363:1 364:1 1984:1 2738:1 2739:1 2740:1 
0.09796798366315117 142:1 555:1 940:1 1292:1 2742:1 2743:1 2744:1 2745:1 
0.125 238:1 412:1 1772:1 2746:1 2747:1 2748:1 2749:1 2750:1 
0.125 354:1 1784:1 2724:1 2725:1 
0.125 36:1 939:1 1627:1 1918:1 2538:1 2751:1 
0.0306885564060168 13:1 64:1 535:1 942:1 2683:1 2684:1 2685:1 
0.125 168:1 1038:1 2232:1 2754:1 2755:1 2756:1 
0.125 42:1 48:1 221:1 2565:1 
0.125 131:1 163:1 2734:1 
0.125 114:1 157:1 888:1 1085:1 1086:1 2361:1 2773:1 
0.0293925903252729 182:1 333:1 361:1 2767:1 2768:1 
0.125 6:1 1099:1 2775:1 
0.125 68:1 69:1 90:1 918:1 1249:1 1932:1 2776:1 
0.121010690126409 584:1 1070:1 1585:1 2340:1 
0.05709623419559025 18:1 41:1 417:1 2777:1 2778:1 2779:1 2780:1 
0.09762111021601563 75:1 835:1 1604:1 1605:1 2697:1 2698:1 
0.125 179:1 1632:1 2250:1 2733:1 
0.125 21:1 92:1 
0.125 66:1 687:1 966:1 1992:1 2787:1 
0.125 112:1 879:1 1060:1 1131:1 2550:1 2792:1 
0.125 9:1 334:1 335:1 2793:1 2794:1 2795:1 
0.125 163:1 306:1 1377:1 2796:1 
0.125 757:1 1316:1 1467:1 
0.125 20:1 284:1 393:1 2798:1 
0.125 529:1 531:1 532:1 2799:1 
0.125 84:1 322:1 323:1 324:1 
0.125 2203:1 2800:1 
0.125 131:1 513:1 1377:1 
0.125 247:1 1651:1 
0.1093269409604721 255:1 647:1 1146:1 2806:1 2807:1 
0.0628162358677103 203:1 1377:1 1553:1 2809:1 2810:1 
0.125 66:1 687:1 966:1 1992:1 2787:1 
0.125 9:1 334:1 335:1 2793:1 2794:1 2795:1 
0.125 529:1 531:1 532:1 2799:1 
0.125 428:1 1090:1 1685:1 2819:1 2820:1 2821:1 2822:1 2823:1 
0.125 1844:1 2824:1 
0.125 624:1 2271:1 2618:1 2619:1 2620:1 2621:1 
0.125 86:1 356:1 1465:1 1580:1 1720:1 
0.125 6:1 1099:1 2775:1 
0.1020207889660372 354:1 411:1 1685:1 2804:1 2831:1 2832:1 
0.125 182:1 559:1 560:1 
0.125 1684:1 2838:1 2839:1 2840:1 2841:1 2842:1 
0.07626986031753213 353:1 785:1 1574:1 2843:1 
0.08558934018560949 284:1 322:1 461:1 1655:1 2065:1 2811:1 2812:1 
0.121231838571682 255:1 647:1 1146:1 2806:1 2807:1 
0.125 9:1 2535:1 
0.125 6:1 36:1 86:1 437:1 1097:1 2852:1 2853:1 
0.125 66:1 149:1 1126:1 
0.125 26:1 131:1 2180:1 2181:1 
0.125 247:1 1651:1 
0.125 526:1 635:1 981:1 2873:1 2874:1 
0.125 51:1 654:1 
0.125 285:1 384:1 757:1 1467:1 
0.125 86:1 626:1 713:1 998:1 1989:1 
0.125 27:1 925:1 1122:1 1123:1 1228:1 
0.125 26:1 131:1 2180:1 2181:1 
0.125 708:1 1816:1 2886:1 
0.125 345:1 346:1 691:1 767:1 2167:1 2320:1 2892:1 2893:1 2894:1 2895:1 
0.1183731006940961 83:1 637:1 1255:1 2900:1 2901:1 2902:1 2903:1 
0.125 89:1 407:1 775:1 799:1 1642:1 2905:1 2906:1 2907:1 2908:1 
0.125 379:1 1451:1 
0.125 65:1 86:1 138:1 2921:1 2922:1 
0.125 26:1 131:1 2180:1 2181:1 
0.125 75:1 155:1 192:1 1060:1 1131:1 2923:1 
0.125 234:1 2451:1 2845:1 2846:1 2924:1 
0.1209714358662796 112:1 221:1 1943:1 2498:1 2928:1 
0.1114206825531855 9:1 2535:1 
0.125 149:1 2931:1 2932:1 2933:1 
0.125 35:1 86:1 1039:1 2934:1 2935:1 2936:1 
0.125 651:1 849:1 1238:1 
0.125 17:1 277:1 721:1 1305:1 2909:1 2937:1 
0.125 320:1 654:1 2944:1 
0.125 27:1 654:1 1438:1 2944:1 
0.06927399984400241 654:1 1289:1 2708:1 2945:1 
0.125 1128:1 1153:1 
0.1242862034413887 83:1 637:1 1255:1 2900:1 2901:1 2902:1 2903:1 
0.125 91:1 424:1 2660:1 
0.125 861:1 2955:1 
0.125 1165:1 1377:1 1526:1 2884:1 2956:1 2957:1 
0.125 165:1 1131:1 2958:1 2959:1 
0.125 20:1 107:1 2960:1 2961:1 2962:1 
0.125 753:1 2964:1 
0.125 535:1 559:1 560:1 942:1 
0.125 20:1 82:1 86:1 2967:1 2968:1 
0.105901046972718 45:1 221:1 2292:1 2971:1 
0.125 17:1 277:1 721:1 1305:1 2909:1 2937:1 
0.125 174:1 301:1 410:1 541:1 546:1 1539:1 
0.125 64:1 284:1 
0.125 612:1 2974:1 
0.125 26:1 274:1 2135:1 2975:1 2976:1 2977:1 
0.125 163:1 211:1 212:1 1144:1 1665:1 
0.125 107:1 2961:1 2962:1 2978:1 
0.125 20:1 203:1 390:1 2979:1 
0.125 1734:1 2780:1 2980:1 2981:1 
0.125 21:1 92:1 
0.125 36:1 86:1 255:1 507:1 704:1 918:1 2982:1 
0.125 849:1 850:1 
0.125 852:1 
0.125 849:1 851:1 
0.125 149:1 332:1 882:1 
0.125 45:1 385:1 1723:1 2153:1 2954:1 
0.125 1165:1 1377:1 1526:1 2884:1 2956:1 2957:1 
0.125 9:1 
0.125 384:1 1649:1 2955:1 2972:1 
0.125 556:1 2986:1 
0.125 91:1 105:1 
0.125 612:1 2974:1 
0.125 105:1 231:1 2991:1 
0.125 329:1 2531:1 2992:1 
0.125 1389:1 2268:1 
0.125 1376:1 1783:1 2993:1 2994:1 
0.125 157:1 205:1 3002:1 3003:1 3004:1 
0.125 556:1 2986:1 
0.125 20:1 222:1 329:1 1160:1 1366:1 2268:1 2677:1 3010:1 
0.125 2840:1 3011:1 3012:1 
0.125 612:1 2974:1 
0.0244278615738015 86:1 126:1 526:1 2285:1 2593:1 
0.01229212168992041 17:1 525:1 739:1 845:1 2381:1 2570:1 3015:1 
0.125 3016:1 
0.125 21:1 92:1 
0.004000670034339964 110:1 734:1 2069:1 2381:1 
0.125 9:1 
0.125 647:1 936:1 3017:1 
0.125 149:1 1075:1 1438:1 2292:1 3018:1 
0.125 84:1 322:1 323:1 324:1 
0.125 116:1 2017:1 
0.125 2888:1 3025:1 
0.125 3026:1 3027:1 
0.125 1902:1 
0.125 2888:1 
0.125 3016:1 
0.125 91:1 424:1 647:1 
0.125 2840:1 3011:1 3012:1 
0.125 549:1 936:1 3017:1 
0.125 1252:1 1643:1 2199:1 3032:1 3033:1 3034:1 
0.125 26:1 
0.125 36:1 269:1 271:1 605:1 1719:1 
0.125 20:1 26:1 326:1 1164:1 1447:1 
0.125 2114:1 2805:1 3035:1 
0.125 3036:1 3037:1 
0.125 292:1 1685:1 3038:1 3039:1 
0.125 1774:1 2804:1 3040:1 3041:1 
0.125 2085:1 3007:1 3042:1 
0.125 36:1 721:1 1028:1 1811:1 1825:1 2154:1 3043:1 
0.007928575738693648 105:1 156:1 1723:1 2249:1 3048:1 
0.125 647:1 936:1 3017:1 
0.125 20:1 26:1 326:1 1447:1 3053:1 
0.125 148:1 347:1 2611:1 3065:1 3066:1 3067:1 3068:1 
0.125 2840:1 3011:1 3012:1 
0.125 220:1 266:1 3072:1 
0.125 2267:1 3073:1 3074:1 
0.125 289:1 624:1 2271:1 2618:1 
0.125 178:1 247:1 412:1 
0.09430418059872561 343:1 454:1 458:1 459:1 460:1 3077:1 
0.125 2689:1 2690:1 3094:1 
0.125 127:1 1111:1 2585:1 
0.125 71:1 1475:1 1793:1 3096:1 3097:1 3098:1 
0.125 711:1 3022:1 
0.125 424:1 479:1 997:1 2173:1 
0.125 337:1 997:1 1039:1 2592:1 
0.125 1027:1 1028:1 
0.125 1025:1 2377:1 2573:1 3106:1 3107:1 3108:1 
0.09127305828503497 610:1 1505:1 1551:1 2593:1 3061:1 3062:1 3063:1 3064:1 
0.01861618480135764 289:1 624:1 2271:1 2618:1 2619:1 2620:1 2621:1 
0.125 178:1 247:1 412:1 
0.125 361:1 1685:1 2346:1 3114:1 3115:1 3116:1 3117:1 
0.125 387:1 388:1 646:1 3118:1 3119:1 3120:1 
0.125 123:1 2425:1 
0.125 260:1 2040:1 2184:1 3121:1 
0.125 205:1 206:1 210:1 2201:1 
0.125 289:1 624:1 2271:1 2618:1 2619:1 2620:1 2621:1 
0.04007576247134834 211:1 212:1 444:1 927:1 2209:1 2256:1 
0.03801247984706032 75:1 512:1 2001:1 
0.1025128504484186 861:1 3125:1 3126:1 3132:1 3133:1 
0.0767090595912357 221:1 640:1 1070:1 2552:1 
0.125 446:1 1075:1 1597:1 1753:1 3051:1 
0.125 92:1 1350:1 
0.125 925:1 3058:1 3134:1 
0.1187622996551254 442:1 651:1 1113:1 2505:1 
0.125 2689:1 2690:1 3094:1 
0.04518550337658291 9:1 263:1 335:1 3090:1 3102:1 3103:1 
0.1100562682218801 308:1 354:1 2093:1 3129:1 3137:1 
0.125 91:1 424:1 3138:1 
0.125 2346:1 3139:1 3140:1 
0.1022683761126427 868:1 2040:1 2858:1 3123:1 3124:1 3125:1 3126:1 3127:1 3141:1 
0.125 9:1 66:1 3142:1 
0.125 647:1 1612:1 1942:1 3143:1 3144:1 
0.125 2690:1 2752:1 3094:1 
0.125 149:1 332:1 3146:1 3147:1 
0.1066823778886373 116:1 515:1 666:1 1790:1 3151:1 
0.125 1451:1 1579:1 3120:1 3152:1 3153:1 
0.125 671:1 868:1 3132:1 3157:1 
0.125 2689:1 2690:1 3094:1 
0.125 221:1 1441:1 3159:1 
0.125 2041:1 2690:1 2752:1 3094:1 
0.125 444:1 1084:1 2381:1 2508:1 3165:1 
0.09009512003175385 9:1 263:1 335:1 3090:1 3102:1 3103:1 
0.125 1793:1 2116:1 3154:1 3166:1 
0.125 1434:1 1464:1 2267:1 3167:1 3168:1 
0.125 15:1 1612:1 3080:1 3178:1 3184:1 3185:1 
0.1202873572720888 247:1 602:1 3195:1 
0.125 26:1 879:1 1186:1 1448:1 
0.125 1083:1 1345:1 1346:1 
0.03851430878916529 20:1 70:1 117:1 2381:1 3164:1 
0.09570208935837425 108:1 156:1 1759:1 2840:1 3197:1 3198:1 3199:1 
0.125 782:1 1105:1 1315:1 2526:1 3200:1 
0.1085778194485135 75:1 647:1 3201:1 
0.125 251:1 599:1 
0.125 62:1 247:1 1692:1 
0.125 26:1 
0.125 71:1 1475:1 1793:1 3096:1 3097:1 3098:1 
0.125 26:1 879:1 1186:1 1448:1 
0.125 15:1 1612:1 3178:1 3184:1 3208:1 
0.125 149:1 3210:1 3211:1 
0.05078236604739267 42:1 697:1 2647:1 2988:1 
0.125 319:1 604:1 605:1 3219:1 
0.1063917234904074 123:1 211:1 231:1 2145:1 3229:1 
0.125 26:1 
0.125 2574:1 3230:1 
0.125 66:1 559:1 560:1 1653:1 3231:1 
0.125 325:1 802:1 3232:1 3233:1 
0.125 42:1 697:1 2647:1 2988:1 
0.125 313:1 2995:1 3234:1 
0.125 231:1 271:1 2237:1 3236:1 
0.125 371:1 3237:1 3238:1 3239:1 
0.125 2563:1 3240:1 
0.125 649:1 668:1 1790:1 2201:1 2531:1 
0.006047498849082824 70:1 154:1 1134:1 2362:1 3241:1 3242:1 3243:1 
0.125 1548:1 2072:1 3244:1 3245:1 
0.125 26:1 
0.07048605867197009 123:1 211:1 231:1 2145:1 3229:1 
0.125 412:1 3247:1 
0.125 711:1 3022:1 
0.125 149:1 177:1 2643:1 3248:1 3249:1 
0.125 424:1 479:1 997:1 2173:1 
0.125 52:1 230:1 535:1 942:1 1056:1 1118:1 
0.125 111:1 
0.125 1027:1 1028:1 
0.125 681:1 3251:1 3252:1 3253:1 
0.125 66:1 559:1 560:1 1653:1 3231:1 
0.125 412:1 2077:1 2078:1 3058:1 3254:1 
0.125 371:1 3237:1 3238:1 3239:1 
0.06125605743975832 231:1 454:1 1434:1 3099:1 3100:1 
0.01479849159951332 182:1 183:1 513:1 3096:1 
0.125 654:1 960:1 2063:1 
0.125 232:1 654:1 3260:1 
0.125 232:1 654:1 1152:1 2063:1 
0.125 337:1 997:1 1039:1 2592:1 
0.125 84:1 322:1 323:1 324:1 
0.125 424:1 479:1 997:1 2173:1 
0.125 117:1 3263:1 3264:1 
0.125 91:1 3265:1 3266:1 3267:1 
0.125 9:1 2874:1 
0.125 13:1 47:1 126:1 338:1 1069:1 1078:1 3269:1 3270:1 3271:1 3272:1 
0.125 187:1 208:1 1091:1 3273:1 3274:1 3275:1 
0.125 182:1 183:1 513:1 3096:1 
0.125 123:1 1186:1 3095:1 
0.125 155:1 458:1 
0.125 1131:1 3096:1 3278:1 3279:1 
0.09214265544210443 231:1 518:1 2892:1 3280:1 3281:1 
0.02417569861933468 1634:1 3282:1 3283:1 3284:1 
0.125 424:1 479:1 997:1 2173:1 
0.01573923803040047 116:1 1094:1 2009:1 3098:1 3285:1 3286:1 3287:1 
0.125 83:1 719:1 722:1 1530:1 
0.125 681:1 3251:1 3252:1 3253:1 
0.125 13:1 47:1 126:1 338:1 1069:1 1078:1 3269:1 3270:1 3271:1 3272:1 
0.125 3297:1 3298:1 3299:1 3300:1 
0.125 9:1 2874:1 
0.125 26:1 149:1 
0.125 155:1 458:1 
0.05803147730553895 45:1 626:1 3319:1 3320:1 
0.1160144104851202 1634:1 3282:1 3283:1 3284:1 
0.125 9:1 
0.125 91:1 768:1 3333:1 
0.125 496:1 1056:1 1118:1 1493:1 3336:1 
0.125 116:1 331:1 3337:1 3338:1 
0.00337448550730863 159:1 782:1 1288:1 1441:1 2042:1 2731:1 3341:1 3342:1 
0.125 230:1 271:1 273:1 1604:1 1605:1 2711:1 3343:1 3344:1 3345:1 
0.04246760391063033 45:1 535:1 942:1 2099:1 3346:1 
0.125 66:1 550:1 610:1 647:1 
0.125 123:1 1186:1 3095:1 
0.125 49:1 215:1 648:1 996:1 3152:1 
0.125 1027:1 1028:1 2520:1 3354:1 
0.125 182:1 183:1 185:1 656:1 
0.125 116:1 668:1 1585:1 3357:1 3358:1 
0.125 45:1 260:1 626:1 3319:1 
0.125 255:1 319:1 329:1 740:1 902:1 3361:1 
0.125 230:1 271:1 273:1 1604:1 1605:1 2711:1 3343:1 3344:1 3345:1 
0.125 652:1 653:1 654:1 
0.125 60:1 654:1 
0.125 91:1 1342:1 3374:1 3375:1 
0.125 1027:1 1028:1 2520:1 3354:1 
0.125 148:1 260:1 422:1 
0.0778530661421479 792:1 1501:1 1591:1 1668:1 2093:1 2729:1 3366:1 3367:1 3368:1 3369:1 
0.125 45:1 626:1 3319:1 3320:1 
0.03136581238098815 154:1 1141:1 2199:1 3382:1 3383:1 3384:1 3385:1 
0.07640544553023043 156:1 459:1 647:1 1530:1 1942:1 2529:1 2530:1 3386:1 3387:1 
0.125 251:1 950:1 1336:1 3349:1 3388:1 3389:1 
0.125 110:1 2362:1 3390:1 3391:1 3392:1 
0.125 401:1 505:1 642:1 1751:1 
0.125 260:1 538:1 740:1 
0.08996890309645054 75:1 1444:1 2052:1 3396:1 
0.125 182:1 183:1 185:1 756:1 3397:1 
0.125 1027:1 1028:1 2520:1 3354:1 
0.125 606:1 607:1 649:1 1926:1 3398:1 3399:1 
0.125 545:1 788:1 789:1 790:1 791:1 
0.09728800345168358 66:1 767:1 1030:1 
0.09475877877365436 62:1 247:1 1071:1 2314:1 3180:1 3181:1 
0.06234827008267403 319:1 604:1 605:1 785:1 3219:1 
0.125 545:1 788:1 789:1 790:1 791:1 
0.1237401689115536 62:1 247:1 1071:1 2314:1 3180:1 3181:1 
0.125 36:1 68:1 271:1 1025:1 2987:1 3415:1 3416:1 
0.0537344239013397 20:1 496:1 946:1 1119:1 2153:1 2679:1 3417:1 
0.125 148:1 1102:1 1152:1 1193:1 3409:1 3418:1 
0.07517004866161392 76:1 943:1 2119:1 3080:1 3403:1 
0.125 148:1 1102:1 1152:1 1193:1 3409:1 3418:1 
0.08114432612033724 547:1 1190:1 2184:1 2292:1 3429:1 3430:1 
0.04928196456392054 42:1 1314:1 3435:1 3436:1 
0.125 1106:1 1119:1 1444:1 3429:1 3430:1 3437:1 3438:1 
0.125 135:1 183:1 474:1 655:1 1734:1 1915:1 
0.125 148:1 422:1 1696:1 3029:1 3366:1 3443:1 
0.05415763891887437 15:1 221:1 356:1 1152:1 1193:1 3446:1 3447:1 
0.125 610:1 3416:1 
0.125 545:1 788:1 789:1 790:1 791:1 
0.04646056744645993 36:1 75:1 647:1 2119:1 
0.08739911771594752 91:1 3306:1 3455:1 3456:1 3457:1 3458:1 
0.125 610:1 3416:1 
0.125 42:1 2436:1 2437:1 3435:1 3436:1 
0.125 20:1 25:1 79:1 279:1 399:1 1056:1 
0.125 182:1 183:1 185:1 321:1 322:1 
0.125 148:1 422:1 1696:1 3029:1 3366:1 3443:1 
0.125 2278:1 2528:1 3466:1 3471:1 3472:1 3473:1 3474:1 
0.125 60:1 626:1 3475:1 3476:1 
0.125 231:1 379:1 1452:1 
0.125 39:1 1501:1 2093:1 3414:1 3440:1 
0.07022529094077511 614:1 2278:1 2291:1 3255:1 3466:1 3484:1 
0.125 164:1 1384:1 1590:1 3485:1 3486:1 
0.125 20:1 817:1 3487:1 3488:1 3489:1 
0.125 42:1 3435:1 3436:1 
0.01607269014922479 313:1 1501:1 3234:1 
0.1246153834411161 535:1 874:1 942:1 2104:1 3496:1 3497:1 3498:1 
0.125 744:1 983:1 3499:1 3500:1 3501:1 
0.125 20:1 25:1 79:1 279:1 399:1 1056:1 
0.125 68:1 149:1 
0.125 407:1 831:1 
0.125 3504:1 
0.125 651:1 953:1 3505:1 
0.1243914048925385 319:1 604:1 605:1 785:1 3219:1 
0.125 84:1 322:1 323:1 324:1 
0.125 407:1 831:1 
0.1113280675268745 91:1 1043:1 2408:1 3507:1 3508:1 3509:1 
0.125 1773:1 3512:1 
0.004884182922210966 407:1 969:1 1034:1 1527:1 
0.01571803502478488 718:1 1525:1 1572:1 2516:1 3126:1 3513:1 
0.125 2358:1 2360:1 
0.125 744:1 983:1 3499:1 3500:1 3501:1 
0.125 26:1 149:1 
0.1210074997190135 407:1 831:1 
0.125 164:1 1384:1 1590:1 3485:1 
0.125 1496:1 2115:1 2470:1 
0.03916616256239174 1997:1 1998:1 2346:1 3139:1 3140:1 
0.125 454:1 799:1 1618:1 2637:1 
0.125 453:1 3355:1 3521:1 3522:1 
0.08223532524979815 1478:1 2240:1 2752:1 3523:1 
0.125 424:1 3524:1 3525:1 3526:1 
0.125 230:1 1190:1 1687:1 3487:1 3528:1 
0.125 1263:1 2455:1 3529:1 3530:1 3531:1 3532:1 
0.125 149:1 252:1 3533:1 
0.04059405927974113 42:1 339:1 704:1 2763:1 2954:1 3535:1 3536:1 
0.125 2358:1 2360:1 
0.125 149:1 1590:1 2182:1 2522:1 
0.09293611815404251 614:1 1530:1 2456:1 2614:1 3000:1 3061:1 3330:1 
0.125 319:1 604:1 605:1 785:1 
0.125 2712:1 3540:1 3541:1 
0.125 1033:1 2358:1 2360:1 
0.125 799:1 3550:1 3551:1 
0.125 1286:1 1473:1 2559:1 
0.125 1997:1 1998:1 3065:1 3139:1 3140:1 
0.1039542301088181 231:1 926:1 938:1 1234:1 3511:1 
0.125 424:1 3524:1 3525:1 3526:1 
0.1236260069947128 10:1 2888:1 2891:1 3559:1 3560:1 
0.08257071349142887 165:1 953:1 998:1 3561:1 3562:1 3563:1 
0.125 801:1 1095:1 3566:1 
0.02313035795027315 231:1 556:1 3573:1 3574:1 
0.125 15:1 605:1 972:1 2980:1 3578:1 3579:1 3580:1 3581:1 
0.1183603059676869 10:1 2888:1 2891:1 3559:1 3560:1 
0.125 715:1 999:1 2199:1 2492:1 
0.08430399889327826 221:1 846:1 1056:1 2497:1 2498:1 
0.125 66:1 68:1 1164:1 1549:1 
0.125 1489:1 1774:1 3584:1 3585:1 
0.125 45:1 230:1 540:1 646:1 1190:1 1664:1 2183:1 
0.125 1286:1 1473:1 2559:1 
0.125 1286:1 1473:1 2559:1 
0.02644934383274973 111:1 126:1 337:1 3596:1 3597:1 
0.09141501594245829 12:1 131:1 391:1 2526:1 
0.0161391805847098 384:1 2186:1 3591:1 3592:1 3593:1 3594:1 
0.125 3:1 71:1 250:1 1190:1 
0.125 251:1 255:1 3243:1 3605:1 
0.125 131:1 2160:1 3608:1 
0.125 456:1 3610:1 
0.125 111:1 126:1 337:1 3596:1 3597:1 
0.125 625:1 1528:1 3437:1 3611:1 
0.125 574:1 1286:1 2699:1 3304:1 
0.1161120047403186 1033:1 1956:1 2358:1 2360:1 
0.125 3289:1 3612:1 3613:1 
0.1087367660760428 77:1 512:1 513:1 514:1 785:1 1179:1 3538:1 3539:1 
0.125 44:1 2456:1 
0.06652968400325798 227:1 1286:1 2195:1 3616:1 3617:1 
0.125 313:1 1501:1 3234:1 
0.02902799986800882 2098:1 2240:1 2488:1 2570:1 2804:1 2808:1 
0.004415463773868432 27:1 614:1 1825:1 3505:1 3622:1 
0.125 3623:1 3624:1 
0.125 594:1 595:1 3625:1 3626:1 
0.125 389:1 3627:1 
0.0800452553312386 55:1 68:1 69:1 894:1 921:1 2945:1 3288:1 3636:1 
0.125 1310:1 3637:1 
0.125 178:1 635:1 1103:1 1104:1 1493:1 1532:1 1533:1 2435:1 
0.125 1501:1 3227:1 3640:1 
0.125 149:1 951:1 3641:1 3642:1 
0.125 154:1 263:1 805:1 1463:1 
0.0951389618632707 420:1 1711:1 3051:1 3654:1 3655:1 3656:1 
0.02999817875916445 116:1 149:1 912:1 3657:1 
0.125 45:1 303:1 1472:1 3614:1 
0.05040861780502255 51:1 651:1 960:1 2763:1 
0.125 829:1 3658:1 3659:1 
0.125 651:1 1128:1 1153:1 
0.125 443:1 2372:1 3564:1 3661:1 3662:1 
0.125 36:1 95:1 437:1 3666:1 
0.125 326:1 1003:1 3667:1 3668:1 3669:1 3670:1 
0.125 77:1 3671:1 3672:1 
0.125 182:1 183:1 185:1 321:1 322:1 
0.125 20:1 105:1 781:1 782:1 
0.125 443:1 2372:1 3564:1 3661:1 3662:1 
0.002013652133052061 21:1 110:1 1451:1 3682:1 
0.125 2973:1 3389:1 3588:1 3684:1 
0.125 2425:1 2830:1 3381:1 
0.125 857:1 1118:1 3686:1 
0.125 57:1 178:1 635:1 637:1 3687:1 
0.125 182:1 183:1 185:1 322:1 
0.125 313:1 1501:1 3234:1 
0.125 66:1 614:1 1291:1 
0.125 66:1 1994:1 3289:1 
0.125 45:1 898:1 907:1 3692:1 3693:1 
0.125 154:1 263:1 805:1 1463:1 
0.125 651:1 960:1 3699:1 
0.125 326:1 1003:1 3667:1 3668:1 3669:1 3670:1 
0.125 84:1 322:1 323:1 324:1 
0.1200579445799654 230:1 326:1 2528:1 3668:1 3669:1 3670:1 3702:1 3703:1 
0.125 313:1 1501:1 3234:1 
0.125 131:1 140:1 1469:1 3708:1 
0.125 1308:1 1492:1 3710:1 
0.125 75:1 178:1 
0.1080053289289655 20:1 626:1 683:1 1462:1 2050:1 2989:1 3694:1 
0.125 1077:1 
0.125 107:1 858:1 873:1 874:1 1094:1 1209:1 
0.02921052955248732 41:1 1209:1 3712:1 3713:1 
0.125 313:1 1501:1 3234:1 
0.125 182:1 183:1 185:1 461:1 
0.1170693065954738 122:1 145:1 322:1 921:1 2670:1 3697:1 3698:1 3722:1 3723:1 
0.125 1684:1 1685:1 3535:1 3724:1 
0.125 461:1 1341:1 
0.04542866307302929 494:1 576:1 715:1 2840:1 3707:1 
0.125 27:1 651:1 2693:1 
0.125 112:1 655:1 900:1 2264:1 2316:1 
0.125 713:1 3733:1 
0.125 385:1 512:1 713:1 
0.125 66:1 154:1 3738:1 
0.1114426595757191 75:1 1942:1 1967:1 1968:1 
0.125 182:1 183:1 185:1 656:1 
0.125 404:1 627:1 848:1 2001:1 2077:1 2078:1 3741:1 
0.1244601728543175 494:1 576:1 715:1 2840:1 3707:1 
0.125 184:1 925:1 2631:1 2654:1 
0.125 926:1 953:1 
0.01006933325605085 17:1 631:1 992:1 1108:1 2123:1 2623:1 3745:1 3746:1 
0.1239488694506674 41:1 2638:1 3747:1 3748:1 
0.125 3724:1 3749:1 
0.125 340:1 529:1 2574:1 3750:1 
0.125 187:1 446:1 3752:1 
0.125 5:1 66:1 2455:1 3758:1 
0.125 75:1 3759:1 
0.125 13:1 205:1 600:1 601:1 955:1 2053:1 3765:1 3766:1 
0.125 36:1 610:1 1179:1 1311:1 1505:1 3771:1 3772:1 3773:1 3774:1 3775:1 
0.09494574354964343 231:1 997:1 1448:1 2077:1 2078:1 2937:1 3661:1 3777:1 3778:1 
0.125 331:1 1992:1 
0.125 221:1 355:1 882:1 3572:1 
0.125 301:1 1377:1 3780:1 
0.125 69:1 168:1 521:1 3785:1 
0.125 1483:1 3786:1 
0.08194988901161347 41:1 2009:1 3753:1 3793:1 
0.125 220:1 1117:1 
0.125 20:1 183:1 185:1 321:1 322:1 
0.125 1033:1 1099:1 2784:1 3794:1 3795:1 3796:1 
0.121857835498634 105:1 279:1 412:1 1711:1 3675:1 3797:1 
0.125 45:1 347:1 355:1 778:1 
0.125 2049:1 2529:1 2530:1 3801:1 3802:1 3803:1 
0.125 640:1 1106:1 2139:1 2140:1 3047:1 3804:1 
0.125 191:1 322:1 1576:1 1704:1 2654:1 
0.125 68:1 1213:1 1377:1 3805:1 
0.125 861:1 3812:1 
0.125 8:1 66:1 2587:1 
0.05029753525002667 51:1 224:1 900:1 1001:1 1374:1 1375:1 2153:1 
0.125 45:1 443:1 1374:1 1375:1 1379:1 3816:1 
0.125 274:1 275:1 893:1 1938:1 2096:1 3748:1 3817:1 3818:1 
0.125 20:1 183:1 185:1 321:1 461:1 
0.125 1177:1 3810:1 
0.03508402009047768 68:1 69:1 112:1 279:1 1224:1 
0.125 42:1 697:1 1805:1 3820:1 
0.125 27:1 407:1 871:1 873:1 2222:1 3821:1 3822:1 
0.125 329:1 538:1 1306:1 1598:1 3088:1 3823:1 
0.125 329:1 2104:1 3278:1 3830:1 
0.125 156:1 1726:1 2552:1 3831:1 
0.125 74:1 778:1 3647:1 3832:1 3833:1 3834:1 3835:1 3836:1 
0.125 17:1 69:1 221:1 1466:1 2190:1 3823:1 
0.125 217:1 534:1 535:1 827:1 3842:1 3843:1 
0.125 827:1 1048:1 3844:1 3845:1 
0.125 319:1 604:1 605:1 2654:1 
0.125 87:1 3724:1 
0.125 667:1 1997:1 1998:1 2005:1 2276:1 3858:1 3859:1 
0.125 87:1 2209:1 
0.125 42:1 3854:1 
0.125 2145:1 2593:1 3860:1 
0.125 516:1 656:1 
0.06902172317674933 42:1 697:1 3863:1 
0.02139334096262929 208:1 541:1 1091:1 1539:1 3330:1 3865:1 
0.125 313:1 3234:1 3417:1 3866:1 
0.03082481174154098 286:1 725:1 1224:1 3867:1 
0.1006947455451091 20:1 154:1 1141:1 2146:1 3868:1 3869:1 3870:1 
0.125 149:1 494:1 3871:1 3872:1 
0.125 87:1 2209:1 
0.125 631:1 827:1 1684:1 3873:1 
0.125 234:1 2451:1 
0.125 51:1 155:1 215:1 515:1 2262:1 2757:1 
0.125 667:1 1997:1 1998:1 2005:1 2276:1 3858:1 3859:1 
0.125 75:1 2190:1 3790:1 3791:1 
0.125 105:1 286:1 298:1 3734:1 
0.125 42:1 3854:1 
0.125 62:1 234:1 3884:1 
0.08353908156730139 42:1 697:1 3863:1 
0.125 187:1 221:1 3654:1 3866:1 
0.125 754:1 897:1 1779:1 2021:1 2617:1 2882:1 3885:1 3886:1 3887:1 
0.125 654:1 1024:1 1291:1 
0.05247319958387514 651:1 654:1 1542:1 1625:1 
0.001482977150273647 654:1 960:1 1542:1 1625:1 
0.125 62:1 2148:1 3256:1 3888:1 3889:1 3890:1 
0.125 3724:1 
0.125 2493:1 2498:1 3891:1 3892:1 
0.125 897:1 1779:1 2617:1 2882:1 3885:1 3893:1 
0.1142640777841191 105:1 286:1 298:1 3734:1 
0.125 208:1 541:1 1091:1 1539:1 3330:1 3865:1 
0.125 20:1 183:1 185:1 321:1 756:1 
0.0009971392278878793 952:1 953:1 3713:1 3900:1 3901:1 
0.125 50:1 55:1 235:1 241:1 2623:1 3877:1 
0.125 208:1 1091:1 3027:1 3907:1 3908:1 3909:1 
0.125 105:1 1876:1 3504:1 
0.125 190:1 467:1 526:1 3910:1 
0.125 559:1 560:1 561:1 3912:1 
0.125 105:1 266:1 913:1 1111:1 3914:1 
0.125 1538:1 2267:1 
0.125 897:1 1779:1 2617:1 2882:1 3885:1 
0.125 182:1 183:1 185:1 756:1 
0.125 2645:1 3865:1 3919:1 
0.125 118:1 231:1 2371:1 3921:1 
0.125 516:1 656:1 
0.125 165:1 2371:1 2599:1 
0.125 208:1 1030:1 1091:1 3920:1 
0.125 651:1 
0.08766865858815996 2687:1 3027:1 3908:1 3909:1 
0.125 578:1 955:1 1047:1 1720:1 1761:1 3928:1 
0.125 1530:1 3929:1 3930:1 
0.125 208:1 1030:1 1091:1 3920:1 
0.125 440:1 441:1 1119:1 2183:1 3567:1 
0.125 73:1 1078:1 1217:1 2146:1 3941:1 3942:1 
0.125 17:1 248:1 739:1 3943:1 
0.125 1530:1 3929:1 3930:1 
0.125 208:1 1091:1 1105:1 1157:1 3695:1 
0.125 182:1 183:1 184:1 185:1 
0.125 1060:1 2973:1 3945:1 3946:1 3947:1 3948:1 
0.125 578:1 955:1 1047:1 1720:1 1761:1 3928:1 
0.125 149:1 685:1 1994:1 
0.125 2715:1 
0.125 918:1 1530:1 3929:1 3949:1 3950:1 3951:1 3952:1 
0.125 117:1 714:1 1179:1 1373:1 
0.125 73:1 559:1 3837:1 3957:1 3958:1 3959:1 3960:1 
0.125 178:1 571:1 2042:1 2456:1 3017:1 3505:1 3964:1 
0.05399009896522112 68:1 69:1 636:1 777:1 1943:1 3966:1 
0.125 232:1 1152:1 3972:1 
0.06283235704346045 319:1 604:1 605:1 2700:1 
0.125 66:1 252:1 1324:1 3975:1 
0.125 208:1 1091:1 1105:1 1157:1 3695:1 
0.125 68:1 69:1 636:1 777:1 1943:1 3966:1 
0.125 117:1 714:1 1179:1 
0.08044794597436511 182:1 183:1 185:1 321:1 322:1 
0.125 66:1 3148:1 
0.125 863:1 864:1 2674:1 
0.04284184964726186 850:1 851:1 852:1 2463:1 2464:1 
0.125 741:1 858:1 3985:1 
0.05403921142583051 42:1 697:1 1381:1 1558:1 3986:1 3987:1 
0.125 320:1 3007:1 3796:1 3940:1 3988:1 3989:1 3990:1 
0.125 420:1 751:1 855:1 3991:1 3992:1 3993:1 3994:1 3995:1 
0.03305638274794238 118:1 535:1 942:1 1260:1 
0.125 182:1 183:1 185:1 322:1 
0.09920296525100115 20:1 379:1 679:1 953:1 1395:1 4000:1 
0.125 2267:1 2981:1 4003:1 4004:1 4005:1 4006:1 
0.125 66:1 252:1 1324:1 3975:1 
0.05883157448924323 47:1 524:1 527:1 1040:1 1826:1 4008:1 4009:1 4010:1 4011:1 
0.125 68:1 69:1 636:1 777:1 1943:1 3966:1 
0.01154442069436948 587:1 744:1 1499:1 1518:1 3501:1 4013:1 4014:1 
0.125 403:1 474:1 4015:1 4016:1 
0.125 384:1 1807:1 
0.125 231:1 2876:1 4030:1 4031:1 
0.0603911976341455 432:1 3365:1 4032:1 4033:1 4034:1 4035:1 
0.125 772:1 3654:1 4044:1 
0.07334240409542149 68:1 434:1 544:1 618:1 2004:1 2789:1 4053:1 4054:1 
0.125 286:1 548:1 838:1 4059:1 
0.125 14:1 742:1 3766:1 4060:1 
0.125 325:1 403:1 474:1 4069:1 4070:1 4071:1 
0.125 40:1 432:1 847:1 1947:1 4022:1 4080:1 4081:1 4082:1 
0.1230004340229244 65:1 269:1 519:1 704:1 767:1 999:1 1517:1 4083:1 4084:1 
0.005449811642990807 286:1 412:1 1409:1 
0.125 290:1 625:1 1409:1 4085:1 
0.125 287:1 2072:1 4088:1 4089:1 
0.125 65:1 284:1 778:1 1970:1 4096:1 4097:1 
0.125 688:1 803:1 902:1 1468:1 4101:1 
0.125 3900:1 4104:1 4105:1 4106:1 
0.125 69:1 4107:1 4108:1 
0.125 308:1 2089:1 3428:1 4109:1 4110:1 
0.125 1240:1 4111:1 4112:1 
0.125 27:1 2137:1 3717:1 4124:1 
0.125 255:1 266:1 1048:1 1825:1 2826:1 4126:1 4127:1 
0.125 224:1 231:1 
0.125 829:1 1154:1 1420:1 3458:1 4128:1 4129:1 4130:1 
0.01385201742923813 27:1 101:1 2691:1 2717:1 3916:1 4131:1 
0.01161013698228575 243:1 697:1 773:1 857:1 1832:1 3345:1 3692:1 4138:1 4139:1 4140:1 4141:1 4142:1 
0.125 767:1 2425:1 2758:1 4146:1 4147:1 
0.125 824:1 1503:1 4148:1 4149:1 
0.01141150212953867 892:1 2471:1 2526:1 4157:1 4158:1 4159:1 4160:1 4161:1 4162:1 4163:1 
0.125 286:1 1701:1 
0.125 321:1 2718:1 4165:1 4166:1 4167:1 
0.125 251:1 721:1 1350:1 3963:1 4170:1 
0.01595685697718937 6:1 21:1 326:1 1331:1 2600:1 4179:1 4180:1 
0.125 414:1 766:1 2016:1 4182:1 4183:1 4184:1 
0.125 51:1 155:1 234:1 2924:1 4185:1 
0.125 50:1 62:1 4186:1 
0.125 20:1 107:1 155:1 184:1 4192:1 4193:1 
0.1060700386752638 44:1 62:1 224:1 226:1 4199:1 
0.125 400:1 2547:1 3170:1 3301:1 4207:1 4208:1 4209:1 
0.125 37:1 38:1 528:1 4210:1 
0.125 194:1 3439:1 4211:1 
0.07023704229181682 179:1 287:1 603:1 3609:1 4086:1 4087:1 
0.125 4217:1 4218:1 
0.125 21:1 40:1 234:1 449:1 4219:1 
0.125 179:1 3080:1 3761:1 4220:1 
0.125 183:1 312:1 874:1 3381:1 4105:1 
0.125 933:1 4227:1 
0.125 325:1 764:1 2093:1 4228:1 4229:1 
0.125 309:1 469:1 480:1 905:1 2651:1 4222:1 
0.125 224:1 306:1 1469:1 4222:1 4233:1 
0.06945391992985389 69:1 311:1 314:1 1826:1 4234:1 
0.125 1991:1 2252:1 4235:1 4236:1 
0.125 830:1 3619:1 4239:1 
0.125 1857:1 3158:1 4245:1 4246:1 4247:1 4248:1 4249:1 4250:1 
0.125 3429:1 
0.125 287:1 2072:1 4088:1 4089:1 
0.003228049716285738 105:1 289:1 930:1 1072:1 2072:1 4037:1 4038:1 4283:1 4284:1 4285:1 4286:1 4287:1 
0.125 14:1 1864:1 4142:1 4288:1 4289:1 4290:1 
0.125 141:1 314:1 4302:1 4303:1 4304:1 
0.125 440:1 441:1 3169:1 
0.125 711:1 1530:1 2404:1 4309:1 4310:1 4311:1 
0.125 57:1 1317:1 2056:1 2179:1 
0.04014423487774526 950:1 1257:1 1313:1 1314:1 1671:1 1758:1 3435:1 4319:1 
0.00850477464541096 87:1 1734:1 2179:1 4308:1 4320:1 
0.04870939585975879 704:1 1574:1 2252:1 4322:1 4323:1 
0.08331588001104893 34:1 287:1 420:1 610:1 3651:1 4095:1 4325:1 4326:1 4327:1 4328:1 
0.125 44:1 79:1 434:1 3330:1 
0.125 4337:1 4338:1 
0.1162861902021301 440:1 441:1 2304:1 3620:1 4341:1 
0.125 3900:1 4104:1 4106:1 4343:1 
0.125 60:1 2355:1 3203:1 4349:1 
0.125 4337:1 4338:1 
0.125 209:1 231:1 322:1 707:1 1223:1 3624:1 
0.01965781770566728 286:1 1070:1 1701:1 4374:1 
0.125 136:1 141:1 450:1 493:1 1410:1 1445:1 4330:1 
0.125 73:1 1970:1 3336:1 4376:1 4377:1 4378:1 
0.05466452465211662 88:1 89:1 412:1 880:1 1332:1 4383:1 4384:1 
0.125 2719:1 4385:1 4386:1 4387:1 
0.125 1151:1 2980:1 3182:1 3435:1 4388:1 
0.125 940:1 1947:1 2984:1 4391:1 4392:1 4393:1 
0.125 35:1 40:1 255:1 4133:1 4394:1 
0.125 37:1 38:1 40:1 41:1 963:1 4395:1 
0.0513756028213587 51:1 155:1 234:1 463:1 2924:1 4185:1 
0.125 1876:1 2526:1 
0.125 2449:1 2623:1 4223:1 4396:1 
0.125 1494:1 2243:1 2651:1 4401:1 
0.125 286:1 412:1 1409:1 
0.125 73:1 174:1 1366:1 2984:1 4408:1 
0.125 21:1 1971:1 2440:1 3924:1 4411:1 4412:1 4413:1 
0.125 105:1 521:1 3591:1 4417:1 
0.01150500755387088 432:1 767:1 1239:1 4418:1 4419:1 
0.125 9:1 276:1 
0.125 2341:1 4297:1 4422:1 4423:1 4424:1 
0.125 1226:1 3677:1 4050:1 4428:1 4429:1 4430:1 4431:1 
0.125 662:1 3890:1 4432:1 
0.125 69:1 2380:1 4107:1 4108:1 
0.125 1428:1 4433:1 
0.125 116:1 285:1 666:1 
0.125 434:1 599:1 679:1 1664:1 4441:1 4442:1 
0.125 687:1 1947:1 2622:1 4451:1 
0.125 65:1 1464:1 4458:1 4459:1 4460:1 4461:1 
0.125 687:1 950:1 4462:1 4463:1 4464:1 4465:1 
0.04207564270563705 208:1 841:1 2583:1 3182:1 3365:1 4050:1 4466:1 4467:1 
0.125 98:1 122:1 325:1 4472:1 4473:1 
0.125 20:1 79:1 231:1 988:1 1403:1 3934:1 4474:1 
0.00769983323804905 410:1 546:1 1169:1 1346:1 1634:1 2229:1 4435:1 4475:1 
0.125 1102:1 4476:1 
0.125 65:1 255:1 1151:1 3131:1 
0.125 480:1 2863:1 2864:1 3051:1 
0.125 98:1 1895:1 4479:1 4480:1 4481:1 4482:1 4483:1 
0.125 8:1 944:1 1449:1 2570:1 4485:1 4486:1 
0.1110067403596481 60:1 3282:1 3622:1 4498:1 4499:1 4500:1 4501:1 
0.125 767:1 2583:1 4388:1 4389:1 4390:1 
0.125 325:1 4503:1 
0.08925575763334465 15:1 270:1 1313:1 1314:1 1518:1 2980:1 3435:1 4504:1 4505:1 
0.125 14:1 1864:1 4346:1 4510:1 4511:1 
0.125 15:1 322:1 1288:1 4488:1 4512:1 4513:1 
0.125 107:1 266:1 902:1 917:1 1252:1 1693:1 3499:1 4514:1 4515:1 
0.125 107:1 1146:1 2304:1 
0.125 1273:1 2922:1 4516:1 4517:1 
0.125 559:1 560:1 881:1 
0.125 20:1 187:1 208:1 1867:1 4041:1 4520:1 
0.125 14:1 187:1 287:1 543:1 2072:1 2399:1 4521:1 4522:1 4523:1 4524:1 4525:1 
0.125 1470:1 1896:1 2980:1 
0.125 1039:1 1577:1 
0.125 20:1 79:1 929:1 1403:1 3934:1 4535:1 
0.0251313178820371 309:1 427:1 556:1 3468:1 4332:1 4541:1 4542:1 
0.03356271169287822 567:1 651:1 1449:1 3227:1 3610:1 3617:1 4545:1 4546:1 4547:1 
0.125 55:1 1235:1 1618:1 2509:1 3587:1 4058:1 4388:1 4548:1 
0.125 15:1 42:1 3854:1 
0.1018905004401773 78:1 247:1 379:1 412:1 1692:1 4534:1 
0.08913618685315225 21:1 122:1 679:1 1602:1 3062:1 3138:1 4552:1 4553:1 
0.125 9:1 683:1 4555:1 
0.125 2840:1 4557:1 4558:1 
0.08235010904926694 50:1 107:1 3368:1 4186:1 4565:1 
0.125 1039:1 3070:1 4566:1 
0.125 2119:1 2351:1 2415:1 
0.125 1:1 257:1 840:1 940:1 1504:1 1997:1 1998:1 4577:1 4578:1 
0.125 3220:1 
0.125 2466:1 3728:1 4581:1 4582:1 4583:1 4584:1 4585:1 
0.125 255:1 1882:1 3406:1 4587:1 4588:1 
0.125 20:1 21:1 479:1 1330:1 4193:1 
0.125 933:1 983:1 
0.125 127:1 830:1 2573:1 3619:1 4239:1 
0.125 3226:1 4443:1 4600:1 4601:1 4602:1 4603:1 
0.04156335609334692 20:1 286:1 718:1 2656:1 2929:1 4379:1 4380:1 4381:1 4382:1 
0.125 111:1 114:1 115:1 371:1 434:1 
0.125 5:1 285:1 1361:1 4181:1 4606:1 
0.125 47:1 2717:1 4607:1 4608:1 4609:1 4610:1 4611:1 4612:1 4613:1 4614:1 4615:1 
0.125 325:1 4503:1 
0.125 60:1 3282:1 3622:1 4498:1 4499:1 4500:1 4501:1 
0.1010383209021479 736:1 835:1 1264:1 1311:1 4035:1 4267:1 4377:1 4617:1 4618:1 4619:1 4620:1 
0.125 231:1 243:1 4621:1 4622:1 
0.125 2719:1 4385:1 4386:1 4387:1 
0.125 1292:1 1468:1 1469:1 4237:1 4627:1 
0.125 1102:1 4476:1 
0.125 681:1 4628:1 
0.125 1309:1 1692:1 2441:1 4633:1 
0.07509844390213426 6:1 21:1 4063:1 4634:1 4635:1 
0.07487648384210596 21:1 261:1 262:1 639:1 2528:1 
0.125 133:1 308:1 322:1 2660:1 4643:1 4644:1 4645:1 
0.125 898:1 4038:1 4641:1 4646:1 4647:1 4648:1 
0.09472442323939601 270:1 954:1 1233:1 1313:1 1314:1 2017:1 2980:1 3435:1 4655:1 4656:1 4657:1 
0.125 749:1 4658:1 
0.125 1260:1 2009:1 4661:1 4662:1 
0.04778573480763145 1068:1 1618:1 4130:1 4200:1 4243:1 
0.125 208:1 556:1 1170:1 1221:1 4665:1 
0.125 133:1 308:1 714:1 2660:1 4643:1 
0.125 4:1 526:1 1110:1 
0.125 386:1 785:1 2214:1 
0.125 410:1 546:1 4674:1 4675:1 
0.125 20:1 208:1 1234:1 2526:1 3872:1 4692:1 
0.125 612:1 4621:1 4699:1 
0.01568483809217542 249:1 718:1 745:1 2876:1 4700:1 4701:1 
0.1201783492565484 163:1 284:1 1971:1 2431:1 
0.125 290:1 486:1 4702:1 4703:1 4704:1 
0.03308678479096874 39:1 255:1 1758:1 4064:1 4065:1 
0.125 270:1 555:1 1012:1 1268:1 1632:1 2719:1 4386:1 
0.1168420211001114 51:1 112:1 2547:1 3935:1 4028:1 4207:1 
0.125 992:1 3569:1 4717:1 4718:1 
0.1194418129783202 5:1 208:1 544:1 567:1 830:1 2302:1 4722:1 
0.125 924:1 1309:1 1734:1 
0.125 73:1 1986:1 3389:1 3392:1 4729:1 
0.125 65:1 687:1 1236:1 1632:1 1829:1 2835:1 4735:1 
0.02298143122898771 1453:1 1556:1 1948:1 1960:1 3226:1 4443:1 4736:1 
0.125 208:1 626:1 679:1 2440:1 
0.125 225:1 3468:1 4749:1 4750:1 
0.125 65:1 208:1 227:1 385:1 688:1 3812:1 4755:1 4756:1 
0.125 1218:1 1644:1 4322:1 4349:1 4757:1 4758:1 
0.125 1643:1 4763:1 
0.125 319:1 749:1 997:1 4254:1 4769:1 
0.125 21:1 1171:1 2449:1 4168:1 4771:1 
0.125 442:1 1463:1 4614:1 
0.125 767:1 1714:1 
0.03505419330497368 681:1 1436:1 2729:1 4759:1 4760:1 
0.125 131:1 229:1 420:1 808:1 985:1 3051:1 4782:1 
0.125 718:1 1108:1 3573:1 4321:1 4784:1 4785:1 
0.125 399:1 544:1 1186:1 1396:1 3138:1 3499:1 
0.125 208:1 827:1 2572:1 3934:1 4135:1 4786:1 
0.125 754:1 4405:1 4638:1 4789:1 4790:1 4791:1 
0.125 1179:1 1542:1 1608:1 1989:1 3101:1 4212:1 4471:1 4792:1 4793:1 
0.06097107331985138 65:1 208:1 385:1 410:1 546:1 749:1 3224:1 
0.08797071771663316 20:1 249:1 698:1 4118:1 4794:1 
0.05971576952982844 518:1 589:1 799:1 1415:1 2041:1 4294:1 4796:1 4797:1 
0.125 2072:1 2556:1 3298:1 3389:1 4008:1 4799:1 4800:1 4801:1 
0.03157993271965095 333:1 681:1 1164:1 1693:1 1888:1 2875:1 
0.125 208:1 949:1 4543:1 
0.125 208:1 1056:1 3085:1 
0.125 1332:1 2304:1 4806:1 
0.05783493091660847 224:1 379:1 540:1 882:1 1525:1 1888:1 4388:1 4810:1 4811:1 
0.125 21:1 4814:1 4815:1 4816:1 
0.08521655958967705 92:1 371:1 399:1 4824:1 4825:1 
0.09018516108380197 29:1 327:1 328:1 1660:1 2076:1 4144:1 4718:1 4828:1 4829:1 4830:1 
0.125 40:1 187:1 354:1 448:1 449:1 450:1 451:1 4832:1 
0.125 637:1 681:1 1436:1 2187:1 4759:1 4840:1 
0.01241999766874284 20:1 21:1 4845:1 
0.125 208:1 321:1 385:1 
0.125 41:1 260:1 376:1 377:1 1226:1 3511:1 3776:1 4116:1 4849:1 
0.125 208:1 321:1 385:1 
0.125 315:1 766:1 1186:1 1299:1 2660:1 3259:1 
0.008196740188669022 151:1 2892:1 4543:1 4821:1 4854:1 
0.125 4861:1 
0.125 76:1 208:1 353:1 1959:1 2930:1 4862:1 
0.125 4111:1 4863:1 4864:1 
0.125 151:1 597:1 
0.125 3220:1 4869:1 4870:1 4871:1 
0.125 3220:1 4869:1 4871:1 4872:1 
0.125 3220:1 4869:1 4870:1 4871:1 
0.125 3220:1 
0.125 3220:1 
0.125 199:1 449:1 4877:1 
0.125 507:1 546:1 573:1 1339:1 4130:1 4878:1 
0.125 2393:1 4508:1 4885:1 4886:1 4887:1 4888:1 
0.125 453:1 882:1 1572:1 2471:1 4158:1 4892:1 4893:1 
0.059018458817583 230:1 1186:1 1226:1 2623:1 4894:1 
0.09617575831070409 69:1 687:1 3809:1 4373:1 4905:1 4906:1 
0.125 92:1 4907:1 
0.009907887512886003 1309:1 1574:1 1644:1 4908:1 
0.125 584:1 1134:1 3573:1 4910:1 
0.125 1701:1 3809:1 
0.08503799819407035 1226:1 2687:1 4911:1 
0.125 361:1 2674:1 4912:1 
0.125 20:1 399:1 641:1 4149:1 
0.125 229:1 902:1 
0.125 2566:1 2623:1 3450:1 
0.1046263989642958 39:1 231:1 1418:1 3512:1 4918:1 
0.125 285:1 1829:1 2195:1 3461:1 4919:1 4920:1 4921:1 4922:1 
0.125 151:1 185:1 347:1 4913:1 
0.125 916:1 
0.0740129992204531 567:1 573:1 1453:1 2364:1 4924:1 4925:1 
0.125 1385:1 4768:1 4926:1 4927:1 
0.125 526:1 
0.125 17:1 4930:1 4931:1 4932:1 4933:1 
0.125 290:1 4151:1 4269:1 4468:1 4837:1 
0.04544937840457283 286:1 435:1 1919:1 4935:1 4936:1 
0.125 62:1 112:1 185:1 396:1 1198:1 3256:1 
0.125 187:1 792:1 1428:1 1970:1 4939:1 
0.125 18:1 22:1 319:1 1738:1 4941:1 4942:1 
0.125 155:1 199:1 449:1 450:1 451:1 1409:1 
0.04905341516785992 327:1 484:1 1257:1 1329:1 2231:1 4949:1 
0.125 718:1 1179:1 1204:1 3173:1 4364:1 4471:1 
0.125 1165:1 1354:1 2072:1 3711:1 3764:1 4153:1 
0.125 442:1 1259:1 1644:1 
0.125 170:1 225:1 3468:1 4749:1 4750:1 
0.125 171:1 407:1 546:1 567:1 1041:1 1339:1 4953:1 4954:1 
0.04477300511826347 390:1 420:1 446:1 1671:1 4710:1 4783:1 4958:1 
0.125 208:1 230:1 1156:1 2623:1 4050:1 
0.08298453889589653 203:1 527:1 2394:1 4959:1 
0.081194339336208 203:1 527:1 2394:1 4959:1 
0.07659797315720809 76:1 208:1 353:1 1959:1 2930:1 4862:1 
0.125 4338:1 
0.125 327:1 328:1 612:1 
0.125 437:1 774:1 1385:1 3362:1 3622:1 4976:1 4977:1 
0.125 1759:1 4978:1 4979:1 4980:1 
0.08818332021345669 229:1 526:1 902:1 4236:1 4989:1 4990:1 
0.125 542:1 4089:1 
0.125 216:1 412:1 685:1 4418:1 4445:1 4446:1 4994:1 
0.125 707:1 5003:1 5004:1 5005:1 
0.125 707:1 5003:1 5004:1 5005:1 
0.125 65:1 953:1 4972:1 5007:1 5008:1 5009:1 
0.125 182:1 480:1 1787:1 3006:1 4147:1 4445:1 4446:1 5013:1 
0.125 1288:1 2453:1 2553:1 3289:1 3365:1 4040:1 5016:1 
0.125 65:1 1134:1 1598:1 1770:1 2863:1 4040:1 5016:1 5017:1 
0.125 687:1 4373:1 5027:1 5028:1 
0.125 327:1 328:1 465:1 466:1 499:1 5029:1 
0.125 231:1 403:1 525:1 978:1 2614:1 5032:1 5033:1 
0.125 327:1 328:1 1291:1 5039:1 
0.03743975955285635 25:1 327:1 328:1 474:1 5043:1 5044:1 5045:1 
0.125 479:1 559:1 560:1 1134:1 1804:1 2467:1 
0.125 285:1 1947:1 2717:1 3461:1 5046:1 5047:1 
0.125 46:1 1520:1 1829:1 5048:1 5049:1 5050:1 5051:1 
0.125 148:1 347:1 648:1 677:1 5062:1 5063:1 5064:1 
0.05872090503123564 327:1 328:1 1276:1 1406:1 5065:1 
0.03731036609306374 231:1 327:1 328:1 1159:1 4213:1 4397:1 5082:1 
0.125 398:1 1039:1 4230:1 5086:1 5087:1 5088:1 5089:1 5090:1 
0.125 4010:1 4056:1 4245:1 5097:1 5098:1 5099:1 
0.125 944:1 1174:1 1175:1 4397:1 5100:1 
0.125 122:1 559:1 954:1 1503:1 2017:1 
0.125 2679:1 2681:1 5103:1 5104:1 5105:1 
0.125 1398:1 4514:1 5106:1 5107:1 
0.06975543755143618 327:1 328:1 434:1 1259:1 2865:1 4819:1 5108:1 5109:1 
0.01457251263180714 41:1 1087:1 1189:1 3566:1 4852:1 4873:1 5112:1 
0.125 407:1 559:1 560:1 769:1 3325:1 3846:1 5113:1 5114:1 5115:1 
0.125 167:1 1630:1 5021:1 5022:1 5123:1 
0.125 314:1 5124:1 5125:1 
0.125 701:1 2702:1 4463:1 5046:1 5132:1 
0.02756241913490092 21:1 208:1 4739:1 4820:1 5015:1 5138:1 5139:1 
0.04512797146957068 454:1 1729:1 3389:1 3946:1 5140:1 5141:1 5142:1 5143:1 5144:1 5145:1 
0.1134467816205986 138:1 676:1 3048:1 5146:1 5147:1 5148:1 5149:1 5150:1 5151:1 5152:1 5153:1 
0.01662001499019654 21:1 827:1 4135:1 5156:1 5157:1 5158:1 
0.125 327:1 328:1 5039:1 
0.1196209649323069 371:1 571:1 1311:1 1958:1 5172:1 5173:1 
0.125 25:1 368:1 394:1 713:1 4897:1 
0.125 9:1 4539:1 
0.125 9:1 4539:1 
0.125 365:1 767:1 1394:1 4741:1 5200:1 5201:1 5202:1 
0.125 371:1 
0.0003306669566336645 327:1 328:1 2595:1 5077:1 5207:1 5208:1 
0.07413107087344571 284:1 2302:1 4707:1 4867:1 4986:1 
0.125 151:1 3812:1 
0.125 208:1 559:1 560:1 1144:1 1577:1 5220:1 
0.125 15:1 456:1 4322:1 4334:1 5225:1 
0.125 589:1 765:1 2635:1 4101:1 4797:1 5226:1 
0.125 26:1 183:1 1048:1 1907:1 4009:1 4584:1 4585:1 
0.0598964050993383 290:1 625:1 1409:1 1773:1 4085:1 
0.125 230:1 1146:1 3008:1 5227:1 
0.125 151:1 208:1 755:1 
0.125 450:1 1114:1 3283:1 4162:1 5111:1 5231:1 5232:1 
0.04276074655524498 83:1 902:1 992:1 1310:1 4584:1 4585:1 5233:1 
0.125 5236:1 5237:1 5238:1 
0.125 151:1 185:1 527:1 
0.125 424:1 2589:1 2691:1 5240:1 5241:1 5242:1 5243:1 
0.125 1284:1 4582:1 5244:1 5245:1 
0.125 231:1 434:1 4376:1 4591:1 5252:1 5253:1 
0.125 292:1 420:1 1877:1 4160:1 5256:1 5257:1 
0.05217290502319215 1186:1 1198:1 1833:1 1850:1 4357:1 
0.125 1342:1 2169:1 3592:1 5264:1 5265:1 5266:1 
0.001914560449700408 404:1 990:1 2673:1 2863:1 2864:1 3051:1 3217:1 5267:1 5268:1 5269:1 
0.125 403:1 1644:1 3575:1 4599:1 4910:1 
0.125 1186:1 1696:1 4016:1 5273:1 5274:1 5275:1 
0.05349711626508867 327:1 328:1 465:1 2375:1 3646:1 
0.03849097701749812 29:1 500:1 1077:1 2960:1 4088:1 4269:1 5281:1 5282:1 5283:1 
0.125 992:1 5268:1 5291:1 
0.1150178416934718 21:1 155:1 208:1 870:1 3300:1 4453:1 4786:1 5292:1 
0.125 665:1 798:1 799:1 4850:1 
0.125 151:1 185:1 347:1 2465:1 4913:1 
0.125 177:1 819:1 923:1 1325:1 
0.02776043391096838 112:1 231:1 1673:1 2664:1 4918:1 
0.125 1271:1 1564:1 1784:1 4321:1 
0.125 13:1 1170:1 1643:1 2003:1 3831:1 3876:1 
0.125 9:1 919:1 
0.03452403902847744 389:1 840:1 1186:1 1758:1 5304:1 5305:1 5306:1 
0.125 615:1 1508:1 2623:1 4974:1 5311:1 5312:1 
0.125 46:1 306:1 516:1 
0.05777268211328727 137:1 255:1 287:1 1317:1 2025:1 4751:1 5250:1 
0.125 387:1 2160:1 4931:1 5322:1 5323:1 
0.125 407:1 744:1 3999:1 5254:1 5324:1 5325:1 5326:1 
0.06910054480685071 21:1 850:1 3745:1 
0.125 1147:1 4080:1 5339:1 5340:1 
0.125 2574:1 3171:1 5341:1 5342:1 5343:1 
0.125 1147:1 4080:1 5339:1 5340:1 
0.03851868868855179 470:1 547:1 1772:1 2004:1 3091:1 
0.125 1812:1 5148:1 5345:1 5346:1 5347:1 5348:1 
0.04793246252997475 155:1 209:1 224:1 707:1 859:1 2059:1 
0.1066681259752465 1165:1 2635:1 4061:1 4301:1 4415:1 4416:1 5356:1 5357:1 
0.125 65:1 745:1 1224:1 1585:1 1840:1 3900:1 4735:1 
0.06427714312664311 857:1 2072:1 5360:1 5361:1 5362:1 
0.125 627:1 628:1 1792:1 3289:1 4752:1 5366:1 
0.125 286:1 287:1 356:1 1858:1 5072:1 5073:1 5074:1 
0.03980733779239276 687:1 736:1 961:1 1002:1 3149:1 5374:1 5375:1 
0.125 1608:1 2691:1 2721:1 5240:1 5377:1 5378:1 
0.125 138:1 1072:1 1759:1 4064:1 5055:1 5379:1 
0.1136004534690165 65:1 209:1 284:1 708:1 749:1 2059:1 
0.125 286:1 287:1 356:1 1858:1 5072:1 5073:1 5074:1 
0.1233819013242257 1033:1 2123:1 2358:1 2360:1 3770:1 5381:1 
0.03726270478695781 627:1 628:1 1305:1 1379:1 1745:1 5385:1 5386:1 5387:1 5388:1 
0.125 20:1 227:1 5389:1 
0.03781447199808069 587:1 1379:1 3712:1 5403:1 5404:1 5405:1 
0.08329618774077238 857:1 2072:1 5360:1 5361:1 5362:1 
0.125 22:1 111:1 
0.125 255:1 5406:1 
0.125 37:1 38:1 407:1 1645:1 5407:1 5408:1 5409:1 5410:1 
0.125 2702:1 3297:1 4081:1 4406:1 5411:1 
0.125 290:1 4269:1 
0.125 2486:1 4056:1 4897:1 5413:1 5414:1 
0.125 363:1 3165:1 5415:1 5416:1 5417:1 5418:1 
0.0490871465516589 412:1 1271:1 1784:1 2673:1 4308:1 4460:1 5370:1 5371:1 5373:1 
0.125 354:1 5420:1 5421:1 
0.125 40:1 197:1 603:1 1641:1 1863:1 5422:1 
0.1002554190996357 55:1 480:1 775:1 2090:1 4686:1 4886:1 5429:1 
0.125 37:1 38:1 700:1 856:1 1645:1 5101:1 5434:1 5435:1 5436:1 
0.125 224:1 226:1 702:1 
0.125 1281:1 1630:1 5021:1 5022:1 5443:1 5444:1 
0.125 432:1 507:1 758:1 798:1 799:1 902:1 4850:1 
0.1127877111784851 511:1 589:1 799:1 2635:1 4128:1 4194:1 4258:1 4691:1 4797:1 4909:1 5449:1 
0.125 290:1 417:1 1896:1 
0.125 2843:1 5457:1 
0.125 913:1 946:1 1186:1 1850:1 5459:1 5460:1 
0.123849036268677 20:1 627:1 628:1 1379:1 5385:1 5386:1 5462:1 
0.125 1021:1 1518:1 3764:1 4837:1 5464:1 
0.125 1389:1 5465:1 5466:1 5467:1 5468:1 5469:1 
0.125 107:1 266:1 1351:1 1780:1 4515:1 
0.09950220084336922 739:1 2493:1 4105:1 5472:1 5473:1 
0.125 1330:1 2153:1 5418:1 5474:1 5475:1 
0.125 615:1 1622:1 3316:1 5477:1 5478:1 5479:1 5480:1 
0.04594867417312083 1025:1 2796:1 4766:1 5481:1 5482:1 5483:1 
0.125 1328:1 5148:1 5484:1 
0.125 107:1 266:1 576:1 2858:1 4123:1 4515:1 5487:1 
0.1243448792319357 231:1 403:1 525:1 978:1 2614:1 5032:1 5033:1 
0.125 1203:1 1453:1 4043:1 4753:1 5488:1 
0.125 368:1 631:1 632:1 940:1 2622:1 3898:1 
0.125 627:1 628:1 1792:1 3289:1 4752:1 5366:1 
0.09234294054291352 37:1 38:1 199:1 820:1 898:1 1025:1 2009:1 5041:1 5496:1 
0.003506374633594907 403:1 1203:1 1997:1 4064:1 4942:1 5055:1 5497:1 5498:1 
0.125 407:1 1524:1 5386:1 5499:1 5500:1 5501:1 5502:1 5503:1 
0.125 1133:1 4931:1 5391:1 5505:1 5506:1 
0.125 1644:1 
0.125 929:1 1335:1 2445:1 2857:1 5509:1 5510:1 5511:1 5512:1 
0.006142806007380096 222:1 320:1 559:1 560:1 775:1 1131:1 2687:1 3605:1 5513:1 5514:1 
0.125 211:1 2152:1 5516:1 5517:1 5518:1 
0.125 69:1 325:1 2671:1 3229:1 5401:1 
0.125 25:1 2954:1 5520:1 5521:1 
0.125 122:1 1111:1 5522:1 5523:1 
0.125 173:1 4910:1 5527:1 5528:1 
0.125 817:1 2200:1 5532:1 
0.09037226212128839 77:1 1468:1 5349:1 5535:1 
0.125 2796:1 5481:1 5483:1 
0.125 767:1 1237:1 1821:1 4182:1 5264:1 5536:1 
0.125 1059:1 1146:1 2133:1 2304:1 
0.125 819:1 1494:1 
0.125 101:1 778:1 3028:1 5548:1 
0.125 888:1 3680:1 4391:1 5550:1 5551:1 5552:1 
0.125 683:1 1425:1 2182:1 2869:1 4409:1 5553:1 
0.125 1075:1 1947:1 1948:1 5554:1 5555:1 5556:1 5557:1 5558:1 5559:1 
0.125 8:1 84:1 155:1 396:1 652:1 3364:1 
0.1199304897769891 497:1 507:1 1585:1 1808:1 1809:1 5560:1 5561:1 
0.04181613350003794 1333:1 2502:1 2595:1 3168:1 4023:1 5562:1 
0.125 482:1 3569:1 4056:1 5563:1 5564:1 5565:1 
0.05104631027983843 368:1 1497:1 1692:1 2243:1 4478:1 5566:1 5567:1 
0.1244137014726152 368:1 1497:1 1692:1 2243:1 4478:1 5566:1 5567:1 
0.125 1333:1 2441:1 2502:1 4023:1 5562:1 5572:1 
0.09469898079564561 33:1 1020:1 1585:1 5575:1 5576:1 5577:1 5578:1 
0.1065948513325087 497:1 507:1 1585:1 1808:1 1809:1 5560:1 5561:1 
0.125 3:1 347:1 3658:1 
0.08941428414102134 231:1 4016:1 4785:1 5524:1 5525:1 5526:1 
0.125 1151:1 2573:1 3286:1 4201:1 4388:1 4760:1 
0.125 389:1 827:1 2630:1 4135:1 
0.125 199:1 205:1 417:1 3232:1 4850:1 5587:1 5588:1 
0.06031481969707466 187:1 536:1 1305:1 1745:1 2009:1 5505:1 5569:1 5589:1 
0.125 20:1 303:1 718:1 1702:1 
0.1127859257273156 589:1 2436:1 2622:1 2868:1 2949:1 3298:1 4797:1 4800:1 5168:1 5594:1 5595:1 5596:1 
0.125 234:1 1013:1 5597:1 5598:1 5599:1 
0.125 142:1 820:1 3269:1 3801:1 4819:1 5603:1 
0.125 20:1 174:1 396:1 787:1 
0.125 4186:1 
0.125 50:1 787:1 4186:1 
0.125 50:1 401:1 1477:1 4186:1 
0.0343003790449036 182:1 1234:1 3872:1 4187:1 4188:1 4834:1 5609:1 5610:1 
0.125 1217:1 1383:1 1476:1 5613:1 5614:1 5615:1 5616:1 
0.125 2623:1 5623:1 
0.125 182:1 710:1 753:1 3306:1 3455:1 
0.125 171:1 588:1 655:1 902:1 
0.125 772:1 2185:1 2304:1 3316:1 
0.03274811404165321 850:1 2004:1 2059:1 2293:1 3769:1 4253:1 4604:1 5626:1 
0.125 363:1 3165:1 5415:1 5416:1 5417:1 
0.125 1391:1 2072:1 5627:1 5628:1 5629:1 
0.125 424:1 4234:1 4547:1 5630:1 5631:1 5632:1 
0.125 4494:1 5634:1 
0.125 105:1 595:1 902:1 
0.07234088700564976 599:1 825:1 826:1 3220:1 
0.125 290:1 625:1 1409:1 1903:1 5640:1 5641:1 
0.05231616898791555 59:1 105:1 2464:1 3109:1 
0.125 105:1 1324:1 
0.1172013807957216 33:1 1020:1 1585:1 5575:1 5576:1 5577:1 5578:1 
0.125 589:1 2042:1 2949:1 4258:1 5595:1 5642:1 5643:1 5644:1 
0.125 167:1 1255:1 1630:1 5021:1 5534:1 5645:1 
0.02640239009672917 268:1 1556:1 2038:1 4132:1 5646:1 5647:1 5648:1 5649:1 5650:1 
0.125 1004:1 2637:1 3282:1 5620:1 5621:1 5651:1 5652:1 
0.125 588:1 812:1 880:1 5655:1 5656:1 
0.125 724:1 727:1 1002:1 3217:1 3436:1 5268:1 5660:1 
0.125 76:1 113:1 1316:1 2894:1 5128:1 
0.125 1070:1 3658:1 5665:1 
0.125 325:1 403:1 474:1 4069:1 4070:1 4071:1 
0.125 450:1 1114:1 5111:1 5231:1 
0.125 951:1 1219:1 1641:1 1820:1 1829:1 4245:1 5666:1 
0.125 167:1 1630:1 5021:1 5022:1 5123:1 
0.125 155:1 550:1 
0.125 1321:1 2072:1 3269:1 5144:1 5361:1 
0.0240755157187824 231:1 2609:1 2679:1 3083:1 3282:1 5681:1 5682:1 
0.125 767:1 1075:1 1364:1 5683:1 5684:1 
0.06572857831723707 68:1 822:1 1213:1 1324:1 2375:1 
0.125 231:1 4016:1 4785:1 5524:1 5525:1 5526:1 
0.08425226873031648 32:1 290:1 1205:1 2009:1 4044:1 4269:1 
0.125 950:1 1556:1 2205:1 4409:1 4725:1 
0.102350292000523 50:1 2863:1 4186:1 
0.125 503:1 1612:1 2027:1 3189:1 4227:1 4512:1 4592:1 5293:1 5639:1 
0.09345127538442388 21:1 40:1 90:1 5701:1 5702:1 
0.125 208:1 3924:1 5707:1 
0.125 939:1 2102:1 3167:1 4056:1 4473:1 5708:1 5709:1 
0.125 421:1 611:1 1728:1 4373:1 5711:1 5712:1 
0.125 434:1 470:1 2243:1 3091:1 5702:1 
0.125 65:1 5357:1 
0.125 429:1 681:1 5591:1 
0.125 27:1 906:1 927:1 2304:1 4268:1 5756:1 5757:1 
0.04942015836158004 718:1 1565:1 1811:1 
0.125 322:1 414:1 799:1 1566:1 2016:1 3468:1 4508:1 4886:1 5186:1 5187:1 
0.03039177788632768 287:1 496:1 2687:1 3996:1 5222:1 5405:1 5764:1 5765:1 5766:1 
0.06147780462044292 231:1 266:1 446:1 2837:1 2843:1 5767:1 5768:1 
0.125 121:1 442:1 768:1 769:1 2095:1 5771:1 5772:1 5773:1 
0.125 1175:1 3160:1 5780:1 
0.125 5785:1 5786:1 5787:1 
0.125 3267:1 4249:1 5788:1 
0.125 167:1 197:1 985:1 5789:1 5790:1 5791:1 5792:1 5793:1 
0.04489404432866911 432:1 1515:1 4101:1 4258:1 4848:1 4849:1 5288:1 5393:1 5800:1 5801:1 
0.008539913882752834 391:1 2635:1 5802:1 5803:1 5804:1 
0.125 129:1 1177:1 2020:1 2948:1 4396:1 5808:1 
0.125 25:1 238:1 287:1 2826:1 4138:1 5684:1 5810:1 
0.125 761:1 1061:1 3317:1 
0.125 175:1 3182:1 4058:1 5816:1 5817:1 5818:1 
0.125 167:1 586:1 985:1 1299:1 3255:1 3684:1 
0.03093422728055545 59:1 1002:1 1217:1 3139:1 5490:1 5647:1 5821:1 5822:1 
0.125 208:1 321:1 385:1 1919:1 2572:1 5825:1 
0.125 559:1 560:1 597:1 802:1 1165:1 1889:1 4061:1 5826:1 5827:1 5828:1 5829:1 
0.125 718:1 5000:1 
0.1238497848974868 37:1 38:1 199:1 432:1 588:1 1025:1 1410:1 3899:1 4531:1 5830:1 5831:1 
0.125 704:1 1692:1 1742:1 4122:1 5832:1 
0.125 1674:1 3076:1 4055:1 5654:1 5833:1 5834:1 5835:1 5836:1 
0.125 5837:1 5838:1 
0.12063832701563 404:1 450:1 1339:1 4776:1 4925:1 4954:1 5841:1 5842:1 5843:1 
0.0478138147768284 550:1 1106:1 1977:1 2623:1 5844:1 5845:1 
0.125 1309:1 4158:1 4844:1 5846:1 5847:1 
0.125 953:1 1500:1 2007:1 2615:1 5850:1 
0.125 1309:1 1673:1 2240:1 4364:1 
0.125 327:1 328:1 2568:1 4780:1 5856:1 
0.125 14:1 287:1 3916:1 4794:1 5864:1 5865:1 
0.125 2408:1 2783:1 3075:1 5866:1 5867:1 
0.1216441570296513 339:1 1518:1 2436:1 3225:1 3468:1 5868:1 5869:1 5870:1 
0.125 3220:1 3770:1 4353:1 
0.125 167:1 951:1 4037:1 4038:1 5879:1 5880:1 
0.125 424:1 1036:1 3062:1 
0.09024386319396979 255:1 1186:1 1249:1 1313:1 1314:1 4818:1 5885:1 5886:1 5887:1 5888:1 
0.125 127:1 2012:1 3926:1 4651:1 5897:1 5898:1 
0.125 906:1 1631:1 2185:1 2304:1 5756:1 
0.125 3094:1 4058:1 5817:1 5818:1 5900:1 5901:1 
0.03031542647088701 27:1 56:1 1034:1 1466:1 1703:1 2779:1 3427:1 3938:1 
0.125 20:1 638:1 
0.125 290:1 4151:1 4239:1 5740:1 5911:1 
0.125 429:1 681:1 5591:1 
0.125 1309:1 5151:1 5846:1 5847:1 
0.125 2243:1 4772:1 5896:1 5916:1 5917:1 5918:1 
0.06354454394489645 25:1 33:1 371:1 2275:1 3712:1 5919:1 
0.125 3967:1 3968:1 5920:1 5921:1 5922:1 
0.125 704:1 2218:1 2617:1 3722:1 3887:1 5923:1 5924:1 
0.125 1151:1 1391:1 2016:1 5111:1 5930:1 
0.05740743573561184 231:1 510:1 3591:1 5720:1 
0.125 51:1 1466:1 2897:1 3427:1 3938:1 5937:1 
0.125 559:1 560:1 798:1 799:1 954:1 955:1 956:1 5874:1 5875:1 
0.125 525:1 1528:1 2426:1 3439:1 
0.004101260985114795 394:1 1154:1 3365:1 4769:1 5940:1 
0.125 290:1 1903:1 4269:1 5944:1 
0.1041644444886665 50:1 1036:1 4186:1 
0.125 101:1 725:1 
0.05639313868871684 544:1 559:1 560:1 902:1 954:1 955:1 956:1 2360:1 3518:1 5945:1 
0.125 410:1 902:1 5227:1 5946:1 5947:1 5948:1 
0.125 44:1 5873:1 5952:1 
0.125 2583:1 3665:1 5806:1 5909:1 5955:1 5956:1 5957:1 
0.1056474171210336 542:1 718:1 1572:1 5958:1 
0.125 480:1 2027:1 3609:1 4592:1 4991:1 5891:1 5892:1 
0.04283746819715972 391:1 3587:1 5546:1 5721:1 5803:1 5963:1 5964:1 
0.125 2072:1 2452:1 3415:1 3728:1 4055:1 5006:1 5965:1 
0.125 252:1 1124:1 1855:1 2243:1 2861:1 3014:1 4512:1 
0.125 801:1 907:1 1020:1 4518:1 4599:1 5256:1 5634:1 
0.04949286038714702 402:1 787:1 917:1 1956:1 1988:1 2219:1 5976:1 5977:1 
0.1025627814697946 1947:1 1948:1 3075:1 
0.125 2897:1 4776:1 4954:1 5841:1 5842:1 5980:1 
0.001629552568946573 249:1 422:1 456:1 836:1 5239:1 5981:1 
0.125 11:1 480:1 1190:1 2416:1 5293:1 5978:1 
0.1232411697446729 988:1 1760:1 3107:1 3227:1 5084:1 5474:1 5985:1 5986:1 5987:1 5988:1 
0.125 1068:1 2858:1 5526:1 5959:1 5989:1 
0.125 20:1 38:1 217:1 963:1 4117:1 
0.05889916236261226 191:1 421:1 1629:1 5990:1 5991:1 
0.125 199:1 788:1 789:1 1170:1 3257:1 5992:1 5993:1 
0.125 510:1 559:1 560:1 3061:1 5784:1 
0.125 3842:1 4157:1 4547:1 5185:1 5252:1 5994:1 
0.125 321:1 2718:1 5996:1 5997:1 
0.125 1186:1 6003:1 6004:1 
0.125 2425:1 
0.125 41:1 2009:1 6010:1 6011:1 6012:1 
0.125 187:1 829:1 3754:1 6013:1 6014:1 6015:1 
0.06824271406897946 9:1 537:1 3690:1 5857:1 6016:1 6017:1 
0.09200461901771659 249:1 422:1 456:1 836:1 5239:1 5981:1 
0.125 402:1 687:1 1072:1 1235:1 6027:1 6028:1 
0.0942588900088346 412:1 775:1 1239:1 4358:1 6023:1 6024:1 
0.125 331:1 2355:1 
0.007707617493970152 327:1 328:1 406:1 465:1 496:1 1838:1 6030:1 
0.125 3654:1 5078:1 5081:1 5379:1 6031:1 6032:1 
0.125 39:1 191:1 798:1 799:1 1103:1 4258:1 4295:1 4296:1 5288:1 
0.125 208:1 1632:1 4963:1 6042:1 6043:1 
0.125 1618:1 5350:1 5793:1 6046:1 6047:1 6048:1 
0.125 1956:1 3516:1 6056:1 
0.125 231:1 266:1 525:1 2837:1 2843:1 4583:1 5767:1 5768:1 6057:1 
0.125 859:1 4405:1 4522:1 
0.125 199:1 588:1 1896:1 3512:1 
0.125 25:1 37:1 38:1 1107:1 4117:1 6061:1 
0.04467099672338218 718:1 1070:1 1179:1 4236:1 4471:1 6062:1 
0.125 51:1 69:1 711:1 3083:1 4931:1 5015:1 
0.125 626:1 762:1 6065:1 
0.125 3131:1 6066:1 
0.125 367:1 420:1 2426:1 
0.125 95:1 1289:1 2072:1 3764:1 4035:1 6070:1 
0.125 888:1 1807:1 3101:1 5868:1 
0.003112984080563093 526:1 1086:1 4102:1 4709:1 6073:1 6074:1 6075:1 
0.125 3512:1 4338:1 
0.1041762416241182 1845:1 1853:1 2501:1 3665:1 4453:1 5895:1 5896:1 6076:1 6077:1 6078:1 
0.125 688:1 1888:1 3610:1 4070:1 
0.125 98:1 171:1 172:1 764:1 857:1 1632:1 6080:1 6081:1 
0.125 337:1 4241:1 
0.0733583094092863 105:1 902:1 1825:1 3043:1 4357:1 6040:1 6085:1 
0.09200934861747112 521:1 767:1 1081:1 1082:1 6086:1 6087:1 6088:1 
0.09526422218351421 70:1 174:1 443:1 1317:1 1533:1 1796:1 2243:1 
0.125 1309:1 3768:1 4603:1 6090:1 6091:1 
0.125 576:1 595:1 741:1 2531:1 2679:1 5489:1 6092:1 6093:1 6094:1 
0.125 820:1 913:1 1931:1 4226:1 6101:1 6102:1 
0.125 112:1 281:1 282:1 283:1 1002:1 1003:1 1004:1 1005:1 4407:1 
0.03158462927506922 281:1 282:1 283:1 1002:1 1003:1 1004:1 1005:1 3220:1 
0.125 688:1 1150:1 2036:1 2149:1 2671:1 4779:1 5295:1 6106:1 
0.03762043678836966 503:1 513:1 933:1 1064:1 1065:1 2182:1 3072:1 5706:1 
0.125 92:1 338:1 1470:1 1998:1 6107:1 6108:1 6109:1 
0.125 143:1 155:1 718:1 1333:1 2074:1 6110:1 6111:1 6112:1 
0.125 8:1 101:1 396:1 816:1 2987:1 
0.125 4617:1 4618:1 5811:1 5824:1 6113:1 6114:1 
0.125 287:1 2072:1 3596:1 5640:1 6115:1 
0.125 687:1 940:1 1612:1 2212:1 6116:1 
0.125 1129:1 
0.125 1075:1 1082:1 3711:1 5640:1 
0.0174485579915063 685:1 3447:1 3978:1 4254:1 4437:1 4992:1 6117:1 
0.125 98:1 2583:1 4648:1 5348:1 6118:1 6119:1 
0.125 3255:1 4219:1 5800:1 6120:1 6121:1 6122:1 6123:1 
0.125 227:1 2583:1 4903:1 5909:1 6125:1 6126:1 
0.125 767:1 998:1 1612:1 5428:1 
0.125 1077:1 1503:1 
0.125 363:1 364:1 505:1 1179:1 2721:1 3338:1 6135:1 
0.125 67:1 926:1 4997:1 5319:1 6138:1 6139:1 6140:1 
0.1000684344452007 3592:1 3654:1 6141:1 6142:1 6143:1 6144:1 6145:1 6146:1 6147:1 
0.001863503282203973 516:1 706:1 767:1 1258:1 1835:1 4948:1 6150:1 
0.125 1309:1 4070:1 
0.006061515741947706 27:1 420:1 454:1 6159:1 6160:1 
0.125 1468:1 5293:1 5583:1 6167:1 6168:1 
0.125 687:1 1808:1 1809:1 6176:1 
0.125 704:1 3119:1 4748:1 6177:1 6178:1 6179:1 
0.125 224:1 1860:1 3291:1 5142:1 6180:1 6181:1 6182:1 
0.125 287:1 1436:1 5005:1 6185:1 6186:1 6187:1 
0.02843435657386729 37:1 38:1 40:1 76:1 175:1 264:1 752:1 1025:1 1107:1 1289:1 1384:1 3220:1 4114:1 4117:1 4492:1 4691:1 4835:1 
0.125 559:1 560:1 2377:1 5794:1 6188:1 
0.125 255:1 287:1 2992:1 4203:1 4525:1 4752:1 5164:1 
0.125 888:1 1020:1 1812:1 2196:1 6189:1 6190:1 6191:1 
0.125 26:1 57:1 656:1 3269:1 4553:1 6192:1 
0.125 69:1 323:1 950:1 1129:1 3226:1 6193:1 6194:1 
0.01344279233305134 767:1 1124:1 1209:1 1424:1 4373:1 4391:1 4619:1 6199:1 6200:1 6201:1 
0.125 904:1 1634:1 5528:1 6202:1 6203:1 6204:1 6205:1 
0.08528435972766604 707:1 1146:1 2169:1 4201:1 5986:1 6206:1 
0.125 2384:1 2676:1 4491:1 5405:1 6207:1 6208:1 6209:1 6210:1 
0.125 490:1 944:1 4734:1 5685:1 5822:1 6211:1 
0.07546630096839353 42:1 3393:1 4011:1 4619:1 6212:1 6213:1 
0.125 983:1 2981:1 6214:1 
0.07112665924978934 258:1 4495:1 4617:1 4618:1 5811:1 5812:1 6215:1 6216:1 
0.0008122501075028636 424:1 1807:1 6217:1 6218:1 6219:1 
0.125 2375:1 2540:1 4617:1 5811:1 6221:1 
0.0995904518318802 1381:1 1556:1 1948:1 6225:1 6226:1 6227:1 6228:1 
0.125 287:1 1436:1 5005:1 6185:1 6186:1 6187:1 
0.125 208:1 1243:1 
0.125 2352:1 3394:1 4245:1 6159:1 6238:1 6239:1 
0.07128972834860493 655:1 3712:1 5602:1 6242:1 6243:1 6244:1 6245:1 6246:1 6247:1 6248:1 6249:1 
0.07414875614493635 231:1 972:1 1090:1 3322:1 4066:1 4643:1 5669:1 6250:1 6251:1 
0.09980600080229218 38:1 41:1 902:1 1465:1 1800:1 2440:1 6231:1 6253:1 
0.125 327:1 328:1 342:1 1259:1 5209:1 5210:1 
0.125 131:1 584:1 603:1 
0.08528157394235683 620:1 717:1 3566:1 3794:1 4259:1 4848:1 6270:1 6271:1 6272:1 
0.008796425656382612 131:1 1146:1 2190:1 3768:1 
0.1099734097364272 751:1 1107:1 1164:1 1524:1 4117:1 
0.125 1597:1 4080:1 6276:1 
0.125 647:1 1146:1 1199:1 
0.05587812321179984 526:1 1329:1 1572:1 3302:1 3575:1 6286:1 
0.08975731173287638 432:1 662:1 1107:1 3255:1 4853:1 5455:1 5800:1 5839:1 6120:1 
0.125 551:1 587:1 4079:1 
0.125 950:1 1236:1 4236:1 6289:1 6290:1 
0.125 259:1 1154:1 4062:1 4459:1 5455:1 
0.07891064346534907 424:1 1807:1 6217:1 6218:1 6219:1 
0.125 482:1 2715:1 4016:1 6295:1 
0.125 133:1 6304:1 6305:1 6306:1 6307:1 6308:1 
0.125 164:1 224:1 1825:1 1959:1 6310:1 6311:1 
0.125 824:1 3761:1 
0.004358540570087491 231:1 361:1 4123:1 6281:1 6282:1 6312:1 
0.03510135397311424 1468:1 2531:1 3761:1 5293:1 
0.07264322746754683 584:1 1767:1 3934:1 6316:1 6317:1 6318:1 
0.08323628255974444 105:1 123:1 417:1 2830:1 6321:1 6322:1 
0.125 2292:1 3284:1 5774:1 6323:1 
0.125 614:1 663:1 883:1 1254:1 2203:1 6324:1 
0.125 1773:1 1839:1 2516:1 
0.125 2240:1 3658:1 
0.005235050637064871 576:1 1618:1 2072:1 3101:1 4191:1 4354:1 4355:1 4709:1 5193:1 6325:1 6326:1 6327:1 
0.125 38:1 112:1 963:1 4696:1 
0.125 542:1 3761:1 4971:1 
0.125 1070:1 3283:1 4468:1 
0.125 5754:1 6333:1 6334:1 6335:1 6336:1 6337:1 
0.125 950:1 1385:1 4064:1 4065:1 5740:1 6338:1 
0.125 3842:1 4157:1 5185:1 5252:1 5474:1 
0.07630478395506336 939:1 2691:1 3468:1 4076:1 4785:1 5335:1 5680:1 
0.125 41:1 352:1 438:1 1105:1 2643:1 
0.125 6349:1 6350:1 6351:1 
0.125 234:1 537:1 3499:1 4760:1 5895:1 6218:1 6352:1 
0.125 1286:1 3138:1 6058:1 6353:1 6354:1 
0.125 1068:1 2858:1 3680:1 5526:1 5959:1 5989:1 6355:1 
0.125 6300:1 6356:1 
0.125 25:1 3568:1 4968:1 6362:1 6363:1 
0.125 231:1 774:1 
0.125 1129:1 
0.007111084419165472 208:1 1653:1 2600:1 6366:1 6367:1 6368:1 6369:1 
0.125 407:1 812:1 6084:1 
0.007250567495879045 112:1 1162:1 2034:1 2958:1 6373:1 6374:1 
0.125 128:1 891:1 1086:1 4462:1 6375:1 6376:1 6377:1 6378:1 
0.125 327:1 328:1 3462:1 3463:1 6379:1 6380:1 
0.125 972:1 1090:1 1722:1 4066:1 4643:1 5669:1 6250:1 6251:1 
0.125 122:1 943:1 1123:1 2076:1 2426:1 6388:1 
0.125 101:1 2764:1 3875:1 4637:1 6389:1 
0.125 100:1 101:1 2240:1 2285:1 6393:1 
0.125 3749:1 3993:1 5706:1 6400:1 
0.1072703344046075 289:1 1240:1 3080:1 
0.125 634:1 2455:1 4077:1 4937:1 
0.03374555781280188 199:1 767:1 1257:1 1443:1 5704:1 6405:1 6406:1 
0.103936811602881 55:1 337:1 1310:1 3934:1 6154:1 6284:1 
0.125 98:1 1129:1 3843:1 6410:1 
0.1037676379439612 230:1 767:1 4225:1 4377:1 4480:1 4894:1 6412:1 6413:1 
0.125 65:1 555:1 6415:1 
0.125 123:1 359:1 679:1 2010:1 
0.1169914396699919 1641:1 2798:1 3712:1 6143:1 6242:1 6419:1 6420:1 6421:1 6422:1 
0.06187442772954787 754:1 3381:1 4651:1 4830:1 6424:1 6425:1 6426:1 6427:1 6428:1 
0.07716812951559152 3083:1 3676:1 4942:1 5574:1 6163:1 6164:1 6165:1 6166:1 
0.08982612588716156 126:1 744:1 1039:1 1112:1 1179:1 2488:1 2721:1 4564:1 6434:1 
0.03289558834683943 21:1 23:1 427:1 542:1 6435:1 
0.125 285:1 1165:1 6436:1 
0.125 68:1 69:1 163:1 1805:1 3616:1 4335:1 5315:1 5534:1 
0.125 723:1 739:1 1038:1 1186:1 5293:1 6444:1 
0.125 612:1 2196:1 
0.09807742020831878 51:1 537:1 3284:1 6448:1 6449:1 6450:1 6451:1 
0.01652390088484964 41:1 156:1 913:1 2516:1 3403:1 6453:1 6454:1 
0.125 20:1 421:1 4439:1 6458:1 
0.125 531:1 532:1 1077:1 3075:1 
0.125 290:1 605:1 625:1 2966:1 
0.06809678078270899 231:1 764:1 982:1 1840:1 4334:1 
0.06528666626567113 321:1 2718:1 6461:1 6462:1 
0.125 1467:1 3265:1 4934:1 6464:1 6465:1 
0.125 3075:1 6112:1 6466:1 6467:1 6468:1 6469:1 6470:1 6471:1 
0.125 482:1 797:1 1086:1 2296:1 2802:1 3760:1 6074:1 6472:1 
0.125 50:1 537:1 4186:1 
0.125 46:1 226:1 312:1 4187:1 4188:1 4272:1 
0.04600867547737332 287:1 511:1 718:1 1129:1 4032:1 4033:1 6416:1 6417:1 
0.125 15:1 225:1 3393:1 4064:1 4065:1 4217:1 6476:1 
0.125 557:1 2336:1 2337:1 4851:1 6480:1 6481:1 6482:1 
0.125 206:1 1186:1 1331:1 2180:1 4928:1 6483:1 
0.125 4401:1 4643:1 6487:1 
0.125 3:1 912:1 3444:1 5502:1 5959:1 6489:1 6490:1 
0.125 274:1 5233:1 6495:1 6496:1 6497:1 
0.1206561304092037 3083:1 3676:1 4942:1 5574:1 6163:1 6164:1 6165:1 6166:1 
0.03804623342227697 73:1 75:1 503:1 2200:1 4160:1 6500:1 6501:1 
0.1132088120674975 508:1 1671:1 3575:1 4178:1 4319:1 6502:1 
0.002515626286214495 287:1 424:1 801:1 1056:1 1758:1 4525:1 5602:1 5809:1 
0.125 4293:1 4300:1 4593:1 6505:1 
0.125 227:1 6506:1 6507:1 6508:1 
0.125 308:1 2252:1 3610:1 6512:1 6513:1 6514:1 
0.125 274:1 334:1 506:1 507:1 4512:1 6515:1 6516:1 6517:1 
0.125 261:1 262:1 407:1 871:1 4764:1 6518:1 6519:1 
0.125 722:1 1057:1 1058:1 6511:1 6520:1 
0.125 766:1 1162:1 4092:1 6373:1 
0.125 1165:1 4651:1 5532:1 6424:1 6425:1 6426:1 6427:1 6428:1 
0.125 227:1 4082:1 5412:1 6523:1 6524:1 
0.1021128357646035 1162:1 2415:1 4782:1 6373:1 
0.125 338:1 768:1 985:1 1445:1 1942:1 4774:1 6526:1 
0.125 2252:1 6527:1 
0.125 480:1 1093:1 1801:1 4321:1 6529:1 
0.125 1269:1 6496:1 6497:1 6530:1 6531:1 
0.125 889:1 1162:1 6532:1 6533:1 
0.1167062338827186 20:1 208:1 226:1 1002:1 1502:1 1632:1 1692:1 6534:1 6535:1 6536:1 6537:1 
0.125 123:1 571:1 1331:1 2118:1 6540:1 
0.05628995609187405 1059:1 1146:1 3451:1 4236:1 
0.125 123:1 571:1 1331:1 2118:1 6540:1 
0.125 1903:1 2142:1 6454:1 
0.125 1260:1 2196:1 2289:1 
0.125 1903:1 2142:1 6454:1 
0.125 23:1 427:1 542:1 6435:1 
0.009165595032213777 767:1 3444:1 6546:1 6547:1 
0.125 51:1 689:1 785:1 4959:1 
0.125 824:1 2003:1 3083:1 4576:1 6433:1 
0.125 588:1 1430:1 3283:1 3297:1 6552:1 6553:1 
0.04994542242022993 276:1 669:1 713:1 1104:1 4992:1 6555:1 6556:1 6557:1 
0.125 363:1 364:1 2679:1 6559:1 6560:1 
0.125 363:1 364:1 2679:1 6559:1 6560:1 
0.09173344187148429 647:1 1059:1 2304:1 3451:1 5290:1 6084:1 
0.0244652238231857 421:1 562:1 599:1 1023:1 4437:1 4992:1 5585:1 6555:1 6556:1 
0.125 82:1 231:1 571:1 1540:1 4102:1 
0.125 647:1 1615:1 2304:1 3451:1 5290:1 6084:1 
0.093822041126617 526:1 799:1 865:1 2780:1 5767:1 6566:1 6567:1 
0.1159315146706568 319:1 766:1 1129:1 1820:1 1983:1 4492:1 6568:1 
0.125 812:1 6569:1 6570:1 
0.125 410:1 531:1 546:1 6571:1 6572:1 
0.125 812:1 3482:1 6569:1 6570:1 
0.04741637934730137 137:1 767:1 6573:1 6574:1 6575:1 
0.09720232373688241 319:1 333:1 361:1 1060:1 1618:1 3284:1 
0.125 1292:1 1295:1 1950:1 
0.125 76:1 226:1 1355:1 1404:1 1855:1 3414:1 4995:1 5455:1 6587:1 
0.125 101:1 1022:1 1565:1 4550:1 4637:1 6588:1 
0.125 137:1 2252:1 3826:1 4104:1 4147:1 5755:1 5947:1 6589:1 
0.06103347887734253 767:1 872:1 1075:1 1082:1 4591:1 5558:1 5755:1 
0.07880711082488866 101:1 231:1 685:1 1919:1 2699:1 6599:1 
0.02705713533014956 1812:1 1896:1 3406:1 3435:1 3520:1 4232:1 6602:1 
0.125 27:1 255:1 287:1 2025:1 
0.1187576238471145 325:1 1556:1 1948:1 2876:1 6606:1 6607:1 
0.125 1415:1 2858:1 4203:1 4914:1 5192:1 6608:1 6609:1 6610:1 
0.1152619743881778 41:1 206:1 6612:1 
0.01103565321164953 167:1 220:1 955:1 983:1 2053:1 4690:1 
0.125 1445:1 2190:1 2796:1 
0.125 420:1 766:1 4009:1 4954:1 6614:1 
0.125 511:1 1424:1 1556:1 1948:1 1978:1 5351:1 
0.00176586971078598 417:1 773:1 985:1 1876:1 2007:1 4553:1 
0.1190938032345282 321:1 2718:1 6618:1 6619:1 
0.125 101:1 669:1 707:1 4201:1 6620:1 
0.0110780192318391 651:1 2169:1 5114:1 5265:1 6283:1 6624:1 6625:1 6626:1 6627:1 
0.125 651:1 2169:1 5114:1 5265:1 6283:1 6624:1 6625:1 6626:1 6627:1 
0.03680478324538272 230:1 1618:1 2009:1 4753:1 6468:1 6631:1 6632:1 6633:1 6634:1 
0.125 50:1 206:1 4186:1 
0.08947855584544445 46:1 151:1 226:1 706:1 4187:1 4188:1 6638:1 
0.125 46:1 185:1 3355:1 4173:1 
0.04290788073601112 457:1 925:1 3444:1 4061:1 4766:1 6652:1 6653:1 
0.125 1889:1 5184:1 5395:1 6655:1 6656:1 
0.125 155:1 234:1 2451:1 2924:1 4011:1 5296:1 
0.125 1812:1 1896:1 3406:1 3435:1 3520:1 4232:1 6602:1 
0.125 651:1 1107:1 1855:1 3776:1 4206:1 5893:1 6283:1 
0.125 768:1 815:1 1890:1 1905:1 4924:1 
0.125 992:1 1443:1 4584:1 6665:1 6666:1 
0.125 27:1 1542:1 3145:1 4234:1 
0.125 27:1 1542:1 3145:1 4234:1 
0.125 1150:1 2843:1 5114:1 
0.06692503778175653 761:1 917:1 1931:1 3728:1 4804:1 5503:1 6395:1 
0.125 650:1 1070:1 1179:1 2721:1 
0.05650630680058488 417:1 773:1 985:1 1876:1 2007:1 4553:1 
0.03668787968611605 1056:1 1992:1 2240:1 2843:1 5226:1 6103:1 
0.125 1226:1 1508:1 2743:1 5312:1 
0.125 650:1 1070:1 1179:1 2721:1 
0.125 1548:1 1826:1 2656:1 6673:1 
0.125 417:1 2516:1 3100:1 3216:1 
0.125 625:1 6674:1 6675:1 
0.03108311554168756 10:1 412:1 799:1 1381:1 2222:1 4300:1 4603:1 6676:1 
0.125 325:1 1234:1 2858:1 5550:1 5706:1 
0.125 4:1 1234:1 3059:1 5531:1 6681:1 6682:1 
0.125 6685:1 
0.02987826023754342 707:1 917:1 1556:1 1948:1 2509:1 4353:1 4444:1 4571:1 5494:1 
0.125 1104:1 4025:1 6687:1 6688:1 
0.1163997743026583 553:1 3988:1 5372:1 6689:1 
0.125 105:1 320:1 1831:1 
0.09409668414838336 290:1 625:1 817:1 4371:1 5640:1 
0.1149397412002349 553:1 3988:1 5372:1 6689:1 
0.125 40:1 105:1 323:1 449:1 6692:1 
0.125 226:1 2623:1 2924:1 
0.07820171632300903 51:1 3255:1 6122:1 6693:1 
0.125 3909:1 
0.125 17:1 594:1 595:1 1804:1 4623:1 6699:1 6700:1 
0.125 636:1 1038:1 2624:1 4915:1 
0.125 688:1 1556:1 1820:1 3489:1 4022:1 4444:1 6703:1 6704:1 
0.01393632098228819 274:1 1300:1 1301:1 1630:1 2021:1 3878:1 
0.04806554485747046 95:1 1236:1 1865:1 3749:1 4584:1 4585:1 6705:1 
0.125 354:1 6333:1 6334:1 6335:1 6336:1 
0.125 636:1 1038:1 2624:1 4915:1 
0.125 1703:1 1838:1 4023:1 4061:1 4445:1 6687:1 
0.0007053380625110802 112:1 1641:1 2072:1 3101:1 4354:1 4355:1 4709:1 6719:1 6720:1 
0.125 231:1 1888:1 6721:1 
0.125 637:1 5453:1 6723:1 6724:1 6725:1 6726:1 
0.125 902:1 1025:1 1801:1 4766:1 4897:1 4954:1 
0.1169989337329155 895:1 4023:1 4210:1 5704:1 6026:1 6735:1 6736:1 6737:1 
0.125 953:1 1528:1 3809:1 5591:1 
0.09405297710654056 25:1 525:1 3807:1 4227:1 6031:1 6677:1 6678:1 
0.125 222:1 519:1 537:1 550:1 772:1 1574:1 6265:1 
0.125 226:1 2623:1 2924:1 
0.125 238:1 1335:1 1738:1 6745:1 6746:1 
0.125 120:1 1025:1 4766:1 5006:1 6350:1 6749:1 
0.125 9:1 1300:1 1305:1 6750:1 
0.125 766:1 1565:1 4437:1 6752:1 6753:1 
0.1167310392473194 457:1 1515:1 2502:1 3075:1 4446:1 4766:1 6758:1 6759:1 
0.125 27:1 98:1 1590:1 3192:1 4512:1 6005:1 6509:1 6770:1 
0.0510819027638182 687:1 769:1 1129:1 5971:1 6773:1 
0.125 20:1 269:1 830:1 1760:1 2256:1 2818:1 6045:1 
0.01915491256143601 27:1 420:1 454:1 6159:1 6160:1 
0.125 594:1 3076:1 6781:1 6782:1 
0.07864348064739067 287:1 1518:1 4105:1 6063:1 6783:1 
0.121832842405978 65:1 90:1 224:1 4735:1 6480:1 
0.125 1559:1 3076:1 4700:1 6791:1 6792:1 
0.125 625:1 6674:1 6675:1 
0.08173137843598878 28:1 66:1 337:1 507:1 4115:1 4893:1 
0.125 486:1 1174:1 2272:1 3465:1 6793:1 
0.09267781999687331 165:1 320:1 333:1 713:1 6083:1 
0.125 2358:1 2517:1 5166:1 6797:1 6798:1 6799:1 6800:1 
0.125 40:1 448:1 449:1 463:1 1061:1 
0.125 321:1 2718:1 6802:1 6803:1 
0.09891081958803567 1608:1 1989:1 2228:1 6460:1 6804:1 6805:1 
0.124235658085083 42:1 285:1 3202:1 4920:1 6808:1 6809:1 
0.125 50:1 1281:1 4186:1 
0.125 1428:1 4337:1 
0.1034452036562629 117:1 315:1 3167:1 4573:1 5460:1 6810:1 
0.125 50:1 792:1 4186:1 
0.125 1428:1 4337:1 
0.125 625:1 6674:1 6675:1 
0.1208135820702886 620:1 1086:1 1239:1 3775:1 3794:1 4258:1 5174:1 
0.1116896476595259 883:1 1002:1 1677:1 4716:1 5405:1 5522:1 5523:1 
0.049825326198761 234:1 456:1 2977:1 6101:1 
0.125 767:1 1081:1 1364:1 6825:1 
0.06603869791177985 73:1 131:1 521:1 2517:1 4331:1 5736:1 6826:1 
0.125 288:1 1415:1 1877:1 2061:1 3122:1 4701:1 6828:1 6829:1 
0.125 287:1 1518:1 4105:1 6063:1 6783:1 
0.125 916:1 
0.125 769:1 1129:1 1992:1 4937:1 6833:1 
0.06824605156951581 1239:1 1342:1 2096:1 2635:1 4191:1 4294:1 6834:1 
0.125 3768:1 
0.125 3768:1 
0.125 902:1 4911:1 5319:1 6281:1 6835:1 
0.125 89:1 1467:1 5069:1 5855:1 
0.112543025365082 886:1 1151:1 1556:1 1736:1 1948:1 4571:1 6841:1 6842:1 6843:1 
0.125 625:1 6674:1 6675:1 
0.125 1577:1 2802:1 
0.125 127:1 231:1 5069:1 
0.125 12:1 189:1 389:1 1133:1 2029:1 3719:1 6852:1 6853:1 
0.125 284:1 323:1 1221:1 2066:1 6854:1 6855:1 6856:1 
0.125 127:1 231:1 5069:1 
0.01138770526948898 105:1 172:1 480:1 561:1 1801:1 5726:1 6859:1 
0.125 902:1 1308:1 1839:1 2173:1 4075:1 
0.0288126222054622 535:1 702:1 913:1 942:1 1932:1 6775:1 6776:1 
0.125 902:1 1308:1 1839:1 2173:1 4075:1 
0.125 916:1 3592:1 5011:1 
0.125 766:1 3796:1 6864:1 
0.1186864625834025 535:1 1178:1 1664:1 1873:1 2008:1 4009:1 6865:1 
0.006768798725359269 41:1 2072:1 2399:1 4521:1 6866:1 6867:1 
0.1138688623380124 42:1 1249:1 3766:1 6809:1 6868:1 6869:1 
0.125 290:1 4522:1 6870:1 
0.04268974826821921 41:1 2072:1 2399:1 4521:1 6866:1 6867:1 
0.125 290:1 4522:1 6870:1 
0.125 1876:1 5198:1 6872:1 
0.125 127:1 287:1 2225:1 2738:1 4774:1 
0.125 127:1 287:1 2225:1 2738:1 4774:1 
0.125 105:1 196:1 708:1 982:1 1614:1 
0.125 27:1 519:1 1773:1 6877:1 6878:1 
0.125 27:1 519:1 1773:1 6877:1 6878:1 
0.125 27:1 420:1 454:1 6159:1 6160:1 
0.125 10:1 295:1 296:1 6885:1 6886:1 
0.125 110:1 454:1 732:1 775:1 1433:1 1978:1 
0.125 10:1 295:1 296:1 6885:1 6886:1 
0.1234555099712931 133:1 1288:1 1855:1 2199:1 5445:1 6888:1 6889:1 6890:1 
0.03352831293843406 647:1 820:1 1146:1 4178:1 4915:1 6891:1 
0.125 290:1 319:1 4151:1 4702:1 4703:1 6892:1 
0.125 290:1 319:1 4151:1 4702:1 4703:1 6892:1 
0.03755342056449022 446:1 802:1 1661:1 4613:1 6896:1 
0.125 829:1 1234:1 1793:1 1989:1 2523:1 4063:1 
0.125 829:1 1234:1 1793:1 1989:1 2523:1 4063:1 
0.06000369647712891 39:1 127:1 2652:1 3085:1 4514:1 6903:1 6904:1 
0.09850262150016605 39:1 127:1 2652:1 3085:1 4514:1 6903:1 6904:1 
0.125 3909:1 
0.125 226:1 1147:1 4531:1 4923:1 6537:1 6906:1 6907:1 6908:1 
0.125 1002:1 
0.125 6911:1 
0.125 379:1 5338:1 5955:1 6918:1 
0.125 603:1 1379:1 4077:1 5070:1 6922:1 6923:1 6924:1 
0.125 706:1 1324:1 3780:1 6925:1 6926:1 
0.125 1025:1 1801:1 3242:1 4090:1 4766:1 
0.125 247:1 412:1 6929:1 6930:1 
0.125 50:1 1477:1 2148:1 4186:1 
0.125 715:1 4023:1 4055:1 4377:1 6931:1 
0.125 4511:1 
0.125 916:1 958:1 
0.125 131:1 1244:1 2363:1 
0.003666635430139257 1129:1 1444:1 1820:1 2796:1 4430:1 4747:1 5971:1 
0.04334630902774049 484:1 1078:1 1808:1 1809:1 2756:1 6591:1 6592:1 6936:1 
0.125 1136:1 3077:1 6230:1 6916:1 6927:1 6938:1 
0.1023722445601747 284:1 1876:1 2229:1 4441:1 5747:1 6319:1 6320:1 6942:1 
0.125 766:1 990:1 1585:1 6035:1 6946:1 
0.02179930277988641 25:1 311:1 853:1 4991:1 6265:1 6948:1 6949:1 
0.125 2565:1 3728:1 4782:1 4970:1 
0.125 741:1 1025:1 3520:1 4637:1 6594:1 6958:1 
0.125 170:1 1309:1 2692:1 6964:1 6965:1 6966:1 6967:1 
0.1146293062710726 68:1 688:1 1223:1 1565:1 3296:1 5585:1 
0.125 69:1 687:1 4011:1 4020:1 4906:1 6975:1 
0.125 936:1 1483:1 1525:1 6977:1 6978:1 
0.125 902:1 1508:1 1834:1 1889:1 6983:1 6984:1 6985:1 6986:1 
0.05464032637180164 32:1 164:1 1226:1 1825:1 6987:1 6988:1 6989:1 
0.125 21:1 6990:1 6991:1 
0.125 442:1 1304:1 2179:1 3730:1 4331:1 6992:1 6993:1 6994:1 
0.125 507:1 871:1 1876:1 2256:1 3946:1 4200:1 6995:1 6996:1 
0.125 321:1 2718:1 6914:1 6998:1 
0.125 25:1 939:1 2285:1 7001:1 7002:1 
0.125 205:1 1811:1 2035:1 3467:1 4282:1 5195:1 
0.125 1843:1 2154:1 2364:1 3182:1 4364:1 4388:1 7003:1 7004:1 7005:1 
0.125 289:1 792:1 1106:1 3057:1 7011:1 7012:1 
0.125 466:1 992:1 1174:1 4658:1 5209:1 6271:1 7013:1 7014:1 
0.125 711:1 
0.125 711:1 1703:1 
0.125 336:1 763:1 2965:1 4810:1 4932:1 7019:1 7020:1 7021:1 7022:1 
0.125 4617:1 4618:1 4948:1 6658:1 6806:1 
0.125 89:1 204:1 412:1 588:1 1247:1 1577:1 1579:1 
0.125 3592:1 3930:1 7024:1 
0.08011103926452449 363:1 364:1 1039:1 4269:1 4564:1 5283:1 6037:1 7027:1 7028:1 
0.125 363:1 364:1 1039:1 4269:1 4564:1 5283:1 6037:1 7027:1 7028:1 
0.125 434:1 559:1 775:1 822:1 5750:1 7032:1 7033:1 
0.125 88:1 811:1 2065:1 4686:1 5855:1 
0.0560305587488952 112:1 1039:1 1212:1 1465:1 1865:1 3054:1 4407:1 6686:1 7034:1 
0.125 2207:1 4037:1 4038:1 4141:1 7035:1 7036:1 7037:1 
0.05728233372944991 3571:1 4023:1 4617:1 4726:1 5186:1 5314:1 6652:1 
0.005637747545075731 117:1 2393:1 5918:1 6713:1 6962:1 6963:1 
0.05013410778609494 82:1 287:1 718:1 4664:1 5706:1 
0.125 339:1 945:1 946:1 7041:1 7042:1 7043:1 
0.125 799:1 1867:1 2035:1 3023:1 3051:1 
0.02141420009484169 9:1 912:1 1305:1 1835:1 2753:1 7044:1 7045:1 7046:1 
0.02444674698005358 41:1 338:1 519:1 4268:1 6058:1 
0.02824455735673613 719:1 2538:1 3712:1 4126:1 4358:1 7047:1 7048:1 7049:1 7050:1 
0.125 446:1 1607:1 4157:1 7051:1 
0.125 719:1 2538:1 3712:1 4126:1 4358:1 7047:1 7048:1 7049:1 7050:1 
0.05099062270935725 623:1 895:1 3566:1 3846:1 4210:1 7054:1 
0.125 435:1 
0.125 435:1 
0.125 311:1 1987:1 4937:1 7057:1 
0.007615399352701496 88:1 89:1 1734:1 2830:1 5140:1 
0.125 88:1 89:1 1428:1 
0.125 767:1 1233:1 
0.125 88:1 89:1 1428:1 
0.05172387383025872 286:1 1111:1 2585:1 3100:1 
0.06778268574961274 642:1 1438:1 2133:1 2256:1 2526:1 2980:1 7061:1 
0.07784000207098864 88:1 1172:1 2435:1 4293:1 4631:1 
0.1151465623304489 486:1 526:1 2240:1 7063:1 
0.125 623:1 895:1 3566:1 3846:1 4210:1 7054:1 
0.003594087434924027 455:1 1644:1 2152:1 3080:1 4321:1 4785:1 7065:1 
0.09112589056078077 486:1 526:1 2240:1 7063:1 
0.125 286:1 2228:1 4531:1 6459:1 6460:1 6487:1 
0.01452065796794796 506:1 507:1 950:1 1311:1 1559:1 7067:1 7068:1 7069:1 
0.125 287:1 1518:1 2119:1 7070:1 
0.125 550:1 655:1 4683:1 5845:1 
0.08595059111644777 625:1 6674:1 6675:1 7074:1 7075:1 
0.0526128517521928 1129:1 1163:1 1311:1 1492:1 6646:1 7076:1 7077:1 
0.125 421:1 905:1 4748:1 5152:1 5704:1 7079:1 7080:1 
0.125 4145:1 4178:1 5721:1 
0.09034584189271407 117:1 336:1 1640:1 4144:1 7089:1 7090:1 7091:1 
