svm_type nu_svc
kernel_type linear
nr_class 2
total_sv 12424
rho -0.840821
label 1 -1
nr_sv 6098 6326
SV
1.364083388478177 
1.364083388478177 5:1 6:1 7:1 8:1 
1.364083388478177 9:1 10:1 11:1 12:1 
1.364083388478177 20:1 
1.364083388478177 26:1 
1.364083388478177 26:1 
1.364083388478177 28:1 29:1 30:1 
1.364083388478177 31:1 32:1 33:1 
1.364083388478177 39:1 40:1 41:1 42:1 43:1 44:1 
1.364083388478177 45:1 46:1 
1.364083388478177 58:1 59:1 
1.364083388478177 67:1 
1.364083388478177 73:1 74:1 75:1 76:1 
1.364083388478177 48:1 70:1 71:1 72:1 77:1 78:1 79:1 
1.364083388478177 81:1 82:1 
1.364083388478177 10:1 11:1 85:1 86:1 87:1 
1.364083388478177 88:1 89:1 
1.364083388478177 44:1 90:1 91:1 
1.364083388478177 92:1 
0.9174623966316794 83:1 93:1 94:1 95:1 96:1 97:1 98:1 99:1 100:1 101:1 
1.364083388478177 27:1 70:1 105:1 106:1 107:1 108:1 
1.364083388478177 109:1 110:1 
1.050024249494748 111:1 112:1 
1.364083388478177 113:1 
1.364083388478177 114:1 
1.364083388478177 115:1 
1.364083388478177 114:1 
1.364083388478177 103:1 
1.364083388478177 70:1 103:1 107:1 117:1 118:1 
1.364083388478177 103:1 119:1 120:1 
1.364083388478177 91:1 123:1 124:1 125:1 126:1 127:1 
1.364083388478177 46:1 89:1 128:1 129:1 130:1 
1.164823961930253 34:1 132:1 133:1 134:1 135:1 
1.364083388478177 136:1 
1.364083388478177 137:1 138:1 
1.364083388478177 139:1 
1.364083388478177 140:1 
1.310833411091816 141:1 142:1 
1.364083388478177 143:1 
1.364083388478177 49:1 144:1 145:1 
1.364083388478177 129:1 146:1 147:1 
1.364083388478177 48:1 69:1 148:1 149:1 150:1 
1.364083388478177 151:1 152:1 
1.364083388478177 77:1 
1.364083388478177 27:1 155:1 156:1 157:1 158:1 
1.364083388478177 70:1 104:1 159:1 
1.364083388478177 67:1 
1.364083388478177 163:1 
1.364083388478177 164:1 
0.6214071407501365 27:1 165:1 
1.364083388478177 27:1 166:1 167:1 168:1 
1.364083388478177 89:1 
1.364083388478177 89:1 
1.364083388478177 112:1 172:1 173:1 
1.364083388478177 129:1 
0.2096324915892516 163:1 
1.364083388478177 182:1 
1.364083388478177 184:1 185:1 
1.364083388478177 89:1 
1.364083388478177 71:1 191:1 192:1 193:1 194:1 195:1 
1.364083388478177 204:1 205:1 
1.364083388478177 70:1 
1.364083388478177 129:1 
1.364083388478177 77:1 208:1 
1.364083388478177 129:1 
1.364083388478177 129:1 
1.364083388478177 70:1 153:1 
1.364083388478177 70:1 207:1 
1.364083388478177 209:1 210:1 211:1 
1.364083388478177 129:1 
0.5499849207484214 212:1 213:1 214:1 215:1 216:1 217:1 
1.364083388478177 129:1 
1.364083388478177 129:1 
1.364083388478177 184:1 
1.10176603161014 76:1 218:1 223:1 224:1 225:1 226:1 227:1 
1.364083388478177 129:1 
1.364083388478177 129:1 
1.364083388478177 10:1 11:1 175:1 228:1 229:1 
1.364083388478177 129:1 
1.364083388478177 129:1 
0.8490804838862982 63:1 232:1 233:1 234:1 
0.0704500487532707 129:1 
0.06899705449535788 175:1 235:1 236:1 
1.364083388478177 129:1 147:1 237:1 
1.364083388478177 247:1 
1.156054111901001 69:1 84:1 153:1 254:1 255:1 256:1 
1.043782494905808 218:1 257:1 258:1 
1.364083388478177 64:1 77:1 259:1 260:1 261:1 262:1 263:1 
1.364083388478177 268:1 
1.364083388478177 272:1 
1.364083388478177 278:1 
1.364083388478177 279:1 
1.364083388478177 281:1 282:1 283:1 284:1 
1.364083388478177 183:1 286:1 287:1 288:1 289:1 290:1 291:1 
1.364083388478177 84:1 102:1 296:1 297:1 298:1 
1.364083388478177 38:1 113:1 310:1 314:1 315:1 
1.364083388478177 318:1 
0.5890207327385819 38:1 321:1 
1.364083388478177 6:1 46:1 229:1 322:1 323:1 
1.364083388478177 160:1 324:1 325:1 
1.364083388478177 328:1 
1.364083388478177 318:1 
1.364083388478177 329:1 330:1 331:1 332:1 333:1 334:1 
1.364083388478177 103:1 336:1 337:1 340:1 341:1 342:1 
1.364083388478177 328:1 
1.364083388478177 318:1 
1.364083388478177 25:1 71:1 91:1 
0.2303258724882772 6:1 356:1 357:1 
1.236712723297478 358:1 359:1 360:1 361:1 
1.364083388478177 318:1 
1.364083388478177 324:1 362:1 363:1 364:1 
1.364083388478177 365:1 366:1 367:1 
0.992245640950241 318:1 
1.364083388478177 318:1 382:1 
0.3812915785458916 384:1 385:1 386:1 
1.364083388478177 387:1 388:1 389:1 
1.364083388478177 19:1 309:1 391:1 
1.364083388478177 393:1 
1.364083388478177 160:1 324:1 325:1 
1.364083388478177 181:1 397:1 398:1 399:1 400:1 401:1 402:1 403:1 404:1 
1.364083388478177 310:1 401:1 405:1 
1.364083388478177 125:1 309:1 
1.15854970983792 90:1 407:1 
1.364083388478177 408:1 409:1 
1.320163840809272 10:1 11:1 12:1 280:1 336:1 412:1 413:1 414:1 415:1 416:1 417:1 418:1 419:1 
1.364083388478177 423:1 424:1 425:1 426:1 
1.364083388478177 276:1 427:1 
1.364083388478177 248:1 386:1 429:1 
1.195683882340366 432:1 
1.364083388478177 224:1 331:1 436:1 437:1 
1.364083388478177 122:1 166:1 
1.364083388478177 46:1 181:1 
1.364083388478177 443:1 
1.364083388478177 68:1 444:1 445:1 446:1 
1.364083388478177 447:1 
1.364083388478177 454:1 
1.364083388478177 64:1 229:1 240:1 241:1 460:1 461:1 462:1 
0.1146112402469431 176:1 374:1 433:1 463:1 464:1 465:1 466:1 467:1 468:1 
1.364083388478177 198:1 433:1 466:1 470:1 471:1 472:1 473:1 
1.119770039318453 276:1 476:1 
1.364083388478177 166:1 
1.364083388478177 481:1 482:1 483:1 
0.6117204665114452 484:1 485:1 486:1 487:1 488:1 
1.364083388478177 508:1 
1.364083388478177 509:1 510:1 
1.364083388478177 179:1 
1.364083388478177 511:1 
1.364083388478177 47:1 
1.364083388478177 103:1 153:1 338:1 339:1 512:1 513:1 514:1 515:1 516:1 
0.1108845531402725 120:1 338:1 339:1 513:1 
1.364083388478177 38:1 522:1 523:1 524:1 525:1 526:1 527:1 
1.364083388478177 528:1 
0.5474619402659775 130:1 534:1 
1.364083388478177 539:1 540:1 
1.364083388478177 542:1 
1.364083388478177 543:1 
1.364083388478177 60:1 176:1 544:1 545:1 546:1 547:1 
1.364083388478177 548:1 
1.364083388478177 234:1 322:1 443:1 
1.364083388478177 552:1 
1.364083388478177 316:1 390:1 
1.364083388478177 553:1 
1.364083388478177 554:1 
1.364083388478177 555:1 
1.364083388478177 557:1 
1.364083388478177 84:1 559:1 
1.364083388478177 172:1 558:1 
1.364083388478177 553:1 
1.364083388478177 107:1 560:1 561:1 562:1 
1.364083388478177 67:1 
1.364083388478177 563:1 
1.364083388478177 17:1 
0.3301401943730662 18:1 567:1 568:1 
1.364083388478177 511:1 
1.364083388478177 67:1 
0.08649707593114163 375:1 571:1 572:1 573:1 574:1 575:1 
0.3785405908107847 576:1 582:1 
1.364083388478177 558:1 
1.364083388478177 558:1 
1.364083388478177 592:1 
1.364083388478177 558:1 
1.364083388478177 596:1 
1.364083388478177 558:1 
1.364083388478177 10:1 11:1 228:1 
1.364083388478177 229:1 
1.364083388478177 55:1 107:1 184:1 600:1 601:1 602:1 
1.364083388478177 558:1 
1.364083388478177 558:1 
1.364083388478177 558:1 
1.153077939182989 264:1 605:1 606:1 607:1 608:1 
1.364083388478177 558:1 
1.364083388478177 184:1 229:1 613:1 
0.3450309500189437 24:1 476:1 
1.364083388478177 422:1 614:1 
1.146342340990938 373:1 538:1 558:1 576:1 615:1 616:1 617:1 618:1 
0.5342301211238714 169:1 229:1 619:1 620:1 621:1 
1.364083388478177 179:1 
1.364083388478177 558:1 
1.364083388478177 558:1 
1.364083388478177 422:1 614:1 
1.364083388478177 627:1 628:1 
0.09173589815507031 202:1 350:1 505:1 629:1 
1.364083388478177 521:1 
1.364083388478177 179:1 
1.364083388478177 558:1 
0.4462421932646849 311:1 531:1 558:1 631:1 632:1 
1.364083388478177 107:1 
1.364083388478177 558:1 
0.0447768547965895 633:1 634:1 
1.364083388478177 635:1 636:1 
1.364083388478177 234:1 637:1 
1.364083388478177 6:1 234:1 288:1 638:1 639:1 640:1 641:1 
0.04934797010788675 350:1 642:1 
1.364083388478177 558:1 
0.5479345040299747 103:1 107:1 647:1 
1.364083388478177 103:1 512:1 648:1 649:1 
1.364083388478177 153:1 513:1 519:1 520:1 650:1 651:1 652:1 653:1 
1.364083388478177 153:1 347:1 651:1 652:1 654:1 
0.5989749007867059 519:1 520:1 656:1 
1.364083388478177 179:1 
1.318486704215797 495:1 
1.364083388478177 179:1 
1.364083388478177 179:1 
1.364083388478177 125:1 
0.8730557498725876 5:1 84:1 661:1 662:1 663:1 664:1 
1.364083388478177 558:1 
1.364083388478177 667:1 
1.364083388478177 18:1 19:1 22:1 23:1 558:1 
1.364083388478177 166:1 378:1 
0.1038209765903423 67:1 671:1 672:1 673:1 674:1 675:1 
1.364083388478177 676:1 677:1 
1.364083388478177 425:1 681:1 
0.8214449658675858 44:1 259:1 
1.364083388478177 67:1 
1.364083388478177 688:1 689:1 
1.364083388478177 690:1 
1.364083388478177 46:1 
0.4530519113780158 691:1 
1.159453554007325 67:1 
1.364083388478177 27:1 699:1 
0.1588829920455751 700:1 
0.2791621796874498 186:1 457:1 703:1 704:1 705:1 
1.364083388478177 35:1 107:1 706:1 
1.364083388478177 62:1 
1.364083388478177 708:1 
1.364083388478177 508:1 
1.364083388478177 708:1 
1.364083388478177 708:1 
1.16973849352061 103:1 336:1 337:1 350:1 711:1 712:1 
1.364083388478177 84:1 713:1 714:1 715:1 
1.364083388478177 716:1 
1.364083388478177 45:1 46:1 717:1 
1.364083388478177 708:1 
1.364083388478177 48:1 721:1 
1.364083388478177 300:1 
1.364083388478177 302:1 
1.364083388478177 303:1 
1.364083388478177 491:1 
1.364083388478177 304:1 
1.364083388478177 722:1 
1.364083388478177 27:1 723:1 
1.364083388478177 708:1 
0.001099517857109265 708:1 
1.364083388478177 731:1 
1.234379086442876 733:1 
1.364083388478177 27:1 176:1 249:1 250:1 734:1 735:1 736:1 737:1 
1.364083388478177 228:1 
1.364083388478177 738:1 
1.364083388478177 741:1 
1.364083388478177 147:1 229:1 237:1 
1.364083388478177 308:1 492:1 746:1 
1.364083388478177 272:1 
1.364083388478177 748:1 
1.364083388478177 750:1 751:1 
1.364083388478177 420:1 684:1 686:1 687:1 752:1 753:1 
1.364083388478177 766:1 
1.364083388478177 311:1 655:1 708:1 767:1 768:1 769:1 770:1 771:1 
1.364083388478177 772:1 773:1 774:1 775:1 
0.6648561675401462 6:1 640:1 655:1 777:1 778:1 
1.364083388478177 779:1 780:1 
0.2487553070352409 666:1 781:1 782:1 783:1 784:1 785:1 
1.364083388478177 56:1 787:1 788:1 789:1 
1.364083388478177 679:1 
1.364083388478177 71:1 755:1 756:1 791:1 
1.364083388478177 47:1 93:1 792:1 793:1 
1.364083388478177 794:1 
0.9360182688209527 795:1 796:1 797:1 798:1 799:1 
1.364083388478177 801:1 
1.364083388478177 14:1 22:1 23:1 24:1 277:1 
1.364083388478177 657:1 802:1 803:1 804:1 
1.364083388478177 47:1 805:1 
0.1512746721466174 806:1 807:1 808:1 
0.1589254973869086 809:1 
0.6947504862595001 277:1 810:1 
1.364083388478177 801:1 
1.364083388478177 14:1 22:1 23:1 24:1 277:1 
1.364083388478177 10:1 11:1 12:1 69:1 
1.364083388478177 137:1 406:1 813:1 814:1 
0.219255221287867 38:1 258:1 373:1 479:1 819:1 
1.364083388478177 444:1 535:1 820:1 821:1 822:1 
0.7650316336115311 823:1 
1.364083388478177 104:1 135:1 829:1 
1.364083388478177 103:1 
1.364083388478177 122:1 648:1 649:1 
1.364083388478177 103:1 
1.364083388478177 47:1 832:1 833:1 
1.364083388478177 103:1 
1.364083388478177 103:1 107:1 122:1 648:1 649:1 
1.364083388478177 69:1 173:1 836:1 837:1 
1.364083388478177 838:1 
0.1589684444912529 839:1 
1.364083388478177 103:1 
1.364083388478177 156:1 652:1 842:1 843:1 844:1 
0.3478871798754051 120:1 175:1 228:1 648:1 649:1 825:1 
1.364083388478177 103:1 
1.364083388478177 223:1 240:1 471:1 744:1 834:1 835:1 850:1 851:1 852:1 853:1 
1.182529571807945 176:1 655:1 855:1 
1.364083388478177 103:1 
0.3895398467532286 93:1 94:1 103:1 121:1 176:1 189:1 856:1 
1.364083388478177 103:1 
1.364083388478177 56:1 104:1 692:1 861:1 862:1 863:1 864:1 
0.3434974394393125 34:1 180:1 384:1 752:1 865:1 866:1 
1.364083388478177 871:1 872:1 873:1 
0.1589418904099347 878:1 
1.364083388478177 228:1 
0.7816516264413992 843:1 
1.364083388478177 881:1 
1.364083388478177 882:1 
1.364083388478177 883:1 
1.364083388478177 881:1 
1.364083388478177 882:1 
1.364083388478177 883:1 
1.364083388478177 68:1 395:1 
0.1829353101906232 320:1 573:1 892:1 893:1 894:1 895:1 896:1 
1.364083388478177 278:1 
1.364083388478177 53:1 169:1 
1.364083388478177 876:1 904:1 
0.3230585690230818 487:1 828:1 
0.9194197669500837 27:1 161:1 914:1 
1.364083388478177 487:1 919:1 920:1 
1.364083388478177 919:1 920:1 
1.364083388478177 3:1 4:1 
1.364083388478177 22:1 557:1 689:1 
1.364083388478177 926:1 927:1 928:1 
1.364083388478177 800:1 932:1 
0.149370044698588 345:1 869:1 
1.364083388478177 125:1 273:1 630:1 933:1 
1.177812471732604 27:1 649:1 934:1 
1.364083388478177 27:1 161:1 531:1 935:1 936:1 
1.364083388478177 940:1 
1.364083388478177 137:1 352:1 941:1 
1.364083388478177 944:1 
1.364083388478177 945:1 946:1 947:1 
0.1809793992783356 137:1 948:1 949:1 
0.6838229667672135 37:1 950:1 
1.364083388478177 939:1 951:1 952:1 953:1 954:1 
1.364083388478177 42:1 
1.364083388478177 955:1 
1.364083388478177 169:1 233:1 
1.364083388478177 537:1 
0.5118481312736425 48:1 668:1 963:1 
0.8508112199019268 71:1 964:1 
0.3702071877712266 537:1 
1.364083388478177 68:1 107:1 395:1 
1.364083388478177 955:1 956:1 967:1 968:1 969:1 
1.364083388478177 59:1 71:1 
1.364083388478177 48:1 321:1 971:1 
1.364083388478177 331:1 973:1 974:1 975:1 976:1 977:1 978:1 
1.364083388478177 573:1 984:1 985:1 986:1 987:1 
1.364083388478177 992:1 
1.364083388478177 175:1 447:1 579:1 959:1 993:1 994:1 
0.1811216520471396 489:1 1002:1 1003:1 
1.364083388478177 194:1 
1.364083388478177 191:1 590:1 1004:1 1005:1 
1.364083388478177 90:1 
1.364083388478177 292:1 
0.1585268506559234 278:1 
1.364083388478177 53:1 169:1 
1.364083388478177 761:1 762:1 
1.364083388478177 3:1 4:1 
0.1588005709379227 1013:1 
0.9630895450445378 50:1 543:1 1019:1 1020:1 1021:1 
1.364083388478177 561:1 
1.364083388478177 1025:1 1026:1 
1.364083388478177 1027:1 
1.364083388478177 848:1 
1.364083388478177 1029:1 
1.364083388478177 1030:1 
0.1591936548994321 1031:1 
0.03613153974344335 1033:1 
1.364083388478177 1034:1 1035:1 1036:1 
1.364083388478177 507:1 
1.364083388478177 614:1 694:1 764:1 1040:1 1041:1 
0.8227272163230585 6:1 11:1 39:1 133:1 176:1 640:1 643:1 1042:1 1043:1 1044:1 
1.364083388478177 689:1 
1.364083388478177 1050:1 
0.8659112944752286 463:1 1051:1 1052:1 
1.364083388478177 1050:1 
1.364083388478177 1050:1 
1.32389050989242 263:1 604:1 1053:1 1054:1 
1.364083388478177 1050:1 
1.364083388478177 1050:1 
1.364083388478177 1050:1 
0.136710431452537 217:1 
1.364083388478177 1050:1 
0.2412451335979493 1050:1 
1.364083388478177 276:1 
1.364083388478177 175:1 223:1 338:1 437:1 604:1 999:1 1064:1 1065:1 
0.158994325571478 1066:1 
0.09179769943378813 64:1 241:1 460:1 1067:1 1068:1 1069:1 1070:1 1071:1 1072:1 
1.364083388478177 222:1 224:1 225:1 1073:1 
1.364083388478177 228:1 640:1 793:1 
1.364083388478177 229:1 
0.118044925091591 18:1 1050:1 1085:1 
1.163326169656827 127:1 413:1 767:1 1045:1 1050:1 1086:1 
1.364083388478177 948:1 
1.364083388478177 1088:1 
1.364083388478177 35:1 900:1 
1.364083388478177 1089:1 
1.364083388478177 229:1 
1.364083388478177 1092:1 
1.364083388478177 1093:1 1094:1 
0.3278218434079306 395:1 707:1 1097:1 
1.074708961845765 25:1 1050:1 1074:1 1096:1 
1.364083388478177 151:1 152:1 
0.8469267111859045 1100:1 
1.364083388478177 787:1 
1.364083388478177 1106:1 
1.364083388478177 843:1 1073:1 
1.364083388478177 1111:1 
1.364083388478177 1114:1 
1.364083388478177 578:1 580:1 1115:1 1116:1 
1.359749637651055 59:1 401:1 1112:1 
0.9205739404823944 1114:1 
0.3614733744276083 578:1 580:1 1115:1 1116:1 
1.364083388478177 925:1 1120:1 
1.364083388478177 489:1 1121:1 
1.364083388478177 147:1 233:1 
1.364083388478177 558:1 1125:1 
1.364083388478177 558:1 
1.364083388478177 558:1 
1.364083388478177 558:1 
0.2707328996924876 17:1 38:1 46:1 236:1 402:1 1129:1 1132:1 1133:1 
1.364083388478177 11:1 12:1 107:1 236:1 347:1 1134:1 1135:1 1136:1 1137:1 1138:1 1139:1 
1.364083388478177 558:1 
1.364083388478177 558:1 
1.364083388478177 558:1 
1.364083388478177 1145:1 
1.364083388478177 558:1 
1.364083388478177 817:1 
1.364083388478177 558:1 
1.364083388478177 558:1 
1.364083388478177 558:1 
1.364083388478177 1146:1 
0.03295905815031783 558:1 
0.5411372177251222 1147:1 
1.364083388478177 363:1 1148:1 
1.364083388478177 113:1 395:1 1152:1 1153:1 
1.346451647574133 48:1 137:1 492:1 511:1 983:1 1154:1 1155:1 
1.364083388478177 57:1 
1.364083388478177 27:1 71:1 590:1 678:1 736:1 1062:1 1063:1 1159:1 
1.364083388478177 224:1 264:1 587:1 608:1 826:1 1003:1 1160:1 
0.2187861478240384 1161:1 
1.364083388478177 64:1 1162:1 1163:1 1164:1 
1.364083388478177 716:1 
0.7330260956882427 11:1 45:1 194:1 197:1 320:1 558:1 1170:1 
1.364083388478177 10:1 11:1 228:1 229:1 
1.341002636101164 38:1 558:1 589:1 1172:1 
1.364083388478177 422:1 614:1 
1.364083388478177 47:1 70:1 1179:1 1180:1 
1.364083388478177 313:1 
0.3434949261011395 18:1 22:1 23:1 558:1 
1.364083388478177 288:1 
1.193731781657447 416:1 512:1 1055:1 1195:1 
1.327414159648853 1179:1 1196:1 
1.364083388478177 1200:1 
1.364083388478177 1201:1 1202:1 
1.364083388478177 1205:1 
1.364083388478177 369:1 472:1 744:1 1206:1 1207:1 1208:1 
1.364083388478177 10:1 11:1 475:1 
1.182771485576722 170:1 240:1 744:1 874:1 1213:1 1214:1 1215:1 1216:1 
0.6048370275558268 14:1 273:1 439:1 873:1 1217:1 1218:1 1219:1 
1.364083388478177 517:1 1184:1 1220:1 1221:1 
1.364083388478177 53:1 169:1 
1.364083388478177 1226:1 
0.2837311827667552 489:1 1201:1 
1.364083388478177 130:1 295:1 396:1 1235:1 
1.364083388478177 130:1 295:1 396:1 1235:1 
1.364083388478177 1236:1 1237:1 
1.364083388478177 16:1 255:1 
1.364083388478177 1036:1 
0.0759327135885141 1241:1 
1.364083388478177 16:1 255:1 
1.364083388478177 1036:1 
0.4090998955785554 54:1 197:1 640:1 915:1 1123:1 1128:1 1244:1 
0.8831225962762292 1163:1 
1.064532418030307 222:1 223:1 229:1 1246:1 1247:1 
1.364083388478177 918:1 
0.5981821222764894 369:1 444:1 744:1 872:1 1249:1 1250:1 
1.364083388478177 779:1 1254:1 1255:1 
1.364083388478177 243:1 252:1 253:1 736:1 1257:1 
0.6130845914189456 64:1 1257:1 1258:1 1259:1 1260:1 1261:1 
1.364083388478177 1262:1 
1.364083388478177 1106:1 
1.364083388478177 113:1 
1.364083388478177 313:1 
0.7566215891461257 38:1 294:1 480:1 794:1 1241:1 
0.1481766553668279 1276:1 1277:1 
1.309023176763506 1279:1 1280:1 
0.2052425222717218 649:1 1267:1 
0.1478496858476994 1284:1 
1.364083388478177 630:1 1023:1 1293:1 1294:1 
1.364083388478177 110:1 422:1 614:1 1298:1 
1.364083388478177 1299:1 1300:1 
0.03644771603752056 772:1 1266:1 1301:1 1302:1 
1.364083388478177 22:1 23:1 535:1 1119:1 1183:1 
1.364083388478177 45:1 46:1 165:1 385:1 680:1 1290:1 
1.364083388478177 50:1 184:1 
0.3853985868432672 153:1 288:1 755:1 756:1 1307:1 1308:1 
1.364083388478177 61:1 747:1 
1.364083388478177 45:1 67:1 668:1 1290:1 1310:1 1311:1 1312:1 1313:1 1314:1 
1.364083388478177 1290:1 1311:1 
1.364083388478177 420:1 1290:1 1311:1 1315:1 1316:1 1317:1 1318:1 1319:1 
1.364083388478177 1290:1 1310:1 1311:1 
0.3479794617629287 1329:1 
1.364083388478177 39:1 42:1 165:1 184:1 1044:1 1290:1 1328:1 1329:1 
1.364083388478177 64:1 146:1 185:1 935:1 
1.364083388478177 1342:1 
0.4874894130854945 1342:1 
0.07372086888446301 818:1 1331:1 
1.364083388478177 176:1 1329:1 1343:1 
0.1565442423288611 633:1 1344:1 1345:1 1346:1 1347:1 1348:1 
1.364083388478177 1331:1 
1.364083388478177 1331:1 
1.364083388478177 1331:1 
1.364083388478177 107:1 561:1 
0.4306389200160397 1331:1 
0.4704036790251688 107:1 828:1 
1.352104438174895 1360:1 1361:1 1362:1 
1.364083388478177 1368:1 
0.1589458077616739 1370:1 
0.1590676701510751 1371:1 
1.364083388478177 58:1 
0.7599872161501211 507:1 806:1 1264:1 1331:1 1377:1 
1.364083388478177 573:1 997:1 1366:1 1380:1 1381:1 1382:1 1383:1 1384:1 
1.229402788385021 241:1 690:1 1000:1 1309:1 1379:1 1385:1 1386:1 1387:1 
1.364083388478177 425:1 
0.1593015005536511 1390:1 
0.3409684540592306 34:1 706:1 716:1 1391:1 1392:1 
1.364083388478177 53:1 169:1 
1.364083388478177 71:1 79:1 107:1 317:1 544:1 
0.3455724067353432 299:1 300:1 302:1 303:1 304:1 306:1 624:1 906:1 907:1 
0.2590906642299356 1399:1 
1.364083388478177 127:1 450:1 1400:1 
1.364083388478177 234:1 1236:1 1331:1 1405:1 
0.5770365825450172 1407:1 
1.364083388478177 321:1 1290:1 
1.364083388478177 313:1 
0.976849728620248 34:1 181:1 1409:1 1410:1 1411:1 1412:1 1413:1 
1.293665715128321 205:1 396:1 900:1 1415:1 
1.364083388478177 71:1 72:1 184:1 1422:1 
1.364083388478177 1423:1 
0.4396791651765991 131:1 813:1 
1.364083388478177 1426:1 
1.364083388478177 234:1 1430:1 1431:1 1432:1 1433:1 
1.364083388478177 312:1 599:1 660:1 797:1 812:1 1434:1 
1.364083388478177 10:1 11:1 12:1 
1.364083388478177 173:1 599:1 
0.889499526193517 1298:1 1406:1 
1.364083388478177 207:1 
0.8352336439408491 28:1 34:1 36:1 178:1 374:1 511:1 819:1 1298:1 1436:1 
1.364083388478177 966:1 1440:1 
0.06867414344957114 34:1 1441:1 
1.364083388478177 394:1 1433:1 
0.6691588410497065 202:1 1442:1 1443:1 
1.364083388478177 501:1 
1.364083388478177 509:1 1446:1 
1.211080663700102 107:1 196:1 197:1 509:1 590:1 622:1 1421:1 1446:1 
0.06064341059016255 800:1 918:1 
1.364083388478177 1201:1 
1.364083388478177 918:1 
0.1175226023679925 1029:1 
1.364083388478177 217:1 1453:1 1454:1 1455:1 
1.002322479802249 812:1 1459:1 1460:1 
1.364083388478177 1201:1 
1.364083388478177 217:1 228:1 340:1 431:1 
1.364083388478177 448:1 1314:1 1461:1 
1.364083388478177 1201:1 
1.364083388478177 1463:1 1464:1 1465:1 
0.8299229844296264 222:1 224:1 241:1 726:1 817:1 1156:1 1466:1 1467:1 
1.364083388478177 184:1 280:1 622:1 1190:1 1420:1 
0.5519597540020051 10:1 11:1 87:1 1444:1 1471:1 
1.364083388478177 53:1 169:1 
0.7000835854532018 1449:1 1473:1 
1.364083388478177 361:1 768:1 1475:1 1476:1 
1.364083388478177 194:1 
0.4143404703306725 1444:1 1479:1 
0.2435361080237285 125:1 1481:1 1482:1 
1.364083388478177 125:1 
0.1589687635420816 1483:1 
0.4587098369574835 72:1 1485:1 1486:1 1487:1 
0.8619447658480521 1489:1 1490:1 
0.1590612817201612 1492:1 
1.364083388478177 34:1 1493:1 
1.364083388478177 10:1 11:1 88:1 517:1 915:1 
0.09224280794946835 146:1 511:1 
0.003672832751928377 146:1 511:1 
0.2690583140830395 538:1 1502:1 
1.364083388478177 1503:1 
0.2687983248845766 59:1 406:1 458:1 
0.1588012493662459 1355:1 
1.364083388478177 1513:1 
1.173594323899139 917:1 918:1 
1.056615587412503 84:1 437:1 1149:1 1514:1 1515:1 1516:1 
0.158934990268848 1521:1 
1.364083388478177 1523:1 
1.364083388478177 10:1 11:1 228:1 229:1 475:1 
1.364083388478177 35:1 184:1 458:1 778:1 1114:1 1527:1 
1.364083388478177 71:1 
0.5205758328993749 7:1 1522:1 
0.08945548930781423 34:1 169:1 1470:1 1532:1 1533:1 1534:1 
0.8048734177291199 153:1 1522:1 1535:1 
1.364083388478177 7:1 94:1 1522:1 
1.364083388478177 288:1 311:1 383:1 1484:1 1536:1 1537:1 1538:1 
1.364083388478177 113:1 
1.364083388478177 480:1 1242:1 1474:1 
1.257403285215816 311:1 614:1 1177:1 1540:1 1541:1 
0.8590658878775753 1544:1 1545:1 
0.5355109115933503 107:1 648:1 649:1 1425:1 1546:1 
0.9587496849456691 103:1 340:1 449:1 1545:1 1549:1 1550:1 
1.364083388478177 639:1 1320:1 
1.364083388478177 6:1 67:1 85:1 
1.364083388478177 6:1 11:1 350:1 578:1 1043:1 1557:1 
0.3836437020967787 176:1 561:1 1558:1 1559:1 
0.5644360043477578 523:1 638:1 1484:1 1560:1 1561:1 
1.364083388478177 16:1 22:1 23:1 24:1 1484:1 
1.364083388478177 444:1 
0.6233923757955891 103:1 336:1 337:1 448:1 710:1 1566:1 
1.364083388478177 372:1 1115:1 1567:1 1568:1 1569:1 1570:1 
1.364083388478177 1176:1 
1.320239503004504 384:1 1115:1 1567:1 1574:1 1575:1 
1.364083388478177 156:1 1578:1 1579:1 1580:1 
1.041514414565652 11:1 884:1 1583:1 1584:1 
0.1540865999198241 1577:1 
0.2887220277782815 330:1 716:1 1144:1 1585:1 1586:1 1587:1 
1.364083388478177 1104:1 
1.364083388478177 276:1 
0.9715017813663545 205:1 358:1 437:1 556:1 593:1 1591:1 1602:1 1603:1 
1.364083388478177 276:1 
1.364083388478177 11:1 19:1 72:1 
1.364083388478177 505:1 
0.654643970521563 68:1 137:1 312:1 1611:1 1612:1 
1.364083388478177 447:1 
1.129396803686422 133:1 151:1 372:1 1569:1 1575:1 1613:1 1614:1 
0.9510723140971554 1611:1 1615:1 1616:1 
1.364083388478177 326:1 689:1 
1.364083388478177 544:1 
1.364083388478177 22:1 23:1 1119:1 1620:1 
0.03155242425690857 1623:1 
1.364083388478177 393:1 
0.8314783501658782 411:1 
1.364083388478177 184:1 477:1 1195:1 
0.5669305447518651 51:1 515:1 680:1 1034:1 1035:1 1628:1 
1.364083388478177 53:1 236:1 416:1 437:1 1351:1 1610:1 1630:1 1631:1 1632:1 
1.364083388478177 1610:1 
0.07482776441878124 416:1 512:1 600:1 1545:1 
1.364083388478177 1610:1 
1.364083388478177 1610:1 
1.016072296399301 1636:1 1637:1 
1.364083388478177 1610:1 
1.364083388478177 124:1 343:1 472:1 1205:1 1638:1 1639:1 
1.364083388478177 1610:1 
0.1472435809257707 304:1 
1.364083388478177 1610:1 
1.364083388478177 1610:1 
1.001980135067931 224:1 241:1 744:1 1000:1 1058:1 1634:1 1640:1 1641:1 
1.364083388478177 1610:1 
1.364083388478177 1610:1 
1.364083388478177 175:1 216:1 439:1 873:1 1645:1 1646:1 
0.3911955719860461 1610:1 
1.364083388478177 340:1 776:1 802:1 
1.281219488529735 66:1 369:1 726:1 973:1 1003:1 1055:1 1583:1 1647:1 
1.364083388478177 53:1 169:1 
1.357369069468814 69:1 464:1 1653:1 
1.364083388478177 11:1 1654:1 
1.364083388478177 343:1 589:1 1653:1 1655:1 
1.088501000274423 137:1 1020:1 
0.5478800992863337 113:1 153:1 314:1 494:1 614:1 882:1 1610:1 1658:1 
1.364083388478177 505:1 
1.364083388478177 1659:1 
1.364083388478177 1660:1 
1.364083388478177 167:1 422:1 499:1 
1.286367904623665 577:1 580:1 994:1 
1.364083388478177 229:1 
1.364083388478177 313:1 
1.364083388478177 529:1 
1.364083388478177 98:1 125:1 1666:1 
1.364083388478177 233:1 1667:1 
0.7917928428935154 121:1 236:1 828:1 1039:1 1669:1 1670:1 1671:1 
0.6002277919741706 1672:1 
1.364083388478177 1673:1 
1.364083388478177 76:1 107:1 817:1 
1.364083388478177 207:1 
1.364083388478177 53:1 
0.7134898429400999 76:1 107:1 817:1 
1.364083388478177 207:1 
1.364083388478177 1675:1 
1.364083388478177 363:1 
1.364083388478177 1681:1 
1.364083388478177 1682:1 
1.364083388478177 107:1 
1.364083388478177 471:1 620:1 621:1 1076:1 1077:1 1667:1 
0.7810085951972441 1106:1 1684:1 
1.364083388478177 53:1 169:1 
1.364083388478177 505:1 
1.364083388478177 496:1 768:1 1692:1 
1.364083388478177 181:1 207:1 327:1 
1.364083388478177 496:1 768:1 1692:1 
0.3724761177896078 1234:1 1667:1 1693:1 
1.364083388478177 68:1 165:1 284:1 1694:1 1695:1 1696:1 
1.364083388478177 22:1 23:1 475:1 1117:1 1667:1 
1.191797174383868 807:1 937:1 1697:1 1698:1 
1.364083388478177 1023:1 1702:1 
1.33322429860351 71:1 148:1 348:1 1188:1 1703:1 
1.364083388478177 138:1 1704:1 
1.364083388478177 372:1 
0.7419270758557577 328:1 508:1 937:1 1719:1 1720:1 
0.9395550105430076 27:1 37:1 1324:1 1694:1 1696:1 1724:1 1725:1 1726:1 
0.7674297979391368 1728:1 1729:1 1730:1 1731:1 1732:1 
1.364083388478177 527:1 
1.364083388478177 1056:1 1737:1 
1.364083388478177 527:1 
1.364083388478177 1741:1 1742:1 
1.364083388478177 288:1 720:1 1290:1 1435:1 1744:1 
0.4921671423925729 34:1 267:1 717:1 1228:1 1480:1 1745:1 
0.748906587477167 867:1 868:1 
1.364083388478177 1738:1 
1.364083388478177 1738:1 
0.08377422246825707 1738:1 
1.364083388478177 600:1 
0.2024514715659004 425:1 
0.1589817300068938 1757:1 
0.2390534439339146 1642:1 
1.364083388478177 176:1 240:1 744:1 
1.364083388478177 508:1 1205:1 
1.364083388478177 265:1 304:1 305:1 492:1 744:1 1645:1 1706:1 1761:1 1762:1 
0.1278602489097955 215:1 217:1 
1.364083388478177 53:1 169:1 
0.1296717643710679 197:1 1738:1 1769:1 1770:1 
1.364083388478177 791:1 
1.364083388478177 313:1 
1.364083388478177 1775:1 
1.364083388478177 49:1 1776:1 
1.364083388478177 34:1 1777:1 
1.364083388478177 496:1 537:1 539:1 
1.364083388478177 1779:1 
1.364083388478177 103:1 107:1 
1.132262758561291 103:1 340:1 648:1 649:1 884:1 1028:1 1387:1 1781:1 
0.7841832228894946 103:1 107:1 519:1 520:1 625:1 652:1 1029:1 1030:1 1079:1 
1.364083388478177 1784:1 1785:1 1786:1 
1.364083388478177 1787:1 
1.364083388478177 39:1 133:1 184:1 310:1 477:1 1042:1 1290:1 1328:1 1790:1 
1.364083388478177 447:1 
0.4739615013782131 197:1 509:1 668:1 1409:1 1446:1 1795:1 1796:1 
1.364083388478177 1176:1 
1.364083388478177 1798:1 
0.02355462189576467 318:1 
1.364083388478177 207:1 
0.158988186971073 1801:1 
0.1590118661317514 1802:1 
1.364083388478177 10:1 11:1 228:1 475:1 
0.3955399015925078 161:1 250:1 1803:1 1806:1 1807:1 1808:1 
1.364083388478177 122:1 1809:1 1810:1 1811:1 
0.8600233260456411 238:1 544:1 1812:1 1813:1 
1.364083388478177 1815:1 1816:1 
1.364083388478177 27:1 167:1 373:1 1004:1 1074:1 1303:1 1817:1 1818:1 
1.364083388478177 1824:1 
0.1589420259210236 242:1 
1.364083388478177 79:1 313:1 1791:1 
1.364083388478177 505:1 
0.1589110435138522 1826:1 
0.9152350395600604 13:1 764:1 1041:1 1409:1 1827:1 
1.364083388478177 1831:1 1832:1 1833:1 1834:1 1835:1 1836:1 1837:1 1838:1 
0.01625616673090937 674:1 1842:1 1843:1 
0.85151522735991 330:1 802:1 1004:1 1847:1 
0.5028924671472823 153:1 347:1 1817:1 1818:1 
1.364083388478177 372:1 1558:1 1559:1 
1.364083388478177 1823:1 1859:1 
1.364083388478177 881:1 
1.364083388478177 883:1 
1.364083388478177 955:1 
1.364083388478177 1068:1 
1.364083388478177 511:1 
0.1588541155842273 1864:1 
1.364083388478177 509:1 510:1 1865:1 
1.364083388478177 288:1 631:1 
1.364083388478177 135:1 416:1 458:1 1856:1 1866:1 1867:1 
0.8788101190585897 509:1 1446:1 1870:1 
1.364083388478177 746:1 1657:1 1874:1 
1.364083388478177 1579:1 
1.364083388478177 1055:1 
0.3259101519308977 55:1 334:1 472:1 593:1 1207:1 1878:1 1879:1 1880:1 
0.6155518726585073 1887:1 
1.364083388478177 18:1 138:1 934:1 960:1 
0.9687614837055103 38:1 299:1 300:1 301:1 302:1 303:1 304:1 305:1 306:1 983:1 1222:1 1890:1 
1.073379495022755 589:1 1607:1 1856:1 1891:1 
1.364083388478177 34:1 523:1 1892:1 1893:1 
0.8713452570655832 502:1 
1.364083388478177 703:1 1897:1 1898:1 
1.364083388478177 1088:1 1238:1 
1.364083388478177 194:1 
0.4508259298966495 229:1 
0.2334460567671972 643:1 915:1 1226:1 1599:1 1881:1 1882:1 1901:1 
1.364083388478177 153:1 652:1 
0.413570893231424 103:1 107:1 169:1 523:1 1902:1 1903:1 1904:1 
1.364083388478177 848:1 
1.364083388478177 57:1 120:1 652:1 1905:1 
1.364083388478177 222:1 651:1 652:1 1906:1 1907:1 
0.2730254641191949 522:1 1910:1 
0.4847096909393556 736:1 757:1 1022:1 1024:1 1913:1 1914:1 1915:1 
1.364083388478177 497:1 
1.364083388478177 777:1 1917:1 
1.364083388478177 147:1 561:1 1351:1 
1.364083388478177 1917:1 
1.364083388478177 1921:1 
0.8745572522862353 280:1 660:1 911:1 1087:1 1581:1 1846:1 1925:1 1926:1 
0.05358804548783059 206:1 392:1 587:1 1524:1 1930:1 1931:1 
1.364083388478177 1917:1 
1.364083388478177 1917:1 
1.364083388478177 1917:1 
1.364083388478177 1917:1 
1.25549558904568 607:1 611:1 1055:1 1934:1 
1.364083388478177 1917:1 
1.364083388478177 1917:1 
1.364083388478177 1917:1 
1.364083388478177 1917:1 
0.7625411040572722 64:1 176:1 223:1 439:1 918:1 1040:1 1937:1 1938:1 
1.364083388478177 1917:1 
0.2724354525938817 1917:1 
1.364083388478177 228:1 229:1 590:1 1944:1 
0.01094014276251673 1284:1 
1.364083388478177 1385:1 
1.364083388478177 1948:1 1949:1 1950:1 1951:1 1952:1 1953:1 1954:1 1955:1 1956:1 1957:1 1958:1 1959:1 1960:1 
1.364083388478177 897:1 1962:1 
0.01432022976292496 107:1 239:1 581:1 668:1 1954:1 1964:1 
1.189075097481682 69:1 82:1 1954:1 1965:1 
0.4398609351698872 34:1 1228:1 1969:1 
1.364083388478177 599:1 933:1 
1.364083388478177 1977:1 
1.323503226236587 406:1 894:1 1979:1 
0.8824060127156685 1936:1 1981:1 
1.223677515540415 666:1 
0.8986608738079305 103:1 474:1 1038:1 1054:1 1253:1 1785:1 1992:1 1993:1 1994:1 
1.250879188442181 103:1 107:1 122:1 656:1 1552:1 1997:1 1998:1 
1.364083388478177 521:1 
1.364083388478177 1568:1 
1.364083388478177 2000:1 
0.3297496241259362 229:1 350:1 1290:1 1313:1 
1.364083388478177 234:1 2002:1 
0.7381313183253898 836:1 
0.647625737045696 258:1 316:1 373:1 544:1 1132:1 
1.364083388478177 10:1 11:1 12:1 172:1 
1.364083388478177 2003:1 
0.1591197122633156 2004:1 
1.364083388478177 2000:1 
0.06036638542485987 2008:1 2009:1 
1.364083388478177 384:1 2011:1 
1.364083388478177 62:1 916:1 1744:1 2014:1 
1.364083388478177 509:1 1446:1 
1.364083388478177 147:1 1440:1 2016:1 
1.364083388478177 1146:1 
1.364083388478177 10:1 11:1 67:1 1256:1 
1.364083388478177 10:1 11:1 197:1 2020:1 
0.7911782073438953 961:1 2018:1 
1.364083388478177 185:1 579:1 580:1 1875:1 
0.4289167361409122 10:1 11:1 12:1 148:1 
1.364083388478177 10:1 11:1 12:1 
1.364083388478177 447:1 
1.077002722969155 920:1 2022:1 2023:1 
1.364083388478177 198:1 223:1 437:1 1070:1 1149:1 1755:1 2024:1 2025:1 
0.0051985373265981 917:1 918:1 
0.9128700986188982 68:1 870:1 924:1 1460:1 
1.364083388478177 254:1 
0.1591051744935295 2030:1 
1.364083388478177 1073:1 2032:1 
0.3985323711704691 2034:1 2035:1 
1.364083388478177 2036:1 
0.263466671490157 264:1 437:1 1571:1 2037:1 2038:1 
1.364083388478177 492:1 604:1 1144:1 2025:1 2041:1 2042:1 
1.364083388478177 1939:1 
1.364083388478177 778:1 2043:1 
1.364083388478177 639:1 2047:1 
1.364083388478177 71:1 228:1 725:1 
1.364083388478177 276:1 
1.364083388478177 229:1 897:1 
0.2328260781818708 38:1 299:1 300:1 301:1 302:1 303:1 304:1 305:1 308:1 983:1 1222:1 2051:1 
1.364083388478177 2055:1 
0.2237449905171154 2:1 326:1 2056:1 
1.364083388478177 667:1 2057:1 
1.364083388478177 2058:1 
1.364083388478177 18:1 46:1 259:1 322:1 356:1 
1.364083388478177 103:1 512:1 2060:1 
1.364083388478177 120:1 340:1 374:1 648:1 649:1 1624:1 2061:1 2062:1 
0.7246229051251094 103:1 340:1 529:1 648:1 649:1 884:1 1090:1 1387:1 1600:1 
0.5420368188631293 121:1 176:1 337:1 600:1 1773:1 2065:1 2066:1 
1.153756805458473 38:1 103:1 107:1 518:1 519:1 520:1 625:1 885:1 1029:1 1079:1 2067:1 
0.8797133769971307 10:1 11:1 12:1 795:1 
0.8809371068510394 791:1 
1.364083388478177 313:1 
1.364083388478177 1175:1 2068:1 
1.364083388478177 39:1 48:1 50:1 295:1 824:1 1501:1 1886:1 
1.364083388478177 313:1 
0.1590041693553909 353:1 
0.3373093876362573 344:1 422:1 614:1 2072:1 
1.364083388478177 2075:1 
1.364083388478177 62:1 
0.852143677435537 2083:1 
0.7700071765523834 2084:1 2085:1 2086:1 
0.8806656141650003 967:1 2087:1 2088:1 
1.364083388478177 62:1 77:1 1307:1 1983:1 
1.364083388478177 444:1 1256:1 2055:1 
1.364083388478177 40:1 293:1 378:1 985:1 1327:1 2006:1 2089:1 2090:1 
1.364083388478177 356:1 1568:1 
0.5591936191809525 1759:1 2091:1 2092:1 
1.364083388478177 1568:1 
1.364083388478177 176:1 639:1 1335:1 
1.310972563558592 1032:1 
0.5115439903134725 107:1 439:1 2093:1 
0.5530290068621084 2097:1 
1.364083388478177 152:1 
1.364083388478177 738:1 
1.364083388478177 125:1 348:1 508:1 
1.18704269900132 2109:1 2110:1 
0.06047346886686963 107:1 1074:1 2112:1 2113:1 
1.364083388478177 509:1 510:1 
1.364083388478177 104:1 819:1 1038:1 2115:1 
1.364083388478177 2116:1 
1.364083388478177 1568:1 
0.2896342049654933 350:1 435:1 493:1 1293:1 
0.2176361337790166 310:1 
1.010279525273862 496:1 777:1 1296:1 
1.364083388478177 658:1 2125:1 
1.364083388478177 2128:1 
0.3727995467471975 2125:1 
0.1337463858803839 27:1 59:1 1545:1 1642:1 2126:1 2127:1 
1.364083388478177 61:1 843:1 2133:1 2134:1 
0.02548693097400515 1374:1 
0.3388475450858098 57:1 170:1 253:1 435:1 980:1 2132:1 2135:1 
0.1587239908101929 2136:1 
1.364083388478177 918:1 
1.364083388478177 668:1 2145:1 
0.150682746535407 27:1 57:1 170:1 435:1 736:1 2144:1 2147:1 
0.3178552608191016 262:1 512:1 727:1 1073:1 1108:1 1168:1 2144:1 2151:1 
1.364083388478177 123:1 
1.364083388478177 53:1 169:1 
1.364083388478177 53:1 169:1 
1.364083388478177 313:1 
1.364083388478177 45:1 69:1 2125:1 
1.320814231737912 65:1 80:1 2155:1 
0.1082615925745152 410:1 865:1 898:1 
1.364083388478177 2160:1 
0.495498427521061 2160:1 
1.364083388478177 567:1 590:1 2162:1 2163:1 
0.5054881776283116 184:1 710:1 2164:1 
1.364083388478177 61:1 1475:1 
1.364083388478177 2162:1 
1.364083388478177 53:1 107:1 
1.267694794076779 2162:1 
1.364083388478177 228:1 
1.364083388478177 654:1 
1.364083388478177 57:1 512:1 1028:1 2170:1 2171:1 2172:1 
0.9199018562151098 24:1 
1.364083388478177 107:1 176:1 623:1 1542:1 
0.3329748151577634 38:1 762:1 
0.1480442356087245 76:1 491:1 722:1 905:1 906:1 907:1 918:1 1027:1 1028:1 1030:1 1079:1 
0.8941606055883616 11:1 202:1 2178:1 
0.8249249324293871 716:1 2179:1 
1.144957309122505 1556:1 2182:1 2183:1 
0.7428161018380354 299:1 2184:1 
0.6079110733230836 1080:1 2185:1 2186:1 
0.5844062849849222 304:1 2187:1 
1.364083388478177 8:1 34:1 717:1 1290:1 1313:1 2190:1 2191:1 
1.364083388478177 1181:1 
0.01779169289819058 2162:1 
1.364083388478177 59:1 983:1 2198:1 
1.364083388478177 102:1 616:1 817:1 1454:1 
0.713038364808249 34:1 130:1 349:1 420:1 687:1 824:1 1733:1 
1.364083388478177 77:1 
1.364083388478177 48:1 
1.364083388478177 2199:1 2200:1 
1.364083388478177 50:1 2201:1 
1.364083388478177 395:1 
1.364083388478177 1004:1 2202:1 
0.9668463284739713 14:1 379:1 2204:1 
1.364083388478177 1316:1 1333:1 2205:1 
1.364083388478177 361:1 994:1 1657:1 
1.364083388478177 77:1 
1.364083388478177 77:1 
1.364083388478177 77:1 
0.3384685599476097 806:1 2181:1 
1.364083388478177 77:1 
1.364083388478177 77:1 
1.364083388478177 77:1 
1.035967428436704 233:1 1353:1 2210:1 
1.364083388478177 77:1 
1.364083388478177 555:1 
1.160075665734996 441:1 
0.4283273792963047 59:1 2214:1 2215:1 
0.4693046616817171 2019:1 2210:1 
1.364083388478177 113:1 
1.148131344448384 1222:1 1455:1 2216:1 
1.364083388478177 747:1 
1.364083388478177 2224:1 
1.364083388478177 2227:1 
1.364083388478177 147:1 170:1 455:1 735:1 736:1 1763:1 
1.364083388478177 67:1 1859:1 
0.0007567067657913554 2097:1 
1.364083388478177 53:1 169:1 
0.1592212140628303 2230:1 
1.364083388478177 53:1 169:1 
1.364083388478177 505:1 
1.364083388478177 25:1 71:1 
1.364083388478177 1240:1 
1.364083388478177 391:1 2235:1 
1.098397653858746 102:1 230:1 
1.364083388478177 2236:1 
1.364083388478177 2231:1 
1.364083388478177 184:1 710:1 1190:1 1195:1 1614:1 1897:1 2239:1 2240:1 2241:1 2242:1 
0.02824224632321895 317:1 590:1 621:1 2246:1 2247:1 
1.364083388478177 194:1 237:1 422:1 614:1 1238:1 2193:1 
0.2745680490680783 2250:1 2251:1 
1.364083388478177 2252:1 
0.9015983887665882 2253:1 2254:1 2255:1 
1.364083388478177 861:1 2014:1 2250:1 
1.364083388478177 861:1 2014:1 2250:1 
0.1969843657080858 49:1 899:1 2078:1 2256:1 
0.7506770989508956 344:1 422:1 614:1 
0.1591135197228824 2236:1 
0.1589218889118602 1426:1 
0.04901690811855614 2259:1 
1.027245107947516 554:1 2260:1 
1.364083388478177 2262:1 
0.3623755401584225 194:1 2263:1 
1.364083388478177 2264:1 
0.1922169982193683 64:1 458:1 459:1 471:1 852:1 1144:1 1211:1 
0.3568149425628285 437:1 2267:1 
1.364083388478177 79:1 264:1 265:1 640:1 1021:1 2270:1 
0.4585594385761947 2271:1 
1.364083388478177 2273:1 
0.1388228052731252 170:1 435:1 437:1 590:1 1149:1 2265:1 
1.364083388478177 228:1 229:1 2278:1 
1.364083388478177 1460:1 2259:1 
0.5610040521753799 181:1 1025:1 2279:1 
1.364083388478177 48:1 107:1 285:1 
1.364083388478177 38:1 76:1 491:1 624:1 762:1 905:1 906:1 907:1 918:1 1027:1 1030:1 1079:1 
0.4739714469987601 485:1 2280:1 
0.3131717087409313 1459:1 1690:1 2281:1 2282:1 2283:1 2284:1 2285:1 2286:1 
0.4637883520821584 505:1 
1.364083388478177 396:1 
1.364083388478177 144:1 322:1 343:1 350:1 412:1 1307:1 1454:1 
0.5438102532341643 273:1 343:1 409:1 412:1 1353:1 2289:1 2293:1 
1.364083388478177 429:1 2294:1 
1.364083388478177 27:1 2296:1 
0.7823731676746747 103:1 600:1 935:1 1054:1 1055:1 1785:1 1900:1 1992:1 2300:1 
1.364083388478177 172:1 2231:1 
1.364083388478177 2306:1 
1.364083388478177 2308:1 
0.772868321502281 79:1 703:1 1897:1 
0.6024837658928693 116:1 382:1 1747:1 2315:1 2316:1 2317:1 2318:1 
1.364083388478177 794:1 
1.364083388478177 511:1 
1.364083388478177 2322:1 
1.02514340511575 226:1 1339:1 2323:1 
0.9567052092513515 2324:1 
1.364083388478177 918:1 
1.364083388478177 2325:1 2326:1 
0.8223213065235215 749:1 2329:1 2330:1 
1.364083388478177 228:1 
0.2229168159064763 63:1 66:1 201:1 246:1 452:1 469:1 512:1 2331:1 
1.364083388478177 246:1 471:1 472:1 974:1 1227:1 
1.364083388478177 53:1 169:1 
0.9128441089017171 1686:1 1820:1 2231:1 2336:1 
1.364083388478177 53:1 169:1 
0.2375486794929844 220:1 221:1 246:1 2313:1 2334:1 2337:1 2338:1 2339:1 2340:1 2341:1 2342:1 2343:1 2344:1 
0.1832703081975174 2231:1 
1.364083388478177 2231:1 
0.1847987232378229 915:1 961:1 2231:1 2347:1 
1.364083388478177 102:1 135:1 1887:1 
0.5505769055043098 68:1 2348:1 2349:1 
1.364083388478177 102:1 135:1 
1.364083388478177 151:1 176:1 
1.364083388478177 151:1 176:1 
1.364083388478177 123:1 2350:1 
1.364083388478177 151:1 
1.364083388478177 153:1 278:1 2353:1 2354:1 
1.364083388478177 1025:1 2279:1 
1.364083388478177 2362:1 
0.630350797972493 669:1 2363:1 
1.364083388478177 447:1 
1.364083388478177 2364:1 
0.1928592702373223 2356:1 2365:1 
0.3142376746292267 66:1 343:1 843:1 1558:1 2366:1 2367:1 
1.073183077988308 175:1 1927:1 
0.1276420671882141 590:1 736:1 972:1 1384:1 2372:1 2373:1 
0.2139923832771569 956:1 1683:1 
1.364083388478177 107:1 229:1 521:1 2377:1 
0.6485667593904212 151:1 1560:1 1896:1 
0.5771543842549637 13:1 27:1 1928:1 2244:1 2293:1 2383:1 
0.5347160897758518 68:1 2384:1 2385:1 
1.364083388478177 176:1 2389:1 
1.364083388478177 103:1 104:1 651:1 652:1 
1.364083388478177 103:1 
0.3219447780507341 194:1 
0.6069644296746374 71:1 103:1 153:1 206:1 475:1 512:1 651:1 652:1 2390:1 
1.364083388478177 71:1 103:1 
1.364083388478177 63:1 103:1 340:1 612:1 1079:1 2394:1 
1.364083388478177 27:1 61:1 2396:1 2397:1 
0.5296522176247143 102:1 236:1 396:1 2399:1 
1.364083388478177 1058:1 1059:1 2403:1 
0.127500508858504 587:1 598:1 836:1 1055:1 2401:1 2404:1 
0.03069808907724696 593:1 1002:1 1185:1 1227:1 2333:1 2404:1 2405:1 2406:1 
1.364083388478177 508:1 
0.3887586924256117 2408:1 
1.140772637759359 2410:1 2411:1 
1.071158062763758 194:1 640:1 2399:1 2413:1 2414:1 
0.2706731727044486 1655:1 2307:1 2399:1 2415:1 
1.364083388478177 53:1 169:1 
1.364083388478177 292:1 
1.364083388478177 699:1 
1.237889570363588 1655:1 2307:1 2399:1 2415:1 
1.364083388478177 53:1 169:1 
1.364083388478177 107:1 2417:1 2418:1 
0.2512559601867411 313:1 
1.364083388478177 273:1 635:1 1491:1 2422:1 
0.5886956322881144 669:1 958:1 2423:1 2424:1 2425:1 2426:1 
1.185677463105091 34:1 485:1 2427:1 
1.364083388478177 544:1 660:1 
1.364083388478177 1124:1 2427:1 2428:1 
1.364083388478177 396:1 544:1 
1.364083388478177 234:1 322:1 496:1 
1.364083388478177 124:1 175:1 527:1 528:1 531:1 2433:1 2434:1 2435:1 2436:1 2437:1 2438:1 2439:1 2440:1 
1.364083388478177 854:1 
0.3870377531512166 34:1 458:1 900:1 2441:1 
0.6033316388794666 25:1 548:1 854:1 2441:1 2442:1 
1.324023230910764 275:1 853:1 2417:1 2418:1 2444:1 
1.364083388478177 90:1 761:1 2445:1 2446:1 
1.022522822547672 1223:1 1668:1 2449:1 2450:1 2451:1 
0.5989908144657208 377:1 885:1 2452:1 2453:1 
1.364083388478177 1393:1 2454:1 
1.364083388478177 395:1 
1.364083388478177 745:1 1606:1 2078:1 2456:1 
0.6107771717348187 745:1 1606:1 2078:1 2456:1 
1.364083388478177 883:1 
1.364083388478177 955:1 
0.6059961655964962 1068:1 
0.849708098024705 63:1 460:1 2042:1 
1.364083388478177 27:1 2457:1 
1.364083388478177 69:1 107:1 
1.364083388478177 854:1 
1.364083388478177 68:1 104:1 2458:1 
1.364083388478177 68:1 104:1 2458:1 
0.08290778654090282 1608:1 2459:1 
1.26363233277415 2460:1 
1.136530818170416 137:1 184:1 2175:1 2461:1 
0.4508991405829869 107:1 1074:1 2255:1 
1.364083388478177 2463:1 2464:1 
1.261335697103875 37:1 137:1 1310:1 2466:1 
1.028986772825976 145:1 471:1 496:1 620:1 621:1 
1.364083388478177 355:1 
1.364083388478177 2468:1 
0.7255864231536382 1911:1 2352:1 
1.364083388478177 2472:1 
0.1468483805580266 625:1 2474:1 2475:1 
1.134030172215734 107:1 1074:1 2408:1 2478:1 
0.5040857402785878 185:1 
0.8012973638577049 2480:1 
1.364083388478177 1058:1 
0.9994676680983877 529:1 853:1 1025:1 2479:1 
1.364083388478177 107:1 625:1 2101:1 
1.364083388478177 908:1 
0.07285208712473035 763:1 2487:1 
1.364083388478177 2488:1 2489:1 
0.6547791725160427 2486:1 
1.364083388478177 2486:1 
1.364083388478177 77:1 120:1 122:1 474:1 1809:1 2483:1 2490:1 2491:1 
1.364083388478177 107:1 
1.055872283877362 27:1 77:1 161:1 2490:1 
1.364083388478177 68:1 107:1 527:1 824:1 
1.364083388478177 768:1 
0.1589563908917644 2501:1 
0.8413635971485747 229:1 2506:1 2507:1 
0.8044819817854792 673:1 2509:1 
0.9319031584031151 2444:1 
1.364083388478177 723:1 2510:1 2511:1 
0.7264056010703651 174:1 
1.364083388478177 174:1 
0.01631960769574693 34:1 350:1 499:1 621:1 1860:1 2516:1 2517:1 2518:1 
1.364083388478177 2519:1 
1.364083388478177 174:1 
1.364083388478177 2520:1 
1.364083388478177 641:1 736:1 2521:1 2522:1 2523:1 
0.3179867607097592 658:1 966:1 
0.4995852169418217 159:1 701:1 
1.364083388478177 46:1 60:1 165:1 747:1 
1.364083388478177 2533:1 
1.364083388478177 271:1 
0.1590132905250379 2534:1 
0.2609062758581936 17:1 197:1 487:1 2538:1 2539:1 
1.364083388478177 184:1 
1.364083388478177 71:1 
1.364083388478177 720:1 1872:1 2454:1 
0.3923556748427508 2546:1 2547:1 
0.1592485772124239 2548:1 
1.177144072801067 1574:1 2053:1 
1.364083388478177 422:1 
0.1665357294784042 658:1 2532:1 
1.364083388478177 71:1 197:1 1130:1 1133:1 1479:1 2550:1 
0.8976797886718488 2553:1 2554:1 2555:1 
0.1270948076822507 44:1 1860:1 
1.364083388478177 321:1 2532:1 
1.364083388478177 34:1 281:1 561:1 898:1 1340:1 
1.364083388478177 34:1 130:1 349:1 420:1 687:1 824:1 1733:1 
1.364083388478177 915:1 1860:1 2558:1 
1.364083388478177 437:1 458:1 978:1 2292:1 
1.364083388478177 34:1 153:1 985:1 1088:1 
0.2187181716913795 239:1 255:1 356:1 1860:1 
1.364083388478177 112:1 148:1 1703:1 2567:1 
0.4090010196461324 2551:1 
1.051067821804291 2551:1 
1.364083388478177 269:1 425:1 1674:1 2573:1 2574:1 2575:1 2576:1 
1.364083388478177 102:1 131:1 2577:1 
1.364083388478177 175:1 2578:1 
1.364083388478177 222:1 874:1 1810:1 2583:1 
1.364083388478177 102:1 131:1 624:1 2563:1 2587:1 
1.364083388478177 69:1 102:1 437:1 573:1 665:1 817:1 972:1 2335:1 
1.364083388478177 2589:1 
1.364083388478177 53:1 169:1 
1.364083388478177 184:1 1929:1 2377:1 
1.364083388478177 147:1 561:1 
0.1381378361347565 447:1 1104:1 1105:1 
1.364083388478177 107:1 284:1 529:1 777:1 
1.364083388478177 2596:1 2600:1 
0.6807913243258176 18:1 22:1 23:1 133:1 321:1 800:1 2563:1 
1.364083388478177 355:1 
1.364083388478177 7:1 
1.364083388478177 2042:1 
1.364083388478177 233:1 447:1 1016:1 
1.364083388478177 229:1 631:1 2601:1 
1.364083388478177 16:1 147:1 153:1 1218:1 2042:1 
0.7310897899599386 34:1 148:1 1004:1 2605:1 2606:1 
1.364083388478177 508:1 
0.1589649352833616 2607:1 
0.1604085355998607 1163:1 
0.5538000061293715 2601:1 
1.364083388478177 2601:1 
1.364083388478177 2601:1 
1.364083388478177 2601:1 
0.3536444570563914 202:1 409:1 2149:1 2619:1 
1.364083388478177 323:1 932:1 
1.364083388478177 1179:1 2626:1 2628:1 2629:1 
0.08531679668673833 1099:1 2626:1 2628:1 2631:1 2632:1 
1.364083388478177 1179:1 2626:1 2628:1 2633:1 
1.215704328866312 339:1 1179:1 2626:1 2628:1 
0.324991592569025 227:1 1055:1 2626:1 2628:1 2636:1 
1.364083388478177 107:1 1326:1 2628:1 
1.168064950600931 97:1 153:1 217:1 589:1 2143:1 2628:1 2631:1 2665:1 2666:1 
0.717951266589576 271:1 604:1 1070:1 2161:1 2527:1 2626:1 2629:1 2667:1 2668:1 
1.364083388478177 124:1 343:1 557:1 1150:1 1219:1 1642:1 1869:1 2628:1 2673:1 
1.306420381387262 184:1 292:1 343:1 1282:1 1955:1 2625:1 2626:1 2628:1 
0.6259637299346559 269:1 606:1 1236:1 1994:1 2619:1 2695:1 2702:1 
1.063902257049441 79:1 2695:1 
1.364083388478177 19:1 229:1 
1.364083388478177 2733:1 
1.364083388478177 2739:1 2740:1 2741:1 
1.364083388478177 47:1 557:1 
1.364083388478177 2791:1 
0.3678937328986478 13:1 165:1 204:1 777:1 837:1 1339:1 1792:1 2687:1 2692:1 2804:1 
1.364083388478177 2798:1 
0.6618166889122328 988:1 2798:1 2834:1 
1.364083388478177 1946:1 2839:1 
1.364083388478177 223:1 224:1 225:1 439:1 458:1 852:1 989:1 1143:1 1762:1 2842:1 2843:1 
1.364083388478177 589:1 2798:1 
0.2310593069218612 213:1 214:1 275:1 2483:1 2612:1 2798:1 2801:1 2816:1 2855:1 2856:1 
0.0167071747273471 57:1 64:1 458:1 459:1 593:1 610:1 975:1 980:1 2798:1 2864:1 
1.364083388478177 107:1 134:1 
1.364083388478177 292:1 2798:1 
1.364083388478177 2798:1 
1.364083388478177 2798:1 
1.364083388478177 107:1 311:1 
1.364083388478177 2798:1 2876:1 
1.364083388478177 561:1 859:1 1904:1 2876:1 
0.4015651638457516 2797:1 
1.364083388478177 2797:1 
1.364083388478177 2797:1 
0.1948978475073889 202:1 397:1 466:1 523:1 1904:1 2876:1 
0.7874578731386265 2893:1 
0.1817127218667134 2888:1 
1.364083388478177 437:1 494:1 2894:1 
1.364083388478177 19:1 22:1 23:1 2692:1 
0.3735646443498992 465:1 469:1 970:1 1162:1 2630:1 2703:1 2738:1 2916:1 2921:1 
0.2205647003079731 252:1 437:1 1070:1 1750:1 1939:1 2919:1 2926:1 2935:1 2936:1 2937:1 
0.4658327135643373 2958:1 
0.06633172596908321 56:1 640:1 736:1 1375:1 1930:1 2903:1 2978:1 2980:1 2981:1 2982:1 2983:1 
0.3839454533147851 57:1 271:1 444:1 465:1 606:1 610:1 2149:1 2903:1 3011:1 
1.023620765579228 58:1 121:1 232:1 557:1 1364:1 1522:1 1944:1 2676:1 2967:1 
1.364083388478177 620:1 621:1 2967:1 
1.364083388478177 84:1 3033:1 
0.6706760400243569 11:1 1435:1 3034:1 3035:1 3036:1 
0.8015364667370297 416:1 736:1 1055:1 1546:1 3038:1 3040:1 3041:1 3042:1 
1.155899429987705 170:1 457:1 758:1 2395:1 2812:1 3047:1 3059:1 3061:1 3062:1 3063:1 
1.364083388478177 213:1 214:1 1070:1 2294:1 2395:1 3071:1 
0.8718728238463559 85:1 361:1 1119:1 1289:1 2197:1 2395:1 3038:1 3069:1 3082:1 
0.6464546709756001 123:1 183:1 908:1 3084:1 3085:1 3086:1 3087:1 
0.1589249368085207 3088:1 
1.259156530617909 620:1 621:1 3094:1 
1.364083388478177 71:1 104:1 1131:1 
0.2820857346256755 302:1 465:1 466:1 606:1 970:1 974:1 1231:1 1381:1 3114:1 
1.364083388478177 57:1 223:1 271:1 308:1 477:1 1131:1 1645:1 1760:1 
1.364083388478177 1131:1 1226:1 1460:1 2248:1 2719:1 2833:1 2872:1 
0.2666965700535278 71:1 320:1 589:1 1131:1 1142:1 3025:1 
1.364083388478177 71:1 1131:1 3127:1 
0.01236570389767705 87:1 303:1 606:1 1131:1 1451:1 2149:1 2619:1 2677:1 2678:1 
1.364083388478177 19:1 71:1 1131:1 
1.364083388478177 35:1 1447:1 
1.364083388478177 11:1 107:1 
1.364083388478177 61:1 370:1 
1.364083388478177 27:1 45:1 680:1 3137:1 
1.26808672743153 94:1 2628:1 3138:1 3146:1 
0.1408285886744486 190:1 280:1 331:1 744:1 1925:1 2628:1 2646:1 2647:1 3147:1 3148:1 3149:1 3150:1 3151:1 3152:1 
0.6538219128527424 215:1 604:1 736:1 1588:1 2612:1 2655:1 2925:1 3153:1 3154:1 3155:1 
0.3723259886202278 176:1 477:1 589:1 625:1 995:1 2042:1 2651:1 2745:1 3152:1 3160:1 
1.364083388478177 51:1 680:1 3137:1 3171:1 
1.364083388478177 97:1 258:1 790:1 2243:1 3172:1 3173:1 3174:1 
0.2246093076296235 234:1 3182:1 
1.364083388478177 165:1 
1.364083388478177 511:1 
1.035190531714623 517:1 2149:1 3186:1 
0.1928831142148087 119:1 525:1 3186:1 3201:1 3202:1 3203:1 3204:1 
0.3404960377629203 525:1 726:1 1055:1 1159:1 3206:1 3219:1 3220:1 3221:1 
1.364083388478177 736:1 
1.364083388478177 736:1 744:1 1159:1 2541:1 3227:1 3228:1 3229:1 
0.1178923018585774 3186:1 3234:1 
1.364083388478177 3236:1 
1.364083388478177 434:1 2702:1 2719:1 
1.364083388478177 13:1 56:1 416:1 451:1 752:1 753:1 1846:1 1945:1 
1.364083388478177 79:1 3186:1 
0.873428494466709 230:1 355:1 560:1 3258:1 3259:1 3260:1 
0.6935489248655703 6:1 68:1 640:1 672:1 822:1 900:1 2238:1 3261:1 3262:1 3263:1 
1.14981813965207 372:1 480:1 1904:1 2104:1 3087:1 
0.7363079478324951 94:1 336:1 448:1 501:1 526:1 555:1 710:1 1522:1 3008:1 
1.364083388478177 1349:1 
1.364083388478177 2576:1 3101:1 3270:1 
0.7697924823975323 555:1 
1.364083388478177 555:1 
1.364083388478177 79:1 2274:1 
1.364083388478177 555:1 
1.364083388478177 1179:1 3271:1 
1.364083388478177 555:1 
1.364083388478177 555:1 
0.9314188089093246 1179:1 3272:1 
1.364083388478177 555:1 
1.364083388478177 555:1 
1.364083388478177 555:1 
1.363705781095498 555:1 
0.09550941670472876 451:1 555:1 2785:1 3267:1 3279:1 3280:1 
0.5610090472489503 57:1 458:1 573:1 610:1 990:1 1143:1 1228:1 1811:1 3072:1 3292:1 
0.2365440345742618 678:1 736:1 1063:1 3296:1 
1.260203581175931 57:1 261:1 604:1 744:1 1207:1 1878:1 2070:1 2276:1 3029:1 3030:1 3267:1 
0.5549395485431654 57:1 1383:1 1941:1 2805:1 2997:1 3267:1 3303:1 3304:1 
1.364083388478177 55:1 107:1 184:1 609:1 657:1 1178:1 1332:1 1458:1 3313:1 3314:1 
0.9762049408298538 107:1 118:1 311:1 336:1 555:1 793:1 1529:1 2078:1 3267:1 
0.9683162018743185 3025:1 3318:1 
0.009587086852758412 1181:1 2908:1 2909:1 
0.1667126444394627 104:1 526:1 689:1 1310:1 2120:1 3241:1 3335:1 
0.8323179523963666 10:1 85:1 228:1 517:1 1584:1 2395:1 2628:1 2635:1 2875:1 3341:1 
0.8933343024676584 343:1 345:1 800:1 2395:1 2628:1 2860:1 
0.6668723348586986 13:1 165:1 222:1 273:1 274:1 689:1 
1.364083388478177 317:1 529:1 951:1 1792:1 1849:1 2245:1 
1.152300294720786 223:1 225:1 727:1 2040:1 3352:1 3360:1 3368:1 
0.04511247811459718 17:1 214:1 292:1 1450:1 2724:1 2801:1 2874:1 3352:1 
1.263980995709659 57:1 225:1 458:1 670:1 826:1 2933:1 3019:1 3352:1 3363:1 3366:1 3392:1 
0.1308953461783803 305:1 332:1 600:1 1137:1 2572:1 2595:1 2665:1 3401:1 3402:1 
0.39948222699263 37:1 323:1 3407:1 
0.9401065652882804 3408:1 
0.3379818609498263 94:1 169:1 633:1 1505:1 1522:1 1974:1 2521:1 3409:1 3410:1 
1.364083388478177 970:1 3417:1 3418:1 
1.364083388478177 1827:1 
0.09155603799710399 122:1 521:1 1159:1 3227:1 3426:1 
1.364083388478177 340:1 2653:1 
0.07718474285421298 27:1 452:1 492:1 593:1 981:1 996:1 1157:1 2149:1 2704:1 3426:1 3444:1 
0.6027682177172691 988:1 990:1 1046:1 1156:1 1381:1 1599:1 3383:1 3426:1 
1.364083388478177 677:1 3426:1 
0.2670037772641143 55:1 107:1 138:1 609:1 657:1 1006:1 1007:1 1332:1 1458:1 3313:1 3314:1 
0.7512692395893038 3426:1 
1.364083388478177 3426:1 
0.3908878717131074 261:1 340:1 812:1 1108:1 1166:1 2646:1 2647:1 3456:1 3457:1 3458:1 
0.1475778978238012 189:1 678:1 725:1 874:1 1055:1 2628:1 2754:1 2822:1 2937:1 3460:1 
0.2353643924636792 921:1 995:1 1003:1 1070:1 1795:1 2655:1 2913:1 3453:1 3464:1 
0.3784355706749882 2628:1 3045:1 3453:1 
0.6488061339722004 561:1 649:1 667:1 2931:1 3471:1 3472:1 3473:1 3474:1 3475:1 
0.3257001220852902 977:1 1526:1 2143:1 2544:1 2655:1 3378:1 3482:1 3483:1 
1.364083388478177 121:1 1234:1 2984:1 
1.364083388478177 521:1 
0.1589265596562057 3179:1 
1.364083388478177 1481:1 2203:1 
1.364083388478177 512:1 540:1 710:1 1006:1 1087:1 2653:1 
1.364083388478177 153:1 533:1 1128:1 3503:1 
1.364083388478177 225:1 264:1 472:1 557:1 1143:1 3399:1 3514:1 
1.364083388478177 367:1 539:1 593:1 1504:1 1813:1 
1.364083388478177 79:1 3503:1 
1.364083388478177 185:1 
0.1589722399012992 3539:1 
1.364083388478177 27:1 90:1 168:1 
1.364083388478177 312:1 578:1 3494:1 
1.364083388478177 50:1 341:1 409:1 
1.364083388478177 66:1 310:1 401:1 3342:1 
1.364083388478177 165:1 
0.4813569421676304 3556:1 3557:1 3558:1 3559:1 3560:1 
0.0222596051628933 22:1 23:1 107:1 531:1 1131:1 1624:1 2692:1 3567:1 3568:1 
0.2414014038606887 236:1 295:1 624:1 1055:1 2398:1 2687:1 3571:1 3572:1 
0.3361018918560144 11:1 12:1 19:1 22:1 23:1 231:1 712:1 1131:1 2687:1 2692:1 
0.1415635656373745 1131:1 1445:1 3270:1 3586:1 
1.364083388478177 736:1 1131:1 
0.06367762338235293 905:1 981:1 990:1 1131:1 1811:1 2678:1 2691:1 2853:1 3591:1 
0.1634140150323615 512:1 1131:1 1137:1 2653:1 2656:1 2941:1 
0.6879277627634488 170:1 260:1 606:1 988:1 2722:1 3430:1 3592:1 3593:1 
0.004517782929684729 46:1 320:1 589:1 1131:1 3603:1 
1.364083388478177 292:1 
1.364083388478177 858:1 
1.364083388478177 1849:1 3606:1 
0.5075856890710665 113:1 
0.9531432634011119 53:1 153:1 417:1 726:1 1055:1 
0.9553717254831048 294:1 805:1 807:1 2692:1 3068:1 
1.364083388478177 3629:1 
0.3641916017040854 45:1 46:1 51:1 137:1 328:1 900:1 1310:1 
1.364083388478177 27:1 165:1 
0.3040063753923713 63:1 79:1 452:1 593:1 612:1 1472:1 2141:1 3663:1 3664:1 
0.2112312669791483 593:1 1364:1 2674:1 2816:1 2856:1 3639:1 3666:1 3667:1 
0.3977413600842456 147:1 593:1 996:1 1642:1 1652:1 2676:1 2724:1 2728:1 3639:1 3653:1 3661:1 
1.364083388478177 147:1 369:1 593:1 1215:1 2042:1 2372:1 2724:1 2865:1 3661:1 3674:1 
1.364083388478177 341:1 2997:1 3639:1 
0.4362889736291264 57:1 223:1 975:1 2719:1 3430:1 3639:1 
1.364083388478177 79:1 3639:1 
1.364083388478177 521:1 
1.364083388478177 18:1 68:1 180:1 1085:1 2069:1 
0.1924597852590556 509:1 510:1 
0.746047331713269 48:1 202:1 900:1 1687:1 2463:1 2611:1 3325:1 3689:1 
1.364083388478177 1349:1 
1.364083388478177 27:1 1686:1 
0.1560680385858309 14:1 206:1 458:1 1502:1 2724:1 2816:1 2845:1 2856:1 2874:1 3447:1 3690:1 
1.364083388478177 292:1 1475:1 
1.364083388478177 79:1 3690:1 
0.9448764145294426 525:1 
0.8269036862412895 1006:1 1007:1 
1.364083388478177 517:1 1576:1 
1.364083388478177 512:1 2653:1 3737:1 
0.6350726409656987 43:1 56:1 446:1 988:1 1168:1 2676:1 2709:1 2816:1 2850:1 3737:1 3741:1 3742:1 
0.3241388608743179 224:1 587:1 610:1 1099:1 1159:1 1511:1 2245:1 3761:1 3762:1 
0.5892673176367766 218:1 340:1 557:1 857:1 1846:1 2197:1 3461:1 
0.5700364779760034 125:1 232:1 593:1 979:1 1346:1 3764:1 3765:1 
1.364083388478177 3770:1 
1.364083388478177 3777:1 
1.364083388478177 689:1 1657:1 
1.364083388478177 1430:1 
1.364083388478177 995:1 3781:1 
1.364083388478177 176:1 808:1 900:1 1049:1 2687:1 3783:1 
1.364083388478177 16:1 422:1 614:1 2634:1 2989:1 3611:1 
0.9134186099256373 1133:1 3184:1 3185:1 3785:1 
1.142184770184964 622:1 1421:1 2798:1 
0.4916149602270004 253:1 469:1 744:1 876:1 1143:1 2798:1 
1.364083388478177 2798:1 
0.3606202218933536 458:1 589:1 2798:1 3007:1 
0.6140917072248598 589:1 871:1 2785:1 2798:1 3798:1 
0.756025083041952 876:1 1143:1 2164:1 2798:1 3109:1 3671:1 
1.364083388478177 214:1 589:1 876:1 1143:1 2720:1 3025:1 
1.110971347920413 250:1 264:1 472:1 1001:1 1878:1 3016:1 3803:1 3804:1 
1.364083388478177 57:1 222:1 573:1 588:1 640:1 995:1 1073:1 3798:1 
1.364083388478177 2798:1 
1.364083388478177 232:1 557:1 2798:1 
1.364083388478177 292:1 
0.3793376510725323 228:1 589:1 2798:1 
1.364083388478177 107:1 623:1 2798:1 
1.364083388478177 84:1 205:1 1520:1 2798:1 
0.7721839234127205 1006:1 1007:1 1019:1 1788:1 2798:1 3241:1 3680:1 3817:1 
1.364083388478177 79:1 123:1 
1.364083388478177 107:1 122:1 562:1 710:1 1447:1 
1.276422225996344 167:1 288:1 900:1 2634:1 2989:1 
1.364083388478177 313:1 
1.364083388478177 1447:1 
1.364083388478177 1006:1 1007:1 
1.364083388478177 2798:1 
0.4849511097234675 232:1 496:1 1918:1 2151:1 2630:1 3060:1 3396:1 3821:1 
0.5430967737800052 119:1 184:1 521:1 1558:1 2628:1 2642:1 2748:1 2749:1 2767:1 3064:1 3065:1 3824:1 
0.2884277722485787 1229:1 1656:1 2631:1 2754:1 2939:1 3825:1 
0.8539101375674972 84:1 243:1 573:1 1207:1 2769:1 2950:1 3139:1 3140:1 3829:1 
0.08891262619276176 15:1 264:1 437:1 2205:1 2221:1 2630:1 2672:1 3820:1 3830:1 
1.364083388478177 521:1 
1.036576571339689 3838:1 
1.356499477917408 3839:1 
1.364083388478177 1393:1 2454:1 
0.3034721700555483 57:1 996:1 1375:1 1651:1 2826:1 2983:1 3841:1 3857:1 
0.08461643870169611 458:1 996:1 1648:1 1651:1 2762:1 2818:1 3841:1 3853:1 
0.8901296511977599 439:1 458:1 650:1 1332:1 3841:1 
0.6506751799373518 890:1 1393:1 3841:1 
0.6191964036060049 223:1 227:1 587:1 610:1 1383:1 2393:1 2823:1 3067:1 3841:1 3869:1 
0.2520292261851776 57:1 266:1 573:1 640:1 976:1 989:1 1070:1 1639:1 2719:1 2991:1 3513:1 
0.3746451758962803 14:1 458:1 606:1 610:1 725:1 1169:1 1814:1 2082:1 3016:1 
0.3618698164978241 3876:1 
1.364083388478177 1006:1 1007:1 
1.364083388478177 2295:1 3879:1 
0.1246513923960636 120:1 170:1 189:1 264:1 573:1 1646:1 1814:1 3038:1 3039:1 3073:1 3889:1 
0.1342997902177281 323:1 2218:1 
0.4628406893510844 480:1 719:1 742:1 
0.1791226779964713 19:1 22:1 23:1 2620:1 2687:1 2692:1 
0.4512893086887397 2735:1 
0.1646262834022722 290:1 948:1 3907:1 
1.364083388478177 590:1 998:1 
1.043074075358288 463:1 793:1 1700:1 2687:1 3498:1 3783:1 3919:1 
0.6815237241317031 327:1 606:1 610:1 2719:1 3434:1 3912:1 3930:1 
0.9612560130816752 222:1 665:1 744:1 996:1 3912:1 3932:1 3933:1 
0.1419323065490461 66:1 201:1 240:1 744:1 979:1 3912:1 
0.9356331852381271 3912:1 3948:1 3949:1 
1.364083388478177 292:1 
0.52383967376962 674:1 857:1 1291:1 3395:1 3487:1 3655:1 
1.364083388478177 437:1 2894:1 
1.364083388478177 599:1 
0.9455815545008723 165:1 1129:1 1548:1 1900:1 2611:1 
0.6839225957274797 317:1 529:1 1177:1 1478:1 1809:1 3960:1 
0.8798687067520995 53:1 1792:1 2081:1 3130:1 
0.4298091283204462 561:1 
1.278900444316958 440:1 1751:1 2216:1 3962:1 
0.5223150474113947 213:1 214:1 556:1 2692:1 3962:1 
0.9439034992505088 1037:1 2719:1 3962:1 
0.696601927814258 250:1 556:1 995:1 3379:1 3962:1 
0.2640205343874328 369:1 436:1 670:1 990:1 1063:1 1143:1 1205:1 2807:1 2942:1 
1.364083388478177 59:1 222:1 225:1 250:1 556:1 2831:1 3962:1 3988:1 3989:1 
0.3723805761098966 334:1 998:1 1322:1 2676:1 3990:1 
0.4331006946227494 1108:1 
0.1592518616075188 3997:1 
1.364083388478177 11:1 19:1 72:1 3962:1 
0.2148408138141517 198:1 368:1 557:1 1168:1 1169:1 3998:1 
1.364083388478177 11:1 72:1 
0.1381010623740154 34:1 1283:1 1495:1 4000:1 
0.4076033953992569 48:1 150:1 156:1 2687:1 2722:1 2971:1 3593:1 4002:1 4003:1 
0.5432465936434487 3638:1 4006:1 
0.3824472379682834 190:1 463:1 599:1 832:1 4007:1 
0.4403864861870104 1711:1 4009:1 4010:1 
1.364083388478177 68:1 137:1 350:1 789:1 4013:1 
0.4795050356794602 119:1 606:1 1918:1 2628:1 2635:1 2641:1 2642:1 2646:1 2647:1 2659:1 
0.5052989755299686 122:1 124:1 343:1 446:1 477:1 1811:1 2024:1 2858:1 3244:1 4024:1 4025:1 
1.201541765496281 190:1 225:1 725:1 1041:1 1168:1 1169:1 2041:1 2646:1 2647:1 3167:1 3881:1 4027:1 
0.04741457090761687 15:1 213:1 214:1 469:1 744:1 1213:1 1229:1 2269:1 2628:1 2672:1 2921:1 4029:1 
1.364083388478177 43:1 573:1 
1.364083388478177 446:1 3620:1 4036:1 4039:1 4040:1 
0.4131435662790546 4036:1 4043:1 4044:1 
0.06802768646193255 121:1 589:1 2216:1 3631:1 4036:1 4040:1 4045:1 
0.01212934518291695 610:1 979:1 1161:1 1652:1 4048:1 4049:1 
0.5901380601382196 369:1 557:1 561:1 730:1 2216:1 3631:1 4036:1 4050:1 4051:1 4052:1 
0.7773927421233305 4036:1 4060:1 
0.1579708407877195 925:1 
1.364083388478177 170:1 845:1 1646:1 2630:1 2754:1 2786:1 2842:1 2942:1 
0.9763825099888089 97:1 670:1 1055:1 2630:1 4086:1 
1.364083388478177 1006:1 1007:1 
1.33356220498658 23:1 3170:1 4097:1 
0.7350837825563614 36:1 428:1 704:1 988:1 1129:1 1352:1 
1.364083388478177 2791:1 4105:1 
1.364083388478177 165:1 
1.364083388478177 147:1 557:1 2222:1 
1.364083388478177 153:1 437:1 1151:1 
1.364083388478177 222:1 225:1 979:1 1073:1 2709:1 2924:1 2978:1 4122:1 
1.364083388478177 27:1 2430:1 2967:1 4125:1 
0.1885689805522153 1064:1 1536:1 1537:1 1780:1 
0.4877034480612962 1522:1 
1.364083388478177 1006:1 1007:1 
1.364083388478177 68:1 391:1 
0.8578464372337679 504:1 1777:1 
0.3836245945405787 44:1 1705:1 1820:1 2707:1 2903:1 2909:1 3167:1 3329:1 4139:1 
1.364083388478177 1349:1 
1.364083388478177 4145:1 4146:1 4147:1 
1.364083388478177 4148:1 
0.7914792956828142 1388:1 2639:1 3007:1 4153:1 
0.3915454871705957 223:1 440:1 573:1 744:1 996:1 3096:1 4145:1 4159:1 
0.9912122159333451 57:1 455:1 1158:1 2277:1 2612:1 2719:1 2930:1 3860:1 
1.364083388478177 57:1 461:1 990:1 1073:1 1228:1 1642:1 1854:1 4145:1 4164:1 
0.1904493019446974 243:1 472:1 573:1 610:1 1207:1 1266:1 2396:1 2719:1 
0.1566146170383753 249:1 573:1 990:1 2719:1 2925:1 2942:1 3217:1 4174:1 
0.5144279720151363 222:1 264:1 455:1 458:1 557:1 990:1 1258:1 1383:1 4145:1 4175:1 
1.364083388478177 180:1 866:1 1828:1 
0.7803093700102223 57:1 261:1 455:1 471:1 610:1 826:1 988:1 989:1 990:1 1211:1 
0.1586475558141546 4179:1 
0.06011982008571311 1624:1 1655:1 2612:1 3129:1 
1.364083388478177 507:1 1395:1 2245:1 
1.364083388478177 3090:1 3171:1 4181:1 
0.3564210689990564 104:1 184:1 710:1 761:1 2164:1 4183:1 
1.364083388478177 1006:1 1007:1 
0.6666339477731866 641:1 1440:1 2529:1 2595:1 2735:1 2982:1 
1.046350706659485 373:1 549:1 710:1 900:1 1206:1 4142:1 4143:1 4185:1 4186:1 4187:1 
1.364083388478177 225:1 273:1 437:1 725:1 875:1 1075:1 2143:1 3140:1 
0.07611271483165855 162:1 199:1 589:1 711:1 2248:1 2628:1 3760:1 4196:1 4197:1 
0.6823032711731217 124:1 137:1 343:1 758:1 935:1 1991:1 2151:1 2793:1 4203:1 
1.276905024272805 165:1 180:1 866:1 1828:1 1829:1 1844:1 1845:1 1846:1 4211:1 
1.364083388478177 703:1 916:1 
0.4905552403065377 2786:1 3905:1 4068:1 4103:1 4104:1 
1.364083388478177 287:1 2735:1 
0.3846788726051759 104:1 690:1 3241:1 3398:1 3487:1 4214:1 
0.2361726980232034 812:1 2677:1 2722:1 4216:1 4224:1 4227:1 4229:1 
1.364083388478177 1177:1 2042:1 2865:1 4216:1 4225:1 4239:1 
1.364083388478177 471:1 557:1 620:1 621:1 4216:1 
1.364083388478177 313:1 
0.1640385723550891 524:1 1488:1 2258:1 2735:1 
0.9744646098255125 523:1 557:1 662:1 1892:1 4277:1 4278:1 4279:1 4280:1 
0.4898706834178603 346:1 
1.364083388478177 391:1 882:1 
0.424061567996131 17:1 2687:1 2692:1 3499:1 4291:1 4292:1 4293:1 4294:1 4295:1 
1.364083388478177 153:1 4296:1 
0.1589466138743499 4297:1 
0.1335379025590877 202:1 557:1 674:1 1844:1 1845:1 1846:1 1854:1 4298:1 4299:1 4300:1 
1.364083388478177 84:1 1520:1 
1.364083388478177 1842:1 
0.8297961030539275 4304:1 
0.6932773663035047 543:1 4304:1 
1.364083388478177 11:1 4306:1 
1.364083388478177 184:1 333:1 728:1 1530:1 1705:1 4311:1 
0.5271473428582127 267:1 446:1 589:1 988:1 3096:1 4306:1 4312:1 
0.3980378382019041 66:1 606:1 610:1 988:1 1557:1 2719:1 2835:1 2869:1 4325:1 
0.8831611059693192 394:1 2397:1 3610:1 4306:1 
1.364083388478177 313:1 
1.364083388478177 113:1 
0.4669688670854647 225:1 463:1 557:1 593:1 1740:1 2275:1 2328:1 2630:1 2721:1 3038:1 4336:1 4337:1 
0.8985876581704521 68:1 437:1 557:1 845:1 1003:1 1445:1 4038:1 4328:1 4339:1 4340:1 
0.4066515272761962 48:1 812:1 1785:1 1992:1 2216:1 3038:1 3047:1 4079:1 
0.0004004526608513874 225:1 390:1 1082:1 3038:1 3082:1 3376:1 4290:1 
0.1817105862092717 557:1 1459:1 2767:1 2919:1 3038:1 3039:1 3047:1 3078:1 4335:1 
1.364083388478177 346:1 
1.364083388478177 294:1 996:1 3093:1 3170:1 4290:1 
1.235805743064451 28:1 409:1 549:1 702:1 900:1 3177:1 4013:1 
1.227143042716713 11:1 361:1 643:1 1488:1 4290:1 4360:1 4361:1 4362:1 
0.8702740680793448 4290:1 4363:1 
1.215895405271645 153:1 509:1 1430:1 1446:1 2622:1 
1.364083388478177 4366:1 
0.7637793835006519 234:1 4366:1 
0.5434982668561248 4368:1 
1.364083388478177 643:1 990:1 1469:1 1740:1 2328:1 3945:1 4366:1 4369:1 
0.08770618180792047 147:1 369:1 557:1 593:1 990:1 1209:1 2544:1 2722:1 2865:1 4371:1 
0.09455316210406731 1213:1 4372:1 4373:1 4374:1 4375:1 4376:1 4377:1 4378:1 4379:1 4380:1 
1.364083388478177 57:1 64:1 119:1 2001:1 4386:1 4387:1 4388:1 4389:1 4390:1 
1.364083388478177 4395:1 
0.1260812856296606 119:1 1027:1 2130:1 3276:1 4386:1 4396:1 4397:1 
0.2071923864246854 1133:1 1868:1 4399:1 4400:1 4401:1 4402:1 4403:1 4404:1 
0.4295789608033236 1736:1 4384:1 4412:1 4417:1 4418:1 4419:1 4420:1 
1.364083388478177 4423:1 
1.364083388478177 1266:1 4424:1 4425:1 
0.07100712333724664 670:1 1116:1 4441:1 4442:1 
0.9721000075186608 4443:1 4444:1 4445:1 4446:1 4447:1 
1.364083388478177 20:1 4463:1 
0.3002604207119714 4464:1 4465:1 
0.1142806776742159 4469:1 4470:1 4471:1 4472:1 4473:1 
1.116338736190625 1169:1 2269:1 4477:1 
1.364083388478177 2755:1 4432:1 4485:1 
0.7359024302347477 910:1 4512:1 
1.364083388478177 4517:1 
1.364083388478177 4518:1 
1.364083388478177 4522:1 
1.364083388478177 4524:1 
1.364083388478177 4525:1 
1.185242610434118 4520:1 
1.364083388478177 355:1 
0.1001175536577742 2613:1 3522:1 4546:1 
0.353813125422225 27:1 175:1 286:1 562:1 925:1 1425:1 1599:1 2975:1 3522:1 4546:1 
1.364083388478177 4557:1 
0.05218485405537863 4568:1 4569:1 
1.285870489228925 2012:1 4270:1 4546:1 4570:1 
1.364083388478177 904:1 4432:1 4573:1 4574:1 4575:1 
0.5238035463893584 908:1 3036:1 4589:1 
0.5610688981855435 694:1 1478:1 2800:1 3016:1 4607:1 4608:1 
0.6007417562273442 3005:1 4457:1 4609:1 
0.5005347852640847 4507:1 4509:1 4563:1 4614:1 4615:1 4616:1 
1.364083388478177 4620:1 
1.14962091174571 274:1 593:1 934:1 2269:1 2675:1 4496:1 4632:1 4633:1 
1.096789164441259 107:1 4631:1 4634:1 
1.364083388478177 107:1 150:1 1054:1 
0.6688414304413148 4563:1 4614:1 4640:1 4641:1 4642:1 4643:1 
1.364083388478177 35:1 4098:1 4457:1 4648:1 4649:1 4650:1 
0.2826050863628172 183:1 390:1 458:1 680:1 2409:1 4660:1 4661:1 4662:1 4663:1 
0.1591628953096338 4667:1 
0.2965398120043602 460:1 1253:1 2107:1 4013:1 4457:1 4539:1 4653:1 4676:1 4677:1 4678:1 
1.237370122075761 4617:1 
0.2456658658598575 46:1 191:1 2021:1 2616:1 4457:1 4559:1 4690:1 4691:1 
0.3411261027337967 1718:1 2454:1 2916:1 4469:1 4718:1 4719:1 4720:1 4721:1 4722:1 4723:1 
0.3279566879935178 422:1 614:1 2099:1 4469:1 4724:1 
1.364083388478177 138:1 934:1 1072:1 1518:1 1915:1 4404:1 4431:1 
1.364083388478177 53:1 323:1 2453:1 3470:1 4496:1 
0.4000866104001394 4442:1 4445:1 4478:1 
0.8428730366020496 48:1 286:1 2012:1 4755:1 4756:1 4758:1 
1.364083388478177 112:1 4479:1 4574:1 4575:1 4766:1 
1.043372562970911 79:1 790:1 4387:1 4511:1 4695:1 4751:1 4752:1 
0.02130201119988667 52:1 181:1 286:1 529:1 1790:1 4668:1 4755:1 4770:1 
0.7413481312196708 4756:1 
0.1672350649282762 120:1 191:1 448:1 2070:1 3818:1 4387:1 4388:1 4409:1 4451:1 4776:1 
1.364083388478177 4393:1 4787:1 
0.1582013397766869 1103:1 4791:1 4792:1 4793:1 4794:1 
0.04911042464717893 3772:1 4419:1 4801:1 4802:1 4803:1 4804:1 4805:1 
1.364083388478177 25:1 255:1 286:1 2595:1 3536:1 4810:1 4811:1 
0.03362050440298758 261:1 417:1 4384:1 4393:1 4394:1 4819:1 4820:1 
1.364083388478177 1995:1 
0.9398992825784122 4822:1 
1.364083388478177 1995:1 
0.7839459958872731 1488:1 4837:1 
0.1591136902198036 4813:1 
0.6016964684192663 59:1 193:1 1217:1 2711:1 3540:1 
1.364083388478177 2056:1 4738:1 
1.364083388478177 193:1 4834:1 
0.7496566053339395 267:1 915:1 1104:1 2012:1 2818:1 4758:1 4775:1 4783:1 4887:1 4888:1 
0.3182265410874663 4891:1 
0.1589310770888885 4894:1 
1.364083388478177 97:1 102:1 4895:1 4896:1 
0.03509920929730249 267:1 4501:1 4682:1 4899:1 4900:1 4901:1 4902:1 4903:1 4904:1 4905:1 4906:1 
1.364083388478177 4915:1 4916:1 
0.9150706844129303 852:1 1198:1 1849:1 2012:1 4755:1 4771:1 4909:1 4923:1 4924:1 
0.929799819886048 340:1 2248:1 4931:1 4932:1 4933:1 
1.364083388478177 1995:1 
0.8308482885256357 48:1 312:1 1469:1 3387:1 4936:1 4937:1 
0.2961610540314421 176:1 2443:1 2470:1 3686:1 4426:1 4938:1 4939:1 4940:1 4941:1 
1.364083388478177 1554:1 2120:1 2572:1 4697:1 4701:1 4944:1 4945:1 4946:1 4947:1 
0.1084271416465623 250:1 2269:1 3968:1 4316:1 4457:1 4468:1 4948:1 4949:1 
0.08577016971178845 3433:1 4655:1 4961:1 4962:1 
0.9926703170980318 2375:1 3029:1 4777:1 4970:1 4971:1 4972:1 4973:1 
0.00796835742092389 214:1 478:1 593:1 971:1 1009:1 1401:1 4120:1 4404:1 4432:1 4984:1 4985:1 
1.364083388478177 4917:1 4994:1 
1.364083388478177 47:1 2613:1 4964:1 5017:1 
0.4136036907259504 184:1 1217:1 1588:1 3431:1 4433:1 4434:1 4435:1 5032:1 5033:1 5034:1 
0.1057236257035473 184:1 1258:1 2656:1 5010:1 5033:1 5036:1 5037:1 
1.364083388478177 184:1 5010:1 5033:1 
0.4021827176752328 1291:1 2239:1 4453:1 5037:1 
0.5805890024170896 250:1 286:1 805:1 2098:1 2938:1 5041:1 5042:1 
1.059251001416365 4393:1 4825:1 
1.364083388478177 416:1 1991:1 4375:1 4387:1 4409:1 4437:1 5046:1 
1.364083388478177 4915:1 4916:1 
0.1055010422444959 1930:1 2527:1 4391:1 4451:1 5047:1 5048:1 
0.2594148932332047 4378:1 4409:1 
0.8928260836990713 169:1 1632:1 3191:1 5056:1 5057:1 5058:1 5059:1 5060:1 5061:1 
0.1435522225840255 68:1 5063:1 5064:1 5065:1 
1.364083388478177 532:1 3252:1 4920:1 5070:1 5071:1 5072:1 
0.2653046807149648 3984:1 5082:1 5083:1 
0.6412027966262325 1063:1 2195:1 2669:1 3704:1 4941:1 5084:1 5085:1 
0.06491515167477561 48:1 151:1 422:1 531:1 1249:1 1534:1 2611:1 4661:1 5078:1 5090:1 
0.1725368656973866 2739:1 4435:1 4457:1 4854:1 4855:1 4892:1 4893:1 5010:1 5091:1 
0.05759094117877885 1477:1 2990:1 4391:1 4883:1 5010:1 5093:1 5095:1 5096:1 5097:1 5098:1 5099:1 
0.4430832294740002 417:1 4854:1 4855:1 5010:1 5101:1 5104:1 5105:1 5106:1 5107:1 
1.364083388478177 1546:1 5122:1 
0.2644902600743606 4890:1 5096:1 5123:1 5124:1 
1.001247069022295 3462:1 4885:1 5125:1 5126:1 
0.03841808201171139 4590:1 
0.02162531769781861 4851:1 4852:1 
0.4192866696829329 4562:1 4863:1 4864:1 5137:1 
0.1590523129884405 5115:1 
0.1226115220122221 524:1 856:1 908:1 1585:1 4457:1 5148:1 5149:1 5150:1 
0.2146112819899 879:1 2613:1 2728:1 5154:1 5155:1 5156:1 5157:1 5158:1 
0.1141897883381329 48:1 1117:1 4486:1 4687:1 5159:1 5160:1 5161:1 5162:1 
1.364083388478177 97:1 102:1 3522:1 
0.6669670634106799 1156:1 1457:1 1574:1 3437:1 4426:1 4875:1 5163:1 5164:1 5165:1 
0.7262941312331433 57:1 97:1 972:1 1880:1 3392:1 3727:1 5166:1 5167:1 5168:1 
0.06610714484134313 591:1 4405:1 4407:1 4496:1 4621:1 5166:1 5167:1 5169:1 
1.199690603595352 5174:1 
0.1663022045282974 216:1 657:1 870:1 1129:1 3278:1 4647:1 5178:1 5179:1 
1.364083388478177 5193:1 
0.8582690339939724 2375:1 4430:1 4753:1 5190:1 5202:1 
0.003053128699977891 4417:1 4418:1 4507:1 4546:1 4927:1 5190:1 5203:1 5204:1 
0.7678110910533953 90:1 417:1 1205:1 4411:1 4553:1 5164:1 
0.06277011302648197 5194:1 5198:1 5199:1 5210:1 5211:1 
0.01399568003721963 5198:1 5199:1 5200:1 5216:1 5217:1 
1.280950960588036 2654:1 5222:1 
1.020185776126219 1080:1 5223:1 
0.1467850817406892 5194:1 5198:1 5199:1 5235:1 5236:1 
1.364083388478177 327:1 338:1 1585:1 4584:1 
0.38733674504841 1287:1 2339:1 2492:1 3212:1 5145:1 5230:1 5266:1 5267:1 
0.1544172220210577 133:1 1825:1 5187:1 5259:1 5260:1 5294:1 
1.364083388478177 4679:1 4680:1 
0.07954953088909499 5299:1 5300:1 
0.1590051123015181 2952:1 
0.05803705452172778 4614:1 5194:1 5195:1 5198:1 5199:1 5311:1 
0.01564872055376887 189:1 900:1 1038:1 1240:1 3840:1 5199:1 5312:1 5313:1 5314:1 
1.227464956919457 5321:1 
0.5887228260228331 5230:1 
0.2929204681747513 285:1 899:1 913:1 1566:1 4457:1 4895:1 4896:1 5325:1 5326:1 5327:1 5328:1 
1.364083388478177 4597:1 
0.1424571495331002 458:1 2656:1 3173:1 4716:1 5145:1 5230:1 5244:1 5335:1 
1.008134530891925 38:1 1825:1 5187:1 5340:1 5341:1 5342:1 5343:1 5344:1 5345:1 
1.364083388478177 2872:1 3064:1 5238:1 5351:1 
1.287748704615392 4394:1 5145:1 5346:1 5391:1 5392:1 5393:1 
0.6592333984205755 321:1 591:1 904:1 4716:1 5198:1 5201:1 5227:1 5239:1 5401:1 5402:1 
0.126574442389547 900:1 1119:1 1848:1 4503:1 4504:1 5406:1 5407:1 5408:1 
1.364083388478177 1736:1 
0.4407916721823587 409:1 790:1 1323:1 4457:1 5066:1 5412:1 5413:1 
0.69062493146906 4578:1 4579:1 
0.626645342709347 171:1 5081:1 
0.1585927764246209 5427:1 5428:1 
0.1591289574009609 5449:1 
0.565682117763707 1401:1 
0.7285779825867613 4779:1 5231:1 5232:1 5322:1 5450:1 5451:1 5452:1 5453:1 5454:1 5455:1 5456:1 5457:1 
0.3671667279243638 222:1 1254:1 1477:1 1793:1 4890:1 
0.4603300010671162 3753:1 4484:1 4508:1 
0.4541430751518846 2772:1 5316:1 
0.3091314356603251 5198:1 5199:1 5237:1 5476:1 5477:1 
0.1746834029001514 37:1 658:1 938:1 5145:1 5242:1 5487:1 5488:1 
0.4048391095175391 4483:1 5145:1 5230:1 5494:1 
0.120281807514805 2026:1 3675:1 5499:1 
1.364083388478177 3522:1 4457:1 4666:1 5507:1 
1.041309585415085 5227:1 
1.3387288908387 5227:1 
1.364083388478177 5239:1 
0.8440724031514943 4699:1 
1.364083388478177 323:1 
0.5079312127439686 59:1 320:1 971:1 1461:1 2239:1 3610:1 4186:1 5260:1 
1.364083388478177 68:1 742:1 908:1 1119:1 5200:1 
0.7215498578088095 4074:1 5198:1 5407:1 5408:1 5430:1 5551:1 
0.2226366503332477 1315:1 2012:1 4548:1 4758:1 4768:1 4777:1 4778:1 4779:1 5557:1 
0.1655716451005853 184:1 1253:1 4461:1 4496:1 4952:1 5255:1 5565:1 5566:1 
0.3695394576434441 295:1 370:1 394:1 431:1 1819:1 2384:1 2916:1 4469:1 5572:1 5573:1 
0.03111652654564685 294:1 1731:1 4391:1 4457:1 5418:1 5583:1 5584:1 5588:1 
1.364083388478177 4411:1 4992:1 5590:1 
0.2785628735504673 593:1 4376:1 5372:1 5418:1 5591:1 
0.7109538482029225 5580:1 5592:1 
1.364083388478177 1587:1 4757:1 5594:1 
1.364083388478177 323:1 
0.2013952216688085 120:1 452:1 477:1 1511:1 2078:1 4534:1 5600:1 5601:1 
1.364083388478177 859:1 1242:1 4534:1 5414:1 5603:1 
1.043133209411482 5606:1 
1.09638881467576 4110:1 5003:1 
1.364083388478177 4563:1 4908:1 5621:1 
0.5449994002978078 44:1 431:1 1042:1 5064:1 5145:1 5629:1 
0.001040575664438676 146:1 5632:1 
0.4249463502487077 338:1 981:1 1585:1 1664:1 4563:1 5633:1 
0.33673760229299 137:1 2755:1 4426:1 4443:1 5642:1 5643:1 
0.8147780231735632 4599:1 5190:1 
0.254722189495658 2492:1 4563:1 4602:1 
0.3395219235859495 1104:1 4602:1 
0.3224219875275699 183:1 448:1 496:1 2806:1 3036:1 4563:1 5411:1 5621:1 5650:1 5651:1 
0.1587749953733053 4925:1 
0.9951801075134676 4530:1 4595:1 5508:1 
0.5468204680674896 1058:1 4602:1 5411:1 5656:1 5657:1 
0.1117255371770175 409:1 4708:1 5678:1 5679:1 
0.3787549166435951 120:1 640:1 1253:1 3513:1 4461:1 4581:1 5685:1 
0.514123512279776 87:1 323:1 4432:1 5686:1 
0.2018982971061631 451:1 5003:1 5689:1 
0.4901287111354242 4478:1 4487:1 4509:1 5080:1 5081:1 
0.1921571602397077 1154:1 4110:1 4562:1 5081:1 5421:1 5692:1 
1.104014277640162 593:1 1633:1 
1.364083388478177 899:1 1544:1 
1.364083388478177 458:1 601:1 2194:1 3522:1 4409:1 
0.6932712641072593 394:1 601:1 2899:1 5697:1 5698:1 
0.385283691358581 107:1 2694:1 4821:1 5348:1 5699:1 5700:1 5701:1 5702:1 5703:1 
0.1255141961143832 2615:1 4797:1 5139:1 5704:1 
0.5483197386330217 478:1 767:1 1228:1 1632:1 4392:1 4830:1 5699:1 5700:1 5708:1 
1.364083388478177 261:1 1625:1 3522:1 4511:1 
0.136520939560498 216:1 512:1 997:1 1571:1 2455:1 4439:1 5010:1 5715:1 5716:1 5717:1 
1.364083388478177 478:1 1266:1 
1.364083388478177 448:1 612:1 761:1 1080:1 2078:1 3613:1 4443:1 4546:1 4582:1 4935:1 5203:1 
0.0818108190169811 4435:1 4620:1 4628:1 4821:1 5728:1 
0.1357474378834735 4435:1 4564:1 4821:1 5728:1 5729:1 5730:1 5731:1 
1.352054952907807 4120:1 4821:1 5732:1 
1.364083388478177 70:1 381:1 1424:1 4541:1 
0.4662000261520053 5738:1 
1.019906698694875 5491:1 
1.025918017036269 1742:1 4457:1 
1.364083388478177 5604:1 
0.8964154071674427 171:1 
1.364083388478177 5742:1 
1.107529295810199 1632:1 5418:1 5744:1 
0.6169689209124093 464:1 499:1 1574:1 3008:1 3106:1 3522:1 5088:1 5089:1 
1.044971871431325 562:1 5089:1 
0.3003968888338998 4432:1 5758:1 
0.8584290757159841 4573:1 
0.01861833422966101 133:1 177:1 216:1 3778:1 4352:1 5145:1 5187:1 5779:1 
0.7559320393049307 539:1 560:1 786:1 972:1 1592:1 2702:1 5112:1 5113:1 5558:1 5567:1 5783:1 
0.1589280246208232 5782:1 
1.364083388478177 5782:1 
0.045924575225803 670:1 986:1 2173:1 3522:1 4767:1 5790:1 5791:1 5792:1 5793:1 
0.08772157269771469 790:1 2419:1 5003:1 5773:1 5803:1 
1.364083388478177 5804:1 
0.4972943258417997 198:1 331:1 2455:1 5138:1 5556:1 5810:1 5811:1 5812:1 5813:1 
0.9258952774490122 5814:1 
0.1963301881017797 458:1 4407:1 4589:1 5556:1 5711:1 
1.043014378242351 496:1 1989:1 5087:1 5816:1 
1.364083388478177 591:1 3024:1 4494:1 4615:1 4616:1 
0.3977125919179323 64:1 119:1 176:1 1495:1 1882:1 4409:1 4483:1 4847:1 5815:1 5821:1 5822:1 5823:1 
0.37899389212934 1393:1 5524:1 5824:1 
0.9442271515753408 261:1 456:1 1157:1 1247:1 1511:1 1809:1 4381:1 4624:1 5178:1 5815:1 5840:1 
0.6605918145228509 569:1 2766:1 4419:1 4683:1 4753:1 5434:1 5435:1 5841:1 
0.1590532942405706 5842:1 
0.7599949747631635 66:1 270:1 1592:1 2409:1 2499:1 5528:1 
0.6678614322917373 61:1 5285:1 5339:1 5851:1 
1.364083388478177 294:1 4546:1 
1.173747291516718 613:1 2181:1 2953:1 4392:1 4729:1 5007:1 5826:1 
1.364083388478177 4393:1 4495:1 
1.01893195474827 1599:1 3126:1 4393:1 4405:1 4443:1 
1.364083388478177 5859:1 
0.1572698015576389 5833:1 
0.6923074429408306 70:1 1759:1 1880:1 3941:1 4753:1 4975:1 5875:1 
1.364083388478177 45:1 5876:1 
0.3347173366359557 2613:1 5879:1 5880:1 
0.3262122425091661 406:1 707:1 1218:1 1574:1 5886:1 
0.695606370629924 68:1 223:1 5891:1 5892:1 5893:1 
0.4382169334388527 108:1 1703:1 1933:1 2613:1 3036:1 3675:1 5899:1 
0.0006277981291880111 5833:1 5902:1 
0.4956482987884346 4668:1 5339:1 5856:1 
1.364083388478177 2619:1 4496:1 5806:1 5906:1 
0.0002399379685148924 5833:1 5896:1 
0.7799047141716895 416:1 3598:1 4737:1 5010:1 5715:1 5716:1 
1.364083388478177 5010:1 5914:1 
0.2227267493366676 4568:1 5010:1 5915:1 
0.5815238954271629 5916:1 
0.5386436120120439 58:1 790:1 2699:1 4432:1 4457:1 4650:1 5925:1 5926:1 5927:1 
0.0006277981291879746 5833:1 5944:1 
0.1553023239100804 1585:1 1736:1 2613:1 2838:1 3036:1 4460:1 4717:1 
0.2136463980814826 139:1 2375:1 3209:1 4582:1 4996:1 5099:1 5958:1 
0.9718541970619049 646:1 3043:1 3386:1 3794:1 4439:1 5154:1 5959:1 5960:1 
0.636344683370048 338:1 1477:1 2141:1 3372:1 5961:1 5962:1 
0.2885363893981523 458:1 537:1 1113:1 1173:1 1344:1 2027:1 2802:1 5965:1 5966:1 5967:1 
1.364083388478177 3064:1 4439:1 4459:1 4618:1 
0.6252646123499661 332:1 736:1 1495:1 1882:1 2949:1 3064:1 3092:1 3571:1 4612:1 4753:1 5942:1 5972:1 
0.10324832105206 594:1 1205:1 2803:1 3064:1 4410:1 4416:1 4428:1 4483:1 4618:1 4862:1 5423:1 
0.04894960284891947 417:1 925:1 1377:1 1592:1 4422:1 4612:1 4615:1 4616:1 4820:1 
0.1592035550035053 5976:1 
1.364083388478177 1073:1 
1.10545077403193 286:1 1179:1 1592:1 1987:1 4554:1 5007:1 5826:1 
0.1590133489508185 5978:1 
1.364083388478177 860:1 
1.364083388478177 860:1 
0.07937269909064472 4769:1 5990:1 
0.4700529987770059 4605:1 5411:1 
0.2020457627959398 2613:1 4453:1 5139:1 5704:1 
1.186399513943714 294:1 1498:1 1676:1 4510:1 5992:1 5993:1 5994:1 5995:1 
0.5577810363043232 1082:1 1811:1 4564:1 4583:1 4797:1 4993:1 4998:1 5459:1 5705:1 5997:1 
1.364083388478177 198:1 3833:1 4593:1 4600:1 
0.5432604691961599 478:1 744:1 4433:1 4435:1 4601:1 5798:1 5799:1 6005:1 
1.150989177425839 19:1 1655:1 5081:1 6006:1 6007:1 6008:1 6009:1 6010:1 6011:1 
0.1514887046974926 61:1 283:1 1502:1 1876:1 4112:1 6014:1 6016:1 6017:1 6018:1 6019:1 
0.06612106476358731 417:1 4411:1 4434:1 4831:1 5526:1 5788:1 6004:1 6021:1 6022:1 6023:1 
0.1667327991267571 1502:1 5139:1 5140:1 6015:1 6027:1 6028:1 
1.364083388478177 638:1 5911:1 6029:1 6030:1 6031:1 6032:1 6033:1 
0.5747440606923523 22:1 499:1 526:1 4901:1 6035:1 6036:1 6037:1 6038:1 6039:1 
0.2894473950968808 417:1 4120:1 4384:1 4398:1 4408:1 4438:1 4496:1 6023:1 6045:1 6046:1 
1.176165816308923 6041:1 
1.364083388478177 6041:1 
1.356802208071386 6041:1 
1.193874747193937 1884:1 4375:1 4393:1 4406:1 4409:1 4729:1 4736:1 5890:1 
0.3414378267902176 4398:1 
1.364083388478177 2279:1 4602:1 4605:1 5320:1 6059:1 
0.1688401847011189 786:1 2027:1 2245:1 4564:1 4736:1 6042:1 
1.364083388478177 4398:1 
1.364083388478177 4398:1 
0.1589967939407296 6066:1 
1.364083388478177 783:1 1226:1 4846:1 4851:1 4852:1 4855:1 4863:1 6067:1 
1.34797760252626 4398:1 
0.07962246604619176 6076:1 6077:1 
0.9843241787907279 3127:1 4457:1 
0.1035797198901926 35:1 584:1 777:1 899:1 1104:1 2193:1 4542:1 4775:1 6081:1 6082:1 
0.1744560041884017 2161:1 3151:1 5010:1 5715:1 5716:1 6084:1 6085:1 
1.364083388478177 4612:1 6078:1 
0.6573054340711049 1353:1 4821:1 5024:1 
0.5261397360237373 23:1 856:1 3954:1 5086:1 6098:1 6099:1 6100:1 
0.129796927700138 1551:1 2157:1 2611:1 4109:1 4646:1 
0.1592730347518984 6119:1 
0.09986111037957436 4527:1 6120:1 
1.364083388478177 4525:1 
1.364083388478177 4525:1 
1.364083388478177 4970:1 
0.2420135617332871 2989:1 4668:1 5074:1 5075:1 5870:1 6129:1 
0.8502025839820673 72:1 1487:1 1736:1 2238:1 2357:1 4459:1 6065:1 6133:1 
0.5711234249860372 409:1 3390:1 4483:1 4572:1 5152:1 5749:1 
0.3528468968293871 1747:1 1991:1 2566:1 6134:1 
0.5536639840515601 1378:1 4385:1 4416:1 4428:1 4627:1 4628:1 5942:1 
0.2897095368233558 186:1 
0.2528475003471778 431:1 1101:1 3036:1 4695:1 4821:1 5430:1 5898:1 5967:1 
0.6635084522759934 711:1 
0.1590277864780219 6153:1 
1.364083388478177 6105:1 
1.364083388478177 6154:1 
0.3795196837359908 5589:1 5762:1 
1.364083388478177 6161:1 
0.3100384127526892 448:1 1179:1 4407:1 4556:1 
0.6084988083472898 175:1 2975:1 4407:1 4443:1 4538:1 4624:1 5852:1 
0.3441936031427402 5942:1 
0.1588472891922268 6173:1 
0.6308578647722748 191:1 2632:1 5790:1 
0.001985510713197644 502:1 
0.1752335140050468 448:1 458:1 478:1 2566:1 4407:1 4466:1 4467:1 4469:1 5848:1 6082:1 6189:1 6190:1 
1.364083388478177 5772:1 
1.364083388478177 5491:1 
1.364083388478177 6199:1 
0.1486521537160241 790:1 900:1 1775:1 2238:1 4457:1 6203:1 6204:1 
0.2378412710292651 1127:1 2012:1 2699:1 2874:1 3383:1 4755:1 4758:1 4872:1 6205:1 6206:1 
0.2201989780676008 6212:1 6213:1 
1.364083388478177 1445:1 
0.1592013954918741 6219:1 
0.8187119213619903 206:1 464:1 6220:1 
0.1518284701749584 176:1 261:1 448:1 
0.2912572869466279 219:1 1381:1 1750:1 2653:1 4656:1 5417:1 6222:1 
0.08842789976011188 5081:1 5240:1 5241:1 5418:1 
1.364083388478177 4508:1 4527:1 5697:1 
0.01225388555182727 2082:1 3624:1 4404:1 
0.6250836293029662 191:1 2038:1 3522:1 4784:1 5525:1 6085:1 6096:1 
0.5336535940245812 2029:1 2668:1 4619:1 4830:1 5699:1 5700:1 6224:1 
1.364083388478177 1036:1 1058:1 3383:1 4494:1 4890:1 6248:1 
0.07588600683130881 2911:1 3074:1 5619:1 
0.2283126829910613 4433:1 4435:1 4896:1 6239:1 6245:1 
0.6462143747246192 448:1 4443:1 5010:1 5980:1 
1.364083388478177 1470:1 1847:1 2258:1 4814:1 
1.364083388478177 5430:1 6256:1 6257:1 
0.3015267047981157 1546:1 6258:1 
0.3629488405319657 575:1 2609:1 3036:1 4695:1 5324:1 5430:1 6264:1 6267:1 
0.2372907869623678 6253:1 6274:1 
0.2867777467051705 1253:1 4461:1 6276:1 
1.064914644802963 448:1 692:1 2245:1 2384:1 4120:1 4407:1 4432:1 4457:1 6278:1 
0.5067835664628073 859:1 2851:1 3621:1 4404:1 4431:1 6283:1 6284:1 6285:1 
0.09793759307891847 1253:1 4461:1 6286:1 
0.3224236232553835 4684:1 4981:1 6288:1 6289:1 
1.364083388478177 6290:1 
0.3295057538242966 1098:1 2012:1 4581:1 5019:1 5168:1 5421:1 6292:1 6293:1 6294:1 
0.8454898513399357 4513:1 4871:1 6296:1 
0.5186370014670297 1253:1 6302:1 
0.5005956344353586 5256:1 5535:1 
0.04458629216250426 1108:1 2545:1 3799:1 5047:1 6306:1 6307:1 
0.8356656012268092 70:1 2766:1 3522:1 5075:1 6075:1 
0.9783642109602818 4551:1 4552:1 
0.2017087630238508 4520:1 4523:1 6310:1 
0.8038824745774633 416:1 957:1 4616:1 6312:1 
1.362820942344159 2895:1 4389:1 5605:1 
0.9601817944960825 4692:1 
0.719540982826725 6333:1 6334:1 
1.364083388478177 6335:1 
1.364083388478177 6336:1 
0.1737442950706437 4955:1 
0.002536440667826163 511:1 981:1 1475:1 3621:1 3633:1 4404:1 4431:1 4432:1 4439:1 6337:1 
1.364083388478177 6343:1 
0.2899365960788426 5390:1 6158:1 
0.01193575957905476 227:1 1045:1 1231:1 2975:1 4459:1 4478:1 6351:1 
0.4421250328866482 176:1 3259:1 4483:1 5240:1 5241:1 5390:1 6352:1 6353:1 6354:1 
0.007373370440741414 2078:1 4385:1 4529:1 5418:1 5585:1 6359:1 
0.8587244532444237 3550:1 4382:1 
1.364083388478177 4978:1 
0.3091372351124754 1327:1 1990:1 2613:1 3748:1 4749:1 5107:1 5903:1 5951:1 6363:1 
0.4048847913373897 934:1 2613:1 3151:1 4437:1 4857:1 6364:1 
0.4052486627981764 908:1 2613:1 5131:1 5969:1 
0.9374807918955204 4545:1 5193:1 
0.2596464279743648 370:1 2384:1 2492:1 3304:1 4545:1 4584:1 
0.4500215232453527 136:1 4432:1 6378:1 
1.364083388478177 5420:1 
0.1941519760646707 4799:1 
0.4424335280685415 6197:1 6381:1 
0.3294411329788107 261:1 384:1 826:1 2991:1 4457:1 4487:1 5390:1 5417:1 6390:1 6391:1 
0.2811398803503405 4755:1 4775:1 4786:1 6399:1 
1.140550023439914 4960:1 
1.363611001122229 5491:1 
0.1589506024725198 6402:1 
0.08020937484917599 477:1 720:1 2078:1 4411:1 4910:1 5517:1 6418:1 6419:1 
0.2536863428646232 1287:1 4970:1 6420:1 6421:1 6422:1 6423:1 6424:1 6425:1 6426:1 
0.355922366326558 2070:1 4631:1 5857:1 
0.4490747761505351 640:1 1461:1 1632:1 2693:1 4542:1 4646:1 4911:1 5490:1 5581:1 6434:1 
1.364083388478177 4692:1 
1.364083388478177 4692:1 
0.7749114896458918 931:1 4510:1 4722:1 
0.7970232599237856 4755:1 4994:1 5706:1 
1.364083388478177 3522:1 4439:1 4917:1 4994:1 
0.2566484071074639 45:1 2027:1 4100:1 4443:1 4545:1 5644:1 
1.364083388478177 3077:1 4970:1 5924:1 5999:1 
0.4842965694798713 114:1 169:1 394:1 1458:1 3590:1 6450:1 
0.3533511721653047 1282:1 1546:1 5122:1 5288:1 6455:1 6456:1 
0.009834972175986062 1912:1 2562:1 4510:1 6462:1 
0.1590275857185891 6465:1 
0.07954140352985854 5539:1 5540:1 
0.6125301193147815 5394:1 5395:1 
0.3179334964660293 122:1 904:1 2594:1 3014:1 3191:1 4634:1 5162:1 6468:1 6469:1 6470:1 
0.5444465295917719 217:1 295:1 2527:1 2822:1 2872:1 3335:1 4778:1 6474:1 
1.364083388478177 4568:1 
0.9292933029296676 1367:1 5307:1 5308:1 5535:1 
0.5995528624587646 5308:1 5535:1 
0.3280354866128278 6014:1 
0.6141633671479633 818:1 4668:1 
0.5396643226889534 790:1 1063:1 1494:1 2521:1 4483:1 4542:1 
0.3543246429371361 2609:1 4673:1 5059:1 5521:1 5522:1 6507:1 6508:1 6509:1 6510:1 6511:1 
0.5148653384201832 4439:1 4443:1 6236:1 6515:1 
1.364083388478177 1166:1 3621:1 4258:1 4411:1 5546:1 6228:1 6241:1 
0.275889170124568 5254:1 5721:1 
0.6825895454769308 1156:1 3658:1 5251:1 5283:1 6517:1 
0.3929336752438133 1632:1 2193:1 2614:1 2728:1 3652:1 6519:1 
0.9832773316132737 707:1 4694:1 5228:1 6484:1 6520:1 6521:1 
0.3258779147182785 285:1 3956:1 4730:1 6295:1 6522:1 6523:1 
0.05048769852251565 4470:1 6525:1 
0.06945172775699961 4438:1 6526:1 
0.9636752517384878 130:1 562:1 4514:1 5658:1 6528:1 6529:1 
0.09656406005751557 593:1 3010:1 4322:1 4478:1 4532:1 4878:1 5515:1 
1.341933547716395 2656:1 4510:1 
1.364083388478177 736:1 4432:1 5713:1 
0.08935627085115265 1236:1 4457:1 4530:1 5089:1 6532:1 6533:1 
0.702708799965618 1435:1 1593:1 6534:1 6535:1 
0.1158136194469418 1477:1 4757:1 6536:1 
0.1588057732376718 6318:1 
0.1588827216785354 6299:1 
1.037245563937097 4432:1 5485:1 5486:1 6539:1 
1.364083388478177 4484:1 
1.364083388478177 4508:1 5533:1 
1.364083388478177 6542:1 
0.5659750998466615 890:1 5080:1 5081:1 6543:1 
1.364083388478177 4484:1 
0.9545293940275157 6200:1 6542:1 
1.364083388478177 4749:1 6549:1 
1.364083388478177 2012:1 2686:1 4749:1 
1.364083388478177 660:1 
1.364083388478177 2131:1 5168:1 
0.02708088512236706 407:1 439:1 707:1 1010:1 2900:1 3848:1 6550:1 6551:1 6552:1 
1.364083388478177 6553:1 6554:1 
1.281274496334502 6555:1 
0.01467085826065082 4463:1 5867:1 
1.364083388478177 2874:1 6124:1 
1.320562693763625 4551:1 4552:1 
1.364083388478177 188:1 6556:1 
1.364083388478177 4768:1 
1.364083388478177 185:1 340:1 620:1 621:1 1136:1 4004:1 4110:1 5186:1 
1.364083388478177 203:1 3126:1 3621:1 
0.1828181002587284 131:1 1226:1 2711:1 5036:1 6567:1 6568:1 
0.07221980490540138 369:1 716:1 2887:1 4563:1 4614:1 4672:1 4867:1 5890:1 6494:1 6576:1 
1.364083388478177 2629:1 4918:1 
0.1589258812896003 6398:1 
0.197496685423237 478:1 2922:1 4427:1 4755:1 4771:1 4786:1 5262:1 5336:1 6411:1 
1.089025207487883 1906:1 2141:1 4591:1 4950:1 5338:1 
0.4009138089947237 2545:1 3911:1 
0.6264345520722044 6587:1 
1.364083388478177 4525:1 
0.1588099883131458 4526:1 
1.364083388478177 122:1 5122:1 
0.07270811576496082 4996:1 6595:1 
1.074079384851641 59:1 175:1 313:1 569:1 720:1 857:1 1991:1 4391:1 4496:1 
0.819342721481116 4469:1 4511:1 5834:1 
0.5162376170950211 458:1 1716:1 2859:1 5228:1 5562:1 5720:1 6601:1 
0.5394212096601566 1326:1 4514:1 6607:1 6608:1 
0.1590104937901884 6609:1 
0.07589722780748354 64:1 2196:1 3653:1 3922:1 
0.7574593035479475 620:1 621:1 2070:1 3928:1 6615:1 
0.4312804987078739 3074:1 4380:1 4935:1 5192:1 6411:1 
0.3166394911541767 4935:1 6625:1 
1.364083388478177 4910:1 
0.3239120819300515 5228:1 5589:1 6628:1 
1.29817123112523 417:1 1660:1 2654:1 4661:1 6622:1 
0.3890202180564066 1217:1 3588:1 4346:1 5045:1 6636:1 6637:1 
0.5705050876942301 2059:1 4407:1 5168:1 5250:1 5358:1 6638:1 
0.1589501014424359 5132:1 
0.1152351198101327 4791:1 
0.5677562854451735 1054:1 4560:1 6640:1 
0.7540386176810749 5077:1 
0.1074100867007698 390:1 1440:1 1749:1 2611:1 4478:1 4487:1 4494:1 4509:1 4523:1 5715:1 5716:1 
0.09788340355231845 150:1 176:1 4371:1 4564:1 4737:1 4826:1 5195:1 6096:1 6642:1 
0.4824063231729134 79:1 1470:1 4405:1 4443:1 4830:1 6141:1 6650:1 
0.3704462884693108 981:1 5247:1 5249:1 5347:1 5913:1 
0.7677940766516836 5254:1 
0.1589502143862569 6652:1 
1.2555393976446 5254:1 
0.8054762061978569 2649:1 4437:1 4514:1 
0.6691512767816238 2845:1 4404:1 4431:1 
1.364083388478177 146:1 1326:1 4514:1 
1.364083388478177 529:1 1261:1 1991:1 2179:1 4683:1 
0.1590482456472884 6656:1 
0.3687120914166524 828:1 6658:1 
1.364083388478177 261:1 2078:1 3719:1 4457:1 4536:1 5604:1 6277:1 
0.1195422646823739 170:1 189:1 2822:1 4457:1 5151:1 
0.1578097788437965 882:1 5294:1 5945:1 6668:1 6669:1 6670:1 6671:1 
1.364083388478177 4698:1 
0.1593786229142349 6672:1 
0.1644489055791 232:1 4992:1 5080:1 5081:1 
0.4498958969722794 261:1 1809:1 5604:1 6673:1 6674:1 
0.1589658116628827 6679:1 
0.1525380962879342 7:1 216:1 601:1 738:1 2205:1 4314:1 5055:1 6683:1 
0.9115155267073413 1776:1 3959:1 4426:1 4666:1 6686:1 6687:1 
0.2138954983078709 283:1 428:1 531:1 1001:1 1332:1 3395:1 5064:1 6688:1 6689:1 
0.3630320974332534 90:1 2770:1 2922:1 4419:1 4994:1 5193:1 5945:1 5997:1 6559:1 6690:1 
0.6142249137556187 446:1 1231:1 2012:1 5168:1 5190:1 6292:1 6294:1 6340:1 
1.125743536895001 338:1 5407:1 5408:1 6558:1 
0.1588392529617784 6698:1 
1.364083388478177 3522:1 4439:1 4784:1 4785:1 
0.7390649366096171 904:1 2268:1 3774:1 5458:1 5459:1 
0.3628715329995846 45:1 355:1 581:1 1045:1 2839:1 6711:1 
1.364083388478177 167:1 481:1 5771:1 5772:1 6722:1 
1.107905196331317 649:1 1963:1 
0.1591176553319164 6731:1 
0.6960074632374148 298:1 957:1 1101:1 1119:1 1716:1 6025:1 6702:1 6733:1 
0.07944106031073066 5373:1 6742:1 
0.2064255475247898 509:1 4750:1 4821:1 
1.364083388478177 4459:1 
1.249618107772886 541:1 1228:1 1381:1 3225:1 4791:1 4792:1 4842:1 5824:1 
0.2587910557479229 4496:1 6743:1 
1.364083388478177 1080:1 1252:1 1632:1 2181:1 3741:1 4935:1 
0.4754567557561754 70:1 1751:1 1811:1 4564:1 4975:1 5494:1 6487:1 
1.364083388478177 5238:1 
1.364083388478177 6161:1 
1.364083388478177 6161:1 
0.02328197376676482 4511:1 4952:1 6755:1 6756:1 6757:1 
1.364083388478177 543:1 957:1 1038:1 4457:1 6758:1 6759:1 
0.7967775019355747 594:1 3613:1 4546:1 4585:1 
0.5616412995553991 5322:1 5441:1 6060:1 6764:1 
0.02103247445012524 181:1 3295:1 4863:1 4864:1 4884:1 5439:1 5440:1 6768:1 6769:1 6770:1 6771:1 
0.1589727651589807 6773:1 
0.3967411038004113 1452:1 4231:1 4585:1 6775:1 
0.03270039572048226 3276:1 
0.1768260423029684 4810:1 5871:1 6778:1 
0.03904894681855248 5097:1 6107:1 
1.039872990031948 4490:1 6780:1 
0.4985404402240077 70:1 1531:1 2616:1 5438:1 5439:1 5440:1 6771:1 6788:1 6789:1 
1.364083388478177 4993:1 6105:1 
0.6835965615026722 6795:1 
1.364083388478177 711:1 
0.006814570403676566 2177:1 4542:1 5651:1 6800:1 
0.3994090199176943 5306:1 5526:1 6476:1 
0.1752062964659628 593:1 1760:1 2012:1 3077:1 4494:1 4758:1 6803:1 
0.1733917134031011 3919:1 4833:1 
0.2262269922618015 2012:1 4758:1 5526:1 
1.364083388478177 6513:1 6807:1 
1.364083388478177 1217:1 6807:1 
0.01190313586008623 6813:1 
1.364083388478177 47:1 4784:1 5347:1 
1.364083388478177 4784:1 5347:1 
1.158770238479906 35:1 154:1 826:1 4343:1 4821:1 6489:1 6741:1 
0.06963643238255381 908:1 1990:1 1995:1 4110:1 4682:1 6172:1 6362:1 6823:1 
0.17290961613662 1139:1 4419:1 4478:1 4682:1 4790:1 5440:1 5543:1 6005:1 6824:1 
0.1267752884569976 79:1 120:1 5006:1 5438:1 
0.07962926462144002 5431:1 5432:1 
0.1638193731352299 593:1 4427:1 5447:1 5448:1 6827:1 6828:1 
0.07955339667361237 5691:1 6829:1 
0.03950868072695127 594:1 1750:1 
1.364083388478177 120:1 4682:1 6834:1 
1.112794287617165 79:1 1245:1 4771:1 
0.159144991617325 6841:1 
0.06790782658008876 120:1 138:1 1367:1 1795:1 3176:1 3217:1 4715:1 5438:1 6768:1 6769:1 
0.938138734915121 374:1 786:1 835:1 1058:1 3286:1 4625:1 4771:1 4786:1 6842:1 
0.08272321664688528 4668:1 5241:1 6852:1 6853:1 6854:1 
0.08191753735975289 56:1 982:1 1038:1 5380:1 5381:1 5638:1 6791:1 6857:1 
1.364083388478177 828:1 3134:1 4991:1 
0.1589819997467029 6856:1 
0.8897465353209136 593:1 3621:1 4419:1 5440:1 5559:1 
0.1844796761824412 908:1 934:1 1082:1 4120:1 4437:1 4548:1 4755:1 4768:1 4778:1 6146:1 
0.166441135389108 925:1 5124:1 5438:1 6172:1 6771:1 6870:1 6871:1 6872:1 
1.016999557447631 70:1 216:1 4483:1 5439:1 5440:1 6818:1 
0.6872181262416023 209:1 210:1 1087:1 1156:1 2566:1 5271:1 5272:1 5439:1 5440:1 
1.364083388478177 640:1 6878:1 6879:1 
0.65075406061228 1632:1 2181:1 3870:1 4177:1 4995:1 4996:1 5114:1 5320:1 6559:1 6883:1 6884:1 
1.364083388478177 5193:1 
0.1964337321672389 5947:1 5948:1 
1.364083388478177 5193:1 
0.6395754057122525 1430:1 4252:1 4911:1 
0.3243932650961271 532:1 1999:1 3686:1 4409:1 5070:1 
0.7626611256191955 1228:1 
1.115038022980891 6903:1 
1.364083388478177 2865:1 
1.364083388478177 3383:1 4323:1 6905:1 
0.5642754113478659 512:1 3939:1 4655:1 
0.8305433613129301 1113:1 1189:1 1229:1 2298:1 5438:1 5440:1 5654:1 6789:1 6880:1 
0.5988008060989743 6924:1 
1.364083388478177 70:1 112:1 5349:1 5350:1 
0.7207995446655717 2512:1 
1.364083388478177 27:1 2078:1 5945:1 
0.3737540546049731 1930:1 6252:1 6513:1 6660:1 6890:1 6938:1 
1.364083388478177 1944:1 4821:1 
0.8959789835605584 91:1 4821:1 5253:1 5349:1 5350:1 6746:1 
0.3913899370221793 368:1 710:1 2682:1 3761:1 4419:1 6328:1 
0.001596919901055689 1995:1 2545:1 2613:1 3391:1 4494:1 4994:1 
1.364083388478177 2615:1 2986:1 
0.4652383582413477 6940:1 
0.4821845577095643 1995:1 2613:1 
0.4829724806693436 6942:1 
1.364083388478177 68:1 5013:1 
0.147777495548657 119:1 2021:1 4443:1 4496:1 4511:1 4528:1 4556:1 4565:1 4934:1 6944:1 6945:1 
0.3779179094000926 4918:1 6793:1 
1.03175390348753 52:1 119:1 380:1 902:1 1176:1 1736:1 3135:1 4059:1 6586:1 
0.2886143038207392 120:1 298:1 2731:1 4792:1 5369:1 5370:1 6948:1 6951:1 
1.364083388478177 1209:1 
0.3207919447943188 6957:1 6958:1 
1.08316484091906 119:1 294:1 902:1 925:1 1269:1 1599:1 2975:1 3195:1 
1.364083388478177 1223:1 1722:1 
0.3578526489080524 176:1 338:1 873:1 902:1 1378:1 2653:1 5023:1 
1.364083388478177 4616:1 
0.1659825600436168 1526:1 1792:1 3959:1 4510:1 4511:1 6973:1 6974:1 
1.364083388478177 276:1 1453:1 
0.03181822284692225 4612:1 5823:1 5854:1 5879:1 6965:1 6972:1 
0.6018604581340249 6644:1 
0.1357695534814965 593:1 3753:1 5535:1 6808:1 
0.4883111476122417 613:1 2819:1 5338:1 5708:1 5766:1 
0.112174942892125 52:1 373:1 547:1 790:1 902:1 2351:1 2388:1 2464:1 2975:1 6363:1 6586:1 
0.1894003089782726 4407:1 6991:1 
0.1590121407440171 4535:1 
1.185688991059173 4231:1 6992:1 6993:1 
0.1593139332527525 6633:1 
0.7372270872171424 6995:1 
1.21891760701866 6996:1 
0.1591024656778788 6997:1 
1.364083388478177 685:1 
0.3723294438597127 4668:1 
0.2979469463773073 4466:1 4467:1 
0.1592103157908367 4580:1 
0.1593188475691958 6966:1 
0.5806801666757262 78:1 477:1 1253:1 3501:1 4461:1 5681:1 5708:1 5771:1 5772:1 6981:1 
1.083465975295033 150:1 1590:1 4391:1 4417:1 4418:1 4419:1 4532:1 5480:1 
0.175283567785183 6965:1 
0.1563250700116586 4670:1 4671:1 
0.5762421180082207 15:1 594:1 4993:1 5524:1 6171:1 6217:1 7013:1 
1.345103659029828 357:1 2637:1 3537:1 4990:1 7014:1 
0.1306871177968181 1815:1 4068:1 4600:1 4753:1 4755:1 4993:1 5524:1 5707:1 5997:1 6397:1 6625:1 7019:1 7020:1 
0.5588698954128156 7026:1 
0.6896855204279743 5417:1 
1.364083388478177 4862:1 
0.7300892346503014 5924:1 
1.222473692509881 170:1 1154:1 4478:1 
0.6740044364654213 97:1 2872:1 7030:1 
0.0001059901535824736 6956:1 7031:1 7032:1 
0.7000870913063277 2986:1 6895:1 
0.1586302820004059 6956:1 
0.6697778930499322 186:1 873:1 3036:1 4507:1 4509:1 4994:1 5530:1 
1.364083388478177 1291:1 1679:1 1813:1 6079:1 
1.364083388478177 323:1 1119:1 4584:1 4964:1 4994:1 
0.01234690414927124 59:1 2245:1 3533:1 4799:1 5801:1 6079:1 6514:1 
0.1136083495503481 217:1 347:1 381:1 790:1 2613:1 3002:1 4453:1 5131:1 7040:1 
0.08897310104586827 1555:1 3031:1 4582:1 7047:1 7048:1 7049:1 
0.419413886678748 1585:1 2430:1 2690:1 5313:1 7058:1 
0.1027801052788097 4567:1 
1.364083388478177 1587:1 
0.2486006346619628 122:1 3190:1 5042:1 5195:1 7071:1 7072:1 7073:1 7074:1 7075:1 
0.2162470333897271 245:1 593:1 4419:1 5364:1 6057:1 
1.364083388478177 1026:1 3911:1 4457:1 
1.364083388478177 7077:1 7078:1 
0.8364988147443376 6705:1 6706:1 
0.3991404383480049 5856:1 
0.6778621095945982 313:1 5364:1 5378:1 5444:1 5470:1 7053:1 
0.1504811940153013 2858:1 3395:1 5190:1 7091:1 
1.364083388478177 184:1 512:1 670:1 4457:1 4496:1 4934:1 5072:1 5142:1 7095:1 7096:1 
0.2864623441236605 458:1 612:1 1010:1 4614:1 5010:1 5337:1 5719:1 5923:1 6810:1 7098:1 7099:1 
1.364083388478177 53:1 908:1 
1.364083388478177 53:1 
0.3134765801621706 5485:1 5486:1 7103:1 7104:1 
0.3777133451352392 45:1 5358:1 6928:1 
0.252299959892054 720:1 2384:1 3064:1 4831:1 7109:1 
0.9211608917873697 2728:1 6644:1 7109:1 
0.0004309717914549773 4821:1 7114:1 
0.3716319052943144 4590:1 4932:1 7115:1 
0.4646780075026049 1477:1 1813:1 2268:1 2660:1 3998:1 4391:1 4411:1 4445:1 5956:1 7118:1 
0.1592826498802059 4689:1 
1.364083388478177 5197:1 
0.228531501210189 5216:1 
1.296709471828868 4410:1 
1.364083388478177 5933:1 
0.2022811585884161 5239:1 6204:1 7121:1 
