svm_type nu_svc
kernel_type linear
nr_class 2
total_sv 19345
rho -0.68539
label -1 2
nr_sv 9655 9690
SV
0.1562215164765544 204:1 426:1 2012:1 2893:1 3594:1 4084:1 4236:1 4465:1 6760:1 12212:1 17419:1 
0.1562215164765544 5:1 6:1 7:1 8:1 
0.1562215164765544 9:1 10:1 11:1 12:1 
0.002597111288333254 10:1 11:1 12:1 17:1 18:1 19:1 
0.1562215164765544 20:1 
0.07261346250963584 10:1 11:1 12:1 18:1 21:1 22:1 23:1 24:1 25:1 
0.1562215164765544 26:1 
0.1562215164765544 27:1 
0.1562215164765544 10:1 11:1 12:1 18:1 21:1 22:1 23:1 24:1 25:1 
0.1562215164765544 26:1 
0.1562215164765544 28:1 29:1 30:1 
0.1562215164765544 31:1 32:1 33:1 
0.1562215164765544 34:1 35:1 36:1 37:1 
0.1562215164765544 39:1 40:1 41:1 42:1 43:1 44:1 
0.1562215164765544 45:1 46:1 
0.1562215164765544 58:1 59:1 
0.1562215164765544 61:1 
0.1562215164765544 67:1 
0.1562215164765544 68:1 69:1 70:1 71:1 72:1 
0.1562215164765544 73:1 74:1 75:1 76:1 
0.1562215164765544 48:1 70:1 71:1 72:1 77:1 78:1 79:1 
0.1562215164765544 81:1 82:1 
0.1562215164765544 70:1 83:1 
0.1562215164765544 10:1 11:1 85:1 86:1 87:1 
0.1562215164765544 88:1 89:1 
0.1562215164765544 44:1 90:1 91:1 
0.1562215164765544 92:1 
0.1562215164765544 83:1 93:1 94:1 95:1 96:1 97:1 98:1 99:1 100:1 101:1 
0.1562215164765544 103:1 104:1 
0.1562215164765544 27:1 70:1 105:1 106:1 107:1 108:1 
0.1562215164765544 109:1 110:1 
0.1562215164765544 113:1 
0.1562215164765544 114:1 
0.1562215164765544 115:1 
0.1562215164765544 114:1 
0.1562215164765544 103:1 
0.1562215164765544 70:1 103:1 107:1 117:1 118:1 
0.1562215164765544 103:1 119:1 120:1 
0.1562215164765544 91:1 123:1 124:1 125:1 126:1 127:1 
0.1562215164765544 46:1 89:1 128:1 129:1 130:1 
0.1562215164765544 34:1 132:1 133:1 134:1 135:1 
0.1562215164765544 136:1 
0.1562215164765544 137:1 138:1 
0.1562215164765544 139:1 
0.1562215164765544 140:1 
0.1562215164765544 141:1 142:1 
0.1562215164765544 143:1 
0.1562215164765544 34:1 107:1 139:1 142:1 
0.1562215164765544 49:1 144:1 145:1 
0.1562215164765544 129:1 146:1 147:1 
0.1562215164765544 48:1 69:1 148:1 149:1 150:1 
0.1562215164765544 151:1 152:1 
0.1562215164765544 77:1 
0.1562215164765544 27:1 155:1 156:1 157:1 158:1 
0.1562215164765544 70:1 104:1 159:1 
0.1562215164765544 67:1 
0.1562215164765544 163:1 
0.1562215164765544 164:1 
0.1562215164765544 27:1 165:1 
0.1562215164765544 69:1 153:1 
0.1562215164765544 27:1 166:1 167:1 168:1 
0.1562215164765544 89:1 
0.1562215164765544 89:1 
0.1562215164765544 112:1 172:1 173:1 
0.1562215164765544 129:1 
0.1562215164765544 160:1 179:1 
0.1562215164765544 163:1 
0.1562215164765544 182:1 
0.1562215164765544 184:1 185:1 
0.1562215164765544 112:1 
0.1562215164765544 89:1 
0.1562215164765544 53:1 84:1 183:1 186:1 187:1 188:1 189:1 
0.1562215164765544 71:1 191:1 192:1 193:1 194:1 195:1 
0.1562215164765544 204:1 205:1 
0.1562215164765544 70:1 
0.1562215164765544 27:1 
0.1562215164765544 129:1 
0.1562215164765544 77:1 208:1 
0.1562215164765544 129:1 
0.1562215164765544 27:1 55:1 77:1 
0.1562215164765544 129:1 
0.1562215164765544 70:1 153:1 
0.1562215164765544 70:1 207:1 
0.1562215164765544 112:1 
0.1562215164765544 209:1 210:1 211:1 
0.1562215164765544 129:1 
0.05989999616843174 212:1 213:1 214:1 215:1 216:1 217:1 
0.1562215164765544 129:1 
0.1562215164765544 218:1 219:1 220:1 221:1 222:1 223:1 
0.1562215164765544 129:1 
0.1562215164765544 184:1 
0.1562215164765544 76:1 218:1 223:1 224:1 225:1 226:1 227:1 
0.1562215164765544 129:1 
0.1562215164765544 129:1 
0.1562215164765544 10:1 11:1 175:1 228:1 229:1 
0.1562215164765544 129:1 
0.1562215164765544 129:1 
0.1562215164765544 63:1 232:1 233:1 234:1 
0.1562215164765544 129:1 
0.1562215164765544 175:1 235:1 236:1 
0.1562215164765544 129:1 147:1 237:1 
0.1562215164765544 247:1 
0.1562215164765544 129:1 
0.1562215164765544 69:1 84:1 153:1 254:1 255:1 256:1 
0.1562215164765544 129:1 
0.1562215164765544 218:1 257:1 258:1 
0.1562215164765544 129:1 
0.1562215164765544 64:1 77:1 259:1 260:1 261:1 262:1 263:1 
0.1562215164765544 129:1 
0.1562215164765544 268:1 
0.1562215164765544 129:1 
0.1562215164765544 272:1 
0.1562215164765544 129:1 
0.1562215164765544 129:1 
0.1562215164765544 278:1 
0.1562215164765544 279:1 
0.1562215164765544 129:1 
0.1562215164765544 281:1 282:1 283:1 284:1 
0.1562215164765544 183:1 286:1 287:1 288:1 289:1 290:1 291:1 
0.1562215164765544 129:1 277:1 293:1 294:1 
0.1562215164765544 129:1 
0.1562215164765544 84:1 102:1 296:1 297:1 298:1 
0.1562215164765544 129:1 
0.1562215164765544 129:1 
0.1562215164765544 129:1 
0.1562215164765544 129:1 
0.1562215164765544 38:1 113:1 310:1 314:1 315:1 
0.1562215164765544 258:1 316:1 
0.1562215164765544 129:1 
0.1562215164765544 318:1 
0.1562215164765544 129:1 
0.1562215164765544 38:1 321:1 
0.1562215164765544 6:1 46:1 229:1 322:1 323:1 
0.1562215164765544 160:1 324:1 325:1 
0.1562215164765544 129:1 
0.1562215164765544 153:1 207:1 218:1 317:1 318:1 327:1 
0.1562215164765544 160:1 179:1 
0.1562215164765544 129:1 
0.115429709277086 129:1 
0.1562215164765544 328:1 
0.1562215164765544 318:1 
0.1562215164765544 329:1 330:1 331:1 332:1 333:1 334:1 
0.1562215164765544 103:1 335:1 336:1 337:1 
0.1562215164765544 103:1 336:1 337:1 340:1 341:1 342:1 
0.1562215164765544 6:1 349:1 350:1 
0.1562215164765544 328:1 
0.1562215164765544 318:1 
0.1562215164765544 25:1 71:1 91:1 
0.1562215164765544 6:1 356:1 357:1 
0.122450775393462 358:1 359:1 360:1 361:1 
0.1562215164765544 318:1 
0.1562215164765544 324:1 362:1 363:1 364:1 
0.1562215164765544 365:1 366:1 367:1 
0.0186857205579996 27:1 56:1 121:1 317:1 368:1 369:1 370:1 371:1 
0.1562215164765544 318:1 
0.1562215164765544 318:1 
0.1562215164765544 318:1 
0.009469893996111183 124:1 125:1 127:1 318:1 379:1 380:1 
0.1562215164765544 377:1 381:1 
0.1562215164765544 318:1 382:1 
0.1562215164765544 318:1 
0.1562215164765544 384:1 385:1 386:1 
0.1562215164765544 387:1 388:1 389:1 
0.1562215164765544 6:1 349:1 350:1 
0.1562215164765544 160:1 179:1 
0.1562215164765544 19:1 309:1 391:1 
0.1321987464058227 123:1 160:1 378:1 392:1 
0.1562215164765544 393:1 
0.1562215164765544 160:1 324:1 325:1 
0.1562215164765544 160:1 205:1 395:1 396:1 
0.1562215164765544 181:1 397:1 398:1 399:1 400:1 401:1 402:1 403:1 404:1 
0.1562215164765544 310:1 401:1 405:1 
0.1562215164765544 125:1 309:1 
0.1562215164765544 90:1 407:1 
0.1562215164765544 408:1 409:1 
0.1562215164765544 10:1 11:1 12:1 280:1 336:1 412:1 413:1 414:1 415:1 416:1 417:1 418:1 419:1 
0.1562215164765544 16:1 34:1 422:1 
0.1562215164765544 423:1 424:1 425:1 426:1 
0.1562215164765544 276:1 427:1 
0.1562215164765544 248:1 386:1 429:1 
0.1562215164765544 432:1 
0.1562215164765544 432:1 
0.1562215164765544 432:1 
0.1562215164765544 224:1 331:1 436:1 437:1 
0.00210316447995212 432:1 
0.1562215164765544 122:1 166:1 
0.1562215164765544 46:1 181:1 
0.1562215164765544 443:1 
0.1562215164765544 68:1 444:1 445:1 446:1 
0.1562215164765544 447:1 
0.1562215164765544 454:1 
0.1562215164765544 64:1 241:1 243:1 259:1 455:1 456:1 457:1 458:1 459:1 
0.1562215164765544 64:1 229:1 240:1 241:1 460:1 461:1 462:1 
0.1562215164765544 176:1 374:1 433:1 463:1 464:1 465:1 466:1 467:1 468:1 
0.1562215164765544 469:1 
0.1448448331687293 198:1 433:1 466:1 470:1 471:1 472:1 473:1 
0.1562215164765544 10:1 11:1 206:1 228:1 229:1 474:1 475:1 
0.1562215164765544 276:1 476:1 
0.1562215164765544 166:1 
0.1562215164765544 481:1 482:1 483:1 
0.1562215164765544 484:1 485:1 486:1 487:1 488:1 
0.1562215164765544 107:1 112:1 
0.03595238939494681 326:1 
0.1562215164765544 508:1 
0.1562215164765544 509:1 510:1 
0.1562215164765544 179:1 
0.1562215164765544 511:1 
0.1562215164765544 47:1 
0.1562215164765544 103:1 153:1 338:1 339:1 512:1 513:1 514:1 515:1 516:1 
0.1562215164765544 120:1 338:1 339:1 513:1 
0.1562215164765544 518:1 519:1 520:1 
0.1562215164765544 125:1 348:1 521:1 
0.1562215164765544 38:1 522:1 523:1 524:1 525:1 526:1 527:1 
0.1562215164765544 528:1 
0.1562215164765544 181:1 533:1 
0.1562215164765544 130:1 534:1 
0.1562215164765544 14:1 22:1 23:1 535:1 
0.1562215164765544 539:1 540:1 
0.1562215164765544 14:1 22:1 23:1 535:1 
0.1562215164765544 542:1 
0.1562215164765544 543:1 
0.1562215164765544 60:1 176:1 544:1 545:1 546:1 547:1 
0.1562215164765544 548:1 
0.1562215164765544 234:1 322:1 443:1 
0.1562215164765544 552:1 
0.1562215164765544 316:1 390:1 
0.1562215164765544 553:1 
0.1562215164765544 554:1 
0.1562215164765544 555:1 
0.1562215164765544 557:1 
0.1562215164765544 84:1 559:1 
0.1562215164765544 172:1 558:1 
0.1562215164765544 553:1 
0.1562215164765544 107:1 560:1 561:1 562:1 
0.1562215164765544 67:1 
0.1562215164765544 563:1 
0.1562215164765544 17:1 
0.1562215164765544 18:1 567:1 568:1 
0.08660838332121638 130:1 569:1 570:1 
0.1562215164765544 511:1 
0.1562215164765544 67:1 
0.1562215164765544 375:1 571:1 572:1 573:1 574:1 575:1 
0.1562215164765544 46:1 418:1 576:1 577:1 
0.1562215164765544 384:1 578:1 579:1 580:1 
0.1562215164765544 576:1 582:1 
0.1562215164765544 558:1 
0.1562215164765544 558:1 
0.1562215164765544 592:1 
0.1562215164765544 558:1 
0.1562215164765544 596:1 
0.1562215164765544 558:1 
0.1562215164765544 10:1 11:1 228:1 
0.1562215164765544 229:1 
0.1562215164765544 55:1 107:1 184:1 600:1 601:1 602:1 
0.1562215164765544 558:1 
0.1562215164765544 558:1 
0.1562215164765544 558:1 
0.1562215164765544 264:1 605:1 606:1 607:1 608:1 
0.1562215164765544 558:1 
0.1562215164765544 184:1 229:1 613:1 
0.1562215164765544 24:1 476:1 
0.1562215164765544 422:1 614:1 
0.1562215164765544 373:1 538:1 558:1 576:1 615:1 616:1 617:1 618:1 
0.1562215164765544 169:1 229:1 619:1 620:1 621:1 
0.1562215164765544 179:1 
0.1562215164765544 558:1 
0.1562215164765544 558:1 
0.1562215164765544 422:1 614:1 
0.1562215164765544 627:1 628:1 
0.1562215164765544 202:1 350:1 505:1 629:1 
0.1097493304924936 125:1 179:1 273:1 348:1 630:1 
0.1562215164765544 521:1 
0.1562215164765544 179:1 
0.1562215164765544 558:1 
0.1562215164765544 311:1 531:1 558:1 631:1 632:1 
0.1562215164765544 107:1 
0.1562215164765544 558:1 
0.1562215164765544 633:1 634:1 
0.1562215164765544 635:1 636:1 
0.1562215164765544 234:1 637:1 
0.1562215164765544 6:1 234:1 288:1 638:1 639:1 640:1 641:1 
0.1562215164765544 350:1 642:1 
0.1562215164765544 643:1 644:1 
0.1562215164765544 558:1 
0.1562215164765544 103:1 107:1 647:1 
0.1562215164765544 103:1 512:1 648:1 649:1 
0.1562215164765544 153:1 513:1 519:1 520:1 650:1 651:1 652:1 653:1 
0.1562215164765544 153:1 347:1 651:1 652:1 654:1 
0.1562215164765544 103:1 112:1 122:1 176:1 453:1 648:1 649:1 655:1 
0.1562215164765544 103:1 107:1 122:1 625:1 
0.1562215164765544 519:1 520:1 656:1 
0.1562215164765544 248:1 350:1 657:1 658:1 
0.1562215164765544 179:1 
0.1562215164765544 495:1 
0.1562215164765544 125:1 179:1 357:1 659:1 660:1 
0.1562215164765544 6:1 578:1 
0.1562215164765544 179:1 
0.1562215164765544 179:1 
0.1562215164765544 125:1 
0.1562215164765544 5:1 84:1 661:1 662:1 663:1 664:1 
0.1562215164765544 558:1 
0.1562215164765544 667:1 
0.1562215164765544 18:1 19:1 22:1 23:1 558:1 
0.1562215164765544 166:1 378:1 
0.1562215164765544 576:1 
0.04011666402633372 67:1 671:1 672:1 673:1 674:1 675:1 
0.1562215164765544 676:1 677:1 
0.1562215164765544 385:1 
0.1483001673205328 641:1 
0.1562215164765544 425:1 681:1 
0.1562215164765544 44:1 259:1 
0.05915480007933951 84:1 121:1 682:1 683:1 
0.1562215164765544 67:1 
0.1562215164765544 688:1 689:1 
0.1562215164765544 690:1 
0.1562215164765544 103:1 335:1 336:1 337:1 
0.1562215164765544 46:1 
0.1562215164765544 691:1 
0.1562215164765544 691:1 
0.1562215164765544 67:1 
0.1562215164765544 660:1 694:1 695:1 696:1 
0.1562215164765544 27:1 699:1 
0.1562215164765544 700:1 
0.1562215164765544 186:1 457:1 703:1 704:1 705:1 
0.1562215164765544 67:1 
0.1562215164765544 35:1 107:1 706:1 
0.1562215164765544 62:1 
0.0137177120038117 112:1 
0.1562215164765544 708:1 
0.1562215164765544 508:1 
0.1562215164765544 708:1 
0.1562215164765544 27:1 
0.1562215164765544 708:1 
0.1562215164765544 103:1 336:1 337:1 350:1 711:1 712:1 
0.1562215164765544 84:1 713:1 714:1 715:1 
0.1562215164765544 716:1 
0.1562215164765544 45:1 46:1 717:1 
0.1562215164765544 708:1 
0.1562215164765544 64:1 103:1 176:1 515:1 516:1 709:1 719:1 720:1 
0.1562215164765544 48:1 721:1 
0.1562215164765544 300:1 
0.1562215164765544 301:1 
0.1562215164765544 302:1 
0.1562215164765544 303:1 
0.1562215164765544 491:1 
0.1562215164765544 304:1 
0.1562215164765544 722:1 
0.1562215164765544 27:1 723:1 
0.1562215164765544 708:1 
0.1562215164765544 708:1 
0.1562215164765544 708:1 
0.1562215164765544 708:1 
0.1562215164765544 731:1 
0.1562215164765544 708:1 
0.1562215164765544 733:1 
0.1562215164765544 27:1 176:1 249:1 250:1 734:1 735:1 736:1 737:1 
0.1562215164765544 228:1 
0.1562215164765544 708:1 
0.1562215164765544 67:1 
0.1562215164765544 738:1 
0.1562215164765544 708:1 
0.1562215164765544 741:1 
0.1562215164765544 147:1 229:1 237:1 
0.1562215164765544 708:1 
0.03237658900178648 27:1 241:1 271:1 736:1 742:1 743:1 744:1 
0.1562215164765544 708:1 
0.07133152998929804 708:1 
0.1562215164765544 308:1 492:1 746:1 
0.1562215164765544 60:1 747:1 
0.1562215164765544 272:1 
0.1562215164765544 748:1 
0.1562215164765544 750:1 751:1 
0.1562215164765544 420:1 684:1 686:1 687:1 752:1 753:1 
0.1562215164765544 766:1 
0.1562215164765544 311:1 655:1 708:1 767:1 768:1 769:1 770:1 771:1 
0.1562215164765544 772:1 773:1 774:1 775:1 
0.1562215164765544 16:1 422:1 655:1 
0.1562215164765544 6:1 640:1 655:1 777:1 778:1 
0.1562215164765544 779:1 780:1 
0.104115043746292 666:1 781:1 782:1 783:1 784:1 785:1 
0.1562215164765544 56:1 787:1 788:1 789:1 
0.1562215164765544 679:1 
0.1562215164765544 71:1 755:1 756:1 791:1 
0.1562215164765544 47:1 93:1 792:1 793:1 
0.1562215164765544 794:1 
0.1117530658614486 795:1 796:1 797:1 798:1 799:1 
0.1562215164765544 800:1 
0.1562215164765544 801:1 
0.1562215164765544 14:1 22:1 23:1 24:1 277:1 
0.1562215164765544 657:1 802:1 803:1 804:1 
0.1562215164765544 47:1 805:1 
0.1562215164765544 806:1 807:1 808:1 
0.1562215164765544 809:1 
0.1562215164765544 277:1 810:1 
0.1562215164765544 801:1 
0.1562215164765544 14:1 22:1 23:1 24:1 277:1 
0.1562215164765544 10:1 11:1 12:1 69:1 
0.1562215164765544 137:1 406:1 813:1 814:1 
0.1562215164765544 27:1 161:1 816:1 817:1 
0.08871596751656374 137:1 403:1 
0.0731944068000543 38:1 258:1 373:1 479:1 819:1 
0.1562215164765544 444:1 535:1 820:1 821:1 822:1 
0.1562215164765544 823:1 
0.1562215164765544 104:1 135:1 829:1 
0.1562215164765544 103:1 
0.1562215164765544 122:1 648:1 649:1 
0.1562215164765544 16:1 103:1 
0.1562215164765544 103:1 
0.1562215164765544 47:1 832:1 833:1 
0.1562215164765544 103:1 
0.1562215164765544 103:1 107:1 122:1 648:1 649:1 
0.05433964423572756 153:1 652:1 834:1 835:1 
0.1562215164765544 69:1 173:1 836:1 837:1 
0.1562215164765544 838:1 
0.1132732865082831 839:1 
0.1562215164765544 103:1 
0.09589948280920983 593:1 655:1 794:1 840:1 
0.1562215164765544 156:1 652:1 842:1 843:1 844:1 
0.1562215164765544 120:1 175:1 228:1 648:1 649:1 825:1 
0.1562215164765544 103:1 
0.1562215164765544 27:1 103:1 
0.1562215164765544 223:1 240:1 471:1 744:1 834:1 835:1 850:1 851:1 852:1 853:1 
0.1308513389073382 176:1 655:1 855:1 
0.1562215164765544 103:1 
0.1562215164765544 93:1 94:1 103:1 121:1 176:1 189:1 856:1 
0.1562215164765544 103:1 
0.1562215164765544 56:1 104:1 692:1 861:1 862:1 863:1 864:1 
0.1562215164765544 869:1 
0.1562215164765544 871:1 872:1 873:1 
0.0006370598613737782 869:1 
0.1562215164765544 878:1 
0.1562215164765544 228:1 
0.1562215164765544 880:1 
0.1562215164765544 881:1 
0.1562215164765544 882:1 
0.1562215164765544 883:1 
0.1449460778418937 880:1 
0.03745070752286787 843:1 
0.1562215164765544 881:1 
0.1562215164765544 882:1 
0.1562215164765544 883:1 
0.1042308276852309 340:1 884:1 
0.1550465559117467 469:1 885:1 886:1 
0.1111878944157467 489:1 889:1 
0.1562215164765544 68:1 395:1 
0.1562215164765544 278:1 
0.1562215164765544 53:1 169:1 
0.1562215164765544 876:1 904:1 
0.1562215164765544 496:1 505:1 869:1 
0.1562215164765544 67:1 
0.1562215164765544 912:1 
0.1562215164765544 27:1 161:1 914:1 
0.1562215164765544 915:1 
0.1562215164765544 487:1 919:1 920:1 
0.1562215164765544 919:1 920:1 
0.1562215164765544 38:1 68:1 322:1 
0.1562215164765544 3:1 4:1 
0.1562215164765544 22:1 557:1 689:1 
0.1562215164765544 926:1 927:1 928:1 
0.1562215164765544 805:1 807:1 
0.1562215164765544 800:1 932:1 
0.001536145029118379 345:1 869:1 
0.1562215164765544 125:1 273:1 630:1 933:1 
0.1562215164765544 27:1 649:1 934:1 
0.1562215164765544 27:1 161:1 531:1 935:1 936:1 
0.1562215164765544 940:1 
0.1562215164765544 137:1 352:1 941:1 
0.1562215164765544 944:1 
0.1562215164765544 945:1 946:1 947:1 
0.1562215164765544 137:1 948:1 949:1 
0.1562215164765544 37:1 950:1 
0.1562215164765544 939:1 951:1 952:1 953:1 954:1 
0.1562215164765544 42:1 
0.1562215164765544 955:1 
0.1562215164765544 956:1 
0.1562215164765544 169:1 233:1 
0.02479573556208524 136:1 170:1 860:1 957:1 958:1 
0.0282491131398988 609:1 961:1 
0.1562215164765544 537:1 
0.1562215164765544 27:1 53:1 107:1 108:1 330:1 511:1 561:1 797:1 
0.1562215164765544 48:1 668:1 963:1 
0.1562215164765544 71:1 964:1 
0.1015137687216795 966:1 
0.001504822742823467 959:1 
0.1562215164765544 537:1 
0.1562215164765544 68:1 107:1 395:1 
0.1562215164765544 955:1 956:1 967:1 968:1 969:1 
0.04289784398296095 107:1 561:1 970:1 
0.1562215164765544 67:1 
0.1562215164765544 59:1 71:1 
0.1562215164765544 48:1 321:1 971:1 
0.1562215164765544 331:1 973:1 974:1 975:1 976:1 977:1 978:1 
0.1562215164765544 573:1 984:1 985:1 986:1 987:1 
0.1562215164765544 992:1 
0.1562215164765544 175:1 447:1 579:1 959:1 993:1 994:1 
0.1562215164765544 340:1 884:1 
0.1562215164765544 222:1 611:1 988:1 995:1 
0.1562215164765544 27:1 57:1 
0.07522771548256484 223:1 250:1 744:1 979:1 999:1 1000:1 1001:1 
0.1562215164765544 489:1 1002:1 1003:1 
0.1562215164765544 194:1 
0.1562215164765544 191:1 590:1 1004:1 1005:1 
0.1562215164765544 90:1 
0.1562215164765544 292:1 
0.1562215164765544 278:1 
0.1562215164765544 53:1 169:1 
0.1562215164765544 107:1 874:1 
0.1562215164765544 761:1 762:1 
0.01164753977669658 300:1 301:1 611:1 624:1 885:1 905:1 
0.1374806863107471 3:1 4:1 
0.1562215164765544 1013:1 
0.02815506128307215 224:1 1015:1 
0.07248298583760826 1017:1 1018:1 
0.1562215164765544 67:1 
0.001633361598137759 50:1 543:1 1019:1 1020:1 1021:1 
0.05566099643694226 127:1 1022:1 1023:1 1024:1 
0.1562215164765544 561:1 
0.1562215164765544 1025:1 1026:1 
0.1562215164765544 1027:1 
0.1562215164765544 848:1 
0.1562215164765544 1029:1 
0.00298281658977064 845:1 
0.1562215164765544 1030:1 
0.1562215164765544 1031:1 
0.0002176038996522543 49:1 
0.1562215164765544 107:1 959:1 1032:1 
0.1562215164765544 1033:1 
0.1562215164765544 915:1 
0.1562215164765544 1034:1 1035:1 1036:1 
0.1562215164765544 507:1 
0.1562215164765544 614:1 694:1 764:1 1040:1 1041:1 
0.1562215164765544 6:1 11:1 39:1 133:1 176:1 640:1 643:1 1042:1 1043:1 1044:1 
0.1562215164765544 689:1 
0.1562215164765544 18:1 22:1 23:1 959:1 
0.1562215164765544 27:1 135:1 165:1 959:1 1039:1 1049:1 
0.1562215164765544 1050:1 
0.1562215164765544 463:1 1051:1 1052:1 
0.1562215164765544 1050:1 
0.1562215164765544 1050:1 
0.1562215164765544 263:1 604:1 1053:1 1054:1 
0.1562215164765544 1050:1 
0.1562215164765544 1050:1 
0.1562215164765544 1050:1 
0.1562215164765544 217:1 
0.1562215164765544 1050:1 
0.1562215164765544 611:1 1057:1 1058:1 1059:1 
0.1562215164765544 1050:1 
0.1562215164765544 1050:1 
0.1562215164765544 1050:1 
0.1562215164765544 276:1 
0.1562215164765544 1050:1 
0.1562215164765544 1050:1 
0.1562215164765544 1050:1 
0.1562215164765544 175:1 223:1 338:1 437:1 604:1 999:1 1064:1 1065:1 
0.1562215164765544 1066:1 
0.1562215164765544 1050:1 
0.1562215164765544 1050:1 
0.1562215164765544 64:1 241:1 460:1 1067:1 1068:1 1069:1 1070:1 1071:1 1072:1 
0.1562215164765544 1050:1 
0.1562215164765544 222:1 224:1 225:1 1073:1 
0.1562215164765544 1050:1 
0.1562215164765544 458:1 1074:1 1075:1 
0.1562215164765544 228:1 640:1 793:1 
0.1562215164765544 1050:1 
0.1562215164765544 229:1 
0.1562215164765544 167:1 288:1 898:1 
0.007296333980041463 162:1 183:1 471:1 620:1 621:1 640:1 793:1 1076:1 1077:1 
0.1562215164765544 1050:1 
0.1562215164765544 529:1 578:1 590:1 599:1 1050:1 
0.1562215164765544 1050:1 
0.1562215164765544 313:1 758:1 
0.1516245272521765 1050:1 
0.1562215164765544 948:1 
0.1562215164765544 1088:1 
0.1562215164765544 35:1 900:1 
0.0533394302716001 37:1 384:1 578:1 640:1 643:1 793:1 
0.1562215164765544 1089:1 
0.1562215164765544 229:1 
0.1562215164765544 67:1 
0.1562215164765544 825:1 
0.1562215164765544 1092:1 
0.1562215164765544 1093:1 1094:1 
0.1562215164765544 395:1 707:1 1097:1 
0.1562215164765544 44:1 122:1 
0.1562215164765544 151:1 152:1 
0.1562215164765544 1100:1 
0.04115315155858024 47:1 56:1 787:1 788:1 843:1 
0.1562215164765544 787:1 
0.1562215164765544 1106:1 
0.1562215164765544 843:1 1073:1 
0.1562215164765544 1111:1 
0.1562215164765544 1114:1 
0.1562215164765544 578:1 580:1 1115:1 1116:1 
0.1562215164765544 59:1 401:1 1112:1 
0.00291165394159891 1050:1 
0.1562215164765544 1114:1 
0.1562215164765544 578:1 580:1 1115:1 1116:1 
0.1562215164765544 925:1 1120:1 
0.1562215164765544 489:1 1121:1 
0.1562215164765544 147:1 233:1 
0.1562215164765544 558:1 1125:1 
0.1562215164765544 558:1 
0.1562215164765544 558:1 
0.1562215164765544 558:1 
0.1562215164765544 17:1 38:1 46:1 236:1 402:1 1129:1 1132:1 1133:1 
0.1562215164765544 11:1 12:1 107:1 236:1 347:1 1134:1 1135:1 1136:1 1137:1 1138:1 1139:1 
0.1562215164765544 558:1 
0.1562215164765544 558:1 
0.1562215164765544 558:1 
0.1562215164765544 1145:1 
0.1562215164765544 558:1 
0.1562215164765544 817:1 
0.1562215164765544 558:1 
0.1562215164765544 558:1 
0.1562215164765544 558:1 
0.1562215164765544 1146:1 
0.1562215164765544 229:1 590:1 998:1 
0.1562215164765544 558:1 
0.1562215164765544 558:1 
0.1562215164765544 558:1 
0.1562215164765544 1147:1 
0.1562215164765544 363:1 1148:1 
0.1562215164765544 558:1 
0.1562215164765544 558:1 
0.1562215164765544 558:1 
0.1562215164765544 113:1 395:1 1152:1 1153:1 
0.1562215164765544 48:1 137:1 492:1 511:1 983:1 1154:1 1155:1 
0.1562215164765544 558:1 
0.1562215164765544 57:1 
0.1562215164765544 27:1 71:1 590:1 678:1 736:1 1062:1 1063:1 1159:1 
0.1562215164765544 224:1 264:1 587:1 608:1 826:1 1003:1 1160:1 
0.1562215164765544 1161:1 
0.1562215164765544 64:1 1162:1 1163:1 1164:1 
0.1562215164765544 716:1 
0.05353179025325869 55:1 56:1 1166:1 1167:1 1168:1 1169:1 
0.1562215164765544 11:1 45:1 194:1 197:1 320:1 558:1 1170:1 
0.1562215164765544 10:1 11:1 228:1 229:1 
0.1562215164765544 558:1 
0.1562215164765544 558:1 
0.1562215164765544 558:1 
0.1562215164765544 422:1 614:1 
0.1562215164765544 558:1 
0.1562215164765544 61:1 
0.1562215164765544 558:1 
0.008388070063104049 278:1 
0.1155030923257371 1177:1 
0.1562215164765544 558:1 
0.1562215164765544 25:1 507:1 
0.1562215164765544 558:1 
0.1562215164765544 558:1 
0.1562215164765544 558:1 
0.1562215164765544 47:1 70:1 1179:1 1180:1 
0.1562215164765544 313:1 
0.1562215164765544 558:1 
0.1562215164765544 558:1 
0.1562215164765544 558:1 
0.06260741118747874 313:1 413:1 558:1 754:1 1184:1 
0.01076536606096306 1185:1 
0.1562215164765544 18:1 22:1 23:1 558:1 
0.1562215164765544 1022:1 1193:1 
0.1562215164765544 288:1 
0.1562215164765544 18:1 22:1 23:1 223:1 1183:1 1184:1 
0.1562215164765544 416:1 512:1 1055:1 1195:1 
0.1562215164765544 1179:1 1196:1 
0.1562215164765544 1200:1 
0.1562215164765544 1201:1 1202:1 
0.1562215164765544 1205:1 
0.1562215164765544 369:1 472:1 744:1 1206:1 1207:1 1208:1 
0.1562215164765544 10:1 11:1 475:1 
0.06643131675228776 340:1 600:1 
0.1449166476658409 170:1 240:1 744:1 874:1 1213:1 1214:1 1215:1 1216:1 
0.1562215164765544 14:1 273:1 439:1 873:1 1217:1 1218:1 1219:1 
0.1562215164765544 517:1 1184:1 1220:1 1221:1 
0.1104147051031652 509:1 510:1 1184:1 
0.1562215164765544 53:1 169:1 
0.1562215164765544 1226:1 
0.1562215164765544 489:1 1201:1 
0.1562215164765544 130:1 295:1 396:1 1235:1 
0.1562215164765544 130:1 295:1 396:1 1235:1 
0.1562215164765544 1236:1 1237:1 
0.1562215164765544 16:1 255:1 
0.1562215164765544 1036:1 
0.1562215164765544 27:1 
0.1562215164765544 1241:1 
0.1562215164765544 1241:1 
0.1562215164765544 67:1 
0.1562215164765544 1241:1 
0.1562215164765544 16:1 255:1 
0.1562215164765544 1036:1 
0.134154101947213 54:1 197:1 640:1 915:1 1123:1 1128:1 1244:1 
0.1562215164765544 1163:1 
0.06075643676449534 1241:1 
0.1562215164765544 222:1 223:1 229:1 1246:1 1247:1 
0.1562215164765544 1163:1 
0.1562215164765544 918:1 
0.1562215164765544 369:1 444:1 744:1 872:1 1249:1 1250:1 
0.1562215164765544 600:1 755:1 756:1 1251:1 1252:1 
0.1562215164765544 11:1 175:1 228:1 229:1 1253:1 
0.1562215164765544 779:1 1254:1 1255:1 
0.1562215164765544 828:1 
0.1562215164765544 243:1 252:1 253:1 736:1 1257:1 
0.1562215164765544 64:1 1257:1 1258:1 1259:1 1260:1 1261:1 
0.1562215164765544 1262:1 
0.1562215164765544 228:1 229:1 649:1 1267:1 
0.1562215164765544 1106:1 
0.1562215164765544 113:1 
0.1562215164765544 18:1 422:1 614:1 
0.1562215164765544 313:1 
0.1562215164765544 38:1 294:1 480:1 794:1 1241:1 
0.1562215164765544 1276:1 1277:1 
0.1562215164765544 1022:1 
0.1562215164765544 1279:1 1280:1 
0.0535504755810914 898:1 1283:1 
0.1562215164765544 649:1 1267:1 
0.1562215164765544 1284:1 
0.1213472959012198 6:1 27:1 45:1 275:1 340:1 1223:1 1290:1 1291:1 
0.1562215164765544 630:1 1023:1 1293:1 1294:1 
0.1562215164765544 175:1 1240:1 
0.1562215164765544 1295:1 1296:1 1297:1 
0.1562215164765544 110:1 422:1 614:1 1298:1 
0.1562215164765544 1299:1 1300:1 
0.05831448876436056 772:1 1266:1 1301:1 1302:1 
0.1562215164765544 395:1 481:1 561:1 900:1 
0.1562215164765544 22:1 23:1 535:1 1119:1 1183:1 
0.1562215164765544 45:1 46:1 165:1 385:1 680:1 1290:1 
0.1562215164765544 50:1 184:1 
0.1562215164765544 153:1 288:1 755:1 756:1 1307:1 1308:1 
0.1562215164765544 61:1 
0.1562215164765544 61:1 747:1 
0.1562215164765544 45:1 67:1 668:1 1290:1 1310:1 1311:1 1312:1 1313:1 1314:1 
0.1562215164765544 1290:1 1311:1 
0.1562215164765544 420:1 1290:1 1311:1 1315:1 1316:1 1317:1 1318:1 1319:1 
0.1562215164765544 1290:1 1310:1 1311:1 
0.1562215164765544 1329:1 
0.1562215164765544 1329:1 
0.1562215164765544 1329:1 
0.1562215164765544 1329:1 
0.01056215638395669 1329:1 
0.06124077554120479 39:1 350:1 1290:1 1328:1 1332:1 
0.05372467089388935 1329:1 
0.1562215164765544 39:1 42:1 165:1 184:1 1044:1 1290:1 1328:1 1329:1 
0.1562215164765544 67:1 
0.05421985493990617 202:1 234:1 797:1 1333:1 1334:1 
0.1363859858136358 68:1 668:1 674:1 1335:1 1336:1 1337:1 
0.1562215164765544 64:1 146:1 185:1 935:1 
0.1562215164765544 1342:1 
0.1562215164765544 1342:1 
0.1562215164765544 818:1 1331:1 
0.09404836341285772 176:1 1329:1 1343:1 
0.156069357296434 633:1 1344:1 1345:1 1346:1 1347:1 1348:1 
0.1562215164765544 1331:1 
0.1562215164765544 702:1 
0.1562215164765544 1331:1 
0.1562215164765544 1331:1 
0.1562215164765544 107:1 561:1 
0.1562215164765544 1331:1 
0.1562215164765544 107:1 828:1 
0.1562215164765544 67:1 
0.1562215164765544 1331:1 
0.1562215164765544 1331:1 
0.1562215164765544 1331:1 
0.121420647454764 76:1 
0.1562215164765544 1331:1 
0.1562215164765544 1360:1 1361:1 1362:1 
0.1562215164765544 1331:1 
0.1562215164765544 1331:1 
0.1562215164765544 1331:1 
0.1562215164765544 1368:1 
0.1562215164765544 1370:1 
0.1562215164765544 1371:1 
0.1380889012898915 1331:1 
0.1562215164765544 58:1 
0.1562215164765544 340:1 
0.04933338672227458 147:1 302:1 727:1 731:1 1247:1 1372:1 1374:1 1375:1 1376:1 
0.07693130801724277 507:1 806:1 1264:1 1331:1 1377:1 
0.1562215164765544 573:1 997:1 1366:1 1380:1 1381:1 1382:1 1383:1 1384:1 
0.1562215164765544 241:1 690:1 1000:1 1309:1 1379:1 1385:1 1386:1 1387:1 
0.1562215164765544 425:1 
0.1562215164765544 229:1 1389:1 
0.1562215164765544 1390:1 
0.1562215164765544 34:1 706:1 716:1 1391:1 1392:1 
0.1562215164765544 53:1 169:1 
0.1562215164765544 71:1 79:1 107:1 317:1 544:1 
0.1562215164765544 299:1 300:1 302:1 303:1 304:1 306:1 624:1 906:1 907:1 
0.1562215164765544 1399:1 
0.1562215164765544 1022:1 
0.1562215164765544 127:1 450:1 1400:1 
0.1562215164765544 1403:1 
0.1562215164765544 234:1 1236:1 1331:1 1405:1 
0.1562215164765544 135:1 437:1 573:1 1406:1 
0.1562215164765544 1407:1 
0.1562215164765544 321:1 1290:1 
0.1562215164765544 313:1 
0.1562215164765544 34:1 181:1 1409:1 1410:1 1411:1 1412:1 1413:1 
0.1562215164765544 42:1 90:1 1414:1 
0.1562215164765544 205:1 396:1 900:1 1415:1 
0.1562215164765544 176:1 346:1 446:1 1416:1 1417:1 
0.1562215164765544 71:1 72:1 184:1 1422:1 
0.1562215164765544 1423:1 
0.08543538237990683 131:1 813:1 
0.1562215164765544 772:1 933:1 1298:1 1406:1 
0.1562215164765544 1426:1 
0.1562215164765544 234:1 1430:1 1431:1 1432:1 1433:1 
0.1562215164765544 312:1 599:1 660:1 797:1 812:1 1434:1 
0.1562215164765544 10:1 11:1 12:1 
0.1562215164765544 173:1 599:1 
0.1562215164765544 1298:1 1406:1 
0.1562215164765544 207:1 
0.1562215164765544 28:1 34:1 36:1 178:1 374:1 511:1 819:1 1298:1 1436:1 
0.1562215164765544 67:1 
0.1562215164765544 966:1 1440:1 
0.03023925495815044 34:1 1441:1 
0.1562215164765544 394:1 1433:1 
0.08289356804618331 202:1 1442:1 1443:1 
0.1562215164765544 501:1 
0.001049352472328304 1444:1 
0.1562215164765544 509:1 1446:1 
0.04555376212524977 622:1 1421:1 
0.1294162639547123 107:1 196:1 197:1 509:1 590:1 622:1 1421:1 1446:1 
0.1562215164765544 800:1 918:1 
0.1562215164765544 1201:1 
0.1562215164765544 918:1 
0.1562215164765544 1029:1 
0.1562215164765544 217:1 1453:1 1454:1 1455:1 
0.1562215164765544 1201:1 
0.1562215164765544 217:1 228:1 340:1 431:1 
0.1562215164765544 448:1 1314:1 1461:1 
0.1562215164765544 1201:1 
0.1562215164765544 1463:1 1464:1 1465:1 
0.1562215164765544 222:1 224:1 241:1 726:1 817:1 1156:1 1466:1 1467:1 
0.1562215164765544 14:1 783:1 1028:1 1347:1 1468:1 1469:1 1470:1 
0.1562215164765544 184:1 280:1 622:1 1190:1 1420:1 
0.1562215164765544 10:1 11:1 87:1 1444:1 1471:1 
0.1562215164765544 53:1 169:1 
0.1562215164765544 1449:1 1473:1 
0.1562215164765544 361:1 768:1 1475:1 1476:1 
0.1562215164765544 350:1 658:1 
0.1562215164765544 48:1 395:1 1190:1 
0.1562215164765544 194:1 
0.1562215164765544 537:1 761:1 932:1 
0.1562215164765544 1444:1 1479:1 
0.1562215164765544 127:1 176:1 458:1 639:1 1045:1 1480:1 
0.1562215164765544 537:1 761:1 932:1 
0.1562215164765544 125:1 1481:1 1482:1 
0.1562215164765544 125:1 
0.1562215164765544 1483:1 
0.1562215164765544 34:1 139:1 
0.1135780199818767 72:1 1485:1 1486:1 1487:1 
0.1562215164765544 1489:1 1490:1 
0.1562215164765544 71:1 72:1 
0.001517234492640651 1491:1 
0.1562215164765544 71:1 72:1 
0.1562215164765544 1492:1 
0.1562215164765544 71:1 72:1 
0.0265320030955896 71:1 72:1 
0.1562215164765544 34:1 1493:1 
0.1562215164765544 10:1 11:1 88:1 517:1 915:1 
0.1562215164765544 212:1 1495:1 
0.1562215164765544 99:1 1425:1 1496:1 1497:1 
0.1562215164765544 293:1 561:1 1499:1 1500:1 
0.1562215164765544 176:1 444:1 
0.1562215164765544 1484:1 
0.1562215164765544 1484:1 
0.1562215164765544 67:1 
0.1562215164765544 27:1 
0.1562215164765544 1484:1 
0.1562215164765544 1484:1 
0.1562215164765544 212:1 1495:1 
0.1562215164765544 538:1 1502:1 
0.1562215164765544 1503:1 
0.1562215164765544 1484:1 
0.1562215164765544 59:1 406:1 458:1 
0.1562215164765544 1355:1 
0.1562215164765544 1513:1 
0.1366629508564709 917:1 918:1 
0.1562215164765544 1484:1 
0.1562215164765544 84:1 437:1 1149:1 1514:1 1515:1 1516:1 
0.1562215164765544 1484:1 
0.1562215164765544 1355:1 
0.1562215164765544 27:1 
0.1562215164765544 1484:1 
0.1562215164765544 1484:1 
0.1562215164765544 1521:1 
0.1562215164765544 250:1 261:1 262:1 1522:1 
0.1562215164765544 1523:1 
0.1562215164765544 10:1 11:1 228:1 229:1 475:1 
0.1562215164765544 1484:1 
0.1562215164765544 35:1 184:1 458:1 778:1 1114:1 1527:1 
0.1562215164765544 71:1 
0.1562215164765544 1484:1 
0.1562215164765544 27:1 
0.0242054924817394 1484:1 
0.09439292264893405 7:1 754:1 1522:1 
0.1562215164765544 37:1 48:1 69:1 70:1 206:1 1529:1 
0.1562215164765544 7:1 1522:1 
0.1540627232937824 34:1 169:1 1470:1 1532:1 1533:1 1534:1 
0.1562215164765544 153:1 1522:1 1535:1 
0.1562215164765544 7:1 94:1 1522:1 
0.1562215164765544 288:1 311:1 383:1 1484:1 1536:1 1537:1 1538:1 
0.04858810099854178 18:1 422:1 614:1 
0.1562215164765544 113:1 
0.1562215164765544 495:1 
0.1562215164765544 480:1 1242:1 1474:1 
0.1562215164765544 311:1 614:1 1177:1 1540:1 1541:1 
0.1562215164765544 1544:1 1545:1 
0.1562215164765544 107:1 648:1 649:1 1425:1 1546:1 
0.1562215164765544 103:1 340:1 449:1 1545:1 1549:1 1550:1 
0.1562215164765544 639:1 1320:1 
0.1562215164765544 6:1 67:1 85:1 
0.1562215164765544 6:1 11:1 350:1 578:1 1043:1 1557:1 
0.1562215164765544 176:1 561:1 1558:1 1559:1 
0.1562215164765544 523:1 638:1 1484:1 1560:1 1561:1 
0.1562215164765544 16:1 22:1 23:1 24:1 1484:1 
0.1562215164765544 67:1 
0.1562215164765544 444:1 
0.1562215164765544 34:1 134:1 316:1 710:1 911:1 1290:1 1564:1 
0.1562215164765544 103:1 336:1 337:1 448:1 710:1 1566:1 
0.1562215164765544 372:1 1115:1 1567:1 1568:1 1569:1 1570:1 
0.1562215164765544 1176:1 
0.1562215164765544 384:1 1115:1 1567:1 1574:1 1575:1 
0.1562215164765544 156:1 1578:1 1579:1 1580:1 
0.1562215164765544 11:1 884:1 1583:1 1584:1 
0.1562215164765544 1577:1 
0.1562215164765544 330:1 716:1 1144:1 1585:1 1586:1 1587:1 
0.01066312821385876 1577:1 
0.1562215164765544 1104:1 
0.1562215164765544 276:1 
0.0005742632695444752 103:1 107:1 122:1 336:1 337:1 
0.03835352816600195 82:1 1111:1 1595:1 1596:1 
0.007060836281585667 170:1 175:1 1458:1 1597:1 1598:1 1599:1 
0.1562215164765544 64:1 999:1 1090:1 1387:1 1600:1 1601:1 
0.1562215164765544 205:1 358:1 437:1 556:1 593:1 1591:1 1602:1 1603:1 
0.1562215164765544 67:1 
0.1562215164765544 11:1 72:1 228:1 229:1 
0.1562215164765544 276:1 
0.1457288346684941 843:1 
0.1562215164765544 882:1 1605:1 1606:1 
0.1562215164765544 1473:1 1604:1 
0.1562215164765544 11:1 19:1 72:1 
0.1562215164765544 505:1 
0.1562215164765544 447:1 
0.1562215164765544 133:1 151:1 372:1 1569:1 1575:1 1613:1 1614:1 
0.1562215164765544 1611:1 1615:1 1616:1 
0.1562215164765544 326:1 689:1 
0.1562215164765544 229:1 1321:1 
0.1562215164765544 544:1 
0.1562215164765544 259:1 
0.1562215164765544 22:1 23:1 1119:1 1620:1 
0.002747497269593229 1577:1 
0.1562215164765544 1623:1 
0.1562215164765544 393:1 
0.1562215164765544 411:1 
0.1562215164765544 184:1 477:1 1195:1 
0.1562215164765544 51:1 515:1 680:1 1034:1 1035:1 1628:1 
0.1562215164765544 496:1 710:1 1610:1 
0.1562215164765544 53:1 236:1 416:1 437:1 1351:1 1610:1 1630:1 1631:1 1632:1 
0.1562215164765544 1610:1 
0.1562215164765544 411:1 
0.1562215164765544 416:1 512:1 600:1 1545:1 
0.1562215164765544 1610:1 
0.1562215164765544 1610:1 
0.1562215164765544 1636:1 1637:1 
0.1562215164765544 1610:1 
0.1562215164765544 124:1 343:1 472:1 1205:1 1638:1 1639:1 
0.1562215164765544 1610:1 
0.1562215164765544 304:1 
0.1562215164765544 1610:1 
0.1562215164765544 1610:1 
0.1562215164765544 224:1 241:1 744:1 1000:1 1058:1 1634:1 1640:1 1641:1 
0.1562215164765544 1610:1 
0.1562215164765544 390:1 1201:1 
0.1562215164765544 1610:1 
0.1562215164765544 175:1 216:1 439:1 873:1 1645:1 1646:1 
0.1562215164765544 1610:1 
0.1562215164765544 340:1 776:1 802:1 
0.1562215164765544 1610:1 
0.05235324186959842 66:1 369:1 726:1 973:1 1003:1 1055:1 1583:1 1647:1 
0.1562215164765544 1610:1 
0.1562215164765544 1610:1 
0.1562215164765544 53:1 169:1 
0.1562215164765544 84:1 328:1 1610:1 1653:1 
0.1562215164765544 69:1 464:1 1653:1 
0.1562215164765544 11:1 1654:1 
0.1562215164765544 1610:1 
0.1562215164765544 343:1 589:1 1653:1 1655:1 
0.1562215164765544 1610:1 
0.1562215164765544 137:1 1020:1 
0.1562215164765544 113:1 153:1 314:1 494:1 614:1 882:1 1610:1 1658:1 
0.1562215164765544 505:1 
0.1562215164765544 1610:1 
0.1562215164765544 1659:1 
0.1562215164765544 259:1 
0.1562215164765544 1660:1 
0.1562215164765544 1610:1 
0.1562215164765544 167:1 422:1 499:1 
0.1562215164765544 577:1 580:1 994:1 
0.1562215164765544 1610:1 
0.1562215164765544 229:1 
0.1562215164765544 1610:1 
0.1562215164765544 378:1 529:1 1290:1 1435:1 1664:1 
0.1562215164765544 313:1 
0.1562215164765544 1610:1 
0.1562215164765544 824:1 
0.1562215164765544 892:1 1474:1 
0.1562215164765544 529:1 
0.1562215164765544 27:1 
0.1562215164765544 98:1 125:1 1666:1 
0.1562215164765544 233:1 1667:1 
0.1384191813313992 67:1 
0.1562215164765544 1667:1 
0.1562215164765544 121:1 236:1 828:1 1039:1 1669:1 1670:1 1671:1 
0.1562215164765544 1667:1 
0.1562215164765544 1667:1 
0.1562215164765544 61:1 
0.1562215164765544 1667:1 
0.1562215164765544 27:1 
0.1562215164765544 1667:1 
0.003430018101789296 1667:1 
0.1562215164765544 1672:1 
0.1562215164765544 63:1 71:1 79:1 288:1 
0.1562215164765544 176:1 1020:1 
0.1562215164765544 1673:1 
0.1562215164765544 76:1 107:1 817:1 
0.1562215164765544 207:1 
0.1562215164765544 53:1 
0.1562215164765544 411:1 
0.1562215164765544 76:1 107:1 817:1 
0.1562215164765544 207:1 
0.1562215164765544 1675:1 
0.1562215164765544 363:1 
0.1562215164765544 1681:1 
0.1562215164765544 1682:1 
0.1562215164765544 107:1 
0.1562215164765544 471:1 620:1 621:1 1076:1 1077:1 1667:1 
0.1562215164765544 1106:1 1684:1 
0.1562215164765544 53:1 169:1 
0.1538242151238371 38:1 76:1 491:1 611:1 624:1 762:1 885:1 905:1 906:1 907:1 918:1 1079:1 
0.1562215164765544 61:1 
0.1562215164765544 505:1 
0.1562215164765544 496:1 768:1 1692:1 
0.1562215164765544 181:1 207:1 327:1 
0.1562215164765544 496:1 768:1 1692:1 
0.02287684415496326 1234:1 1667:1 1693:1 
0.1562215164765544 68:1 165:1 284:1 1694:1 1695:1 1696:1 
0.1562215164765544 22:1 23:1 475:1 1117:1 1667:1 
0.1562215164765544 807:1 937:1 1697:1 1698:1 
0.1562215164765544 38:1 130:1 294:1 
0.1562215164765544 1023:1 1702:1 
0.1206180161174527 356:1 357:1 535:1 536:1 537:1 932:1 
0.1562215164765544 71:1 148:1 348:1 1188:1 1703:1 
0.1562215164765544 27:1 310:1 
0.1562215164765544 138:1 1704:1 
0.1562215164765544 18:1 22:1 23:1 1667:1 
0.1562215164765544 372:1 
0.1100944347494421 165:1 659:1 660:1 
0.1562215164765544 328:1 508:1 937:1 1719:1 1720:1 
0.127438446065863 43:1 56:1 183:1 822:1 1384:1 1495:1 1713:1 1716:1 1721:1 
0.1562215164765544 27:1 37:1 1324:1 1694:1 1696:1 1724:1 1725:1 1726:1 
0.1562215164765544 641:1 
0.1562215164765544 1728:1 1729:1 1730:1 1731:1 1732:1 
0.01907521220904489 34:1 130:1 349:1 420:1 687:1 824:1 1733:1 1734:1 
0.1562215164765544 527:1 
0.1562215164765544 1056:1 1737:1 
0.1562215164765544 576:1 791:1 1599:1 
0.1562215164765544 527:1 
0.1562215164765544 1738:1 1739:1 1740:1 
0.1562215164765544 1741:1 1742:1 
0.1562215164765544 288:1 720:1 1290:1 1435:1 1744:1 
0.1562215164765544 34:1 267:1 717:1 1228:1 1480:1 1745:1 
0.1140176681138173 537:1 1738:1 
0.1562215164765544 48:1 49:1 1746:1 
0.1562215164765544 1610:1 
0.1562215164765544 867:1 868:1 
0.1562215164765544 1738:1 
0.01583743452233568 104:1 
0.1562215164765544 1738:1 
0.1562215164765544 1738:1 
0.02659115208602752 1738:1 
0.0136259272588588 176:1 1753:1 
0.005589163970643312 304:1 
0.1562215164765544 600:1 
0.1562215164765544 425:1 
0.1562215164765544 1757:1 
0.1562215164765544 1642:1 
0.1562215164765544 176:1 240:1 744:1 
0.142671931247567 241:1 304:1 604:1 744:1 1645:1 1760:1 
0.1562215164765544 508:1 1205:1 
0.1562215164765544 265:1 304:1 305:1 492:1 744:1 1645:1 1706:1 1761:1 1762:1 
0.1562215164765544 53:1 169:1 
0.1033298640735213 411:1 
0.1001540702179991 197:1 1738:1 1769:1 1770:1 
0.1562215164765544 791:1 
0.1562215164765544 61:1 
0.1006072087616872 882:1 1738:1 
0.000521598187439893 181:1 1353:1 1774:1 
0.1562215164765544 313:1 
0.1562215164765544 1775:1 
0.1562215164765544 49:1 1776:1 
0.1562215164765544 34:1 1777:1 
0.1562215164765544 350:1 444:1 
0.1562215164765544 496:1 537:1 539:1 
0.1562215164765544 1779:1 
0.1562215164765544 103:1 107:1 
0.1562215164765544 103:1 340:1 648:1 649:1 884:1 1028:1 1387:1 1781:1 
0.07911567153793742 70:1 153:1 176:1 1084:1 1782:1 
0.1562215164765544 103:1 107:1 519:1 520:1 625:1 652:1 1029:1 1030:1 1079:1 
0.1562215164765544 1784:1 1785:1 1786:1 
0.1562215164765544 1787:1 
0.1562215164765544 39:1 133:1 184:1 310:1 477:1 1042:1 1290:1 1328:1 1790:1 
0.0848207733021755 7:1 509:1 510:1 1791:1 
0.1562215164765544 447:1 
0.07166557070030929 1791:1 
0.1562215164765544 107:1 1132:1 
0.1562215164765544 1792:1 
0.1562215164765544 13:1 71:1 147:1 382:1 1457:1 1791:1 1793:1 1794:1 
0.1408437512270042 197:1 509:1 668:1 1409:1 1446:1 1795:1 1796:1 
0.1562215164765544 1176:1 
0.1562215164765544 1798:1 
0.1562215164765544 318:1 
0.1445520809682126 1362:1 1799:1 1800:1 
0.1562215164765544 207:1 
0.1562215164765544 1801:1 
0.1562215164765544 1802:1 
0.1562215164765544 10:1 11:1 228:1 475:1 
0.02435092677942505 57:1 452:1 466:1 469:1 898:1 1805:1 
0.1562215164765544 161:1 250:1 1803:1 1806:1 1807:1 1808:1 
0.1562215164765544 122:1 1809:1 1810:1 1811:1 
0.1562215164765544 238:1 544:1 1812:1 1813:1 
0.1562215164765544 1815:1 1816:1 
0.1562215164765544 228:1 229:1 725:1 
0.1562215164765544 27:1 167:1 373:1 1004:1 1074:1 1303:1 1817:1 1818:1 
0.004166811174416893 19:1 71:1 229:1 484:1 485:1 
0.1562215164765544 1824:1 
0.1562215164765544 242:1 
0.004080948359625265 535:1 787:1 788:1 1283:1 1303:1 
0.1562215164765544 79:1 313:1 1791:1 
0.1562215164765544 505:1 
0.1562215164765544 107:1 1032:1 1791:1 
0.1562215164765544 1022:1 
0.1562215164765544 1826:1 
0.1562215164765544 13:1 764:1 1041:1 1409:1 1827:1 
0.07248268780327838 56:1 684:1 686:1 687:1 1819:1 1828:1 1829:1 1830:1 
0.1562215164765544 1831:1 1832:1 1833:1 1834:1 1835:1 1836:1 1837:1 1838:1 
0.001873658814273248 1791:1 
0.06205922638217213 674:1 1842:1 1843:1 
0.1562215164765544 420:1 686:1 687:1 1828:1 1829:1 1844:1 1845:1 1846:1 
0.1562215164765544 330:1 802:1 1004:1 1847:1 
0.1562215164765544 153:1 347:1 1817:1 1818:1 
0.1562215164765544 372:1 1558:1 1559:1 
0.08056736232101738 180:1 332:1 1852:1 
0.1562215164765544 1856:1 
0.1562215164765544 1823:1 1859:1 
0.1562215164765544 881:1 
0.1562215164765544 883:1 
0.1562215164765544 955:1 
0.1562215164765544 1068:1 
0.1562215164765544 1860:1 
0.1562215164765544 511:1 
0.1562215164765544 1864:1 
0.01242939777461535 317:1 1865:1 
0.1562215164765544 509:1 510:1 1865:1 
0.1562215164765544 288:1 631:1 
0.1562215164765544 135:1 416:1 458:1 1856:1 1866:1 1867:1 
0.1562215164765544 509:1 1446:1 1870:1 
0.1562215164765544 1873:1 
0.1562215164765544 746:1 1657:1 1874:1 
0.1562215164765544 1579:1 
0.0403200562985282 1856:1 
0.1562215164765544 10:1 11:1 475:1 1876:1 
0.1562215164765544 749:1 
0.1562215164765544 1055:1 
0.0776113590452924 64:1 77:1 243:1 302:1 471:1 573:1 1525:1 
0.1562215164765544 55:1 334:1 472:1 593:1 1207:1 1878:1 1879:1 1880:1 
0.05538299297771911 64:1 224:1 240:1 243:1 261:1 1058:1 1207:1 1886:1 
0.1562215164765544 228:1 1881:1 1882:1 
0.1562215164765544 1887:1 
0.1562215164765544 18:1 138:1 934:1 960:1 
0.1562215164765544 38:1 299:1 300:1 301:1 302:1 303:1 304:1 305:1 306:1 983:1 1222:1 1890:1 
0.1562215164765544 589:1 1607:1 1856:1 1891:1 
0.1562215164765544 34:1 523:1 1892:1 1893:1 
0.1562215164765544 113:1 153:1 422:1 494:1 614:1 
0.1562215164765544 502:1 
0.004067257509604552 27:1 
0.1562215164765544 1284:1 
0.001419747938418248 1284:1 
0.1562215164765544 703:1 1897:1 1898:1 
0.1562215164765544 1088:1 1238:1 
0.1562215164765544 194:1 
0.1562215164765544 229:1 
0.08916388280051278 1860:1 
0.02285076758076567 1856:1 
0.05005112672518928 643:1 915:1 1226:1 1599:1 1881:1 1882:1 1901:1 
0.1562215164765544 153:1 652:1 
0.1562215164765544 103:1 107:1 169:1 523:1 1902:1 1903:1 1904:1 
0.1562215164765544 82:1 103:1 120:1 175:1 176:1 648:1 649:1 652:1 
0.1562215164765544 848:1 
0.1562215164765544 57:1 120:1 652:1 1905:1 
0.1562215164765544 222:1 651:1 652:1 1906:1 1907:1 
0.1562215164765544 103:1 519:1 520:1 625:1 652:1 845:1 848:1 1029:1 1030:1 1552:1 1908:1 1909:1 
0.1562215164765544 522:1 1910:1 
0.1562215164765544 61:1 271:1 
0.1562215164765544 1912:1 
0.1562215164765544 736:1 757:1 1022:1 1024:1 1913:1 1914:1 1915:1 
0.1562215164765544 497:1 
0.1562215164765544 777:1 1917:1 
0.1562215164765544 147:1 561:1 1351:1 
0.1562215164765544 1917:1 
0.1562215164765544 1921:1 
0.1085611082827742 280:1 660:1 911:1 1087:1 1581:1 1846:1 1925:1 1926:1 
0.008247620012782441 61:1 899:1 1195:1 1351:1 1927:1 1928:1 1929:1 
0.07946052528117097 206:1 392:1 587:1 1524:1 1930:1 1931:1 
0.1562215164765544 1917:1 
0.1562215164765544 1021:1 
0.1562215164765544 1917:1 
0.1413421589377413 217:1 1020:1 1075:1 
0.1562215164765544 1917:1 
0.0417410333428937 250:1 264:1 437:1 1931:1 1932:1 1933:1 
0.1562215164765544 1917:1 
0.1562215164765544 607:1 611:1 1055:1 1934:1 
0.1562215164765544 1917:1 
0.1562215164765544 1917:1 
0.1562215164765544 1917:1 
0.1562215164765544 1917:1 
0.1560269825750419 64:1 176:1 223:1 439:1 918:1 1040:1 1937:1 1938:1 
0.1562215164765544 1917:1 
0.1562215164765544 1917:1 
0.1562215164765544 228:1 229:1 590:1 1944:1 
0.1562215164765544 1917:1 
0.0007157117581786859 1284:1 
0.1562215164765544 1385:1 
0.1562215164765544 1917:1 
0.1562215164765544 1948:1 1949:1 1950:1 1951:1 1952:1 1953:1 1954:1 1955:1 1956:1 1957:1 1958:1 1959:1 1960:1 
0.1562215164765544 107:1 1961:1 
0.1562215164765544 1917:1 
0.1562215164765544 1917:1 
0.1562215164765544 897:1 1962:1 
0.1562215164765544 1917:1 
0.1562215164765544 61:1 
0.1562215164765544 69:1 82:1 1954:1 1965:1 
0.1562215164765544 61:1 
0.1102767196266067 47:1 1965:1 1966:1 1967:1 1968:1 
0.1562215164765544 34:1 1228:1 1969:1 
0.1562215164765544 599:1 933:1 
0.08792624678722834 52:1 153:1 384:1 
0.1562215164765544 1118:1 
0.1562215164765544 18:1 19:1 22:1 23:1 169:1 
0.1562215164765544 10:1 11:1 12:1 1974:1 1975:1 1976:1 
0.1562215164765544 1936:1 
0.1562215164765544 1917:1 
0.1562215164765544 1977:1 
0.1562215164765544 1917:1 
0.1562215164765544 1917:1 
0.1562215164765544 406:1 894:1 1979:1 
0.08528984118880119 137:1 406:1 
0.1562215164765544 1917:1 
0.1562215164765544 1936:1 1981:1 
0.1562215164765544 666:1 
0.1562215164765544 103:1 474:1 1038:1 1054:1 1253:1 1785:1 1992:1 1993:1 1994:1 
0.1562215164765544 103:1 107:1 122:1 656:1 1552:1 1997:1 1998:1 
0.1562215164765544 10:1 11:1 12:1 1256:1 1999:1 
0.1562215164765544 521:1 
0.1562215164765544 1568:1 
0.1562215164765544 234:1 544:1 
0.1562215164765544 2000:1 
0.1562215164765544 229:1 350:1 1290:1 1313:1 
0.1562215164765544 234:1 2002:1 
0.1562215164765544 836:1 
0.1562215164765544 258:1 316:1 373:1 544:1 1132:1 
0.1209268690898974 1:1 27:1 44:1 668:1 
0.1562215164765544 10:1 11:1 12:1 172:1 
0.1562215164765544 1163:1 
0.1562215164765544 2003:1 
0.1562215164765544 2004:1 
0.1562215164765544 2000:1 
0.1562215164765544 710:1 2005:1 2006:1 2007:1 
0.1562215164765544 2008:1 2009:1 
0.1562215164765544 497:1 1106:1 1256:1 2010:1 
0.1562215164765544 384:1 2011:1 
0.1562215164765544 62:1 916:1 1744:1 2014:1 
0.1562215164765544 509:1 1446:1 
0.1562215164765544 147:1 1440:1 2016:1 
0.1562215164765544 1146:1 
0.1562215164765544 10:1 11:1 67:1 1256:1 
0.1562215164765544 10:1 11:1 197:1 2020:1 
0.1562215164765544 961:1 2018:1 
0.1562215164765544 185:1 579:1 580:1 1875:1 
0.1562215164765544 10:1 11:1 12:1 148:1 
0.1562215164765544 10:1 11:1 12:1 60:1 
0.1562215164765544 10:1 11:1 12:1 
0.1562215164765544 1393:1 
0.1562215164765544 447:1 
0.1562215164765544 920:1 2022:1 2023:1 
0.1562215164765544 1409:1 
0.1562215164765544 198:1 223:1 437:1 1070:1 1149:1 1755:1 2024:1 2025:1 
0.1562215164765544 917:1 918:1 
0.1562215164765544 68:1 870:1 924:1 1460:1 
0.1562215164765544 254:1 
0.1562215164765544 2030:1 
0.1562215164765544 290:1 
0.1562215164765544 1073:1 2032:1 
0.004384473150761844 2034:1 2035:1 
0.1562215164765544 301:1 
0.002152541454755677 749:1 
0.1562215164765544 2036:1 
0.05000327768022174 27:1 223:1 227:1 437:1 725:1 1137:1 1939:1 2029:1 2039:1 
0.1562215164765544 843:1 
0.1562215164765544 84:1 1156:1 2040:1 
0.1562215164765544 492:1 604:1 1144:1 2025:1 2041:1 2042:1 
0.1562215164765544 1939:1 
0.1562215164765544 778:1 2043:1 
0.1562215164765544 668:1 
0.1562215164765544 639:1 2047:1 
0.1562215164765544 71:1 228:1 725:1 
0.1562215164765544 276:1 
0.1562215164765544 229:1 897:1 
0.02559198971916513 288:1 384:1 824:1 1332:1 2050:1 
0.1562215164765544 2004:1 
0.1562215164765544 10:1 11:1 12:1 181:1 484:1 1891:1 
0.06661135222900146 797:1 1614:1 2052:1 2053:1 2054:1 
0.1562215164765544 2055:1 
0.1562215164765544 2:1 326:1 2056:1 
0.1562215164765544 667:1 2057:1 
0.1562215164765544 2058:1 
0.1562215164765544 10:1 11:1 12:1 98:1 224:1 1377:1 
0.1446321880248487 275:1 507:1 
0.1562215164765544 18:1 46:1 259:1 322:1 356:1 
0.1562215164765544 259:1 
0.1562215164765544 103:1 512:1 2060:1 
0.1562215164765544 120:1 340:1 374:1 648:1 649:1 1624:1 2061:1 2062:1 
0.1562215164765544 103:1 340:1 529:1 648:1 649:1 884:1 1090:1 1387:1 1600:1 
0.0171555583028834 71:1 72:1 264:1 288:1 717:1 1744:1 2063:1 
0.04810065680130488 121:1 176:1 337:1 600:1 1773:1 2065:1 2066:1 
0.1562215164765544 38:1 103:1 107:1 518:1 519:1 520:1 625:1 885:1 1029:1 1079:1 2067:1 
0.1562215164765544 10:1 11:1 12:1 795:1 
0.1562215164765544 791:1 
0.1562215164765544 313:1 
0.1562215164765544 791:1 
0.1562215164765544 288:1 1256:1 
0.1562215164765544 1175:1 2068:1 
0.1562215164765544 39:1 48:1 50:1 295:1 824:1 1501:1 1886:1 
0.1562215164765544 18:1 1135:1 2069:1 
0.1562215164765544 313:1 
0.1562215164765544 10:1 11:1 12:1 154:1 827:1 
0.1562215164765544 10:1 11:1 12:1 22:1 23:1 24:1 184:1 275:1 277:1 535:1 
0.1471985604870618 353:1 
0.1562215164765544 344:1 422:1 614:1 2072:1 
0.1562215164765544 2075:1 
0.05570426558880282 290:1 2076:1 
0.001264931828084509 49:1 
0.1562215164765544 62:1 
0.1562215164765544 2083:1 
0.1562215164765544 2084:1 2085:1 2086:1 
0.1562215164765544 967:1 2087:1 2088:1 
0.1562215164765544 79:1 453:1 641:1 2071:1 
0.1562215164765544 259:1 
0.1562215164765544 259:1 
0.1562215164765544 69:1 
0.1562215164765544 62:1 77:1 1307:1 1983:1 
0.1283943085705052 122:1 1082:1 1469:1 
0.1562215164765544 444:1 1256:1 2055:1 
0.1562215164765544 40:1 293:1 378:1 985:1 1327:1 2006:1 2089:1 2090:1 
0.1562215164765544 356:1 1568:1 
0.1562215164765544 1759:1 2091:1 2092:1 
0.1562215164765544 1568:1 
0.1562215164765544 176:1 639:1 1335:1 
0.1562215164765544 1032:1 
0.1562215164765544 576:1 
0.1562215164765544 107:1 439:1 2093:1 
0.1562215164765544 2097:1 
0.1562215164765544 152:1 
0.1562215164765544 2097:1 
0.1562215164765544 738:1 
0.1562215164765544 125:1 348:1 508:1 
0.07801496971521171 777:1 1090:1 1176:1 1492:1 
0.1562215164765544 2109:1 2110:1 
0.1562215164765544 107:1 1074:1 2112:1 2113:1 
0.1562215164765544 509:1 510:1 
0.1562215164765544 68:1 107:1 122:1 439:1 576:1 2114:1 
0.1562215164765544 576:1 
0.05272621121263315 59:1 107:1 1074:1 1961:1 
0.1562215164765544 104:1 819:1 1038:1 2115:1 
0.1562215164765544 2116:1 
0.1562215164765544 1568:1 
0.1562215164765544 34:1 94:1 795:1 
0.1562215164765544 1021:1 
0.1562215164765544 69:1 107:1 464:1 
0.1562215164765544 310:1 
0.1562215164765544 496:1 777:1 1296:1 
0.1562215164765544 658:1 2125:1 
0.1562215164765544 917:1 1503:1 2125:1 
0.0138247108440532 27:1 59:1 1545:1 1642:1 2126:1 2127:1 
0.1562215164765544 2128:1 
0.1562215164765544 2125:1 
0.01387763352510752 27:1 59:1 1545:1 1642:1 2126:1 2127:1 
0.1562215164765544 2125:1 
0.05315288325015353 304:1 
0.1001789128762784 2125:1 
0.1562215164765544 61:1 843:1 2133:1 2134:1 
0.1562215164765544 1374:1 
0.1184795412036594 57:1 170:1 253:1 435:1 980:1 2132:1 2135:1 
0.1562215164765544 2136:1 
0.1562215164765544 217:1 
0.1562215164765544 918:1 
0.1562215164765544 425:1 
0.1562215164765544 668:1 2145:1 
0.1562215164765544 27:1 57:1 170:1 435:1 736:1 2144:1 2147:1 
0.004271863376253029 63:1 236:1 252:1 1000:1 1645:1 1706:1 2143:1 2150:1 
0.1562215164765544 262:1 512:1 727:1 1073:1 1108:1 1168:1 2144:1 2151:1 
0.1562215164765544 186:1 229:1 
0.1562215164765544 123:1 
0.02539498751663083 153:1 207:1 317:1 327:1 793:1 
0.09133171239285678 504:1 
0.002147787766556018 2004:1 
0.1562215164765544 53:1 169:1 
0.1562215164765544 53:1 169:1 
0.1562215164765544 68:1 232:1 1137:1 2153:1 
0.1562215164765544 313:1 
0.1562215164765544 45:1 69:1 2125:1 
0.1562215164765544 65:1 80:1 2155:1 
0.1144446332823223 51:1 147:1 680:1 776:1 
0.1562215164765544 2160:1 
0.1562215164765544 2160:1 
0.1562215164765544 567:1 590:1 2162:1 2163:1 
0.1562215164765544 184:1 710:1 2164:1 
0.1562215164765544 61:1 1475:1 
0.1562215164765544 2162:1 
0.1562215164765544 53:1 107:1 
0.1562215164765544 170:1 612:1 1603:1 
0.09848981075602033 1021:1 
0.1562215164765544 2162:1 
0.1562215164765544 228:1 
0.1562215164765544 2162:1 
0.1562215164765544 654:1 
0.1562215164765544 2162:1 
0.1562215164765544 736:1 2161:1 
0.1562215164765544 57:1 512:1 1028:1 2170:1 2171:1 2172:1 
0.1562215164765544 2162:1 
0.1562215164765544 71:1 72:1 228:1 2175:1 
0.1562215164765544 24:1 
0.04313949553461588 38:1 620:1 621:1 1032:1 
0.1562215164765544 2162:1 
0.1208619317905879 107:1 176:1 623:1 1542:1 
0.1562215164765544 2162:1 
0.1562215164765544 1887:1 
0.1562215164765544 107:1 725:1 2176:1 
0.1562215164765544 76:1 491:1 722:1 905:1 906:1 907:1 918:1 1027:1 1028:1 1030:1 1079:1 
0.1562215164765544 2162:1 
0.1562215164765544 2162:1 
0.1562215164765544 2162:1 
0.1562215164765544 11:1 202:1 2178:1 
0.1562215164765544 544:1 2162:1 
0.1562215164765544 716:1 2179:1 
0.1562215164765544 1556:1 2182:1 2183:1 
0.1562215164765544 299:1 2184:1 
0.1562215164765544 1080:1 2185:1 2186:1 
0.1562215164765544 304:1 2187:1 
0.1562215164765544 8:1 34:1 717:1 1290:1 1313:1 2190:1 2191:1 
0.1562215164765544 2162:1 
0.1562215164765544 577:1 1127:1 2192:1 
0.1562215164765544 2162:1 
0.1562215164765544 1181:1 
0.1562215164765544 2162:1 
0.1562215164765544 59:1 983:1 2198:1 
0.1562215164765544 102:1 616:1 817:1 1454:1 
0.1562215164765544 34:1 130:1 349:1 420:1 687:1 824:1 1733:1 
0.1562215164765544 77:1 
0.1562215164765544 48:1 
0.1562215164765544 2199:1 2200:1 
0.1562215164765544 50:1 2201:1 
0.1562215164765544 395:1 
0.02915437684935452 34:1 485:1 2202:1 2203:1 
0.1562215164765544 1004:1 2202:1 
0.04801905145904165 1656:1 
0.03008716826234967 14:1 379:1 2204:1 
0.1562215164765544 1316:1 1333:1 2205:1 
0.1562215164765544 63:1 77:1 2196:1 
0.1562215164765544 361:1 994:1 1657:1 
0.01333426487992448 2206:1 
0.1562215164765544 77:1 
0.1562215164765544 77:1 
0.1562215164765544 77:1 
0.1562215164765544 666:1 
0.1562215164765544 806:1 2181:1 
0.1562215164765544 77:1 
0.1562215164765544 77:1 84:1 
0.1562215164765544 77:1 
0.1562215164765544 77:1 
0.1562215164765544 233:1 1353:1 2210:1 
0.1562215164765544 77:1 
0.1562215164765544 218:1 
0.1562215164765544 555:1 
0.1562215164765544 441:1 
0.03677348334290489 59:1 2214:1 2215:1 
0.002025644454528856 2210:1 
0.03292814777671993 183:1 349:1 579:1 580:1 2217:1 
0.1562215164765544 48:1 79:1 181:1 
0.1562215164765544 2019:1 2210:1 
0.02349505045008855 338:1 339:1 513:1 1488:1 2220:1 
0.1562215164765544 113:1 
0.04626195008481875 71:1 130:1 258:1 316:1 
0.1562215164765544 1222:1 1455:1 2216:1 
0.1562215164765544 747:1 
0.1562215164765544 43:1 227:1 573:1 744:1 894:1 2221:1 
0.001056110385435259 2222:1 2223:1 
0.1562215164765544 2224:1 
0.1562215164765544 2227:1 
0.1562215164765544 147:1 170:1 455:1 735:1 736:1 1763:1 
0.1562215164765544 67:1 1859:1 
0.1562215164765544 2097:1 
0.1562215164765544 53:1 169:1 
0.1562215164765544 2230:1 
0.1562215164765544 53:1 169:1 
0.1562215164765544 505:1 
0.07867988270438778 530:1 894:1 
0.1562215164765544 25:1 71:1 
0.0001372074767671234 2210:1 
0.1562215164765544 1240:1 
0.1562215164765544 391:1 2235:1 
0.1562215164765544 102:1 230:1 
0.1562215164765544 2236:1 
0.1562215164765544 104:1 123:1 
0.1562215164765544 2231:1 
0.1562215164765544 107:1 527:1 1195:1 
0.1562215164765544 184:1 710:1 1190:1 1195:1 1614:1 1897:1 2239:1 2240:1 2241:1 2242:1 
0.1562215164765544 27:1 507:1 2243:1 2244:1 2245:1 
0.05522004967003531 317:1 590:1 621:1 2246:1 2247:1 
0.1562215164765544 194:1 237:1 422:1 614:1 1238:1 2193:1 
0.1562215164765544 2250:1 2251:1 
0.1562215164765544 2252:1 
0.1562215164765544 861:1 2014:1 2250:1 
0.1562215164765544 861:1 2014:1 2250:1 
0.1562215164765544 49:1 899:1 2078:1 2256:1 
0.1562215164765544 344:1 422:1 614:1 
0.1562215164765544 2236:1 
0.1562215164765544 13:1 71:1 1185:1 1703:1 2258:1 
0.1562215164765544 1426:1 
0.1562215164765544 104:1 123:1 
0.1562215164765544 2259:1 
0.1562215164765544 554:1 2260:1 
0.1562215164765544 555:1 793:1 
0.1562215164765544 2259:1 
0.1562215164765544 2262:1 
0.1562215164765544 194:1 2263:1 
0.1562215164765544 2264:1 
0.05527772745955915 194:1 2167:1 2263:1 
0.1562215164765544 71:1 72:1 
0.06464021550389655 2259:1 
0.1562215164765544 64:1 458:1 459:1 471:1 852:1 1144:1 1211:1 
0.1562215164765544 63:1 70:1 253:1 452:1 2265:1 2266:1 
0.05824369146764029 1021:1 
0.1562215164765544 437:1 2267:1 
0.1562215164765544 71:1 190:1 228:1 
0.1562215164765544 176:1 589:1 720:1 1032:1 
0.1562215164765544 79:1 264:1 265:1 640:1 1021:1 2270:1 
0.1562215164765544 2271:1 
0.1562215164765544 2273:1 
0.1562215164765544 120:1 452:1 555:1 1030:1 1583:1 2274:1 
0.1562215164765544 59:1 736:1 1132:1 
0.1562215164765544 170:1 435:1 437:1 590:1 1149:1 2265:1 
0.1562215164765544 228:1 229:1 2278:1 
0.1562215164765544 1460:1 2259:1 
0.1562215164765544 38:1 169:1 294:1 
0.1562215164765544 48:1 107:1 285:1 
0.1562215164765544 38:1 76:1 491:1 624:1 762:1 905:1 906:1 907:1 918:1 1027:1 1030:1 1079:1 
0.1562215164765544 485:1 2280:1 
0.1562215164765544 1459:1 1690:1 2281:1 2282:1 2283:1 2284:1 2285:1 2286:1 
0.09648231041470409 79:1 122:1 1190:1 2259:1 
0.1562215164765544 505:1 
0.1562215164765544 69:1 153:1 288:1 350:1 555:1 
0.1562215164765544 396:1 
0.1562215164765544 69:1 153:1 288:1 350:1 555:1 
0.1562215164765544 326:1 555:1 
0.1562215164765544 144:1 322:1 343:1 350:1 412:1 1307:1 1454:1 
0.01952651027852671 385:1 409:1 418:1 933:1 2289:1 
0.1562215164765544 2290:1 
0.1562215164765544 978:1 2292:1 
0.1562215164765544 273:1 343:1 409:1 412:1 1353:1 2289:1 2293:1 
0.1562215164765544 429:1 2294:1 
0.1562215164765544 375:1 411:1 412:1 1307:1 1454:1 
0.1562215164765544 409:1 418:1 2289:1 2295:1 
0.1562215164765544 2290:1 
0.1562215164765544 259:1 
0.07669913171342065 2259:1 
0.1562215164765544 27:1 2296:1 
0.1562215164765544 103:1 600:1 935:1 1054:1 1055:1 1785:1 1900:1 1992:1 2300:1 
0.08274134622857027 103:1 153:1 175:1 176:1 515:1 516:1 1128:1 1900:1 2301:1 
0.1562215164765544 172:1 2231:1 
0.1562215164765544 2306:1 
0.1562215164765544 2231:1 
0.1562215164765544 2308:1 
0.1562215164765544 79:1 703:1 1897:1 
0.1562215164765544 2231:1 
0.1562215164765544 2231:1 
0.1562215164765544 116:1 382:1 1747:1 2315:1 2316:1 2317:1 2318:1 
0.1562215164765544 794:1 
0.1562215164765544 2231:1 
0.1562215164765544 2231:1 
0.1562215164765544 113:1 
0.1562215164765544 511:1 
0.1562215164765544 2231:1 
0.1562215164765544 2231:1 
0.1562215164765544 2231:1 
0.1562215164765544 2231:1 
0.1562215164765544 2322:1 
0.1327073671943207 2231:1 
0.1562215164765544 226:1 1339:1 2323:1 
0.1562215164765544 2324:1 
0.1562215164765544 918:1 
0.1562215164765544 451:1 
0.1562215164765544 2325:1 2326:1 
0.1562215164765544 749:1 2329:1 2330:1 
0.1562215164765544 228:1 
0.1562215164765544 750:1 2332:1 
0.1562215164765544 246:1 471:1 472:1 974:1 1227:1 
0.03180320925876639 84:1 147:1 170:1 246:1 1002:1 1227:1 2335:1 
0.1562215164765544 1686:1 1820:1 2231:1 2336:1 
0.1562215164765544 53:1 169:1 
0.1562215164765544 1686:1 1820:1 2231:1 2336:1 
0.1562215164765544 53:1 169:1 
0.03618986331639035 220:1 221:1 246:1 2313:1 2334:1 2337:1 2338:1 2339:1 2340:1 2341:1 2342:1 2343:1 2344:1 
0.1562215164765544 79:1 504:1 2231:1 
0.1562215164765544 505:1 
0.1562215164765544 259:1 
0.0003388224452233636 2231:1 
0.1562215164765544 313:1 
0.1562215164765544 435:1 630:1 1293:1 1322:1 1394:1 2000:1 
0.1562215164765544 630:1 
0.1562215164765544 102:1 135:1 1887:1 
0.1278572358965784 68:1 2348:1 2349:1 
0.1562215164765544 102:1 135:1 
0.1562215164765544 68:1 2348:1 2349:1 
0.1562215164765544 151:1 176:1 
0.1562215164765544 151:1 176:1 
0.1562215164765544 123:1 2350:1 
0.1562215164765544 151:1 
0.1562215164765544 153:1 278:1 2353:1 2354:1 
0.1562215164765544 447:1 1016:1 
0.1562215164765544 555:1 
0.1562215164765544 130:1 1162:1 
0.1562215164765544 1025:1 2279:1 
0.1562215164765544 2362:1 
0.1562215164765544 669:1 2363:1 
0.1562215164765544 447:1 
0.1562215164765544 2364:1 
0.07218364912688001 978:1 2292:1 
0.1562215164765544 2356:1 2365:1 
0.1562215164765544 66:1 343:1 843:1 1558:1 2366:1 2367:1 
0.1562215164765544 27:1 736:1 
0.04248019389311847 175:1 1927:1 
0.1562215164765544 956:1 1683:1 
0.01074610966733876 76:1 299:1 491:1 905:1 906:1 907:1 918:1 1027:1 1028:1 1079:1 
0.1562215164765544 107:1 229:1 521:1 2377:1 
0.10606906107105 480:1 1242:1 1474:1 2356:1 
0.1562215164765544 505:1 
0.09872041993736302 480:1 1242:1 1474:1 2356:1 
0.1562215164765544 2058:1 
0.1562215164765544 151:1 1560:1 1896:1 
0.1562215164765544 13:1 27:1 1928:1 2244:1 2293:1 2383:1 
0.1562215164765544 1114:1 
0.03184180357077383 323:1 350:1 578:1 1119:1 
0.1562215164765544 1912:1 
0.1562215164765544 372:1 781:1 
0.1562215164765544 176:1 2389:1 
0.1562215164765544 103:1 104:1 651:1 652:1 
0.1562215164765544 61:1 
0.1562215164765544 103:1 
0.1562215164765544 194:1 
0.1562215164765544 71:1 103:1 153:1 206:1 475:1 512:1 651:1 652:1 2390:1 
0.01215454865836466 103:1 170:1 435:1 593:1 2273:1 2391:1 2392:1 
0.1562215164765544 71:1 103:1 
0.1071952707305445 120:1 264:1 651:1 652:1 744:1 1367:1 2393:1 
0.1562215164765544 63:1 103:1 340:1 612:1 1079:1 2394:1 
0.1553613922546379 38:1 59:1 103:1 518:1 519:1 520:1 652:1 834:1 835:1 845:1 918:1 1079:1 2303:1 2395:1 
0.1562215164765544 27:1 61:1 2396:1 2397:1 
0.1562215164765544 44:1 103:1 453:1 
0.1562215164765544 183:1 508:1 826:1 
0.1562215164765544 102:1 236:1 396:1 2399:1 
0.1562215164765544 1058:1 1059:1 2403:1 
0.1562215164765544 229:1 462:1 
0.1113286699159029 587:1 598:1 836:1 1055:1 2401:1 2404:1 
0.1562215164765544 508:1 
0.1562215164765544 2408:1 
0.1562215164765544 79:1 2399:1 
0.1562215164765544 2410:1 2411:1 
0.1562215164765544 194:1 640:1 2399:1 2413:1 2414:1 
0.1562215164765544 1171:1 
0.1562215164765544 1655:1 2307:1 2399:1 2415:1 
0.1562215164765544 53:1 169:1 
0.1562215164765544 292:1 
0.1562215164765544 699:1 
0.1562215164765544 1655:1 2307:1 2399:1 2415:1 
0.1562215164765544 53:1 169:1 
0.1562215164765544 107:1 2417:1 2418:1 
0.1562215164765544 313:1 
0.1562215164765544 505:1 
0.1562215164765544 273:1 635:1 1491:1 2422:1 
0.1562215164765544 669:1 958:1 2423:1 2424:1 2425:1 2426:1 
0.1562215164765544 544:1 660:1 
0.1562215164765544 1124:1 2427:1 2428:1 
0.1562215164765544 396:1 544:1 
0.1562215164765544 1115:1 
0.1562215164765544 2431:1 
0.05914466316963928 396:1 477:1 1025:1 2432:1 
0.1562215164765544 234:1 322:1 496:1 
0.1562215164765544 340:1 
0.1562215164765544 124:1 175:1 527:1 528:1 531:1 2433:1 2434:1 2435:1 2436:1 2437:1 2438:1 2439:1 2440:1 
0.1562215164765544 854:1 
0.05824773734534511 34:1 458:1 900:1 2441:1 
0.1562215164765544 25:1 548:1 854:1 2441:1 2442:1 
0.1023127343786233 68:1 176:1 401:1 2443:1 
0.1562215164765544 275:1 853:1 2417:1 2418:1 2444:1 
0.1562215164765544 90:1 761:1 2445:1 2446:1 
0.1562215164765544 1223:1 1668:1 2449:1 2450:1 2451:1 
0.1562215164765544 377:1 885:1 2452:1 2453:1 
0.1562215164765544 1393:1 2454:1 
0.1562215164765544 395:1 
0.1562215164765544 745:1 1606:1 2078:1 2456:1 
0.1562215164765544 745:1 1606:1 2078:1 2456:1 
0.1562215164765544 883:1 
0.1562215164765544 955:1 
0.1562215164765544 1068:1 
0.08202259431922058 63:1 460:1 2042:1 
0.1562215164765544 27:1 2457:1 
0.1562215164765544 69:1 107:1 
0.1562215164765544 854:1 
0.1562215164765544 68:1 104:1 2458:1 
0.1562215164765544 68:1 104:1 2458:1 
0.1562215164765544 1608:1 2459:1 
0.1562215164765544 2460:1 
0.1562215164765544 137:1 184:1 2175:1 2461:1 
0.1562215164765544 107:1 1074:1 2255:1 
0.1562215164765544 107:1 135:1 576:1 
0.1562215164765544 2463:1 2464:1 
0.1562215164765544 37:1 137:1 1310:1 2466:1 
0.1562215164765544 145:1 471:1 496:1 620:1 621:1 
0.1562215164765544 355:1 
0.1562215164765544 2468:1 
0.1010948570715831 1245:1 2469:1 2470:1 2471:1 
0.1562215164765544 1911:1 2352:1 
0.1562215164765544 2472:1 
0.1562215164765544 107:1 122:1 
0.1562215164765544 625:1 2474:1 2475:1 
0.1562215164765544 107:1 1074:1 2408:1 2478:1 
0.1562215164765544 84:1 239:1 255:1 422:1 2398:1 
0.1562215164765544 185:1 
0.1562215164765544 529:1 853:1 1025:1 2479:1 
0.1562215164765544 2480:1 
0.1562215164765544 1058:1 
0.1562215164765544 529:1 853:1 1025:1 2479:1 
0.1562215164765544 107:1 625:1 2101:1 
0.1562215164765544 948:1 2158:1 
0.1562215164765544 1404:1 
0.1562215164765544 908:1 
0.1562215164765544 2486:1 
0.1562215164765544 2486:1 
0.1562215164765544 763:1 2487:1 
0.1562215164765544 2488:1 2489:1 
0.1562215164765544 2486:1 
0.1562215164765544 2486:1 
0.1562215164765544 1837:1 2111:1 
0.1562215164765544 77:1 120:1 122:1 474:1 1809:1 2483:1 2490:1 2491:1 
0.1562215164765544 107:1 
0.1562215164765544 27:1 77:1 161:1 2490:1 
0.1562215164765544 69:1 123:1 124:1 413:1 2463:1 2498:1 2499:1 
0.1562215164765544 68:1 107:1 527:1 824:1 
0.1562215164765544 768:1 
0.1562215164765544 2501:1 
0.1562215164765544 229:1 2506:1 2507:1 
0.03171950643578891 27:1 45:1 680:1 2508:1 
0.1562215164765544 68:1 90:1 107:1 122:1 
0.002158162405855983 1414:1 
0.1562215164765544 673:1 2509:1 
0.1562215164765544 2444:1 
0.1562215164765544 723:1 2510:1 2511:1 
0.1562215164765544 828:1 
0.1562215164765544 68:1 90:1 107:1 122:1 
0.1562215164765544 174:1 
0.1562215164765544 174:1 
0.1562215164765544 174:1 
0.1562215164765544 174:1 
0.1562215164765544 1074:1 
0.1562215164765544 258:1 373:1 2031:1 
0.1562215164765544 2519:1 
0.1562215164765544 174:1 
0.1562215164765544 2520:1 
0.1562215164765544 641:1 736:1 2521:1 2522:1 2523:1 
0.03759196849416335 177:1 288:1 496:1 1296:1 1853:1 
0.1294204087327048 61:1 64:1 80:1 1544:1 1881:1 1882:1 2528:1 
0.1562215164765544 658:1 966:1 
0.09392723956951024 252:1 288:1 1749:1 
0.1562215164765544 159:1 701:1 
0.1562215164765544 46:1 60:1 165:1 747:1 
0.1562215164765544 2533:1 
0.1562215164765544 271:1 
0.04238915681172112 2532:1 
0.1562215164765544 2534:1 
0.03040595947140231 350:1 2008:1 2009:1 2073:1 
0.1562215164765544 561:1 
0.1562215164765544 340:1 
0.1562215164765544 1163:1 
0.1271015313741082 153:1 529:1 2413:1 2537:1 
0.1562215164765544 60:1 197:1 322:1 2540:1 
0.1562215164765544 509:1 1446:1 
0.1562215164765544 509:1 1446:1 
0.1562215164765544 184:1 
0.1562215164765544 259:1 
0.1562215164765544 71:1 
0.1562215164765544 720:1 1872:1 2454:1 
0.1562215164765544 2546:1 2547:1 
0.1562215164765544 2548:1 
0.1562215164765544 630:1 2532:1 
0.1562215164765544 1574:1 2053:1 
0.1562215164765544 625:1 
0.1562215164765544 229:1 2177:1 
0.1562215164765544 44:1 1860:1 
0.1562215164765544 1540:1 
0.03605092048525949 191:1 317:1 347:1 505:1 1686:1 1817:1 1818:1 2532:1 
0.1562215164765544 259:1 
0.1562215164765544 422:1 
0.1562215164765544 658:1 2532:1 
0.1562215164765544 71:1 197:1 1130:1 1133:1 1479:1 2550:1 
0.002151987926710513 1860:1 
0.1562215164765544 2553:1 2554:1 2555:1 
0.1562215164765544 44:1 1860:1 
0.1562215164765544 321:1 2532:1 
0.1562215164765544 2551:1 
0.1562215164765544 2551:1 
0.0006124290772433886 2532:1 
0.1562215164765544 2551:1 
0.152228199736343 34:1 281:1 561:1 898:1 1340:1 
0.1562215164765544 1845:1 
0.1562215164765544 2551:1 
0.001544941122890736 2551:1 
0.1562215164765544 34:1 130:1 349:1 420:1 687:1 824:1 1733:1 
0.1562215164765544 915:1 1860:1 2558:1 
0.1562215164765544 437:1 458:1 978:1 2292:1 
0.1562215164765544 34:1 153:1 985:1 1088:1 
0.1562215164765544 130:1 2562:1 
0.1562215164765544 207:1 
0.1562215164765544 239:1 255:1 356:1 1860:1 
0.1562215164765544 27:1 45:1 183:1 826:1 
0.1562215164765544 112:1 148:1 1703:1 2567:1 
0.1562215164765544 1031:1 
0.03148435276750246 229:1 462:1 
0.0006061047664249003 2551:1 
0.1562215164765544 269:1 425:1 1674:1 2573:1 2574:1 2575:1 2576:1 
0.1562215164765544 102:1 131:1 2577:1 
0.1562215164765544 175:1 2578:1 
0.03469572679504222 905:1 2582:1 
0.1562215164765544 222:1 874:1 1810:1 2583:1 
0.01349963343102942 27:1 61:1 593:1 1157:1 2042:1 2584:1 2585:1 2586:1 
0.1562215164765544 102:1 131:1 624:1 2563:1 2587:1 
0.1562215164765544 69:1 102:1 437:1 573:1 665:1 817:1 972:1 2335:1 
0.1562215164765544 2589:1 
0.1562215164765544 53:1 169:1 
0.1051872338642435 107:1 320:1 1703:1 
0.1562215164765544 184:1 1929:1 2377:1 
0.08047116697506006 630:1 2563:1 2593:1 
0.1562215164765544 147:1 561:1 
0.1562215164765544 322:1 328:1 2563:1 
0.0007704771381422624 411:1 
0.1562215164765544 447:1 1104:1 1105:1 
0.02468489824833693 224:1 1560:1 2597:1 2598:1 
0.1562215164765544 107:1 284:1 529:1 777:1 
0.1562215164765544 2596:1 2600:1 
0.1562215164765544 18:1 22:1 23:1 133:1 321:1 800:1 2563:1 
0.1562215164765544 355:1 
0.1562215164765544 7:1 
0.1562215164765544 509:1 510:1 
0.1562215164765544 2042:1 
0.1562215164765544 2601:1 
0.1562215164765544 2601:1 
0.1562215164765544 2601:1 
0.1562215164765544 233:1 447:1 1016:1 
0.1562215164765544 229:1 631:1 2601:1 
0.1562215164765544 745:1 1117:1 2042:1 
0.1562215164765544 16:1 147:1 153:1 1218:1 2042:1 
0.004420143312086314 67:1 
0.1153619420257867 197:1 2604:1 
0.1562215164765544 34:1 148:1 1004:1 2605:1 2606:1 
0.1562215164765544 2601:1 
0.1562215164765544 2601:1 
0.1562215164765544 1073:1 2032:1 
0.1562215164765544 508:1 
0.1562215164765544 2601:1 
0.1562215164765544 2601:1 
0.1562215164765544 2607:1 
0.1562215164765544 2601:1 
0.1562215164765544 2601:1 
0.1562215164765544 2601:1 
0.002144849108081924 1674:1 
0.01258582941918311 1163:1 
0.001461165854153132 2601:1 
0.1562215164765544 229:1 285:1 
0.0007127349550202709 2601:1 
0.1562215164765544 202:1 409:1 2149:1 2619:1 
0.1562215164765544 501:1 
0.1562215164765544 323:1 932:1 
0.08613343786026517 280:1 512:1 622:1 711:1 761:1 1282:1 1955:1 2625:1 
0.08102682285760844 68:1 512:1 557:1 638:1 670:1 977:1 1055:1 1258:1 2626:1 2627:1 
0.09703087657790643 280:1 622:1 1179:1 2626:1 2628:1 
0.1562215164765544 1179:1 2626:1 2628:1 2629:1 
0.1562215164765544 1099:1 2626:1 2628:1 2631:1 2632:1 
0.1562215164765544 1179:1 2626:1 2628:1 2633:1 
0.1562215164765544 339:1 1179:1 2626:1 2628:1 
0.1562215164765544 227:1 1055:1 2626:1 2628:1 2636:1 
0.01335170490800849 2628:1 
0.1562215164765544 107:1 1326:1 2628:1 
0.1562215164765544 97:1 153:1 217:1 589:1 2143:1 2628:1 2631:1 2665:1 2666:1 
0.1562215164765544 271:1 604:1 1070:1 2161:1 2527:1 2626:1 2629:1 2667:1 2668:1 
0.1562215164765544 124:1 343:1 557:1 1150:1 1219:1 1642:1 1869:1 2628:1 2673:1 
0.1562215164765544 184:1 292:1 343:1 1282:1 1955:1 2625:1 2626:1 2628:1 
0.1562215164765544 2695:1 
0.1562215164765544 269:1 606:1 1236:1 1994:1 2619:1 2695:1 2702:1 
0.1562215164765544 2695:1 
0.1562215164765544 2695:1 
0.08006279747440288 2695:1 
0.1562215164765544 79:1 2695:1 
0.1562215164765544 228:1 292:1 2695:1 
0.1562215164765544 19:1 229:1 
0.07602193393721743 2401:1 
0.1562215164765544 561:1 
0.1562215164765544 2733:1 
0.1562215164765544 561:1 
0.0003697797831703802 2695:1 
0.1562215164765544 1037:1 2401:1 
0.1562215164765544 2739:1 2740:1 2741:1 
0.1562215164765544 47:1 557:1 
0.03733891156450872 249:1 340:1 716:1 1207:1 2612:1 2651:1 2750:1 2751:1 
0.03642300856922102 97:1 538:1 951:1 2266:1 2628:1 2631:1 2738:1 2748:1 2749:1 2752:1 2753:1 2754:1 
0.06331962111814808 453:1 458:1 2631:1 2760:1 2767:1 2768:1 2769:1 2770:1 2771:1 
0.1562215164765544 2791:1 
0.1562215164765544 557:1 673:1 1351:1 
0.1562215164765544 2797:1 
0.1562215164765544 13:1 165:1 204:1 777:1 837:1 1339:1 1792:1 2687:1 2692:1 2804:1 
0.002582897855300692 120:1 589:1 2798:1 
0.002316578885701921 725:1 1179:1 1906:1 2798:1 
0.1562215164765544 2798:1 
0.1122927706700312 222:1 250:1 573:1 887:1 995:1 1159:1 2798:1 2830:1 
0.1562215164765544 988:1 2798:1 2834:1 
0.1562215164765544 1946:1 2839:1 
0.1562215164765544 102:1 180:1 866:1 
0.1562215164765544 223:1 224:1 225:1 439:1 458:1 852:1 989:1 1143:1 1762:1 2842:1 2843:1 
0.1562215164765544 589:1 2798:1 
0.02128638629735864 147:1 573:1 593:1 1046:1 1143:1 2722:1 2847:1 2848:1 2849:1 2850:1 
0.1170541532267391 225:1 252:1 606:1 610:1 989:1 1156:1 1518:1 
0.1562215164765544 213:1 214:1 275:1 2483:1 2612:1 2798:1 2801:1 2816:1 2855:1 2856:1 
0.1337066480714522 121:1 347:1 589:1 2798:1 2857:1 
0.1562215164765544 122:1 473:1 736:1 996:1 2149:1 2798:1 2858:1 
0.006491003736168469 57:1 64:1 458:1 459:1 593:1 610:1 975:1 980:1 2798:1 2864:1 
0.1562215164765544 138:1 458:1 606:1 610:1 2833:1 2872:1 
0.1562215164765544 107:1 134:1 
0.1562215164765544 292:1 2798:1 
0.1562215164765544 79:1 1045:1 
0.1562215164765544 2798:1 
0.1562215164765544 2798:1 
0.1562215164765544 68:1 292:1 
0.1562215164765544 107:1 311:1 
0.1562215164765544 2798:1 2876:1 
0.1562215164765544 561:1 859:1 1904:1 2876:1 
0.1562215164765544 2797:1 
0.1562215164765544 2797:1 
0.1562215164765544 557:1 
0.1562215164765544 2797:1 
0.1562215164765544 344:1 523:1 1904:1 2876:1 2887:1 
0.07009215526259335 202:1 397:1 466:1 523:1 1904:1 2876:1 
0.1562215164765544 2888:1 
0.1562215164765544 293:1 2798:1 
0.1562215164765544 2888:1 
0.1562215164765544 2888:1 
0.1562215164765544 2893:1 
0.002153888842276561 2888:1 
0.1562215164765544 437:1 494:1 2894:1 
0.1562215164765544 19:1 22:1 23:1 2692:1 
0.1176803323084533 465:1 469:1 970:1 1162:1 2630:1 2703:1 2738:1 2916:1 2921:1 
0.02841689625786203 252:1 437:1 1070:1 1750:1 1939:1 2919:1 2926:1 2935:1 2936:1 2937:1 
0.1163755943896272 63:1 170:1 189:1 218:1 265:1 435:1 446:1 458:1 1381:1 2628:1 2926:1 2943:1 2950:1 
0.1562215164765544 186:1 823:1 
0.1562215164765544 2958:1 
0.1562215164765544 288:1 410:1 2279:1 2967:1 
0.1562215164765544 56:1 640:1 736:1 1375:1 1930:1 2903:1 2978:1 2980:1 2981:1 2982:1 2983:1 
0.1102595170830783 458:1 1143:1 1210:1 1358:1 2967:1 2978:1 2987:1 
0.1562215164765544 57:1 271:1 444:1 465:1 606:1 610:1 2149:1 2903:1 3011:1 
0.007961637495478208 2967:1 3012:1 
0.08609467105493802 56:1 57:1 63:1 131:1 223:1 439:1 458:1 1645:1 2061:1 2816:1 2856:1 2967:1 2978:1 3013:1 
0.1562215164765544 58:1 121:1 232:1 557:1 1364:1 1522:1 1944:1 2676:1 2967:1 
0.1562215164765544 79:1 2967:1 
0.1562215164765544 620:1 621:1 2967:1 
0.1562215164765544 84:1 3033:1 
0.1562215164765544 11:1 1435:1 3034:1 3035:1 3036:1 
0.1562215164765544 416:1 736:1 1055:1 1546:1 3038:1 3040:1 3041:1 3042:1 
0.05116763024883353 175:1 176:1 720:1 857:1 956:1 3038:1 3050:1 3051:1 
0.1562215164765544 170:1 457:1 758:1 2395:1 2812:1 3047:1 3059:1 3061:1 3062:1 3063:1 
0.1562215164765544 213:1 214:1 1070:1 2294:1 2395:1 3071:1 
0.1562215164765544 85:1 361:1 1119:1 1289:1 2197:1 2395:1 3038:1 3069:1 3082:1 
0.1562215164765544 123:1 183:1 908:1 3084:1 3085:1 3086:1 3087:1 
0.1562215164765544 3088:1 
0.1562215164765544 620:1 621:1 3094:1 
0.1562215164765544 135:1 
0.1562215164765544 71:1 104:1 1131:1 
0.1562215164765544 457:1 
0.09435095437611457 34:1 119:1 305:1 306:1 492:1 589:1 1131:1 1222:1 
0.1270687376544734 302:1 465:1 466:1 606:1 970:1 974:1 1231:1 1381:1 3114:1 
0.01053798612510989 71:1 228:1 232:1 557:1 797:1 1131:1 3101:1 3115:1 
0.1562215164765544 57:1 223:1 271:1 308:1 477:1 1131:1 1645:1 1760:1 
0.1562215164765544 1131:1 1226:1 1460:1 2248:1 2719:1 2833:1 2872:1 
0.0587712760954511 71:1 320:1 589:1 1131:1 1142:1 3025:1 
0.009645321868090332 119:1 264:1 303:1 989:1 1131:1 1383:1 2816:1 2939:1 3112:1 
0.1562215164765544 71:1 1131:1 3127:1 
0.002090035962848508 87:1 303:1 606:1 1131:1 1451:1 2149:1 2619:1 2677:1 2678:1 
0.1562215164765544 19:1 71:1 1131:1 
0.1562215164765544 34:1 107:1 1131:1 1706:1 
0.1562215164765544 35:1 1447:1 
0.1562215164765544 356:1 2098:1 3134:1 
0.01197064965327969 133:1 2098:1 2124:1 2378:1 3135:1 3136:1 
0.1562215164765544 11:1 107:1 
0.1562215164765544 71:1 72:1 
0.1562215164765544 346:1 
0.1562215164765544 61:1 370:1 
0.1562215164765544 27:1 45:1 680:1 3137:1 
0.1562215164765544 94:1 2628:1 3138:1 3146:1 
0.1562215164765544 215:1 604:1 736:1 1588:1 2612:1 2655:1 2925:1 3153:1 3154:1 3155:1 
0.1562215164765544 176:1 477:1 589:1 625:1 995:1 2042:1 2651:1 2745:1 3152:1 3160:1 
0.1562215164765544 51:1 680:1 3137:1 3171:1 
0.1562215164765544 97:1 258:1 790:1 2243:1 3172:1 3173:1 3174:1 
0.1562215164765544 3179:1 
0.1562215164765544 691:1 
0.04506239371215869 397:1 839:1 
0.1562215164765544 234:1 3182:1 
0.1562215164765544 165:1 
0.1562215164765544 511:1 
0.1034205637120346 517:1 2149:1 3186:1 
0.1562215164765544 119:1 525:1 3186:1 3201:1 3202:1 3203:1 3204:1 
0.08367630617110475 525:1 726:1 1055:1 1159:1 3206:1 3219:1 3220:1 3221:1 
0.1562215164765544 736:1 
0.1102815537114424 525:1 593:1 606:1 758:1 2719:1 2903:1 3223:1 3224:1 3225:1 
0.1562215164765544 736:1 744:1 1159:1 2541:1 3227:1 3228:1 3229:1 
0.1522949593309261 3186:1 3234:1 
0.1562215164765544 3236:1 
0.1562215164765544 434:1 2702:1 2719:1 
0.1562215164765544 13:1 56:1 416:1 451:1 752:1 753:1 1846:1 1945:1 
0.1562215164765544 79:1 3186:1 
0.1009201275026785 228:1 292:1 3186:1 
0.1562215164765544 229:1 292:1 3186:1 
0.1562215164765544 525:1 
0.1562215164765544 346:1 
0.09720919494008709 184:1 778:1 2620:1 3246:1 
0.1562215164765544 525:1 
0.1067542630094616 156:1 1137:1 2687:1 3255:1 3256:1 
0.1562215164765544 230:1 355:1 560:1 3258:1 3259:1 3260:1 
0.1562215164765544 6:1 68:1 640:1 672:1 822:1 900:1 2238:1 3261:1 3262:1 3263:1 
0.1562215164765544 372:1 480:1 1904:1 2104:1 3087:1 
0.1562215164765544 94:1 336:1 448:1 501:1 526:1 555:1 710:1 1522:1 3008:1 
0.1562215164765544 1349:1 
0.1562215164765544 710:1 
0.1562215164765544 23:1 2687:1 
0.1562215164765544 2576:1 3101:1 3270:1 
0.1562215164765544 557:1 
0.1562215164765544 555:1 
0.1562215164765544 557:1 
0.1562215164765544 555:1 
0.1562215164765544 79:1 2274:1 
0.1562215164765544 557:1 
0.1562215164765544 555:1 
0.1562215164765544 1179:1 3271:1 
0.1562215164765544 557:1 
0.1562215164765544 555:1 
0.1562215164765544 1179:1 
0.1562215164765544 557:1 
0.1562215164765544 555:1 
0.1562215164765544 1179:1 3272:1 
0.1562215164765544 557:1 
0.1562215164765544 555:1 
0.1562215164765544 557:1 
0.1562215164765544 555:1 
0.1562215164765544 57:1 588:1 1099:1 2276:1 
0.1562215164765544 557:1 
0.1562215164765544 555:1 
0.1562215164765544 557:1 
0.1562215164765544 555:1 
0.1562215164765544 176:1 531:1 720:1 
0.06797746609487074 451:1 555:1 2785:1 3267:1 3279:1 3280:1 
0.1562215164765544 175:1 176:1 720:1 
0.1518980023671679 176:1 228:1 720:1 3267:1 
0.06920807122470461 57:1 458:1 573:1 610:1 990:1 1143:1 1228:1 1811:1 3072:1 3292:1 
0.03571138489205426 370:1 458:1 490:1 1073:1 1511:1 2719:1 2982:1 2997:1 3295:1 
0.1562215164765544 678:1 736:1 1063:1 3296:1 
0.1562215164765544 124:1 343:1 555:1 588:1 1933:1 2911:1 3267:1 3299:1 
0.1562215164765544 57:1 261:1 604:1 744:1 1207:1 1878:1 2070:1 2276:1 3029:1 3030:1 3267:1 
0.142253208291957 57:1 1383:1 1941:1 2805:1 2997:1 3267:1 3303:1 3304:1 
0.1562215164765544 55:1 107:1 184:1 609:1 657:1 1178:1 1332:1 1458:1 3313:1 3314:1 
0.1562215164765544 107:1 118:1 311:1 336:1 555:1 793:1 1529:1 2078:1 3267:1 
0.1562215164765544 3025:1 3318:1 
0.1562215164765544 79:1 3267:1 
0.01523030467261944 63:1 555:1 641:1 867:1 2791:1 3090:1 3319:1 3320:1 3321:1 
0.1562215164765544 36:1 948:1 
0.01286738542657929 63:1 555:1 641:1 867:1 2791:1 3090:1 3319:1 3320:1 3321:1 
0.02731791935767644 44:1 988:1 1010:1 1113:1 1226:1 2724:1 2802:1 2834:1 2874:1 3331:1 
0.1562215164765544 1181:1 2908:1 2909:1 
0.1562215164765544 69:1 70:1 165:1 761:1 2395:1 2646:1 2647:1 2836:1 
0.1562215164765544 68:1 401:1 496:1 
0.1562215164765544 104:1 526:1 689:1 1310:1 2120:1 3241:1 3335:1 
0.1562215164765544 2955:1 
0.1562215164765544 10:1 85:1 228:1 517:1 1584:1 2395:1 2628:1 2635:1 2875:1 3341:1 
0.1562215164765544 343:1 345:1 800:1 2395:1 2628:1 2860:1 
0.1562215164765544 13:1 165:1 222:1 273:1 274:1 689:1 
0.1562215164765544 317:1 529:1 951:1 1792:1 1849:1 2245:1 
0.1562215164765544 223:1 225:1 727:1 2040:1 3352:1 3360:1 3368:1 
0.1562215164765544 1740:1 2742:1 3352:1 3366:1 
0.1562215164765544 17:1 214:1 292:1 1450:1 2724:1 2801:1 2874:1 3352:1 
0.1562215164765544 57:1 225:1 458:1 670:1 826:1 2933:1 3019:1 3352:1 3363:1 3366:1 3392:1 
0.1562215164765544 3101:1 3397:1 
0.1562215164765544 79:1 3352:1 
0.001662881229979069 305:1 332:1 600:1 1137:1 2572:1 2595:1 2665:1 3401:1 3402:1 
0.1562215164765544 293:1 904:1 
0.1562215164765544 1006:1 1007:1 
0.1562215164765544 346:1 
0.1562215164765544 37:1 323:1 3407:1 
0.1562215164765544 3408:1 
0.1562215164765544 94:1 169:1 633:1 1505:1 1522:1 1974:1 2521:1 3409:1 3410:1 
0.1562215164765544 970:1 3417:1 3418:1 
0.1562215164765544 1827:1 
0.1562215164765544 3426:1 
0.1562215164765544 122:1 521:1 1159:1 3227:1 3426:1 
0.1562215164765544 3426:1 
0.0147342591041673 1364:1 1508:1 
0.1562215164765544 340:1 2653:1 
0.1562215164765544 3426:1 
0.1562215164765544 988:1 990:1 1046:1 1156:1 1381:1 1599:1 3383:1 3426:1 
0.002069939921559001 3426:1 
0.1562215164765544 3007:1 
0.1562215164765544 292:1 3426:1 
0.1562215164765544 677:1 3426:1 
0.06432384668127283 34:1 107:1 125:1 346:1 348:1 557:1 904:1 1195:1 2904:1 3449:1 3450:1 
0.1562215164765544 55:1 107:1 138:1 609:1 657:1 1006:1 1007:1 1332:1 1458:1 3313:1 3314:1 
0.1562215164765544 3451:1 
0.1562215164765544 3007:1 
0.1562215164765544 1190:1 
0.1562215164765544 1006:1 1007:1 
0.09004466175722159 346:1 
7.78673742227778e-05 3426:1 
0.09417330811239893 104:1 184:1 602:1 711:1 761:1 2628:1 3452:1 
0.1562215164765544 82:1 97:1 184:1 602:1 1388:1 2595:1 2628:1 2639:1 2909:1 3453:1 3454:1 
0.1562215164765544 261:1 340:1 812:1 1108:1 1166:1 2646:1 2647:1 3456:1 3457:1 3458:1 
0.1286927251781657 189:1 678:1 725:1 874:1 1055:1 2628:1 2754:1 2822:1 2937:1 3460:1 
0.1562215164765544 921:1 995:1 1003:1 1070:1 1795:1 2655:1 2913:1 3453:1 3464:1 
0.1562215164765544 2628:1 3045:1 3453:1 
0.08484731005518893 719:1 725:1 1264:1 2031:1 2453:1 2896:1 3344:1 3465:1 3466:1 
0.1562215164765544 561:1 649:1 667:1 2931:1 3471:1 3472:1 3473:1 3474:1 3475:1 
0.1562215164765544 977:1 1526:1 2143:1 2544:1 2655:1 3378:1 3482:1 3483:1 
0.1562215164765544 47:1 184:1 336:1 555:1 689:1 710:1 793:1 1087:1 3335:1 
0.1562215164765544 121:1 1234:1 2984:1 
0.1562215164765544 521:1 
0.1562215164765544 711:1 
0.1562215164765544 3179:1 
0.1562215164765544 3494:1 
0.1562215164765544 1437:1 
0.1562215164765544 47:1 184:1 778:1 1006:1 1007:1 3335:1 3507:1 
0.1562215164765544 1481:1 2203:1 
0.1562215164765544 512:1 540:1 710:1 1006:1 1087:1 2653:1 
0.07111458054004914 2909:1 3503:1 
0.1456034344040128 555:1 1425:1 1524:1 
0.1562215164765544 153:1 533:1 1128:1 3503:1 
0.1562215164765544 225:1 264:1 472:1 557:1 1143:1 3399:1 3514:1 
0.1562215164765544 367:1 539:1 593:1 1504:1 1813:1 
0.0688016555058326 334:1 555:1 2274:1 2424:1 2816:1 2856:1 3139:1 
0.1562215164765544 79:1 3503:1 
0.1562215164765544 185:1 
0.1562215164765544 3503:1 3526:1 
0.1562215164765544 229:1 
0.1562215164765544 19:1 2307:1 3506:1 
0.1562215164765544 3539:1 
0.02570910421115326 385:1 
0.1562215164765544 27:1 90:1 168:1 
0.1562215164765544 3503:1 
0.1562215164765544 3494:1 
0.1562215164765544 312:1 578:1 3494:1 
0.1562215164765544 90:1 125:1 359:1 3494:1 
0.1562215164765544 3494:1 
0.07773304491793609 557:1 2833:1 2872:1 
0.002177758072883064 3494:1 
0.01041368898456754 13:1 33:1 42:1 689:1 1288:1 1863:1 2687:1 3547:1 3548:1 3549:1 
0.1562215164765544 6:1 1119:1 1471:1 2620:1 
0.1562215164765544 50:1 341:1 409:1 
0.1562215164765544 66:1 310:1 401:1 3342:1 
0.1562215164765544 165:1 
0.1562215164765544 3556:1 3557:1 3558:1 3559:1 3560:1 
0.1562215164765544 22:1 23:1 107:1 531:1 1131:1 1624:1 2692:1 3567:1 3568:1 
0.1562215164765544 236:1 295:1 624:1 1055:1 2398:1 2687:1 3571:1 3572:1 
0.1562215164765544 11:1 12:1 19:1 22:1 23:1 231:1 712:1 1131:1 2687:1 2692:1 
0.1562215164765544 45:1 71:1 120:1 589:1 970:1 1131:1 1258:1 3098:1 3577:1 
0.1084907789167708 1131:1 1445:1 3270:1 3586:1 
0.1562215164765544 736:1 1131:1 
0.1562215164765544 79:1 175:1 2386:1 3126:1 
0.0139447290790544 512:1 1131:1 1137:1 2653:1 2656:1 2941:1 
0.04670427172064062 170:1 260:1 606:1 988:1 2722:1 3430:1 3592:1 3593:1 
0.1562215164765544 198:1 2149:1 
0.1139861590700433 170:1 212:1 299:1 593:1 979:1 990:1 1058:1 1645:1 1646:1 2704:1 2716:1 3601:1 
0.06783437407953723 46:1 320:1 589:1 1131:1 3603:1 
0.1562215164765544 10:1 11:1 228:1 1131:1 2612:1 
0.1562215164765544 292:1 
0.1562215164765544 228:1 292:1 1131:1 
0.1562215164765544 858:1 
0.1562215164765544 1849:1 3606:1 
0.1562215164765544 228:1 394:1 1131:1 3610:1 
0.1562215164765544 19:1 229:1 1131:1 
0.1562215164765544 113:1 
0.1562215164765544 1255:1 
0.1562215164765544 53:1 153:1 417:1 726:1 1055:1 
0.1562215164765544 294:1 805:1 807:1 2692:1 3068:1 
0.1562215164765544 3629:1 
0.1562215164765544 45:1 46:1 51:1 137:1 328:1 900:1 1310:1 
0.1562215164765544 561:1 
0.1562215164765544 27:1 165:1 
0.001059756334325192 3447:1 3638:1 
0.1562215164765544 3639:1 
0.04673612913213971 3639:1 
0.04184949248975361 1364:1 3025:1 
0.07483511049152974 610:1 1740:1 2328:1 3274:1 3639:1 
0.1562215164765544 63:1 79:1 452:1 593:1 612:1 1472:1 2141:1 3663:1 3664:1 
0.1562215164765544 147:1 593:1 996:1 1642:1 1652:1 2676:1 2724:1 2728:1 3639:1 3653:1 3661:1 
0.1562215164765544 147:1 369:1 593:1 1215:1 2042:1 2372:1 2724:1 2865:1 3661:1 3674:1 
0.1562215164765544 341:1 2997:1 3639:1 
0.08508513298251667 57:1 223:1 975:1 2719:1 3430:1 3639:1 
0.1562215164765544 79:1 3639:1 
0.1562215164765544 19:1 3639:1 
0.1562215164765544 521:1 
0.0301048877275001 1175:1 2513:1 
0.1562215164765544 1006:1 1007:1 
0.1562215164765544 22:1 23:1 183:1 231:1 860:1 1614:1 2692:1 
0.1562215164765544 18:1 68:1 180:1 1085:1 2069:1 
0.1562215164765544 18:1 22:1 23:1 2239:1 
0.1562215164765544 68:1 
0.1562215164765544 925:1 
0.1562215164765544 509:1 510:1 
0.0123885692245688 48:1 202:1 900:1 1687:1 2463:1 2611:1 3325:1 3689:1 
0.1562215164765544 1349:1 
0.1562215164765544 27:1 1686:1 
0.1456708907984025 13:1 137:1 222:1 241:1 525:1 1645:1 3222:1 3690:1 3702:1 
0.1562215164765544 14:1 206:1 458:1 1502:1 2724:1 2816:1 2845:1 2856:1 2874:1 3447:1 3690:1 
0.1562215164765544 292:1 1475:1 
0.08282232853637689 228:1 292:1 3690:1 
0.1361201102088386 58:1 138:1 321:1 557:1 1007:1 2378:1 
0.1562215164765544 79:1 3690:1 
0.1562215164765544 525:1 
0.1562215164765544 1006:1 1007:1 
0.1562215164765544 3559:1 3734:1 3738:1 
0.1562215164765544 517:1 1576:1 
0.08434541698196317 3737:1 
0.1562215164765544 512:1 2653:1 3737:1 
0.1562215164765544 43:1 56:1 446:1 988:1 1168:1 2676:1 2709:1 2816:1 2850:1 3737:1 3741:1 3742:1 
0.02232305358177913 175:1 176:1 218:1 1459:1 2339:1 2749:1 3737:1 3755:1 3756:1 
0.1562215164765544 557:1 
0.1040882536848832 224:1 587:1 610:1 1099:1 1159:1 1511:1 2245:1 3761:1 3762:1 
0.1562215164765544 125:1 232:1 593:1 979:1 1346:1 3764:1 3765:1 
0.1562215164765544 3770:1 
0.0715975967806311 218:1 
0.1562215164765544 649:1 3739:1 
0.05171666840255403 3737:1 
0.1495619519667831 218:1 
0.1562215164765544 3777:1 
0.1562215164765544 689:1 1657:1 
0.1440662200278585 693:1 
0.1544329953628615 27:1 2493:1 
0.1562215164765544 46:1 51:1 1290:1 1310:1 1474:1 3418:1 
0.1562215164765544 1430:1 
0.1562215164765544 995:1 3781:1 
0.08279415828233676 2634:1 2638:1 
0.1562215164765544 34:1 280:1 407:1 622:1 642:1 1447:1 
0.09188944052263909 176:1 808:1 900:1 1049:1 2687:1 3783:1 
0.1562215164765544 16:1 422:1 614:1 2634:1 2989:1 3611:1 
0.1562215164765544 1119:1 
0.1562215164765544 622:1 1421:1 2798:1 
0.1562215164765544 1133:1 3184:1 3185:1 3785:1 
0.1307727619770966 622:1 1421:1 2798:1 3130:1 
0.1562215164765544 622:1 1421:1 2798:1 
0.1562215164765544 253:1 469:1 744:1 876:1 1143:1 2798:1 
0.1562215164765544 2798:1 
0.1562215164765544 458:1 589:1 2798:1 3007:1 
0.1562215164765544 589:1 871:1 2785:1 2798:1 3798:1 
0.1562215164765544 876:1 1143:1 2164:1 2798:1 3109:1 3671:1 
0.1562215164765544 57:1 124:1 243:1 458:1 1525:1 2634:1 2798:1 3399:1 3798:1 
0.1562215164765544 214:1 589:1 876:1 1143:1 2720:1 3025:1 
0.1562215164765544 250:1 264:1 472:1 1001:1 1878:1 3016:1 3803:1 3804:1 
0.1562215164765544 686:1 2798:1 
0.1562215164765544 500:1 589:1 876:1 988:1 1973:1 2798:1 3807:1 
0.04641560978719556 465:1 902:1 1143:1 1503:1 1649:1 2903:1 3442:1 
0.1562215164765544 57:1 222:1 573:1 588:1 640:1 995:1 1073:1 3798:1 
0.1562215164765544 2798:1 
0.1562215164765544 416:1 463:1 2164:1 2634:1 2678:1 2798:1 3814:1 
0.1562215164765544 232:1 557:1 2798:1 
0.1562215164765544 292:1 
0.1562215164765544 228:1 589:1 2798:1 
0.1562215164765544 176:1 292:1 2798:1 
0.1562215164765544 107:1 623:1 2798:1 
0.1562215164765544 396:1 1820:1 3816:1 
0.1562215164765544 84:1 205:1 1520:1 2798:1 
0.1562215164765544 1006:1 1007:1 1019:1 1788:1 2798:1 3241:1 3680:1 3817:1 
0.1562215164765544 79:1 123:1 
0.1562215164765544 107:1 122:1 562:1 710:1 1447:1 
0.1562215164765544 167:1 288:1 900:1 2634:1 2989:1 
0.1562215164765544 313:1 
0.001886375799033818 275:1 2798:1 
0.1562215164765544 1447:1 
0.1562215164765544 1006:1 1007:1 
0.1562215164765544 2798:1 
0.1562215164765544 232:1 496:1 1918:1 2151:1 2630:1 3060:1 3396:1 3821:1 
0.1562215164765544 119:1 184:1 521:1 1558:1 2628:1 2642:1 2748:1 2749:1 2767:1 3064:1 3065:1 3824:1 
0.1562215164765544 1229:1 1656:1 2631:1 2754:1 2939:1 3825:1 
0.1043807708589284 84:1 243:1 573:1 1207:1 2769:1 2950:1 3139:1 3140:1 3829:1 
0.008771579548697688 282:1 
0.1562215164765544 521:1 
0.1562215164765544 3838:1 
0.1562215164765544 3839:1 
0.1562215164765544 1393:1 2454:1 
0.1016859453702398 989:1 1101:1 1143:1 1226:1 2421:1 2687:1 3846:1 3847:1 
0.0878902975054118 57:1 996:1 1375:1 1651:1 2826:1 2983:1 3841:1 3857:1 
0.04948978514824665 225:1 250:1 273:1 444:1 593:1 2612:1 3110:1 3841:1 3858:1 3859:1 3860:1 
0.09507364729651975 458:1 996:1 1648:1 1651:1 2762:1 2818:1 3841:1 3853:1 
0.1562215164765544 439:1 458:1 650:1 1332:1 3841:1 
0.07173359432514435 38:1 294:1 340:1 3841:1 
0.1562215164765544 890:1 1393:1 3841:1 
0.04012901472064807 63:1 64:1 147:1 458:1 608:1 989:1 1431:1 2061:1 2658:1 
0.02338642456410351 189:1 606:1 1854:1 2164:1 3105:1 3719:1 3841:1 3864:1 3868:1 
0.1562215164765544 223:1 227:1 587:1 610:1 1383:1 2393:1 2823:1 3067:1 3841:1 3869:1 
0.1562215164765544 57:1 266:1 573:1 640:1 976:1 989:1 1070:1 1639:1 2719:1 2991:1 3513:1 
0.1562215164765544 14:1 458:1 606:1 610:1 725:1 1169:1 1814:1 2082:1 3016:1 
0.1562215164765544 3876:1 
0.1562215164765544 2622:1 
0.134179165461105 557:1 
0.1562215164765544 1006:1 1007:1 
0.1562215164765544 2295:1 3879:1 
0.04764912871785167 269:1 1576:1 3038:1 3059:1 3403:1 3880:1 3882:1 3883:1 3884:1 
0.005314326581662482 120:1 170:1 189:1 264:1 573:1 1646:1 1814:1 3038:1 3039:1 3073:1 3889:1 
0.1562215164765544 323:1 2218:1 
0.1562215164765544 480:1 719:1 742:1 
0.1562215164765544 19:1 22:1 23:1 2620:1 2687:1 2692:1 
0.1562215164765544 43:1 557:1 819:1 1337:1 1560:1 1665:1 3905:1 3906:1 
0.1562215164765544 2735:1 
0.1562215164765544 290:1 948:1 3907:1 
0.1526094452944087 590:1 998:1 
0.1562215164765544 49:1 557:1 899:1 2078:1 3325:1 
0.1562215164765544 463:1 793:1 1700:1 2687:1 3498:1 3783:1 3919:1 
0.1189342144851619 280:1 347:1 606:1 640:1 3641:1 3928:1 
0.115935024952753 327:1 606:1 610:1 2719:1 3434:1 3912:1 3930:1 
0.1562215164765544 222:1 665:1 744:1 996:1 3912:1 3932:1 3933:1 
0.1562215164765544 66:1 201:1 240:1 744:1 979:1 3912:1 
0.1562215164765544 2719:1 
0.07586549466996732 175:1 1469:1 3912:1 3945:1 
0.06250253325987543 121:1 261:1 589:1 604:1 1679:1 2719:1 2722:1 3102:1 3364:1 3912:1 
0.1562215164765544 3912:1 3948:1 3949:1 
0.1562215164765544 292:1 
0.1562215164765544 79:1 3912:1 
0.1193799258480117 674:1 857:1 1291:1 3395:1 3487:1 3655:1 
0.001066309764465918 3956:1 
0.1562215164765544 642:1 3554:1 
0.1562215164765544 437:1 2894:1 
0.1562215164765544 599:1 
0.1562215164765544 165:1 1129:1 1548:1 1900:1 2611:1 
0.1562215164765544 317:1 529:1 1177:1 1478:1 1809:1 3960:1 
0.1562215164765544 53:1 1792:1 2081:1 3130:1 
0.1562215164765544 561:1 
0.1562215164765544 440:1 1751:1 2216:1 3962:1 
0.1481740942479024 1037:1 2719:1 3962:1 
0.1562215164765544 369:1 436:1 670:1 990:1 1063:1 1143:1 1205:1 2807:1 2942:1 
0.03169923087519096 223:1 225:1 989:1 990:1 1070:1 1589:1 2704:1 3399:1 
0.1562215164765544 59:1 222:1 225:1 250:1 556:1 2831:1 3962:1 3988:1 3989:1 
0.1562215164765544 3962:1 
0.1562215164765544 3962:1 
0.1562215164765544 3962:1 
0.01115064705438817 334:1 998:1 1322:1 2676:1 3990:1 
0.1562215164765544 229:1 3962:1 
0.1011967134308405 453:1 556:1 3995:1 3996:1 
0.1562215164765544 1108:1 
0.1562215164765544 3997:1 
0.1562215164765544 11:1 19:1 72:1 3962:1 
0.04951099730157466 198:1 368:1 557:1 1168:1 1169:1 3998:1 
0.1562215164765544 3962:1 
0.1562215164765544 11:1 72:1 
0.003992118917388779 346:1 
0.1345810814211476 3962:1 
0.1562215164765544 556:1 935:1 1054:1 3408:1 
0.1562215164765544 3999:1 
0.0059632054579448 34:1 1283:1 1495:1 4000:1 
0.1562215164765544 48:1 150:1 156:1 2687:1 2722:1 2971:1 3593:1 4002:1 4003:1 
0.1562215164765544 3638:1 4006:1 
0.1562215164765544 190:1 463:1 599:1 832:1 4007:1 
0.1562215164765544 1711:1 4009:1 4010:1 
0.1562215164765544 68:1 137:1 350:1 789:1 4013:1 
0.1562215164765544 3167:1 
0.1562215164765544 3090:1 4015:1 
0.1562215164765544 119:1 606:1 1918:1 2628:1 2635:1 2641:1 2642:1 2646:1 2647:1 2659:1 
0.02046994415285208 269:1 2628:1 4017:1 4018:1 
0.08103501608196641 122:1 124:1 343:1 446:1 477:1 1811:1 2024:1 2858:1 3244:1 4024:1 4025:1 
0.1562215164765544 190:1 225:1 725:1 1041:1 1168:1 1169:1 2041:1 2646:1 2647:1 3167:1 3881:1 4027:1 
0.105508695905368 269:1 2628:1 2902:1 4017:1 4018:1 
0.05305609310752189 15:1 213:1 214:1 469:1 744:1 1213:1 1229:1 2269:1 2628:1 2672:1 2921:1 4029:1 
0.1562215164765544 43:1 573:1 
0.1561687731675483 1064:1 1536:1 1537:1 1780:1 
0.1562215164765544 93:1 94:1 125:1 169:1 1530:1 1851:1 
0.1562215164765544 224:1 4034:1 
0.1562215164765544 107:1 561:1 4036:1 
0.1562215164765544 446:1 3620:1 4036:1 4039:1 4040:1 
0.06331086801158066 4036:1 4043:1 4044:1 
0.1562215164765544 369:1 557:1 561:1 730:1 2216:1 3631:1 4036:1 4050:1 4051:1 4052:1 
0.04568083987890537 471:1 606:1 692:1 744:1 826:1 1216:1 3143:1 4046:1 4053:1 
0.1562215164765544 557:1 
0.01601633281178972 557:1 
0.1562215164765544 1466:1 2612:1 
0.1562215164765544 4036:1 4060:1 
0.03015525780678435 222:1 271:1 477:1 692:1 744:1 988:1 4050:1 4065:1 
0.1562215164765544 471:1 620:1 621:1 1006:1 1007:1 4036:1 
0.1562215164765544 68:1 
0.1562215164765544 925:1 
0.1562215164765544 107:1 1203:1 1773:1 4036:1 
0.1562215164765544 233:1 589:1 1518:1 2216:1 2630:1 3038:1 3059:1 4075:1 
0.1562215164765544 170:1 845:1 1646:1 2630:1 2754:1 2786:1 2842:1 2942:1 
0.1562215164765544 97:1 670:1 1055:1 2630:1 4086:1 
0.1562215164765544 3631:1 
0.1562215164765544 1006:1 1007:1 
0.1562215164765544 23:1 3170:1 4097:1 
0.005039496623131036 828:1 
0.1562215164765544 2791:1 4105:1 
0.1562215164765544 165:1 
0.1562215164765544 165:1 2611:1 
0.1562215164765544 147:1 557:1 2222:1 
0.1562215164765544 153:1 437:1 1151:1 
0.1562215164765544 222:1 225:1 979:1 1073:1 2709:1 2924:1 2978:1 4122:1 
0.1562215164765544 27:1 2430:1 2967:1 4125:1 
0.08776594091396497 1364:1 3025:1 
0.1562215164765544 79:1 1364:1 2967:1 
0.1562215164765544 58:1 138:1 321:1 557:1 1006:1 1007:1 2378:1 2967:1 
0.1335135785544706 867:1 3090:1 
0.04854305813371521 1064:1 1536:1 1537:1 1780:1 
0.1399883010453665 557:1 1522:1 
0.1562215164765544 1522:1 
0.1562215164765544 1006:1 1007:1 
0.1562215164765544 68:1 391:1 
0.1562215164765544 504:1 1777:1 
0.02057741655605562 58:1 113:1 562:1 2967:1 4133:1 
0.01775767321387343 535:1 3918:1 3945:1 4135:1 
0.1562215164765544 44:1 1705:1 1820:1 2707:1 2903:1 2909:1 3167:1 3329:1 4139:1 
0.02258381979655384 19:1 22:1 23:1 517:1 2620:1 2687:1 2692:1 
0.1562215164765544 1349:1 
0.1562215164765544 509:1 1446:1 
0.1562215164765544 4145:1 4146:1 4147:1 
0.1562215164765544 4148:1 
0.1562215164765544 1388:1 2639:1 3007:1 4153:1 
0.1562215164765544 46:1 577:1 2070:1 3029:1 3030:1 4145:1 
0.1562215164765544 57:1 455:1 1158:1 2277:1 2612:1 2719:1 2930:1 3860:1 
0.1562215164765544 57:1 461:1 990:1 1073:1 1228:1 1642:1 1854:1 4145:1 4164:1 
0.1562215164765544 243:1 472:1 573:1 610:1 1207:1 1266:1 2396:1 2719:1 
0.1562215164765544 43:1 225:1 340:1 415:1 441:1 988:1 1811:1 2612:1 2844:1 4145:1 
0.1387844530530926 249:1 573:1 990:1 2719:1 2925:1 2942:1 3217:1 4174:1 
0.1562215164765544 222:1 264:1 455:1 458:1 557:1 990:1 1258:1 1383:1 4145:1 4175:1 
0.1562215164765544 180:1 866:1 1828:1 
0.1562215164765544 57:1 261:1 455:1 471:1 610:1 826:1 988:1 989:1 990:1 1211:1 
0.1562215164765544 2622:1 
0.1562215164765544 4179:1 
0.1562215164765544 79:1 4145:1 
0.1562215164765544 1624:1 1655:1 2612:1 3129:1 
0.1562215164765544 507:1 1395:1 2245:1 
0.1562215164765544 107:1 122:1 
0.1562215164765544 3090:1 3171:1 4181:1 
0.1439578649686409 104:1 184:1 710:1 761:1 2164:1 4183:1 
0.1562215164765544 441:1 
0.1562215164765544 1006:1 1007:1 
0.1562215164765544 641:1 1440:1 2529:1 2595:1 2735:1 2982:1 
0.1562215164765544 373:1 549:1 710:1 900:1 1206:1 4142:1 4143:1 4185:1 4186:1 4187:1 
0.1562215164765544 225:1 273:1 437:1 725:1 875:1 1075:1 2143:1 3140:1 
0.1562215164765544 15:1 222:1 223:1 446:1 1205:1 2628:1 2646:1 2647:1 2708:1 
0.1562215164765544 162:1 199:1 589:1 711:1 2248:1 2628:1 3760:1 4196:1 4197:1 
0.1562215164765544 124:1 137:1 343:1 758:1 935:1 1991:1 2151:1 2793:1 4203:1 
0.1254244745891257 420:1 687:1 1074:1 1828:1 1829:1 1846:1 2687:1 2692:1 
0.0400037465133174 19:1 22:1 23:1 517:1 2620:1 2687:1 2692:1 
0.1562215164765544 165:1 180:1 866:1 1828:1 1829:1 1844:1 1845:1 1846:1 4211:1 
0.1562215164765544 703:1 916:1 
0.1562215164765544 2786:1 3905:1 4068:1 4103:1 4104:1 
0.1562215164765544 287:1 2735:1 
0.04493551856274978 4216:1 
0.01814262710218017 138:1 1143:1 1156:1 1603:1 2722:1 3329:1 3979:1 4216:1 
0.04981048371665069 812:1 2677:1 2722:1 4216:1 4224:1 4227:1 4229:1 
0.1562215164765544 1177:1 2042:1 2865:1 4216:1 4225:1 4239:1 
0.1562215164765544 175:1 593:1 690:1 908:1 1159:1 2078:1 2722:1 3383:1 4216:1 
0.1562215164765544 471:1 557:1 620:1 621:1 4216:1 
0.1562215164765544 313:1 
0.04550597207284473 19:1 709:1 4216:1 
0.1562215164765544 524:1 1488:1 2258:1 2735:1 
0.1562215164765544 523:1 557:1 662:1 1892:1 4277:1 4278:1 4279:1 4280:1 
0.1562215164765544 690:1 
0.1562215164765544 391:1 882:1 
0.1562215164765544 44:1 1913:1 
0.1562215164765544 690:1 3130:1 3184:1 4283:1 
0.1562215164765544 153:1 4296:1 
0.1562215164765544 4297:1 
0.1562215164765544 84:1 1520:1 
0.1562215164765544 1842:1 
0.1562215164765544 4302:1 4303:1 
0.1562215164765544 4304:1 
0.1562215164765544 27:1 679:1 
0.1562215164765544 543:1 4304:1 
0.1562215164765544 1119:1 
0.1562215164765544 107:1 561:1 4306:1 
0.1562215164765544 11:1 4306:1 
0.1336909648318607 643:1 1469:1 2021:1 2166:1 3130:1 3184:1 4069:1 4183:1 4290:1 
0.1562215164765544 184:1 333:1 728:1 1530:1 1705:1 4311:1 
0.1562215164765544 392:1 458:1 758:1 1075:1 2724:1 4306:1 4321:1 
0.09814318926034842 66:1 606:1 610:1 988:1 1557:1 2719:1 2835:1 2869:1 4325:1 
0.08406179913726299 43:1 222:1 573:1 606:1 995:1 3114:1 3595:1 4306:1 4312:1 
0.1339282653333408 465:1 466:1 1168:1 1367:1 1393:1 4038:1 4224:1 4306:1 4331:1 4332:1 
0.1562215164765544 79:1 4306:1 
0.1562215164765544 394:1 2397:1 3610:1 4306:1 
0.1562215164765544 313:1 
0.1562215164765544 113:1 
0.1562215164765544 225:1 463:1 557:1 593:1 1740:1 2275:1 2328:1 2630:1 2721:1 3038:1 4336:1 4337:1 
0.1562215164765544 68:1 437:1 557:1 845:1 1003:1 1445:1 4038:1 4328:1 4339:1 4340:1 
0.002499198628635633 48:1 812:1 1785:1 1992:1 2216:1 3038:1 3047:1 4079:1 
0.1562215164765544 225:1 390:1 1082:1 3038:1 3082:1 3376:1 4290:1 
0.1562215164765544 108:1 292:1 2245:1 3038:1 
0.1562215164765544 4038:1 
0.1562215164765544 294:1 996:1 3093:1 3170:1 4290:1 
0.1562215164765544 28:1 409:1 549:1 702:1 900:1 3177:1 4013:1 
0.1562215164765544 11:1 361:1 643:1 1488:1 4290:1 4360:1 4361:1 4362:1 
0.1562215164765544 4290:1 4363:1 
0.1562215164765544 2955:1 
0.1562215164765544 165:1 453:1 761:1 1900:1 
0.1562215164765544 711:1 4365:1 
0.1562215164765544 153:1 509:1 1430:1 1446:1 2622:1 
0.1562215164765544 4366:1 
0.1562215164765544 234:1 4366:1 
0.1562215164765544 4368:1 
0.1562215164765544 153:1 1151:1 
