svm_type nu_svc
kernel_type linear
nr_class 2
total_sv 19316
rho -0.685818
label 1 -1
nr_sv 9639 9677
SV
0.1561231484264422 
0.1561231484264422 5:1 6:1 7:1 8:1 
0.1561231484264422 9:1 10:1 11:1 12:1 
0.1561231484264422 20:1 
0.07697540180658258 10:1 11:1 12:1 18:1 21:1 22:1 23:1 24:1 25:1 
0.1561231484264422 26:1 
0.1561231484264422 27:1 
0.156102776239417 10:1 11:1 12:1 18:1 21:1 22:1 23:1 24:1 25:1 
0.1561231484264422 26:1 
0.1561231484264422 28:1 29:1 30:1 
0.1561231484264422 31:1 32:1 33:1 
0.1561231484264422 34:1 35:1 36:1 37:1 
0.1561231484264422 39:1 40:1 41:1 42:1 43:1 44:1 
0.1561231484264422 45:1 46:1 
0.1561231484264422 58:1 59:1 
0.1561231484264422 61:1 
0.1561231484264422 67:1 
0.1561231484264422 68:1 69:1 70:1 71:1 72:1 
0.1561231484264422 73:1 74:1 75:1 76:1 
0.1561231484264422 48:1 70:1 71:1 72:1 77:1 78:1 79:1 
0.1561231484264422 81:1 82:1 
0.1561231484264422 70:1 83:1 
0.1561231484264422 10:1 11:1 85:1 86:1 87:1 
0.1561231484264422 88:1 89:1 
0.1561231484264422 44:1 90:1 91:1 
0.1561231484264422 92:1 
0.1561231484264422 83:1 93:1 94:1 95:1 96:1 97:1 98:1 99:1 100:1 101:1 
0.1561231484264422 103:1 104:1 
0.1561231484264422 27:1 70:1 105:1 106:1 107:1 108:1 
0.1561231484264422 109:1 110:1 
0.1561231484264422 113:1 
0.1561231484264422 114:1 
0.1561231484264422 115:1 
0.1561231484264422 114:1 
0.1561231484264422 103:1 
0.1561231484264422 70:1 103:1 107:1 117:1 118:1 
0.1561231484264422 103:1 119:1 120:1 
0.1561231484264422 91:1 123:1 124:1 125:1 126:1 127:1 
0.1561231484264422 46:1 89:1 128:1 129:1 130:1 
0.1561231484264422 34:1 132:1 133:1 134:1 135:1 
0.1561231484264422 136:1 
0.1561231484264422 137:1 138:1 
0.1561231484264422 139:1 
0.1561231484264422 140:1 
0.1561231484264422 141:1 142:1 
0.1561231484264422 143:1 
0.1561231484264422 34:1 107:1 139:1 142:1 
0.1561231484264422 49:1 144:1 145:1 
0.1561231484264422 129:1 146:1 147:1 
0.1561231484264422 48:1 69:1 148:1 149:1 150:1 
0.1561231484264422 151:1 152:1 
0.1561231484264422 77:1 
0.1561231484264422 27:1 155:1 156:1 157:1 158:1 
0.1561231484264422 70:1 104:1 159:1 
0.1561231484264422 67:1 
0.1561231484264422 163:1 
0.1561231484264422 164:1 
0.1561231484264422 27:1 165:1 
0.1561231484264422 69:1 153:1 
0.1561231484264422 27:1 166:1 167:1 168:1 
0.1561231484264422 89:1 
0.1561231484264422 89:1 
0.1561231484264422 112:1 172:1 173:1 
0.1561231484264422 129:1 
0.1561231484264422 160:1 179:1 
0.1561231484264422 163:1 
0.1561231484264422 182:1 
0.1561231484264422 184:1 185:1 
0.1561231484264422 112:1 
0.1561231484264422 89:1 
0.1561231484264422 53:1 84:1 183:1 186:1 187:1 188:1 189:1 
0.1561231484264422 71:1 191:1 192:1 193:1 194:1 195:1 
0.1561231484264422 204:1 205:1 
0.1561231484264422 70:1 
0.1561231484264422 27:1 
0.1561231484264422 129:1 
0.1561231484264422 77:1 208:1 
0.1561231484264422 129:1 
0.1561231484264422 27:1 55:1 77:1 
0.1561231484264422 129:1 
0.1561231484264422 70:1 153:1 
0.1561231484264422 70:1 207:1 
0.1561231484264422 112:1 
0.1561231484264422 209:1 210:1 211:1 
0.1561231484264422 129:1 
0.06500517054478162 212:1 213:1 214:1 215:1 216:1 217:1 
0.1561231484264422 129:1 
0.1561231484264422 218:1 219:1 220:1 221:1 222:1 223:1 
0.1561231484264422 129:1 
0.1561231484264422 184:1 
0.1561231484264422 76:1 218:1 223:1 224:1 225:1 226:1 227:1 
0.1561231484264422 129:1 
0.1561231484264422 129:1 
0.1561231484264422 10:1 11:1 175:1 228:1 229:1 
0.1561231484264422 129:1 
0.1561231484264422 129:1 
0.1561231484264422 63:1 232:1 233:1 234:1 
0.1561231484264422 129:1 
0.1561231484264422 175:1 235:1 236:1 
0.1561231484264422 129:1 147:1 237:1 
0.1561231484264422 247:1 
0.1561231484264422 129:1 
0.1561231484264422 69:1 84:1 153:1 254:1 255:1 256:1 
0.1561231484264422 129:1 
0.1561231484264422 218:1 257:1 258:1 
0.1561231484264422 129:1 
0.1561231484264422 64:1 77:1 259:1 260:1 261:1 262:1 263:1 
0.1561231484264422 129:1 
0.1561231484264422 268:1 
0.1561231484264422 129:1 
0.1561231484264422 272:1 
0.1561231484264422 129:1 
0.1561231484264422 129:1 
0.1561231484264422 278:1 
0.1561231484264422 279:1 
0.1561231484264422 129:1 
0.1561231484264422 281:1 282:1 283:1 284:1 
0.1561231484264422 183:1 286:1 287:1 288:1 289:1 290:1 291:1 
0.1561231484264422 129:1 277:1 293:1 294:1 
0.1561231484264422 129:1 
0.1561231484264422 84:1 102:1 296:1 297:1 298:1 
0.1561231484264422 129:1 
0.1561231484264422 129:1 
0.1561231484264422 129:1 
0.1561231484264422 129:1 
0.1561231484264422 38:1 113:1 310:1 314:1 315:1 
0.1561231484264422 258:1 316:1 
0.1561231484264422 129:1 
0.1561231484264422 318:1 
0.1561231484264422 129:1 
0.1561231484264422 38:1 321:1 
0.1561231484264422 6:1 46:1 229:1 322:1 323:1 
0.1561231484264422 160:1 324:1 325:1 
0.1561231484264422 129:1 
0.1561231484264422 153:1 207:1 218:1 317:1 318:1 327:1 
0.1561231484264422 160:1 179:1 
0.1561231484264422 129:1 
0.1135436081028197 129:1 
0.1561231484264422 328:1 
0.1561231484264422 318:1 
0.1561231484264422 329:1 330:1 331:1 332:1 333:1 334:1 
0.1561231484264422 103:1 335:1 336:1 337:1 
0.1561231484264422 103:1 336:1 337:1 340:1 341:1 342:1 
0.1561231484264422 6:1 349:1 350:1 
0.1561231484264422 328:1 
0.1561231484264422 318:1 
0.1561231484264422 25:1 71:1 91:1 
0.1561231484264422 6:1 356:1 357:1 
0.1234921772255614 358:1 359:1 360:1 361:1 
0.1561231484264422 318:1 
0.1561231484264422 324:1 362:1 363:1 364:1 
0.1561231484264422 365:1 366:1 367:1 
0.02181655169900627 27:1 56:1 121:1 317:1 368:1 369:1 370:1 371:1 
0.1561231484264422 318:1 
0.1561231484264422 318:1 
0.1561231484264422 318:1 
0.007808287603308058 124:1 125:1 127:1 318:1 379:1 380:1 
0.1561231484264422 377:1 381:1 
0.1561231484264422 318:1 382:1 
0.1561231484264422 318:1 
0.1561231484264422 384:1 385:1 386:1 
0.1561231484264422 387:1 388:1 389:1 
0.1561231484264422 6:1 349:1 350:1 
0.1561231484264422 160:1 179:1 
0.1561231484264422 19:1 309:1 391:1 
0.1323875888940526 123:1 160:1 378:1 392:1 
0.1561231484264422 393:1 
0.1561231484264422 160:1 324:1 325:1 
0.1561231484264422 160:1 205:1 395:1 396:1 
0.1561231484264422 181:1 397:1 398:1 399:1 400:1 401:1 402:1 403:1 404:1 
0.1561231484264422 310:1 401:1 405:1 
0.1561231484264422 125:1 309:1 
0.1561231484264422 90:1 407:1 
0.1561231484264422 408:1 409:1 
0.1561231484264422 10:1 11:1 12:1 280:1 336:1 412:1 413:1 414:1 415:1 416:1 417:1 418:1 419:1 
0.1561231484264422 16:1 34:1 422:1 
0.1561231484264422 423:1 424:1 425:1 426:1 
0.1561231484264422 276:1 427:1 
0.1561231484264422 248:1 386:1 429:1 
0.1561231484264422 432:1 
0.1561231484264422 432:1 
0.1561231484264422 432:1 
0.1561231484264422 224:1 331:1 436:1 437:1 
0.001855064257543606 432:1 
0.1561231484264422 122:1 166:1 
0.1561231484264422 46:1 181:1 
0.1561231484264422 443:1 
0.1561231484264422 68:1 444:1 445:1 446:1 
0.1561231484264422 447:1 
0.1561231484264422 454:1 
0.1561231484264422 64:1 241:1 243:1 259:1 455:1 456:1 457:1 458:1 459:1 
0.1561231484264422 64:1 229:1 240:1 241:1 460:1 461:1 462:1 
0.1561231484264422 176:1 374:1 433:1 463:1 464:1 465:1 466:1 467:1 468:1 
0.1561231484264422 469:1 
0.1462768714172841 198:1 433:1 466:1 470:1 471:1 472:1 473:1 
0.1561231484264422 10:1 11:1 206:1 228:1 229:1 474:1 475:1 
0.1561231484264422 276:1 476:1 
0.1561231484264422 166:1 
0.1561231484264422 481:1 482:1 483:1 
0.1561231484264422 484:1 485:1 486:1 487:1 488:1 
0.1561231484264422 107:1 112:1 
0.04519926784992821 326:1 
0.1561231484264422 508:1 
0.1561231484264422 509:1 510:1 
0.1561231484264422 179:1 
0.1561231484264422 511:1 
0.1561231484264422 47:1 
0.1561231484264422 103:1 153:1 338:1 339:1 512:1 513:1 514:1 515:1 516:1 
0.1561231484264422 120:1 338:1 339:1 513:1 
0.1561231484264422 518:1 519:1 520:1 
0.1561231484264422 125:1 348:1 521:1 
0.1561231484264422 38:1 522:1 523:1 524:1 525:1 526:1 527:1 
0.1561231484264422 528:1 
0.1561231484264422 181:1 533:1 
0.1561231484264422 130:1 534:1 
0.1561231484264422 14:1 22:1 23:1 535:1 
0.1561231484264422 539:1 540:1 
0.1561231484264422 14:1 22:1 23:1 535:1 
0.1561231484264422 542:1 
0.1561231484264422 543:1 
0.1561231484264422 60:1 176:1 544:1 545:1 546:1 547:1 
0.1561231484264422 548:1 
0.1561231484264422 234:1 322:1 443:1 
0.1561231484264422 552:1 
0.1561231484264422 316:1 390:1 
0.1561231484264422 553:1 
0.1561231484264422 554:1 
0.1561231484264422 555:1 
0.1561231484264422 557:1 
0.1561231484264422 84:1 559:1 
0.1561231484264422 172:1 558:1 
0.1561231484264422 553:1 
0.1561231484264422 107:1 560:1 561:1 562:1 
0.1561231484264422 67:1 
0.1561231484264422 563:1 
0.1561231484264422 17:1 
0.1561231484264422 18:1 567:1 568:1 
0.08655250899467029 130:1 569:1 570:1 
0.1561231484264422 511:1 
0.1561231484264422 67:1 
0.1561231484264422 375:1 571:1 572:1 573:1 574:1 575:1 
0.1561231484264422 46:1 418:1 576:1 577:1 
0.1561231484264422 384:1 578:1 579:1 580:1 
0.1561231484264422 576:1 582:1 
0.1561231484264422 558:1 
0.1561231484264422 558:1 
0.1561231484264422 592:1 
0.1561231484264422 558:1 
0.1561231484264422 596:1 
0.1561231484264422 558:1 
0.1561231484264422 10:1 11:1 228:1 
0.1561231484264422 229:1 
0.1561231484264422 55:1 107:1 184:1 600:1 601:1 602:1 
0.1561231484264422 558:1 
0.1561231484264422 558:1 
0.1561231484264422 558:1 
0.1561231484264422 264:1 605:1 606:1 607:1 608:1 
0.1561231484264422 558:1 
0.1561231484264422 184:1 229:1 613:1 
0.1561231484264422 24:1 476:1 
0.1561231484264422 422:1 614:1 
0.1561231484264422 373:1 538:1 558:1 576:1 615:1 616:1 617:1 618:1 
0.1561231484264422 169:1 229:1 619:1 620:1 621:1 
0.1561231484264422 179:1 
0.1561231484264422 558:1 
0.1561231484264422 558:1 
0.1561231484264422 422:1 614:1 
0.1561231484264422 627:1 628:1 
0.1561231484264422 202:1 350:1 505:1 629:1 
0.1093364393371482 125:1 179:1 273:1 348:1 630:1 
0.1561231484264422 521:1 
0.1561231484264422 179:1 
0.1561231484264422 558:1 
0.1561231484264422 311:1 531:1 558:1 631:1 632:1 
0.1561231484264422 107:1 
0.1561231484264422 558:1 
0.1561231484264422 633:1 634:1 
0.1561231484264422 635:1 636:1 
0.1561231484264422 234:1 637:1 
0.1561231484264422 6:1 234:1 288:1 638:1 639:1 640:1 641:1 
0.1561231484264422 350:1 642:1 
0.1561231484264422 643:1 644:1 
0.1561231484264422 558:1 
0.1561231484264422 103:1 107:1 647:1 
0.1561231484264422 103:1 512:1 648:1 649:1 
0.1561231484264422 153:1 513:1 519:1 520:1 650:1 651:1 652:1 653:1 
0.1561231484264422 153:1 347:1 651:1 652:1 654:1 
0.1561231484264422 103:1 112:1 122:1 176:1 453:1 648:1 649:1 655:1 
0.1561231484264422 103:1 107:1 122:1 625:1 
0.1561231484264422 519:1 520:1 656:1 
0.1561231484264422 248:1 350:1 657:1 658:1 
0.1561231484264422 179:1 
0.1561231484264422 495:1 
0.1561231484264422 125:1 179:1 357:1 659:1 660:1 
0.1561231484264422 6:1 578:1 
0.1561231484264422 179:1 
0.1561231484264422 179:1 
0.1561231484264422 125:1 
0.1561231484264422 5:1 84:1 661:1 662:1 663:1 664:1 
0.1561231484264422 558:1 
0.1561231484264422 667:1 
0.1561231484264422 18:1 19:1 22:1 23:1 558:1 
0.1561231484264422 166:1 378:1 
0.1561231484264422 576:1 
0.040657488105227 67:1 671:1 672:1 673:1 674:1 675:1 
0.1561231484264422 676:1 677:1 
0.1561231484264422 385:1 
0.1512971135679785 641:1 
0.1561231484264422 425:1 681:1 
0.1561231484264422 44:1 259:1 
0.05907036847652157 84:1 121:1 682:1 683:1 
0.1561231484264422 67:1 
0.1561231484264422 688:1 689:1 
0.1561231484264422 690:1 
0.1561231484264422 103:1 335:1 336:1 337:1 
0.1561231484264422 46:1 
0.1561231484264422 691:1 
0.1561231484264422 691:1 
0.1561231484264422 67:1 
0.1561231484264422 660:1 694:1 695:1 696:1 
0.1561231484264422 27:1 699:1 
0.1561231484264422 700:1 
0.1561231484264422 186:1 457:1 703:1 704:1 705:1 
0.1561231484264422 67:1 
0.1561231484264422 35:1 107:1 706:1 
0.1561231484264422 62:1 
0.01472468152714269 112:1 
0.1561231484264422 708:1 
0.1561231484264422 508:1 
0.1561231484264422 708:1 
0.1561231484264422 27:1 
0.1561231484264422 708:1 
0.1561231484264422 103:1 336:1 337:1 350:1 711:1 712:1 
0.1561231484264422 84:1 713:1 714:1 715:1 
0.1561231484264422 716:1 
0.1561231484264422 45:1 46:1 717:1 
0.1561231484264422 708:1 
0.1561231484264422 64:1 103:1 176:1 515:1 516:1 709:1 719:1 720:1 
0.1561231484264422 48:1 721:1 
0.1561231484264422 300:1 
0.1561231484264422 301:1 
0.1561231484264422 302:1 
0.1561231484264422 303:1 
0.1561231484264422 491:1 
0.1561231484264422 304:1 
0.1561231484264422 722:1 
0.1561231484264422 27:1 723:1 
0.1561231484264422 708:1 
0.1561231484264422 708:1 
0.1561231484264422 708:1 
0.1561231484264422 708:1 
0.1561231484264422 731:1 
0.1561231484264422 708:1 
0.1561231484264422 733:1 
0.1561231484264422 27:1 176:1 249:1 250:1 734:1 735:1 736:1 737:1 
0.1561231484264422 228:1 
0.1561231484264422 708:1 
0.1561231484264422 67:1 
0.1561231484264422 738:1 
0.1561231484264422 708:1 
0.1561231484264422 741:1 
0.1561231484264422 147:1 229:1 237:1 
0.1561231484264422 708:1 
0.03528281255292678 27:1 241:1 271:1 736:1 742:1 743:1 744:1 
0.1561231484264422 708:1 
0.1185947944036852 708:1 
0.1561231484264422 308:1 492:1 746:1 
0.1561231484264422 60:1 747:1 
0.1561231484264422 272:1 
0.1561231484264422 748:1 
0.1561231484264422 750:1 751:1 
0.1561231484264422 420:1 684:1 686:1 687:1 752:1 753:1 
0.1561231484264422 766:1 
0.1561231484264422 311:1 655:1 708:1 767:1 768:1 769:1 770:1 771:1 
0.1561231484264422 772:1 773:1 774:1 775:1 
0.1561231484264422 16:1 422:1 655:1 
0.1561231484264422 6:1 640:1 655:1 777:1 778:1 
0.1561231484264422 779:1 780:1 
0.1042473151257799 666:1 781:1 782:1 783:1 784:1 785:1 
0.1561231484264422 56:1 787:1 788:1 789:1 
0.1561231484264422 679:1 
0.1561231484264422 71:1 755:1 756:1 791:1 
0.001398317177908237 708:1 
0.1561231484264422 47:1 93:1 792:1 793:1 
0.1561231484264422 794:1 
0.1116402515927062 795:1 796:1 797:1 798:1 799:1 
0.1561231484264422 800:1 
0.1561231484264422 801:1 
0.1561231484264422 14:1 22:1 23:1 24:1 277:1 
0.1561231484264422 657:1 802:1 803:1 804:1 
0.1561231484264422 47:1 805:1 
0.1561231484264422 806:1 807:1 808:1 
0.1561231484264422 809:1 
0.1561231484264422 277:1 810:1 
0.1561231484264422 801:1 
0.1561231484264422 14:1 22:1 23:1 24:1 277:1 
0.1561231484264422 10:1 11:1 12:1 69:1 
0.1561231484264422 137:1 406:1 813:1 814:1 
0.1561231484264422 27:1 161:1 816:1 817:1 
0.08728629240248542 137:1 403:1 
0.1561231484264422 38:1 258:1 373:1 479:1 819:1 
0.1561231484264422 444:1 535:1 820:1 821:1 822:1 
0.1561231484264422 823:1 
0.1561231484264422 104:1 135:1 829:1 
0.1561231484264422 103:1 
0.1561231484264422 122:1 648:1 649:1 
0.1561231484264422 16:1 103:1 
0.1561231484264422 103:1 
0.1561231484264422 47:1 832:1 833:1 
0.1561231484264422 103:1 
0.1561231484264422 103:1 107:1 122:1 648:1 649:1 
0.05533955916986109 153:1 652:1 834:1 835:1 
0.1561231484264422 69:1 173:1 836:1 837:1 
0.1561231484264422 838:1 
0.08881783621182804 839:1 
0.1561231484264422 103:1 
0.0946695752640324 593:1 655:1 794:1 840:1 
0.1561231484264422 156:1 652:1 842:1 843:1 844:1 
0.1561231484264422 120:1 175:1 228:1 648:1 649:1 825:1 
0.1561231484264422 103:1 
0.1561231484264422 27:1 103:1 
0.1561231484264422 223:1 240:1 471:1 744:1 834:1 835:1 850:1 851:1 852:1 853:1 
0.1295342053113493 176:1 655:1 855:1 
0.1561231484264422 103:1 
0.1561231484264422 93:1 94:1 103:1 121:1 176:1 189:1 856:1 
0.1561231484264422 103:1 
0.1561231484264422 56:1 104:1 692:1 861:1 862:1 863:1 864:1 
0.1528643559497468 869:1 
0.1561231484264422 871:1 872:1 873:1 
0.1561231484264422 878:1 
0.1561231484264422 228:1 
0.1561231484264422 880:1 
0.001518297131727611 843:1 
0.1561231484264422 881:1 
0.1561231484264422 882:1 
0.1561231484264422 883:1 
0.1561231484264422 880:1 
0.1561231484264422 843:1 
0.1561231484264422 881:1 
0.1561231484264422 882:1 
0.1561231484264422 883:1 
0.1021572684442996 340:1 884:1 
0.1548808481759487 469:1 885:1 886:1 
0.1110274387373453 489:1 889:1 
0.1561231484264422 68:1 395:1 
0.1561231484264422 278:1 
0.1561231484264422 53:1 169:1 
0.1561231484264422 876:1 904:1 
0.1561231484264422 496:1 505:1 869:1 
0.1561231484264422 67:1 
0.1561231484264422 912:1 
0.1561231484264422 27:1 161:1 914:1 
0.1561231484264422 915:1 
0.1561231484264422 487:1 919:1 920:1 
0.1561231484264422 919:1 920:1 
0.1561231484264422 38:1 68:1 322:1 
0.1561231484264422 3:1 4:1 
0.1561231484264422 22:1 557:1 689:1 
0.1561231484264422 926:1 927:1 928:1 
0.1561231484264422 805:1 807:1 
0.1561231484264422 800:1 932:1 
0.1561231484264422 125:1 273:1 630:1 933:1 
0.1561231484264422 27:1 649:1 934:1 
0.1561231484264422 27:1 161:1 531:1 935:1 936:1 
0.1561231484264422 940:1 
0.1561231484264422 137:1 352:1 941:1 
0.1561231484264422 944:1 
0.1561231484264422 945:1 946:1 947:1 
0.1561231484264422 137:1 948:1 949:1 
0.1561231484264422 37:1 950:1 
0.1561231484264422 939:1 951:1 952:1 953:1 954:1 
0.1561231484264422 42:1 
0.1561231484264422 955:1 
0.1561231484264422 956:1 
0.1561231484264422 169:1 233:1 
0.02479114715422114 136:1 170:1 860:1 957:1 958:1 
0.02812763685175376 609:1 961:1 
0.1561231484264422 537:1 
0.1561231484264422 27:1 53:1 107:1 108:1 330:1 511:1 561:1 797:1 
0.1561231484264422 48:1 668:1 963:1 
0.1561231484264422 71:1 964:1 
0.09239531985333257 966:1 
0.1561231484264422 537:1 
0.1561231484264422 68:1 107:1 395:1 
0.1561231484264422 955:1 956:1 967:1 968:1 969:1 
0.04187182525472671 107:1 561:1 970:1 
0.1561231484264422 67:1 
0.1561231484264422 59:1 71:1 
0.1561231484264422 48:1 321:1 971:1 
0.1561231484264422 331:1 973:1 974:1 975:1 976:1 977:1 978:1 
0.1561231484264422 573:1 984:1 985:1 986:1 987:1 
0.1561231484264422 992:1 
0.1561231484264422 175:1 447:1 579:1 959:1 993:1 994:1 
0.1561231484264422 340:1 884:1 
0.1561231484264422 222:1 611:1 988:1 995:1 
0.1561231484264422 27:1 57:1 
0.07503859983195924 223:1 250:1 744:1 979:1 999:1 1000:1 1001:1 
0.1561231484264422 489:1 1002:1 1003:1 
0.1561231484264422 194:1 
0.1561231484264422 191:1 590:1 1004:1 1005:1 
0.1561231484264422 90:1 
0.1561231484264422 292:1 
0.1561231484264422 278:1 
0.1561231484264422 53:1 169:1 
0.1561231484264422 107:1 874:1 
0.1561231484264422 761:1 762:1 
0.01146380345153539 300:1 301:1 611:1 624:1 885:1 905:1 
0.1361333008681969 3:1 4:1 
0.1561231484264422 1013:1 
0.02794860259374488 224:1 1015:1 
0.07206391254171937 1017:1 1018:1 
0.1561231484264422 67:1 
0.001706346573478444 50:1 543:1 1019:1 1020:1 1021:1 
0.05671849069969102 127:1 1022:1 1023:1 1024:1 
0.1561231484264422 561:1 
0.1561231484264422 1025:1 1026:1 
0.1561231484264422 1027:1 
0.1561231484264422 848:1 
0.1561231484264422 1029:1 
0.001919181855062755 845:1 
0.1561231484264422 1030:1 
0.1561231484264422 1031:1 
0.1561231484264422 107:1 959:1 1032:1 
0.1561231484264422 1033:1 
0.1561231484264422 915:1 
0.1561231484264422 1034:1 1035:1 1036:1 
0.1561231484264422 507:1 
0.1561231484264422 614:1 694:1 764:1 1040:1 1041:1 
0.1561231484264422 6:1 11:1 39:1 133:1 176:1 640:1 643:1 1042:1 1043:1 1044:1 
0.1561231484264422 689:1 
0.001907275634015355 959:1 
0.1561231484264422 18:1 22:1 23:1 959:1 
0.1561231484264422 27:1 135:1 165:1 959:1 1039:1 1049:1 
0.1561231484264422 1050:1 
0.1561231484264422 463:1 1051:1 1052:1 
0.1561231484264422 1050:1 
0.1561231484264422 1050:1 
0.1561231484264422 263:1 604:1 1053:1 1054:1 
0.1561231484264422 1050:1 
0.1561231484264422 1050:1 
0.1561231484264422 1050:1 
0.1561231484264422 217:1 
0.1561231484264422 1050:1 
0.1561231484264422 611:1 1057:1 1058:1 1059:1 
0.1561231484264422 1050:1 
0.1561231484264422 1050:1 
0.1561231484264422 1050:1 
0.1561231484264422 276:1 
0.1561231484264422 1050:1 
0.1561231484264422 1050:1 
0.1561231484264422 1050:1 
0.1561231484264422 175:1 223:1 338:1 437:1 604:1 999:1 1064:1 1065:1 
0.1561231484264422 1066:1 
0.1561231484264422 1050:1 
0.1561231484264422 1050:1 
0.1561231484264422 64:1 241:1 460:1 1067:1 1068:1 1069:1 1070:1 1071:1 1072:1 
0.1561231484264422 1050:1 
0.1561231484264422 222:1 224:1 225:1 1073:1 
0.1561231484264422 1050:1 
0.1561231484264422 458:1 1074:1 1075:1 
0.1561231484264422 228:1 640:1 793:1 
0.1561231484264422 1050:1 
0.1561231484264422 229:1 
0.1561231484264422 167:1 288:1 898:1 
0.007816221932462689 162:1 183:1 471:1 620:1 621:1 640:1 793:1 1076:1 1077:1 
0.1561231484264422 1050:1 
0.1561231484264422 529:1 578:1 590:1 599:1 1050:1 
0.1561231484264422 1050:1 
0.1561231484264422 313:1 758:1 
0.1509470775901928 1050:1 
0.1561231484264422 948:1 
0.1561231484264422 1088:1 
0.1561231484264422 35:1 900:1 
0.05712959101019068 37:1 384:1 578:1 640:1 643:1 793:1 
0.1561231484264422 1089:1 
0.1561231484264422 229:1 
0.1561231484264422 67:1 
0.1561231484264422 825:1 
0.1561231484264422 1092:1 
0.1561231484264422 1093:1 1094:1 
0.1561231484264422 395:1 707:1 1097:1 
0.1561231484264422 44:1 122:1 
0.1561231484264422 151:1 152:1 
0.1561231484264422 1100:1 
0.04434227463308523 47:1 56:1 787:1 788:1 843:1 
0.1561231484264422 787:1 
0.1561231484264422 1106:1 
0.1561231484264422 843:1 1073:1 
0.1561231484264422 1111:1 
0.1561231484264422 1114:1 
0.1561231484264422 578:1 580:1 1115:1 1116:1 
0.1561231484264422 59:1 401:1 1112:1 
0.001558723063641662 1050:1 
0.1561231484264422 1114:1 
0.1561231484264422 578:1 580:1 1115:1 1116:1 
0.1561231484264422 925:1 1120:1 
0.1561231484264422 489:1 1121:1 
0.1561231484264422 147:1 233:1 
0.1561231484264422 558:1 1125:1 
0.1561231484264422 558:1 
0.1561231484264422 558:1 
0.1561231484264422 558:1 
0.1561231484264422 17:1 38:1 46:1 236:1 402:1 1129:1 1132:1 1133:1 
0.1561231484264422 11:1 12:1 107:1 236:1 347:1 1134:1 1135:1 1136:1 1137:1 1138:1 1139:1 
0.1561231484264422 558:1 
0.1561231484264422 558:1 
0.1561231484264422 558:1 
0.1561231484264422 1145:1 
0.1561231484264422 558:1 
0.1561231484264422 817:1 
0.1561231484264422 558:1 
0.1561231484264422 558:1 
0.1561231484264422 558:1 
0.1561231484264422 1146:1 
0.1561231484264422 229:1 590:1 998:1 
0.1561231484264422 558:1 
0.1561231484264422 558:1 
0.1561231484264422 558:1 
0.1561231484264422 1147:1 
0.1561231484264422 363:1 1148:1 
0.1561231484264422 558:1 
0.1561231484264422 558:1 
0.1561231484264422 558:1 
0.1561231484264422 113:1 395:1 1152:1 1153:1 
0.1561231484264422 48:1 137:1 492:1 511:1 983:1 1154:1 1155:1 
0.1561231484264422 558:1 
0.1561231484264422 57:1 
0.1561231484264422 27:1 71:1 590:1 678:1 736:1 1062:1 1063:1 1159:1 
0.1561231484264422 224:1 264:1 587:1 608:1 826:1 1003:1 1160:1 
0.1561231484264422 1161:1 
0.1561231484264422 64:1 1162:1 1163:1 1164:1 
0.1561231484264422 716:1 
0.04340479822574442 55:1 56:1 1166:1 1167:1 1168:1 1169:1 
0.1561231484264422 11:1 45:1 194:1 197:1 320:1 558:1 1170:1 
0.1561231484264422 10:1 11:1 228:1 229:1 
0.1561231484264422 558:1 
0.1561231484264422 558:1 
0.1561231484264422 558:1 
0.1561231484264422 422:1 614:1 
0.1561231484264422 558:1 
0.1561231484264422 61:1 
0.1561231484264422 558:1 
0.009523768046867812 278:1 
0.1210200409645671 1177:1 
0.1561231484264422 558:1 
0.1561231484264422 25:1 507:1 
0.1561231484264422 558:1 
0.1561231484264422 558:1 
0.1561231484264422 558:1 
0.1561231484264422 47:1 70:1 1179:1 1180:1 
0.1561231484264422 313:1 
0.1561231484264422 558:1 
0.1561231484264422 558:1 
0.1561231484264422 558:1 
0.06280130591436615 313:1 413:1 558:1 754:1 1184:1 
0.009665178422997116 1185:1 
0.1561231484264422 18:1 22:1 23:1 558:1 
0.1561231484264422 1022:1 1193:1 
0.1561231484264422 288:1 
0.1561231484264422 18:1 22:1 23:1 223:1 1183:1 1184:1 
0.1561231484264422 416:1 512:1 1055:1 1195:1 
0.1561231484264422 1179:1 1196:1 
0.1561231484264422 1200:1 
0.1561231484264422 1201:1 1202:1 
0.1561231484264422 1205:1 
0.1561231484264422 369:1 472:1 744:1 1206:1 1207:1 1208:1 
0.1561231484264422 10:1 11:1 475:1 
0.01153738997864929 340:1 600:1 
0.1448264059983299 170:1 240:1 744:1 874:1 1213:1 1214:1 1215:1 1216:1 
0.1561231484264422 14:1 273:1 439:1 873:1 1217:1 1218:1 1219:1 
0.1561231484264422 517:1 1184:1 1220:1 1221:1 
0.1101006842975546 509:1 510:1 1184:1 
0.1561231484264422 53:1 169:1 
0.1561231484264422 1226:1 
0.1561231484264422 489:1 1201:1 
0.1561231484264422 130:1 295:1 396:1 1235:1 
0.1561231484264422 130:1 295:1 396:1 1235:1 
0.1561231484264422 1236:1 1237:1 
0.1561231484264422 16:1 255:1 
0.1561231484264422 1036:1 
0.1561231484264422 27:1 
0.1561231484264422 1241:1 
0.1561231484264422 1241:1 
0.1561231484264422 67:1 
0.1561231484264422 1241:1 
0.1561231484264422 16:1 255:1 
0.1561231484264422 1036:1 
0.1386434964996618 54:1 197:1 640:1 915:1 1123:1 1128:1 1244:1 
0.1561231484264422 1163:1 
0.06054012960397814 1241:1 
0.1561231484264422 222:1 223:1 229:1 1246:1 1247:1 
0.1561231484264422 1163:1 
0.1561231484264422 918:1 
0.1561231484264422 369:1 444:1 744:1 872:1 1249:1 1250:1 
0.1561231484264422 600:1 755:1 756:1 1251:1 1252:1 
0.1561231484264422 11:1 175:1 228:1 229:1 1253:1 
0.1561231484264422 779:1 1254:1 1255:1 
0.1561231484264422 828:1 
0.1561231484264422 243:1 252:1 253:1 736:1 1257:1 
0.1561231484264422 64:1 1257:1 1258:1 1259:1 1260:1 1261:1 
0.1561231484264422 1262:1 
0.1561231484264422 228:1 229:1 649:1 1267:1 
0.1561231484264422 1106:1 
0.1561231484264422 113:1 
0.04812512446818634 18:1 422:1 614:1 
0.1561231484264422 313:1 
0.1561231484264422 38:1 294:1 480:1 794:1 1241:1 
0.1561231484264422 1276:1 1277:1 
0.1561231484264422 1022:1 
0.1561231484264422 1279:1 1280:1 
0.0546476594961701 898:1 1283:1 
0.09851611707051093 649:1 1267:1 
0.1561231484264422 1284:1 
0.1216097683985974 6:1 27:1 45:1 275:1 340:1 1223:1 1290:1 1291:1 
0.1561231484264422 630:1 1023:1 1293:1 1294:1 
0.1561231484264422 175:1 1240:1 
0.1561231484264422 1295:1 1296:1 1297:1 
0.1561231484264422 110:1 422:1 614:1 1298:1 
0.1561231484264422 1299:1 1300:1 
0.05833500715618755 772:1 1266:1 1301:1 1302:1 
0.1561231484264422 395:1 481:1 561:1 900:1 
0.1561231484264422 22:1 23:1 535:1 1119:1 1183:1 
0.1561231484264422 45:1 46:1 165:1 385:1 680:1 1290:1 
0.1561231484264422 50:1 184:1 
0.1561231484264422 153:1 288:1 755:1 756:1 1307:1 1308:1 
0.1561231484264422 61:1 
0.1561231484264422 61:1 747:1 
0.1561231484264422 45:1 67:1 668:1 1290:1 1310:1 1311:1 1312:1 1313:1 1314:1 
0.1561231484264422 1290:1 1311:1 
0.1561231484264422 420:1 1290:1 1311:1 1315:1 1316:1 1317:1 1318:1 1319:1 
0.1561231484264422 1290:1 1310:1 1311:1 
0.1561231484264422 1329:1 
0.1561231484264422 1329:1 
0.1561231484264422 1329:1 
0.1561231484264422 1329:1 
0.00967294647768843 1329:1 
0.06085092003749278 39:1 350:1 1290:1 1328:1 1332:1 
0.03511440330407026 1329:1 
0.1561231484264422 39:1 42:1 165:1 184:1 1044:1 1290:1 1328:1 1329:1 
0.1561231484264422 67:1 
0.05550202877700138 202:1 234:1 797:1 1333:1 1334:1 
0.1370548124073406 68:1 668:1 674:1 1335:1 1336:1 1337:1 
0.1561231484264422 64:1 146:1 185:1 935:1 
0.1561231484264422 1342:1 
0.1561231484264422 1342:1 
0.1561231484264422 818:1 1331:1 
0.1132293740788307 176:1 1329:1 1343:1 
0.1561231484264422 633:1 1344:1 1345:1 1346:1 1347:1 1348:1 
0.1561231484264422 1331:1 
0.1561231484264422 702:1 
0.1561231484264422 1331:1 
0.1561231484264422 1331:1 
0.1561231484264422 107:1 561:1 
0.1561231484264422 1331:1 
0.1561231484264422 107:1 828:1 
0.1561231484264422 67:1 
0.1561231484264422 1331:1 
0.1561231484264422 1331:1 
0.1561231484264422 1331:1 
0.1039303822551969 76:1 
0.1561231484264422 1331:1 
0.1561231484264422 1360:1 1361:1 1362:1 
0.1561231484264422 1331:1 
0.1561231484264422 1331:1 
0.1561231484264422 1331:1 
0.1561231484264422 1368:1 
0.1561231484264422 1370:1 
0.1561231484264422 1371:1 
0.06242233948977106 1331:1 
0.1561231484264422 58:1 
0.1561231484264422 340:1 
0.04947793274331173 147:1 302:1 727:1 731:1 1247:1 1372:1 1374:1 1375:1 1376:1 
0.07533727720238245 507:1 806:1 1264:1 1331:1 1377:1 
0.1561231484264422 573:1 997:1 1366:1 1380:1 1381:1 1382:1 1383:1 1384:1 
0.1561231484264422 241:1 690:1 1000:1 1309:1 1379:1 1385:1 1386:1 1387:1 
0.1561231484264422 425:1 
0.1561231484264422 229:1 1389:1 
0.1561231484264422 1390:1 
0.1561231484264422 34:1 706:1 716:1 1391:1 1392:1 
0.1561231484264422 53:1 169:1 
0.1561231484264422 71:1 79:1 107:1 317:1 544:1 
0.1561231484264422 299:1 300:1 302:1 303:1 304:1 306:1 624:1 906:1 907:1 
0.1561231484264422 1399:1 
0.1561231484264422 1022:1 
0.1561231484264422 127:1 450:1 1400:1 
0.1561231484264422 1403:1 
0.1561231484264422 234:1 1236:1 1331:1 1405:1 
0.1561231484264422 135:1 437:1 573:1 1406:1 
0.1561231484264422 1407:1 
0.1561231484264422 321:1 1290:1 
0.1561231484264422 313:1 
0.1561231484264422 34:1 181:1 1409:1 1410:1 1411:1 1412:1 1413:1 
0.1561231484264422 42:1 90:1 1414:1 
0.1561231484264422 205:1 396:1 900:1 1415:1 
0.1561231484264422 176:1 346:1 446:1 1416:1 1417:1 
0.09341816351529593 1331:1 
0.1561231484264422 71:1 72:1 184:1 1422:1 
0.1561231484264422 1423:1 
0.08505066024258291 131:1 813:1 
0.1561231484264422 772:1 933:1 1298:1 1406:1 
0.1561231484264422 1426:1 
0.1561231484264422 234:1 1430:1 1431:1 1432:1 1433:1 
0.1561231484264422 312:1 599:1 660:1 797:1 812:1 1434:1 
0.1561231484264422 10:1 11:1 12:1 
0.1561231484264422 173:1 599:1 
0.1561231484264422 1298:1 1406:1 
0.1561231484264422 207:1 
0.1561231484264422 28:1 34:1 36:1 178:1 374:1 511:1 819:1 1298:1 1436:1 
0.1561231484264422 67:1 
0.1561231484264422 966:1 1440:1 
0.0300650033297991 34:1 1441:1 
0.1561231484264422 394:1 1433:1 
0.08400303987191839 202:1 1442:1 1443:1 
0.1561231484264422 501:1 
0.0008410901575724081 1444:1 
0.1561231484264422 509:1 1446:1 
0.04127909625655862 622:1 1421:1 
0.1316481420624367 107:1 196:1 197:1 509:1 590:1 622:1 1421:1 1446:1 
0.1561231484264422 800:1 918:1 
0.1561231484264422 1201:1 
0.1561231484264422 918:1 
0.1561231484264422 1029:1 
0.1561231484264422 217:1 1453:1 1454:1 1455:1 
0.1561231484264422 1201:1 
0.1561231484264422 217:1 228:1 340:1 431:1 
0.1561231484264422 448:1 1314:1 1461:1 
0.1561231484264422 1201:1 
0.1561231484264422 1463:1 1464:1 1465:1 
0.1561231484264422 222:1 224:1 241:1 726:1 817:1 1156:1 1466:1 1467:1 
0.1561231484264422 14:1 783:1 1028:1 1347:1 1468:1 1469:1 1470:1 
0.1561231484264422 184:1 280:1 622:1 1190:1 1420:1 
0.1561231484264422 10:1 11:1 87:1 1444:1 1471:1 
0.1561231484264422 53:1 169:1 
0.1561231484264422 1449:1 1473:1 
0.1561231484264422 361:1 768:1 1475:1 1476:1 
0.1561231484264422 350:1 658:1 
0.1561231484264422 48:1 395:1 1190:1 
0.1561231484264422 194:1 
0.1561231484264422 537:1 761:1 932:1 
0.1561231484264422 1444:1 1479:1 
0.1561231484264422 127:1 176:1 458:1 639:1 1045:1 1480:1 
0.1561231484264422 537:1 761:1 932:1 
0.1561231484264422 125:1 1481:1 1482:1 
0.1561231484264422 125:1 
0.1561231484264422 1483:1 
0.1561231484264422 34:1 139:1 
0.1136871768707221 72:1 1485:1 1486:1 1487:1 
0.1561231484264422 1489:1 1490:1 
0.1561231484264422 71:1 72:1 
0.000980540654012299 1491:1 
0.1561231484264422 71:1 72:1 
0.1561231484264422 1492:1 
0.1561231484264422 71:1 72:1 
0.140956340721498 71:1 72:1 
0.1561231484264422 34:1 1493:1 
0.1561231484264422 10:1 11:1 88:1 517:1 915:1 
0.1561231484264422 212:1 1495:1 
0.1561231484264422 99:1 1425:1 1496:1 1497:1 
0.1561231484264422 293:1 561:1 1499:1 1500:1 
0.1561231484264422 176:1 444:1 
0.1561231484264422 1484:1 
0.1561231484264422 1484:1 
0.1561231484264422 67:1 
0.1561231484264422 27:1 
0.1561231484264422 1484:1 
0.1561231484264422 1484:1 
0.1561231484264422 212:1 1495:1 
0.1561231484264422 538:1 1502:1 
0.1561231484264422 1503:1 
0.1561231484264422 1484:1 
0.1561231484264422 59:1 406:1 458:1 
0.1561231484264422 1355:1 
0.1561231484264422 1513:1 
0.1439046173801158 917:1 918:1 
0.1561231484264422 1484:1 
0.1561231484264422 84:1 437:1 1149:1 1514:1 1515:1 1516:1 
0.1561231484264422 1484:1 
0.1561231484264422 1355:1 
0.1561231484264422 27:1 
0.1561231484264422 1484:1 
0.1561231484264422 1484:1 
0.1561231484264422 1521:1 
0.1561231484264422 250:1 261:1 262:1 1522:1 
0.1561231484264422 1523:1 
0.1561231484264422 10:1 11:1 228:1 229:1 475:1 
0.1561231484264422 1484:1 
0.1561231484264422 35:1 184:1 458:1 778:1 1114:1 1527:1 
0.1561231484264422 71:1 
0.1561231484264422 1484:1 
0.1561231484264422 27:1 
0.02346468093146026 1484:1 
0.09270991513174615 7:1 754:1 1522:1 
0.1561231484264422 37:1 48:1 69:1 70:1 206:1 1529:1 
0.1561231484264422 7:1 1522:1 
0.1539499017872276 34:1 169:1 1470:1 1532:1 1533:1 1534:1 
0.1561231484264422 153:1 1522:1 1535:1 
0.1561231484264422 7:1 94:1 1522:1 
0.1561231484264422 288:1 311:1 383:1 1484:1 1536:1 1537:1 1538:1 
0.1561231484264422 18:1 422:1 614:1 
0.1561231484264422 113:1 
0.1561231484264422 495:1 
0.1561231484264422 480:1 1242:1 1474:1 
0.1561231484264422 311:1 614:1 1177:1 1540:1 1541:1 
0.1561231484264422 1544:1 1545:1 
0.1561231484264422 107:1 648:1 649:1 1425:1 1546:1 
0.1561231484264422 103:1 340:1 449:1 1545:1 1549:1 1550:1 
0.1561231484264422 639:1 1320:1 
0.1561231484264422 6:1 67:1 85:1 
0.1561231484264422 6:1 11:1 350:1 578:1 1043:1 1557:1 
0.001410219652974499 1484:1 
0.1561231484264422 176:1 561:1 1558:1 1559:1 
0.1561231484264422 523:1 638:1 1484:1 1560:1 1561:1 
0.1561231484264422 16:1 22:1 23:1 24:1 1484:1 
0.1561231484264422 67:1 
0.1561231484264422 444:1 
0.1561231484264422 34:1 134:1 316:1 710:1 911:1 1290:1 1564:1 
0.1561231484264422 103:1 336:1 337:1 448:1 710:1 1566:1 
0.1561231484264422 372:1 1115:1 1567:1 1568:1 1569:1 1570:1 
0.1561231484264422 1176:1 
0.1561231484264422 384:1 1115:1 1567:1 1574:1 1575:1 
0.1561231484264422 156:1 1578:1 1579:1 1580:1 
0.1561231484264422 11:1 884:1 1583:1 1584:1 
0.1561231484264422 1577:1 
0.1561231484264422 330:1 716:1 1144:1 1585:1 1586:1 1587:1 
0.009533406001858653 1577:1 
0.1561231484264422 1104:1 
0.1561231484264422 276:1 
0.002232308079847953 103:1 107:1 122:1 336:1 337:1 
0.03838594282036906 82:1 1111:1 1595:1 1596:1 
0.008158703601623222 170:1 175:1 1458:1 1597:1 1598:1 1599:1 
0.1561231484264422 64:1 999:1 1090:1 1387:1 1600:1 1601:1 
0.1561231484264422 205:1 358:1 437:1 556:1 593:1 1591:1 1602:1 1603:1 
0.1561231484264422 67:1 
0.1561231484264422 11:1 72:1 228:1 229:1 
0.1561231484264422 276:1 
0.1548267000855256 843:1 
0.1561231484264422 882:1 1605:1 1606:1 
0.1561231484264422 1473:1 1604:1 
0.1561231484264422 11:1 19:1 72:1 
0.1561231484264422 505:1 
0.1561231484264422 447:1 
0.1561231484264422 133:1 151:1 372:1 1569:1 1575:1 1613:1 1614:1 
0.1561231484264422 1611:1 1615:1 1616:1 
0.1561231484264422 326:1 689:1 
0.1561231484264422 229:1 1321:1 
0.1561231484264422 544:1 
0.1561231484264422 259:1 
0.1561231484264422 22:1 23:1 1119:1 1620:1 
0.1561231484264422 1623:1 
0.1561231484264422 393:1 
0.1561231484264422 411:1 
0.1561231484264422 184:1 477:1 1195:1 
0.1561231484264422 51:1 515:1 680:1 1034:1 1035:1 1628:1 
0.1561231484264422 496:1 710:1 1610:1 
0.1561231484264422 53:1 236:1 416:1 437:1 1351:1 1610:1 1630:1 1631:1 1632:1 
0.1561231484264422 1610:1 
0.1561231484264422 411:1 
0.1561231484264422 416:1 512:1 600:1 1545:1 
0.1561231484264422 1610:1 
0.1561231484264422 1610:1 
0.1561231484264422 1636:1 1637:1 
0.1561231484264422 1610:1 
0.1561231484264422 124:1 343:1 472:1 1205:1 1638:1 1639:1 
0.1561231484264422 1610:1 
0.09969211189871446 304:1 
0.1561231484264422 1610:1 
0.1561231484264422 1610:1 
0.1561231484264422 224:1 241:1 744:1 1000:1 1058:1 1634:1 1640:1 1641:1 
0.1561231484264422 1610:1 
0.1561231484264422 390:1 1201:1 
0.1561231484264422 1610:1 
0.1561231484264422 175:1 216:1 439:1 873:1 1645:1 1646:1 
0.1561231484264422 1610:1 
0.1561231484264422 340:1 776:1 802:1 
0.1561231484264422 1610:1 
0.0521683819130582 66:1 369:1 726:1 973:1 1003:1 1055:1 1583:1 1647:1 
0.1561231484264422 1610:1 
0.1561231484264422 1610:1 
0.1561231484264422 53:1 169:1 
0.1561231484264422 84:1 328:1 1610:1 1653:1 
0.1561231484264422 69:1 464:1 1653:1 
0.1561231484264422 11:1 1654:1 
0.1561231484264422 1610:1 
0.1561231484264422 343:1 589:1 1653:1 1655:1 
0.1561231484264422 1610:1 
0.1561231484264422 137:1 1020:1 
0.1561231484264422 113:1 153:1 314:1 494:1 614:1 882:1 1610:1 1658:1 
0.1561231484264422 505:1 
0.1561231484264422 1610:1 
0.1561231484264422 1659:1 
0.1561231484264422 259:1 
0.1561231484264422 1660:1 
0.1561231484264422 1610:1 
0.1561231484264422 167:1 422:1 499:1 
0.1561231484264422 577:1 580:1 994:1 
0.1561231484264422 1610:1 
0.1561231484264422 229:1 
0.1561231484264422 1610:1 
0.1561231484264422 378:1 529:1 1290:1 1435:1 1664:1 
0.1561231484264422 313:1 
0.1561231484264422 1610:1 
0.1561231484264422 824:1 
0.1561231484264422 892:1 1474:1 
0.1561231484264422 529:1 
0.1561231484264422 27:1 
0.1561231484264422 98:1 125:1 1666:1 
0.1561231484264422 233:1 1667:1 
0.1054093305539232 67:1 
0.1561231484264422 1667:1 
0.1561231484264422 121:1 236:1 828:1 1039:1 1669:1 1670:1 1671:1 
0.1561231484264422 1667:1 
0.1561231484264422 1667:1 
0.1561231484264422 61:1 
0.1561231484264422 1667:1 
0.1515647716474642 27:1 
0.1561231484264422 1667:1 
0.002311069864902414 1667:1 
0.1561231484264422 1672:1 
0.1561231484264422 63:1 71:1 79:1 288:1 
0.1561231484264422 176:1 1020:1 
0.01594763034939451 76:1 
0.1561231484264422 1673:1 
0.1561231484264422 76:1 107:1 817:1 
0.1561231484264422 207:1 
0.1561231484264422 53:1 
0.1561231484264422 411:1 
0.1561231484264422 76:1 107:1 817:1 
0.1561231484264422 207:1 
0.1561231484264422 1675:1 
0.1561231484264422 363:1 
0.1561231484264422 1681:1 
0.1561231484264422 1682:1 
0.1561231484264422 107:1 
0.1561231484264422 471:1 620:1 621:1 1076:1 1077:1 1667:1 
0.1561231484264422 1106:1 1684:1 
0.1561231484264422 53:1 169:1 
0.1533888555312174 38:1 76:1 491:1 611:1 624:1 762:1 885:1 905:1 906:1 907:1 918:1 1079:1 
0.1561231484264422 61:1 
0.1561231484264422 505:1 
0.1561231484264422 496:1 768:1 1692:1 
0.1561231484264422 181:1 207:1 327:1 
0.1561231484264422 496:1 768:1 1692:1 
0.02277149661567958 1234:1 1667:1 1693:1 
0.1561231484264422 68:1 165:1 284:1 1694:1 1695:1 1696:1 
0.1561231484264422 22:1 23:1 475:1 1117:1 1667:1 
0.1561231484264422 807:1 937:1 1697:1 1698:1 
0.1561231484264422 38:1 130:1 294:1 
0.1561231484264422 1023:1 1702:1 
0.1219167622431627 356:1 357:1 535:1 536:1 537:1 932:1 
0.1561231484264422 71:1 148:1 348:1 1188:1 1703:1 
0.1561231484264422 27:1 310:1 
0.1561231484264422 138:1 1704:1 
0.1561231484264422 18:1 22:1 23:1 1667:1 
0.1561231484264422 372:1 
0.1294106841293233 165:1 659:1 660:1 
0.1561231484264422 328:1 508:1 937:1 1719:1 1720:1 
0.1282878309389054 43:1 56:1 183:1 822:1 1384:1 1495:1 1713:1 1716:1 1721:1 
0.1561231484264422 27:1 37:1 1324:1 1694:1 1696:1 1724:1 1725:1 1726:1 
0.1561231484264422 641:1 
0.1561231484264422 1728:1 1729:1 1730:1 1731:1 1732:1 
0.0187744726806412 34:1 130:1 349:1 420:1 687:1 824:1 1733:1 1734:1 
0.1561231484264422 527:1 
0.1561231484264422 1056:1 1737:1 
0.1561231484264422 576:1 791:1 1599:1 
0.1561231484264422 527:1 
0.1561231484264422 1738:1 1739:1 1740:1 
0.1561231484264422 1741:1 1742:1 
0.1561231484264422 288:1 720:1 1290:1 1435:1 1744:1 
0.1561231484264422 34:1 267:1 717:1 1228:1 1480:1 1745:1 
0.1146415728053426 537:1 1738:1 
0.1561231484264422 48:1 49:1 1746:1 
0.1561231484264422 1610:1 
0.1561231484264422 867:1 868:1 
0.1561231484264422 1738:1 
0.004425926602703921 104:1 
0.1561231484264422 1738:1 
0.1561231484264422 1738:1 
0.02754083678446961 1738:1 
0.01194992849108369 176:1 1753:1 
0.1561231484264422 600:1 
0.1561231484264422 425:1 
0.1561231484264422 1757:1 
0.1561231484264422 1642:1 
0.1561231484264422 176:1 240:1 744:1 
0.1422221367268341 241:1 304:1 604:1 744:1 1645:1 1760:1 
0.1561231484264422 508:1 1205:1 
0.1561231484264422 265:1 304:1 305:1 492:1 744:1 1645:1 1706:1 1761:1 1762:1 
0.1561231484264422 53:1 169:1 
0.1059293606636322 411:1 
0.1004530850050071 197:1 1738:1 1769:1 1770:1 
0.1561231484264422 791:1 
0.1561231484264422 61:1 
0.09779044078985068 882:1 1738:1 
0.1561231484264422 313:1 
0.1561231484264422 1775:1 
0.1561231484264422 49:1 1776:1 
0.1561231484264422 34:1 1777:1 
0.1561231484264422 350:1 444:1 
0.1561231484264422 496:1 537:1 539:1 
0.1561231484264422 1779:1 
0.1561231484264422 103:1 107:1 
0.1561231484264422 103:1 340:1 648:1 649:1 884:1 1028:1 1387:1 1781:1 
0.07693837731480761 70:1 153:1 176:1 1084:1 1782:1 
0.1561231484264422 103:1 107:1 519:1 520:1 625:1 652:1 1029:1 1030:1 1079:1 
0.1561231484264422 1784:1 1785:1 1786:1 
0.1561231484264422 1787:1 
0.1561231484264422 39:1 133:1 184:1 310:1 477:1 1042:1 1290:1 1328:1 1790:1 
0.08459318827645056 7:1 509:1 510:1 1791:1 
0.1561231484264422 447:1 
0.07152542703571413 1791:1 
0.1561231484264422 107:1 1132:1 
0.1561231484264422 1792:1 
0.1561231484264422 13:1 71:1 147:1 382:1 1457:1 1791:1 1793:1 1794:1 
0.1413496509799865 197:1 509:1 668:1 1409:1 1446:1 1795:1 1796:1 
0.1561231484264422 1176:1 
0.1561231484264422 1798:1 
0.1561231484264422 318:1 
0.1439421203712 1362:1 1799:1 1800:1 
0.1561231484264422 207:1 
0.1561231484264422 1801:1 
0.1561231484264422 1802:1 
0.1561231484264422 10:1 11:1 228:1 475:1 
0.02221626385369393 57:1 452:1 466:1 469:1 898:1 1805:1 
0.1561231484264422 161:1 250:1 1803:1 1806:1 1807:1 1808:1 
0.1561231484264422 122:1 1809:1 1810:1 1811:1 
0.1561231484264422 238:1 544:1 1812:1 1813:1 
0.1561231484264422 1815:1 1816:1 
0.1561231484264422 228:1 229:1 725:1 
0.1561231484264422 27:1 167:1 373:1 1004:1 1074:1 1303:1 1817:1 1818:1 
0.01079794076301517 19:1 71:1 229:1 484:1 485:1 
0.1561231484264422 1824:1 
0.1561231484264422 242:1 
0.002016273387651888 535:1 787:1 788:1 1283:1 1303:1 
0.1561231484264422 79:1 313:1 1791:1 
0.1561231484264422 505:1 
0.1561231484264422 107:1 1032:1 1791:1 
0.1561231484264422 1022:1 
0.1561231484264422 1826:1 
0.1561231484264422 13:1 764:1 1041:1 1409:1 1827:1 
0.07368080738056211 56:1 684:1 686:1 687:1 1819:1 1828:1 1829:1 1830:1 
0.1561231484264422 1831:1 1832:1 1833:1 1834:1 1835:1 1836:1 1837:1 1838:1 
0.0019052743692447 1791:1 
0.0618349742367514 674:1 1842:1 1843:1 
0.1561231484264422 420:1 686:1 687:1 1828:1 1829:1 1844:1 1845:1 1846:1 
0.1561231484264422 330:1 802:1 1004:1 1847:1 
0.1561231484264422 153:1 347:1 1817:1 1818:1 
0.1561231484264422 372:1 1558:1 1559:1 
0.08060202579438025 180:1 332:1 1852:1 
0.1561231484264422 1856:1 
0.1561231484264422 1823:1 1859:1 
0.1561231484264422 881:1 
0.1561231484264422 883:1 
0.1561231484264422 955:1 
0.1561231484264422 1068:1 
0.1561231484264422 1860:1 
0.1561231484264422 511:1 
0.1561231484264422 1864:1 
0.01139087706319994 317:1 1865:1 
0.1561231484264422 509:1 510:1 1865:1 
0.1561231484264422 288:1 631:1 
0.1561231484264422 135:1 416:1 458:1 1856:1 1866:1 1867:1 
0.1561231484264422 509:1 1446:1 1870:1 
0.1561231484264422 1873:1 
0.1561231484264422 746:1 1657:1 1874:1 
0.1561231484264422 1579:1 
0.06305077162247626 1856:1 
0.1561231484264422 10:1 11:1 475:1 1876:1 
0.1561231484264422 749:1 
0.1561231484264422 1055:1 
0.07056371456991763 64:1 77:1 243:1 302:1 471:1 573:1 1525:1 
0.1561231484264422 55:1 334:1 472:1 593:1 1207:1 1878:1 1879:1 1880:1 
0.05212201574261219 64:1 224:1 240:1 243:1 261:1 1058:1 1207:1 1886:1 
0.1561231484264422 228:1 1881:1 1882:1 
0.1561231484264422 1887:1 
0.1561231484264422 18:1 138:1 934:1 960:1 
0.1561231484264422 38:1 299:1 300:1 301:1 302:1 303:1 304:1 305:1 306:1 983:1 1222:1 1890:1 
0.1561231484264422 589:1 1607:1 1856:1 1891:1 
0.1561231484264422 34:1 523:1 1892:1 1893:1 
0.1561231484264422 113:1 153:1 422:1 494:1 614:1 
0.1561231484264422 502:1 
0.1561231484264422 1284:1 
0.0008057353203230769 1284:1 
0.1561231484264422 703:1 1897:1 1898:1 
0.1561231484264422 1088:1 1238:1 
0.1561231484264422 194:1 
0.1561231484264422 229:1 
0.0910838299787111 1860:1 
0.000435098160934618 1856:1 
0.0477341635062784 643:1 915:1 1226:1 1599:1 1881:1 1882:1 1901:1 
0.1561231484264422 153:1 652:1 
0.1561231484264422 103:1 107:1 169:1 523:1 1902:1 1903:1 1904:1 
0.1561231484264422 82:1 103:1 120:1 175:1 176:1 648:1 649:1 652:1 
0.1561231484264422 848:1 
0.1561231484264422 57:1 120:1 652:1 1905:1 
0.1561231484264422 222:1 651:1 652:1 1906:1 1907:1 
0.1561231484264422 103:1 519:1 520:1 625:1 652:1 845:1 848:1 1029:1 1030:1 1552:1 1908:1 1909:1 
0.1561231484264422 522:1 1910:1 
0.1561231484264422 61:1 271:1 
0.1561231484264422 1912:1 
0.1561231484264422 736:1 757:1 1022:1 1024:1 1913:1 1914:1 1915:1 
0.1561231484264422 497:1 
0.1561231484264422 777:1 1917:1 
0.1561231484264422 147:1 561:1 1351:1 
0.1561231484264422 1917:1 
0.1561231484264422 1921:1 
0.1088515537243846 280:1 660:1 911:1 1087:1 1581:1 1846:1 1925:1 1926:1 
0.008792858466730877 61:1 899:1 1195:1 1351:1 1927:1 1928:1 1929:1 
0.07780825639886207 206:1 392:1 587:1 1524:1 1930:1 1931:1 
0.1561231484264422 1917:1 
0.1561231484264422 1021:1 
0.1561231484264422 1917:1 
0.1426425087937102 217:1 1020:1 1075:1 
0.1561231484264422 1917:1 
0.04357155044405094 250:1 264:1 437:1 1931:1 1932:1 1933:1 
0.1561231484264422 1917:1 
0.1561231484264422 607:1 611:1 1055:1 1934:1 
0.1561231484264422 1917:1 
0.1561231484264422 1917:1 
0.1561231484264422 1917:1 
0.1561231484264422 1917:1 
0.1549912244378135 64:1 176:1 223:1 439:1 918:1 1040:1 1937:1 1938:1 
0.1561231484264422 1917:1 
0.1561231484264422 1917:1 
0.1561231484264422 228:1 229:1 590:1 1944:1 
0.1561231484264422 1917:1 
0.001099426210721684 1284:1 
0.1561231484264422 1385:1 
0.1561231484264422 1917:1 
0.1561231484264422 1948:1 1949:1 1950:1 1951:1 1952:1 1953:1 1954:1 1955:1 1956:1 1957:1 1958:1 1959:1 1960:1 
0.1561231484264422 107:1 1961:1 
0.1561231484264422 1917:1 
0.1561231484264422 1917:1 
0.1561231484264422 897:1 1962:1 
0.1561231484264422 1917:1 
0.1561231484264422 61:1 
0.1561231484264422 69:1 82:1 1954:1 1965:1 
0.1561231484264422 61:1 
0.1097969291274364 47:1 1965:1 1966:1 1967:1 1968:1 
0.1561231484264422 34:1 1228:1 1969:1 
0.1561231484264422 599:1 933:1 
0.08461158198934533 52:1 153:1 384:1 
0.1561231484264422 1118:1 
0.1561231484264422 18:1 19:1 22:1 23:1 169:1 
0.1561231484264422 10:1 11:1 12:1 1974:1 1975:1 1976:1 
0.1561231484264422 1936:1 
0.1561231484264422 1917:1 
0.1561231484264422 1977:1 
0.1561231484264422 1917:1 
0.1561231484264422 1917:1 
0.1561231484264422 406:1 894:1 1979:1 
0.08543931860621419 137:1 406:1 
0.1561231484264422 1917:1 
0.1561231484264422 1936:1 1981:1 
0.1561231484264422 666:1 
0.1561231484264422 103:1 474:1 1038:1 1054:1 1253:1 1785:1 1992:1 1993:1 1994:1 
0.1561231484264422 103:1 107:1 122:1 656:1 1552:1 1997:1 1998:1 
0.1561231484264422 10:1 11:1 12:1 1256:1 1999:1 
0.1561231484264422 521:1 
0.1561231484264422 1568:1 
0.1561231484264422 234:1 544:1 
0.1561231484264422 2000:1 
0.1561231484264422 229:1 350:1 1290:1 1313:1 
0.1561231484264422 234:1 2002:1 
0.1561231484264422 836:1 
0.1561231484264422 258:1 316:1 373:1 544:1 1132:1 
0.1207530715232433 1:1 27:1 44:1 668:1 
0.1561231484264422 10:1 11:1 12:1 172:1 
0.1561231484264422 1163:1 
0.1561231484264422 2003:1 
0.1561231484264422 2004:1 
0.1561231484264422 2000:1 
0.1561231484264422 710:1 2005:1 2006:1 2007:1 
0.1561231484264422 2008:1 2009:1 
0.1561231484264422 497:1 1106:1 1256:1 2010:1 
0.1561231484264422 384:1 2011:1 
0.1561231484264422 62:1 916:1 1744:1 2014:1 
0.1561231484264422 509:1 1446:1 
0.1561231484264422 147:1 1440:1 2016:1 
0.1561231484264422 1146:1 
0.1561231484264422 10:1 11:1 67:1 1256:1 
0.1561231484264422 10:1 11:1 197:1 2020:1 
0.1561231484264422 961:1 2018:1 
0.1561231484264422 185:1 579:1 580:1 1875:1 
0.1561231484264422 10:1 11:1 12:1 148:1 
0.1561231484264422 10:1 11:1 12:1 60:1 
0.1561231484264422 10:1 11:1 12:1 
0.1561231484264422 1393:1 
0.1561231484264422 447:1 
0.1561231484264422 920:1 2022:1 2023:1 
0.1561231484264422 1409:1 
0.1561231484264422 198:1 223:1 437:1 1070:1 1149:1 1755:1 2024:1 2025:1 
0.1491344176796298 917:1 918:1 
0.1561231484264422 68:1 870:1 924:1 1460:1 
0.1561231484264422 254:1 
0.1561231484264422 2030:1 
0.1549533206521334 290:1 
0.1561231484264422 1073:1 2032:1 
0.004555775210577822 2034:1 2035:1 
0.1561231484264422 301:1 
0.00189938214424743 749:1 
0.1561231484264422 2036:1 
0.05060940260673744 27:1 223:1 227:1 437:1 725:1 1137:1 1939:1 2029:1 2039:1 
0.02257820550976085 843:1 
0.1561231484264422 84:1 1156:1 2040:1 
0.1561231484264422 492:1 604:1 1144:1 2025:1 2041:1 2042:1 
0.1561231484264422 1939:1 
0.1561231484264422 778:1 2043:1 
0.1561231484264422 668:1 
0.1561231484264422 639:1 2047:1 
0.1561231484264422 71:1 228:1 725:1 
0.1561231484264422 276:1 
0.1561231484264422 229:1 897:1 
0.02465165908624462 288:1 384:1 824:1 1332:1 2050:1 
0.1561231484264422 2004:1 
0.1561231484264422 10:1 11:1 12:1 181:1 484:1 1891:1 
0.06558616004596399 797:1 1614:1 2052:1 2053:1 2054:1 
0.1561231484264422 2055:1 
0.1561231484264422 2:1 326:1 2056:1 
0.1561231484264422 667:1 2057:1 
0.1561231484264422 2058:1 
0.1561231484264422 10:1 11:1 12:1 98:1 224:1 1377:1 
0.1154244722609009 275:1 507:1 
0.1561231484264422 18:1 46:1 259:1 322:1 356:1 
0.1561231484264422 259:1 
0.1561231484264422 103:1 512:1 2060:1 
0.1561231484264422 120:1 340:1 374:1 648:1 649:1 1624:1 2061:1 2062:1 
0.1561231484264422 103:1 340:1 529:1 648:1 649:1 884:1 1090:1 1387:1 1600:1 
0.01591332242232961 71:1 72:1 264:1 288:1 717:1 1744:1 2063:1 
0.04654825626841932 121:1 176:1 337:1 600:1 1773:1 2065:1 2066:1 
0.1561231484264422 38:1 103:1 107:1 518:1 519:1 520:1 625:1 885:1 1029:1 1079:1 2067:1 
0.1561231484264422 10:1 11:1 12:1 795:1 
0.1561231484264422 791:1 
0.1561231484264422 313:1 
0.1561231484264422 791:1 
0.1561231484264422 288:1 1256:1 
0.1561231484264422 1175:1 2068:1 
0.1561231484264422 39:1 48:1 50:1 295:1 824:1 1501:1 1886:1 
0.1561231484264422 18:1 1135:1 2069:1 
0.1561231484264422 313:1 
0.1561231484264422 10:1 11:1 12:1 154:1 827:1 
0.1561231484264422 10:1 11:1 12:1 22:1 23:1 24:1 184:1 275:1 277:1 535:1 
0.1557174131434344 353:1 
0.1561231484264422 344:1 422:1 614:1 2072:1 
0.1561231484264422 2075:1 
0.05620128642225795 290:1 2076:1 
0.005159897951323275 49:1 
0.1561231484264422 62:1 
0.1561231484264422 2083:1 
0.1561231484264422 2084:1 2085:1 2086:1 
0.1561231484264422 967:1 2087:1 2088:1 
0.1561231484264422 79:1 453:1 641:1 2071:1 
0.1561231484264422 259:1 
0.1561231484264422 259:1 
0.1561231484264422 69:1 
0.1561231484264422 62:1 77:1 1307:1 1983:1 
0.1322509129417739 122:1 1082:1 1469:1 
0.1561231484264422 444:1 1256:1 2055:1 
0.1561231484264422 40:1 293:1 378:1 985:1 1327:1 2006:1 2089:1 2090:1 
0.1561231484264422 356:1 1568:1 
0.1561231484264422 1759:1 2091:1 2092:1 
0.1561231484264422 1568:1 
0.1561231484264422 176:1 639:1 1335:1 
0.1561231484264422 1032:1 
0.1561231484264422 576:1 
0.1561231484264422 107:1 439:1 2093:1 
0.1561231484264422 2097:1 
0.1561231484264422 152:1 
0.1561231484264422 2097:1 
0.1561231484264422 738:1 
0.1561231484264422 125:1 348:1 508:1 
0.07858150125812952 777:1 1090:1 1176:1 1492:1 
0.1561231484264422 2109:1 2110:1 
0.1561231484264422 107:1 1074:1 2112:1 2113:1 
0.1561231484264422 509:1 510:1 
0.1561231484264422 68:1 107:1 122:1 439:1 576:1 2114:1 
0.1561231484264422 576:1 
0.05294324199291485 59:1 107:1 1074:1 1961:1 
0.1561231484264422 104:1 819:1 1038:1 2115:1 
0.1561231484264422 2116:1 
0.1561231484264422 1568:1 
0.1561231484264422 34:1 94:1 795:1 
0.1561231484264422 1021:1 
0.1561231484264422 69:1 107:1 464:1 
0.1561231484264422 310:1 
0.1561231484264422 496:1 777:1 1296:1 
0.1561231484264422 658:1 2125:1 
0.155607661812696 917:1 1503:1 2125:1 
0.01253560861923554 27:1 59:1 1545:1 1642:1 2126:1 2127:1 
0.1561231484264422 2128:1 
0.1561231484264422 2125:1 
0.01662155976914142 27:1 59:1 1545:1 1642:1 2126:1 2127:1 
0.1561231484264422 2125:1 
0.07223139913849867 304:1 
0.09855606892135189 2125:1 
0.1561231484264422 61:1 843:1 2133:1 2134:1 
0.1561231484264422 1374:1 
0.1212975825228399 57:1 170:1 253:1 435:1 980:1 2132:1 2135:1 
0.1561231484264422 2136:1 
0.1561231484264422 217:1 
0.1561231484264422 918:1 
0.1561231484264422 425:1 
0.1561231484264422 668:1 2145:1 
0.1561231484264422 27:1 57:1 170:1 435:1 736:1 2144:1 2147:1 
0.006131693515321987 63:1 236:1 252:1 1000:1 1645:1 1706:1 2143:1 2150:1 
0.1561231484264422 262:1 512:1 727:1 1073:1 1108:1 1168:1 2144:1 2151:1 
0.1561231484264422 186:1 229:1 
0.1561231484264422 123:1 
0.01744210968096205 153:1 207:1 317:1 327:1 793:1 
0.1561231484264422 504:1 
0.001920744728406334 2004:1 
0.1561231484264422 53:1 169:1 
0.1561231484264422 53:1 169:1 
0.1561231484264422 68:1 232:1 1137:1 2153:1 
0.1561231484264422 313:1 
0.1561231484264422 45:1 69:1 2125:1 
0.001024562918451682 2125:1 
0.1561231484264422 65:1 80:1 2155:1 
0.1122395491811883 51:1 147:1 680:1 776:1 
0.1561231484264422 2160:1 
0.1561231484264422 2160:1 
0.1561231484264422 567:1 590:1 2162:1 2163:1 
0.1561231484264422 184:1 710:1 2164:1 
0.1561231484264422 61:1 1475:1 
0.1561231484264422 2162:1 
0.1561231484264422 53:1 107:1 
0.1561231484264422 170:1 612:1 1603:1 
0.08019001991793939 1021:1 
0.1561231484264422 2162:1 
0.1561231484264422 228:1 
0.1561231484264422 2162:1 
0.1561231484264422 654:1 
0.1561231484264422 2162:1 
0.1561231484264422 736:1 2161:1 
0.1561231484264422 57:1 512:1 1028:1 2170:1 2171:1 2172:1 
0.1561231484264422 2162:1 
0.1561231484264422 71:1 72:1 228:1 2175:1 
0.1561231484264422 24:1 
0.0439854584082159 38:1 620:1 621:1 1032:1 
0.1561231484264422 2162:1 
0.1198407161522619 107:1 176:1 623:1 1542:1 
0.1561231484264422 2162:1 
0.1446059355434152 1887:1 
0.1561231484264422 107:1 725:1 2176:1 
0.1561231484264422 76:1 491:1 722:1 905:1 906:1 907:1 918:1 1027:1 1028:1 1030:1 1079:1 
0.1561231484264422 2162:1 
0.1561231484264422 2162:1 
0.1561231484264422 2162:1 
0.1561231484264422 11:1 202:1 2178:1 
0.1561231484264422 544:1 2162:1 
0.1561231484264422 716:1 2179:1 
0.1561231484264422 1556:1 2182:1 2183:1 
0.1561231484264422 299:1 2184:1 
0.1561231484264422 1080:1 2185:1 2186:1 
0.1561231484264422 304:1 2187:1 
0.1561231484264422 8:1 34:1 717:1 1290:1 1313:1 2190:1 2191:1 
0.1561231484264422 2162:1 
0.1561231484264422 577:1 1127:1 2192:1 
0.1561231484264422 2162:1 
0.1561231484264422 1181:1 
0.1561231484264422 2162:1 
9.242090495777714e-17 641:1 1699:1 
0.1561231484264422 59:1 983:1 2198:1 
0.1561231484264422 102:1 616:1 817:1 1454:1 
0.1561231484264422 34:1 130:1 349:1 420:1 687:1 824:1 1733:1 
0.1561231484264422 77:1 
0.1561231484264422 48:1 
0.1561231484264422 2199:1 2200:1 
0.1561231484264422 50:1 2201:1 
0.1561231484264422 395:1 
0.02388084618609691 34:1 485:1 2202:1 2203:1 
0.1561231484264422 1004:1 2202:1 
0.04825067755477058 1656:1 
0.0304488850466821 14:1 379:1 2204:1 
0.1561231484264422 1316:1 1333:1 2205:1 
0.1561231484264422 63:1 77:1 2196:1 
0.1561231484264422 361:1 994:1 1657:1 
0.01309096148345229 2206:1 
0.1561231484264422 77:1 
0.1561231484264422 77:1 
0.1561231484264422 77:1 
0.1561231484264422 666:1 
0.1561231484264422 806:1 2181:1 
0.1561231484264422 77:1 
0.1561231484264422 77:1 84:1 
0.1561231484264422 77:1 
0.1561231484264422 77:1 
0.1561231484264422 233:1 1353:1 2210:1 
0.1561231484264422 77:1 
0.134549312875811 218:1 
0.1561231484264422 555:1 
0.1561231484264422 441:1 
0.03585937074171944 59:1 2214:1 2215:1 
0.001663169447650658 2210:1 
0.03325248887017109 183:1 349:1 579:1 580:1 2217:1 
0.1561231484264422 48:1 79:1 181:1 
0.1561231484264422 2019:1 2210:1 
0.02196864942468525 338:1 339:1 513:1 1488:1 2220:1 
0.1561231484264422 113:1 
0.04731391659233047 71:1 130:1 258:1 316:1 
0.1561231484264422 1222:1 1455:1 2216:1 
0.1561231484264422 747:1 
0.1561231484264422 43:1 227:1 573:1 744:1 894:1 2221:1 
0.000961872280669312 2222:1 2223:1 
0.1561231484264422 2224:1 
0.1561231484264422 2227:1 
0.1561231484264422 147:1 170:1 455:1 735:1 736:1 1763:1 
0.1561231484264422 67:1 1859:1 
0.1561231484264422 2097:1 
0.1561231484264422 53:1 169:1 
0.1561231484264422 2230:1 
0.1561231484264422 53:1 169:1 
0.1561231484264422 505:1 
0.07862206356794638 530:1 894:1 
0.1561231484264422 25:1 71:1 
0.0002452027105804608 2210:1 
0.1561231484264422 1240:1 
0.1561231484264422 391:1 2235:1 
0.1561231484264422 102:1 230:1 
0.1561231484264422 2236:1 
0.1561231484264422 104:1 123:1 
0.1561231484264422 2231:1 
0.1561231484264422 107:1 527:1 1195:1 
0.1561231484264422 184:1 710:1 1190:1 1195:1 1614:1 1897:1 2239:1 2240:1 2241:1 2242:1 
0.1561231484264422 27:1 507:1 2243:1 2244:1 2245:1 
0.05502285583029107 317:1 590:1 621:1 2246:1 2247:1 
0.1561231484264422 194:1 237:1 422:1 614:1 1238:1 2193:1 
0.1561231484264422 2250:1 2251:1 
0.1561231484264422 2252:1 
0.1561231484264422 861:1 2014:1 2250:1 
0.1561231484264422 861:1 2014:1 2250:1 
0.1561231484264422 49:1 899:1 2078:1 2256:1 
0.1561231484264422 344:1 422:1 614:1 
0.1561231484264422 2236:1 
0.1561231484264422 13:1 71:1 1185:1 1703:1 2258:1 
0.1561231484264422 1426:1 
0.1561231484264422 104:1 123:1 
0.1561231484264422 2259:1 
0.1561231484264422 554:1 2260:1 
0.1561231484264422 555:1 793:1 
0.1561231484264422 2259:1 
0.1561231484264422 2262:1 
0.1561231484264422 194:1 2263:1 
0.1561231484264422 2264:1 
0.05526514124444135 194:1 2167:1 2263:1 
0.1561231484264422 71:1 72:1 
0.06757280804895988 2259:1 
0.1561231484264422 64:1 458:1 459:1 471:1 852:1 1144:1 1211:1 
0.1561231484264422 63:1 70:1 253:1 452:1 2265:1 2266:1 
0.07614373555466657 1021:1 
0.1561231484264422 437:1 2267:1 
0.1561231484264422 71:1 190:1 228:1 
0.1561231484264422 176:1 589:1 720:1 1032:1 
0.1561231484264422 79:1 264:1 265:1 640:1 1021:1 2270:1 
0.1561231484264422 2271:1 
0.1561231484264422 2273:1 
0.1561231484264422 120:1 452:1 555:1 1030:1 1583:1 2274:1 
0.1561231484264422 59:1 736:1 1132:1 
0.1561231484264422 170:1 435:1 437:1 590:1 1149:1 2265:1 
0.1561231484264422 228:1 229:1 2278:1 
0.1561231484264422 1460:1 2259:1 
0.1561231484264422 38:1 169:1 294:1 
0.1561231484264422 48:1 107:1 285:1 
0.1561231484264422 38:1 76:1 491:1 624:1 762:1 905:1 906:1 907:1 918:1 1027:1 1030:1 1079:1 
0.1561231484264422 485:1 2280:1 
0.1561231484264422 1459:1 1690:1 2281:1 2282:1 2283:1 2284:1 2285:1 2286:1 
0.05142522906454047 2287:1 
0.09659325318813901 79:1 122:1 1190:1 2259:1 
0.1561231484264422 505:1 
0.1561231484264422 69:1 153:1 288:1 350:1 555:1 
0.1561231484264422 396:1 
0.1561231484264422 69:1 153:1 288:1 350:1 555:1 
0.1561231484264422 326:1 555:1 
0.1561231484264422 144:1 322:1 343:1 350:1 412:1 1307:1 1454:1 
0.02080371555308254 385:1 409:1 418:1 933:1 2289:1 
0.1561231484264422 2290:1 
0.1162682090901445 978:1 2292:1 
0.1561231484264422 273:1 343:1 409:1 412:1 1353:1 2289:1 2293:1 
0.1561231484264422 429:1 2294:1 
0.1561231484264422 375:1 411:1 412:1 1307:1 1454:1 
0.1561231484264422 409:1 418:1 2289:1 2295:1 
0.1561231484264422 2290:1 
0.1561231484264422 259:1 
0.07039639194375219 2259:1 
0.1561231484264422 27:1 2296:1 
0.1561231484264422 103:1 600:1 935:1 1054:1 1055:1 1785:1 1900:1 1992:1 2300:1 
0.08252439071512341 103:1 153:1 175:1 176:1 515:1 516:1 1128:1 1900:1 2301:1 
0.1561231484264422 172:1 2231:1 
0.1561231484264422 2306:1 
0.1561231484264422 2231:1 
0.1561231484264422 2308:1 
0.1561231484264422 79:1 703:1 1897:1 
0.1561231484264422 2231:1 
0.1561231484264422 2231:1 
0.1561231484264422 116:1 382:1 1747:1 2315:1 2316:1 2317:1 2318:1 
0.1561231484264422 794:1 
0.1561231484264422 2231:1 
0.1561231484264422 2231:1 
0.1561231484264422 113:1 
0.1561231484264422 511:1 
0.1561231484264422 2231:1 
0.1561231484264422 2231:1 
0.1561231484264422 2231:1 
0.1561231484264422 2231:1 
0.1561231484264422 2322:1 
0.1342238772159316 2231:1 
0.1561231484264422 226:1 1339:1 2323:1 
0.1561231484264422 2324:1 
0.1561231484264422 918:1 
0.1561231484264422 451:1 
0.1561231484264422 2325:1 2326:1 
0.1561231484264422 749:1 2329:1 2330:1 
0.1561231484264422 228:1 
0.1561231484264422 750:1 2332:1 
0.1561231484264422 246:1 471:1 472:1 974:1 1227:1 
0.03242140157138989 84:1 147:1 170:1 246:1 1002:1 1227:1 2335:1 
0.1561231484264422 1686:1 1820:1 2231:1 2336:1 
0.1561231484264422 53:1 169:1 
0.1561231484264422 1686:1 1820:1 2231:1 2336:1 
0.1561231484264422 53:1 169:1 
0.03603252777229402 220:1 221:1 246:1 2313:1 2334:1 2337:1 2338:1 2339:1 2340:1 2341:1 2342:1 2343:1 2344:1 
0.1561231484264422 79:1 504:1 2231:1 
0.1561231484264422 505:1 
0.1561231484264422 259:1 
0.002410076522152123 2231:1 
0.1561231484264422 313:1 
0.1561231484264422 435:1 630:1 1293:1 1322:1 1394:1 2000:1 
0.1561231484264422 630:1 
0.1561231484264422 102:1 135:1 1887:1 
0.1285532011127798 68:1 2348:1 2349:1 
0.1561231484264422 102:1 135:1 
0.1561231484264422 68:1 2348:1 2349:1 
0.1561231484264422 151:1 176:1 
0.1561231484264422 151:1 176:1 
0.1561231484264422 123:1 2350:1 
0.1561231484264422 151:1 
0.1561231484264422 153:1 278:1 2353:1 2354:1 
0.1561231484264422 447:1 1016:1 
0.1561231484264422 555:1 
0.1561231484264422 130:1 1162:1 
0.1561231484264422 1025:1 2279:1 
0.1561231484264422 2362:1 
0.1561231484264422 669:1 2363:1 
0.1561231484264422 447:1 
0.1561231484264422 2364:1 
0.1123347910687538 978:1 2292:1 
0.1561231484264422 2356:1 2365:1 
0.1561231484264422 66:1 343:1 843:1 1558:1 2366:1 2367:1 
0.1561231484264422 27:1 736:1 
0.0417239718798781 175:1 1927:1 
0.1561231484264422 956:1 1683:1 
0.01159440230676452 76:1 299:1 491:1 905:1 906:1 907:1 918:1 1027:1 1028:1 1079:1 
0.1561231484264422 107:1 229:1 521:1 2377:1 
0.100996299854606 480:1 1242:1 1474:1 2356:1 
0.1561231484264422 505:1 
0.1043238987669803 480:1 1242:1 1474:1 2356:1 
0.144536265593495 2058:1 
0.1561231484264422 151:1 1560:1 1896:1 
0.1561231484264422 13:1 27:1 1928:1 2244:1 2293:1 2383:1 
0.1561231484264422 1114:1 
0.03898313055457755 323:1 350:1 578:1 1119:1 
0.1561231484264422 1912:1 
0.1561231484264422 372:1 781:1 
0.1561231484264422 176:1 2389:1 
0.1561231484264422 103:1 104:1 651:1 652:1 
0.1561231484264422 61:1 
0.1561231484264422 103:1 
0.1561231484264422 194:1 
0.1561231484264422 71:1 103:1 153:1 206:1 475:1 512:1 651:1 652:1 2390:1 
0.01131528736383247 103:1 170:1 435:1 593:1 2273:1 2391:1 2392:1 
0.1561231484264422 71:1 103:1 
0.1079873828518376 120:1 264:1 651:1 652:1 744:1 1367:1 2393:1 
0.1561231484264422 63:1 103:1 340:1 612:1 1079:1 2394:1 
0.1561231484264422 38:1 59:1 103:1 518:1 519:1 520:1 652:1 834:1 835:1 845:1 918:1 1079:1 2303:1 2395:1 
0.1561231484264422 27:1 61:1 2396:1 2397:1 
0.1561231484264422 44:1 103:1 453:1 
0.1561231484264422 183:1 508:1 826:1 
0.1561231484264422 102:1 236:1 396:1 2399:1 
0.1561231484264422 1058:1 1059:1 2403:1 
0.1561231484264422 229:1 462:1 
0.110259694470653 587:1 598:1 836:1 1055:1 2401:1 2404:1 
0.1561231484264422 508:1 
0.1561231484264422 2408:1 
0.1561231484264422 79:1 2399:1 
0.1561231484264422 2410:1 2411:1 
0.1561231484264422 194:1 640:1 2399:1 2413:1 2414:1 
0.1561231484264422 1171:1 
0.1561231484264422 1655:1 2307:1 2399:1 2415:1 
0.1561231484264422 53:1 169:1 
0.1561231484264422 292:1 
0.1561231484264422 699:1 
0.1561231484264422 1655:1 2307:1 2399:1 2415:1 
0.1561231484264422 53:1 169:1 
0.1561231484264422 107:1 2417:1 2418:1 
0.1561231484264422 313:1 
0.1561231484264422 505:1 
0.1561231484264422 273:1 635:1 1491:1 2422:1 
0.1561231484264422 669:1 958:1 2423:1 2424:1 2425:1 2426:1 
0.1561231484264422 544:1 660:1 
0.1561231484264422 1124:1 2427:1 2428:1 
0.1561231484264422 396:1 544:1 
0.1561231484264422 1115:1 
0.1561231484264422 2431:1 
0.05804545642941233 396:1 477:1 1025:1 2432:1 
0.1561231484264422 234:1 322:1 496:1 
0.1561231484264422 340:1 
0.1561231484264422 124:1 175:1 527:1 528:1 531:1 2433:1 2434:1 2435:1 2436:1 2437:1 2438:1 2439:1 2440:1 
0.1561231484264422 854:1 
0.06391414373060457 34:1 458:1 900:1 2441:1 
0.1561231484264422 25:1 548:1 854:1 2441:1 2442:1 
0.09978829883638311 68:1 176:1 401:1 2443:1 
0.1561231484264422 275:1 853:1 2417:1 2418:1 2444:1 
0.1561231484264422 90:1 761:1 2445:1 2446:1 
0.1561231484264422 1223:1 1668:1 2449:1 2450:1 2451:1 
0.1561231484264422 377:1 885:1 2452:1 2453:1 
0.1561231484264422 1393:1 2454:1 
0.1561231484264422 395:1 
0.1561231484264422 745:1 1606:1 2078:1 2456:1 
0.1561231484264422 745:1 1606:1 2078:1 2456:1 
0.1561231484264422 883:1 
0.1561231484264422 955:1 
0.1561231484264422 1068:1 
0.08018697857225007 63:1 460:1 2042:1 
0.1561231484264422 27:1 2457:1 
0.1561231484264422 69:1 107:1 
0.1561231484264422 854:1 
0.1561231484264422 68:1 104:1 2458:1 
0.1561231484264422 68:1 104:1 2458:1 
0.1561231484264422 1608:1 2459:1 
0.1561231484264422 2460:1 
0.1561231484264422 137:1 184:1 2175:1 2461:1 
0.1561231484264422 107:1 1074:1 2255:1 
0.1561231484264422 107:1 135:1 576:1 
0.1561231484264422 2463:1 2464:1 
0.1561231484264422 37:1 137:1 1310:1 2466:1 
0.1561231484264422 145:1 471:1 496:1 620:1 621:1 
0.1561231484264422 355:1 
0.1561231484264422 2468:1 
0.1021368678607772 1245:1 2469:1 2470:1 2471:1 
0.1561231484264422 1911:1 2352:1 
0.1561231484264422 2472:1 
0.1561231484264422 107:1 122:1 
0.1561231484264422 625:1 2474:1 2475:1 
0.1561231484264422 107:1 1074:1 2408:1 2478:1 
0.1561231484264422 84:1 239:1 255:1 422:1 2398:1 
0.1561231484264422 185:1 
0.1561231484264422 529:1 853:1 1025:1 2479:1 
0.1561231484264422 2480:1 
0.1561231484264422 1058:1 
0.1561231484264422 529:1 853:1 1025:1 2479:1 
0.1561231484264422 107:1 625:1 2101:1 
0.153975029892564 948:1 2158:1 
0.1561231484264422 1404:1 
0.1561231484264422 908:1 
0.1561231484264422 2486:1 
0.1561231484264422 2486:1 
0.1561231484264422 763:1 2487:1 
0.1561231484264422 2488:1 2489:1 
0.1561231484264422 2486:1 
0.1561231484264422 2486:1 
0.1561231484264422 1837:1 2111:1 
0.1561231484264422 77:1 120:1 122:1 474:1 1809:1 2483:1 2490:1 2491:1 
0.1561231484264422 107:1 
0.1561231484264422 27:1 77:1 161:1 2490:1 
0.1561231484264422 69:1 123:1 124:1 413:1 2463:1 2498:1 2499:1 
0.1561231484264422 68:1 107:1 527:1 824:1 
0.1561231484264422 768:1 
0.1561231484264422 2501:1 
0.1561231484264422 229:1 2506:1 2507:1 
0.03333140367207213 27:1 45:1 680:1 2508:1 
0.1561231484264422 68:1 90:1 107:1 122:1 
0.00191375564253739 1414:1 
0.1561231484264422 673:1 2509:1 
0.1561231484264422 2444:1 
0.1561231484264422 723:1 2510:1 2511:1 
0.1237018727165746 828:1 
0.1561231484264422 68:1 90:1 107:1 122:1 
0.1561231484264422 174:1 
0.1561231484264422 174:1 
0.1561231484264422 174:1 
0.1561231484264422 174:1 
0.1561231484264422 1074:1 
0.1561231484264422 258:1 373:1 2031:1 
0.1561231484264422 2519:1 
0.1561231484264422 174:1 
0.1561231484264422 2520:1 
0.1561231484264422 641:1 736:1 2521:1 2522:1 2523:1 
0.03811295943413725 177:1 288:1 496:1 1296:1 1853:1 
0.1334132869796144 61:1 64:1 80:1 1544:1 1881:1 1882:1 2528:1 
0.1561231484264422 658:1 966:1 
0.09300919649204448 252:1 288:1 1749:1 
0.1561231484264422 159:1 701:1 
0.1561231484264422 46:1 60:1 165:1 747:1 
0.1561231484264422 2533:1 
0.1561231484264422 271:1 
0.04060531761821527 2532:1 
0.1561231484264422 2534:1 
0.02978222821686061 350:1 2008:1 2009:1 2073:1 
0.1561231484264422 561:1 
0.1561231484264422 340:1 
0.1561231484264422 1163:1 
0.1280329202172865 153:1 529:1 2413:1 2537:1 
0.1561231484264422 60:1 197:1 322:1 2540:1 
0.1561231484264422 509:1 1446:1 
0.1561231484264422 509:1 1446:1 
0.1561231484264422 184:1 
0.1561231484264422 259:1 
0.1561231484264422 71:1 
0.1561231484264422 720:1 1872:1 2454:1 
0.1561231484264422 2546:1 2547:1 
0.1561231484264422 2548:1 
0.1561231484264422 630:1 2532:1 
0.1561231484264422 1574:1 2053:1 
0.1561231484264422 625:1 
0.1561231484264422 229:1 2177:1 
0.1561231484264422 44:1 1860:1 
0.1561231484264422 1540:1 
0.03694481029388878 191:1 317:1 347:1 505:1 1686:1 1817:1 1818:1 2532:1 
0.1561231484264422 259:1 
0.1561231484264422 422:1 
0.1561231484264422 658:1 2532:1 
0.1561231484264422 71:1 197:1 1130:1 1133:1 1479:1 2550:1 
0.002311461506497643 1860:1 
0.1561231484264422 2553:1 2554:1 2555:1 
0.1561231484264422 44:1 1860:1 
0.1561231484264422 321:1 2532:1 
0.1561231484264422 2551:1 
0.1561231484264422 2551:1 
0.0003162391379833631 2532:1 
0.1561231484264422 2551:1 
0.1526321349776397 34:1 281:1 561:1 898:1 1340:1 
0.1561231484264422 1845:1 
0.1561231484264422 2551:1 
0.1561231484264422 34:1 130:1 349:1 420:1 687:1 824:1 1733:1 
0.1561231484264422 915:1 1860:1 2558:1 
0.1561231484264422 437:1 458:1 978:1 2292:1 
0.1561231484264422 34:1 153:1 985:1 1088:1 
0.1559980242446226 130:1 2562:1 
0.1561231484264422 207:1 
0.1561231484264422 239:1 255:1 356:1 1860:1 
0.1561231484264422 27:1 45:1 183:1 826:1 
0.1561231484264422 112:1 148:1 1703:1 2567:1 
0.1561231484264422 1031:1 
0.0272126083913725 229:1 462:1 
0.001898407115903979 2551:1 
0.1561231484264422 269:1 425:1 1674:1 2573:1 2574:1 2575:1 2576:1 
0.1561231484264422 102:1 131:1 2577:1 
0.1561231484264422 175:1 2578:1 
0.03461234961836099 905:1 2582:1 
0.1561231484264422 222:1 874:1 1810:1 2583:1 
0.01362999782634341 27:1 61:1 593:1 1157:1 2042:1 2584:1 2585:1 2586:1 
0.1561231484264422 102:1 131:1 624:1 2563:1 2587:1 
0.1561231484264422 69:1 102:1 437:1 573:1 665:1 817:1 972:1 2335:1 
0.1561231484264422 2589:1 
0.1561231484264422 53:1 169:1 
0.1002317988931182 107:1 320:1 1703:1 
0.1561231484264422 184:1 1929:1 2377:1 
0.08069251257510568 630:1 2563:1 2593:1 
0.1561231484264422 147:1 561:1 
0.1561231484264422 322:1 328:1 2563:1 
0.0003285693012902715 411:1 
0.1561231484264422 447:1 1104:1 1105:1 
0.02537501693042927 224:1 1560:1 2597:1 2598:1 
0.1561231484264422 107:1 284:1 529:1 777:1 
0.1561231484264422 2596:1 2600:1 
0.1561231484264422 18:1 22:1 23:1 133:1 321:1 800:1 2563:1 
0.1561231484264422 355:1 
0.1561231484264422 7:1 
0.1561231484264422 509:1 510:1 
0.1561231484264422 2042:1 
0.1561231484264422 2601:1 
0.1561231484264422 2601:1 
0.1561231484264422 2601:1 
0.1561231484264422 233:1 447:1 1016:1 
0.1561231484264422 229:1 631:1 2601:1 
0.1561231484264422 745:1 1117:1 2042:1 
0.1561231484264422 16:1 147:1 153:1 1218:1 2042:1 
0.03899374854135353 67:1 
0.1139827642171654 197:1 2604:1 
0.1561231484264422 34:1 148:1 1004:1 2605:1 2606:1 
0.1561231484264422 2601:1 
0.1561231484264422 2601:1 
0.1382568594834344 1073:1 2032:1 
0.1561231484264422 508:1 
0.1561231484264422 2601:1 
0.1561231484264422 2601:1 
0.1561231484264422 2607:1 
0.1561231484264422 2601:1 
0.1561231484264422 2601:1 
0.1561231484264422 2601:1 
0.01173555363037096 1163:1 
0.1561231484264422 229:1 285:1 
0.001917477559751093 2601:1 
0.1561231484264422 202:1 409:1 2149:1 2619:1 
0.1561231484264422 501:1 
0.1561231484264422 323:1 932:1 
0.08649660686611779 280:1 512:1 622:1 711:1 761:1 1282:1 1955:1 2625:1 
0.07643590828970119 68:1 512:1 557:1 638:1 670:1 977:1 1055:1 1258:1 2626:1 2627:1 
0.1006577242717567 280:1 622:1 1179:1 2626:1 2628:1 
0.1561231484264422 1179:1 2626:1 2628:1 2629:1 
0.1561231484264422 1099:1 2626:1 2628:1 2631:1 2632:1 
0.1561231484264422 1179:1 2626:1 2628:1 2633:1 
0.1561231484264422 339:1 1179:1 2626:1 2628:1 
0.1561231484264422 227:1 1055:1 2626:1 2628:1 2636:1 
0.008014178900516375 2628:1 
0.1561231484264422 107:1 1326:1 2628:1 
0.1561231484264422 97:1 153:1 217:1 589:1 2143:1 2628:1 2631:1 2665:1 2666:1 
0.1561231484264422 271:1 604:1 1070:1 2161:1 2527:1 2626:1 2629:1 2667:1 2668:1 
0.1561231484264422 124:1 343:1 557:1 1150:1 1219:1 1642:1 1869:1 2628:1 2673:1 
0.1561231484264422 184:1 292:1 343:1 1282:1 1955:1 2625:1 2626:1 2628:1 
0.1561231484264422 2695:1 
0.1561231484264422 269:1 606:1 1236:1 1994:1 2619:1 2695:1 2702:1 
0.1561231484264422 2695:1 
0.1561231484264422 2695:1 
0.07901383440100575 2695:1 
0.1561231484264422 79:1 2695:1 
0.1561231484264422 228:1 292:1 2695:1 
0.1561231484264422 19:1 229:1 
0.07435480722808552 2401:1 
0.1561231484264422 561:1 
0.1561231484264422 2733:1 
0.1561231484264422 561:1 
0.0001662165895921699 2695:1 
0.1561231484264422 1037:1 2401:1 
0.1561231484264422 2739:1 2740:1 2741:1 
0.1561231484264422 47:1 557:1 
0.03846789403941766 249:1 340:1 716:1 1207:1 2612:1 2651:1 2750:1 2751:1 
0.03740168930755017 97:1 538:1 951:1 2266:1 2628:1 2631:1 2738:1 2748:1 2749:1 2752:1 2753:1 2754:1 
0.06388293865886648 453:1 458:1 2631:1 2760:1 2767:1 2768:1 2769:1 2770:1 2771:1 
0.1561231484264422 2791:1 
0.1561231484264422 557:1 673:1 1351:1 
0.1561231484264422 2797:1 
0.1561231484264422 13:1 165:1 204:1 777:1 837:1 1339:1 1792:1 2687:1 2692:1 2804:1 
0.007842967217678114 120:1 589:1 2798:1 
0.003300120095827786 725:1 1179:1 1906:1 2798:1 
0.1561231484264422 2798:1 
0.1121267498492639 222:1 250:1 573:1 887:1 995:1 1159:1 2798:1 2830:1 
0.1561231484264422 988:1 2798:1 2834:1 
0.1561231484264422 1946:1 2839:1 
0.1561231484264422 102:1 180:1 866:1 
0.1561231484264422 223:1 224:1 225:1 439:1 458:1 852:1 989:1 1143:1 1762:1 2842:1 2843:1 
0.1561231484264422 589:1 2798:1 
0.02050526193074203 147:1 573:1 593:1 1046:1 1143:1 2722:1 2847:1 2848:1 2849:1 2850:1 
0.1166037743328107 225:1 252:1 606:1 610:1 989:1 1156:1 1518:1 
0.1561231484264422 213:1 214:1 275:1 2483:1 2612:1 2798:1 2801:1 2816:1 2855:1 2856:1 
0.1330766698504425 121:1 347:1 589:1 2798:1 2857:1 
0.1561231484264422 122:1 473:1 736:1 996:1 2149:1 2798:1 2858:1 
0.001785203607757709 57:1 64:1 458:1 459:1 593:1 610:1 975:1 980:1 2798:1 2864:1 
0.1561231484264422 138:1 458:1 606:1 610:1 2833:1 2872:1 
0.1561231484264422 107:1 134:1 
0.1561231484264422 292:1 2798:1 
0.1561231484264422 79:1 1045:1 
0.1561231484264422 2798:1 
0.1561231484264422 2798:1 
0.1561231484264422 68:1 292:1 
0.1561231484264422 107:1 311:1 
0.1561231484264422 2798:1 2876:1 
0.1561231484264422 561:1 859:1 1904:1 2876:1 
0.1561231484264422 2797:1 
0.1561231484264422 2797:1 
0.1561231484264422 557:1 
0.1561231484264422 2797:1 
0.1561231484264422 344:1 523:1 1904:1 2876:1 2887:1 
0.06992468526083627 202:1 397:1 466:1 523:1 1904:1 2876:1 
0.1561231484264422 2888:1 
0.1561231484264422 293:1 2798:1 
0.1561231484264422 2888:1 
0.1561231484264422 2888:1 
0.1561231484264422 2893:1 
0.000676696330987912 2888:1 
0.1561231484264422 437:1 494:1 2894:1 
0.1561231484264422 19:1 22:1 23:1 2692:1 
0.1172100316747341 465:1 469:1 970:1 1162:1 2630:1 2703:1 2738:1 2916:1 2921:1 
0.02947202355897938 252:1 437:1 1070:1 1750:1 1939:1 2919:1 2926:1 2935:1 2936:1 2937:1 
0.1166814793293653 63:1 170:1 189:1 218:1 265:1 435:1 446:1 458:1 1381:1 2628:1 2926:1 2943:1 2950:1 
0.1561231484264422 186:1 823:1 
0.1561231484264422 2958:1 
0.1561231484264422 288:1 410:1 2279:1 2967:1 
0.1561231484264422 56:1 640:1 736:1 1375:1 1930:1 2903:1 2978:1 2980:1 2981:1 2982:1 2983:1 
0.1103807145542495 458:1 1143:1 1210:1 1358:1 2967:1 2978:1 2987:1 
0.1561231484264422 57:1 271:1 444:1 465:1 606:1 610:1 2149:1 2903:1 3011:1 
0.008012878347462003 2967:1 3012:1 
0.08517037396763232 56:1 57:1 63:1 131:1 223:1 439:1 458:1 1645:1 2061:1 2816:1 2856:1 2967:1 2978:1 3013:1 
0.1561231484264422 58:1 121:1 232:1 557:1 1364:1 1522:1 1944:1 2676:1 2967:1 
0.1561231484264422 79:1 2967:1 
0.1561231484264422 620:1 621:1 2967:1 
0.1561231484264422 84:1 3033:1 
0.1561231484264422 11:1 1435:1 3034:1 3035:1 3036:1 
0.1561231484264422 416:1 736:1 1055:1 1546:1 3038:1 3040:1 3041:1 3042:1 
0.05094988638002221 175:1 176:1 720:1 857:1 956:1 3038:1 3050:1 3051:1 
0.1561231484264422 170:1 457:1 758:1 2395:1 2812:1 3047:1 3059:1 3061:1 3062:1 3063:1 
0.1561231484264422 213:1 214:1 1070:1 2294:1 2395:1 3071:1 
0.1561231484264422 85:1 361:1 1119:1 1289:1 2197:1 2395:1 3038:1 3069:1 3082:1 
0.1561231484264422 123:1 183:1 908:1 3084:1 3085:1 3086:1 3087:1 
0.1561231484264422 3088:1 
0.1561231484264422 620:1 621:1 3094:1 
0.1561231484264422 135:1 
0.1561231484264422 71:1 104:1 1131:1 
0.1561231484264422 457:1 
0.09370110393065728 34:1 119:1 305:1 306:1 492:1 589:1 1131:1 1222:1 
0.1292915092156086 302:1 465:1 466:1 606:1 970:1 974:1 1231:1 1381:1 3114:1 
0.0112181943625603 71:1 228:1 232:1 557:1 797:1 1131:1 3101:1 3115:1 
0.1561231484264422 57:1 223:1 271:1 308:1 477:1 1131:1 1645:1 1760:1 
0.1561231484264422 1131:1 1226:1 1460:1 2248:1 2719:1 2833:1 2872:1 
0.05791075573162215 71:1 320:1 589:1 1131:1 1142:1 3025:1 
0.009658137771610363 119:1 264:1 303:1 989:1 1131:1 1383:1 2816:1 2939:1 3112:1 
0.1561231484264422 71:1 1131:1 3127:1 
0.0009463116120090784 87:1 303:1 606:1 1131:1 1451:1 2149:1 2619:1 2677:1 2678:1 
0.1561231484264422 19:1 71:1 1131:1 
0.1561231484264422 34:1 107:1 1131:1 1706:1 
0.1561231484264422 35:1 1447:1 
0.1561231484264422 356:1 2098:1 3134:1 
0.01184683512106332 133:1 2098:1 2124:1 2378:1 3135:1 3136:1 
0.1561231484264422 11:1 107:1 
0.1561231484264422 71:1 72:1 
0.1561231484264422 346:1 
0.1561231484264422 61:1 370:1 
0.1561231484264422 27:1 45:1 680:1 3137:1 
0.1561231484264422 94:1 2628:1 3138:1 3146:1 
0.1561231484264422 215:1 604:1 736:1 1588:1 2612:1 2655:1 2925:1 3153:1 3154:1 3155:1 
0.1561231484264422 176:1 477:1 589:1 625:1 995:1 2042:1 2651:1 2745:1 3152:1 3160:1 
0.1561231484264422 51:1 680:1 3137:1 3171:1 
0.1561231484264422 97:1 258:1 790:1 2243:1 3172:1 3173:1 3174:1 
0.1561231484264422 3179:1 
0.1561231484264422 691:1 
0.06919783613611842 397:1 839:1 
0.1561231484264422 234:1 3182:1 
0.1561231484264422 165:1 
0.1561231484264422 511:1 
0.1045330003389119 517:1 2149:1 3186:1 
0.1561231484264422 119:1 525:1 3186:1 3201:1 3202:1 3203:1 3204:1 
0.08254193531213848 525:1 726:1 1055:1 1159:1 3206:1 3219:1 3220:1 3221:1 
0.1561231484264422 736:1 
0.1092020707972789 525:1 593:1 606:1 758:1 2719:1 2903:1 3223:1 3224:1 3225:1 
0.1561231484264422 736:1 744:1 1159:1 2541:1 3227:1 3228:1 3229:1 
0.1517424924746782 3186:1 3234:1 
0.1561231484264422 3236:1 
0.1561231484264422 434:1 2702:1 2719:1 
0.1561231484264422 13:1 56:1 416:1 451:1 752:1 753:1 1846:1 1945:1 
0.1561231484264422 79:1 3186:1 
0.1004985258699457 228:1 292:1 3186:1 
0.1561231484264422 229:1 292:1 3186:1 
0.1561231484264422 525:1 
0.1561231484264422 346:1 
0.09878273975835587 184:1 778:1 2620:1 3246:1 
0.1561231484264422 525:1 
0.1046401308730504 156:1 1137:1 2687:1 3255:1 3256:1 
0.1561231484264422 230:1 355:1 560:1 3258:1 3259:1 3260:1 
0.1561231484264422 6:1 68:1 640:1 672:1 822:1 900:1 2238:1 3261:1 3262:1 3263:1 
0.1561231484264422 372:1 480:1 1904:1 2104:1 3087:1 
0.1561231484264422 94:1 336:1 448:1 501:1 526:1 555:1 710:1 1522:1 3008:1 
0.1561231484264422 1349:1 
0.1561231484264422 710:1 
0.1561231484264422 23:1 2687:1 
0.1561231484264422 2576:1 3101:1 3270:1 
0.1561231484264422 557:1 
0.1561231484264422 555:1 
0.1561231484264422 557:1 
0.1561231484264422 555:1 
0.1561231484264422 79:1 2274:1 
0.1561231484264422 557:1 
0.1561231484264422 555:1 
0.1561231484264422 1179:1 3271:1 
0.1561231484264422 557:1 
0.1561231484264422 555:1 
0.1561231484264422 1179:1 
0.1561231484264422 557:1 
0.1561231484264422 555:1 
0.1561231484264422 1179:1 3272:1 
0.1561231484264422 557:1 
0.1561231484264422 555:1 
0.1561231484264422 557:1 
0.1561231484264422 555:1 
0.1561231484264422 57:1 588:1 1099:1 2276:1 
0.1561231484264422 557:1 
0.1561231484264422 555:1 
0.1561231484264422 557:1 
0.1561231484264422 555:1 
0.1561231484264422 176:1 531:1 720:1 
0.06801240528518608 451:1 555:1 2785:1 3267:1 3279:1 3280:1 
0.1561231484264422 175:1 176:1 720:1 
0.1506449147226981 176:1 228:1 720:1 3267:1 
0.06906244359842642 57:1 458:1 573:1 610:1 990:1 1143:1 1228:1 1811:1 3072:1 3292:1 
0.036488097567257 370:1 458:1 490:1 1073:1 1511:1 2719:1 2982:1 2997:1 3295:1 
0.1561231484264422 678:1 736:1 1063:1 3296:1 
0.1561231484264422 124:1 343:1 555:1 588:1 1933:1 2911:1 3267:1 3299:1 
0.1561231484264422 57:1 261:1 604:1 744:1 1207:1 1878:1 2070:1 2276:1 3029:1 3030:1 3267:1 
0.1418076990272583 57:1 1383:1 1941:1 2805:1 2997:1 3267:1 3303:1 3304:1 
0.1561231484264422 55:1 107:1 184:1 609:1 657:1 1178:1 1332:1 1458:1 3313:1 3314:1 
0.1561231484264422 107:1 118:1 311:1 336:1 555:1 793:1 1529:1 2078:1 3267:1 
0.1561231484264422 3025:1 3318:1 
0.1561231484264422 79:1 3267:1 
0.01103910921396267 63:1 555:1 641:1 867:1 2791:1 3090:1 3319:1 3320:1 3321:1 
0.1561231484264422 36:1 948:1 
0.0174132499831004 63:1 555:1 641:1 867:1 2791:1 3090:1 3319:1 3320:1 3321:1 
0.02791990545947588 44:1 988:1 1010:1 1113:1 1226:1 2724:1 2802:1 2834:1 2874:1 3331:1 
0.1561231484264422 1181:1 2908:1 2909:1 
0.1561231484264422 69:1 70:1 165:1 761:1 2395:1 2646:1 2647:1 2836:1 
0.1561231484264422 68:1 401:1 496:1 
0.1561231484264422 104:1 526:1 689:1 1310:1 2120:1 3241:1 3335:1 
0.1561231484264422 2955:1 
0.1561231484264422 10:1 85:1 228:1 517:1 1584:1 2395:1 2628:1 2635:1 2875:1 3341:1 
0.1561231484264422 343:1 345:1 800:1 2395:1 2628:1 2860:1 
0.1561231484264422 13:1 165:1 222:1 273:1 274:1 689:1 
0.1561231484264422 317:1 529:1 951:1 1792:1 1849:1 2245:1 
0.1561231484264422 223:1 225:1 727:1 2040:1 3352:1 3360:1 3368:1 
0.1561231484264422 1740:1 2742:1 3352:1 3366:1 
0.1561231484264422 17:1 214:1 292:1 1450:1 2724:1 2801:1 2874:1 3352:1 
0.1561231484264422 57:1 225:1 458:1 670:1 826:1 2933:1 3019:1 3352:1 3363:1 3366:1 3392:1 
0.1561231484264422 3101:1 3397:1 
0.1561231484264422 79:1 3352:1 
0.002293671654087477 305:1 332:1 600:1 1137:1 2572:1 2595:1 2665:1 3401:1 3402:1 
0.1561231484264422 293:1 904:1 
0.1561231484264422 1006:1 1007:1 
0.1561231484264422 346:1 
0.1561231484264422 37:1 323:1 3407:1 
0.1561231484264422 3408:1 
0.1561231484264422 94:1 169:1 633:1 1505:1 1522:1 1974:1 2521:1 3409:1 3410:1 
0.1561231484264422 970:1 3417:1 3418:1 
0.1561231484264422 1827:1 
0.1561231484264422 3426:1 
0.1561231484264422 122:1 521:1 1159:1 3227:1 3426:1 
0.1561231484264422 3426:1 
0.01359046327286031 1364:1 1508:1 
0.1561231484264422 340:1 2653:1 
0.1561231484264422 3426:1 
0.1561231484264422 988:1 990:1 1046:1 1156:1 1381:1 1599:1 3383:1 3426:1 
0.0002941433549486992 3426:1 
0.1561231484264422 3007:1 
0.1561231484264422 292:1 3426:1 
0.1561231484264422 677:1 3426:1 
0.06478766851846332 34:1 107:1 125:1 346:1 348:1 557:1 904:1 1195:1 2904:1 3449:1 3450:1 
0.1561231484264422 55:1 107:1 138:1 609:1 657:1 1006:1 1007:1 1332:1 1458:1 3313:1 3314:1 
0.1561231484264422 3451:1 
0.1561231484264422 3007:1 
0.1561231484264422 1190:1 
0.1561231484264422 1006:1 1007:1 
0.06902290554154916 346:1 
0.001632597636016013 3426:1 
0.09566955936521436 104:1 184:1 602:1 711:1 761:1 2628:1 3452:1 
0.1561231484264422 82:1 97:1 184:1 602:1 1388:1 2595:1 2628:1 2639:1 2909:1 3453:1 3454:1 
0.1561231484264422 261:1 340:1 812:1 1108:1 1166:1 2646:1 2647:1 3456:1 3457:1 3458:1 
0.1266313263233782 189:1 678:1 725:1 874:1 1055:1 2628:1 2754:1 2822:1 2937:1 3460:1 
0.1561231484264422 921:1 995:1 1003:1 1070:1 1795:1 2655:1 2913:1 3453:1 3464:1 
0.1561231484264422 2628:1 3045:1 3453:1 
0.08495557628179223 719:1 725:1 1264:1 2031:1 2453:1 2896:1 3344:1 3465:1 3466:1 
0.1561231484264422 561:1 649:1 667:1 2931:1 3471:1 3472:1 3473:1 3474:1 3475:1 
0.1561231484264422 977:1 1526:1 2143:1 2544:1 2655:1 3378:1 3482:1 3483:1 
0.1561231484264422 47:1 184:1 336:1 555:1 689:1 710:1 793:1 1087:1 3335:1 
0.1561231484264422 121:1 1234:1 2984:1 
0.1561231484264422 521:1 
0.1561231484264422 711:1 
0.1561231484264422 3179:1 
0.1561231484264422 3494:1 
0.1537927783787871 1437:1 
0.1561231484264422 47:1 184:1 778:1 1006:1 1007:1 3335:1 3507:1 
0.1561231484264422 1481:1 2203:1 
0.1561231484264422 512:1 540:1 710:1 1006:1 1087:1 2653:1 
0.07094344093951417 2909:1 3503:1 
0.1488045523142538 555:1 1425:1 1524:1 
0.1561231484264422 153:1 533:1 1128:1 3503:1 
0.1561231484264422 225:1 264:1 472:1 557:1 1143:1 3399:1 3514:1 
0.1561231484264422 367:1 539:1 593:1 1504:1 1813:1 
0.06938255868059415 334:1 555:1 2274:1 2424:1 2816:1 2856:1 3139:1 
0.1561231484264422 79:1 3503:1 
0.1561231484264422 185:1 
0.1561231484264422 3503:1 3526:1 
0.1561231484264422 229:1 
0.1561231484264422 19:1 2307:1 3506:1 
0.1561231484264422 3539:1 
0.02419926760701798 385:1 
0.1561231484264422 27:1 90:1 168:1 
0.1561231484264422 3503:1 
0.1561231484264422 3494:1 
0.1561231484264422 312:1 578:1 3494:1 
0.1561231484264422 90:1 125:1 359:1 3494:1 
0.1561231484264422 3494:1 
0.04679069647678333 557:1 2833:1 2872:1 
0.001904188238103516 3494:1 
0.01277905887081185 13:1 33:1 42:1 689:1 1288:1 1863:1 2687:1 3547:1 3548:1 3549:1 
0.1561231484264422 6:1 1119:1 1471:1 2620:1 
0.1561231484264422 50:1 341:1 409:1 
0.1561231484264422 66:1 310:1 401:1 3342:1 
0.1561231484264422 165:1 
0.1561231484264422 3556:1 3557:1 3558:1 3559:1 3560:1 
0.1561231484264422 22:1 23:1 107:1 531:1 1131:1 1624:1 2692:1 3567:1 3568:1 
0.1561231484264422 236:1 295:1 624:1 1055:1 2398:1 2687:1 3571:1 3572:1 
0.1561231484264422 11:1 12:1 19:1 22:1 23:1 231:1 712:1 1131:1 2687:1 2692:1 
0.1561231484264422 45:1 71:1 120:1 589:1 970:1 1131:1 1258:1 3098:1 3577:1 
0.1088454365788559 1131:1 1445:1 3270:1 3586:1 
0.1561231484264422 736:1 1131:1 
0.1561231484264422 79:1 175:1 2386:1 3126:1 
0.01553379638085817 512:1 1131:1 1137:1 2653:1 2656:1 2941:1 
0.04697260934826171 170:1 260:1 606:1 988:1 2722:1 3430:1 3592:1 3593:1 
0.1561231484264422 198:1 2149:1 
0.1144630438278169 170:1 212:1 299:1 593:1 979:1 990:1 1058:1 1645:1 1646:1 2704:1 2716:1 3601:1 
0.06746770817581398 46:1 320:1 589:1 1131:1 3603:1 
0.1561231484264422 10:1 11:1 228:1 1131:1 2612:1 
0.1561231484264422 292:1 
0.1561231484264422 228:1 292:1 1131:1 
0.1561231484264422 858:1 
0.1561231484264422 1849:1 3606:1 
0.1561231484264422 228:1 394:1 1131:1 3610:1 
0.1561231484264422 19:1 229:1 1131:1 
0.1561231484264422 113:1 
0.1561231484264422 1255:1 
0.1561231484264422 53:1 153:1 417:1 726:1 1055:1 
0.1561231484264422 294:1 805:1 807:1 2692:1 3068:1 
0.1561231484264422 3629:1 
0.1561231484264422 45:1 46:1 51:1 137:1 328:1 900:1 1310:1 
0.1561231484264422 561:1 
0.1561231484264422 27:1 165:1 
0.000962354500601954 3447:1 3638:1 
0.1561231484264422 3639:1 
0.05006009750555575 3639:1 
0.02778497362595721 1364:1 3025:1 
0.07499875057947884 610:1 1740:1 2328:1 3274:1 3639:1 
0.1561231484264422 63:1 79:1 452:1 593:1 612:1 1472:1 2141:1 3663:1 3664:1 
0.1561231484264422 147:1 593:1 996:1 1642:1 1652:1 2676:1 2724:1 2728:1 3639:1 3653:1 3661:1 
0.1561231484264422 147:1 369:1 593:1 1215:1 2042:1 2372:1 2724:1 2865:1 3661:1 3674:1 
0.1561231484264422 341:1 2997:1 3639:1 
0.08655518563635178 57:1 223:1 975:1 2719:1 3430:1 3639:1 
0.1561231484264422 79:1 3639:1 
0.1561231484264422 19:1 3639:1 
0.1561231484264422 521:1 
0.02837396980433757 1175:1 2513:1 
0.1561231484264422 1006:1 1007:1 
0.1561231484264422 22:1 23:1 183:1 231:1 860:1 1614:1 2692:1 
0.1561231484264422 18:1 68:1 180:1 1085:1 2069:1 
0.1561231484264422 18:1 22:1 23:1 2239:1 
0.1561231484264422 68:1 
0.1561231484264422 925:1 
0.1561231484264422 509:1 510:1 
0.01103792260147003 48:1 202:1 900:1 1687:1 2463:1 2611:1 3325:1 3689:1 
0.1561231484264422 1349:1 
0.1561231484264422 27:1 1686:1 
0.1455775567205868 13:1 137:1 222:1 241:1 525:1 1645:1 3222:1 3690:1 3702:1 
0.1561231484264422 14:1 206:1 458:1 1502:1 2724:1 2816:1 2845:1 2856:1 2874:1 3447:1 3690:1 
0.1561231484264422 292:1 1475:1 
0.05951150996219082 228:1 292:1 3690:1 
0.1367566678151468 58:1 138:1 321:1 557:1 1007:1 2378:1 
0.1561231484264422 79:1 3690:1 
0.1561231484264422 525:1 
0.1561231484264422 1006:1 1007:1 
0.1561231484264422 3559:1 3734:1 3738:1 
0.1561231484264422 517:1 1576:1 
0.1360150027309586 3737:1 
0.1561231484264422 512:1 2653:1 3737:1 
0.1561231484264422 43:1 56:1 446:1 988:1 1168:1 2676:1 2709:1 2816:1 2850:1 3737:1 3741:1 3742:1 
0.02205393436915767 175:1 176:1 218:1 1459:1 2339:1 2749:1 3737:1 3755:1 3756:1 
0.1561231484264422 557:1 
0.1047563913552798 224:1 587:1 610:1 1099:1 1159:1 1511:1 2245:1 3761:1 3762:1 
0.1561231484264422 125:1 232:1 593:1 979:1 1346:1 3764:1 3765:1 
0.1561231484264422 3770:1 
0.1561231484264422 649:1 3739:1 
0.1432520245433676 218:1 
0.1561231484264422 3777:1 
0.1561231484264422 689:1 1657:1 
0.1445210341020334 693:1 
0.1538681138647898 27:1 2493:1 
0.1561231484264422 46:1 51:1 1290:1 1310:1 1474:1 3418:1 
0.1561231484264422 1430:1 
0.1561231484264422 995:1 3781:1 
0.08267805238253735 2634:1 2638:1 
0.1545739023451607 34:1 280:1 407:1 622:1 642:1 1447:1 
0.08963636467237565 176:1 808:1 900:1 1049:1 2687:1 3783:1 
0.1561231484264422 16:1 422:1 614:1 2634:1 2989:1 3611:1 
0.1561231484264422 1119:1 
0.1561231484264422 622:1 1421:1 2798:1 
0.1561231484264422 1133:1 3184:1 3185:1 3785:1 
0.1316574303670801 622:1 1421:1 2798:1 3130:1 
0.1561231484264422 622:1 1421:1 2798:1 
0.1561231484264422 253:1 469:1 744:1 876:1 1143:1 2798:1 
0.1561231484264422 2798:1 
0.1561231484264422 458:1 589:1 2798:1 3007:1 
0.1561231484264422 589:1 871:1 2785:1 2798:1 3798:1 
0.1561231484264422 876:1 1143:1 2164:1 2798:1 3109:1 3671:1 
0.1561231484264422 57:1 124:1 243:1 458:1 1525:1 2634:1 2798:1 3399:1 3798:1 
0.1561231484264422 214:1 589:1 876:1 1143:1 2720:1 3025:1 
0.1561231484264422 250:1 264:1 472:1 1001:1 1878:1 3016:1 3803:1 3804:1 
0.1561231484264422 686:1 2798:1 
0.1561231484264422 500:1 589:1 876:1 988:1 1973:1 2798:1 3807:1 
0.04611423198545959 465:1 902:1 1143:1 1503:1 1649:1 2903:1 3442:1 
0.1561231484264422 57:1 222:1 573:1 588:1 640:1 995:1 1073:1 3798:1 
0.1561231484264422 2798:1 
0.1561231484264422 416:1 463:1 2164:1 2634:1 2678:1 2798:1 3814:1 
0.1561231484264422 232:1 557:1 2798:1 
0.1561231484264422 292:1 
0.1561231484264422 228:1 589:1 2798:1 
0.1561231484264422 176:1 292:1 2798:1 
0.1561231484264422 107:1 623:1 2798:1 
0.1561231484264422 396:1 1820:1 3816:1 
0.1561231484264422 84:1 205:1 1520:1 2798:1 
0.1561231484264422 1006:1 1007:1 1019:1 1788:1 2798:1 3241:1 3680:1 3817:1 
0.1561231484264422 79:1 123:1 
0.1561231484264422 107:1 122:1 562:1 710:1 1447:1 
0.1561231484264422 167:1 288:1 900:1 2634:1 2989:1 
0.1561231484264422 313:1 
0.005409635524220924 275:1 2798:1 
0.1561231484264422 1447:1 
0.1561231484264422 1006:1 1007:1 
0.1561231484264422 2798:1 
0.1561231484264422 232:1 496:1 1918:1 2151:1 2630:1 3060:1 3396:1 3821:1 
0.1561231484264422 119:1 184:1 521:1 1558:1 2628:1 2642:1 2748:1 2749:1 2767:1 3064:1 3065:1 3824:1 
0.1561231484264422 1229:1 1656:1 2631:1 2754:1 2939:1 3825:1 
0.1022399517386571 84:1 243:1 573:1 1207:1 2769:1 2950:1 3139:1 3140:1 3829:1 
0.007807479308168378 282:1 
0.1561231484264422 521:1 
0.1561231484264422 3838:1 
0.1561231484264422 3839:1 
0.1561231484264422 1393:1 2454:1 
0.1033713542866856 989:1 1101:1 1143:1 1226:1 2421:1 2687:1 3846:1 3847:1 
0.08790206684747839 57:1 996:1 1375:1 1651:1 2826:1 2983:1 3841:1 3857:1 
0.04966955260956799 225:1 250:1 273:1 444:1 593:1 2612:1 3110:1 3841:1 3858:1 3859:1 3860:1 
0.09476072175182323 458:1 996:1 1648:1 1651:1 2762:1 2818:1 3841:1 3853:1 
0.1561231484264422 439:1 458:1 650:1 1332:1 3841:1 
0.07301630330892382 38:1 294:1 340:1 3841:1 
0.1561231484264422 890:1 1393:1 3841:1 
0.04135174708016071 63:1 64:1 147:1 458:1 608:1 989:1 1431:1 2061:1 2658:1 
0.02333250168705977 189:1 606:1 1854:1 2164:1 3105:1 3719:1 3841:1 3864:1 3868:1 
0.1561231484264422 223:1 227:1 587:1 610:1 1383:1 2393:1 2823:1 3067:1 3841:1 3869:1 
0.1561231484264422 57:1 266:1 573:1 640:1 976:1 989:1 1070:1 1639:1 2719:1 2991:1 3513:1 
0.1561231484264422 14:1 458:1 606:1 610:1 725:1 1169:1 1814:1 2082:1 3016:1 
0.1561231484264422 3876:1 
0.1561231484264422 2622:1 
0.1561231484264422 557:1 
0.1561231484264422 1006:1 1007:1 
0.1561231484264422 2295:1 3879:1 
0.04760510331872172 269:1 1576:1 3038:1 3059:1 3403:1 3880:1 3882:1 3883:1 3884:1 
0.004710343321267616 120:1 170:1 189:1 264:1 573:1 1646:1 1814:1 3038:1 3039:1 3073:1 3889:1 
0.1561231484264422 323:1 2218:1 
0.1561231484264422 480:1 719:1 742:1 
0.1561231484264422 19:1 22:1 23:1 2620:1 2687:1 2692:1 
0.1561231484264422 43:1 557:1 819:1 1337:1 1560:1 1665:1 3905:1 3906:1 
0.1561231484264422 2735:1 
0.1561231484264422 290:1 948:1 3907:1 
0.1524374992469359 590:1 998:1 
0.1561231484264422 49:1 557:1 899:1 2078:1 3325:1 
0.1561231484264422 463:1 793:1 1700:1 2687:1 3498:1 3783:1 3919:1 
0.1168387695304111 280:1 347:1 606:1 640:1 3641:1 3928:1 
0.1161280111543224 327:1 606:1 610:1 2719:1 3434:1 3912:1 3930:1 
0.1561231484264422 222:1 665:1 744:1 996:1 3912:1 3932:1 3933:1 
0.1561231484264422 66:1 201:1 240:1 744:1 979:1 3912:1 
0.1561231484264422 2719:1 
0.07378970035927206 175:1 1469:1 3912:1 3945:1 
0.06395321931308634 121:1 261:1 589:1 604:1 1679:1 2719:1 2722:1 3102:1 3364:1 3912:1 
0.1561231484264422 3912:1 3948:1 3949:1 
0.1561231484264422 292:1 
0.1561231484264422 79:1 3912:1 
0.1187198780700793 674:1 857:1 1291:1 3395:1 3487:1 3655:1 
0.1561231484264422 642:1 3554:1 
0.1561231484264422 437:1 2894:1 
0.1561231484264422 599:1 
0.1561231484264422 165:1 1129:1 1548:1 1900:1 2611:1 
0.1561231484264422 317:1 529:1 1177:1 1478:1 1809:1 3960:1 
0.1561231484264422 53:1 1792:1 2081:1 3130:1 
0.1561231484264422 561:1 
0.1561231484264422 440:1 1751:1 2216:1 3962:1 
0.1479503946748336 1037:1 2719:1 3962:1 
0.1561231484264422 369:1 436:1 670:1 990:1 1063:1 1143:1 1205:1 2807:1 2942:1 
0.03079739988029589 223:1 225:1 989:1 990:1 1070:1 1589:1 2704:1 3399:1 
0.1561231484264422 59:1 222:1 225:1 250:1 556:1 2831:1 3962:1 3988:1 3989:1 
0.1561231484264422 3962:1 
0.1561231484264422 3962:1 
0.1561231484264422 3962:1 
0.01254362963171789 334:1 998:1 1322:1 2676:1 3990:1 
0.1561231484264422 229:1 3962:1 
0.09946701917658998 453:1 556:1 3995:1 3996:1 
0.1561231484264422 1108:1 
0.1561231484264422 3997:1 
0.1561231484264422 11:1 19:1 72:1 3962:1 
0.04804022886256532 198:1 368:1 557:1 1168:1 1169:1 3998:1 
0.1561231484264422 3962:1 
0.1561231484264422 11:1 72:1 
0.1189944833151167 3962:1 
0.1561231484264422 556:1 935:1 1054:1 3408:1 
0.1561231484264422 3999:1 
0.00595141238220654 34:1 1283:1 1495:1 4000:1 
0.1561231484264422 48:1 150:1 156:1 2687:1 2722:1 2971:1 3593:1 4002:1 4003:1 
0.1561231484264422 3638:1 4006:1 
0.1561231484264422 190:1 463:1 599:1 832:1 4007:1 
0.1561231484264422 1711:1 4009:1 4010:1 
0.1561231484264422 68:1 137:1 350:1 789:1 4013:1 
0.1561231484264422 3167:1 
0.1561231484264422 3090:1 4015:1 
0.1561231484264422 119:1 606:1 1918:1 2628:1 2635:1 2641:1 2642:1 2646:1 2647:1 2659:1 
0.02096795645575966 269:1 2628:1 4017:1 4018:1 
0.08206649094936329 122:1 124:1 343:1 446:1 477:1 1811:1 2024:1 2858:1 3244:1 4024:1 4025:1 
0.1561231484264422 190:1 225:1 725:1 1041:1 1168:1 1169:1 2041:1 2646:1 2647:1 3167:1 3881:1 4027:1 
0.1047209214679089 269:1 2628:1 2902:1 4017:1 4018:1 
0.05296961651569816 15:1 213:1 214:1 469:1 744:1 1213:1 1229:1 2269:1 2628:1 2672:1 2921:1 4029:1 
0.1561231484264422 43:1 573:1 
0.1561231484264422 1064:1 1536:1 1537:1 1780:1 
0.1561231484264422 93:1 94:1 125:1 169:1 1530:1 1851:1 
0.1561231484264422 224:1 4034:1 
0.1561231484264422 107:1 561:1 4036:1 
0.1561231484264422 446:1 3620:1 4036:1 4039:1 4040:1 
0.06345630510953956 4036:1 4043:1 4044:1 
0.1561231484264422 369:1 557:1 561:1 730:1 2216:1 3631:1 4036:1 4050:1 4051:1 4052:1 
0.04685984100860595 471:1 606:1 692:1 744:1 826:1 1216:1 3143:1 4046:1 4053:1 
0.1401393855204532 557:1 
0.1561231484264422 1466:1 2612:1 
0.1561231484264422 4036:1 4060:1 
0.02995126511746389 222:1 271:1 477:1 692:1 744:1 988:1 4050:1 4065:1 
0.1561231484264422 471:1 620:1 621:1 1006:1 1007:1 4036:1 
0.1561231484264422 68:1 
0.1561231484264422 925:1 
0.1561231484264422 107:1 1203:1 1773:1 4036:1 
0.1561231484264422 233:1 589:1 1518:1 2216:1 2630:1 3038:1 3059:1 4075:1 
0.1561231484264422 170:1 845:1 1646:1 2630:1 2754:1 2786:1 2842:1 2942:1 
0.1561231484264422 97:1 670:1 1055:1 2630:1 4086:1 
3.375398267842697e-05 1175:1 2513:1 
0.1561231484264422 3631:1 
0.1561231484264422 1006:1 1007:1 
0.1561231484264422 23:1 3170:1 4097:1 
0.1561231484264422 2791:1 4105:1 
0.1561231484264422 165:1 
0.1561231484264422 165:1 2611:1 
0.1561231484264422 147:1 557:1 2222:1 
0.1561231484264422 153:1 437:1 1151:1 
0.1561231484264422 222:1 225:1 979:1 1073:1 2709:1 2924:1 2978:1 4122:1 
0.1561231484264422 27:1 2430:1 2967:1 4125:1 
0.1012288641261039 1364:1 3025:1 
0.1561231484264422 79:1 1364:1 2967:1 
0.1561231484264422 58:1 138:1 321:1 557:1 1006:1 1007:1 2378:1 2967:1 
0.1285755146957652 867:1 3090:1 
0.04788366549624089 1064:1 1536:1 1537:1 1780:1 
0.1010678127727436 557:1 1522:1 
0.1561231484264422 1522:1 
0.1561231484264422 1006:1 1007:1 
0.1561231484264422 68:1 391:1 
0.1561231484264422 504:1 1777:1 
0.0211188131203557 58:1 113:1 562:1 2967:1 4133:1 
0.01967403947128086 535:1 3918:1 3945:1 4135:1 
0.1561231484264422 44:1 1705:1 1820:1 2707:1 2903:1 2909:1 3167:1 3329:1 4139:1 
0.0234525044571823 19:1 22:1 23:1 517:1 2620:1 2687:1 2692:1 
0.1561231484264422 1349:1 
0.1561231484264422 509:1 1446:1 
0.1561231484264422 4145:1 4146:1 4147:1 
0.1561231484264422 4148:1 
0.1561231484264422 1388:1 2639:1 3007:1 4153:1 
0.1561231484264422 46:1 577:1 2070:1 3029:1 3030:1 4145:1 
0.1561231484264422 57:1 455:1 1158:1 2277:1 2612:1 2719:1 2930:1 3860:1 
0.1561231484264422 57:1 461:1 990:1 1073:1 1228:1 1642:1 1854:1 4145:1 4164:1 
0.1561231484264422 243:1 472:1 573:1 610:1 1207:1 1266:1 2396:1 2719:1 
0.1561231484264422 43:1 225:1 340:1 415:1 441:1 988:1 1811:1 2612:1 2844:1 4145:1 
0.1382077552475344 249:1 573:1 990:1 2719:1 2925:1 2942:1 3217:1 4174:1 
0.1561231484264422 222:1 264:1 455:1 458:1 557:1 990:1 1258:1 1383:1 4145:1 4175:1 
0.1561231484264422 180:1 866:1 1828:1 
0.1561231484264422 57:1 261:1 455:1 471:1 610:1 826:1 988:1 989:1 990:1 1211:1 
0.1051797099133146 557:1 
0.1561231484264422 2622:1 
0.1561231484264422 4179:1 
0.1561231484264422 79:1 4145:1 
0.1561231484264422 1624:1 1655:1 2612:1 3129:1 
0.1561231484264422 507:1 1395:1 2245:1 
0.1561231484264422 107:1 122:1 
0.1561231484264422 3090:1 3171:1 4181:1 
0.1445232584263696 104:1 184:1 710:1 761:1 2164:1 4183:1 
0.1561231484264422 441:1 
0.1561231484264422 1006:1 1007:1 
0.1561231484264422 641:1 1440:1 2529:1 2595:1 2735:1 2982:1 
0.1561231484264422 373:1 549:1 710:1 900:1 1206:1 4142:1 4143:1 4185:1 4186:1 4187:1 
0.1561231484264422 225:1 273:1 437:1 725:1 875:1 1075:1 2143:1 3140:1 
0.1561231484264422 15:1 222:1 223:1 446:1 1205:1 2628:1 2646:1 2647:1 2708:1 
0.1561231484264422 162:1 199:1 589:1 711:1 2248:1 2628:1 3760:1 4196:1 4197:1 
0.1561231484264422 124:1 137:1 343:1 758:1 935:1 1991:1 2151:1 2793:1 4203:1 
0.1266620352819405 420:1 687:1 1074:1 1828:1 1829:1 1846:1 2687:1 2692:1 
0.03845932594480275 19:1 22:1 23:1 517:1 2620:1 2687:1 2692:1 
0.1561231484264422 165:1 180:1 866:1 1828:1 1829:1 1844:1 1845:1 1846:1 4211:1 
0.1561231484264422 703:1 916:1 
0.1561231484264422 2786:1 3905:1 4068:1 4103:1 4104:1 
0.1561231484264422 287:1 2735:1 
0.04409446578720574 4216:1 
0.01838698640625995 138:1 1143:1 1156:1 1603:1 2722:1 3329:1 3979:1 4216:1 
0.0466551535367994 812:1 2677:1 2722:1 4216:1 4224:1 4227:1 4229:1 
0.1561231484264422 1177:1 2042:1 2865:1 4216:1 4225:1 4239:1 
0.1561231484264422 175:1 593:1 690:1 908:1 1159:1 2078:1 2722:1 3383:1 4216:1 
0.001335580594481343 4216:1 
0.1561231484264422 471:1 557:1 620:1 621:1 4216:1 
0.1561231484264422 313:1 
0.04756027271571184 19:1 709:1 4216:1 
0.1561231484264422 524:1 1488:1 2258:1 2735:1 
0.1561231484264422 523:1 557:1 662:1 1892:1 4277:1 4278:1 4279:1 4280:1 
0.1561231484264422 690:1 
0.1561231484264422 391:1 882:1 
0.1561231484264422 44:1 1913:1 
0.1561231484264422 690:1 3130:1 3184:1 4283:1 
0.1561231484264422 153:1 4296:1 
0.1561231484264422 4297:1 
0.1561231484264422 84:1 1520:1 
0.1561231484264422 1842:1 
0.1561231484264422 4302:1 4303:1 
0.1561231484264422 4304:1 
0.1561231484264422 27:1 679:1 
0.1561231484264422 543:1 4304:1 
0.1561231484264422 1119:1 
0.1561231484264422 107:1 561:1 4306:1 
0.1561231484264422 11:1 4306:1 
0.1335240752482179 643:1 1469:1 2021:1 2166:1 3130:1 3184:1 4069:1 4183:1 4290:1 
0.1561231484264422 184:1 333:1 728:1 1530:1 1705:1 4311:1 
0.1561231484264422 392:1 458:1 758:1 1075:1 2724:1 4306:1 4321:1 
0.09825821957153513 66:1 606:1 610:1 988:1 1557:1 2719:1 2835:1 2869:1 4325:1 
0.08347011591433925 43:1 222:1 573:1 606:1 995:1 3114:1 3595:1 4306:1 4312:1 
0.1341616442477959 465:1 466:1 1168:1 1367:1 1393:1 4038:1 4224:1 4306:1 4331:1 4332:1 
0.1561231484264422 79:1 4306:1 
0.1561231484264422 394:1 2397:1 3610:1 4306:1 
0.1561231484264422 313:1 
0.1561231484264422 113:1 
0.1561231484264422 225:1 463:1 557:1 593:1 1740:1 2275:1 2328:1 2630:1 2721:1 3038:1 4336:1 4337:1 
0.1561231484264422 68:1 437:1 557:1 845:1 1003:1 1445:1 4038:1 4328:1 4339:1 4340:1 
0.003205046337224454 48:1 812:1 1785:1 1992:1 2216:1 3038:1 3047:1 4079:1 
0.1561231484264422 225:1 390:1 1082:1 3038:1 3082:1 3376:1 4290:1 
0.1561231484264422 108:1 292:1 2245:1 3038:1 
0.1561231484264422 4038:1 
0.004857827739861772 346:1 
0.1561231484264422 294:1 996:1 3093:1 3170:1 4290:1 
0.1561231484264422 28:1 409:1 549:1 702:1 900:1 3177:1 4013:1 
0.1561231484264422 11:1 361:1 643:1 1488:1 4290:1 4360:1 4361:1 4362:1 
0.1561231484264422 4290:1 4363:1 
0.1561231484264422 2955:1 
0.1561231484264422 165:1 453:1 761:1 1900:1 
0.1561231484264422 711:1 4365:1 
0.1561231484264422 153:1 509:1 1430:1 1446:1 2622:1 
0.1561231484264422 4366:1 
0.1561231484264422 234:1 4366:1 
0.1561231484264422 4368:1 
0.1561231484264422 153:1 1151:1 
0.1561231484264422 643:1 990:1 1469:1 1740:1 2328:1 3945:1 4366:1 4369:1 
0.03142374324364244 147:1 369:1 557:1 593:1 990:1 1209:1 2544:1 2722:1 2865:1 4371:1 
0.1512733005874439 1213:1 4372:1 4373:1 4374:1 4375:1 4376:1 4377:1 4378:1 4379:1 4380:1 
