svm_type c_svc
kernel_type linear
nr_class 2
total_sv 15679
rho -1.31955
label -1 2
nr_sv 9099 6580
SV
0.5 5:1 6:1 7:1 8:1 
0.2664945699525849 10:1 11:1 12:1 18:1 21:1 22:1 23:1 24:1 25:1 
0.5 10:1 11:1 12:1 18:1 21:1 22:1 23:1 24:1 25:1 
0.5 28:1 29:1 30:1 
0.5 39:1 40:1 41:1 42:1 43:1 44:1 
0.5 45:1 46:1 
0.3859828950996401 68:1 69:1 70:1 71:1 72:1 
0.5 48:1 70:1 71:1 72:1 77:1 78:1 79:1 
0.5 10:1 11:1 85:1 86:1 87:1 
0.5 88:1 89:1 
0.5 44:1 90:1 91:1 
0.5 103:1 104:1 
0.5 114:1 
0.5 114:1 
0.5 103:1 
0.5 70:1 103:1 107:1 117:1 118:1 
0.5 103:1 119:1 120:1 
0.5 46:1 89:1 128:1 129:1 130:1 
0.5 137:1 138:1 
0.5 139:1 
0.5 140:1 
0.5 77:1 
0.5 27:1 155:1 156:1 157:1 158:1 
0.5 70:1 104:1 159:1 
0.5 27:1 166:1 167:1 168:1 
0.3344608375533651 89:1 
0.5 184:1 185:1 
0.476589070295386 89:1 
0.5 71:1 191:1 192:1 193:1 194:1 195:1 
0.5 204:1 205:1 
0.5 70:1 
0.5 77:1 208:1 
0.5 70:1 153:1 
0.5 70:1 207:1 
0.5 209:1 210:1 211:1 
0.5 184:1 
0.5 10:1 11:1 175:1 228:1 229:1 
0.5 63:1 232:1 233:1 234:1 
0.2764020346285235 38:1 113:1 310:1 314:1 315:1 
0.5 6:1 46:1 229:1 322:1 323:1 
0.5 338:1 339:1 
0.5 365:1 366:1 367:1 
0.5 377:1 381:1 
0.5 387:1 388:1 389:1 
0.5 19:1 309:1 391:1 
0.3415943642181246 160:1 205:1 395:1 396:1 
0.5 408:1 409:1 
0.2881613233013716 10:1 11:1 12:1 280:1 336:1 412:1 413:1 414:1 415:1 416:1 417:1 418:1 419:1 
0.5 423:1 424:1 425:1 426:1 
0.2263823451280808 276:1 427:1 
0.3420489859197067 72:1 228:1 442:1 
0.5 46:1 181:1 
0.5 68:1 444:1 445:1 446:1 
0.5 454:1 
0.5 10:1 11:1 206:1 228:1 229:1 474:1 475:1 
0.5 11:1 27:1 107:1 161:1 185:1 229:1 334:1 385:1 475:1 
0.5 481:1 482:1 483:1 
0.5 107:1 112:1 
0.5 103:1 153:1 338:1 339:1 512:1 513:1 514:1 515:1 516:1 
0.5 125:1 348:1 521:1 
0.5 528:1 
0.5 181:1 533:1 
0.5 14:1 22:1 23:1 535:1 
0.5 539:1 540:1 
0.5 14:1 22:1 23:1 535:1 
0.5 542:1 
0.5 548:1 
0.5 234:1 322:1 443:1 
0.5 553:1 
0.5 172:1 558:1 
0.5 553:1 
0.5 17:1 
0.04673639483519299 576:1 582:1 
0.5 596:1 
0.5 10:1 11:1 228:1 
0.5 55:1 107:1 184:1 600:1 601:1 602:1 
0.5 264:1 605:1 606:1 607:1 608:1 
0.5 184:1 229:1 613:1 
0.5 422:1 614:1 
0.5 422:1 614:1 
0.5 627:1 628:1 
0.2204816783590305 202:1 350:1 505:1 629:1 
0.2656936260171867 125:1 179:1 273:1 348:1 630:1 
0.5 521:1 
0.5 311:1 531:1 558:1 631:1 632:1 
0.5 107:1 
0.5 635:1 636:1 
0.1948736068546637 234:1 637:1 
0.5 350:1 642:1 
0.5 103:1 107:1 647:1 
0.5 103:1 512:1 648:1 649:1 
0.5 153:1 513:1 519:1 520:1 650:1 651:1 652:1 653:1 
0.5 153:1 347:1 651:1 652:1 654:1 
0.5 248:1 350:1 657:1 658:1 
0.5 18:1 19:1 22:1 23:1 558:1 
0.5 166:1 378:1 
0.5 676:1 677:1 
0.5 44:1 259:1 
0.5 688:1 689:1 
0.5 690:1 
0.5 46:1 
0.5 35:1 107:1 706:1 
0.5 336:1 337:1 448:1 625:1 709:1 710:1 
0.5 45:1 46:1 717:1 
0.3414767315262112 64:1 103:1 176:1 515:1 516:1 709:1 719:1 720:1 
0.4035244850313543 48:1 721:1 
0.5 302:1 
0.5 27:1 723:1 
0.08387748381457821 731:1 
0.5 741:1 
0.5 147:1 229:1 237:1 
0.5 308:1 492:1 746:1 
0.5 458:1 589:1 708:1 
0.5 750:1 751:1 
0.5 766:1 
0.5 311:1 655:1 708:1 767:1 768:1 769:1 770:1 771:1 
0.2417101674123638 772:1 773:1 774:1 775:1 
0.5 779:1 780:1 
0.5 71:1 755:1 756:1 791:1 
0.07473246630271688 708:1 
0.5 47:1 93:1 792:1 793:1 
0.5 801:1 
0.5 14:1 22:1 23:1 24:1 277:1 
0.5 657:1 802:1 803:1 804:1 
0.5 801:1 
0.5 14:1 22:1 23:1 24:1 277:1 
0.5 10:1 11:1 12:1 69:1 
0.3268265483578632 38:1 258:1 373:1 479:1 819:1 
0.5 444:1 535:1 820:1 821:1 822:1 
0.5 104:1 135:1 829:1 
0.5 103:1 
0.5 122:1 648:1 649:1 
0.5 103:1 
0.5 47:1 832:1 833:1 
0.5 103:1 
0.5 103:1 107:1 122:1 648:1 649:1 
0.5 153:1 652:1 834:1 835:1 
0.4325255257989344 838:1 
0.5 103:1 
0.5 156:1 652:1 842:1 843:1 844:1 
0.5 103:1 
0.5 103:1 
0.5 103:1 
0.5 56:1 104:1 692:1 861:1 862:1 863:1 864:1 
0.5 883:1 
0.1440576195558223 881:1 
0.5 883:1 
0.5 876:1 904:1 
0.5 487:1 919:1 920:1 
0.2529248203177394 919:1 920:1 
0.5 38:1 68:1 322:1 
0.5 22:1 557:1 689:1 
0.5 926:1 927:1 928:1 
0.5 805:1 807:1 
0.5 800:1 932:1 
0.2061970687642677 125:1 273:1 630:1 933:1 
0.2450040252608124 940:1 
0.5 137:1 352:1 941:1 
0.5 944:1 
0.5 945:1 946:1 947:1 
0.5 939:1 951:1 952:1 953:1 954:1 
0.5 955:1 
0.5 169:1 233:1 
0.5 537:1 
0.5 27:1 53:1 107:1 108:1 330:1 511:1 561:1 797:1 
0.5 537:1 
0.5 68:1 107:1 395:1 
0.5 955:1 956:1 967:1 968:1 969:1 
0.5 59:1 71:1 
0.5 48:1 321:1 971:1 
0.1030934931696455 27:1 57:1 
0.2319200923076824 259:1 477:1 744:1 996:1 997:1 998:1 
0.5 191:1 590:1 1004:1 1005:1 
0.4779571029588603 53:1 169:1 
0.5 561:1 
0.5 848:1 
0.5 1029:1 
0.5 1034:1 1035:1 1036:1 
0.5 507:1 
0.5 689:1 
0.1375753247365504 18:1 22:1 23:1 959:1 
0.5 217:1 
0.5 170:1 435:1 590:1 736:1 1057:1 1062:1 1063:1 
0.5 175:1 223:1 338:1 437:1 604:1 999:1 1064:1 1065:1 
0.3314228711876069 1050:1 
0.5 222:1 224:1 225:1 1073:1 
0.5 1050:1 
0.5 458:1 1074:1 1075:1 
0.5 228:1 640:1 793:1 
0.5 1050:1 
0.1286056471798285 167:1 288:1 898:1 
0.2719612689298555 162:1 183:1 471:1 620:1 621:1 640:1 793:1 1076:1 1077:1 
0.5 1050:1 
0.5 529:1 578:1 590:1 599:1 1050:1 
0.5 1050:1 
0.5 313:1 758:1 
0.5 1050:1 
0.5 948:1 
0.5 1088:1 
0.5 1089:1 
0.5 1050:1 
0.5 1050:1 
0.5 1093:1 1094:1 
0.5 1050:1 
0.5 1050:1 
0.5 1050:1 
0.5 18:1 144:1 761:1 1050:1 1101:1 
0.5 787:1 
0.5 1106:1 
0.5 1050:1 
0.1426693576432968 480:1 495:1 1050:1 1108:1 
0.5 578:1 580:1 1115:1 1116:1 
0.5 1050:1 
0.5 578:1 580:1 1115:1 1116:1 
0.5 925:1 1120:1 
0.5 147:1 233:1 
0.1848871964348779 558:1 1125:1 
0.4831472158633277 17:1 38:1 46:1 236:1 402:1 1129:1 1132:1 1133:1 
0.5 11:1 12:1 107:1 236:1 347:1 1134:1 1135:1 1136:1 1137:1 1138:1 1139:1 
0.1840126962021538 558:1 
0.5 558:1 
0.5 558:1 
0.5 1146:1 
0.5 558:1 
0.5 558:1 
0.5 558:1 
0.5 363:1 1148:1 
0.5 558:1 
0.5 558:1 
0.5 558:1 
0.5 113:1 395:1 1152:1 1153:1 
0.5 48:1 137:1 492:1 511:1 983:1 1154:1 1155:1 
0.5 558:1 
0.5 57:1 
0.5 27:1 71:1 590:1 678:1 736:1 1062:1 1063:1 1159:1 
0.5 224:1 264:1 587:1 608:1 826:1 1003:1 1160:1 
0.5 11:1 45:1 194:1 197:1 320:1 558:1 1170:1 
0.5 10:1 11:1 228:1 229:1 
0.5 558:1 
0.5 558:1 
0.5 34:1 276:1 558:1 882:1 
0.5 558:1 
0.4326083703934905 38:1 558:1 589:1 1172:1 
0.5 422:1 614:1 
0.5 558:1 
0.5 558:1 
0.5 558:1 
0.5 558:1 
0.5 558:1 
0.5 558:1 
0.5 47:1 70:1 1179:1 1180:1 
0.5 558:1 
0.5 558:1 
0.5 558:1 
0.5 18:1 22:1 23:1 558:1 
0.5 18:1 22:1 23:1 223:1 1183:1 1184:1 
0.5 416:1 512:1 1055:1 1195:1 
0.5 1200:1 
0.5 1205:1 
0.5 369:1 472:1 744:1 1206:1 1207:1 1208:1 
0.5 10:1 11:1 475:1 
0.5 53:1 169:1 
0.5 1226:1 
0.5 1236:1 1237:1 
0.5 222:1 223:1 229:1 1246:1 1247:1 
0.5 600:1 755:1 756:1 1251:1 1252:1 
0.5 11:1 175:1 228:1 229:1 1253:1 
0.5 779:1 1254:1 1255:1 
0.5 243:1 252:1 253:1 736:1 1257:1 
0.5 1262:1 
0.5 228:1 229:1 649:1 1267:1 
0.5 1106:1 
0.3202662886923494 107:1 390:1 590:1 
0.3319497212050638 6:1 27:1 45:1 275:1 340:1 1223:1 1290:1 1291:1 
0.5 630:1 1023:1 1293:1 1294:1 
0.5 110:1 422:1 614:1 1298:1 
0.5 395:1 481:1 561:1 900:1 
0.5 22:1 23:1 535:1 1119:1 1183:1 
0.5 45:1 46:1 165:1 385:1 680:1 1290:1 
0.5 68:1 957:1 1303:1 
0.5 153:1 1305:1 
0.5 50:1 184:1 
0.5 153:1 288:1 755:1 756:1 1307:1 1308:1 
0.5 313:1 1241:1 
0.5 61:1 747:1 
0.5 45:1 67:1 668:1 1290:1 1310:1 1311:1 1312:1 1313:1 1314:1 
0.5 1290:1 1311:1 
0.5 420:1 1290:1 1311:1 1315:1 1316:1 1317:1 1318:1 1319:1 
0.1862903807912375 1290:1 1310:1 1311:1 
0.1478232407469565 68:1 668:1 674:1 1335:1 1336:1 1337:1 
0.3287879928824072 64:1 146:1 185:1 935:1 
0.5 561:1 1331:1 
0.5 107:1 561:1 
0.5 45:1 84:1 1241:1 
0.5 170:1 573:1 1357:1 1358:1 1359:1 
0.5 170:1 744:1 1358:1 1359:1 
0.5 1368:1 
0.5 147:1 302:1 727:1 731:1 1247:1 1372:1 1374:1 1375:1 1376:1 
0.0366021633532909 573:1 997:1 1366:1 1380:1 1381:1 1382:1 1383:1 1384:1 
0.5 241:1 690:1 1000:1 1309:1 1379:1 1385:1 1386:1 1387:1 
0.5 53:1 169:1 
0.5 71:1 79:1 107:1 317:1 544:1 
0.476879126247099 1174:1 1397:1 1398:1 
0.09904264382018046 234:1 1236:1 1331:1 1405:1 
0.4067425940858506 135:1 437:1 573:1 1406:1 
0.5 321:1 1290:1 
0.5 48:1 258:1 761:1 1120:1 1408:1 
0.5 205:1 396:1 900:1 1415:1 
0.5 71:1 72:1 184:1 1422:1 
0.5 234:1 1430:1 1431:1 1432:1 1433:1 
0.2577484412798206 312:1 599:1 660:1 797:1 812:1 1434:1 
0.5 10:1 11:1 12:1 
0.2236975472288042 173:1 599:1 
0.269604003565579 28:1 34:1 36:1 178:1 374:1 511:1 819:1 1298:1 1436:1 
0.5 966:1 1440:1 
0.5 394:1 1433:1 
0.4513007868151676 202:1 1442:1 1443:1 
0.3010254697325183 67:1 84:1 229:1 622:1 1421:1 1447:1 
0.5 800:1 918:1 
0.5 1029:1 
0.5 217:1 1453:1 1454:1 1455:1 
0.05493793269117588 812:1 1459:1 1460:1 
0.5 217:1 228:1 340:1 431:1 
0.5 448:1 1314:1 1461:1 
0.5 1463:1 1464:1 1465:1 
0.03408479423506418 14:1 783:1 1028:1 1347:1 1468:1 1469:1 1470:1 
0.4999214498100031 184:1 280:1 622:1 1190:1 1420:1 
0.5 53:1 169:1 
0.5 361:1 768:1 1475:1 1476:1 
0.07507986796214758 194:1 
0.5 537:1 761:1 932:1 
0.5 127:1 176:1 458:1 639:1 1045:1 1480:1 
0.5 537:1 761:1 932:1 
0.07089055832643425 1483:1 
0.5 10:1 11:1 88:1 517:1 915:1 
0.5 1503:1 
0.5 59:1 406:1 458:1 
0.5 1513:1 
0.5 84:1 437:1 1149:1 1514:1 1515:1 1516:1 
0.5 1521:1 
0.5 10:1 11:1 228:1 229:1 475:1 
0.5 35:1 184:1 458:1 778:1 1114:1 1527:1 
0.5 71:1 
0.5 448:1 517:1 1530:1 1531:1 
0.1132070387298998 7:1 1522:1 
0.5 153:1 1522:1 1535:1 
0.5 7:1 94:1 1522:1 
0.5 311:1 614:1 1177:1 1540:1 1541:1 
0.5 107:1 648:1 649:1 1425:1 1546:1 
0.5 639:1 1320:1 
0.5 6:1 11:1 350:1 578:1 1043:1 1557:1 
0.5 16:1 22:1 23:1 24:1 1484:1 
0.5 103:1 336:1 337:1 448:1 710:1 1566:1 
0.5 372:1 1115:1 1567:1 1568:1 1569:1 1570:1 
0.5 156:1 1578:1 1579:1 1580:1 
0.5 11:1 884:1 1583:1 1584:1 
0.5 11:1 72:1 228:1 229:1 
0.4671027045219529 276:1 
0.5 11:1 19:1 72:1 
0.5 133:1 151:1 372:1 1569:1 1575:1 1613:1 1614:1 
0.5 326:1 689:1 
0.5 544:1 
0.5 22:1 23:1 1119:1 1620:1 
0.5 184:1 477:1 1195:1 
0.5 496:1 710:1 1610:1 
0.5 53:1 236:1 416:1 437:1 1351:1 1610:1 1630:1 1631:1 1632:1 
0.5 69:1 153:1 451:1 1307:1 1454:1 
0.5 416:1 512:1 600:1 1545:1 
0.5 175:1 216:1 439:1 873:1 1645:1 1646:1 
0.5 66:1 369:1 726:1 973:1 1003:1 1055:1 1583:1 1647:1 
0.2642872942034161 27:1 84:1 590:1 736:1 744:1 1210:1 1384:1 1651:1 
0.5 53:1 169:1 
0.5 84:1 328:1 1610:1 1653:1 
0.5 11:1 1654:1 
0.5 343:1 589:1 1653:1 1655:1 
0.5 113:1 153:1 314:1 494:1 614:1 882:1 1610:1 1658:1 
0.2685661817454235 1610:1 
0.5 1610:1 
0.5 167:1 422:1 499:1 
0.5 1610:1 
0.5 1610:1 
0.5 1610:1 
0.5 98:1 125:1 1666:1 
0.5 233:1 1667:1 
0.5 153:1 234:1 836:1 
0.5 53:1 
0.5 1675:1 
0.5 363:1 
0.5 107:1 
0.5 1106:1 1684:1 
0.5 53:1 169:1 
0.5 68:1 165:1 284:1 1694:1 1695:1 1696:1 
0.5 22:1 23:1 475:1 1117:1 1667:1 
0.3758632180403455 807:1 937:1 1697:1 1698:1 
0.5 1023:1 1702:1 
0.1939575488391739 138:1 1704:1 
0.5 18:1 22:1 23:1 1667:1 
0.273447093822626 38:1 283:1 1713:1 1716:1 1720:1 1722:1 1723:1 
0.5 1728:1 1729:1 1730:1 1731:1 1732:1 
0.5 527:1 
0.5 576:1 791:1 1599:1 
0.5 527:1 
0.5 1738:1 1739:1 1740:1 
0.5 288:1 720:1 1290:1 1435:1 1744:1 
0.3798485738604931 34:1 267:1 717:1 1228:1 1480:1 1745:1 
0.05284234462544937 537:1 1738:1 
0.5 1610:1 
0.1913888652647986 135:1 1738:1 1749:1 
0.1154696739261176 241:1 304:1 604:1 744:1 1645:1 1760:1 
0.5 508:1 1205:1 
0.5 265:1 304:1 305:1 492:1 744:1 1645:1 1706:1 1761:1 1762:1 
0.5 53:1 169:1 
0.5 791:1 
0.5 1775:1 
0.1079934058480927 633:1 668:1 882:1 1320:1 1397:1 1435:1 
0.5 103:1 107:1 
0.4999063491420481 103:1 340:1 512:1 670:1 1600:1 
0.5 103:1 340:1 648:1 649:1 884:1 1028:1 1387:1 1781:1 
0.5 103:1 107:1 519:1 520:1 625:1 652:1 1029:1 1030:1 1079:1 
0.5 1784:1 1785:1 1786:1 
0.07236035563906569 13:1 71:1 147:1 382:1 1457:1 1791:1 1793:1 1794:1 
0.5 153:1 1108:1 1150:1 
0.5 64:1 147:1 223:1 252:1 434:1 710:1 1216:1 1803:1 
0.2008127061956178 10:1 11:1 228:1 475:1 
0.5 276:1 882:1 1791:1 
0.5 27:1 167:1 373:1 1004:1 1074:1 1303:1 1817:1 1818:1 
0.5 1824:1 
0.5 79:1 313:1 1791:1 
0.2211520336357737 107:1 1032:1 1791:1 
0.5 1831:1 1832:1 1833:1 1834:1 1835:1 1836:1 1837:1 1838:1 
0.5 330:1 802:1 1004:1 1847:1 
0.2589613311907166 144:1 496:1 1296:1 1853:1 1854:1 1855:1 
0.4894024244927864 881:1 
0.5 883:1 
0.5 955:1 
0.5 288:1 631:1 
0.5 135:1 416:1 458:1 1856:1 1866:1 1867:1 
0.0176776809000748 746:1 1657:1 1874:1 
0.4694941922241745 10:1 11:1 475:1 1876:1 
0.3970550709701721 113:1 153:1 422:1 494:1 614:1 
0.4796124224228651 1088:1 1238:1 
0.5 194:1 
0.005144837230098081 668:1 761:1 
0.5 153:1 652:1 
0.5 82:1 103:1 120:1 175:1 176:1 648:1 649:1 652:1 
0.5 848:1 
0.5 57:1 120:1 652:1 1905:1 
0.5 222:1 651:1 652:1 1906:1 1907:1 
0.5 777:1 1917:1 
0.5 147:1 561:1 1351:1 
0.5 1921:1 
0.1848624214389173 64:1 176:1 223:1 439:1 918:1 1040:1 1937:1 1938:1 
0.5 228:1 229:1 590:1 1944:1 
0.5 1948:1 1949:1 1950:1 1951:1 1952:1 1953:1 1954:1 1955:1 1956:1 1957:1 1958:1 1959:1 1960:1 
0.5 107:1 1961:1 
0.3274318533935387 897:1 1962:1 
0.4575886218758743 1917:1 
0.5 313:1 1474:1 1772:1 1917:1 
0.5 52:1 153:1 384:1 
0.03158644607892079 18:1 19:1 22:1 23:1 169:1 
0.5 1917:1 
0.5 1917:1 
0.5 1917:1 
0.3880674669640055 1917:1 
0.5 103:1 474:1 1038:1 1054:1 1253:1 1785:1 1992:1 1993:1 1994:1 
0.2436318026981176 103:1 107:1 122:1 656:1 1552:1 1997:1 1998:1 
0.5 10:1 11:1 12:1 1256:1 1999:1 
0.5 521:1 
0.5 1568:1 
0.5 234:1 544:1 
0.5 2000:1 
0.5 229:1 350:1 1290:1 1313:1 
0.5 1:1 27:1 44:1 668:1 
0.5 10:1 11:1 12:1 172:1 
0.5 2000:1 
0.5 710:1 2005:1 2006:1 2007:1 
0.5 384:1 2011:1 
0.5 147:1 1440:1 2016:1 
0.5 1146:1 
0.5 10:1 11:1 67:1 1256:1 
0.5 10:1 11:1 12:1 
0.5 198:1 223:1 437:1 1070:1 1149:1 1755:1 2024:1 2025:1 
0.5 254:1 
0.07193088468249062 264:1 437:1 1571:1 2037:1 2038:1 
0.1612297743922553 27:1 223:1 227:1 437:1 725:1 1137:1 1939:1 2029:1 2039:1 
0.5 492:1 604:1 1144:1 2025:1 2041:1 2042:1 
0.5 668:1 
0.5 276:1 
0.5 229:1 897:1 
0.5 10:1 11:1 12:1 181:1 484:1 1891:1 
0.5 2055:1 
0.1675967660079278 2:1 326:1 2056:1 
0.5 275:1 507:1 
0.5 18:1 46:1 259:1 322:1 356:1 
0.5 103:1 512:1 2060:1 
0.5 103:1 340:1 529:1 648:1 649:1 884:1 1090:1 1387:1 1600:1 
0.4077327872108407 38:1 103:1 107:1 518:1 519:1 520:1 625:1 885:1 1029:1 1079:1 2067:1 
0.5 10:1 11:1 12:1 795:1 
0.5 791:1 
0.5 791:1 
0.5 10:1 11:1 12:1 22:1 23:1 24:1 184:1 275:1 277:1 535:1 
0.4772472548975299 344:1 422:1 614:1 2072:1 
0.00957167368378352 153:1 165:1 183:1 873:1 2071:1 2078:1 
0.5 68:1 84:1 167:1 2079:1 2080:1 2081:1 
0.5 68:1 84:1 167:1 2079:1 2080:1 2081:1 
0.1801289807717387 2083:1 
0.1704000072503646 967:1 2087:1 2088:1 
0.5 62:1 77:1 1307:1 1983:1 
0.5 40:1 293:1 378:1 985:1 1327:1 2006:1 2089:1 2090:1 
0.5 356:1 1568:1 
0.5 1568:1 
0.5 107:1 439:1 2093:1 
0.5 68:1 107:1 122:1 439:1 576:1 2114:1 
0.5 59:1 107:1 1074:1 1961:1 
0.4636391337681053 104:1 819:1 1038:1 2115:1 
0.2374286093678168 2116:1 
0.5 1568:1 
0.5 658:1 2125:1 
0.0958074280519836 2136:1 
0.5 217:1 
0.5 793:1 1055:1 
0.5 27:1 57:1 170:1 435:1 736:1 2144:1 2147:1 
0.5 262:1 512:1 727:1 1073:1 1108:1 1168:1 2144:1 2151:1 
0.5 186:1 229:1 
0.5 53:1 169:1 
0.5 53:1 169:1 
0.4965945891771296 326:1 
0.5 567:1 590:1 2162:1 2163:1 
0.5 184:1 710:1 2164:1 
0.5 61:1 1475:1 
0.5 53:1 107:1 
0.5 170:1 612:1 1603:1 
0.5 654:1 
0.2284508747342772 736:1 2161:1 
0.5 57:1 512:1 1028:1 2170:1 2171:1 2172:1 
0.5 38:1 620:1 621:1 1032:1 
0.4442432673271912 107:1 390:1 590:1 
0.1136626276671861 2162:1 
0.5 11:1 202:1 2178:1 
0.5 544:1 2162:1 
0.192615052900892 1556:1 2182:1 2183:1 
0.5 299:1 2184:1 
0.5 1080:1 2185:1 2186:1 
0.3872209339946162 304:1 2187:1 
0.5 8:1 34:1 717:1 1290:1 1313:1 2190:1 2191:1 
0.5 326:1 
0.5 2162:1 
0.5 2162:1 
0.2536101594356981 1181:1 
0.4766225337922218 2162:1 
0.5 59:1 983:1 2198:1 
0.5 102:1 616:1 817:1 1454:1 
0.5 77:1 
0.5 50:1 2201:1 
0.5 1004:1 2202:1 
0.5 1316:1 1333:1 2205:1 
0.5 77:1 
0.5 77:1 
0.5 77:1 
0.05827299446722228 806:1 2181:1 
0.5 77:1 
0.5 77:1 84:1 
0.5 77:1 
0.5 77:1 
0.2395065146946732 233:1 1353:1 2210:1 
0.1842990294468604 67:1 
0.2363227425506411 66:1 346:1 857:1 1573:1 2211:1 2212:1 
0.5 77:1 
0.5 67:1 
0.5 2019:1 2210:1 
0.3724686380889166 338:1 339:1 513:1 1488:1 2220:1 
0.5 67:1 
0.5 747:1 
0.5 43:1 227:1 573:1 744:1 894:1 2221:1 
0.5 216:1 451:1 974:1 
0.2647895762406387 2224:1 
0.5 2227:1 
0.5 147:1 170:1 455:1 735:1 736:1 1763:1 
0.5 67:1 1859:1 
0.5 53:1 169:1 
0.5 53:1 169:1 
0.5 326:1 
0.05641508319225293 1240:1 
0.5 391:1 2235:1 
0.5 107:1 527:1 1195:1 
0.1523373509369678 184:1 710:1 1190:1 1195:1 1614:1 1897:1 2239:1 2240:1 2241:1 2242:1 
0.5 194:1 237:1 422:1 614:1 1238:1 2193:1 
0.5 2252:1 
0.4985652026049237 234:1 496:1 544:1 
0.5 861:1 2014:1 2250:1 
0.4308253264218213 861:1 2014:1 2250:1 
0.3863850860959118 344:1 422:1 614:1 
0.5 555:1 793:1 
0.5 176:1 589:1 720:1 1032:1 
0.3206352085537629 79:1 264:1 265:1 640:1 1021:1 2270:1 
0.2818947880814392 76:1 223:1 437:1 645:1 1144:1 2037:1 2272:1 
0.5 2273:1 
0.2228846759033599 59:1 736:1 1132:1 
0.5 170:1 435:1 437:1 590:1 1149:1 2265:1 
0.5 67:1 
0.3375309635487987 69:1 153:1 288:1 350:1 555:1 
0.5 396:1 
0.4606782628438413 69:1 153:1 288:1 350:1 555:1 
0.5 326:1 555:1 
0.5 144:1 322:1 343:1 350:1 412:1 1307:1 1454:1 
0.5 2290:1 
0.5 273:1 343:1 409:1 412:1 1353:1 2289:1 2293:1 
0.5 429:1 2294:1 
0.2704732497783269 375:1 411:1 412:1 1307:1 1454:1 
0.3440703703103564 409:1 418:1 2289:1 2295:1 
0.5 2290:1 
0.5 103:1 600:1 935:1 1054:1 1055:1 1785:1 1900:1 1992:1 2300:1 
0.5 873:1 2231:1 
0.5 67:1 
0.5 873:1 2231:1 
0.5 2306:1 
0.2960026408646648 79:1 703:1 1897:1 
0.2328000895938422 113:1 
0.5 67:1 
0.5 226:1 1339:1 2323:1 
0.5 576:1 744:1 
0.2608872515556487 918:1 
0.5 2325:1 2326:1 
0.06067272929131844 246:1 471:1 472:1 974:1 1227:1 
0.250002517830682 84:1 147:1 170:1 246:1 1002:1 1227:1 2335:1 
0.5 53:1 169:1 
0.5 53:1 169:1 
0.1999661807324685 79:1 504:1 2231:1 
0.5 326:1 
0.05656148903485664 137:1 153:1 1425:1 2231:1 2346:1 
0.5 435:1 630:1 1293:1 1322:1 1394:1 2000:1 
0.5 102:1 135:1 
0.3252892421402683 68:1 2348:1 2349:1 
0.5 151:1 
0.5 153:1 278:1 2353:1 2354:1 
0.5 67:1 
0.494696777072534 66:1 343:1 843:1 1558:1 2366:1 2367:1 
0.5 27:1 736:1 
0.4054812929913639 590:1 736:1 972:1 1384:1 2372:1 2373:1 
0.5 956:1 1683:1 
0.5 107:1 229:1 521:1 2377:1 
0.1885399059127613 133:1 476:1 633:1 757:1 2098:1 2378:1 
0.2381398873313596 151:1 1560:1 1896:1 
0.3759766046505753 323:1 350:1 578:1 1119:1 
0.5 103:1 104:1 651:1 652:1 
0.5 103:1 
0.5 194:1 
0.5 71:1 103:1 153:1 206:1 475:1 512:1 651:1 652:1 2390:1 
0.3037006688364762 103:1 170:1 435:1 593:1 2273:1 2391:1 2392:1 
0.5 71:1 103:1 
0.5 120:1 264:1 651:1 652:1 744:1 1367:1 2393:1 
0.5 63:1 103:1 340:1 612:1 1079:1 2394:1 
0.5 27:1 61:1 2396:1 2397:1 
0.5 44:1 103:1 453:1 
0.03129756723170467 1058:1 1059:1 2403:1 
0.4126670183688718 229:1 462:1 
0.1535087154067028 170:1 744:1 1210:1 2412:1 
0.5 1655:1 2307:1 2399:1 2415:1 
0.5 53:1 169:1 
0.5 67:1 
0.5 699:1 
0.5 1655:1 2307:1 2399:1 2415:1 
0.5 53:1 169:1 
0.5 67:1 
0.5 107:1 2417:1 2418:1 
0.5 326:1 
0.5 273:1 635:1 1491:1 2422:1 
0.5 544:1 660:1 
0.5 1124:1 2427:1 2428:1 
0.5 396:1 544:1 
0.0018145163054936 1115:1 
0.5 234:1 322:1 496:1 
0.5 67:1 
0.05377794431630294 124:1 175:1 527:1 528:1 531:1 2433:1 2434:1 2435:1 2436:1 2437:1 2438:1 2439:1 2440:1 
0.5 34:1 458:1 900:1 2441:1 
0.5 84:1 401:1 
0.2994846333782666 68:1 176:1 401:1 2443:1 
0.4094610674681387 275:1 853:1 2417:1 2418:1 2444:1 
0.5 745:1 1606:1 2078:1 2456:1 
0.5 745:1 1606:1 2078:1 2456:1 
0.5 48:1 49:1 137:1 1491:1 2042:1 
0.5 883:1 
0.5 955:1 
0.5 63:1 460:1 2042:1 
0.5 27:1 2457:1 
0.5 68:1 104:1 2458:1 
0.5 68:1 104:1 2458:1 
0.5 137:1 184:1 2175:1 2461:1 
0.2210176569627981 107:1 1074:1 2255:1 
0.5 107:1 135:1 576:1 
0.4562834313803228 2463:1 2464:1 
0.5 2468:1 
0.06453966140068462 1058:1 
0.472003611227234 107:1 625:1 2101:1 
0.5 908:1 
0.5 2488:1 2489:1 
0.5 77:1 120:1 122:1 474:1 1809:1 2483:1 2490:1 2491:1 
0.5 107:1 
0.5 27:1 77:1 161:1 2490:1 
0.5 68:1 107:1 527:1 824:1 
0.5 768:1 
0.1751956408797904 229:1 2506:1 2507:1 
0.06212475762897431 133:1 1324:1 1435:1 
0.05443598657949286 2519:1 
0.2765833192867669 174:1 
0.5 2520:1 
0.5 641:1 736:1 2521:1 2522:1 2523:1 
0.5 61:1 64:1 80:1 1544:1 1881:1 1882:1 2528:1 
0.1849409310969106 658:1 966:1 
0.5 348:1 375:1 487:1 614:1 1294:1 
0.5 46:1 60:1 165:1 747:1 
0.5 2533:1 
0.5 67:1 
0.5 561:1 
0.5 67:1 
0.5 153:1 529:1 2413:1 2537:1 
0.4604804611664271 509:1 1446:1 
0.5 509:1 1446:1 
0.5 184:1 
0.5 71:1 
0.5 720:1 1872:1 2454:1 
0.5 2546:1 2547:1 
0.3999358168039155 276:1 2532:1 
0.5 137:1 153:1 525:1 
0.3841696571905581 1860:1 
0.5 44:1 1860:1 
0.5 326:1 
0.5 422:1 
0.5 658:1 2532:1 
0.5 71:1 197:1 1130:1 1133:1 1479:1 2550:1 
0.4816653671803048 1860:1 
0.5 2553:1 2554:1 2555:1 
0.5 44:1 1860:1 
0.5 321:1 2532:1 
0.5 915:1 1860:1 2558:1 
0.5 437:1 458:1 978:1 2292:1 
0.5 34:1 153:1 985:1 1088:1 
0.5 67:1 
0.02344035248189365 978:1 1307:1 1454:1 2292:1 
0.5 229:1 462:1 
0.3960700037571331 222:1 874:1 1810:1 2583:1 
0.06754150321033349 2589:1 
0.5 53:1 169:1 
0.5 184:1 1929:1 2377:1 
0.5 147:1 561:1 
0.5 326:1 
0.5 107:1 284:1 529:1 777:1 
0.5 18:1 22:1 23:1 133:1 321:1 800:1 2563:1 
0.5 67:1 
0.5 2042:1 
0.5 233:1 447:1 1016:1 
0.5 229:1 631:1 2601:1 
0.5 16:1 147:1 153:1 1218:1 2042:1 
0.4986406995454151 67:1 
0.2703566365409275 2601:1 
0.5 2601:1 
0.5 2601:1 
0.5 2601:1 
0.5 2601:1 
0.5 202:1 409:1 2149:1 2619:1 
0.5 323:1 932:1 
0.5 1179:1 2626:1 2628:1 2629:1 
0.5 339:1 1179:1 2626:1 2628:1 
0.5 107:1 1326:1 2628:1 
0.3000499596727325 97:1 153:1 217:1 589:1 2143:1 2628:1 2631:1 2665:1 2666:1 
0.03474668841672676 271:1 604:1 1070:1 2161:1 2527:1 2626:1 2629:1 2667:1 2668:1 
0.1498571312565146 184:1 292:1 343:1 1282:1 1955:1 2625:1 2626:1 2628:1 
0.5 269:1 606:1 1236:1 1994:1 2619:1 2695:1 2702:1 
0.1548363600232615 678:1 736:1 744:1 972:1 996:1 2205:1 2695:1 2710:1 
0.5 79:1 2695:1 
0.5 561:1 
0.5 561:1 
0.01984391744120525 2791:1 
0.5 59:1 458:1 589:1 900:1 1143:1 1995:1 2216:1 2612:1 2646:1 2647:1 2798:1 
0.5 223:1 224:1 225:1 439:1 458:1 852:1 989:1 1143:1 1762:1 2842:1 2843:1 
0.5 147:1 573:1 593:1 1046:1 1143:1 2722:1 2847:1 2848:1 2849:1 2850:1 
0.5 102:1 451:1 710:1 827:1 900:1 1006:1 1007:1 1945:1 2862:1 2863:1 
0.3042574360504029 57:1 64:1 458:1 459:1 593:1 610:1 975:1 980:1 2798:1 2864:1 
0.5 138:1 458:1 606:1 610:1 2833:1 2872:1 
0.5 79:1 1045:1 
0.32037856416623 2798:1 
0.5 2798:1 
0.5 107:1 311:1 
0.3401602045652599 320:1 416:1 509:1 510:1 590:1 1212:1 1416:1 
0.2137540743136538 2797:1 
0.4663623991894673 2797:1 
0.4875826244879165 355:1 531:1 2886:1 
0.5 561:1 1904:1 
0.3284065191384556 2888:1 
0.5 19:1 22:1 23:1 2692:1 
0.5 1119:1 2955:1 
0.2968331875474862 56:1 57:1 63:1 131:1 223:1 439:1 458:1 1645:1 2061:1 2816:1 2856:1 2967:1 2978:1 3013:1 
0.5 58:1 121:1 232:1 557:1 1364:1 1522:1 1944:1 2676:1 2967:1 
0.3012222891664592 84:1 3033:1 
0.03601387003010609 11:1 1435:1 3034:1 3035:1 3036:1 
0.1593922296800642 176:1 223:1 720:1 736:1 1032:1 3038:1 3057:1 3058:1 3059:1 3060:1 
0.04479851521392738 170:1 457:1 758:1 2395:1 2812:1 3047:1 3059:1 3061:1 3062:1 3063:1 
0.4734102493734542 213:1 214:1 1070:1 2294:1 2395:1 3071:1 
0.5 620:1 621:1 3094:1 
0.3585713584189525 135:1 
0.5 561:1 1131:1 
0.5 71:1 104:1 1131:1 
0.5 161:1 589:1 590:1 1073:1 1131:1 3098:1 
0.320200214282196 437:1 1131:1 1932:1 2816:1 2833:1 3102:1 
0.5 57:1 223:1 271:1 308:1 477:1 1131:1 1645:1 1760:1 
0.3719442610723896 206:1 458:1 610:1 670:1 873:1 1063:1 2670:1 2833:1 2872:1 3118:1 
0.3952381873823681 1131:1 1226:1 1460:1 2248:1 2719:1 2833:1 2872:1 
0.4582845974952734 119:1 264:1 303:1 989:1 1131:1 1383:1 2816:1 2939:1 3112:1 
0.5 71:1 1131:1 3127:1 
0.5 19:1 71:1 1131:1 
0.5 34:1 107:1 1131:1 1706:1 
0.5 11:1 107:1 
0.5 61:1 370:1 
0.5 27:1 45:1 680:1 3137:1 
0.4019422973002702 234:1 3182:1 
0.5 165:1 
0.3922805939837889 511:1 
0.5 119:1 525:1 3186:1 3201:1 3202:1 3203:1 3204:1 
0.5 736:1 
0.5 736:1 744:1 1159:1 2541:1 3227:1 3228:1 3229:1 
0.5 3236:1 
0.5 434:1 2702:1 2719:1 
0.5 13:1 56:1 416:1 451:1 752:1 753:1 1846:1 1945:1 
0.5 525:1 
0.5 525:1 
0.125024390396323 22:1 23:1 183:1 2692:1 
0.5 6:1 68:1 640:1 672:1 822:1 900:1 2238:1 3261:1 3262:1 3263:1 
0.5 372:1 480:1 1904:1 2104:1 3087:1 
0.5 94:1 336:1 448:1 501:1 526:1 555:1 710:1 1522:1 3008:1 
0.5 1349:1 
0.5 2576:1 3101:1 3270:1 
0.5 79:1 2274:1 
0.4719101644784433 1179:1 3271:1 
0.1797006401526947 57:1 588:1 1099:1 2276:1 
0.04465261527054077 555:1 
0.5 555:1 
0.5 176:1 531:1 720:1 
0.2488729198055397 555:1 557:1 793:1 
0.1071894086996884 451:1 555:1 2785:1 3267:1 3279:1 3280:1 
0.2203273432557473 465:1 573:1 852:1 970:1 1811:1 1820:1 2707:1 3267:1 3284:1 
0.5 57:1 458:1 573:1 610:1 990:1 1143:1 1228:1 1811:1 3072:1 3292:1 
0.38203471286565 370:1 458:1 490:1 1073:1 1511:1 2719:1 2982:1 2997:1 3295:1 
0.5 57:1 261:1 604:1 744:1 1207:1 1878:1 2070:1 2276:1 3029:1 3030:1 3267:1 
0.1209717511503246 170:1 222:1 223:1 264:1 1159:1 1645:1 1793:1 3167:1 3267:1 
0.5 55:1 107:1 184:1 609:1 657:1 1178:1 1332:1 1458:1 3313:1 3314:1 
0.5 107:1 118:1 311:1 336:1 555:1 793:1 1529:1 2078:1 3267:1 
0.1551902533501682 44:1 988:1 1010:1 1113:1 1226:1 2724:1 2802:1 2834:1 2874:1 3331:1 
0.5 68:1 401:1 496:1 
0.5 13:1 165:1 222:1 273:1 274:1 689:1 
0.5 317:1 529:1 951:1 1792:1 1849:1 2245:1 
0.5 223:1 225:1 727:1 2040:1 3352:1 3360:1 3368:1 
0.0290206831157851 170:1 435:1 437:1 736:1 996:1 1518:1 2372:1 3352:1 3389:1 
0.5 57:1 225:1 458:1 670:1 826:1 2933:1 3019:1 3352:1 3363:1 3366:1 3392:1 
0.1228647951906834 305:1 332:1 600:1 1137:1 2572:1 2595:1 2665:1 3401:1 3402:1 
0.5 1827:1 
0.5 59:1 458:1 557:1 589:1 3426:1 
0.3831979198183616 55:1 107:1 138:1 609:1 657:1 1006:1 1007:1 1332:1 1458:1 3313:1 3314:1 
0.5 107:1 133:1 169:1 413:1 529:1 1007:1 2786:1 
0.02286398365028178 82:1 97:1 184:1 602:1 1388:1 2595:1 2628:1 2639:1 2909:1 3453:1 3454:1 
0.4712136075589298 261:1 340:1 812:1 1108:1 1166:1 2646:1 2647:1 3456:1 3457:1 3458:1 
0.3528204987631179 561:1 649:1 667:1 2931:1 3471:1 3472:1 3473:1 3474:1 3475:1 
0.4735762842020344 355:1 531:1 
0.4089196473688936 94:1 336:1 453:1 555:1 625:1 710:1 1006:1 1007:1 1522:1 3335:1 
0.5 47:1 184:1 336:1 555:1 689:1 710:1 793:1 1087:1 3335:1 
0.5 521:1 
0.1113285602250865 47:1 184:1 778:1 1006:1 1007:1 3335:1 3507:1 
0.5 512:1 540:1 710:1 1006:1 1087:1 2653:1 
0.09962119828414763 458:1 589:1 3007:1 3503:1 
0.5 153:1 533:1 1128:1 3503:1 
0.5 59:1 214:1 222:1 555:1 1961:1 2728:1 3167:1 3280:1 3503:1 3533:1 
0.5 79:1 3503:1 
0.5 355:1 531:1 
0.0305254611931179 153:1 
0.2837419284067329 6:1 1119:1 1471:1 2620:1 
0.5 50:1 341:1 409:1 
0.03696434093935861 137:1 217:1 275:1 507:1 1322:1 
0.2244740134592751 66:1 310:1 401:1 3342:1 
0.5 165:1 
0.5 22:1 23:1 107:1 531:1 1131:1 1624:1 2692:1 3567:1 3568:1 
0.5 11:1 12:1 19:1 22:1 23:1 231:1 712:1 1131:1 2687:1 2692:1 
0.4621799065140182 45:1 71:1 120:1 589:1 970:1 1131:1 1258:1 3098:1 3577:1 
0.5 1055:1 1131:1 1393:1 
0.5 458:1 589:1 1131:1 2612:1 
0.5 736:1 1131:1 
0.0574387082587863 512:1 1131:1 1137:1 2653:1 2656:1 2941:1 
0.1926934511067707 170:1 223:1 435:1 736:1 744:1 996:1 1884:1 2035:1 2726:1 3093:1 
0.1714028956164966 10:1 11:1 228:1 1131:1 2612:1 
0.5 1849:1 3606:1 
0.5 19:1 229:1 1131:1 
0.5 113:1 
0.5 153:1 1409:1 1472:1 
0.5 53:1 153:1 417:1 726:1 1055:1 
0.5 294:1 805:1 807:1 2692:1 3068:1 
0.5 45:1 46:1 51:1 137:1 328:1 900:1 1310:1 
0.5 561:1 
0.1110524308472645 217:1 589:1 1159:1 1450:1 2722:1 2785:1 3364:1 3655:1 3656:1 
0.5 63:1 79:1 452:1 593:1 612:1 1472:1 2141:1 3663:1 3664:1 
0.5 147:1 369:1 593:1 1215:1 2042:1 2372:1 2724:1 2865:1 3661:1 3674:1 
0.1506893805774041 170:1 458:1 610:1 736:1 843:1 990:1 3639:1 3651:1 3675:1 
0.2071795233457842 57:1 223:1 975:1 2719:1 3430:1 3639:1 
0.05244753773357673 444:1 783:1 979:1 1249:1 1469:1 1472:1 2612:1 2716:1 2950:1 3005:1 3639:1 
0.5 79:1 3639:1 
0.5 521:1 
0.5 793:1 1472:1 
0.03864171324001908 18:1 68:1 180:1 1085:1 2069:1 
0.5 18:1 22:1 23:1 2239:1 
0.01878731527383475 48:1 202:1 900:1 1687:1 2463:1 2611:1 3325:1 3689:1 
0.5 1349:1 
0.07890071613230878 13:1 137:1 222:1 241:1 525:1 1645:1 3222:1 3690:1 3702:1 
0.5 223:1 525:1 573:1 1378:1 2850:1 2942:1 3690:1 3707:1 
0.5 292:1 1475:1 
0.5 79:1 3690:1 
0.5 525:1 
0.3882359724987389 3559:1 3734:1 3738:1 
0.5 11:1 334:1 475:1 649:1 3739:1 
0.5 517:1 1576:1 
0.0214706228267184 218:1 340:1 557:1 857:1 1846:1 2197:1 3461:1 
0.2202238767810143 125:1 232:1 593:1 979:1 1346:1 3764:1 3765:1 
0.5 3770:1 
0.5 3777:1 
0.5 689:1 1657:1 
0.5 1430:1 
0.5 1119:1 
0.5 2798:1 
0.1265894740730814 57:1 223:1 477:1 588:1 1063:1 1387:1 1941:1 2412:1 
0.3679213865575442 217:1 902:1 2785:1 2798:1 3261:1 3287:1 3796:1 
0.5 458:1 589:1 2798:1 3007:1 
0.5 589:1 871:1 2785:1 2798:1 3798:1 
0.2677299874723782 876:1 1143:1 2164:1 2798:1 3109:1 3671:1 
0.3617427724686968 119:1 217:1 557:1 606:1 610:1 857:1 1159:1 2719:1 2798:1 
0.2779332595813583 57:1 124:1 243:1 458:1 1525:1 2634:1 2798:1 3399:1 3798:1 
0.5 214:1 589:1 876:1 1143:1 2720:1 3025:1 
0.5 57:1 222:1 573:1 588:1 640:1 995:1 1073:1 3798:1 
0.5 2798:1 
0.1706771845047721 416:1 463:1 2164:1 2634:1 2678:1 2798:1 3814:1 
0.5 232:1 557:1 2798:1 
0.0179198276167353 1108:1 1966:1 
0.5 84:1 205:1 1520:1 2798:1 
0.3740136708780207 1006:1 1007:1 1019:1 1788:1 2798:1 3241:1 3680:1 3817:1 
0.1034474591120344 361:1 366:1 1007:1 1491:1 1706:1 
0.06234051444060549 79:1 123:1 
0.5 107:1 122:1 562:1 710:1 1447:1 
0.5 167:1 288:1 900:1 2634:1 2989:1 
0.5 1447:1 
0.5 2798:1 
0.03885542729465274 57:1 64:1 223:1 451:1 873:1 1266:1 1625:1 1885:1 2628:1 2630:1 2645:1 3820:1 
0.5 119:1 184:1 521:1 1558:1 2628:1 2642:1 2748:1 2749:1 2767:1 3064:1 3065:1 3824:1 
0.1378811834856642 84:1 243:1 573:1 1207:1 2769:1 2950:1 3139:1 3140:1 3829:1 
0.5 521:1 
0.317675820057128 3839:1 
0.5 439:1 458:1 650:1 1332:1 3841:1 
0.5 890:1 1393:1 3841:1 
0.270646656895008 63:1 64:1 147:1 458:1 608:1 989:1 1431:1 2061:1 2658:1 
0.4913601016010195 223:1 227:1 587:1 610:1 1383:1 2393:1 2823:1 3067:1 3841:1 3869:1 
0.147039797341759 14:1 458:1 606:1 610:1 725:1 1169:1 1814:1 2082:1 3016:1 
0.1159237215773054 3876:1 
0.5 2295:1 3879:1 
0.03842228532849656 120:1 170:1 189:1 264:1 573:1 1646:1 1814:1 3038:1 3039:1 3073:1 3889:1 
0.5 19:1 22:1 23:1 2620:1 2687:1 2692:1 
0.5 43:1 557:1 819:1 1337:1 1560:1 1665:1 3905:1 3906:1 
0.1479515131745599 222:1 665:1 744:1 996:1 3912:1 3932:1 3933:1 
0.5 84:1 261:1 472:1 606:1 744:1 1159:1 1264:1 1878:1 3912:1 3931:1 3935:1 3936:1 
0.2173389805545361 217:1 1198:1 3470:1 3658:1 3912:1 3937:1 3938:1 3939:1 
0.05699394374759729 79:1 3912:1 
0.5 642:1 3554:1 
0.5 437:1 2894:1 
0.01116123151328049 104:1 288:1 3554:1 
0.5 599:1 
0.5 317:1 529:1 1177:1 1478:1 1809:1 3960:1 
0.5 561:1 
0.5 517:1 3962:1 
0.5 59:1 176:1 458:1 557:1 589:1 3962:1 
0.5 440:1 1751:1 2216:1 3962:1 
0.5 213:1 214:1 556:1 2692:1 3962:1 
0.05249889598517984 59:1 458:1 556:1 589:1 874:1 1591:1 1887:1 2216:1 3962:1 3964:1 
0.03873557096540137 369:1 436:1 670:1 990:1 1063:1 1143:1 1205:1 2807:1 2942:1 
0.5 229:1 3962:1 
0.5 1108:1 
0.5 11:1 19:1 72:1 3962:1 
0.1502543729766083 3962:1 
0.5 11:1 72:1 
0.498663520630816 3962:1 
0.03917557268335169 1711:1 4009:1 4010:1 
0.1909353607715251 68:1 137:1 350:1 789:1 4013:1 
0.5 133:1 555:1 710:1 757:1 793:1 1087:1 3136:1 3778:1 
0.03430063292661205 170:1 458:1 573:1 875:1 1545:1 2634:1 2942:1 3441:1 4017:1 4018:1 4028:1 4029:1 
0.3129784970074267 57:1 63:1 458:1 900:1 2646:1 2647:1 2950:1 3144:1 4032:1 
0.5 43:1 573:1 
0.4487142271662853 107:1 561:1 4036:1 
0.0001401647089696 369:1 557:1 561:1 730:1 2216:1 3631:1 4036:1 4050:1 4051:1 4052:1 
0.2142032479084349 57:1 223:1 417:1 437:1 1678:1 1683:1 1885:1 3516:1 4054:1 4055:1 4056:1 
0.1483204881433084 57:1 241:1 261:1 826:1 990:1 1003:1 2277:1 4061:1 
0.2285948156542945 233:1 589:1 1518:1 2216:1 2630:1 3038:1 3059:1 4075:1 
0.5 416:1 466:1 1740:1 1992:1 2328:1 3038:1 
0.1353853947174753 59:1 153:1 458:1 557:1 589:1 2630:1 2656:1 2754:1 2767:1 3038:1 
0.3532981640310048 170:1 845:1 1646:1 2630:1 2754:1 2786:1 2842:1 2942:1 
0.5 97:1 670:1 1055:1 2630:1 4086:1 
0.1462376787634932 1006:1 1007:1 
0.5 23:1 3170:1 4097:1 
0.5 165:1 
0.5 147:1 557:1 2222:1 
0.5 153:1 437:1 1151:1 
0.5 222:1 225:1 979:1 1073:1 2709:1 2924:1 2978:1 4122:1 
0.5 27:1 2430:1 2967:1 4125:1 
0.02549266316167659 79:1 1364:1 2967:1 
0.3001184801450755 16:1 133:1 
0.5 1522:1 
0.5 68:1 391:1 
0.5 44:1 1705:1 1820:1 2707:1 2903:1 2909:1 3167:1 3329:1 4139:1 
0.5 19:1 22:1 23:1 517:1 2620:1 2687:1 2692:1 
0.5 1349:1 
0.4963912400952623 509:1 1446:1 
0.409826880992591 1388:1 2639:1 3007:1 4153:1 
0.5 223:1 440:1 573:1 744:1 996:1 3096:1 4145:1 4159:1 
0.5 57:1 461:1 990:1 1073:1 1228:1 1642:1 1854:1 4145:1 4164:1 
0.3723338452153515 222:1 264:1 455:1 458:1 557:1 990:1 1258:1 1383:1 4145:1 4175:1 
0.5 57:1 241:1 243:1 330:1 437:1 458:1 988:1 989:1 1207:1 1940:1 4176:1 
0.3927815118344383 180:1 866:1 1828:1 
0.02060395473778932 124:1 170:1 223:1 241:1 343:1 458:1 1383:1 1645:1 1862:1 2719:1 2850:1 3381:1 4145:1 
0.2506053577378319 1624:1 1655:1 2612:1 3129:1 
0.5 507:1 1395:1 2245:1 
0.5 3090:1 3171:1 4181:1 
0.5 104:1 184:1 710:1 761:1 2164:1 4183:1 
0.5 641:1 1440:1 2529:1 2595:1 2735:1 2982:1 
0.04947181807123603 373:1 549:1 710:1 900:1 1206:1 4142:1 4143:1 4185:1 4186:1 4187:1 
0.327589471673762 124:1 137:1 343:1 758:1 935:1 1991:1 2151:1 2793:1 4203:1 
0.321784680894481 107:1 133:1 557:1 761:1 793:1 2378:1 4190:1 
0.1156601833675347 420:1 687:1 1074:1 1828:1 1829:1 1846:1 2687:1 2692:1 
0.5 19:1 22:1 23:1 517:1 2620:1 2687:1 2692:1 
0.5 165:1 180:1 866:1 1828:1 1829:1 1844:1 1845:1 1846:1 4211:1 
0.1268860520055677 48:1 1518:1 2619:1 
0.152433026241542 674:1 690:1 797:1 1409:1 1461:1 1894:1 2179:1 2239:1 3312:1 4212:1 
0.2561581354059094 104:1 690:1 3241:1 3398:1 3487:1 4214:1 
0.208084114647713 690:1 1376:1 1379:1 2753:1 4216:1 4218:1 4219:1 
0.5 1177:1 2042:1 2865:1 4216:1 4225:1 4239:1 
0.2959906436246822 1063:1 2735:1 
0.5 38:1 690:1 1359:1 1372:1 1379:1 4216:1 4219:1 4225:1 4227:1 4228:1 4234:1 4239:1 4247:1 4248:1 
0.5 313:1 
0.1380441283337362 524:1 1488:1 2258:1 2735:1 
0.5 690:1 
0.5 709:1 
0.1977792435230809 275:1 690:1 
0.5 391:1 882:1 
0.5 44:1 1913:1 
0.2160377080817915 690:1 3130:1 3184:1 4283:1 
0.09974398535665216 22:1 23:1 529:1 1624:1 2687:1 2692:1 
0.5 153:1 4296:1 
0.5 153:1 
0.5 84:1 1520:1 
0.5 543:1 4304:1 
0.5 153:1 
0.5 1119:1 
0.5 107:1 561:1 4306:1 
0.5 11:1 4306:1 
0.2235965003083346 643:1 1469:1 2021:1 2166:1 3130:1 3184:1 4069:1 4183:1 4290:1 
0.5 184:1 333:1 728:1 1530:1 1705:1 4311:1 
0.2489273145652905 392:1 458:1 758:1 1075:1 2724:1 4306:1 4321:1 
0.1935922603383133 66:1 606:1 610:1 988:1 1557:1 2719:1 2835:1 2869:1 4325:1 
0.5 43:1 222:1 573:1 606:1 995:1 3114:1 3595:1 4306:1 4312:1 
0.5 313:1 
0.5 113:1 
0.5 68:1 437:1 557:1 845:1 1003:1 1445:1 4038:1 4328:1 4339:1 4340:1 
0.07943976535225918 184:1 384:1 573:1 589:1 1169:1 3383:1 4038:1 4345:1 4347:1 
0.3098540439575894 27:1 68:1 165:1 524:1 780:1 996:1 2974:1 3043:1 
0.5 28:1 409:1 549:1 702:1 900:1 3177:1 4013:1 
0.5 153:1 509:1 1430:1 1446:1 2622:1 
0.5 153:1 1151:1 
0.1089110775417802 643:1 990:1 1469:1 1740:1 2328:1 3945:1 4366:1 4369:1 
0.05763551834302124 147:1 369:1 557:1 593:1 990:1 1209:1 2544:1 2722:1 2865:1 4371:1 
0.5 57:1 64:1 119:1 2001:1 4386:1 4387:1 4388:1 4389:1 4390:1 
0.1612563817037111 1252:1 1477:1 2702:1 4377:1 4378:1 4391:1 4392:1 4393:1 4394:1 
0.4057836302562697 119:1 1027:1 2130:1 3276:1 4386:1 4396:1 4397:1 
0.06093015559938141 4443:1 4444:1 4445:1 4446:1 4447:1 
0.3246758017081621 4464:1 4465:1 
0.03298602283941237 1169:1 2269:1 4477:1 
0.2151284074766491 646:1 694:1 1004:1 1253:1 4120:1 4461:1 4484:1 4505:1 4506:1 4507:1 4508:1 4509:1 
0.163952078727137 4517:1 
0.5 4522:1 
0.5 4524:1 
0.004396310442892615 4513:1 
0.08430786584361481 4525:1 
0.1242518921095079 4520:1 
0.1725871829120244 925:1 1585:1 4213:1 4404:1 4439:1 4538:1 
0.08271849701837228 355:1 
0.5 2613:1 3522:1 4546:1 
0.09554886892819636 2477:1 4510:1 4511:1 4555:1 
0.1731505696129419 416:1 957:1 2012:1 3036:1 4478:1 4487:1 4567:1 
0.5 904:1 4432:1 4573:1 4574:1 4575:1 
0.09254512216784574 4507:1 4509:1 4563:1 4614:1 4615:1 4616:1 
0.5 4620:1 
0.5 107:1 150:1 1054:1 
0.3099243595517597 4563:1 4614:1 4640:1 4641:1 4642:1 4643:1 
0.03831330561679849 607:1 761:1 2744:1 2885:1 3191:1 4634:1 4635:1 
0.2936056466710197 43:1 957:1 3850:1 4457:1 4515:1 4711:1 4712:1 4713:1 4714:1 4715:1 
0.5 53:1 323:1 2453:1 3470:1 4496:1 
0.1909704644678586 112:1 4479:1 4574:1 4575:1 4766:1 
0.5 79:1 790:1 4387:1 4511:1 4695:1 4751:1 4752:1 
0.4871425228306928 52:1 181:1 286:1 529:1 1790:1 4668:1 4755:1 4770:1 
0.5 4393:1 4787:1 
0.5 276:1 
0.5 288:1 392:1 898:1 1119:1 2982:1 4806:1 
0.1210053832670269 25:1 255:1 286:1 2595:1 3536:1 4810:1 4811:1 
0.3999828662674991 1995:1 
0.1919819218827685 1583:1 2613:1 2896:1 4812:1 4827:1 
0.01845764640699454 350:1 658:1 4486:1 4500:1 4643:1 4866:1 4867:1 4868:1 
0.3789540611791073 2056:1 4738:1 
0.5 193:1 4834:1 
0.3279033303799855 267:1 915:1 1104:1 2012:1 2818:1 4758:1 4775:1 4783:1 4887:1 4888:1 
0.5 97:1 102:1 4895:1 4896:1 
0.4990265370720522 276:1 
0.1957831173635521 4511:1 4563:1 4614:1 4912:1 
0.4972436926113314 852:1 1198:1 1849:1 2012:1 4755:1 4771:1 4909:1 4923:1 4924:1 
0.4933720488359272 1995:1 
0.04677824936624173 48:1 312:1 1469:1 3387:1 4936:1 4937:1 
0.1118853011350761 176:1 2443:1 2470:1 3686:1 4426:1 4938:1 4939:1 4940:1 4941:1 
0.3060679508093609 1554:1 2120:1 2572:1 4697:1 4701:1 4944:1 4945:1 4946:1 4947:1 
0.3174080290636327 3433:1 4655:1 4961:1 4962:1 
0.5 4068:1 4993:1 
0.5 47:1 2613:1 4964:1 5017:1 
0.3216524922336098 184:1 1217:1 1588:1 3431:1 4433:1 4434:1 4435:1 5032:1 5033:1 5034:1 
0.5 184:1 5010:1 5033:1 
0.2818008594534548 416:1 1991:1 4375:1 4387:1 4409:1 4437:1 5046:1 
0.3092746158114631 4915:1 4916:1 
0.1170850492377045 4375:1 
0.5 79:1 529:1 908:1 4409:1 4437:1 
0.1956149284618377 169:1 1632:1 3191:1 5056:1 5057:1 5058:1 5059:1 5060:1 5061:1 
0.1241344595342983 68:1 5063:1 5064:1 5065:1 
0.07779447310323349 216:1 477:1 549:1 1156:1 2702:1 2728:1 4411:1 4614:1 4737:1 4855:1 5100:1 5101:1 5102:1 5103:1 
0.5 1546:1 5122:1 
0.5 276:1 
0.3686044193686468 3462:1 4885:1 5125:1 5126:1 
0.1360600351944353 458:1 1351:1 1478:1 1504:1 4511:1 4666:1 
0.153175667048823 97:1 102:1 273:1 280:1 1054:1 1166:1 2175:1 2613:1 5152:1 5153:1 
0.5 97:1 102:1 3522:1 
0.04987637734075745 57:1 97:1 972:1 1880:1 3392:1 3727:1 5166:1 5167:1 5168:1 
0.004835442447048987 5193:1 
0.2401689006580481 4417:1 4418:1 4507:1 4546:1 4927:1 5190:1 5203:1 5204:1 
0.01024105470540492 5198:1 5199:1 5200:1 5216:1 5217:1 
0.1695277012526857 1080:1 5223:1 
0.0957274412125674 3383:1 4495:1 4620:1 4831:1 5250:1 5252:1 5253:1 
0.1716808112623438 5292:1 5293:1 
0.1338568238050126 4679:1 4680:1 
0.2362842783966111 189:1 900:1 1038:1 1240:1 3840:1 5199:1 5312:1 5313:1 5314:1 
0.5 5321:1 
0.3027209631923117 4871:1 5215:1 5334:1 
0.03957067074455321 458:1 2656:1 3173:1 4716:1 5145:1 5230:1 5244:1 5335:1 
0.3228710897299724 38:1 1825:1 5187:1 5340:1 5341:1 5342:1 5343:1 5344:1 5345:1 
0.3459056848251503 321:1 591:1 904:1 4716:1 5198:1 5201:1 5227:1 5239:1 5401:1 5402:1 
0.1638462444830668 900:1 1119:1 1848:1 4503:1 4504:1 5406:1 5407:1 5408:1 
0.5 1736:1 
0.5 323:1 517:1 5472:1 
0.2459190481240648 3522:1 4457:1 4666:1 5507:1 
0.5 68:1 742:1 908:1 1119:1 5200:1 
0.5 133:1 658:1 710:1 5145:1 
0.280363946578864 52:1 710:1 2885:1 5145:1 
0.2558438628075915 4074:1 5198:1 5407:1 5408:1 5430:1 5551:1 
0.04297055463619844 184:1 1253:1 1530:1 4419:1 4461:1 4821:1 5033:1 5558:1 5559:1 5560:1 
0.03924232497924006 184:1 1253:1 4461:1 4496:1 4952:1 5255:1 5565:1 5566:1 
0.1333309551468626 59:1 184:1 537:1 874:1 2920:1 4405:1 4831:1 5565:1 5567:1 
0.3424081787770183 593:1 957:1 1811:1 4508:1 4534:1 5550:1 5576:1 
0.5 4411:1 4992:1 5590:1 
0.5 1587:1 4757:1 5594:1 
0.4213365595825108 859:1 1242:1 4534:1 5414:1 5603:1 
0.04761924706131943 5605:1 
0.5 44:1 431:1 1042:1 5064:1 5145:1 5629:1 
0.2918059957858581 267:1 1113:1 1813:1 4405:1 4783:1 4935:1 5630:1 
0.1561098863906914 2492:1 4563:1 4602:1 
0.009769478886779181 4565:1 4668:1 4854:1 4855:1 5138:1 
0.1310559726952565 458:1 593:1 986:1 1229:1 4565:1 5138:1 5663:1 
0.5 276:1 
0.2295637650714186 4737:1 4803:1 4854:1 4855:1 5667:1 
0.4999618931405241 409:1 4708:1 5678:1 5679:1 
0.08116442560704648 390:1 826:1 957:1 4457:1 4579:1 5688:1 
0.1802896342537593 458:1 4484:1 4494:1 4719:1 
0.01813246327456548 4478:1 4487:1 4509:1 5080:1 5081:1 
0.4725758093145468 899:1 1544:1 
0.5 458:1 601:1 2194:1 3522:1 4386:1 4443:1 
0.5 458:1 601:1 2194:1 3522:1 4409:1 
0.1541645982269218 394:1 601:1 2899:1 5697:1 5698:1 
0.03271424266773726 670:1 2027:1 3064:1 3248:1 4830:1 5238:1 5253:1 5358:1 5723:1 
0.5 448:1 612:1 761:1 1080:1 2078:1 3613:1 4443:1 4546:1 4582:1 4935:1 5203:1 
0.391735740732543 4120:1 4821:1 5732:1 
0.5 70:1 381:1 1424:1 4541:1 
0.5 416:1 417:1 1082:1 3600:1 4467:1 4530:1 4992:1 5241:1 
0.09156105150790234 5491:1 
0.5 5742:1 
3.912347982278373e-05 261:1 448:1 477:1 720:1 786:1 1156:1 2384:1 3659:1 4432:1 4579:1 4581:1 5240:1 
0.2153037692791144 2637:1 4432:1 4530:1 4532:1 4572:1 4573:1 4581:1 4955:1 5089:1 5589:1 
0.1704353373136173 4580:1 
0.1146842023110165 241:1 593:1 1070:1 4530:1 5040:1 5104:1 5105:1 
0.0001793122971968653 5782:1 
0.1800365491293597 5782:1 
0.1030577643915893 5802:1 
0.09211375395053761 61:1 2619:1 5188:1 5189:1 5806:1 
0.1589583062568815 458:1 4407:1 4589:1 5556:1 5711:1 
0.3205483318145809 591:1 3024:1 4494:1 4615:1 4616:1 
0.5 1393:1 5524:1 5824:1 
0.1571746146706868 458:1 981:1 4628:1 4716:1 4736:1 5252:1 5815:1 5835:1 5836:1 
0.5 61:1 5285:1 5339:1 5851:1 
0.5 294:1 4546:1 
0.5 613:1 2181:1 2953:1 4392:1 4729:1 5007:1 5826:1 
0.5 276:1 
0.2765524243772654 70:1 1759:1 1880:1 3941:1 4753:1 4975:1 5875:1 
0.5 45:1 5876:1 
0.1440323121892808 4435:1 5321:1 
0.04469399054674363 4435:1 5321:1 
0.5 355:1 531:1 
0.5 68:1 223:1 5891:1 5892:1 5893:1 
0.007108455148089892 5833:1 5896:1 
0.5 2619:1 4496:1 5806:1 5906:1 
0.2384021992979311 5833:1 5896:1 
0.5 416:1 3598:1 4737:1 5010:1 5715:1 5716:1 
0.06299586599885461 58:1 790:1 2699:1 4432:1 4457:1 4650:1 5925:1 5926:1 5927:1 
0.1547347280354626 2568:1 2671:1 4443:1 5949:1 5950:1 
0.0976074224490634 139:1 2375:1 3209:1 4582:1 4996:1 5099:1 5958:1 
0.03807245431611776 646:1 3043:1 3386:1 3794:1 4439:1 5154:1 5959:1 5960:1 
0.5 458:1 537:1 1113:1 1173:1 1344:1 2027:1 2802:1 5965:1 5966:1 5967:1 
0.2736114630916812 332:1 736:1 1495:1 1882:1 2949:1 3064:1 3092:1 3571:1 4612:1 4753:1 5942:1 5972:1 
0.1024409372591908 1073:1 
0.5 286:1 1179:1 1592:1 1987:1 4554:1 5007:1 5826:1 
0.2424897355661535 3017:1 5958:1 5982:1 5983:1 
0.2825946077833609 294:1 1498:1 1676:1 4510:1 5992:1 5993:1 5994:1 5995:1 
0.5 19:1 1655:1 5081:1 6006:1 6007:1 6008:1 6009:1 6010:1 6011:1 
0.0447033435377583 61:1 283:1 1502:1 1876:1 4112:1 6014:1 6016:1 6017:1 6018:1 6019:1 
0.4646656312369569 638:1 5911:1 6029:1 6030:1 6031:1 6032:1 6033:1 
0.06541331955134579 22:1 499:1 526:1 4901:1 6035:1 6036:1 6037:1 6038:1 6039:1 
0.001787974680691621 6041:1 
0.4907270367172154 6041:1 
0.5 6041:1 
0.5 6041:1 
0.5 6041:1 
0.5 6041:1 
0.5 6041:1 
0.0292710321437503 957:1 1227:1 4381:1 4478:1 5956:1 
0.3357863666434285 2279:1 4602:1 4605:1 5320:1 6059:1 
0.5 783:1 1226:1 4846:1 4851:1 4852:1 4855:1 4863:1 6067:1 
0.2614477477845353 6076:1 6077:1 
0.4039652791631735 23:1 856:1 3954:1 5086:1 6098:1 6099:1 6100:1 
0.1776817739883294 79:1 4231:1 4516:1 4755:1 5132:1 5528:1 6109:1 
0.1252968587437333 1070:1 2872:1 4231:1 4530:1 6105:1 6111:1 6116:1 
0.3006494018720816 4527:1 6120:1 
0.4186726815209462 4525:1 
0.5 4525:1 
0.5 2989:1 4668:1 5074:1 5075:1 5870:1 6129:1 
0.01234447235459271 72:1 1487:1 1736:1 2238:1 2357:1 4459:1 6065:1 6133:1 
0.09557144972677954 409:1 3390:1 4483:1 4572:1 5152:1 5749:1 
0.08077193278168718 646:1 1592:1 3276:1 4391:1 4438:1 4862:1 5862:1 6139:1 6140:1 6141:1 6142:1 
0.3688753102179011 431:1 1101:1 3036:1 4695:1 4821:1 5430:1 5898:1 5967:1 
0.0387956726164762 711:1 
0.1733088647936688 112:1 448:1 790:1 4469:1 4572:1 5195:1 5749:1 5873:1 
0.3134016918205469 5589:1 5762:1 
0.02537026894705758 27:1 79:1 331:1 1587:1 2545:1 4496:1 4615:1 4616:1 5823:1 6159:1 6160:1 
0.1494712993630604 448:1 1216:1 4572:1 5390:1 
0.5 448:1 1179:1 4407:1 4556:1 
0.5 4439:1 4901:1 5042:1 6168:1 6169:1 6170:1 
0.4133436595710939 448:1 458:1 478:1 2566:1 4407:1 4466:1 4467:1 4469:1 5848:1 6082:1 6189:1 6190:1 
7.712454955737076e-05 320:1 448:1 1528:1 4407:1 4469:1 4666:1 
0.004374395228556434 4470:1 6197:1 6198:1 
0.3319338815973228 5491:1 
0.4136434871318564 5802:1 
0.5 1127:1 2012:1 2699:1 2874:1 3383:1 4755:1 4758:1 4872:1 6205:1 6206:1 
0.0642331990263546 4407:1 4469:1 5022:1 6207:1 
0.1685572403942339 79:1 600:1 649:1 1004:1 1585:1 1747:1 4432:1 4457:1 6208:1 
0.2787495959319832 6212:1 6213:1 
0.03663939942485751 1445:1 
0.1876112635342689 176:1 261:1 448:1 
0.3103243460615162 4508:1 4527:1 5697:1 
0.2402209263355316 169:1 409:1 3454:1 4784:1 5525:1 
0.5 191:1 2038:1 3522:1 4784:1 5525:1 6085:1 6096:1 
0.3008513352264121 2029:1 2668:1 4619:1 4830:1 5699:1 5700:1 6224:1 
0.5 1036:1 1058:1 3383:1 4494:1 4890:1 6248:1 
0.1125704234592854 4590:1 5254:1 
0.5 1470:1 1847:1 2258:1 4814:1 
0.1553655743521065 86:1 138:1 477:1 1168:1 1253:1 2995:1 4380:1 4461:1 5080:1 6254:1 6255:1 
0.3629395798939566 5430:1 6256:1 6257:1 
0.340152973474231 6253:1 6274:1 
0.5 6290:1 
0.5 4513:1 4871:1 6296:1 
0.4116990488337655 417:1 744:1 2430:1 4388:1 4496:1 4616:1 5815:1 5863:1 5978:1 
0.063996482863698 61:1 1046:1 4231:1 4768:1 5132:1 
0.5 5256:1 5535:1 
0.5 70:1 2766:1 3522:1 5075:1 6075:1 
0.09283245219609862 4551:1 4552:1 
0.5 416:1 957:1 4616:1 6312:1 
0.1325389180426651 2895:1 4389:1 5605:1 
0.1485200223124593 4692:1 
0.01221052947282495 4692:1 
0.5 61:1 84:1 3209:1 5711:1 6325:1 
0.4945421635384719 6335:1 
0.4944622246322373 6336:1 
0.2443193455140409 511:1 981:1 1475:1 3621:1 3633:1 4404:1 4431:1 4432:1 4439:1 6337:1 
0.4291292006792823 163:1 169:1 409:1 4606:1 6344:1 
0.004266195003478667 31:1 339:1 5691:1 
0.3551146172839503 2078:1 4385:1 4529:1 5418:1 5585:1 6359:1 
0.06766656756096945 97:1 102:1 361:1 1990:1 2613:1 3074:1 3727:1 4885:1 5252:1 6361:1 6362:1 
0.1457558593873628 45:1 258:1 4486:1 6375:1 6376:1 6377:1 
0.5 4799:1 
0.009911651782583224 6197:1 6381:1 
0.5 649:1 1179:1 6208:1 
0.06626143395968556 261:1 384:1 826:1 2991:1 4457:1 4487:1 5390:1 5417:1 6390:1 6391:1 
0.4982549610096506 5491:1 
0.5 477:1 720:1 2078:1 4411:1 4910:1 5517:1 6418:1 6419:1 
0.5 2070:1 4631:1 5857:1 
0.5 640:1 1461:1 1632:1 2693:1 4542:1 4646:1 4911:1 5490:1 5581:1 6434:1 
0.1063187889317767 4692:1 
0.5 3522:1 4439:1 4917:1 4994:1 
0.127718042922916 45:1 2027:1 4100:1 4443:1 4545:1 5644:1 
0.06626572647831508 15:1 184:1 253:1 790:1 957:1 1344:1 2721:1 3036:1 4653:1 4715:1 4733:1 4821:1 5766:1 
0.5 3077:1 4970:1 5924:1 5999:1 
0.05998172528660806 1282:1 1546:1 5122:1 5288:1 6455:1 6456:1 
0.01888003823594309 1912:1 2562:1 4510:1 6462:1 
0.05697121518075542 6465:1 
0.5 122:1 904:1 2594:1 3014:1 3191:1 4634:1 5162:1 6468:1 6469:1 6470:1 
0.1837017881391041 5308:1 5535:1 
0.4289424608100805 5308:1 5535:1 
0.5 276:1 
0.07436122620231413 45:1 347:1 1253:1 2248:1 2670:1 3016:1 3956:1 4461:1 4730:1 6493:1 6494:1 
0.09085951504128487 2609:1 4673:1 5059:1 5521:1 5522:1 6507:1 6508:1 6509:1 6510:1 6511:1 
0.2263996909564331 4439:1 4443:1 6236:1 6515:1 
0.3892262980553894 1166:1 3621:1 4258:1 4411:1 5546:1 6228:1 6241:1 
0.2252024866818653 1156:1 3658:1 5251:1 5283:1 6517:1 
0.1709943287069039 1632:1 2193:1 2614:1 2728:1 3652:1 6519:1 
0.1030799547793468 130:1 562:1 4514:1 5658:1 6528:1 6529:1 
0.2229942558033849 790:1 6530:1 
0.05278163714030498 1236:1 1367:1 3522:1 4385:1 4455:1 4556:1 4565:1 5771:1 5772:1 
0.5 2656:1 4510:1 
0.5 1253:1 2656:1 4013:1 
0.5 736:1 4432:1 5713:1 
0.5 1236:1 4457:1 4530:1 5089:1 6532:1 6533:1 
0.1801120157901183 6318:1 
0.09539281905033527 338:1 4527:1 
0.2168494439295431 4470:1 6197:1 6198:1 
0.2387960880562003 4508:1 5533:1 
0.2165305112736503 790:1 4493:1 4510:1 6473:1 
0.08033537793105926 890:1 5080:1 5081:1 6543:1 
0.01868298935429641 1119:1 5418:1 
0.5 2131:1 5168:1 
0.5 2874:1 6124:1 
0.5 4551:1 4552:1 
0.0901739168832652 188:1 6556:1 
0.04468752136986556 79:1 457:1 1315:1 1528:1 4496:1 4515:1 4570:1 4768:1 5810:1 5998:1 
0.5 4768:1 
0.5 185:1 340:1 620:1 621:1 1136:1 4004:1 4110:1 5186:1 
0.5 2629:1 4918:1 
0.5 4525:1 
0.5 59:1 175:1 313:1 569:1 720:1 857:1 1991:1 4391:1 4496:1 
0.08939390389887264 458:1 1716:1 2859:1 5228:1 5562:1 5720:1 6601:1 
0.5 1326:1 4514:1 6607:1 6608:1 
0.5 323:1 451:1 620:1 621:1 4404:1 4510:1 6612:1 6613:1 
0.1451268447856895 620:1 621:1 2070:1 3928:1 6615:1 
0.06086588857210987 59:1 1217:1 1557:1 3540:1 3588:1 4186:1 5260:1 6635:1 
0.05160737578466857 150:1 176:1 4371:1 4564:1 4737:1 4826:1 5195:1 6096:1 6642:1 
0.5 2134:1 2613:1 
0.5 79:1 1470:1 4405:1 4443:1 4830:1 6141:1 6650:1 
0.4126828524686851 59:1 529:1 540:1 590:1 772:1 3082:1 4763:1 5045:1 5582:1 
0.4722955529198833 2649:1 4437:1 4514:1 
0.5 146:1 1326:1 4514:1 
0.4851572683645796 529:1 1261:1 1991:1 2179:1 4683:1 
0.5 232:1 4992:1 5080:1 5081:1 
0.06005241632350432 261:1 1809:1 5604:1 6673:1 6674:1 
0.4240089599693596 448:1 593:1 790:1 902:1 3276:1 4753:1 6166:1 
0.5 122:1 133:1 
0.5 338:1 2351:1 
0.1473061514939188 446:1 1231:1 2012:1 5168:1 5190:1 6292:1 6294:1 6340:1 
0.5 338:1 5407:1 5408:1 6558:1 
0.01585992413396302 1751:1 2779:1 4269:1 5577:1 5652:1 6200:1 6698:1 6700:1 
0.4929079395226034 4548:1 4768:1 5140:1 
0.1124986477043643 45:1 355:1 581:1 1045:1 2839:1 6711:1 
0.4387241524616651 625:1 4514:1 5573:1 5628:1 
0.07750367158306479 431:1 463:1 1253:1 1420:1 4404:1 4431:1 4461:1 
0.2679022327747259 91:1 184:1 477:1 485:1 904:1 1113:1 1549:1 2375:1 2613:1 2785:1 3433:1 5202:1 5451:1 5530:1 5945:1 6596:1 6718:1 
0.316841476338264 167:1 481:1 5771:1 5772:1 6722:1 
0.1766417441700201 38:1 812:1 1819:1 2234:1 4409:1 5640:1 6725:1 6726:1 6727:1 6728:1 6729:1 
0.5 298:1 957:1 1101:1 1119:1 1716:1 6025:1 6702:1 6733:1 
0.24173089334934 541:1 1228:1 1381:1 3225:1 4791:1 4792:1 4842:1 5824:1 
0.5 439:1 957:1 1059:1 2021:1 4487:1 4821:1 6744:1 
0.5 1080:1 1252:1 1632:1 2181:1 3741:1 4935:1 
0.02423566424476635 70:1 1751:1 1811:1 4564:1 4975:1 5494:1 6487:1 
0.2616738434331254 1129:1 1477:1 6749:1 
0.2405129512769464 6161:1 
0.4396076082799566 6161:1 
0.467681695961095 169:1 777:1 1004:1 1587:1 6079:1 6752:1 
0.1384827857063314 1108:1 1266:1 4439:1 4755:1 5256:1 5535:1 6188:1 
0.5 4993:1 6105:1 
0.4797157328127843 147:1 593:1 4568:1 4791:1 4792:1 
0.072803147803463 2177:1 4542:1 5651:1 6800:1 
0.07141827651757719 593:1 1760:1 2012:1 3077:1 4494:1 4758:1 6803:1 
0.3006971334144381 3198:1 3254:1 4448:1 5249:1 5450:1 6819:1 6820:1 
0.2868950846150167 908:1 1990:1 1995:1 4110:1 4682:1 6172:1 6362:1 6823:1 
0.5 593:1 2169:1 4812:1 
0.08621414733506606 374:1 786:1 835:1 1058:1 3286:1 4625:1 4771:1 4786:1 6842:1 
0.5 276:1 
0.2248481843740539 91:1 275:1 790:1 2080:1 6445:1 6844:1 
0.2806004053431088 861:1 900:1 2152:1 4395:1 4542:1 
0.0167866122801806 4668:1 5241:1 6852:1 6853:1 6854:1 
0.3467485808155108 5604:1 5656:1 
0.5 593:1 3621:1 4419:1 5440:1 5559:1 
0.4171739060369551 38:1 46:1 133:1 137:1 164:1 900:1 1213:1 4696:1 6280:1 
0.03618451903827132 70:1 216:1 4483:1 5439:1 5440:1 6818:1 
0.05137093924144304 209:1 210:1 1087:1 1156:1 2566:1 5271:1 5272:1 5439:1 5440:1 
0.0652958704774305 640:1 6878:1 6879:1 
0.5 276:1 
0.1186668245902831 1632:1 2181:1 3870:1 4177:1 4995:1 4996:1 5114:1 5320:1 6559:1 6883:1 6884:1 
0.3071482934951589 338:1 2351:1 4535:1 5757:1 
0.1906385830519167 176:1 2893:1 5106:1 6513:1 6888:1 6889:1 
0.04604232797052214 338:1 4584:1 6892:1 
0.5 1228:1 
0.01319930565152759 6903:1 
0.0219362039121577 2865:1 
0.5 3383:1 4323:1 6905:1 
0.4579776136729313 512:1 3939:1 4655:1 
0.1468349194775004 64:1 119:1 139:1 481:1 4470:1 4821:1 5238:1 6079:1 
0.5 147:1 593:1 638:1 3053:1 4426:1 5231:1 5438:1 5439:1 5440:1 6929:1 
0.5 133:1 537:1 786:1 
0.5 70:1 112:1 5349:1 5350:1 
0.2330110204078865 223:1 4110:1 
0.5 217:1 5347:1 
0.08709261465649128 91:1 4821:1 5253:1 5349:1 5350:1 6746:1 
0.5 1070:1 4530:1 5924:1 
0.1099232302802742 68:1 5013:1 
0.05523663846838848 119:1 2021:1 4443:1 4496:1 4511:1 4528:1 4556:1 4565:1 4934:1 6944:1 6945:1 
0.5 4918:1 6793:1 
0.5 52:1 119:1 380:1 902:1 1176:1 1736:1 3135:1 4059:1 6586:1 
0.4294605583827125 338:1 6587:1 
0.3026754407235521 119:1 294:1 902:1 925:1 1269:1 1599:1 2975:1 3195:1 
0.05598462209773768 120:1 464:1 670:1 1305:1 2357:1 2464:1 4407:1 4827:1 5131:1 
0.5 1223:1 1722:1 
0.3812912815645093 176:1 338:1 873:1 902:1 1378:1 2653:1 5023:1 
0.5 4616:1 
0.0337395725945016 1526:1 1792:1 3959:1 4510:1 4511:1 6973:1 6974:1 
0.5 276:1 1453:1 
0.008976566625996538 790:1 1156:1 1664:1 4542:1 4580:1 4581:1 4612:1 4615:1 4616:1 4753:1 
0.1996775242917545 593:1 3753:1 5535:1 6808:1 
0.5 593:1 4420:1 5535:1 6808:1 
0.5 613:1 2819:1 5338:1 5708:1 5766:1 
0.07276008711936841 170:1 1154:1 4478:1 
0.1302007722144215 4231:1 6992:1 6993:1 
0.5 685:1 
0.2559840934684319 4668:1 
0.1661897909032463 612:1 790:1 4694:1 4719:1 5228:1 6733:1 7012:1 
0.5 276:1 
0.09365104490727791 357:1 2637:1 3537:1 4990:1 7014:1 
0.05052098097606245 590:1 4810:1 4901:1 5524:1 5844:1 
0.01218716678784871 3299:1 3537:1 4405:1 4755:1 4990:1 5706:1 6397:1 7018:1 
0.1172634388881755 104:1 612:1 790:1 898:1 1687:1 2070:1 4612:1 4719:1 5080:1 5081:1 
0.5 4862:1 
0.1085802716368885 549:1 957:1 1227:1 2822:1 4382:1 4996:1 6559:1 
0.3448101441748105 170:1 1154:1 4478:1 
0.5 97:1 2872:1 7030:1 
0.5 1291:1 1679:1 1813:1 6079:1 
0.5 323:1 1119:1 4584:1 4964:1 4994:1 
0.1196392643345116 1585:1 2430:1 2690:1 5313:1 7058:1 
0.5 1587:1 
0.5 276:1 
0.1561914304425049 957:1 1185:1 1587:1 4382:1 4567:1 
0.2142502222238468 112:1 512:1 2755:1 5377:1 5378:1 
0.3273511411467585 458:1 1632:1 4722:1 5377:1 5378:1 
0.5 276:1 
0.323551526384628 7077:1 7078:1 
0.04241510013539657 6705:1 6706:1 
0.07237702758264919 17:1 146:1 338:1 972:1 1059:1 1063:1 4584:1 7089:1 7090:1 
0.2714899755805005 2858:1 3395:1 5190:1 7091:1 
0.5 184:1 512:1 670:1 4457:1 4496:1 4934:1 5072:1 5142:1 7095:1 7096:1 
0.2403173152933303 458:1 612:1 1010:1 4614:1 5010:1 5337:1 5719:1 5923:1 6810:1 7098:1 7099:1 
0.5 53:1 908:1 
0.5 53:1 
0.378246774835926 45:1 5358:1 6928:1 
0.5 720:1 2384:1 3064:1 4831:1 7109:1 
0.3034916221455348 856:1 4444:1 4445:1 6994:1 7116:1 
0.1800594830709928 4410:1 
0.5 5933:1 
0.1188203318505697 79:1 417:1 2629:1 3941:1 4563:1 4614:1 4753:1 4907:1 
0.5 276:1 
0.2142993087818838 383:1 2483:1 4697:1 7141:1 7142:1 7143:1 7144:1 
0.07902962557847464 273:1 390:1 1585:1 3006:1 4469:1 7148:1 7149:1 7150:1 
0.5 64:1 119:1 1592:1 4753:1 5459:1 6419:1 
0.03656577590917479 448:1 4437:1 4661:1 6476:1 6532:1 7154:1 
0.5 512:1 1315:1 1381:1 2396:1 4407:1 4482:1 4605:1 4876:1 
0.5 112:1 840:1 2778:1 4631:1 
0.07584998388993024 173:1 390:1 1792:1 3305:1 6801:1 7156:1 
0.5 904:1 4661:1 4910:1 
0.03285986615578529 711:1 
0.5 1943:1 3522:1 5849:1 7160:1 7161:1 
0.5 985:1 4419:1 5077:1 5363:1 5440:1 5559:1 
0.5 2545:1 5849:1 7162:1 
0.5 133:1 276:1 476:1 
0.5 133:1 476:1 7182:1 7183:1 
0.5 477:1 593:1 2543:1 2702:1 4753:1 5681:1 6779:1 
0.5 5256:1 5535:1 
0.2684243692308889 3828:1 
0.5 249:1 5535:1 
0.5 228:1 5256:1 5535:1 
0.5 45:1 64:1 119:1 2430:1 2996:1 4411:1 5802:1 6409:1 6825:1 
0.05234694241571566 1077:1 1858:1 2611:1 2613:1 4869:1 7206:1 7207:1 
0.5 133:1 2287:1 
0.1774099797899506 176:1 448:1 790:1 1470:1 1585:1 3155:1 5945:1 7216:1 
0.2704923918140871 2357:1 3859:1 6524:1 
0.5 323:1 464:1 7226:1 
0.09005003664816466 5654:1 6771:1 
0.1246393118579532 986:1 1236:1 4430:1 4445:1 4689:1 4908:1 4979:1 
0.5 68:1 859:1 1133:1 2245:1 4591:1 4869:1 5320:1 5570:1 6514:1 
0.0342966571967181 1236:1 4430:1 5202:1 7243:1 
0.5 122:1 133:1 
0.5 113:1 
0.5 1130:1 
0.5 79:1 137:1 312:1 338:1 790:1 2351:1 
0.5 120:1 255:1 335:1 2613:1 
0.2752382078646401 119:1 338:1 4715:1 5945:1 6558:1 
0.5 254:1 
0.4545349902010024 957:1 1154:1 1557:1 1587:1 1657:1 3036:1 3372:1 4382:1 4478:1 4494:1 7273:1 
0.3401121129028767 7275:1 7276:1 
0.03090233832846653 90:1 790:1 1179:1 1775:1 2023:1 2668:1 3036:1 4260:1 5320:1 5945:1 
0.5 1063:1 1656:1 3644:1 7303:1 
0.1362054879455725 3433:1 6559:1 
0.02512617776109134 323:1 
0.5 167:1 4869:1 5945:1 7125:1 
0.4133685927758776 217:1 2613:1 
0.193192695711024 175:1 258:1 276:1 720:1 790:1 857:1 3959:1 4496:1 6181:1 6965:1 
0.155076330669951 725:1 1059:1 1112:1 2258:1 2693:1 7320:1 7321:1 7322:1 
0.2997505348726797 119:1 154:1 1177:1 4752:1 7053:1 
0.2938398281183509 119:1 295:1 1177:1 1244:1 3635:1 
0.5 276:1 
0.5 1045:1 1849:1 2078:1 3092:1 4826:1 5956:1 
0.5 79:1 119:1 216:1 898:1 3522:1 
0.01287131924444446 7333:1 
0.5 4522:1 
0.5 119:1 
0.5 4522:1 
0.04819647100617267 1523:1 2332:1 7338:1 
0.5 79:1 4439:1 7053:1 7326:1 
0.3416657918257237 4513:1 
0.5 4884:1 7343:1 
0.1930392000403519 575:1 1042:1 1863:1 7351:1 7352:1 7353:1 
0.5 7355:1 
0.5 7355:1 
0.29789980030052 540:1 957:1 1087:1 1819:1 3859:1 4409:1 6400:1 7362:1 7363:1 
0.1767644812108194 2785:1 3702:1 5577:1 7371:1 7372:1 7373:1 
0.117114716329623 118:1 224:1 4682:1 5438:1 5832:1 7253:1 7254:1 7393:1 7394:1 
0.05668747797654679 463:1 957:1 1087:1 4382:1 4742:1 5042:1 5525:1 7165:1 
0.4855287209353275 593:1 1727:1 2012:1 3209:1 4753:1 5310:1 5411:1 5587:1 7395:1 
0.09079489923175998 7401:1 
0.5 52:1 1475:1 
0.5 119:1 6349:1 
0.5 61:1 1283:1 
0.1802894548599421 6522:1 
0.5 1478:1 7419:1 7420:1 7421:1 
0.5 561:1 
0.4916157334666172 165:1 1036:1 7428:1 7429:1 
0.180126681005293 7460:1 
0.3785584132546021 213:1 729:1 730:1 1326:1 1966:1 2541:1 4982:1 7463:1 7464:1 7465:1 7466:1 
0.2962673291253989 184:1 361:1 762:1 1233:1 1419:1 7467:1 7468:1 7469:1 7470:1 
0.01975333879937102 48:1 496:1 2037:1 4293:1 5233:1 7475:1 
0.06059947406517933 2879:1 7472:1 7485:1 7486:1 
0.04120346419458321 1073:1 
0.5 135:1 484:1 5821:1 7492:1 
0.5 2078:1 4714:1 7496:1 7497:1 7498:1 
0.159314305647886 316:1 3547:1 
0.5 2466:1 6143:1 
0.5 52:1 496:1 7509:1 
0.3470410328050496 17:1 2649:1 7493:1 7512:1 
0.5 215:1 1045:1 1438:1 1491:1 2787:1 4796:1 7472:1 7483:1 7484:1 
0.5 7524:1 
0.5 133:1 621:1 3870:1 7435:1 7527:1 
0.3092599400808772 900:1 1343:1 2541:1 4125:1 7528:1 7529:1 7530:1 7531:1 7532:1 
0.006479585846075608 5977:1 
0.5 27:1 107:1 957:1 7537:1 
0.2799726532783466 7545:1 7546:1 
0.5 131:1 612:1 4586:1 7535:1 7556:1 7557:1 
0.3228106475646657 131:1 1095:1 1392:1 2488:1 3755:1 5337:1 6740:1 7588:1 7589:1 
0.3264560895175831 7591:1 
0.1448637600442988 99:1 2645:1 2840:1 7598:1 7599:1 
0.5 957:1 
0.5 45:1 1409:1 
0.05833053648359566 7615:1 7616:1 
0.5 3184:1 
0.307078856814951 864:1 7626:1 
0.3690010739312135 124:1 275:1 294:1 7399:1 7520:1 
0.01624231782368668 3169:1 
0.5 908:1 1747:1 2874:1 4300:1 7646:1 7647:1 
0.4077194816274433 2777:1 7648:1 
0.5 900:1 
0.5 176:1 621:1 820:1 7436:1 7554:1 7657:1 
0.2670509447561442 202:1 746:1 1104:1 7662:1 7663:1 7664:1 
0.0317817228202633 107:1 112:1 4838:1 7554:1 7680:1 7681:1 
0.4079066354874079 107:1 744:1 2732:1 7683:1 7684:1 
0.05799099905247405 7696:1 7697:1 7698:1 
0.05953436426084237 1063:1 7453:1 7699:1 7700:1 
0.3880672786953477 710:1 1687:1 3169:1 4651:1 6154:1 7079:1 7489:1 7726:1 7727:1 
0.3522421001886825 133:1 7668:1 7669:1 
0.244813078832763 38:1 68:1 119:1 1553:1 1630:1 3166:1 3169:1 7399:1 7725:1 7736:1 
0.07880714245870526 330:1 1063:1 3985:1 4586:1 6533:1 7525:1 7566:1 7693:1 7737:1 7738:1 7739:1 
0.3201207268767535 17:1 186:1 687:1 1438:1 7744:1 7745:1 7746:1 7747:1 7748:1 7749:1 7750:1 
0.06559650022257107 48:1 496:1 5233:1 7475:1 7550:1 7551:1 7754:1 
0.5 36:1 773:1 900:1 1424:1 1557:1 4970:1 7755:1 
0.5 1435:1 7768:1 7769:1 
0.01524841550150881 194:1 1333:1 7789:1 
0.1701960901007235 390:1 7789:1 7793:1 
0.5 194:1 
0.5 935:1 1217:1 2031:1 7789:1 
0.48789612822907 1275:1 3537:1 7801:1 7802:1 
0.08410373037422855 1063:1 
0.5 515:1 1435:1 1855:1 2658:1 3418:1 4650:1 7804:1 7805:1 
0.3248247229113613 189:1 3910:1 7820:1 
0.5 685:1 1440:1 7821:1 
0.04613897604108801 706:1 1419:1 5327:1 7725:1 
0.395967864250764 112:1 137:1 793:1 3837:1 7675:1 
0.5 812:1 2430:1 7882:1 7897:1 
0.1867940087104693 131:1 711:1 4586:1 6088:1 7472:1 7505:1 7523:1 7535:1 7904:1 
0.5 15:1 957:1 7730:1 
0.0987800121788182 2197:1 7591:1 
0.4015767401878796 2196:1 2197:1 
0.5 2469:1 7927:1 7928:1 
0.2085213473791601 23:1 899:1 7933:1 7934:1 
0.5 3540:1 
0.5 7953:1 
0.5 153:1 
0.08554569662842881 7969:1 
0.5 537:1 
0.1656687635044755 7692:1 7983:1 7984:1 
0.08801982710824713 194:1 1032:1 7978:1 7985:1 
0.1886293770886183 812:1 915:1 2332:1 3837:1 7986:1 
0.00120397018191089 933:1 7573:1 7869:1 7991:1 
0.5 452:1 5334:1 
0.5 638:1 736:1 945:1 1440:1 7601:1 
0.04097645520248512 7550:1 7573:1 7621:1 7730:1 
0.3042755773454711 7830:1 8012:1 
0.4810040472822562 392:1 1409:1 8013:1 
0.3181778069037473 185:1 1394:1 
0.1749185159554023 7014:1 8018:1 8020:1 
0.5 23:1 68:1 702:1 7932:1 8032:1 
0.5 396:1 8039:1 
0.5 133:1 7494:1 7495:1 
0.08944653524126443 7401:1 8041:1 
0.2726310282841929 1663:1 3594:1 5020:1 7449:1 7650:1 7811:1 7849:1 8044:1 8045:1 
0.005936755000758806 487:1 3322:1 5626:1 
0.04514394564908023 8051:1 
0.03932113843401591 290:1 744:1 3693:1 8004:1 8056:1 8057:1 
0.3610082189700924 7463:1 8060:1 8061:1 8062:1 
0.5 52:1 
0.08944205586948187 913:1 1663:1 1811:1 3594:1 7399:1 7402:1 7613:1 
0.4487136616047822 332:1 706:1 779:1 7781:1 8069:1 8070:1 
0.1527513307436027 453:1 7620:1 7699:1 
0.5 124:1 638:1 660:1 945:1 1813:1 3208:1 3383:1 
0.5 723:1 915:1 7431:1 
0.3648630247211255 600:1 777:1 2457:1 7914:1 8086:1 8087:1 8088:1 
0.01137917592925649 104:1 151:1 1858:1 3460:1 3594:1 4269:1 7629:1 7912:1 8099:1 
0.3347901237725934 618:1 2606:1 7523:1 8116:1 8117:1 
0.1010807243833722 202:1 556:1 1597:1 3652:1 7092:1 7689:1 8119:1 8120:1 8121:1 
0.5 528:1 8140:1 8141:1 
0.2038778536474778 208:1 254:1 1446:1 6433:1 8146:1 8147:1 
0.3873531210344515 416:1 816:1 1912:1 2027:1 5451:1 8148:1 8149:1 8150:1 8151:1 
0.1529754875828573 202:1 1283:1 4326:1 5451:1 8071:1 8150:1 8152:1 
0.5 185:1 1394:1 
0.1296092230593232 44:1 312:1 1008:1 1074:1 1462:1 5033:1 8161:1 
0.5 720:1 889:1 1573:1 8165:1 
0.08431620858656373 16:1 52:1 7508:1 8176:1 
0.04949784112177439 2351:1 
0.5 107:1 7600:1 
0.5 689:1 8090:1 8091:1 8181:1 8182:1 
0.1999782647872765 422:1 431:1 614:1 1315:1 4724:1 8184:1 8185:1 
0.1256875594372328 1560:1 2629:1 2645:1 3246:1 6298:1 7599:1 7851:1 7952:1 
0.06025719904443304 91:1 327:1 475:1 593:1 7947:1 7948:1 8198:1 
0.5 458:1 7519:1 
0.5 2490:1 
0.3042572265141269 416:1 8220:1 8221:1 
0.05437044208249046 2490:1 5850:1 
0.5 151:1 7555:1 
0.2547773517098616 217:1 8230:1 8231:1 
0.04649682869398047 8228:1 8229:1 8232:1 
0.1121942993752553 107:1 512:1 2307:1 8221:1 
0.4111217025578016 313:1 
0.5 107:1 
0.3029968712632362 2302:1 
0.1801182046055635 8241:1 
0.0001550610355628582 184:1 191:1 2014:1 2892:1 6013:1 7738:1 8246:1 
0.2427283800752248 283:1 4256:1 7602:1 
0.04245155123973342 151:1 3551:1 8275:1 8276:1 
0.02448955696745429 7445:1 8281:1 8282:1 8283:1 8284:1 8285:1 8286:1 8287:1 
0.1069440168565389 151:1 3551:1 8275:1 8276:1 
0.05663879579010393 8293:1 8294:1 
0.5 44:1 396:1 1344:1 8295:1 
0.5 515:1 2658:1 
0.5 104:1 288:1 953:1 1443:1 1662:1 2234:1 8077:1 
0.5 167:1 1188:1 
0.5 1819:1 8304:1 
0.5 48:1 409:1 529:1 900:1 
0.1378187245717251 529:1 900:1 6471:1 8310:1 8311:1 
0.2878229640067163 68:1 853:1 7596:1 
0.298222657350188 36:1 119:1 2107:1 8329:1 
0.5 687:1 1419:1 2910:1 
0.1849230367354514 7935:1 8139:1 8269:1 
0.1876983470033663 1984:1 7648:1 8130:1 8344:1 8345:1 
0.3078969659297321 6547:1 8219:1 8326:1 
0.1959603903840544 1941:1 2003:1 8363:1 
0.5 1941:1 2490:1 2806:1 8365:1 
0.4080267532842141 2490:1 2603:1 7502:1 
0.5 133:1 
0.5 133:1 
0.5 327:1 
0.2119923731283333 957:1 8403:1 
0.5 458:1 7519:1 
0.01695698966115751 2885:1 8367:1 8417:1 8418:1 8419:1 
0.5 7492:1 
0.5 706:1 4586:1 8444:1 
0.4935926805224371 327:1 475:1 1004:1 4586:1 8215:1 
0.5 43:1 285:1 
0.2227300502657837 1500:1 4282:1 6021:1 6723:1 8085:1 8447:1 8448:1 
0.3160631675931113 3:1 8215:1 
0.1577747884778663 8:1 38:1 1290:1 1320:1 8306:1 8455:1 8456:1 8457:1 
0.3250704488318102 685:1 798:1 7405:1 7492:1 
0.5 118:1 1352:1 7474:1 
0.01658027482258802 7525:1 8232:1 8473:1 
0.2556458468671986 52:1 372:1 3788:1 8292:1 
0.3341047369994791 779:1 1038:1 1290:1 1868:1 4186:1 8480:1 8481:1 8482:1 8483:1 
0.4474134451945629 1010:1 2382:1 2430:1 3706:1 4997:1 7459:1 7665:1 8484:1 
0.5 1614:1 
0.03279473633619334 478:1 1408:1 1599:1 1685:1 7519:1 7798:1 8130:1 
0.5 1290:1 1311:1 
0.0118479827359877 2773:1 7646:1 7872:1 
0.07598940623777926 515:1 2658:1 8294:1 8493:1 
0.06380921059077772 515:1 1290:1 2658:1 7825:1 
0.4943511241479289 1123:1 8496:1 
0.5 1761:1 3224:1 8497:1 8498:1 
0.5 1290:1 1436:1 
0.5 685:1 2003:1 8502:1 
0.5 52:1 3788:1 
0.121322952686249 313:1 
0.5 8515:1 
0.2274959793489407 2716:1 8518:1 
0.5 133:1 
0.5 27:1 161:1 638:1 935:1 945:1 
0.5 1379:1 
0.01557451839827034 308:1 
0.2473495882043409 44:1 911:1 4481:1 8471:1 
0.5 52:1 826:1 1011:1 1290:1 5674:1 
0.02998677757319946 2398:1 
0.5 50:1 1215:1 2040:1 7525:1 
0.1600438827181919 1346:1 1443:1 1973:1 7697:1 7698:1 7780:1 7781:1 8555:1 
0.1291018028417192 882:1 
0.367845608561398 8570:1 
0.438631769917419 953:1 1443:1 3608:1 7410:1 8263:1 
0.2776144334202384 275:1 8579:1 
0.02926859662192011 107:1 1690:1 4725:1 8364:1 8576:1 8580:1 
0.5 8:1 1827:1 7408:1 8595:1 
0.5 467:1 1475:1 
0.4442356649228129 16:1 133:1 1123:1 7037:1 
0.5 552:1 1435:1 1722:1 
0.5 7591:1 8611:1 
0.5 107:1 
0.06834583840591658 183:1 900:1 908:1 1283:1 5007:1 8620:1 
0.3540698168748867 104:1 119:1 6349:1 7399:1 
0.5 957:1 
0.5 8398:1 
0.5 8570:1 
0.3493297995479326 59:1 1080:1 1679:1 8647:1 8648:1 
0.1042919782104671 8649:1 
0.3133963215226849 2005:1 8031:1 8652:1 8653:1 
0.2917644737930923 493:1 3259:1 8174:1 8654:1 8655:1 
0.4391602629200049 253:1 717:1 4269:1 7629:1 
0.01585789579036529 2078:1 3325:1 7440:1 8183:1 8471:1 8656:1 8657:1 
0.2739477589285247 61:1 1063:1 1333:1 2266:1 4008:1 6357:1 8413:1 
0.1928186670223224 68:1 1283:1 1470:1 1974:1 7416:1 7885:1 8676:1 8677:1 
0.5 107:1 
0.3236519917699924 458:1 478:1 621:1 1009:1 1129:1 2939:1 6242:1 7142:1 7472:1 7487:1 7488:1 7527:1 8685:1 
0.2255244336429346 1129:1 2426:1 8689:1 8690:1 
0.2737979201131217 2629:1 3499:1 7978:1 8691:1 
0.2514008568668877 58:1 377:1 381:1 831:1 861:1 1487:1 2094:1 8692:1 8693:1 
0.1026793072174816 550:1 1283:1 1818:1 3249:1 5125:1 8694:1 8695:1 
0.1439179035952158 706:1 1327:1 1392:1 1535:1 4537:1 8625:1 8696:1 
0.5 107:1 948:1 1632:1 7107:1 7436:1 
0.02514052043049739 8707:1 8708:1 
0.1150992454359662 8709:1 
0.05287919175118184 537:1 8713:1 8714:1 8715:1 8716:1 
0.04449078807191327 8719:1 
5.322557606971534e-05 17:1 280:1 601:1 7449:1 7467:1 7525:1 7885:1 8666:1 8667:1 8720:1 8726:1 8727:1 
0.5 107:1 319:1 1740:1 2693:1 8728:1 8729:1 
0.2049376907644822 236:1 5441:1 7059:1 
0.08496842820125268 8625:1 8697:1 8746:1 8747:1 
0.5 409:1 8751:1 8752:1 
0.5 409:1 4546:1 
0.1082576819398854 5731:1 8753:1 8754:1 
0.1914307312396763 1470:1 7893:1 8740:1 8741:1 
0.1828179185107465 347:1 8761:1 8762:1 
0.5 1106:1 
0.1081409423732058 4002:1 8766:1 8767:1 
0.3286036703904776 267:1 330:1 1188:1 1819:1 7426:1 7843:1 8769:1 8770:1 8771:1 
0.5 119:1 6349:1 
0.3664630984780554 66:1 351:1 690:1 1551:1 2060:1 8776:1 8777:1 
0.5 273:1 
0.04563916098372544 8:1 593:1 1696:1 1819:1 1845:1 2351:1 5020:1 7947:1 8509:1 8781:1 
0.2202314715266462 133:1 239:1 288:1 3136:1 7409:1 8182:1 8788:1 8789:1 8790:1 
0.3698990125352117 344:1 820:1 8792:1 
0.1520589976555561 641:1 685:1 1990:1 3086:1 5651:1 8174:1 8796:1 
0.1166244866057821 915:1 1177:1 1215:1 
0.2146520376543903 900:1 4908:1 
0.001440953206189865 8169:1 8170:1 
0.5 133:1 372:1 4906:1 5033:1 8196:1 8821:1 
0.04764752014413726 151:1 202:1 5033:1 8071:1 8216:1 8231:1 8439:1 
0.5 2117:1 
0.5 978:1 1108:1 
0.1597139774950191 1393:1 
0.3861360274703262 23:1 119:1 173:1 1046:1 1571:1 5083:1 7480:1 7738:1 8143:1 8828:1 
0.5 45:1 59:1 1419:1 
0.244058623965154 120:1 1480:1 7839:1 7959:1 8763:1 
0.1754336360695902 17:1 1090:1 1687:1 1819:1 5850:1 7413:1 7424:1 7587:1 7877:1 8842:1 8843:1 
0.5 2458:1 4461:1 5067:1 
0.3186950793228835 1777:1 1935:1 8513:1 
0.313028424551264 2731:1 
0.5 451:1 1113:1 2407:1 8713:1 8714:1 
0.5 231:1 593:1 8490:1 8856:1 8857:1 8858:1 8859:1 
0.1476182285866001 176:1 7399:1 7519:1 8872:1 8873:1 
0.1455659280516264 40:1 135:1 815:1 6549:1 7211:1 8874:1 
0.1706149109689944 562:1 7399:1 8052:1 8875:1 8876:1 
0.04711443331385621 97:1 695:1 5675:1 5850:1 7509:1 8418:1 8745:1 
0.5 1506:1 8877:1 
0.02169024458709498 938:1 6582:1 7399:1 
0.1685413815378456 6:1 217:1 2067:1 3536:1 7702:1 8410:1 8888:1 8889:1 8890:1 
0.2348696020875983 52:1 7399:1 7462:1 8891:1 
0.03780048203631868 1440:1 2711:1 
0.43996206953163 13:1 900:1 915:1 3259:1 4083:1 8139:1 8318:1 8894:1 8895:1 8896:1 8897:1 
0.5 213:1 7522:1 7731:1 
0.2825111845203322 267:1 779:1 1090:1 1188:1 1819:1 7424:1 8900:1 8902:1 
0.06810775758629634 600:1 1106:1 4606:1 8904:1 8905:1 8906:1 
0.5 137:1 321:1 4908:1 8907:1 
0.3855139591793131 170:1 416:1 6666:1 8169:1 8170:1 8485:1 8910:1 
0.5 253:1 717:1 2833:1 7381:1 
0.4366163444282268 8:1 1827:1 7613:1 8135:1 
0.3531583990626068 202:1 381:1 589:1 1819:1 3788:1 4081:1 8925:1 8926:1 8927:1 8928:1 
0.4643977732798023 27:1 161:1 935:1 4578:1 8929:1 
0.5 119:1 2197:1 7808:1 7831:1 
0.2604490197785703 857:1 8244:1 8834:1 
0.5 4723:1 8942:1 8943:1 
0.4002724163228251 472:1 772:1 3029:1 3788:1 7207:1 8947:1 8948:1 8949:1 8950:1 8951:1 
0.5 286:1 
0.3153534387414489 2022:1 2023:1 2795:1 
0.4818068763855091 118:1 2007:1 4059:1 8957:1 8958:1 
0.5 2430:1 
0.5 7156:1 
0.05163556914381449 180:1 181:1 1009:1 3330:1 7791:1 8969:1 8970:1 8971:1 8972:1 
0.5 8570:1 
0.2351853993980519 29:1 593:1 689:1 1073:1 1585:1 2082:1 4314:1 7758:1 7759:1 7945:1 8983:1 8984:1 
0.5 2490:1 
0.2772904643073536 1792:1 8989:1 
0.5 439:1 7446:1 8614:1 
0.5 431:1 
0.5 236:1 1223:1 
0.09633035414657409 133:1 372:1 478:1 480:1 8660:1 8994:1 8995:1 
0.02365019563599133 7272:1 7964:1 8996:1 8997:1 8998:1 8999:1 9000:1 
0.3347359880378266 706:1 908:1 1194:1 3329:1 7702:1 8822:1 8888:1 9001:1 9002:1 
0.3073225747223498 1409:1 4447:1 8216:1 
0.4907432052029446 2734:1 5012:1 5973:1 9017:1 9018:1 
0.5 217:1 1819:1 
0.4136539990309534 107:1 9023:1 
0.2265492305118641 612:1 1166:1 2297:1 2302:1 2600:1 7808:1 9024:1 
0.02201307436186668 2053:1 4681:1 7411:1 9027:1 9028:1 
0.2356791307193905 1177:1 9029:1 9030:1 9031:1 
0.3003197591039851 95:1 282:1 1722:1 
0.5 951:1 8490:1 
0.1803890582230595 9040:1 
2.359223927328458e-16 4012:1 9041:1 
0.5 7591:1 
0.5 1188:1 7699:1 
0.08998309653917044 600:1 8666:1 8667:1 8784:1 
0.3928500240790468 227:1 720:1 3840:1 7893:1 9047:1 9048:1 9049:1 9050:1 
0.2062937683723249 167:1 2013:1 8323:1 8500:1 9055:1 
0.05066636174409758 1347:1 2175:1 5516:1 9061:1 
0.5 107:1 
0.5 908:1 4232:1 9067:1 
0.5 409:1 638:1 2064:1 5229:1 9068:1 
0.144623231728593 43:1 107:1 176:1 593:1 5386:1 7440:1 8365:1 8490:1 9073:1 
0.5 43:1 6354:1 8294:1 
0.5 2490:1 
0.1732758622468215 8169:1 8170:1 
0.5 255:1 9080:1 
0.5 133:1 340:1 372:1 
0.02164039649357934 2119:1 7634:1 8507:1 9089:1 9090:1 
0.039775512009303 409:1 418:1 900:1 1687:1 6471:1 8673:1 8727:1 9069:1 9091:1 9092:1 9093:1 
0.1721085835688876 451:1 1501:1 3984:1 7462:1 9099:1 
0.5 608:1 900:1 3867:1 7472:1 7705:1 8280:1 9106:1 
0.243819621106333 3362:1 3819:1 4753:1 
0.04053464404342878 710:1 1281:1 1889:1 2258:1 3531:1 6740:1 9118:1 9119:1 9120:1 9121:1 9122:1 
0.5 9123:1 
0.3386712896991826 4328:1 9124:1 
0.4545971130946568 448:1 529:1 2197:1 5850:1 7425:1 
0.09239222669786387 8934:1 8935:1 9128:1 
0.5 107:1 413:1 1133:1 1281:1 2258:1 
0.003933649507880023 1108:1 9132:1 
0.2942046254365726 1494:1 2490:1 8247:1 8347:1 9135:1 
0.4464412753681909 313:1 
0.5 107:1 3228:1 
0.5 25:1 119:1 437:1 
0.1803089557575914 9145:1 
0.1820440059717427 313:1 
0.1743919961491175 312:1 451:1 685:1 744:1 8071:1 9146:1 
0.5 577:1 957:1 2339:1 9082:1 
0.2462720244806917 338:1 3191:1 6166:1 8852:1 8853:1 8944:1 9154:1 
0.3667965335194846 685:1 8502:1 9156:1 
0.4231141895335858 6:1 213:1 317:1 660:1 900:1 4848:1 5908:1 7414:1 8179:1 9157:1 9158:1 
0.5 305:1 2629:1 3092:1 9070:1 
0.01602948429333302 7726:1 9175:1 
0.4651908049340559 36:1 549:1 599:1 7431:1 9177:1 9178:1 9179:1 
0.01542984329267657 1819:1 
0.267706658390859 1409:1 
0.3291733139399053 4632:1 9191:1 
0.002081218085427234 2296:1 3092:1 9193:1 
0.5 409:1 1551:1 3910:1 7225:1 
0.2366266499005475 469:1 3383:1 9197:1 9198:1 
0.2098734579051909 1115:1 2603:1 9199:1 
0.003303144322063802 765:1 791:1 3170:1 7107:1 9201:1 9202:1 9203:1 
0.06183770272307443 952:1 1090:1 4798:1 7039:1 7424:1 8513:1 9203:1 9204:1 
0.5 107:1 543:1 
0.5 27:1 167:1 
0.4540234247707117 4326:1 9213:1 9214:1 
0.1382878713534428 10:1 478:1 1769:1 7798:1 9209:1 9220:1 
0.5 7461:1 9221:1 
0.5 181:1 322:1 395:1 7472:1 
0.2743826478475445 112:1 7472:1 
0.1801222465695979 9262:1 
0.2171362761077269 355:1 
0.1372969578316725 313:1 7808:1 7836:1 9263:1 
0.310852311500967 59:1 2531:1 9268:1 
0.3735998857753268 7825:1 8004:1 8730:1 
0.1498997858358418 355:1 1167:1 1253:1 7424:1 7808:1 8934:1 8935:1 9126:1 
0.2270658518786337 481:1 1989:1 3505:1 7493:1 7510:1 7747:1 9278:1 
0.2263412467676355 3172:1 3947:1 
0.5 1119:1 
0.5 227:1 720:1 3840:1 9289:1 
0.1543087786962462 1004:1 8361:1 9047:1 9289:1 
0.2763346050371773 2455:1 9290:1 
0.1141529545608763 338:1 832:1 9291:1 
0.03284826984652899 7455:1 7730:1 9292:1 
0.5 70:1 2000:1 
0.03001314518871101 871:1 2202:1 3993:1 4269:1 9164:1 9303:1 
0.005340946084827747 4906:1 5233:1 
0.2636610186248621 404:1 1819:1 1849:1 2770:1 3625:1 5560:1 7427:1 
0.015878051933322 407:1 710:1 1177:1 2939:1 7467:1 7472:1 8364:1 9307:1 
0.2353869502686425 113:1 338:1 3169:1 7676:1 7677:1 9319:1 9320:1 
0.002263491848953983 180:1 7427:1 9326:1 
0.1132820365795497 119:1 4727:1 6349:1 
0.428043443118714 462:1 3460:1 3784:1 7424:1 9328:1 9329:1 
0.5 1475:1 2430:1 7519:1 
0.5 1655:1 
0.5 3412:1 9333:1 9334:1 
0.03385641728560609 259:1 1464:1 9341:1 
0.2027148785865004 44:1 2053:1 5850:1 7723:1 7846:1 8439:1 
0.06416495336814701 2629:1 7443:1 7766:1 8783:1 8873:1 
0.5 2629:1 7443:1 7766:1 8096:1 8783:1 8873:1 
0.1040637222605085 185:1 7519:1 8156:1 8525:1 
0.2860927625035529 13:1 312:1 7953:1 9362:1 
0.5 957:1 
0.5 900:1 
0.4304566452340711 4970:1 9372:1 
0.5 59:1 422:1 9137:1 
0.5 3261:1 9375:1 
0.07611318024793694 2044:1 4231:1 
0.1762427817946877 52:1 1820:1 3169:1 6510:1 7045:1 7725:1 9376:1 9377:1 
0.5 22:1 23:1 151:1 3650:1 6242:1 6438:1 8274:1 8862:1 
0.5 52:1 1418:1 
0.5 59:1 202:1 213:1 900:1 2158:1 6386:1 
0.5 431:1 
0.1914408090984403 925:1 2531:1 9405:1 9406:1 
0.1152885916542008 172:1 1119:1 7521:1 
0.5 355:1 531:1 
0.01222233762378774 1393:1 2955:1 9415:1 
0.3306484126839113 7519:1 7564:1 7666:1 
0.5 83:1 458:1 985:1 7431:1 
0.2244429726880081 600:1 
0.006977225972385422 57:1 107:1 1045:1 1110:1 2117:1 2238:1 7431:1 7483:1 7747:1 9432:1 
0.5 1290:1 1339:1 9433:1 
0.05265516935515758 68:1 900:1 2196:1 2499:1 8784:1 9046:1 9439:1 9440:1 9441:1 
0.5 84:1 1108:1 
0.07154473324628702 1300:1 1672:1 9447:1 
0.1996941692783383 646:1 1593:1 1849:1 3386:1 5033:1 9450:1 
0.226343677391972 9451:1 9452:1 
0.01161306414151942 135:1 275:1 2658:1 9455:1 
0.5 1349:1 
0.5 1240:1 1528:1 8686:1 
0.05636316742798156 9294:1 9471:1 
0.5 107:1 
0.4421849028242063 543:1 
0.5 189:1 515:1 2658:1 9155:1 
0.307986003896046 184:1 477:1 8672:1 9486:1 9487:1 
0.1801181988145941 5554:1 
0.1772065819987594 458:1 1010:1 2777:1 6234:1 7402:1 8414:1 9507:1 9508:1 
0.01559036695778446 107:1 290:1 355:1 1099:1 3086:1 
0.3725487755000704 1113:1 8039:1 8479:1 9512:1 9513:1 9514:1 
0.02941975739670664 1564:1 7234:1 8678:1 8791:1 
0.5 345:1 2078:1 7440:1 7591:1 7725:1 
0.5 151:1 
0.282853177738989 9520:1 9521:1 9522:1 9523:1 9524:1 9525:1 
0.2257809920421467 1178:1 1891:1 4282:1 
0.5 53:1 4066:1 
0.220564386033541 1393:1 2955:1 9415:1 
0.2035946509119834 40:1 355:1 1099:1 3086:1 4349:1 4606:1 8251:1 8331:1 9531:1 
0.2982528158699166 1339:1 
0.07341283173371427 515:1 640:1 2830:1 5660:1 5917:1 6453:1 9541:1 9542:1 
0.3867797823970707 137:1 957:1 1082:1 2202:1 9544:1 
0.1093765597381246 908:1 995:1 8347:1 9548:1 9549:1 
0.5 900:1 908:1 8025:1 9564:1 
0.5 133:1 9564:1 
0.09757267803312808 79:1 856:1 4371:1 9037:1 
0.141523951065835 267:1 1819:1 2027:1 2377:1 5911:1 9571:1 
0.240288845313771 91:1 294:1 2378:1 7440:1 9576:1 9577:1 9578:1 
0.2231889580899361 1792:1 2040:1 9285:1 
0.1759552399965666 181:1 294:1 1082:1 1973:1 2629:1 7443:1 8542:1 
0.5 107:1 772:1 1080:1 9094:1 
0.3505539336947825 3618:1 8513:1 9591:1 9592:1 
0.3241891399314318 1590:1 2071:1 2246:1 
0.5 70:1 236:1 1225:1 2254:1 8921:1 
0.05838951862687581 153:1 589:1 2071:1 2254:1 9594:1 
0.3845224160082016 1460:1 9595:1 
0.5 1470:1 2690:1 9600:1 
0.5 2466:1 
0.2829705225171811 2862:1 9603:1 
0.1802006301437123 9605:1 
0.1196367127110757 48:1 137:1 1113:1 7076:1 7658:1 
0.1834219068391787 1033:1 1332:1 1346:1 1706:1 1819:1 4365:1 8136:1 9133:1 9624:1 9625:1 
0.5 227:1 720:1 1080:1 6851:1 
0.5 791:1 9626:1 
0.5 181:1 4796:1 9627:1 9628:1 
0.06494853655078228 21:1 61:1 133:1 786:1 7799:1 8145:1 9642:1 
0.2303427516426637 5710:1 8352:1 
0.4436676144344748 137:1 1156:1 
0.290778793392296 40:1 1461:1 7872:1 9657:1 9658:1 9659:1 
0.02995761328956579 61:1 3905:1 7461:1 
0.2057785942337437 48:1 350:1 5233:1 7226:1 7494:1 7495:1 9671:1 
0.5 107:1 
0.5 107:1 
0.5 107:1 7378:1 
0.0121081510906196 689:1 1332:1 2345:1 8274:1 8862:1 8974:1 9672:1 9673:1 
0.4215151485205595 1072:1 1188:1 1696:1 3985:1 8168:1 8692:1 9674:1 9675:1 9676:1 9677:1 
0.301939691167544 7466:1 
0.04718671718367962 9691:1 
0.02615798081538413 4055:1 4477:1 8720:1 9701:1 9702:1 
0.2231152254259422 107:1 1106:1 1971:1 7799:1 8748:1 
0.5 355:1 531:1 
0.2260878905904831 72:1 381:1 3019:1 6850:1 7682:1 8720:1 9710:1 
0.436346108204566 2053:1 6732:1 8498:1 9714:1 
0.4185267467951468 44:1 50:1 137:1 8898:1 
0.5 204:1 9716:1 
0.2852389341848449 5523:1 9717:1 9718:1 
0.5 904:1 9721:1 
0.5 2490:1 7426:1 
0.5 1494:1 9135:1 
0.5 458:1 1080:1 1679:1 6113:1 9094:1 9728:1 
0.5 720:1 
0.2744041929031347 181:1 227:1 1080:1 7925:1 8722:1 8894:1 9094:1 9730:1 
0.5 43:1 593:1 9735:1 
0.01767364303742673 27:1 862:1 9741:1 
0.5 113:1 
0.1884732862477981 431:1 475:1 1425:1 1546:1 
0.5 2629:1 
0.03981391731981561 275:1 9334:1 
0.2279199716320489 843:1 1846:1 3812:1 4068:1 7495:1 9762:1 9763:1 
0.2378890947024325 97:1 7361:1 7385:1 8168:1 8745:1 
0.4313293576674909 1438:1 4997:1 6155:1 8644:1 
0.2346146245817842 1215:1 1502:1 1849:1 3275:1 6176:1 8288:1 9575:1 
0.3180988340997299 7402:1 9772:1 
0.1814362613741028 6016:1 7519:1 7818:1 9754:1 
0.2521359362921102 7:1 561:1 931:1 7642:1 9479:1 9774:1 9775:1 9776:1 9777:1 
0.2697338700430332 9778:1 9779:1 9780:1 
0.2136020154525258 673:1 689:1 900:1 1186:1 1188:1 2684:1 4777:1 7447:1 7587:1 8922:1 9783:1 
0.09645099172675184 673:1 689:1 1188:1 1194:1 3878:1 4777:1 7462:1 8922:1 9788:1 
0.1842422724753255 820:1 2609:1 6103:1 7477:1 8071:1 9676:1 9789:1 
0.5 52:1 66:1 107:1 562:1 7522:1 8233:1 
0.111430988375007 3695:1 9525:1 9792:1 9793:1 9794:1 9795:1 9796:1 9797:1 
0.2920169139588581 831:1 8575:1 9798:1 
0.08383188616841721 66:1 135:1 2158:1 7400:1 9575:1 9804:1 
0.04138702027566523 2205:1 4777:1 7587:1 8095:1 8437:1 8922:1 9329:1 9805:1 9806:1 
0.5 79:1 2064:1 3225:1 4516:1 4653:1 9808:1 
0.06945471074860934 475:1 1846:1 1941:1 5683:1 7978:1 9811:1 
0.4459183395184713 11:1 13:1 68:1 1487:1 2830:1 4066:1 4083:1 7978:1 8345:1 8820:1 9814:1 
0.2127841267025422 995:1 1072:1 9815:1 
0.5 334:1 472:1 904:1 8227:1 
0.004877963734915087 170:1 793:1 8759:1 
0.0685648665052018 48:1 1487:1 4066:1 4546:1 5911:1 6050:1 7893:1 8300:1 9820:1 9821:1 
0.04424027878682322 1123:1 8359:1 8416:1 
0.5 133:1 390:1 590:1 8402:1 8442:1 
0.1888593857268128 472:1 720:1 5850:1 7522:1 8264:1 9833:1 9834:1 
0.5 442:1 3031:1 9031:1 9836:1 
0.3728207274229069 29:1 68:1 1109:1 1487:1 2345:1 2734:1 3299:1 3590:1 4066:1 4314:1 8983:1 
0.08137570881786954 107:1 185:1 5864:1 
0.5 66:1 
0.1299945525421816 52:1 285:1 3594:1 7448:1 7449:1 7450:1 8099:1 9845:1 
0.5 45:1 223:1 321:1 355:1 1106:1 1133:1 1281:1 2645:1 7952:1 9402:1 
0.259190782918822 68:1 137:1 2295:1 8806:1 
0.204667071354435 1530:1 7519:1 8280:1 9141:1 
0.09781966124182323 4282:1 6021:1 6723:1 8447:1 
0.5 790:1 1080:1 1469:1 1586:1 3122:1 9860:1 
0.3969214257241894 66:1 5642:1 7014:1 8199:1 
0.1803515917234318 706:1 1090:1 1391:1 1751:1 3249:1 3326:1 4723:1 8606:1 
0.1411829928245051 153:1 589:1 4125:1 
0.5 515:1 706:1 1427:1 1724:1 8174:1 9869:1 
0.2639426650541478 116:1 167:1 9870:1 
0.2020625156850344 5233:1 9299:1 9872:1 
0.5 900:1 
0.209606651324154 575:1 1614:1 5516:1 5864:1 7910:1 
0.5 409:1 900:1 1487:1 1687:1 6471:1 9885:1 9886:1 
0.1685911217998413 38:1 59:1 1401:1 1819:1 2430:1 7541:1 7658:1 8812:1 9887:1 
0.3301231728789936 2192:1 
0.04084011912808787 1460:1 7499:1 
0.5 153:1 
0.5 1409:1 9902:1 
0.06224308941376466 107:1 1806:1 1933:1 3657:1 8623:1 9908:1 9909:1 9910:1 
0.5 137:1 710:1 826:1 1133:1 5900:1 9137:1 9894:1 9895:1 
0.5 133:1 276:1 476:1 1213:1 1231:1 2377:1 9894:1 9895:1 
0.1750186828759346 3097:1 9912:1 
0.3783300644081945 2626:1 5462:1 6012:1 8829:1 9920:1 
0.5 935:1 1713:1 1716:1 2469:1 2844:1 8759:1 8952:1 9922:1 9923:1 
0.2965174711154313 48:1 431:1 778:1 1113:1 7251:1 
0.1390759458447277 280:1 380:1 931:1 7598:1 8438:1 
0.4821094638268099 196:1 7107:1 
0.3888713049400517 335:1 4256:1 9926:1 
0.3088989001322759 957:1 6471:1 7056:1 7402:1 
0.2769176285632663 1080:1 1218:1 1286:1 1300:1 1587:1 2388:1 2455:1 8722:1 9094:1 
0.5 1819:1 2022:1 3151:1 3383:1 5818:1 8199:1 9930:1 9931:1 
0.1922959529459448 379:1 1427:1 2103:1 2117:1 5850:1 9350:1 9932:1 9933:1 9934:1 
0.2492601956418603 176:1 236:1 862:1 908:1 5073:1 8643:1 9108:1 9431:1 9938:1 9939:1 
0.01104233041634095 68:1 549:1 900:1 2734:1 3427:1 4686:1 9279:1 
0.2218689652589073 1133:1 2610:1 5436:1 7814:1 9944:1 
0.04594122541911954 2011:1 2610:1 7940:1 7961:1 8355:1 9947:1 
0.5 43:1 638:1 1479:1 3812:1 9949:1 
0.1835633108489134 1349:1 8252:1 
0.2521358372254039 107:1 600:1 8104:1 8105:1 
0.03960608139206753 1419:1 9967:1 
0.2495358598132941 66:1 4068:1 9643:1 
0.04913803254119655 561:1 4784:1 7550:1 7551:1 8055:1 
0.1180804765818585 1532:1 9977:1 
0.2620236216053564 410:1 1058:1 4768:1 8579:1 9981:1 
0.3368743868955228 4584:1 9375:1 
0.1400317794502506 56:1 687:1 900:1 953:1 1119:1 1312:1 7598:1 8116:1 9985:1 
0.31131655102216 8835:1 9554:1 9745:1 
0.5 273:1 590:1 
0.04234207001416373 107:1 2103:1 2645:1 7599:1 7642:1 7952:1 8418:1 9682:1 9991:1 
0.5 706:1 
0.2567638285679941 915:1 4361:1 5935:1 6483:1 7836:1 
0.04085827482870408 3498:1 
0.106513688311541 202:1 2518:1 2896:1 8025:1 
0.04020852535930972 623:1 744:1 2531:1 3686:1 8542:1 9895:1 9906:1 9907:1 9908:1 10005:1 
0.02053364608743277 93:1 173:1 243:1 269:1 793:1 1359:1 1806:1 2144:1 2148:1 2667:1 4781:1 5516:1 10006:1 
0.0574645401963802 1090:1 1915:1 2717:1 3191:1 7804:1 8164:1 9094:1 9509:1 
0.06960438795749595 355:1 2121:1 3490:1 7958:1 8796:1 
0.1633805430468749 4421:1 8823:1 
0.2425325543705389 2833:1 4122:1 6278:1 10012:1 
0.5 107:1 451:1 499:1 537:1 7380:1 7440:1 7818:1 
0.3045987294443637 6563:1 10016:1 
0.5 1466:1 10018:1 
0.5 253:1 273:1 
0.1760758178310969 7:1 170:1 900:1 8124:1 8125:1 8126:1 
0.2857003598427181 68:1 820:1 900:1 1118:1 3355:1 3624:1 8915:1 8916:1 10030:1 
0.13477896605605 1740:1 5198:1 5374:1 5375:1 5376:1 10042:1 
0.5 133:1 245:1 380:1 1875:1 
0.0617480865774933 820:1 4462:1 10113:1 
0.5 22:1 23:1 1282:1 4486:1 10113:1 10120:1 
0.5 22:1 23:1 1173:1 1819:1 4462:1 10113:1 
0.5 314:1 1039:1 4529:1 
0.0768381851188407 4484:1 4485:1 4497:1 4498:1 4815:1 6437:1 7378:1 10123:1 
0.2685294195727436 321:1 695:1 1488:1 3275:1 5052:1 8458:1 9187:1 
0.003512434222835254 137:1 1961:1 2430:1 4426:1 5195:1 5237:1 5361:1 5362:1 10129:1 
0.04439018030576644 4484:1 4815:1 5381:1 6437:1 7378:1 10142:1 
0.03103799646113056 478:1 10181:1 10182:1 
0.3876512178276664 72:1 649:1 2629:1 10179:1 10181:1 
0.5 1004:1 1576:1 3900:1 5324:1 
0.4451014302376698 175:1 727:1 826:1 1218:1 4656:1 4908:1 5475:1 7025:1 8862:1 10212:1 
0.07535779961521349 169:1 4815:1 5430:1 5577:1 5652:1 10211:1 
0.07417854426194254 130:1 1560:1 1614:1 6437:1 
0.09016568028272637 6323:1 10220:1 
0.06484312713768745 706:1 780:1 2732:1 4486:1 10221:1 10222:1 
0.5 233:1 4515:1 
0.5 227:1 294:1 681:1 933:1 1918:1 
0.2615272736329873 167:1 681:1 4724:1 10108:1 10234:1 
0.5 66:1 10240:1 
0.2989402867337553 681:1 
0.1180652783263352 681:1 
0.5 10266:1 
0.5 48:1 706:1 5533:1 
0.199009816992697 134:1 706:1 4486:1 10284:1 10285:1 
0.4688874629593102 43:1 4426:1 10293:1 
0.1141919234481464 338:1 485:1 1315:1 4472:1 4490:1 4491:1 4534:1 5296:1 5313:1 5356:1 5373:1 5381:1 5430:1 5475:1 
0.1156158498611318 314:1 1530:1 2321:1 2619:1 5806:1 7025:1 
0.06611790942565787 1300:1 10309:1 
0.1131424915492575 674:1 7872:1 10310:1 10311:1 
0.5 184:1 280:1 613:1 
0.1771081648163344 5981:1 
0.5 1205:1 
0.003332667752756313 1300:1 10309:1 
0.4821227488152499 1036:1 
0.5 68:1 113:1 
0.5 689:1 
0.03294080282328058 1409:1 
0.5 1004:1 
0.0480649153878789 3562:1 3564:1 3843:1 3917:1 
0.04871666501289131 4248:1 10345:1 10346:1 
0.2421302337683161 10351:1 
0.03930897089952699 1300:1 10309:1 
0.5 52:1 761:1 10330:1 
0.5 273:1 458:1 704:1 1045:1 1792:1 10318:1 10370:1 
0.200645532152303 7:1 431:1 1084:1 4543:1 10318:1 10344:1 
0.08339264644596107 42:1 861:1 2014:1 10006:1 
0.5 16:1 137:1 233:1 599:1 941:1 1213:1 
0.3400418841795801 9969:1 10379:1 
0.5 107:1 10380:1 
0.3897028811741017 413:1 589:1 941:1 
0.08857469223250387 485:1 918:1 941:1 2801:1 4043:1 10386:1 10387:1 10388:1 10389:1 10390:1 10391:1 10392:1 10393:1 
0.5 1379:1 
0.4590463226109293 47:1 52:1 5690:1 9019:1 
0.5 288:1 941:1 1706:1 10308:1 
0.5 275:1 507:1 
0.5 1226:1 
0.5 22:1 23:1 176:1 
0.5 422:1 614:1 
0.1187048524058381 941:1 
0.030539230484187 1409:1 
0.0242722366185549 882:1 
0.02291789735287346 1300:1 10309:1 
0.4395298741008463 181:1 401:1 405:1 527:1 2401:1 
0.3942129571720859 10421:1 
0.5 1188:1 
0.5 689:1 
0.1994509831471004 10429:1 
0.345177721984699 3575:1 10410:1 10431:1 
0.1331218764960662 217:1 1087:1 1379:1 2753:1 10395:1 10410:1 
0.5 119:1 217:1 653:1 2498:1 10324:1 10347:1 
0.5 10434:1 10435:1 
0.3352651348358746 983:1 10427:1 10433:1 10436:1 10437:1 10438:1 10439:1 10440:1 10441:1 10442:1 
0.5 10351:1 
0.5 79:1 81:1 107:1 10409:1 
0.09086909091003077 10446:1 10447:1 
0.5 137:1 349:1 10410:1 
0.5 18:1 22:1 23:1 38:1 1101:1 1183:1 1409:1 10409:1 
0.03549930302315622 16:1 18:1 22:1 23:1 133:1 169:1 5629:1 10410:1 
0.4993158492920339 137:1 3053:1 6063:1 10453:1 
0.004840871312487375 1300:1 10309:1 
0.08008784359168186 4055:1 10409:1 10456:1 
0.487562530369288 505:1 
0.09332406646585935 527:1 622:1 941:1 1421:1 8776:1 10313:1 10461:1 
0.010479517252755 1106:1 10445:1 
0.4191007143600254 941:1 
0.5 625:1 710:1 
0.009612565044070953 1300:1 10309:1 
0.2621613789394343 112:1 2964:1 3732:1 10470:1 10471:1 10472:1 10473:1 10474:1 10475:1 
0.06186064734898761 2404:1 6620:1 
0.5 1379:1 
0.5 217:1 
0.5 1460:1 
0.07441677238459415 4848:1 10478:1 
0.008652438340915128 1300:1 10309:1 
0.5 1379:1 
0.5 52:1 531:1 
0.5 1379:1 
0.4141253446086936 422:1 3655:1 7579:1 
0.5 153:1 
0.5 349:1 
0.5 1379:1 
0.5 1379:1 
0.207028651454788 48:1 331:1 458:1 674:1 813:1 1287:1 1505:1 7579:1 8621:1 
0.2541108844184095 1573:1 1999:1 
0.04680877006759879 2507:1 2961:1 2962:1 10511:1 10512:1 10513:1 10514:1 10515:1 10516:1 
0.5 113:1 
0.5 153:1 
0.4437576367284954 48:1 153:1 335:1 2975:1 8093:1 
0.04090071852175237 113:1 2254:1 
0.03819482048493368 401:1 501:1 9806:1 10531:1 10532:1 
0.5 60:1 153:1 233:1 710:1 3320:1 
0.5 689:1 
0.1563327032337231 1409:1 
0.04002985470951496 7:1 84:1 119:1 153:1 2770:1 4055:1 
0.004002671875531235 8776:1 
0.31108182460548 505:1 
0.01169546778525616 861:1 10574:1 
0.488948216639621 355:1 531:1 
0.3618794703419208 507:1 10533:1 
0.5 952:1 
0.5 153:1 
0.5 948:1 
0.2859731220881203 10421:1 
0.5 36:1 861:1 2656:1 
0.5 10421:1 
0.5 355:1 531:1 
0.5 184:1 217:1 10308:1 
0.1801454018172408 10352:1 
0.5 326:1 
0.5 409:1 2430:1 6753:1 10598:1 
0.1116378683677116 458:1 3005:1 6620:1 10342:1 10504:1 10599:1 10600:1 10601:1 10602:1 
0.001177743653624345 22:1 23:1 276:1 10308:1 10317:1 10318:1 
0.5 689:1 3198:1 
0.5 422:1 614:1 
0.5 1530:1 1999:1 2346:1 
0.2168546176536834 689:1 1706:1 6438:1 10308:1 10344:1 
0.5 1409:1 
0.4198095505379672 191:1 458:1 670:1 3324:1 3419:1 4641:1 
0.3184788617187488 56:1 184:1 1792:1 2430:1 10315:1 10624:1 
0.17338752753662 107:1 560:1 591:1 2430:1 8621:1 10625:1 
0.4193689427327992 122:1 1350:1 2430:1 10623:1 
0.3009455229789733 3254:1 
0.5 275:1 620:1 621:1 
0.04371753630931915 137:1 153:1 978:1 10430:1 
0.5 184:1 761:1 
0.5 326:1 
0.5 505:1 
0.5 431:1 10610:1 
0.5 66:1 1576:1 10354:1 10355:1 
0.291543117941849 16:1 133:1 
0.3111267673443848 4055:1 10456:1 10662:1 
0.5 6:1 137:1 323:1 349:1 1394:1 
0.5 689:1 
0.1354261291455499 10429:1 
0.5 47:1 1409:1 
0.3290939428938593 4012:1 
0.1130891253385908 882:1 
0.4348252164252261 6:1 323:1 578:1 689:1 10315:1 
0.01068527737364866 22:1 23:1 276:1 10308:1 10317:1 10318:1 
0.1162222396675634 1724:1 6019:1 8531:1 
0.5 184:1 
0.5 507:1 10313:1 
0.5 521:1 
0.5 52:1 690:1 
0.5 349:1 
0.3903637748947762 8776:1 
0.5 22:1 23:1 38:1 479:1 3686:1 
0.5 22:1 23:1 48:1 
0.4200419287338113 153:1 1162:1 10696:1 
0.5 22:1 23:1 
0.5 45:1 2031:1 10694:1 
0.1332423333455033 861:1 7041:1 8137:1 
0.5 1188:1 
0.5 123:1 133:1 276:1 10312:1 
0.5 689:1 
0.3536115748172451 153:1 
0.5 393:1 1840:1 
0.5 153:1 
0.3106507187292523 57:1 119:1 744:1 1099:1 3067:1 10633:1 10707:1 10708:1 
0.5 10351:1 
0.4805622395383067 2404:1 6620:1 
0.1464177929186823 313:1 
0.3555249981025609 1004:1 10627:1 
0.5 153:1 
0.5 326:1 
0.5 22:1 23:1 169:1 10318:1 
0.2878895714459944 496:1 1612:1 2727:1 
0.03901672347348645 22:1 23:1 169:1 1126:1 10318:1 10703:1 
0.5 22:1 23:1 133:1 276:1 1074:1 10317:1 10318:1 10703:1 
0.5 1300:1 10309:1 
0.5 22:1 23:1 426:1 528:1 595:1 1313:1 2198:1 6361:1 10087:1 
0.5 22:1 23:1 24:1 25:1 26:1 
0.5 20:1 27:1 28:1 29:1 30:1 31:1 32:1 33:1 
0.5 33:1 43:1 44:1 45:1 46:1 47:1 48:1 49:1 
0.5 97:1 
0.4634734122100093 109:1 110:1 111:1 112:1 113:1 114:1 115:1 116:1 
0.5 27:1 149:1 150:1 151:1 
0.1049110462602485 103:1 123:1 161:1 162:1 163:1 164:1 165:1 166:1 
0.3662487355664837 132:1 135:1 177:1 184:1 
0.5 187:1 
0.5 41:1 210:1 
0.5 222:1 
0.5 26:1 232:1 
0.5 20:1 27:1 41:1 60:1 156:1 210:1 
0.5 46:1 47:1 93:1 210:1 288:1 289:1 290:1 291:1 292:1 
0.5 20:1 27:1 156:1 177:1 312:1 313:1 314:1 
0.5 325:1 
0.5 326:1 
0.5 10:1 328:1 329:1 330:1 
0.5 14:1 15:1 68:1 69:1 78:1 107:1 363:1 364:1 365:1 366:1 
0.2858362453902031 69:1 288:1 358:1 398:1 399:1 400:1 401:1 402:1 403:1 404:1 405:1 406:1 
0.5 128:1 301:1 312:1 422:1 423:1 424:1 425:1 426:1 427:1 
0.5 196:1 197:1 430:1 431:1 
0.5 110:1 111:1 456:1 457:1 458:1 459:1 460:1 461:1 462:1 
0.02880595453193632 482:1 483:1 484:1 
0.5 129:1 524:1 525:1 526:1 527:1 528:1 529:1 
0.5 181:1 312:1 468:1 534:1 550:1 551:1 552:1 553:1 554:1 
0.5 326:1 
0.2642046822601568 436:1 571:1 572:1 573:1 574:1 575:1 576:1 577:1 
0.126981340137551 272:1 578:1 579:1 580:1 
0.02022273860647926 20:1 27:1 60:1 156:1 468:1 559:1 
0.5 184:1 587:1 588:1 
0.5 423:1 468:1 481:1 600:1 603:1 604:1 605:1 606:1 
0.5 50:1 51:1 52:1 53:1 55:1 145:1 468:1 636:1 637:1 
0.5 211:1 215:1 308:1 651:1 652:1 653:1 654:1 
0.2697055388986247 83:1 129:1 392:1 643:1 655:1 656:1 657:1 
0.0548913266648227 308:1 453:1 529:1 643:1 658:1 
0.5 11:1 202:1 203:1 666:1 
0.5 140:1 579:1 685:1 686:1 687:1 688:1 689:1 690:1 691:1 
0.5 92:1 268:1 328:1 625:1 626:1 627:1 710:1 711:1 
0.5 715:1 
0.4384513809141502 221:1 716:1 717:1 
0.4379135491721647 130:1 644:1 669:1 719:1 720:1 721:1 722:1 723:1 
0.5 27:1 168:1 739:1 750:1 751:1 752:1 753:1 754:1 
0.4318966860906895 27:1 40:1 750:1 755:1 756:1 757:1 
0.5 52:1 91:1 135:1 136:1 168:1 767:1 768:1 769:1 770:1 
0.5 543:1 775:1 776:1 777:1 
0.02122304002592493 27:1 60:1 98:1 558:1 791:1 792:1 793:1 794:1 
0.5 791:1 800:1 801:1 
0.5 562:1 791:1 802:1 803:1 804:1 805:1 
0.5 558:1 806:1 807:1 808:1 
0.5 10:1 831:1 832:1 833:1 834:1 835:1 836:1 
0.5 837:1 838:1 
0.5 11:1 196:1 226:1 665:1 841:1 
0.5 848:1 849:1 
0.5 852:1 
0.5 41:1 181:1 257:1 701:1 769:1 853:1 
0.5 861:1 
0.5 86:1 129:1 435:1 862:1 863:1 864:1 865:1 866:1 867:1 
0.5 882:1 883:1 
0.5 890:1 
0.5 27:1 156:1 860:1 897:1 
0.5 19:1 64:1 65:1 941:1 942:1 
0.1549007722878771 27:1 68:1 815:1 945:1 946:1 947:1 948:1 949:1 950:1 
0.2036430649842287 92:1 181:1 897:1 950:1 951:1 952:1 953:1 954:1 
0.5 504:1 945:1 955:1 956:1 957:1 958:1 959:1 
0.5 135:1 864:1 945:1 999:1 1000:1 1001:1 1002:1 
0.1401534772035416 296:1 297:1 1003:1 1004:1 1005:1 1006:1 
0.001220567672731337 452:1 491:1 948:1 1015:1 1016:1 1017:1 
0.5 27:1 29:1 69:1 402:1 1026:1 1027:1 
0.3523517404899947 27:1 128:1 156:1 473:1 930:1 945:1 
0.5 89:1 452:1 945:1 1017:1 1041:1 1042:1 
0.5 6:1 89:1 138:1 1057:1 1058:1 
0.5 11:1 129:1 1019:1 1020:1 1021:1 1058:1 1061:1 1062:1 1063:1 
0.5 41:1 89:1 360:1 954:1 1058:1 1071:1 1072:1 1073:1 
0.5 11:1 665:1 1074:1 
0.3584498694725672 665:1 1077:1 
0.3438396820764955 41:1 669:1 705:1 1058:1 1107:1 1108:1 
0.2887565380899246 571:1 
0.5 27:1 29:1 35:1 69:1 226:1 1058:1 1126:1 1127:1 1128:1 1129:1 
0.5 504:1 712:1 953:1 1130:1 1131:1 1132:1 1133:1 1134:1 1135:1 1136:1 
0.5 60:1 135:1 138:1 184:1 
0.5 1149:1 1151:1 1152:1 1153:1 1154:1 1155:1 1156:1 
0.05820458090785648 276:1 1149:1 1159:1 1160:1 1161:1 1162:1 
0.2760012952722884 199:1 510:1 578:1 824:1 1140:1 1142:1 1149:1 1157:1 1163:1 1164:1 1165:1 
0.1880207969837787 846:1 847:1 1206:1 1207:1 1208:1 1209:1 
0.5 328:1 708:1 1214:1 1215:1 1216:1 
0.5 27:1 41:1 156:1 558:1 1142:1 
0.4916280868833547 123:1 269:1 334:1 1235:1 1236:1 1237:1 1238:1 1239:1 1240:1 1241:1 1242:1 
0.1018538128426956 477:1 597:1 948:1 1250:1 1251:1 1252:1 
0.2430394674052647 1257:1 1258:1 
0.5 53:1 185:1 967:1 1247:1 1252:1 1270:1 1271:1 1272:1 1273:1 1274:1 
0.1529369422626386 986:1 992:1 1290:1 
0.5 11:1 665:1 1326:1 
0.2126792270119811 255:1 488:1 1327:1 1328:1 1329:1 
0.5 268:1 862:1 1343:1 1344:1 
0.5 69:1 152:1 769:1 787:1 868:1 938:1 1392:1 1393:1 
0.5 181:1 787:1 938:1 1393:1 
0.2905117500583133 418:1 419:1 1420:1 1421:1 1422:1 
0.5 27:1 128:1 156:1 473:1 930:1 
0.5 91:1 120:1 181:1 769:1 1427:1 
0.5 27:1 69:1 473:1 1427:1 1430:1 1432:1 1433:1 1434:1 1435:1 1436:1 
0.2278715281553705 27:1 758:1 1427:1 1463:1 1464:1 1465:1 
0.5 1479:1 
0.5 11:1 1480:1 1481:1 
0.5 11:1 417:1 1485:1 
0.3760135601097477 22:1 23:1 24:1 25:1 263:1 1529:1 
0.5 11:1 1535:1 1536:1 
0.1108607587502721 1555:1 1556:1 1557:1 1558:1 1559:1 1560:1 
0.2233222146306453 289:1 453:1 617:1 1562:1 1564:1 1565:1 1566:1 1567:1 1568:1 
0.5 97:1 
0.5 20:1 27:1 33:1 41:1 156:1 1580:1 
0.0003258155035725796 1618:1 
0.143707452549021 28:1 131:1 543:1 738:1 1053:1 1534:1 1631:1 1632:1 
0.1574970859369351 15:1 28:1 69:1 92:1 138:1 758:1 1631:1 1633:1 
0.01952233011679942 91:1 534:1 758:1 787:1 1637:1 1638:1 
0.1799194546523329 1618:1 
0.3487172579230503 48:1 85:1 86:1 132:1 387:1 1641:1 1707:1 
0.5 139:1 181:1 210:1 769:1 
0.5 26:1 222:1 
0.5 85:1 210:1 387:1 508:1 624:1 1713:1 1714:1 
0.1717626182309706 42:1 109:1 110:1 193:1 1044:1 1094:1 1106:1 1720:1 1721:1 1722:1 1723:1 
0.5 27:1 28:1 167:1 210:1 768:1 1376:1 1731:1 
0.5 93:1 310:1 595:1 1739:1 1740:1 1741:1 1742:1 1743:1 
0.5 20:1 27:1 41:1 60:1 156:1 210:1 
0.5 1760:1 1761:1 1762:1 
0.5 226:1 595:1 1763:1 
0.5 326:1 
0.1437910292479639 139:1 337:1 1437:1 1839:1 1840:1 
0.5 184:1 1898:1 
0.3786464578477891 27:1 156:1 644:1 1252:1 1956:1 1957:1 1958:1 1959:1 1960:1 
0.2108960071031993 21:1 27:1 152:1 156:1 481:1 591:1 644:1 1406:1 1972:1 
0.5 91:1 156:1 215:1 227:1 644:1 1972:1 
0.09365575072798624 120:1 257:1 312:1 896:1 1983:1 1987:1 1988:1 
0.005190312742165496 80:1 291:1 672:1 1721:1 1997:1 1998:1 1999:1 2000:1 2001:1 2002:1 
0.1599780551485179 111:1 307:1 893:1 894:1 895:1 1879:1 2039:1 2040:1 2041:1 2042:1 
0.5 41:1 64:1 107:1 140:1 701:1 1391:1 1781:1 2043:1 2044:1 
0.5 42:1 357:1 358:1 2055:1 
0.1507770308555908 253:1 255:1 346:1 357:1 358:1 493:1 1246:1 1369:1 1451:1 2056:1 
0.5 184:1 945:1 
0.5 481:1 679:1 1994:1 
0.1401474562433609 328:1 334:1 448:1 1170:1 2118:1 2119:1 
0.1717984188788524 1259:1 2120:1 
0.0957736509965267 263:1 616:1 1259:1 2012:1 2025:1 2120:1 2121:1 2122:1 2123:1 2124:1 
0.04193734803441965 152:1 669:1 1760:1 2054:1 2148:1 2149:1 2150:1 
0.5 9:1 46:1 47:1 175:1 291:1 292:1 1058:1 1718:1 2186:1 
0.5 47:1 175:1 291:1 438:1 439:1 1058:1 
0.5 193:1 
0.4418543030652184 46:1 47:1 136:1 205:1 1058:1 1330:1 
0.1654772371289586 310:1 564:1 640:1 2054:1 2170:1 2223:1 2224:1 2225:1 2226:1 2227:1 2228:1 2229:1 2230:1 
0.5 690:1 1323:1 1736:1 2226:1 2227:1 2228:1 2229:1 2230:1 2231:1 2232:1 2233:1 
0.03591253989667124 27:1 41:1 156:1 312:1 565:1 758:1 1634:1 1755:1 2245:1 
0.08324023752527694 83:1 439:1 452:1 453:1 591:1 2248:1 2249:1 2250:1 2251:1 2252:1 
0.1193080037963469 153:1 288:1 865:1 2260:1 
0.09946733772627001 103:1 152:1 358:1 930:1 1819:1 1869:1 2261:1 
0.2535940923667931 79:1 453:1 564:1 583:1 1052:1 2269:1 2270:1 2271:1 
0.5 1052:1 1846:1 2272:1 2273:1 2274:1 2275:1 2276:1 
0.150973407877186 71:1 92:1 111:1 894:1 895:1 2301:1 2302:1 2303:1 2304:1 2305:1 2306:1 
0.05566780436856604 2323:1 2324:1 2325:1 
0.5 89:1 129:1 681:1 769:1 1391:1 2326:1 2327:1 2328:1 2329:1 2330:1 2331:1 
0.2547148764487572 1945:1 1999:1 2063:1 2104:1 2325:1 2332:1 2333:1 2334:1 2335:1 
0.5 28:1 92:1 138:1 681:1 758:1 929:1 2350:1 2351:1 
0.5 28:1 138:1 738:1 758:1 1628:1 
0.1260647447011782 129:1 360:1 759:1 1996:1 2357:1 2358:1 2359:1 2360:1 2361:1 
0.5 92:1 184:1 392:1 467:1 512:1 2327:1 2384:1 2385:1 2386:1 2387:1 
0.0486197355473033 129:1 467:1 787:1 2014:1 2351:1 2393:1 
0.5 129:1 257:1 651:1 769:1 1211:1 2341:1 2345:1 2390:1 2396:1 2397:1 2398:1 
0.254245550108562 39:1 79:1 129:1 310:1 681:1 899:1 1766:1 2006:1 2349:1 2419:1 2420:1 2421:1 2422:1 
0.1627115885666021 92:1 93:1 182:1 308:1 744:1 787:1 899:1 1380:1 2427:1 
0.2005607665455071 69:1 562:1 681:1 824:1 899:1 1765:1 2453:1 2454:1 2455:1 2456:1 
0.2967700142029812 69:1 257:1 899:1 1482:1 2294:1 2457:1 2458:1 2459:1 2460:1 2461:1 2462:1 2463:1 
0.5 543:1 899:1 2426:1 2477:1 2484:1 2488:1 2489:1 
0.5 1302:1 2495:1 2496:1 
0.220838651113128 75:1 2200:1 2290:1 2513:1 2514:1 2515:1 2516:1 2517:1 2518:1 2519:1 
0.2207399308813599 196:1 197:1 251:1 665:1 2189:1 2520:1 2521:1 2522:1 
0.5 91:1 141:1 616:1 762:1 769:1 1112:1 2527:1 2528:1 2529:1 2530:1 
0.4887416024769858 184:1 2335:1 2534:1 
0.1612452638277578 1181:1 2054:1 2567:1 2568:1 2569:1 2570:1 2571:1 
0.09199845736694827 136:1 769:1 2077:1 
0.5 50:1 51:1 138:1 758:1 767:1 769:1 2575:1 2576:1 2577:1 2578:1 
0.2146142657265872 2586:1 2587:1 
0.5 33:1 257:1 2203:1 2597:1 2598:1 
0.4754476421053828 33:1 257:1 491:1 2203:1 2597:1 2598:1 
0.3531013806339238 47:1 71:1 111:1 894:1 895:1 1083:1 1489:1 2625:1 2626:1 
0.1070250468499613 1000:1 2169:1 
0.3669325527192411 219:1 292:1 758:1 2631:1 2637:1 2638:1 2639:1 
0.2669701277280763 226:1 603:1 693:1 758:1 2661:1 2662:1 2663:1 2664:1 2665:1 2666:1 
0.004025362790067848 758:1 2631:1 2652:1 2671:1 2672:1 2673:1 2674:1 
0.5 527:1 758:1 2631:1 2675:1 2688:1 2689:1 
0.3796531172752699 272:1 698:1 1340:1 1736:1 2631:1 2693:1 
0.5 552:1 1107:1 2631:1 2707:1 2708:1 2709:1 
0.5 374:1 552:1 575:1 758:1 1163:1 1784:1 2631:1 2710:1 2711:1 
0.5 392:1 527:1 528:1 2168:1 2631:1 2737:1 
0.5 603:1 758:1 2637:1 2738:1 2739:1 2740:1 
0.2258324254647972 310:1 527:1 2675:1 2688:1 2689:1 2748:1 2749:1 2750:1 
0.4383846703627261 2631:1 2758:1 
0.5 27:1 156:1 219:1 514:1 565:1 683:1 758:1 1698:1 2245:1 2381:1 
0.1987108585134373 110:1 111:1 393:1 456:1 583:1 1676:1 1677:1 1911:1 2827:1 2829:1 2830:1 2831:1 2832:1 
0.3299764975760056 255:1 355:1 357:1 358:1 789:1 917:1 1451:1 2834:1 2835:1 2836:1 
0.5 2847:1 2848:1 2849:1 2850:1 
0.1044338376031755 176:1 196:1 197:1 251:1 253:1 254:1 255:1 294:1 346:1 355:1 431:1 565:1 2855:1 
0.5 47:1 175:1 286:1 287:1 291:1 337:1 340:1 
0.5 184:1 337:1 359:1 2364:1 2856:1 
0.5 255:1 346:1 355:1 
0.5 2859:1 2860:1 
