svm_type nu_svc
kernel_type linear
nr_class 2
total_sv 7084
rho -2.67007
label -1 2
nr_sv 4182 2902
SV
1.648547127970581 25:1 464:1 605:1 909:1 1602:1 3951:1 
59.29894665111841 5:1 6:1 7:1 8:1 
24.5753503345711 10:1 11:1 12:1 18:1 21:1 22:1 23:1 24:1 25:1 
8.248144320274063 10:1 11:1 12:1 18:1 21:1 22:1 23:1 24:1 25:1 
59.29894665111841 28:1 29:1 30:1 
59.29894665111841 39:1 40:1 41:1 42:1 43:1 44:1 
59.29894665111841 45:1 46:1 
13.90053996944159 58:1 59:1 
40.06125674938109 38:1 66:1 
59.29894665111841 48:1 70:1 71:1 72:1 77:1 78:1 79:1 
47.49342918968173 10:1 11:1 85:1 86:1 87:1 
59.29894665111841 88:1 89:1 
19.75312899247897 44:1 90:1 91:1 
59.29894665111841 113:1 
59.29894665111841 114:1 
59.29894665111841 115:1 
18.96782131993927 114:1 
59.29894665111841 70:1 103:1 107:1 117:1 118:1 
9.66757330482764 103:1 119:1 120:1 
59.29894665111841 46:1 89:1 128:1 129:1 130:1 
20.57513713800066 34:1 132:1 133:1 134:1 135:1 
59.29894665111841 140:1 
59.29894665111841 143:1 
56.73970877262821 49:1 144:1 145:1 
59.29894665111841 77:1 
59.29894665111841 70:1 104:1 159:1 
1.863102090354082 163:1 
59.29894665111841 184:1 185:1 
55.47001668593084 71:1 191:1 192:1 193:1 194:1 195:1 
9.775547255080355 204:1 205:1 
59.29894665111841 77:1 208:1 
59.29894665111841 70:1 153:1 
23.72667251880048 212:1 213:1 214:1 215:1 216:1 217:1 
59.29894665111841 184:1 
10.57340492663926 64:1 77:1 259:1 260:1 261:1 262:1 263:1 
18.24274161589972 202:1 229:1 270:1 271:1 
56.80461807080263 84:1 102:1 296:1 297:1 298:1 
59.29894665111841 38:1 113:1 310:1 314:1 315:1 
59.04559643644669 318:1 
59.29894665111841 6:1 46:1 229:1 322:1 323:1 
7.814226124076109 153:1 207:1 218:1 317:1 318:1 327:1 
57.7161763993626 329:1 330:1 331:1 332:1 333:1 334:1 
0.09042190221114765 377:1 381:1 
6.571485870537432 318:1 382:1 
59.29894665111841 387:1 388:1 389:1 
12.98539434279862 19:1 309:1 391:1 
1.466939805114888 160:1 205:1 395:1 396:1 
1.119417185446345 10:1 11:1 12:1 280:1 336:1 412:1 413:1 414:1 415:1 416:1 417:1 418:1 419:1 
25.24827024174481 423:1 424:1 425:1 426:1 
1.947338679974356 248:1 386:1 429:1 
59.29894665111841 68:1 444:1 445:1 446:1 
59.29894665111841 454:1 
19.65173937741986 166:1 
21.65042629559156 481:1 482:1 483:1 
20.62680155251027 484:1 485:1 486:1 487:1 488:1 
36.22374503908301 107:1 112:1 
46.26795937966892 179:1 
59.29894665111841 103:1 153:1 338:1 339:1 512:1 513:1 514:1 515:1 516:1 
15.09046177634107 125:1 348:1 521:1 
59.29894665111841 528:1 
31.60558151680874 16:1 531:1 532:1 
31.26292655987217 181:1 533:1 
7.494130716783472 234:1 322:1 443:1 
29.27227487135421 553:1 
20.9710309816878 390:1 564:1 
59.29894665111841 17:1 
59.29894665111841 596:1 
59.29894665111841 264:1 605:1 606:1 607:1 608:1 
59.29894665111841 184:1 229:1 613:1 
49.92503710424868 422:1 614:1 
26.76809689042004 627:1 628:1 
39.05883888367463 202:1 350:1 505:1 629:1 
29.51282466710131 125:1 179:1 273:1 348:1 630:1 
59.29894665111841 521:1 
59.29894665111841 311:1 531:1 558:1 631:1 632:1 
24.15719097882219 6:1 234:1 288:1 638:1 639:1 640:1 641:1 
59.29894665111841 103:1 512:1 648:1 649:1 
42.51167196448713 153:1 513:1 519:1 520:1 650:1 651:1 652:1 653:1 
59.29894665111841 153:1 347:1 651:1 652:1 654:1 
5.411662052503207 495:1 
3.479564115359342 179:1 
56.12099377563509 5:1 84:1 661:1 662:1 663:1 664:1 
49.06901764000933 667:1 
59.29894665111841 18:1 19:1 22:1 23:1 558:1 
13.29789743069298 676:1 677:1 
57.33315532470451 44:1 259:1 
59.29894665111841 46:1 
8.743599257833237 692:1 693:1 
59.29894665111841 35:1 107:1 706:1 
24.23623833279995 84:1 713:1 714:1 715:1 
59.29894665111841 45:1 46:1 717:1 
12.07389415390395 64:1 103:1 176:1 515:1 516:1 709:1 719:1 720:1 
52.07125460015224 302:1 
23.73583039947549 27:1 723:1 
59.29894665111841 741:1 
50.02863150786507 308:1 492:1 746:1 
7.368672770531629 458:1 589:1 708:1 
6.43038800047903 670:1 759:1 760:1 
42.37357970574347 766:1 
1.416350639420072 311:1 655:1 708:1 767:1 768:1 769:1 770:1 771:1 
8.20151268672074 6:1 640:1 655:1 777:1 778:1 
59.29894665111841 779:1 780:1 
59.29894665111841 790:1 
36.78367306239878 71:1 755:1 756:1 791:1 
59.29894665111841 47:1 93:1 792:1 793:1 
52.98438865964923 795:1 796:1 797:1 798:1 799:1 
59.29894665111841 801:1 
59.29894665111841 14:1 22:1 23:1 24:1 277:1 
41.05389568362587 657:1 802:1 803:1 804:1 
25.28339868434243 801:1 
33.9575119122976 14:1 22:1 23:1 24:1 277:1 
7.152217657537287 69:1 76:1 253:1 390:1 758:1 811:1 812:1 
17.0358668018063 35:1 137:1 161:1 181:1 452:1 815:1 
16.20180579706978 36:1 791:1 818:1 
17.77540335845418 137:1 403:1 
57.56113275218348 38:1 258:1 373:1 479:1 819:1 
7.106546466392103 104:1 135:1 829:1 
23.88571732526262 122:1 648:1 649:1 
59.29894665111841 47:1 832:1 833:1 
59.29894665111841 103:1 107:1 122:1 648:1 649:1 
59.29894665111841 593:1 655:1 794:1 840:1 
59.29894665111841 133:1 267:1 
59.29894665111841 84:1 170:1 509:1 736:1 887:1 888:1 
59.29894665111841 53:1 169:1 
1.029488753513258 320:1 902:1 903:1 
59.29894665111841 876:1 904:1 
0.5294181740064503 487:1 828:1 
22.68055061867877 344:1 916:1 917:1 918:1 
32.10478531770242 487:1 919:1 920:1 
59.29894665111841 22:1 557:1 689:1 
59.29894665111841 926:1 927:1 928:1 
0.5830095270229697 27:1 161:1 531:1 935:1 936:1 
24.30244275391648 137:1 352:1 941:1 
59.29894665111841 944:1 
10.96497216269637 945:1 946:1 947:1 
1.79838406706566 939:1 951:1 952:1 953:1 954:1 
59.29894665111841 955:1 
59.29894665111841 169:1 233:1 
23.30507805055949 537:1 
6.908360503101157 27:1 53:1 107:1 108:1 330:1 511:1 561:1 797:1 
58.21108074397603 537:1 
59.29894665111841 68:1 107:1 395:1 
20.83515845697282 955:1 956:1 967:1 968:1 969:1 
59.29894665111841 48:1 321:1 971:1 
1.953406706041477 573:1 984:1 985:1 986:1 987:1 
14.91693903968159 259:1 477:1 744:1 996:1 997:1 998:1 
15.42373998587384 489:1 1002:1 1003:1 
39.30291826246027 191:1 590:1 1004:1 1005:1 
1.216365552755146 507:1 
8.096624821950028 614:1 694:1 764:1 1040:1 1041:1 
17.08418705490979 689:1 
14.00481492647268 44:1 103:1 453:1 1046:1 1047:1 1048:1 
59.29894665111841 276:1 
43.07115082485062 264:1 480:1 727:1 1056:1 1061:1 
47.9897899259776 170:1 435:1 590:1 736:1 1057:1 1062:1 1063:1 
37.86469470059025 175:1 223:1 338:1 437:1 604:1 999:1 1064:1 1065:1 
59.29894665111841 167:1 288:1 898:1 
9.780682417078358 162:1 183:1 471:1 620:1 621:1 640:1 793:1 1076:1 1077:1 
0.8527641438844288 19:1 275:1 564:1 1050:1 1082:1 
25.41070244980827 313:1 758:1 
44.26759516023906 1093:1 1094:1 
3.024433777493766 6:1 197:1 275:1 1095:1 1096:1 
1.475658219835426 18:1 144:1 761:1 1050:1 1101:1 
0.5796909787262151 242:1 344:1 350:1 1104:1 1105:1 
57.34790939040664 1111:1 
6.324617917742214 18:1 68:1 496:1 537:1 1050:1 1113:1 
27.11904012453591 925:1 1120:1 
47.69461745427498 538:1 1123:1 
59.29894665111841 147:1 233:1 
59.29894665111841 558:1 1125:1 
59.29894665111841 817:1 
16.55154834950211 229:1 590:1 998:1 
59.29894665111841 363:1 1148:1 
8.761688936414556 113:1 395:1 1152:1 1153:1 
25.79976655717208 57:1 
1.245353933469662 27:1 71:1 590:1 678:1 736:1 1062:1 1063:1 1159:1 
5.253442711988376 224:1 264:1 587:1 608:1 826:1 1003:1 1160:1 
5.982103515519235 64:1 1162:1 1163:1 1164:1 
13.41659719352083 11:1 45:1 194:1 197:1 320:1 558:1 1170:1 
18.06213716799451 34:1 276:1 558:1 882:1 
11.40767838254321 422:1 614:1 
0.05813654629026794 47:1 70:1 1179:1 1180:1 
59.29894665111841 18:1 22:1 23:1 558:1 
34.2591485360704 416:1 512:1 1055:1 1195:1 
28.35581700188704 1179:1 1196:1 
59.29894665111841 1200:1 
59.29894665111841 1201:1 1202:1 
3.205937983243714 369:1 472:1 744:1 1206:1 1207:1 1208:1 
59.29894665111841 10:1 11:1 475:1 
12.54834167008565 64:1 176:1 1063:1 1209:1 1210:1 
26.30751929230429 1236:1 1237:1 
14.30301515574864 222:1 223:1 229:1 1246:1 1247:1 
8.156103773792426 11:1 175:1 228:1 229:1 1253:1 
46.00561639707003 779:1 1254:1 1255:1 
40.53584243395587 243:1 252:1 253:1 736:1 1257:1 
36.43843573264886 22:1 23:1 535:1 1119:1 1183:1 
53.61721989644194 68:1 957:1 1303:1 
59.29894665111841 50:1 184:1 
7.415653260340402 313:1 1241:1 
59.29894665111841 45:1 67:1 668:1 1290:1 1310:1 1311:1 1312:1 1313:1 1314:1 
24.89350876337394 420:1 1290:1 1311:1 1315:1 1316:1 1317:1 1318:1 1319:1 
16.76291566662293 633:1 1344:1 1345:1 1346:1 1347:1 1348:1 
20.68079464061408 107:1 561:1 
1.46758217156357 170:1 573:1 1357:1 1358:1 1359:1 
59.29894665111841 1368:1 
4.441350335221816 147:1 302:1 727:1 731:1 1247:1 1372:1 1374:1 1375:1 1376:1 
17.01195909074959 573:1 997:1 1366:1 1380:1 1381:1 1382:1 1383:1 1384:1 
38.66691050779453 34:1 706:1 716:1 1391:1 1392:1 
20.004959262926 71:1 79:1 107:1 317:1 544:1 
26.53315438265981 1174:1 1397:1 1398:1 
19.40596408006765 127:1 450:1 1400:1 
3.441683990943876 234:1 1236:1 1331:1 1405:1 
20.39299951488078 321:1 1290:1 
41.23379505861602 205:1 396:1 900:1 1415:1 
29.57507315243727 176:1 346:1 446:1 1416:1 1417:1 
21.49141320084606 71:1 72:1 184:1 1422:1 
41.64459492352191 378:1 1418:1 1419:1 
27.04756727356068 234:1 1430:1 1431:1 1432:1 1433:1 
45.74439718986484 28:1 34:1 36:1 178:1 374:1 511:1 819:1 1298:1 1436:1 
17.21807783588092 394:1 1433:1 
56.89268152833684 107:1 196:1 197:1 509:1 590:1 622:1 1421:1 1446:1 
1.902010152411656 280:1 335:1 622:1 
41.96934949319697 812:1 1459:1 1460:1 
59.29894665111841 217:1 228:1 340:1 431:1 
39.30447152755354 184:1 280:1 622:1 1190:1 1420:1 
5.56168221654816 133:1 346:1 1444:1 
2.018798777421694 1449:1 1473:1 
59.29894665111841 361:1 768:1 1475:1 1476:1 
29.03636887052264 537:1 761:1 932:1 
59.29894665111841 10:1 11:1 88:1 517:1 915:1 
8.893397288934967 206:1 293:1 475:1 638:1 1484:1 1500:1 1505:1 1506:1 1507:1 1508:1 
5.703999866853624 1513:1 
3.425059753911715 84:1 437:1 1149:1 1514:1 1515:1 1516:1 
20.76542636643435 271:1 321:1 593:1 744:1 1045:1 1518:1 1519:1 
2.196636199585026 16:1 58:1 229:1 267:1 292:1 1294:1 1484:1 1526:1 
12.68837125835208 35:1 184:1 458:1 778:1 1114:1 1527:1 
5.273026231782678 448:1 517:1 1530:1 1531:1 
37.32497039309918 34:1 169:1 1470:1 1532:1 1533:1 1534:1 
59.29894665111841 153:1 1522:1 1535:1 
46.82176335616012 7:1 94:1 1522:1 
17.24822035948874 311:1 614:1 1177:1 1540:1 1541:1 
16.95886228751255 107:1 648:1 649:1 1425:1 1546:1 
7.243017632254275 122:1 416:1 417:1 519:1 520:1 653:1 1129:1 1547:1 1548:1 
20.13192239828261 6:1 11:1 350:1 578:1 1043:1 1557:1 
23.37439342291593 16:1 22:1 23:1 24:1 1484:1 
2.51745552530219 34:1 134:1 316:1 710:1 911:1 1290:1 1564:1 
1.694056838433454 16:1 68:1 521:1 763:1 854:1 1329:1 1397:1 1565:1 
3.986886007513985 103:1 336:1 337:1 448:1 710:1 1566:1 
1.566489533974593 372:1 1115:1 1567:1 1568:1 1569:1 1570:1 
59.29894665111841 156:1 1578:1 1579:1 1580:1 
48.26052157136046 11:1 884:1 1583:1 1584:1 
4.28820853698739 330:1 716:1 1144:1 1585:1 1586:1 1587:1 
59.29894665111841 276:1 
59.29894665111841 276:1 
5.883147040038203 133:1 151:1 372:1 1569:1 1575:1 1613:1 1614:1 
8.396482168296425 6:1 25:1 38:1 507:1 1617:1 
59.29894665111841 22:1 23:1 1119:1 1620:1 
45.25683501049328 53:1 236:1 416:1 437:1 1351:1 1610:1 1630:1 1631:1 1632:1 
27.67035106818222 416:1 512:1 600:1 1545:1 
59.29894665111841 175:1 216:1 439:1 873:1 1645:1 1646:1 
15.72669710126709 66:1 369:1 726:1 973:1 1003:1 1055:1 1583:1 1647:1 
22.01152531054093 69:1 464:1 1653:1 
50.38317339565413 343:1 589:1 1653:1 1655:1 
59.29894665111841 98:1 125:1 1666:1 
48.30336795910149 153:1 234:1 836:1 
59.29894665111841 53:1 
9.905826835034537 76:1 107:1 817:1 
19.13362386546577 471:1 620:1 621:1 1076:1 1077:1 1667:1 
0.09833788281561474 1106:1 1684:1 
8.042577261557263 181:1 207:1 327:1 
48.59828318913791 68:1 165:1 284:1 1694:1 1695:1 1696:1 
3.261271150868836 22:1 23:1 475:1 1117:1 1667:1 
25.83449983850118 1023:1 1702:1 
56.60722165501342 71:1 148:1 348:1 1188:1 1703:1 
15.34168546933581 1728:1 1729:1 1730:1 1731:1 1732:1 
0.23565275180677 576:1 791:1 1599:1 
22.11227110316576 288:1 720:1 1290:1 1435:1 1744:1 
8.936096931822743 34:1 267:1 717:1 1228:1 1480:1 1745:1 
8.304788801948725 537:1 1738:1 
4.273448430840168 48:1 49:1 1746:1 
17.65440535472218 176:1 1753:1 
2.961075711593509 299:1 512:1 590:1 1137:1 1215:1 1754:1 1755:1 1756:1 
48.12512595499709 508:1 1205:1 
0.2447666786177904 124:1 250:1 343:1 445:1 638:1 873:1 1382:1 
12.49801777105666 265:1 304:1 305:1 492:1 744:1 1645:1 1706:1 1761:1 1762:1 
59.29894665111841 1775:1 
50.30481655663838 1779:1 
24.4291629289807 34:1 120:1 305:1 1003:1 1179:1 
31.72395162374198 70:1 153:1 176:1 1084:1 1782:1 
15.40536369481468 103:1 107:1 519:1 520:1 625:1 652:1 1029:1 1030:1 1079:1 
4.747556471482202 34:1 1290:1 1720:1 1780:1 
59.29894665111841 1784:1 1785:1 1786:1 
34.62424674044918 1787:1 
7.514091527551681 10:1 11:1 176:1 334:1 357:1 589:1 1023:1 1788:1 1789:1 
51.51822432821489 1798:1 
5.273479598866871 66:1 198:1 232:1 1168:1 1227:1 1588:1 1803:1 
14.27077148512309 57:1 452:1 466:1 469:1 898:1 1805:1 
4.26443600670776 122:1 1809:1 1810:1 1811:1 
23.68445560748062 1815:1 1816:1 
16.74391209761014 27:1 167:1 373:1 1004:1 1074:1 1303:1 1817:1 1818:1 
3.674948765815907 1824:1 
27.23806669655555 79:1 313:1 1791:1 
20.50517247286477 330:1 802:1 1004:1 1847:1 
31.67067892946759 153:1 347:1 1817:1 1818:1 
2.674404128067496 144:1 496:1 1296:1 1853:1 1854:1 1855:1 
59.29894665111841 955:1 
25.03391611346083 135:1 416:1 458:1 1856:1 1866:1 1867:1 
3.25390103133122 1873:1 
54.8893295310374 216:1 217:1 517:1 
3.664014574347287 44:1 217:1 485:1 490:1 
11.41612489852324 34:1 523:1 1892:1 1893:1 
12.65367246661686 502:1 
6.834756506134323 194:1 
0.8857909214160083 153:1 652:1 
30.64711792205465 848:1 
10.71978249570039 57:1 120:1 652:1 1905:1 
59.29894665111841 777:1 1917:1 
19.83457365843688 147:1 561:1 1351:1 
1.983480981464717 1921:1 
4.658651873955042 280:1 660:1 911:1 1087:1 1581:1 1846:1 1925:1 1926:1 
2.831099453028077 607:1 611:1 1055:1 1934:1 
14.4593030027408 1948:1 1949:1 1950:1 1951:1 1952:1 1953:1 1954:1 1955:1 1956:1 1957:1 1958:1 1959:1 1960:1 
7.82679951928041 107:1 1961:1 
12.39814857324539 37:1 68:1 1917:1 1963:1 
14.22612322118244 288:1 772:1 1965:1 
8.399543722734199 313:1 1474:1 1772:1 1917:1 
45.72300521084129 34:1 1228:1 1969:1 
28.94449929251716 52:1 153:1 384:1 
7.561875060129086 1917:1 
59.29894665111841 1917:1 
47.58796226315709 1917:1 
15.584453101633 313:1 581:1 
29.21507445961124 10:1 11:1 12:1 1256:1 1999:1 
23.12693246362477 234:1 2002:1 
59.29894665111841 10:1 11:1 12:1 172:1 
19.73357566910236 2000:1 
59.29894665111841 147:1 1440:1 2016:1 
26.17189670548962 10:1 11:1 67:1 1256:1 
11.22872095832107 10:1 11:1 12:1 148:1 
4.692358874112617 10:1 11:1 12:1 
18.41401046821706 198:1 223:1 437:1 1070:1 1149:1 1755:1 2024:1 2025:1 
27.83760286168529 153:1 176:1 836:1 1428:1 1749:1 2026:1 
0.2391829611072997 264:1 437:1 1571:1 2037:1 2038:1 
0.2880228559729713 27:1 223:1 227:1 437:1 725:1 1137:1 1939:1 2029:1 2039:1 
18.62443697135837 492:1 604:1 1144:1 2025:1 2041:1 2042:1 
59.29894665111841 276:1 
5.142096418046206 10:1 11:1 12:1 181:1 484:1 1891:1 
5.726029837575539 275:1 507:1 
5.671620196871347 68:1 1049:1 1477:1 
0.4345745471596706 103:1 340:1 529:1 648:1 649:1 884:1 1090:1 1387:1 1600:1 
1.589275040629633 1175:1 2068:1 
20.20233025086052 10:1 11:1 12:1 22:1 23:1 24:1 184:1 275:1 277:1 535:1 
22.01291946762712 353:1 
7.270756504392084 153:1 165:1 183:1 873:1 2071:1 2078:1 
36.38381042396978 68:1 84:1 167:1 2079:1 2080:1 2081:1 
1.88786877625078 40:1 293:1 378:1 985:1 1327:1 2006:1 2089:1 2090:1 
15.26705094375617 356:1 1568:1 
5.887216187109085 1759:1 2091:1 2092:1 
17.28323006958012 2116:1 
17.53218294716716 658:1 2125:1 
2.654498803793307 517:1 
1.484533130830267 918:1 
0.5644508596384304 262:1 512:1 727:1 1073:1 1108:1 1168:1 2144:1 2151:1 
23.96177074355732 313:1 2125:1 
7.828080124270883 383:1 1915:1 2021:1 2125:1 
47.09594791502514 567:1 590:1 2162:1 2163:1 
31.99011704484628 184:1 710:1 2164:1 
59.29894665111841 53:1 107:1 
3.383406200035959 57:1 512:1 1028:1 2170:1 2171:1 2172:1 
1.736580111285474 11:1 202:1 2178:1 
11.64455928433877 299:1 2184:1 
30.13340198213086 1080:1 2185:1 2186:1 
4.845106993444565 577:1 1127:1 2192:1 
1.261292077514758 13:1 507:1 694:1 761:1 2162:1 2194:1 2195:1 2196:1 
14.91995628278465 59:1 983:1 2198:1 
59.29894665111841 102:1 616:1 817:1 1454:1 
59.29894665111841 77:1 
59.29894665111841 50:1 2201:1 
5.966539990394065 1004:1 2202:1 
59.29894665111841 1316:1 1333:1 2205:1 
59.29894665111841 77:1 
59.29894665111841 77:1 
26.16067906483897 110:1 139:1 144:1 312:1 692:1 772:1 2209:1 
59.29894665111841 77:1 
59.29894665111841 77:1 
59.29894665111841 77:1 
59.29894665111841 77:1 
16.56591812196826 233:1 1353:1 2210:1 
28.11726083974784 66:1 346:1 857:1 1573:1 2211:1 2212:1 
59.29894665111841 77:1 
39.65338136312232 183:1 349:1 579:1 580:1 2217:1 
3.087922251227928 338:1 339:1 513:1 1488:1 2220:1 
29.69079352242948 113:1 
1.621316950782643 216:1 451:1 974:1 
43.38233378175501 2224:1 
19.02575358680414 61:1 264:1 434:1 593:1 1157:1 
29.88542581790851 147:1 170:1 455:1 735:1 736:1 1763:1 
7.835343370450513 67:1 1859:1 
0.3195111414981596 2097:1 
0.5872018317065013 2230:1 
59.29894665111841 391:1 2235:1 
8.565357795699388 184:1 710:1 1190:1 1195:1 1614:1 1897:1 2239:1 2240:1 2241:1 2242:1 
20.79685900915497 194:1 237:1 422:1 614:1 1238:1 2193:1 
33.17322985713124 2252:1 
2.034232755375466 2253:1 2254:1 2255:1 
34.43945324114667 344:1 422:1 614:1 
17.7804544838245 2264:1 
30.62099255047713 64:1 458:1 459:1 471:1 852:1 1144:1 1211:1 
37.80029846645445 79:1 264:1 265:1 640:1 1021:1 2270:1 
4.457434694475422 76:1 223:1 437:1 645:1 1144:1 2037:1 2272:1 
40.06882100563444 2273:1 
0.1392760553755158 228:1 229:1 2278:1 
10.89950666391336 1460:1 2259:1 
2.044497992078546 1459:1 1690:1 2281:1 2282:1 2283:1 2284:1 2285:1 2286:1 
7.021524883748746 2287:1 
46.68358719889435 144:1 322:1 343:1 350:1 412:1 1307:1 1454:1 
18.8842067086051 2290:1 
5.999407236789738 273:1 343:1 409:1 412:1 1353:1 2289:1 2293:1 
59.29894665111841 429:1 2294:1 
1.83181888553436 375:1 411:1 412:1 1307:1 1454:1 
59.29894665111841 2290:1 
12.45268825825059 2306:1 
59.29894665111841 113:1 
1.200808476106986 226:1 1339:1 2323:1 
59.29894665111841 918:1 
23.76006462441362 68:1 2348:1 2349:1 
22.82755772579533 151:1 176:1 
31.01410333243276 151:1 176:1 
59.29894665111841 151:1 
40.4939227708924 153:1 278:1 2353:1 2354:1 
1.778512050531009 51:1 107:1 561:1 797:1 2359:1 2360:1 
3.603395685855764 2356:1 2365:1 
1.123264499894943 133:1 476:1 633:1 757:1 2098:1 2378:1 
24.02397279445663 2058:1 
2.638938110008547 151:1 1560:1 1896:1 
49.33665028041268 103:1 104:1 651:1 652:1 
59.29894665111841 194:1 
17.22703302853257 71:1 103:1 153:1 206:1 475:1 512:1 651:1 652:1 2390:1 
42.87169254226456 63:1 103:1 340:1 612:1 1079:1 2394:1 
24.01190120556209 27:1 61:1 2396:1 2397:1 
4.820392278857748 1058:1 1059:1 2403:1 
13.46273407705931 2408:1 
1.915832231389169 194:1 640:1 2399:1 2413:1 2414:1 
37.03387105299866 53:1 169:1 
42.41240246239803 699:1 
0.8052727078125502 1655:1 2307:1 2399:1 2415:1 
59.29894665111841 53:1 169:1 
59.29894665111841 273:1 635:1 1491:1 2422:1 
59.29894665111841 544:1 660:1 
56.13700697060826 1124:1 2427:1 2428:1 
59.29894665111841 396:1 544:1 
48.65949614527953 1115:1 
5.414770569203507 854:1 
5.297038812372122 25:1 548:1 854:1 2441:1 2442:1 
55.56463388039178 68:1 176:1 401:1 2443:1 
8.012363514945516 90:1 761:1 2445:1 2446:1 
1.434838058604343 137:1 390:1 638:1 719:1 1503:1 
1.557292894440147 1223:1 1668:1 2449:1 2450:1 2451:1 
11.51825085618204 745:1 1606:1 2078:1 2456:1 
20.36280210913019 113:1 1491:1 
59.29894665111841 955:1 
4.161012491585772 1068:1 
43.04248378224086 854:1 
38.04467224834853 68:1 104:1 2458:1 
59.29894665111841 68:1 104:1 2458:1 
37.62408007266805 137:1 184:1 2175:1 2461:1 
27.22972228265899 59:1 141:1 576:1 2462:1 
25.35583434485754 37:1 137:1 1310:1 2466:1 
0.144025379002047 176:1 284:1 428:1 898:1 1393:1 1542:1 
20.36506430833899 1911:1 2352:1 
0.3430402319592801 1404:1 
15.74476441322759 908:1 
17.96295270451406 763:1 2487:1 
1.258277355899262 2488:1 2489:1 
4.320994580217804 77:1 120:1 122:1 474:1 1809:1 2483:1 2490:1 2491:1 
59.29894665111841 27:1 77:1 161:1 2490:1 
0.2534908482687362 25:1 34:1 38:1 361:1 2401:1 2492:1 2493:1 2494:1 2495:1 2496:1 2497:1 
6.621034688205072 69:1 104:1 416:1 418:1 453:1 646:1 1163:1 1229:1 2502:1 2503:1 2504:1 
19.15187306069823 723:1 2510:1 2511:1 
4.042270909116702 34:1 350:1 499:1 621:1 1860:1 2516:1 2517:1 2518:1 
33.87351254440512 641:1 736:1 2521:1 2522:1 2523:1 
45.157750721625 658:1 966:1 
59.29894665111841 2533:1 
59.29894665111841 184:1 
0.4886497187030776 223:1 271:1 434:1 1064:1 
37.82732964310677 276:1 2532:1 
43.46090089919529 137:1 153:1 525:1 
6.880685724076971 1540:1 
2.477842152180955 71:1 197:1 1130:1 1133:1 1479:1 2550:1 
3.356372744174166 34:1 281:1 561:1 898:1 1340:1 
36.03994192285494 915:1 1860:1 2558:1 
59.29894665111841 437:1 458:1 978:1 2292:1 
34.44604783999376 34:1 153:1 985:1 1088:1 
52.93742874786697 175:1 1133:1 
59.29894665111841 112:1 148:1 1703:1 2567:1 
19.70335590357038 229:1 462:1 
16.42416924136915 222:1 874:1 1810:1 2583:1 
52.75731977078786 2589:1 
46.523717356549 53:1 169:1 
14.83951019753841 184:1 1929:1 2377:1 
59.29894665111841 147:1 561:1 
15.91633274205864 447:1 1104:1 1105:1 
28.38347072265272 107:1 284:1 529:1 777:1 
38.07992248357468 18:1 22:1 23:1 133:1 321:1 800:1 2563:1 
1.361805593511493 104:1 670:1 1286:1 1901:1 
29.92486243359306 2042:1 
2.037147139788633 229:1 631:1 2601:1 
29.05383880117772 16:1 147:1 153:1 1218:1 2042:1 
2.160317341771466 38:1 334:1 761:1 981:1 1792:1 2669:1 2670:1 
3.466487830957692 184:1 223:1 264:1 276:1 692:1 1159:1 2401:1 
10.47971853952414 2733:1 
6.528425715019025 561:1 2738:1 
2.069595831348105 57:1 170:1 470:1 593:1 956:1 1592:1 2742:1 2776:1 2777:1 
1.159250710796957 57:1 124:1 224:1 343:1 439:1 790:1 892:1 2220:1 2645:1 2655:1 2756:1 2780:1 
27.21946935422101 223:1 224:1 225:1 439:1 458:1 852:1 989:1 1143:1 1762:1 2842:1 2843:1 
17.48108417816633 107:1 134:1 
59.29894665111841 79:1 1045:1 
21.67109269846429 107:1 311:1 
50.96625577489466 561:1 859:1 1904:1 2876:1 
10.96410239460363 320:1 416:1 509:1 510:1 590:1 1212:1 1416:1 
29.22636250863838 437:1 494:1 2894:1 
59.29894665111841 19:1 22:1 23:1 2692:1 
0.2720028848209425 15:1 66:1 156:1 170:1 593:1 1518:1 2630:1 2922:1 2923:1 2924:1 
0.1704451548666298 124:1 250:1 343:1 458:1 1381:1 2220:1 2630:1 2738:1 2938:1 2939:1 
7.19744481670307 112:1 420:1 687:1 772:1 1435:1 2966:1 
7.91436358584534 58:1 121:1 232:1 557:1 1364:1 1522:1 1944:1 2676:1 2967:1 
1.750477320648937 11:1 1435:1 3034:1 3035:1 3036:1 
6.857712116917705 95:1 202:1 282:1 409:1 557:1 867:1 900:1 1042:1 1323:1 1500:1 3090:1 
2.846131258395157 161:1 589:1 590:1 1073:1 1131:1 3098:1 
18.36351608507418 34:1 119:1 305:1 306:1 492:1 589:1 1131:1 1222:1 
36.58366572370196 57:1 223:1 271:1 308:1 477:1 1131:1 1645:1 1760:1 
3.016844748204405 119:1 264:1 303:1 989:1 1131:1 1383:1 2816:1 2939:1 3112:1 
0.3556518896661595 71:1 1131:1 3127:1 
8.287767641250271 356:1 2098:1 3134:1 
59.29894665111841 11:1 107:1 
5.016289289519341 34:1 313:1 1233:1 
0.2492536905833371 25:1 59:1 837:1 2687:1 2801:1 
2.429680405881998 97:1 258:1 790:1 2243:1 3172:1 3173:1 3174:1 
6.800577623987647 234:1 3182:1 
38.79553838857506 3236:1 
2.94870971026406 6:1 68:1 640:1 672:1 822:1 900:1 2238:1 3261:1 3262:1 3263:1 
14.07391844794217 372:1 480:1 1904:1 2104:1 3087:1 
1.583348309623011 2576:1 3101:1 3270:1 
2.779328154070986 1179:1 3271:1 
15.20300212618434 57:1 588:1 1099:1 2276:1 
59.29894665111841 176:1 531:1 720:1 
1.031426662493281 465:1 573:1 852:1 970:1 1811:1 1820:1 2707:1 3267:1 3284:1 
15.41870290072469 57:1 458:1 573:1 610:1 990:1 1143:1 1228:1 1811:1 3072:1 3292:1 
2.047905474702487 370:1 458:1 490:1 1073:1 1511:1 2719:1 2982:1 2997:1 3295:1 
7.862766328761785 678:1 736:1 1063:1 3296:1 
12.09754451543511 57:1 261:1 604:1 744:1 1207:1 1878:1 2070:1 2276:1 3029:1 3030:1 3267:1 
0.1624675407531371 57:1 1383:1 1941:1 2805:1 2997:1 3267:1 3303:1 3304:1 
48.63730678359654 107:1 118:1 311:1 336:1 555:1 793:1 1529:1 2078:1 3267:1 
2.313297439971207 3025:1 3318:1 
2.601563100382821 68:1 401:1 496:1 
0.1567609668049305 57:1 170:1 175:1 224:1 857:1 874:1 1287:1 3006:1 3150:1 3344:1 3345:1 3346:1 3347:1 
51.16313702064728 13:1 165:1 222:1 273:1 274:1 689:1 
24.97679381404073 317:1 529:1 951:1 1792:1 1849:1 2245:1 
6.75789360811827 1740:1 2742:1 3352:1 3366:1 
9.904530902529117 57:1 225:1 458:1 670:1 826:1 2933:1 3019:1 3352:1 3363:1 3366:1 3392:1 
0.04575114162844778 1401:1 1431:1 1705:1 2620:1 2649:1 2687:1 3411:1 3412:1 3413:1 3414:1 
23.84315073732504 336:1 372:1 555:1 1006:1 1007:1 3335:1 
59.29894665111841 1827:1 
3.546763587908142 34:1 107:1 125:1 346:1 348:1 557:1 904:1 1195:1 2904:1 3449:1 3450:1 
3.708499424854478 107:1 133:1 169:1 413:1 529:1 1007:1 2786:1 
1.921677791952614 719:1 725:1 1264:1 2031:1 2453:1 2896:1 3344:1 3465:1 3466:1 
12.0498261742677 521:1 
6.338301697424996 495:1 680:1 997:1 
22.81796698354196 47:1 184:1 778:1 1006:1 1007:1 3335:1 3507:1 
22.77678294658785 264:1 555:1 593:1 1165:1 1188:1 1211:1 2719:1 3503:1 
11.65845938224827 153:1 533:1 1128:1 3503:1 
59.29894665111841 19:1 2307:1 3506:1 
52.98277882124935 50:1 341:1 409:1 
1.305780221445249 66:1 310:1 401:1 3342:1 
1.54303086452883 22:1 23:1 107:1 531:1 1131:1 1624:1 2692:1 3567:1 3568:1 
11.03812163908348 184:1 361:1 1131:1 1133:1 1244:1 1488:1 1849:1 2687:1 2691:1 
18.57844324249303 11:1 12:1 19:1 22:1 23:1 231:1 712:1 1131:1 2687:1 2692:1 
15.47783009390414 1131:1 1445:1 3270:1 3586:1 
45.77010485607257 736:1 1131:1 
0.1344731067960291 512:1 1131:1 1137:1 2653:1 2656:1 2941:1 
3.305916631764704 57:1 176:1 458:1 492:1 531:1 692:1 996:1 2040:1 
0.7563848770041226 170:1 212:1 299:1 593:1 979:1 990:1 1058:1 1645:1 1646:1 2704:1 2716:1 3601:1 
4.757001118670276 222:1 264:1 557:1 970:1 2676:1 2728:1 
52.2766410843281 113:1 
40.38652184942433 137:1 827:1 1131:1 
7.051592839231691 153:1 1409:1 1472:1 
16.25526065823888 53:1 153:1 417:1 726:1 1055:1 
1.178714839980391 3447:1 3638:1 
0.2464345376886123 184:1 361:1 1133:1 1488:1 1792:1 1868:1 2193:1 2687:1 
1.127744943060272 63:1 79:1 452:1 593:1 612:1 1472:1 2141:1 3663:1 3664:1 
7.193657832425105 146:1 369:1 466:1 990:1 1472:1 1740:1 2328:1 3639:1 3663:1 3670:1 3671:1 
14.53663006384142 147:1 369:1 593:1 1215:1 2042:1 2372:1 2724:1 2865:1 3661:1 3674:1 
25.73028268679073 57:1 223:1 975:1 2719:1 3430:1 3639:1 
23.76580611215334 79:1 3639:1 
59.29894665111841 521:1 
3.13633922675789 22:1 23:1 183:1 231:1 860:1 1614:1 2692:1 
24.33492665187341 18:1 22:1 23:1 2239:1 
39.2843796814598 1349:1 
0.1468663869063595 3249:1 3694:1 3695:1 3696:1 
4.035256676143611 264:1 525:1 3396:1 3690:1 
5.497932445410113 124:1 147:1 170:1 264:1 343:1 593:1 981:1 989:1 2658:1 3430:1 3712:1 
37.93407558791396 58:1 138:1 321:1 557:1 1007:1 2378:1 
0.05132245587457695 63:1 234:1 1290:1 3408:1 3730:1 
7.720507838724479 317:1 524:1 525:1 527:1 633:1 1472:1 3249:1 
1.293429738072719 11:1 334:1 475:1 649:1 3739:1 
59.29894665111841 517:1 1576:1 
1.857652344020527 417:1 469:1 573:1 589:1 1383:1 2344:1 2709:1 3737:1 3756:1 
59.29894665111841 3770:1 
40.28997949600134 693:1 
3.340360856781037 46:1 51:1 1290:1 1310:1 1474:1 3418:1 
59.29894665111841 1430:1 
1.624266779520591 1007:1 1290:1 1724:1 3003:1 3782:1 
59.29894665111841 34:1 59:1 622:1 1006:1 1007:1 1421:1 
1.324730269237579 217:1 902:1 2785:1 2798:1 3261:1 3287:1 3796:1 
1.951109648400656 458:1 589:1 2798:1 3007:1 
6.564833966203889 876:1 1143:1 2164:1 2798:1 3109:1 3671:1 
2.739748608292422 214:1 589:1 876:1 1143:1 2720:1 3025:1 
19.26193482948349 250:1 264:1 472:1 1001:1 1878:1 3016:1 3803:1 3804:1 
2.124552563460933 264:1 437:1 588:1 1326:1 1571:1 2798:1 2851:1 3531:1 3805:1 3806:1 
11.61705018732257 175:1 458:1 589:1 2388:1 2798:1 
17.7299096352541 57:1 222:1 573:1 588:1 640:1 995:1 1073:1 3798:1 
4.737160081454498 338:1 452:1 593:1 1503:1 1548:1 1590:1 1945:1 2634:1 3810:1 3811:1 
7.080774683695658 589:1 2798:1 3812:1 3813:1 3814:1 
1.539351235854237 416:1 463:1 2164:1 2634:1 2678:1 2798:1 3814:1 
2.807813264400305 361:1 366:1 1007:1 1491:1 1706:1 
23.62730210736296 107:1 122:1 562:1 710:1 1447:1 
5.599988850984187 167:1 288:1 900:1 2634:1 2989:1 
10.39512288883212 1229:1 1656:1 2631:1 2754:1 2939:1 3825:1 
9.450388579959744 223:1 338:1 437:1 593:1 852:1 2628:1 2630:1 2754:1 3595:1 
0.2393846308294195 84:1 243:1 573:1 1207:1 2769:1 2950:1 3139:1 3140:1 3829:1 
0.5917189735097178 15:1 264:1 437:1 2205:1 2221:1 2630:1 2672:1 3820:1 3830:1 
59.29894665111841 521:1 
2.01032073750725 282:1 288:1 1585:1 1642:1 3837:1 
12.17724434987058 3838:1 
29.35461519706693 3839:1 
4.902996080122612 79:1 509:1 662:1 837:1 1446:1 2002:1 2656:1 2687:1 
5.193778718117909 57:1 996:1 1375:1 1651:1 2826:1 2983:1 3841:1 3857:1 
10.33233267447411 439:1 458:1 650:1 1332:1 3841:1 
16.09171374098738 63:1 64:1 147:1 458:1 608:1 989:1 1431:1 2061:1 2658:1 
11.03905445369606 3876:1 
0.8869758907903064 2295:1 3879:1 
8.769039068794692 170:1 589:1 2151:1 2646:1 2647:1 3078:1 
3.152721579637182 13:1 84:1 162:1 541:1 589:1 2676:1 3880:1 3892:1 
2.553075290848192 43:1 557:1 819:1 1337:1 1560:1 1665:1 3905:1 3906:1 
15.24248188241746 590:1 998:1 
3.700669295026652 48:1 59:1 216:1 361:1 557:1 1289:1 3911:1 
14.75802405242738 280:1 557:1 589:1 593:1 2392:1 3912:1 3925:1 
3.772850475417334 589:1 2216:1 3477:1 3912:1 
31.92947166314581 175:1 1469:1 3912:1 3945:1 
0.2504128396616419 524:1 573:1 972:1 989:1 3383:1 3604:1 3912:1 3950:1 3952:1 
1.182108928828009 2955:1 3638:1 
59.29894665111841 437:1 2894:1 
19.36435546339311 440:1 1751:1 2216:1 3962:1 
14.6801494273652 369:1 436:1 670:1 990:1 1063:1 1143:1 1205:1 2807:1 2942:1 
13.54728452390479 334:1 998:1 1322:1 2676:1 3990:1 
11.75434853096245 198:1 368:1 557:1 1168:1 1169:1 3998:1 
7.873933423287055 556:1 935:1 1054:1 3408:1 
13.7475364473451 190:1 463:1 599:1 832:1 4007:1 
11.52085756519814 95:1 898:1 4008:1 
41.47398324391355 68:1 137:1 350:1 789:1 4013:1 
3.806137767373036 133:1 555:1 710:1 757:1 793:1 1087:1 3136:1 3778:1 
6.242064378084208 170:1 458:1 573:1 875:1 1545:1 2634:1 2942:1 3441:1 4017:1 4018:1 4028:1 4029:1 
59.29894665111841 43:1 573:1 
4.342323701813576 446:1 3620:1 4036:1 4039:1 4040:1 
1.436995772168199 369:1 557:1 561:1 730:1 2216:1 3631:1 4036:1 4050:1 4051:1 4052:1 
0.3736961860016631 57:1 223:1 417:1 437:1 1678:1 1683:1 1885:1 3516:1 4054:1 4055:1 4056:1 
2.03459950124648 233:1 589:1 1518:1 2216:1 2630:1 3038:1 3059:1 4075:1 
6.941544693481295 416:1 466:1 1740:1 1992:1 2328:1 3038:1 
2.429612231176855 59:1 153:1 458:1 557:1 589:1 2630:1 2656:1 2754:1 2767:1 3038:1 
0.4632118224001816 84:1 517:1 538:1 2079:1 2216:1 2612:1 3038:1 3039:1 3078:1 4078:1 
10.62408269195736 170:1 845:1 1646:1 2630:1 2754:1 2786:1 2842:1 2942:1 
13.48687582898192 23:1 3170:1 4097:1 
13.8420778239958 36:1 428:1 704:1 988:1 1129:1 1352:1 
0.6747715677892712 59:1 190:1 960:1 988:1 1203:1 1811:1 2323:1 2447:1 3725:1 
45.81748681687178 153:1 437:1 1151:1 
3.471160243125318 222:1 225:1 979:1 1073:1 2709:1 2924:1 2978:1 4122:1 
6.231066695808548 66:1 175:1 271:1 557:1 726:1 1503:1 1522:1 2922:1 2997:1 
52.53774427633585 16:1 133:1 
26.86438069843193 867:1 3090:1 
59.29894665111841 68:1 391:1 
18.02696884704796 504:1 1777:1 
3.817956779428578 228:1 282:1 557:1 1006:1 1007:1 1425:1 4109:1 4110:1 4134:1 
0.640449505982602 19:1 22:1 23:1 517:1 2620:1 2687:1 2692:1 
59.29894665111841 1349:1 
11.09859697410276 223:1 440:1 573:1 744:1 996:1 3096:1 4145:1 4159:1 
4.534795983141071 57:1 461:1 990:1 1073:1 1228:1 1642:1 1854:1 4145:1 4164:1 
36.87398852611058 180:1 866:1 1828:1 
45.83941879593102 507:1 1395:1 2245:1 
0.8880509282130953 357:1 1853:1 4143:1 4186:1 4187:1 4188:1 
9.435687150072164 19:1 22:1 23:1 517:1 2620:1 2687:1 2692:1 
8.05698082727416 165:1 180:1 866:1 1828:1 1829:1 1844:1 1845:1 1846:1 4211:1 
45.98453806887212 703:1 916:1 
12.77914700290079 104:1 690:1 3241:1 3398:1 3487:1 4214:1 
5.148304501528361 267:1 270:1 593:1 776:1 1378:1 1517:1 1599:1 2372:1 2719:1 2896:1 
20.73737427343211 1063:1 2735:1 
13.78537883749736 38:1 690:1 1359:1 1372:1 1379:1 4216:1 4219:1 4225:1 4227:1 4228:1 4234:1 4239:1 4247:1 4248:1 
10.92479785513161 361:1 475:1 711:1 2620:1 3038:1 
44.83319258797474 709:1 
59.29894665111841 391:1 882:1 
6.117192690016086 44:1 1913:1 
1.595916759523166 4302:1 4303:1 
16.65680056531465 543:1 4304:1 
14.93563849945938 275:1 288:1 557:1 1394:1 1971:1 2295:1 4305:1 
20.23091229137507 11:1 4306:1 
2.39952655488194 643:1 1469:1 2021:1 2166:1 3130:1 3184:1 4069:1 4183:1 4290:1 
4.646553943365526 184:1 333:1 728:1 1530:1 1705:1 4311:1 
59.29894665111841 113:1 
1.666557748557207 68:1 437:1 557:1 845:1 1003:1 1445:1 4038:1 4328:1 4339:1 4340:1 
7.332191249076599 48:1 812:1 1785:1 1992:1 2216:1 3038:1 3047:1 4079:1 
5.636627736652345 471:1 744:1 852:1 1099:1 1169:1 1854:1 3038:1 3064:1 3065:1 
21.92991993299307 27:1 68:1 165:1 524:1 780:1 996:1 2974:1 3043:1 
6.807942425472486 28:1 409:1 549:1 702:1 900:1 3177:1 4013:1 
1.707487230725202 11:1 361:1 643:1 1488:1 4290:1 4360:1 4361:1 4362:1 
10.5509244690935 153:1 509:1 1430:1 1446:1 2622:1 
1.252070580581278 1227:1 4374:1 4375:1 4381:1 
44.87797977595442 57:1 64:1 119:1 2001:1 4386:1 4387:1 4388:1 4389:1 4390:1 
1.155721926328832 119:1 1027:1 2130:1 3276:1 4386:1 4396:1 4397:1 
2.153629996033159 64:1 119:1 323:1 641:1 772:1 4409:1 4424:1 4425:1 4436:1 
0.2081099944357486 27:1 562:1 593:1 790:1 925:1 972:1 4428:1 4429:1 4439:1 
2.930318327780049 61:1 475:1 638:1 1133:1 4452:1 
5.314827558813713 1169:1 2269:1 4477:1 
2.825315169772145 3406:1 4444:1 4478:1 
0.5489320606470632 216:1 790:1 1585:1 4409:1 4438:1 
4.351746417493207 4426:1 4486:1 4497:1 4498:1 4499:1 4500:1 4501:1 4502:1 4503:1 4504:1 
57.19318846566022 4513:1 
57.73272371097811 4517:1 
6.922237605873589 4524:1 
59.16726323138941 4513:1 
27.8913381487454 2613:1 3522:1 4546:1 
1.720672936805879 13:1 772:1 1045:1 1087:1 4550:1 4551:1 4552:1 
0.3511177219275496 1592:1 2613:1 4553:1 4554:1 
2.926089085749186 2477:1 4510:1 4511:1 4555:1 
4.77040044633981 261:1 471:1 4404:1 4478:1 4559:1 4560:1 4561:1 4562:1 
14.62626393786803 416:1 957:1 2012:1 3036:1 4478:1 4487:1 4567:1 
7.049931326846281 904:1 4432:1 4573:1 4574:1 4575:1 
10.90943863076126 372:1 476:1 4443:1 4514:1 
1.98059957891699 4590:1 
1.003364206478398 460:1 1592:1 2613:1 3036:1 4437:1 4545:1 4554:1 4595:1 4596:1 4597:1 
0.9742185002262506 320:1 417:1 2029:1 2613:1 3432:1 4545:1 4548:1 4586:1 4604:1 4605:1 4606:1 
0.7669710760298698 694:1 1478:1 2800:1 3016:1 4607:1 4608:1 
3.203351054285074 4507:1 4509:1 4563:1 4614:1 4615:1 4616:1 
7.275905577324041 4620:1 
59.29894665111841 107:1 150:1 1054:1 
0.3433130692139655 183:1 638:1 826:1 1419:1 2793:1 3939:1 4655:1 
1.13094957710994 607:1 761:1 2744:1 2885:1 3191:1 4634:1 4635:1 
0.7820496715913211 1010:1 1585:1 2321:1 2802:1 4409:1 4688:1 4689:1 
2.095240616708923 145:1 258:1 772:1 1253:1 1819:1 2269:1 4461:1 4515:1 4693:1 4694:1 
1.892172286510486 59:1 84:1 236:1 703:1 4445:1 4467:1 4485:1 4666:1 
12.84255596600486 4692:1 
3.544307658846147 84:1 790:1 2158:1 2611:1 4702:1 4703:1 4704:1 4705:1 4706:1 
0.4829572725928582 348:1 361:1 1038:1 1225:1 4486:1 4500:1 4707:1 4708:1 4709:1 4710:1 
4.084767245094402 43:1 957:1 3850:1 4457:1 4515:1 4711:1 4712:1 4713:1 4714:1 4715:1 
7.58766745028719 223:1 340:1 549:1 640:1 1253:1 2193:1 4457:1 4461:1 4691:1 
0.9834332895411055 169:1 660:1 4736:1 4737:1 
59.29894665111841 53:1 323:1 2453:1 3470:1 4496:1 
7.5437468661638 7:1 167:1 458:1 1087:1 4419:1 4432:1 4444:1 4445:1 
1.28350684109902 1253:1 2269:1 4461:1 4468:1 4747:1 
4.116154605739407 4442:1 4445:1 4478:1 
2.304065224580935 908:1 1253:1 2510:1 4445:1 4461:1 4479:1 4749:1 4750:1 
3.927508939953575 48:1 79:1 169:1 790:1 2141:1 4387:1 4388:1 4409:1 4644:1 4751:1 4752:1 
0.8866449939463775 48:1 286:1 2012:1 4755:1 4756:1 4758:1 
28.1395644794388 4719:1 
29.28786747441201 52:1 181:1 286:1 529:1 1790:1 4668:1 4755:1 4770:1 
0.4975367240356011 38:1 861:1 1253:1 2250:1 2278:1 3686:1 4013:1 4466:1 4467:1 4773:1 
7.450323066915121 4393:1 4787:1 
59.29894665111841 22:1 23:1 24:1 25:1 26:1 
59.29894665111841 20:1 27:1 28:1 29:1 30:1 31:1 32:1 33:1 
59.29894665111841 33:1 43:1 44:1 45:1 46:1 47:1 48:1 49:1 
27.24061326321439 50:1 51:1 52:1 
8.760412183449954 97:1 
59.29894665111841 109:1 110:1 111:1 112:1 113:1 114:1 115:1 116:1 
59.29894665111841 27:1 149:1 150:1 151:1 
43.95737126886272 103:1 123:1 161:1 162:1 163:1 164:1 165:1 166:1 
18.58597846847332 187:1 
59.29894665111841 222:1 
21.00995295378594 270:1 
59.29894665111841 46:1 47:1 93:1 210:1 288:1 289:1 290:1 291:1 292:1 
59.29894665111841 20:1 27:1 156:1 177:1 312:1 313:1 314:1 
47.68286451503787 15:1 294:1 324:1 
23.54589416760978 14:1 15:1 68:1 69:1 78:1 107:1 363:1 364:1 365:1 366:1 
7.942612392123699 248:1 342:1 391:1 392:1 393:1 394:1 395:1 396:1 397:1 
46.12156278903887 196:1 197:1 430:1 431:1 
43.18447849227998 110:1 111:1 456:1 457:1 458:1 459:1 460:1 461:1 462:1 
37.63410552624956 482:1 483:1 484:1 
44.76073829212876 181:1 342:1 390:1 468:1 514:1 515:1 
29.83157194944987 73:1 89:1 129:1 468:1 522:1 523:1 524:1 525:1 
58.92467977205713 129:1 524:1 525:1 526:1 527:1 528:1 529:1 
5.703372766802328 397:1 558:1 569:1 570:1 571:1 572:1 
44.56512835338906 436:1 571:1 572:1 573:1 574:1 575:1 576:1 577:1 
4.497230576011396 201:1 310:1 515:1 558:1 581:1 582:1 583:1 584:1 585:1 586:1 
31.7251916322218 20:1 27:1 60:1 156:1 468:1 559:1 
3.795391284933367 184:1 587:1 588:1 
38.18401787649719 423:1 468:1 481:1 600:1 603:1 604:1 605:1 606:1 
17.72145869809161 50:1 51:1 52:1 53:1 55:1 145:1 468:1 636:1 637:1 
59.29894665111841 11:1 202:1 203:1 666:1 
59.29894665111841 715:1 
5.552032946081169 130:1 644:1 669:1 719:1 720:1 721:1 722:1 723:1 
57.97747986141501 40:1 644:1 727:1 728:1 729:1 730:1 731:1 
2.856531823331853 92:1 93:1 230:1 743:1 744:1 
10.54810950179089 470:1 759:1 
57.82834074080873 52:1 91:1 135:1 136:1 168:1 767:1 768:1 769:1 770:1 
59.29894665111841 543:1 775:1 776:1 777:1 
30.48572337184332 346:1 420:1 789:1 790:1 
21.79708983901643 27:1 60:1 98:1 558:1 791:1 792:1 793:1 794:1 
22.09151494621272 791:1 800:1 801:1 
5.995563159884004 562:1 791:1 802:1 803:1 804:1 805:1 
1.411136406603792 21:1 129:1 152:1 238:1 552:1 815:1 816:1 817:1 818:1 819:1 820:1 
55.28859759065657 11:1 196:1 226:1 665:1 841:1 
5.625567186486246 848:1 849:1 
15.84406974229184 852:1 
18.49191749966015 86:1 129:1 435:1 862:1 863:1 864:1 865:1 866:1 867:1 
18.48774954676005 75:1 92:1 111:1 255:1 789:1 884:1 885:1 886:1 887:1 
5.87709040640902 129:1 738:1 899:1 902:1 903:1 904:1 905:1 906:1 907:1 908:1 909:1 
12.79693992040712 3:1 936:1 937:1 
56.17851754626342 19:1 64:1 65:1 941:1 942:1 
41.0370863957602 504:1 958:1 997:1 
2.417526601424494 135:1 864:1 945:1 999:1 1000:1 1001:1 1002:1 
59.29894665111841 296:1 297:1 1003:1 1004:1 1005:1 1006:1 
13.84204733873203 452:1 491:1 948:1 1015:1 1016:1 1017:1 
43.76336250162091 89:1 452:1 945:1 1017:1 1041:1 1042:1 
2.602347094466803 11:1 129:1 1019:1 1020:1 1021:1 1058:1 1061:1 1062:1 1063:1 
22.57108468225519 387:1 394:1 473:1 753:1 988:1 1058:1 1121:1 
59.29894665111841 27:1 29:1 35:1 69:1 226:1 1058:1 1126:1 1127:1 1128:1 1129:1 
2.357400628013246 60:1 407:1 1140:1 1141:1 
38.11404114443185 60:1 135:1 138:1 184:1 
1.992057037709139 1149:1 1151:1 1152:1 1153:1 1154:1 1155:1 1156:1 
49.90330122932117 199:1 1157:1 1158:1 
17.55021762448859 276:1 1149:1 1159:1 1160:1 1161:1 1162:1 
0.7947464619329323 846:1 847:1 892:1 1210:1 1211:1 1212:1 
0.007853232735407407 123:1 269:1 334:1 1235:1 1236:1 1237:1 1238:1 1239:1 1240:1 1241:1 1242:1 
0.0858555306103163 226:1 331:1 850:1 1314:1 1315:1 1316:1 
29.28944967372367 11:1 665:1 1326:1 
1.977859772277893 20:1 27:1 60:1 156:1 1333:1 
12.73426906632823 578:1 1340:1 1341:1 1342:1 
39.26520743078268 268:1 862:1 1343:1 1344:1 
31.69386128900884 899:1 930:1 932:1 933:1 1259:1 1260:1 1377:1 1378:1 1379:1 1380:1 1381:1 
2.586949633254472 69:1 152:1 769:1 787:1 868:1 938:1 1392:1 1393:1 
17.61088275449861 181:1 787:1 938:1 1393:1 
2.44652948145727 39:1 1066:1 1067:1 1334:1 1378:1 1418:1 1419:1 
32.62003034708466 91:1 120:1 181:1 769:1 1427:1 
20.80250937864327 3:1 1439:1 
59.29894665111841 11:1 1480:1 1481:1 
59.29894665111841 11:1 417:1 1485:1 
8.85215679157743 26:1 1486:1 1487:1 
13.71232589431357 1515:1 
8.79439071034971 33:1 138:1 491:1 1261:1 1530:1 
44.54316404408197 11:1 1535:1 1536:1 
1.076890051179705 86:1 1076:1 1211:1 1561:1 1562:1 1563:1 1564:1 1565:1 
11.78574868841108 289:1 453:1 617:1 1562:1 1564:1 1565:1 1566:1 1567:1 1568:1 
4.935967150497964 97:1 221:1 1569:1 
21.92285841694271 97:1 
1.211826862161534 33:1 292:1 452:1 1269:1 1581:1 
0.09863342519923482 758:1 859:1 1611:1 1612:1 
4.25298412841815 1618:1 
4.54962775766755 83:1 129:1 743:1 758:1 1641:1 1642:1 1643:1 1644:1 1645:1 
9.805387050366225 129:1 1646:1 1647:1 
1.909513519978759 26:1 263:1 1700:1 1701:1 1702:1 
0.5811781472055724 48:1 85:1 86:1 132:1 387:1 1641:1 1707:1 
59.29894665111841 139:1 181:1 210:1 769:1 
33.55636466369558 26:1 222:1 
23.09935920494957 85:1 210:1 387:1 508:1 624:1 1713:1 1714:1 
3.976647592366875 123:1 270:1 271:1 1730:1 
13.03413877219532 27:1 28:1 167:1 210:1 768:1 1376:1 1731:1 
6.263939279552163 88:1 129:1 226:1 281:1 1748:1 1749:1 1750:1 
36.0802049416148 1760:1 1761:1 1762:1 
49.03196076282725 215:1 226:1 1398:1 1764:1 
4.37701779765186 93:1 310:1 607:1 824:1 1413:1 1807:1 
0.2228307531271031 92:1 268:1 318:1 504:1 1794:1 1797:1 1798:1 1808:1 1809:1 1810:1 
2.279778524377807 1598:1 1857:1 1858:1 1859:1 1860:1 1861:1 1862:1 
5.79191672755592 358:1 1211:1 1869:1 1870:1 1871:1 1872:1 1873:1 1874:1 
1.899327697809978 127:1 681:1 1112:1 1376:1 1378:1 1883:1 1884:1 1885:1 1886:1 
8.63013495754284 79:1 371:1 625:1 1076:1 1192:1 1887:1 1888:1 1889:1 
59.29894665111841 184:1 1898:1 
1.923133121114601 93:1 1676:1 1897:1 1908:1 
17.93930042613787 21:1 27:1 152:1 156:1 481:1 591:1 644:1 1406:1 1972:1 
7.610124709732452 136:1 491:1 644:1 681:1 1391:1 1972:1 1973:1 
0.1865319276430196 644:1 1960:1 1995:1 1996:1 1997:1 
0.9498904243483152 80:1 291:1 672:1 1721:1 1997:1 1998:1 1999:1 2000:1 2001:1 2002:1 
10.2410030918776 10:1 87:1 396:1 603:1 801:1 2007:1 2010:1 2011:1 2012:1 
0.03141439653019788 694:1 753:1 1848:1 2007:1 2013:1 2014:1 2015:1 
10.03144779076622 27:1 156:1 429:1 701:1 1745:1 2047:1 2048:1 
39.27369152749436 42:1 357:1 358:1 2055:1 
0.7908439064374214 181:1 182:1 183:1 286:1 429:1 591:1 2094:1 2095:1 
0.8935203702983328 1211:1 1872:1 2117:1 
17.76990464967983 1259:1 2120:1 
6.216404293662415 263:1 616:1 1259:1 2012:1 2025:1 2120:1 2121:1 2122:1 2123:1 2124:1 
3.642348161901173 152:1 669:1 1760:1 2054:1 2148:1 2149:1 2150:1 
0.8166394629462504 3:1 83:1 223:1 276:1 315:1 1649:1 2054:1 2175:1 2176:1 
2.428788684653273 9:1 46:1 47:1 175:1 291:1 292:1 1058:1 1718:1 2186:1 
2.787259360242734 87:1 196:1 197:1 251:1 294:1 1063:1 1328:1 2197:1 2198:1 2199:1 
59.29894665111841 193:1 
0.1284005688616133 124:1 130:1 274:1 312:1 522:1 801:1 1798:1 1962:1 
59.29894665111841 46:1 47:1 136:1 205:1 1058:1 1330:1 
13.30342824634619 310:1 564:1 640:1 2054:1 2170:1 2223:1 2224:1 2225:1 2226:1 2227:1 2228:1 2229:1 2230:1 
41.24210025816474 690:1 1323:1 1736:1 2226:1 2227:1 2228:1 2229:1 2230:1 2231:1 2232:1 2233:1 
1.73018225552855 162:1 196:1 197:1 251:1 381:1 1186:1 1610:1 2141:1 
3.116932497696922 10:1 193:1 205:1 1217:1 1448:1 1451:1 2253:1 2254:1 2255:1 
0.4848665700654754 79:1 453:1 564:1 583:1 1052:1 2269:1 2270:1 2271:1 
17.81795314400473 92:1 93:1 312:1 899:1 1765:1 2317:1 2318:1 2319:1 2320:1 
3.948455929532013 738:1 769:1 2317:1 2321:1 2322:1 
7.235941758171985 89:1 129:1 681:1 769:1 1391:1 2326:1 2327:1 2328:1 2329:1 2330:1 2331:1 
0.4284754368160401 93:1 129:1 812:1 813:1 2352:1 2353:1 
59.29894665111841 28:1 138:1 738:1 758:1 1628:1 
2.460289622617458 129:1 360:1 759:1 1996:1 2357:1 2358:1 2359:1 2360:1 2361:1 
1.911270219972837 129:1 777:1 779:1 899:1 1338:1 2081:1 2372:1 2373:1 2374:1 2375:1 
16.28513768272124 92:1 184:1 392:1 467:1 512:1 2327:1 2384:1 2385:1 2386:1 2387:1 
2.822399691076931 786:1 787:1 899:1 1411:1 2327:1 2388:1 2389:1 2390:1 
28.56288617596907 129:1 971:1 2391:1 2392:1 
3.138489802589831 129:1 467:1 787:1 2014:1 2351:1 2393:1 
2.0627238918639 543:1 681:1 899:1 2349:1 2414:1 2415:1 2416:1 2417:1 
17.37288709919945 92:1 93:1 182:1 308:1 744:1 787:1 899:1 1380:1 2427:1 
0.1393380501989228 69:1 257:1 899:1 1482:1 2294:1 2457:1 2458:1 2459:1 2460:1 2461:1 2462:1 2463:1 
2.773322437725628 126:1 2035:1 2464:1 2465:1 2466:1 2467:1 2468:1 2469:1 2470:1 2471:1 2472:1 
2.517849678273537 543:1 899:1 2426:1 2477:1 2484:1 2488:1 2489:1 
1.705209289645366 1302:1 2495:1 2496:1 
43.57253634783779 73:1 89:1 2279:1 
4.472604062429645 196:1 197:1 251:1 665:1 2189:1 2520:1 2521:1 2522:1 
28.013861231988 91:1 141:1 616:1 762:1 769:1 1112:1 2527:1 2528:1 2529:1 2530:1 
18.9073670550653 15:1 141:1 257:1 616:1 758:1 762:1 770:1 1112:1 1634:1 
14.32628211380541 184:1 2335:1 2534:1 
0.4719382549076564 1181:1 2054:1 2567:1 2568:1 2569:1 2570:1 2571:1 
7.690814567341046 136:1 769:1 2077:1 
13.31626768997577 33:1 257:1 2203:1 2597:1 2598:1 
0.6105700777966242 157:1 303:1 304:1 348:1 422:1 424:1 1736:1 2652:1 2653:1 
4.351496058930622 281:1 671:1 758:1 2631:1 2667:1 2668:1 2669:1 2670:1 
1.899787315847153 758:1 2631:1 2652:1 2671:1 2672:1 2673:1 2674:1 
11.93978270257024 15:1 226:1 694:1 970:1 2631:1 2633:1 2677:1 2678:1 
5.924755577784043 424:1 600:1 1112:1 1632:1 1858:1 1862:1 2006:1 2631:1 2645:1 2656:1 2679:1 2680:1 
2.436896102155938 128:1 211:1 470:1 758:1 2058:1 2631:1 2690:1 2691:1 
4.355230115408964 272:1 698:1 1340:1 1736:1 2631:1 2693:1 
3.748437520968608 120:1 440:1 693:1 1848:1 2694:1 2695:1 2696:1 2697:1 
3.072350194115267 292:1 591:1 674:1 758:1 1107:1 1761:1 2704:1 2705:1 2706:1 
3.38849413401158 552:1 1107:1 2631:1 2707:1 2708:1 2709:1 
3.810435146798 693:1 758:1 1782:1 2631:1 2720:1 2726:1 
0.8541529584657255 129:1 177:1 310:1 579:1 758:1 856:1 1505:1 2668:1 2719:1 2727:1 2728:1 
11.95059292278708 392:1 527:1 528:1 2168:1 2631:1 2737:1 
24.87358387420302 603:1 758:1 2637:1 2738:1 2739:1 2740:1 
2.189944553008977 19:1 312:1 453:1 896:1 969:1 1245:1 2762:1 
0.5182237317821797 8:1 9:1 358:1 1101:1 2786:1 2787:1 
2.166035753213842 41:1 132:1 758:1 902:1 1275:1 2797:1 2798:1 
4.060000805748697 71:1 111:1 444:1 894:1 895:1 1584:1 1879:1 2779:1 2803:1 2804:1 
14.58666399193309 14:1 196:1 197:1 219:1 381:1 1610:1 2141:1 2828:1 
6.660732432502565 136:1 139:1 210:1 2833:1 
13.71015429913033 2847:1 2848:1 2849:1 2850:1 
11.03871056364257 176:1 196:1 197:1 251:1 253:1 254:1 255:1 294:1 346:1 355:1 431:1 565:1 2855:1 
22.70233987533188 184:1 337:1 359:1 2364:1 2856:1 
1.117460258218815 255:1 346:1 355:1 
10.44230207408834 2859:1 2860:1 
25.18937431569473 124:1 125:1 265:1 306:1 307:1 616:1 718:1 1537:1 1700:1 2238:1 
14.69752849920043 609:1 1224:1 2888:1 
41.40475567828567 184:1 644:1 2364:1 
57.71158795432446 281:1 386:1 453:1 640:1 1748:1 
1.211878744338254 138:1 184:1 860:1 869:1 2931:1 2932:1 2933:1 
1.81423745348839 184:1 860:1 2816:1 2817:1 
14.51988916234189 48:1 70:1 372:1 986:1 1024:1 2981:1 2982:1 2983:1 2984:1 
5.477860071486219 92:1 129:1 328:1 448:1 1170:1 2207:1 2996:1 2997:1 
4.87799633866631 2950:1 2951:1 
7.851024185219605 357:1 358:1 
1.133097551557577 307:1 357:1 358:1 359:1 493:1 1451:1 3039:1 
14.85233284848265 184:1 2335:1 3063:1 
3.717721702547394 73:1 184:1 870:1 3108:1 
2.777255038332012 53:1 124:1 263:1 265:1 1487:1 1537:1 1700:1 2238:1 2244:1 3111:1 
6.018173337693309 297:1 2207:1 2944:1 2945:1 2946:1 
2.987313272824361 20:1 185:1 219:1 769:1 870:1 2610:1 
12.1264917793531 875:1 2192:1 2840:1 2841:1 2842:1 3057:1 
2.881038593231382 71:1 1255:1 1700:1 2509:1 2561:1 3138:1 3139:1 3140:1 3141:1 3142:1 3143:1 
0.3206095720659234 199:1 485:1 1534:1 3152:1 3153:1 3154:1 3155:1 
15.44372640967292 139:1 534:1 538:1 871:1 
5.403924121667067 297:1 3132:1 3168:1 3169:1 3170:1 3171:1 
11.94217784185385 10:1 357:1 358:1 379:1 1044:1 1106:1 1217:1 1352:1 1429:1 1451:1 2201:1 2246:1 3200:1 3201:1 
7.658109697218303 201:1 255:1 346:1 355:1 1091:1 1334:1 2742:1 3134:1 3215:1 
2.851114049842827 874:1 875:1 2736:1 3219:1 3222:1 3224:1 3225:1 3226:1 
10.76340491578956 458:1 970:1 3219:1 3220:1 3222:1 3235:1 3236:1 3237:1 3238:1 
3.655859421342124 205:1 357:1 358:1 671:1 1103:1 1334:1 1451:1 1721:1 3270:1 3271:1 3272:1 3273:1 
8.653853586396707 129:1 197:1 294:1 337:1 417:1 431:1 1352:1 2804:1 3274:1 3275:1 
0.004873929346848027 14:1 15:1 64:1 367:1 368:1 3252:1 3284:1 3285:1 
59.29894665111841 46:1 47:1 1776:1 
1.227569529037661 41:1 46:1 47:1 291:1 301:1 1954:1 2431:1 2585:1 3297:1 3298:1 3299:1 
0.7494550341297203 205:1 297:1 2322:1 3308:1 3309:1 
3.087443865705998 64:1 68:1 69:1 2276:1 3367:1 3368:1 
2.679468765659993 71:1 206:1 306:1 318:1 717:1 1584:1 1700:1 2509:1 3379:1 
0.6350068275219217 71:1 266:1 306:1 1537:1 1700:1 3144:1 3383:1 3384:1 
7.347676128638559 307:1 637:1 1907:1 2073:1 3393:1 3394:1 3395:1 3396:1 3397:1 3398:1 3399:1 
2.143669159128074 10:1 88:1 219:1 292:1 2170:1 3414:1 3415:1 3416:1 
4.130968111425077 355:1 1015:1 1041:1 3426:1 3432:1 3433:1 3434:1 3435:1 3436:1 3437:1 3438:1 
32.84358909237482 1259:1 2120:1 
6.371787379846494 38:1 288:1 837:1 1112:1 1872:1 3442:1 3443:1 
26.05403274067012 294:1 431:1 3026:1 
4.5423839143602 3460:1 
13.06259635758255 204:1 2089:1 3463:1 3464:1 
3.277674701981876 864:1 3465:1 
30.36127872637562 432:1 1694:1 
2.625716476008736 255:1 3129:1 3291:1 3430:1 3431:1 3468:1 3469:1 3470:1 3471:1 
0.6480637773156838 1041:1 1334:1 2066:1 3471:1 3472:1 3473:1 
1.619876498666654 508:1 851:1 2114:1 2313:1 2517:1 2646:1 3031:1 3197:1 3198:1 3488:1 3490:1 3491:1 3492:1 
5.159373819404529 1537:1 3509:1 3510:1 
0.4218657197373786 386:1 1427:1 3359:1 
1.468783746467738 386:1 1427:1 3359:1 
0.9471377781271851 2114:1 3514:1 
0.3913378794332233 201:1 226:1 453:1 592:1 639:1 3515:1 3516:1 3517:1 3518:1 3519:1 
0.08669507407792419 98:1 199:1 372:1 463:1 620:1 1982:1 3551:1 3552:1 3553:1 3554:1 3555:1 
1.932716942480055 2572:1 
19.63692077199029 2791:1 
2.518411596186801 1413:1 3289:1 3575:1 
33.54282567159188 3586:1 3587:1 
14.59842243565855 1311:1 3593:1 3594:1 
0.016538739271594 3605:1 3606:1 
6.95957064188657 204:1 1062:1 1820:1 2903:1 3446:1 3613:1 3614:1 3615:1 3616:1 
8.047001595637989 85:1 1562:1 2336:1 3624:1 3625:1 3626:1 
1.046240551127795 128:1 453:1 1252:1 1676:1 3494:1 3642:1 3643:1 3644:1 3645:1 3646:1 
13.30034376411464 1249:1 
7.069489139727273 85:1 305:1 3587:1 3669:1 3670:1 
6.416610628824992 3671:1 
14.45552849448502 3672:1 3673:1 
1.956092803202095 640:1 2629:1 3011:1 3012:1 
13.03219759455998 79:1 226:1 3677:1 3678:1 3679:1 3680:1 
4.805604959433944 73:1 386:1 428:1 803:1 2191:1 2667:1 3681:1 3682:1 3683:1 
15.78402504014642 335:1 2611:1 
39.70385949852548 89:1 1508:1 1516:1 1928:1 3712:1 
12.87051156856082 152:1 310:1 426:1 436:1 1881:1 3506:1 3713:1 3714:1 3715:1 3716:1 
9.969255586448384 372:1 1406:1 2717:1 3717:1 3718:1 
0.4938434906964392 88:1 2287:1 3722:1 
1.537462260905279 15:1 253:1 425:1 437:1 510:1 585:1 3728:1 3729:1 3730:1 3731:1 
2.171843415154269 815:1 2239:1 3438:1 3743:1 3744:1 3745:1 3746:1 3747:1 
23.155216371033 779:1 2051:1 2081:1 
4.653720360678816 581:1 620:1 3750:1 3751:1 
0.1367148284174849 131:1 226:1 565:1 814:1 870:1 1551:1 3400:1 3720:1 3769:1 3770:1 3771:1 3772:1 
7.996573569610911 138:1 832:1 1530:1 2431:1 3825:1 3826:1 3827:1 3828:1 
2.912470877660273 1820:1 2903:1 3255:1 3552:1 3613:1 3825:1 3832:1 
27.18207294490862 437:1 620:1 639:1 2549:1 3028:1 3833:1 3834:1 3835:1 3836:1 
13.78328971344284 199:1 245:1 372:1 1437:1 3837:1 
3.345611857014648 199:1 407:1 508:1 856:1 3603:1 3838:1 3839:1 3840:1 3841:1 
0.06877974130179672 98:1 129:1 199:1 740:1 2528:1 3842:1 3849:1 3851:1 3852:1 3853:1 3854:1 
1.963111020078003 85:1 814:1 1776:1 3874:1 3875:1 3876:1 3877:1 
46.12940649574812 184:1 199:1 463:1 814:1 872:1 1776:1 
25.4551759182236 594:1 780:1 1820:1 3901:1 3902:1 3903:1 
2.22144347854241 199:1 226:1 276:1 372:1 463:1 1081:1 2722:1 3944:1 3945:1 3946:1 3947:1 3948:1 
0.8176932774924703 21:1 1847:1 3068:1 3385:1 3469:1 3974:1 3975:1 3976:1 3977:1 
0.03507513484714907 129:1 226:1 386:1 851:1 856:1 1741:1 2482:1 3984:1 3985:1 3986:1 
2.407355468499088 128:1 226:1 1378:1 2110:1 3120:1 3495:1 3587:1 3997:1 3998:1 3999:1 
1.975720955087622 178:1 226:1 252:1 1088:1 2624:1 2633:1 3505:1 3518:1 3728:1 4000:1 
0.7174724678796465 69:1 226:1 564:1 650:1 1769:1 2648:1 3074:1 4001:1 
2.844301256241451 75:1 194:1 263:1 1700:1 1757:1 1758:1 2280:1 4010:1 
38.52879138233116 184:1 210:1 814:1 870:1 4011:1 
0.2961483341928899 10:1 437:1 1330:1 1331:1 1334:1 2260:1 3163:1 3670:1 3677:1 4021:1 
14.1323262861928 30:1 453:1 494:1 640:1 2441:1 2804:1 4028:1 4029:1 4030:1 
2.683722477257776 999:1 3345:1 3569:1 4033:1 4034:1 
1.893833984267058 639:1 1339:1 1905:1 2565:1 3569:1 3686:1 4040:1 4041:1 4042:1 
3.807584317163561 4012:1 4018:1 4043:1 4044:1 
2.613347637057287 276:1 372:1 1245:1 2367:1 3569:1 3924:1 3993:1 4045:1 4046:1 4047:1 4048:1 
18.22922775062647 1777:1 1857:1 
0.7221413130284376 88:1 3282:1 4065:1 4066:1 4067:1 
1.767307573429408 603:1 2492:1 2739:1 3569:1 4068:1 
39.25316064354749 1819:1 3569:1 
15.59535132251907 93:1 107:1 627:1 856:1 1781:1 3569:1 4088:1 4089:1 4090:1 
1.083610047653689 4092:1 4093:1 4094:1 
10.33869471169163 464:1 779:1 856:1 4106:1 4107:1 4108:1 
8.162686773167524 443:1 615:1 1848:1 2297:1 3035:1 4109:1 4110:1 
58.8800176908486 373:1 839:1 4111:1 4112:1 4113:1 4114:1 
1.806362153470001 288:1 732:1 1776:1 1783:1 1822:1 1849:1 2565:1 3728:1 3996:1 4122:1 4123:1 
0.5217286864454085 9:1 226:1 323:1 605:1 732:1 814:1 1776:1 3873:1 
6.108456835490292 39:1 226:1 603:1 851:1 2739:1 4166:1 4167:1 4168:1 
11.12118989139857 14:1 15:1 1493:1 1537:1 1567:1 2840:1 2841:1 2842:1 4169:1 
0.9843160625324756 99:1 204:1 458:1 3075:1 4195:1 4196:1 4197:1 4198:1 
2.843654386097011 15:1 183:1 812:1 813:1 814:1 1267:1 4211:1 4212:1 4213:1 
3.684383258401445 15:1 337:1 1776:1 3873:1 4208:1 4243:1 
33.03830173080624 46:1 47:1 127:1 128:1 468:1 2717:1 4239:1 4240:1 
12.10249355158761 6:1 75:1 226:1 334:1 369:1 370:1 372:1 2145:1 4017:1 4249:1 4250:1 4251:1 
0.1984883748581205 48:1 86:1 201:1 226:1 292:1 1132:1 4253:1 4254:1 4255:1 
2.469216305955611 357:1 1330:1 1352:1 2350:1 4266:1 4267:1 4268:1 
0.4559938171195407 3186:1 4272:1 4273:1 4274:1 
44.01759643292866 4290:1 4291:1 4292:1 
3.403112773277309 429:1 963:1 1076:1 1081:1 1246:1 1869:1 3040:1 3937:1 4320:1 4321:1 4322:1 
0.8297528884775278 371:1 386:1 628:1 963:1 3938:1 4323:1 4324:1 
22.98305227822954 165:1 201:1 4079:1 
1.805727180719285 4123:1 4211:1 4348:1 4349:1 
0.3973884653742544 1342:1 1514:1 4358:1 4359:1 
0.1044212850997763 292:1 317:1 583:1 1514:1 4360:1 4361:1 
1.321039788203895 1246:1 1323:1 3338:1 3416:1 3525:1 3942:1 4366:1 
14.61903366117073 985:1 1385:1 4371:1 
55.42436453023162 210:1 440:1 
10.31104303531558 181:1 3416:1 4379:1 
3.235892414979137 181:1 419:1 3416:1 4380:1 
1.598901566375302 426:1 429:1 628:1 1184:1 1217:1 1869:1 2043:1 2347:1 2634:1 3235:1 4286:1 4384:1 
3.341986540655315 355:1 1720:1 1771:1 3227:1 4416:1 4417:1 4418:1 4419:1 4420:1 
6.203649942754018 470:1 739:1 1891:1 3518:1 3586:1 4430:1 
0.5948214275968279 1240:1 1245:1 2029:1 2471:1 3277:1 4384:1 4432:1 4433:1 4434:1 4435:1 
0.3407054486426568 371:1 529:1 1041:1 1609:1 3438:1 4436:1 4437:1 4438:1 4439:1 
3.835722323200325 278:1 1419:1 1909:1 4287:1 4412:1 4462:1 
13.32197306176509 88:1 1557:1 4342:1 4473:1 4474:1 
25.28073366849934 1557:1 3766:1 4470:1 4490:1 
3.972728903564521 123:1 1557:1 1567:1 3095:1 3491:1 
0.9074646295329238 3095:1 3326:1 3570:1 4474:1 4501:1 4502:1 4503:1 4504:1 4505:1 
24.89421961055193 4290:1 4529:1 4530:1 
0.4306043629636749 1392:1 2659:1 4512:1 4563:1 
12.5442513546968 4566:1 
5.335442965303726 1741:1 2528:1 4290:1 4573:1 4574:1 4575:1 
0.7165880435412041 4602:1 
0.1996598270814009 297:1 589:1 780:1 2117:1 2743:1 4173:1 4608:1 
51.78699030140081 4611:1 4612:1 4613:1 4614:1 
46.06270646799888 88:1 146:1 371:1 1958:1 4615:1 4616:1 4617:1 
2.156521566719038 124:1 3552:1 4642:1 4643:1 4644:1 
5.43391076066042 429:1 856:1 1112:1 4648:1 
14.6515840339039 2074:1 4511:1 
35.04321241413653 4692:1 
6.496561600184411 759:1 
36.2894969379993 3812:1 
2.159125161331969 91:1 1609:1 2352:1 4495:1 4680:1 
0.9552680227910848 201:1 549:1 1721:1 3040:1 4413:1 4709:1 4710:1 4711:1 
1.049440090426019 549:1 2033:1 2754:1 
4.243566056241415 1514:1 1736:1 2351:1 4282:1 4740:1 
1.414142598468894 4290:1 4723:1 4759:1 4760:1 4761:1 4762:1 4763:1 
2.058281456059045 201:1 379:1 936:1 1005:1 1044:1 1343:1 1837:1 3102:1 4595:1 4734:1 4765:1 
9.02077007828502 193:1 549:1 1005:1 1044:1 3239:1 4547:1 4709:1 4781:1 4782:1 
3.902056878930182 2614:1 
3.010894576468789 3048:1 3552:1 4245:1 4414:1 4806:1 4807:1 
1.364232047000021 1616:1 4287:1 
8.177746232507928 2164:1 4183:1 4838:1 4839:1 
3.350648798775286 371:1 2585:1 4841:1 4842:1 
0.4216953062771446 2091:1 2248:1 4855:1 4858:1 
0.3336676226399305 4271:1 4451:1 4862:1 4863:1 
1.888607060034923 4867:1 4868:1 4869:1 
2.964501485471849 971:1 4878:1 
10.16455814561697 4879:1 4880:1 
6.130154494352086 281:1 1363:1 2338:1 3892:1 4270:1 4667:1 4889:1 
0.4000919726725675 281:1 1363:1 2338:1 3892:1 4270:1 4667:1 4894:1 
2.593989842775133 1061:1 1501:1 4270:1 4461:1 
1.952587057986905 4284:1 4918:1 
15.5797305888107 10:1 88:1 371:1 1557:1 4927:1 4928:1 
1.806329448976776 1325:1 1810:1 2616:1 4278:1 4440:1 4938:1 4939:1 4940:1 
1.211776807795314 19:1 292:1 318:1 661:1 4941:1 
59.29894665111841 210:1 
16.55057715400403 607:1 4372:1 
1.529273830624765 165:1 219:1 292:1 1171:1 1379:1 1396:1 2208:1 4978:1 
4.326770301861702 266:1 515:1 583:1 1419:1 4077:1 4919:1 4996:1 4997:1 
3.459539408845983 429:1 563:1 612:1 4287:1 4538:1 4969:1 5001:1 5002:1 5003:1 
4.919631901314462 93:1 124:1 392:1 467:1 592:1 3202:1 4103:1 
17.33310259324631 93:1 124:1 392:1 467:1 592:1 3202:1 4103:1 
2.112673433648754 248:1 292:1 1846:1 4255:1 5041:1 
2.860891027777681 2124:1 2585:1 5046:1 
0.2495296039498812 292:1 859:1 4190:1 4278:1 5048:1 
1.51102534184304 248:1 292:1 1846:1 4255:1 5041:1 
43.17401492533497 126:1 2248:1 4279:1 
1.650583575725705 1822:1 2073:1 4856:1 4878:1 5060:1 5061:1 
2.046358766891908 1295:1 5107:1 5108:1 
1.350447362949852 93:1 201:1 211:1 453:1 4167:1 5105:1 5115:1 5116:1 
5.595163818141466 73:1 3590:1 5092:1 5125:1 
0.07453019750382822 125:1 1335:1 2744:1 3338:1 5092:1 5148:1 5156:1 
0.261063593986853 125:1 1335:1 2744:1 3338:1 5092:1 5148:1 5156:1 
0.9870583167435312 453:1 1501:1 3235:1 5088:1 5187:1 5188:1 
2.673742823790936 281:1 465:1 549:1 859:1 2298:1 4285:1 4785:1 4836:1 5215:1 
1.362674348314198 123:1 485:1 692:1 3140:1 3180:1 4291:1 5239:1 
1.462131029340515 2248:1 2254:1 4279:1 4928:1 5253:1 
2.77258637096174 3547:1 4247:1 5259:1 5260:1 
2.079905612839318 355:1 2048:1 3249:1 
0.01723543491418098 102:1 120:1 292:1 1192:1 3040:1 3726:1 5185:1 5263:1 
0.5726125331171118 426:1 3289:1 4512:1 5272:1 
1.702385752256838 393:1 1522:1 1642:1 5273:1 
5.310363217335111 1181:1 4905:1 
9.257784675411751 4091:1 
1.813310618729723 83:1 131:1 824:1 856:1 1632:1 1741:1 4201:1 4287:1 4289:1 5297:1 
0.5128923050504585 597:1 734:1 1024:1 1567:1 4289:1 5298:1 5299:1 
22.64500374733097 2494:1 
4.525317743540781 651:1 1396:1 
41.45735801766278 327:1 1493:1 3257:1 
43.60274035150037 327:1 4475:1 
0.1791606504427958 2063:1 4724:1 5323:1 5324:1 
3.103804392021807 327:1 3257:1 5328:1 
5.605714007164123 1609:1 
59.29894665111841 184:1 
0.2073709377377258 4270:1 4460:1 4475:1 
0.5474711802123031 465:1 3410:1 4285:1 5340:1 5341:1 
10.20507600505285 470:1 2533:1 4270:1 
2.550555601293076 648:1 3682:1 5348:1 
5.344350007024911 281:1 327:1 1737:1 4864:1 5344:1 
24.46173854576393 2237:1 4352:1 5369:1 
10.43354404600245 1954:1 5373:1 
2.399226068510326 5375:1 5376:1 
59.29894665111841 305:1 
20.16173904472219 426:1 687:1 1044:1 2677:1 4352:1 4353:1 5387:1 5388:1 5389:1 
21.35428530823985 2347:1 5390:1 
59.29894665111841 327:1 
19.6400388353888 439:1 2209:1 
4.678714795860446 93:1 5419:1 
15.86772442248951 131:1 1632:1 
2.987828469702486 5422:1 
0.1075626002957949 429:1 2688:1 5437:1 
4.503581788468736 243:1 334:1 397:1 865:1 1612:1 4248:1 5442:1 
1.077667168106998 327:1 411:1 1024:1 1072:1 3257:1 3313:1 
0.2401751690916434 255:1 346:1 355:1 565:1 1038:1 1873:1 3243:1 4023:1 4834:1 5457:1 5458:1 
0.2763748030405187 257:1 1335:1 1609:1 1628:1 4342:1 4423:1 4966:1 5308:1 5428:1 5459:1 
0.4370719775856735 327:1 3095:1 4423:1 4724:1 5460:1 5461:1 
5.908214312223617 1502:1 1697:1 
0.4001314394329971 10:1 243:1 3918:1 5462:1 5463:1 5464:1 5465:1 
0.08727025678691328 1697:1 3918:1 4412:1 5464:1 
3.506513922550092 201:1 522:1 683:1 4512:1 5468:1 
7.658555529299425 83:1 598:1 1514:1 4517:1 5471:1 5477:1 5491:1 
1.691947319343653 88:1 226:1 576:1 1335:1 1459:1 5398:1 5496:1 5497:1 5498:1 5499:1 
59.29894665111841 327:1 
17.77054076476439 327:1 3235:1 3257:1 3525:1 
3.89362465369748 2128:1 4270:1 4887:1 5543:1 
26.91269416679101 201:1 465:1 681:1 3338:1 
1.027954180243328 93:1 397:1 2379:1 2501:1 
1.206258976964386 79:1 485:1 2899:1 5510:1 5511:1 5512:1 
0.6142987512081527 327:1 985:1 1493:1 2616:1 3257:1 
2.185672727147509 3552:1 4643:1 
38.41656726601359 3686:1 
0.4450602815909132 247:1 1537:1 2616:1 3366:1 3662:1 5582:1 5583:1 5584:1 
0.4090181979771003 565:1 3218:1 3662:1 5582:1 5583:1 5585:1 5586:1 
1.897997909813008 178:1 327:1 928:1 2295:1 5312:1 5313:1 5587:1 
1.486468376591203 10:1 248:1 315:1 515:1 2135:1 
0.6924842229401107 327:1 2295:1 3525:1 4308:1 4817:1 5152:1 5295:1 5590:1 5591:1 
9.839163376920686 906:1 1518:1 3812:1 
2.979549356073917 443:1 2879:1 3018:1 4910:1 5442:1 5598:1 
0.9368163240021569 93:1 307:1 1044:1 3768:1 5608:1 
3.929038287538031 1340:1 3172:1 5616:1 
35.39170013318785 248:1 334:1 597:1 2437:1 2966:1 3624:1 
5.326840150905732 859:1 4481:1 5620:1 
4.569274948079579 42:1 79:1 193:1 1447:1 2528:1 5626:1 
0.727077073401027 201:1 2198:1 3025:1 3972:1 5014:1 5638:1 
1.164917492443993 412:1 3406:1 5639:1 
3.762186843505444 394:1 3243:1 4023:1 4437:1 4887:1 4888:1 5642:1 5643:1 5644:1 
0.1037023634723622 1176:1 2441:1 3312:1 5302:1 5303:1 5657:1 
8.784861381017596 761:1 1220:1 1221:1 5621:1 5658:1 
8.226294913098721 821:1 1335:1 3452:1 5686:1 
0.4788165965177147 465:1 638:1 3174:1 3243:1 3682:1 4822:1 5506:1 5702:1 
1.748267434878777 385:1 2086:1 5071:1 5705:1 
0.01900327111796666 1131:1 4308:1 4342:1 4723:1 5721:1 5722:1 
1.885356876821842 871:1 1035:1 1396:1 1681:1 4342:1 4585:1 5034:1 5071:1 5714:1 5734:1 5735:1 
11.73632577246088 1362:1 2565:1 
3.033734400306602 88:1 211:1 372:1 4270:1 5583:1 
0.5278796963753859 84:1 2237:1 4543:1 5759:1 5760:1 5761:1 5762:1 5763:1 5764:1 5765:1 
0.262349674433303 211:1 5770:1 5771:1 5772:1 5773:1 5774:1 5775:1 
1.255246719639775 79:1 257:1 761:1 3095:1 5775:1 5779:1 
2.792790511949593 37:1 128:1 3075:1 3202:1 4355:1 4472:1 5794:1 5795:1 
31.93803830454065 79:1 663:1 5803:1 5804:1 5805:1 
26.25787819236381 93:1 371:1 392:1 470:1 856:1 2379:1 5806:1 
13.5806497238534 4091:1 4579:1 
0.3693874391333803 79:1 3130:1 3525:1 4229:1 5812:1 5813:1 
0.03253889097796778 4305:1 4306:1 5820:1 
0.002327108987159988 4729:1 5242:1 
5.080565760937836 376:1 467:1 2091:1 2179:1 4091:1 4270:1 
54.4197471086631 578:1 4271:1 4751:1 5839:1 5840:1 
0.3517262543081922 33:1 131:1 2293:1 2749:1 3552:1 3971:1 4643:1 5843:1 5844:1 
4.558802086763231 138:1 386:1 4852:1 4865:1 5880:1 5881:1 5882:1 5883:1 5884:1 
0.8441127837941643 27:1 827:1 856:1 4553:1 5895:1 
1.376193897065381 4723:1 5809:1 5897:1 
0.4787190226424872 288:1 3517:1 4093:1 4484:1 5072:1 5899:1 5900:1 
5.497324009112236 2615:1 3748:1 5377:1 5906:1 
2.671934295558186 371:1 759:1 783:1 3812:1 4481:1 5862:1 5913:1 
5.532242143404013 4170:1 5758:1 5921:1 5922:1 5923:1 
54.30332586055505 734:1 2528:1 
4.080478273818201 734:1 2528:1 3586:1 
59.29894665111841 4723:1 
23.8549853170386 2091:1 2179:1 4270:1 
0.2635284552149988 282:1 3070:1 4478:1 4553:1 4727:1 5873:1 
2.326410346685375 331:1 453:1 1342:1 4383:1 5970:1 
8.144956724137948 281:1 5007:1 
3.074123711618254 146:1 429:1 512:1 1437:1 4385:1 5438:1 
6.029861077974044 3:1 3303:1 
1.089232167154292 10:1 837:1 1609:1 3202:1 3539:1 5992:1 5993:1 
5.419439860414842 4270:1 4460:1 
1.911532908568927 201:1 292:1 865:1 1814:1 4132:1 4964:1 6004:1 6005:1 
0.3936683659122451 123:1 248:1 1609:1 6006:1 6007:1 
0.3568751458301092 10:1 859:1 1005:1 1609:1 1954:1 2135:1 5253:1 6008:1 
3.475053337371013 1603:1 2572:1 2649:1 6014:1 6015:1 6016:1 6017:1 
1.039076342882834 1044:1 1736:1 1831:1 3918:1 4776:1 6020:1 6021:1 
0.7344015602840813 220:1 426:1 4167:1 
1.210810237977278 6025:1 
7.402210848592667 304:1 579:1 
0.7599343662170277 2291:1 4271:1 4300:1 5776:1 6043:1 
0.9998656379009275 2963:1 5345:1 6048:1 6049:1 
0.7575329931682298 88:1 4586:1 
2.319376979464598 392:1 411:1 612:1 3625:1 5345:1 
1.638094416089914 211:1 304:1 1776:1 1798:1 4402:1 5345:1 5417:1 6058:1 6059:1 
54.93912102037461 3686:1 6060:1 
8.572756264980953 1530:1 2698:1 2946:1 
12.86471373994988 138:1 146:1 227:1 2026:1 4342:1 5442:1 6067:1 
10.20761964701677 226:1 1171:1 
10.78166111307946 226:1 1171:1 
24.30714690614086 215:1 393:1 543:1 780:1 2211:1 2438:1 
0.2692171147403728 1736:1 3338:1 5006:1 5330:1 5998:1 6115:1 6116:1 
2.470398259669774 1379:1 1736:1 4749:1 5301:1 5943:1 
2.196146928587983 1005:1 2322:1 4477:1 6159:1 
2.565116845312952 165:1 859:1 1323:1 1335:1 1846:1 2074:1 5126:1 5410:1 6166:1 
3.602183048630601 3684:1 4282:1 6178:1 
59.29894665111841 835:1 2089:1 
1.099542067616812 3644:1 6182:1 
1.147019319092001 1369:1 2930:1 4419:1 5048:1 6184:1 
0.00868332597376054 265:1 3338:1 4359:1 6222:1 6223:1 6224:1 6225:1 
35.79375978044678 93:1 4271:1 4385:1 
0.02069655989887665 429:1 1869:1 3336:1 6228:1 
2.120165226106014 429:1 2043:1 4969:1 
2.42210655098646 789:1 1340:1 1610:1 2170:1 2632:1 4478:1 4595:1 6229:1 
2.988126643688592 175:1 268:1 1620:1 4478:1 4752:1 6129:1 6231:1 
1.28919874992564 680:1 2445:1 4663:1 5250:1 
0.4875279877895045 99:1 175:1 292:1 1423:1 1864:1 2998:1 4737:1 5048:1 6208:1 6233:1 6234:1 
1.162801657382515 452:1 2145:1 2821:1 3418:1 6061:1 
1.311564730206935 193:1 248:1 2659:1 4419:1 4961:1 5865:1 
0.9647519457599367 1421:1 1522:1 2573:1 6246:1 
1.193753876454784 386:1 4462:1 4566:1 5354:1 5975:1 6248:1 6249:1 6250:1 
1.079446530405456 2058:1 4555:1 4577:1 4606:1 5256:1 6251:1 
0.1350492101895846 123:1 1687:1 2194:1 3307:1 4423:1 5014:1 6124:1 6257:1 
1.062661990385264 4445:1 5005:1 
0.8866650153975257 10:1 4113:1 4707:1 4746:1 5490:1 5891:1 5892:1 
0.04050222335594374 470:1 488:1 1638:1 3721:1 3942:1 6272:1 
0.1195479320949739 88:1 107:1 453:1 583:1 3039:1 4805:1 5308:1 6274:1 
1.34504103843707 88:1 107:1 453:1 583:1 3039:1 4805:1 5308:1 6274:1 
27.6652406347408 4091:1 5158:1 
1.567351687400945 272:1 567:1 580:1 3668:1 5399:1 5745:1 6287:1 
0.1541719020073152 1038:1 6288:1 
3.04706230909236 6289:1 6290:1 6291:1 
1.623737631355338 3992:1 4119:1 6295:1 6296:1 6297:1 
5.564244822138483 42:1 193:1 6292:1 
0.03847977020677848 789:1 886:1 3094:1 3336:1 3428:1 6302:1 
2.339984530971652 529:1 648:1 2638:1 5306:1 6305:1 
7.757941327783016 136:1 2048:1 2610:1 3244:1 6326:1 6327:1 
1.35520234770231 167:1 5112:1 
0.5241400561812493 175:1 2532:1 4186:1 4292:1 4569:1 4726:1 6328:1 6329:1 
0.2256140635950301 470:1 3735:1 4379:1 4981:1 5790:1 6343:1 
2.999372946138017 426:1 1220:1 1396:1 2239:1 5116:1 6347:1 
2.152400454205431 138:1 272:1 393:1 780:1 1642:1 2026:1 2209:1 4693:1 6350:1 
1.062170086701574 201:1 297:1 355:1 3134:1 4440:1 5450:1 6352:1 
0.1067413416897508 6353:1 6354:1 6355:1 
0.9533883646720973 2434:1 6358:1 
0.6126858427796285 1864:1 5833:1 6362:1 
1.104570493449665 268:1 3229:1 4445:1 5506:1 6365:1 6366:1 6367:1 
5.174707299960638 612:1 3040:1 5776:1 
4.969833345981072 565:1 5470:1 5906:1 6372:1 6373:1 
0.4914395608109787 3075:1 3735:1 4892:1 5054:1 6381:1 6382:1 6383:1 6384:1 6385:1 
6.505026693604279 6388:1 
3.71675405098596 1255:1 2063:1 2211:1 2250:1 2822:1 4287:1 5533:1 
0.425860574946702 73:1 1024:1 1567:1 1737:1 2528:1 3511:1 3887:1 4251:1 4398:1 6397:1 
1.612755468834405 6291:1 
2.570949450413988 4752:1 6407:1 
56.21978760275643 1447:1 2629:1 4917:1 
0.9351987737616587 396:1 3443:1 4193:1 4353:1 4384:1 5020:1 6422:1 6423:1 
3.026248023102099 184:1 211:1 1145:1 1176:1 2058:1 2434:1 6431:1 6432:1 6433:1 6434:1 6435:1 
2.398067415457753 2200:1 3041:1 3974:1 4462:1 6249:1 6436:1 6437:1 6438:1 6439:1 
9.451739570841854 4091:1 6447:1 
0.9829607313522881 223:1 272:1 656:1 3259:1 6458:1 
4.155638484635329 1267:1 3431:1 4460:1 6468:1 
0.6203765204654205 35:1 128:1 1379:1 2615:1 4241:1 5117:1 5175:1 6426:1 
0.03530695222150886 5126:1 
59.29894665111841 32:1 429:1 612:1 
0.834568026228364 5020:1 5947:1 5948:1 6508:1 6509:1 
1.94885727331946 677:1 1642:1 2366:1 4395:1 4697:1 5072:1 5738:1 6519:1 6520:1 
1.109379544606655 911:1 2311:1 3338:1 3423:1 3653:1 5218:1 6528:1 
7.816104916704412 10:1 1038:1 1139:1 2352:1 6529:1 
9.934380094710827 1038:1 1058:1 6532:1 6533:1 6534:1 6535:1 
2.893481607706423 394:1 4232:1 4652:1 4716:1 5776:1 6510:1 6540:1 6541:1 6542:1 6543:1 
5.971473283366643 6542:1 
0.4630290059148437 1053:1 5020:1 5252:1 5947:1 6547:1 6548:1 
1.184992652295824 6554:1 
16.9713626124284 6554:1 
28.94864006431075 1245:1 
1.977332841597361 837:1 1217:1 4463:1 5765:1 6558:1 6559:1 
0.7778131777479893 79:1 1011:1 1685:1 1877:1 1889:1 2565:1 4931:1 5020:1 5957:1 6569:1 
2.775056665447555 759:1 
4.070489051228916 5:1 3239:1 4555:1 4780:1 6160:1 6587:1 
1.137857166097692 6592:1 6593:1 
2.129347970012989 29:1 859:1 4280:1 4353:1 
1.092790074050078 27:1 73:1 1351:1 1819:1 2573:1 4002:1 5483:1 6594:1 6600:1 6601:1 6602:1 
0.5347347231502674 297:1 739:1 807:1 1798:1 2135:1 4568:1 4631:1 6615:1 
3.824381907196346 88:1 1176:1 4577:1 4578:1 
0.9821347289698699 73:1 276:1 372:1 2920:1 4667:1 5006:1 5899:1 6626:1 6627:1 
1.205258927962214 3587:1 5871:1 5899:1 6617:1 6623:1 
1.348917287068487 1069:1 3539:1 5899:1 6623:1 6632:1 
0.1845496704940834 268:1 4724:1 6617:1 6623:1 
2.778607988948393 29:1 1072:1 1439:1 2565:1 4287:1 4316:1 4638:1 6657:1 
0.5333385347745696 288:1 870:1 1231:1 4188:1 6655:1 6668:1 
0.3251448538695655 4271:1 6682:1 6683:1 
0.6667304048773428 3478:1 5575:1 5991:1 6688:1 6689:1 6690:1 
5.534625994757541 3050:1 4851:1 
4.31413512910594 761:1 5045:1 
3.966054514191201 4462:1 
0.2481329583756208 5154:1 
0.3979561070928401 42:1 177:1 1363:1 
0.1046386810028781 10:1 193:1 1005:1 2855:1 2959:1 4923:1 5583:1 6714:1 
2.207840234616697 5154:1 
2.249675278042416 434:1 1923:1 2314:1 3366:1 6717:1 
0.6672644159612464 73:1 4091:1 4290:1 6726:1 
4.3592992944724 65:1 193:1 318:1 500:1 583:1 6727:1 
2.938878064569326 3726:1 4558:1 6764:1 
4.52957585890094 138:1 272:1 859:1 4271:1 6778:1 
23.89775926569815 268:1 864:1 2207:1 4821:1 
7.035050522360399 663:1 1142:1 3726:1 6810:1 
1.402974580540096 1819:1 2194:1 5062:1 6748:1 6811:1 6823:1 
10.2517952229412 4287:1 5011:1 6830:1 
0.4373536543151205 464:1 1562:1 1737:1 2615:1 3625:1 5011:1 5865:1 6139:1 6582:1 
1.062250769847494 827:1 1389:1 2088:1 4023:1 4255:1 4268:1 4482:1 4966:1 
15.98925444656375 44:1 2081:1 4353:1 5011:1 5875:1 
0.2011485300010347 211:1 2573:1 3243:1 4353:1 5848:1 6838:1 
1.244990534675791 1363:1 2338:1 2903:1 2973:1 4291:1 4555:1 6856:1 6857:1 
4.759347552675598 3954:1 5571:1 6862:1 
9.90528494608998 88:1 4190:1 4555:1 5010:1 5011:1 
7.269517177129483 88:1 4447:1 6880:1 
0.5577434803273876 277:1 1514:1 4671:1 6887:1 
3.298092246716518 4091:1 
1.197739358501234 426:1 950:1 2431:1 5048:1 5613:1 6898:1 6903:1 6904:1 6905:1 6906:1 6907:1 6908:1 6909:1 
1.266577461356287 6898:1 6915:1 6916:1 6917:1 6918:1 
59.29894665111841 213:1 1776:1 
0.162114913921712 123:1 4700:1 5857:1 
4.660041098926832 68:1 949:1 1376:1 2610:1 5583:1 6589:1 6932:1 
0.1797480635608019 14:1 651:1 6288:1 6951:1 6952:1 
2.00190875823844 6953:1 6954:1 
0.2910574117980048 3766:1 4353:1 5388:1 6945:1 
1.010912000340157 734:1 821:1 2528:1 4975:1 5435:1 5806:1 5939:1 
13.977844679091 5011:1 
0.6880343725105234 272:1 580:1 1038:1 3720:1 5878:1 6960:1 6961:1 6962:1 
8.930015762297568 123:1 153:1 243:1 579:1 583:1 865:1 866:1 
5.241198926510975 4091:1 5167:1 
1.815476304042316 2610:1 5175:1 6965:1 
20.30153195680615 68:1 949:1 6267:1 
0.4038081877698978 5226:1 6300:1 6974:1 
2.602434999313908 128:1 219:1 746:1 1199:1 4269:1 4586:1 6978:1 6979:1 6980:1 
55.17381864508152 4091:1 
0.2813764695454691 265:1 696:1 2730:1 6512:1 6985:1 
0.8414192146880334 2143:1 2546:1 2573:1 4029:1 5657:1 
0.5200695799470667 1140:1 7036:1 
19.99624349221163 679:1 751:1 752:1 
11.35830048611123 394:1 2082:1 7003:1 7041:1 
5.263235080604864 68:1 243:1 865:1 1005:1 1856:1 2352:1 4655:1 5175:1 
59.29894665111841 1085:1 
0.2177652770239621 1342:1 4002:1 4517:1 4589:1 4668:1 5841:1 6597:1 
2.085992910642231 628:1 1211:1 2348:1 3952:1 5198:1 5379:1 
0.6855902678679794 234:1 358:1 691:1 886:1 2198:1 2357:1 7052:1 7053:1 
0.5477215982192976 1379:1 5122:1 5379:1 5537:1 5871:1 7054:1 
1.263626743974523 305:1 2082:1 7003:1 7057:1 7058:1 
1.597447181230206 106:1 382:1 552:1 753:1 4534:1 
1.328500081750481 1000:1 2348:1 7079:1 
7.52621382991456 2123:1 2531:1 7085:1 
46.31288212246644 83:1 1072:1 2985:1 5071:1 
20.30004403144687 1557:1 4651:1 5071:1 7095:1 
10.56338383713264 1320:1 
1.825917675920582 39:1 281:1 2441:1 5330:1 7112:1 
1.074079512453231 429:1 2528:1 2533:1 4173:1 4278:1 6265:1 7113:1 7114:1 
2.564163668189346 292:1 437:1 1737:1 3745:1 4093:1 7115:1 7116:1 7117:1 7118:1 
1.038225652059321 292:1 753:1 3517:1 3711:1 5344:1 7130:1 7131:1 
1.056526249854524 4746:1 6329:1 6691:1 7118:1 7132:1 7133:1 
27.13164154317262 29:1 1112:1 3763:1 7147:1 
20.52939878052798 1439:1 1806:1 4188:1 
4.620967612054553 1647:1 2531:1 3202:1 3825:1 3887:1 5025:1 6698:1 7152:1 7153:1 
0.2475001740789878 386:1 4484:1 4943:1 5072:1 6670:1 7155:1 
0.3145935396332563 591:1 2207:1 3312:1 4093:1 5042:1 6626:1 7156:1 
2.53315904438659 201:1 453:1 1903:1 4124:1 4601:1 
2.601291023757235 292:1 589:1 753:1 3941:1 6488:1 6827:1 7163:1 7164:1 7165:1 7166:1 
1.840674650758771 292:1 649:1 684:1 753:1 908:1 4368:1 7168:1 7169:1 
0.07038422808854933 169:1 238:1 292:1 753:1 1609:1 4083:1 4125:1 5853:1 
0.5427794448866188 1213:1 5011:1 5548:1 7189:1 7194:1 
18.63049250535791 386:1 3045:1 3308:1 4355:1 6555:1 
6.759287022199406 29:1 386:1 453:1 607:1 3542:1 4021:1 5882:1 
3.843977911401975 292:1 753:1 1405:1 4125:1 4687:1 5072:1 6329:1 6435:1 
13.21378085062873 3091:1 5582:1 
1.065803899976083 20:1 663:1 712:1 1325:1 1886:1 3040:1 3660:1 3755:1 4465:1 4765:1 5623:1 6127:1 
0.840974926959729 2594:1 4331:1 4579:1 5657:1 7117:1 7118:1 7203:1 7204:1 
0.9584340204353544 292:1 620:1 753:1 1734:1 2338:1 3100:1 7205:1 7206:1 7207:1 
4.899744139471282 88:1 508:1 578:1 597:1 4427:1 
0.7243691061332234 2239:1 2593:1 3683:1 5045:1 7216:1 
0.3141095165451088 5234:1 7219:1 7220:1 7221:1 
1.566779250419726 334:1 596:1 638:1 4355:1 4484:1 7071:1 7081:1 7082:1 7231:1 
59.29894665111841 3977:1 4867:1 7189:1 
6.493284493170452 88:1 437:1 563:1 1721:1 2367:1 3691:1 3738:1 4193:1 4394:1 
59.29894665111841 3625:1 6623:1 
1.769747150059631 2973:1 
0.2966648652500219 1873:1 7266:1 7267:1 7268:1 
0.7632502594907448 508:1 5011:1 7279:1 
2.396146949334821 1035:1 1233:1 2298:1 2400:1 5011:1 7281:1 7282:1 
0.09464906273902017 6:1 1537:1 3024:1 3249:1 7308:1 
2.190054642998471 93:1 129:1 226:1 817:1 851:1 1898:1 2570:1 4226:1 4755:1 7337:1 
3.335687766039299 5017:1 7446:1 
0.8771473612997305 199:1 371:1 372:1 463:1 1015:1 2063:1 7476:1 7477:1 7478:1 7479:1 7480:1 
9.836956865539916 26:1 124:1 125:1 1700:1 2129:1 2130:1 2135:1 2341:1 7484:1 
2.483333761542581 93:1 129:1 310:1 725:1 792:1 817:1 851:1 7491:1 
0.06428114405708621 2760:1 4127:1 4561:1 4654:1 7497:1 7498:1 7499:1 7500:1 7501:1 7502:1 7503:1 
1.163288545097645 68:1 2117:1 2283:1 2839:1 7512:1 
0.2374222634576859 226:1 851:1 1053:1 1898:1 3805:1 7386:1 7517:1 7518:1 
3.203465983511495 386:1 987:1 7519:1 7520:1 7521:1 
0.5217544319149847 204:1 248:1 1819:1 2617:1 2622:1 3977:1 5232:1 6191:1 7525:1 
0.4133560271724011 29:1 310:1 328:1 628:1 851:1 1112:1 1806:1 2379:1 5346:1 6579:1 7537:1 7538:1 7539:1 
6.109462899304729 423:1 3805:1 5021:1 7548:1 
1.258529496978874 2367:1 2760:1 3277:1 6004:1 7386:1 7500:1 7594:1 7595:1 7596:1 7597:1 
0.8645286711354531 10:1 226:1 603:1 680:1 851:1 1213:1 1245:1 3274:1 3395:1 7465:1 7606:1 
0.8189255944217316 328:1 3546:1 6232:1 7612:1 
0.8793739725543177 201:1 372:1 2721:1 3474:1 5931:1 7613:1 
0.9214629596613543 372:1 896:1 1641:1 3235:1 7631:1 7632:1 7633:1 7634:1 
4.384347759008866 75:1 357:1 851:1 2188:1 3273:1 7648:1 
1.387023121605974 248:1 467:1 859:1 1379:1 4181:1 7653:1 
3.057924524380502 422:1 594:1 7577:1 7642:1 7647:1 
4.358571068203418 24:1 26:1 79:1 124:1 265:1 1537:1 1889:1 7484:1 
3.362456969821729 88:1 199:1 226:1 639:1 815:1 1024:1 3842:1 7687:1 7688:1 7689:1 
0.4539274039085264 73:1 204:1 428:1 671:1 1136:1 4182:1 7701:1 
22.95165627824078 7131:1 
2.061858520918899 128:1 371:1 7545:1 7786:1 7787:1 7788:1 
0.4305801651933627 6:1 759:1 1649:1 3163:1 5028:1 6068:1 
0.8713563288376238 310:1 758:1 813:1 851:1 2749:1 2915:1 3074:1 3321:1 4473:1 7359:1 7366:1 
36.10972046890018 7795:1 
1.052070500067104 29:1 851:1 5815:1 5998:1 7796:1 
0.1789658790847791 1340:1 7818:1 
1.070621115674914 7394:1 
0.2191171389702721 371:1 1298:1 1405:1 1609:1 1698:1 4467:1 4749:1 7824:1 
0.9353481779064705 7394:1 
2.869948277110898 46:1 47:1 48:1 3186:1 5895:1 
36.74302002564544 864:1 2811:1 
0.6963603952104386 129:1 281:1 565:1 591:1 2287:1 3024:1 5824:1 7087:1 7851:1 
0.7267033772473057 286:1 310:1 851:1 2367:1 2528:1 5099:1 5657:1 7626:1 7823:1 7869:1 7870:1 
2.068790308764248 201:1 310:1 694:1 851:1 1090:1 1184:1 2528:1 2956:1 6686:1 7626:1 7876:1 
6.558041911273959 1298:1 2171:1 2491:1 
0.3437224399494022 15:1 109:1 110:1 2908:1 3071:1 4255:1 6816:1 7911:1 7912:1 7913:1 7914:1 
2.206619454427983 332:1 639:1 3274:1 3956:1 7453:1 7925:1 
1.251104586925747 276:1 1866:1 2675:1 7927:1 7928:1 7929:1 7930:1 
6.123733889302033 2966:1 3046:1 4867:1 5641:1 
4.71618778498008 248:1 403:1 832:1 4178:1 7100:1 
1.650500566007226 107:1 129:1 318:1 320:1 2287:1 4211:1 5387:1 7941:1 7942:1 7943:1 
0.0596276135968879 199:1 276:1 371:1 372:1 463:1 1905:1 2266:1 4082:1 7953:1 7954:1 7955:1 
2.928119755129487 72:1 129:1 182:1 753:1 974:1 2024:1 2899:1 3074:1 4188:1 7357:1 
17.59964770557124 10:1 2124:1 4132:1 4964:1 7524:1 7964:1 7965:1 
3.328597454450533 248:1 412:1 1038:1 2287:1 7983:1 7984:1 
10.53840482863613 10:1 93:1 145:1 971:1 1252:1 1616:1 1629:1 7987:1 
1.936610197440021 129:1 198:1 199:1 2287:1 3167:1 7721:1 7991:1 
4.491185341428626 10:1 129:1 230:1 609:1 974:1 1616:1 4799:1 8022:1 
0.2127314531606024 551:1 1263:1 1376:1 6525:1 
0.6791963698073509 583:1 638:1 1782:1 2633:1 3250:1 3712:1 7298:1 8035:1 
0.4607802662351631 226:1 310:1 851:1 1588:1 2715:1 4749:1 6010:1 7338:1 8069:1 8070:1 
0.2096766728841996 48:1 226:1 851:1 2287:1 6206:1 8126:1 8127:1 
0.7367281393417104 895:1 1569:1 3235:1 3726:1 4057:1 5268:1 8129:1 8130:1 
0.5178483547181194 48:1 86:1 128:1 1299:1 8142:1 
0.5070254455139032 92:1 2119:1 2574:1 4657:1 8170:1 8171:1 
1.587669373552563 7394:1 
0.6391380399067416 226:1 851:1 7160:1 7381:1 7465:1 7626:1 7802:1 8184:1 8185:1 8186:1 
0.7756658359937214 605:1 2891:1 2892:1 3293:1 3598:1 4245:1 4555:1 8191:1 8192:1 
0.3079509014569973 801:1 2633:1 3473:1 3698:1 4601:1 7319:1 8198:1 8199:1 
0.08662379930793605 801:1 2633:1 3473:1 3698:1 4601:1 7319:1 8198:1 8199:1 
0.1659843146665749 199:1 371:1 372:1 463:1 819:1 1299:1 2269:1 2892:1 7515:1 7884:1 8203:1 8204:1 8205:1 8206:1 
0.5161310997735744 226:1 310:1 586:1 851:1 1245:1 2236:1 2367:1 8221:1 8222:1 8223:1 
0.6675997484328635 10:1 226:1 281:1 851:1 1599:1 1698:1 5295:1 7367:1 7368:1 8247:1 8248:1 
0.5928576503769509 7394:1 
12.2414931104396 9:1 86:1 128:1 372:1 508:1 1299:1 
0.4217475181769242 1828:1 2335:1 6181:1 7545:1 7979:1 8259:1 8260:1 8261:1 8262:1 8263:1 
0.3546711597678394 199:1 371:1 372:1 463:1 1255:1 2116:1 4609:1 7301:1 
2.708546856144496 20:1 1886:1 8121:1 
3.108977937383958 226:1 278:1 783:1 833:1 851:1 2024:1 3538:1 4833:1 8273:1 
0.08570499723088358 372:1 981:1 2128:1 4102:1 7975:1 8279:1 8280:1 8281:1 
10.60497871696671 851:1 969:1 970:1 3074:1 7396:1 
0.2418180237880979 109:1 1609:1 1938:1 3266:1 5505:1 8309:1 8310:1 8311:1 8312:1 8313:1 
6.19735873718599 201:1 226:1 851:1 1910:1 2570:1 3074:1 3726:1 5295:1 7381:1 
3.774521636478689 88:1 226:1 310:1 490:1 824:1 851:1 1741:1 2522:1 6856:1 8320:1 8321:1 
1.506958413264245 335:1 801:1 1314:1 2081:1 2490:1 2568:1 8327:1 8328:1 8329:1 
0.445120804097043 292:1 987:1 1299:1 2490:1 2649:1 3698:1 4601:1 8331:1 8332:1 
2.353055043699603 201:1 310:1 596:1 851:1 1655:1 2248:1 3660:1 5118:1 7396:1 7414:1 8342:1 
2.16576196402901 92:1 199:1 251:1 1035:1 3700:1 8351:1 
0.5092336046940962 214:1 559:1 2135:1 3224:1 3338:1 4670:1 5185:1 8355:1 
0.01355807821950064 579:1 2624:1 2719:1 7466:1 8105:1 8411:1 8412:1 
2.406413359848803 48:1 86:1 199:1 371:1 372:1 386:1 463:1 562:1 8071:1 8200:1 
1.031752907844066 226:1 851:1 1698:1 3772:1 7752:1 8416:1 
0.08800178017362439 226:1 851:1 2024:1 2336:1 2610:1 3074:1 5118:1 5648:1 8424:1 8425:1 
0.9186884754894721 7394:1 
1.397254989003437 128:1 288:1 372:1 851:1 2024:1 2541:1 3074:1 7367:1 
0.4379952269401221 1584:1 4434:1 8438:1 8439:1 8440:1 8441:1 8442:1 8443:1 
0.5874843609225575 79:1 124:1 1889:1 3285:1 8446:1 8447:1 8448:1 
0.4802011143010697 226:1 310:1 851:1 3074:1 3669:1 7359:1 7367:1 7386:1 7792:1 7793:1 
2.013049592878582 3726:1 8472:1 
0.091892643604271 126:1 226:1 592:1 851:1 1058:1 3074:1 4331:1 5150:1 7263:1 7367:1 
0.3078105070569581 620:1 3338:1 4709:1 4947:1 8077:1 8503:1 8504:1 8505:1 
5.555313768879437 289:1 2052:1 2113:1 2585:1 
0.9685948896171729 278:1 688:1 1323:1 2024:1 2720:1 3453:1 8517:1 
20.74364125986593 1301:1 2417:1 
2.794499774339267 1493:1 1537:1 2620:1 2621:1 
1.116378681310436 68:1 201:1 288:1 1049:1 1334:1 2845:1 3074:1 7402:1 7626:1 8146:1 8525:1 8526:1 
0.04952291594012605 129:1 712:1 2676:1 3273:1 3650:1 4583:1 8556:1 8557:1 8558:1 
0.3384807548144894 126:1 199:1 371:1 372:1 463:1 3024:1 8563:1 8564:1 
0.6277304235208077 226:1 414:1 851:1 2879:1 2956:1 4724:1 6406:1 8590:1 
1.780153303093934 204:1 579:1 1819:1 2012:1 2590:1 5232:1 
1.521435983074572 310:1 527:1 528:1 3171:1 4704:1 7167:1 8602:1 8603:1 
1.367715595766728 453:1 1255:1 3077:1 3078:1 5783:1 7763:1 8025:1 8604:1 
0.9206529797975388 7394:1 
0.7722499810226634 3668:1 8624:1 
1.288366946909511 226:1 310:1 851:1 3726:1 4228:1 4577:1 8631:1 8632:1 
0.9776094691579222 438:1 7605:1 7755:1 8638:1 
1.651018301815347 201:1 2237:1 2970:1 3994:1 5657:1 6201:1 8639:1 8640:1 8641:1 
0.5053494265238042 7394:1 
0.711067221079729 286:1 1676:1 3429:1 3598:1 5921:1 8658:1 8659:1 8660:1 
0.8682408990846827 211:1 2194:1 4292:1 8676:1 8677:1 8678:1 
3.747299098485421 397:1 434:1 690:1 4460:1 5006:1 8684:1 
0.969837067362092 70:1 342:1 508:1 3271:1 3369:1 8689:1 
0.8091733488054694 107:1 443:1 6142:1 8692:1 
0.3471758561152445 7394:1 
2.573680429210683 226:1 438:1 2991:1 5003:1 7605:1 7732:1 8724:1 
0.5847205778097135 3655:1 
0.3656449683321131 7394:1 
3.31056457569554 226:1 386:1 628:1 851:1 1112:1 1336:1 1574:1 4323:1 4682:1 
0.7814232598156257 240:1 753:1 1437:1 4308:1 7430:1 8742:1 
0.05791537108919497 690:1 779:1 2049:1 2669:1 2828:1 4107:1 8745:1 8746:1 8747:1 8748:1 
0.4062864607488842 7394:1 
0.8784338162804937 7394:1 
0.1859207019519356 7394:1 
1.210197956578366 48:1 86:1 591:1 8077:1 8781:1 
0.6101364737719828 7:1 9:1 372:1 508:1 896:1 8783:1 
0.3079941068977994 60:1 1417:1 3249:1 4584:1 4749:1 8083:1 8794:1 8795:1 8796:1 
0.4568667092236416 6018:1 7720:1 8807:1 8815:1 8816:1 
0.184098712239769 211:1 276:1 394:1 1769:1 3074:1 4040:1 5017:1 8077:1 8616:1 8827:1 8828:1 
0.2490298456915109 82:1 86:1 8834:1 8835:1 8836:1 
0.06842831422936931 92:1 297:1 355:1 932:1 1246:1 5831:1 6067:1 8837:1 8838:1 
0.08308830499690391 297:1 792:1 1049:1 1437:1 2287:1 2743:1 4173:1 
0.3431355013827688 4:1 169:1 310:1 490:1 515:1 792:1 987:1 1299:1 2490:1 8841:1 
0.1073927909145872 251:1 563:1 5989:1 8858:1 8859:1 
0.004326554766955047 92:1 1301:1 2471:1 2532:1 3653:1 4664:1 8860:1 
0.4954876051908012 310:1 564:1 864:1 3035:1 3520:1 3977:1 4037:1 5408:1 6295:1 8864:1 8865:1 
1.196519616396076 735:1 930:1 1334:1 2576:1 7456:1 
2.602415477672741 85:1 3488:1 3653:1 3668:1 7603:1 7737:1 8904:1 
2.147783568671579 735:1 930:1 1334:1 2576:1 7456:1 
0.2073339492060926 10:1 39:1 82:1 1090:1 2668:1 2956:1 3074:1 5058:1 7548:1 7954:1 8906:1 8907:1 
0.3109085579051631 92:1 452:1 1334:1 8915:1 8916:1 8917:1 8918:1 8919:1 8920:1 8921:1 
59.29894665111841 9:1 48:1 86:1 128:1 386:1 1299:1 
5.561308276756988 86:1 128:1 508:1 1081:1 4239:1 8924:1 
1.171024053519057 177:1 453:1 680:1 1736:1 3763:1 5895:1 7754:1 7869:1 8490:1 8925:1 
0.9315264974465782 52:1 92:1 372:1 1199:1 2117:1 2828:1 7432:1 
0.2403037308314591 381:1 515:1 2594:1 8950:1 8951:1 8952:1 8953:1 8954:1 8955:1 
0.4774695482752843 1011:1 4898:1 8956:1 8957:1 
0.7230276084333664 205:1 3338:1 6324:1 8664:1 8973:1 
0.3074611519980244 6:1 73:1 226:1 851:1 4017:1 8974:1 8975:1 8976:1 
0.5564705638816887 226:1 821:1 851:1 4661:1 8693:1 
0.8888993934420053 226:1 2928:1 
0.06508898119157841 1131:1 1245:1 5548:1 8982:1 8983:1 
22.15017930164236 288:1 3815:1 7928:1 
0.4083689803121527 29:1 226:1 851:1 2962:1 5458:1 8988:1 8989:1 8990:1 8991:1 
0.2527816539843016 281:1 453:1 671:1 801:1 1842:1 3364:1 4773:1 8617:1 
0.1598970127352826 310:1 515:1 580:1 851:1 3171:1 3728:1 8486:1 9021:1 
37.5755113018617 182:1 589:1 4188:1 
1.536110010685876 226:1 342:1 851:1 1245:1 2048:1 2858:1 7465:1 8934:1 9051:1 
9.054386983929414 310:1 394:1 586:1 851:1 1145:1 2022:1 3593:1 5967:1 
0.3729321978922178 971:1 1898:1 9059:1 9085:1 
0.09117010271278012 332:1 515:1 640:1 9087:1 9088:1 9089:1 
1.729351443230279 93:1 226:1 603:1 808:1 851:1 3735:1 9090:1 
1.546966210555232 86:1 128:1 182:1 508:1 850:1 8077:1 8775:1 
0.9344712398169962 1954:1 2201:1 2298:1 2619:1 8871:1 9095:1 9096:1 
1.236209163303225 332:1 639:1 640:1 896:1 3240:1 4321:1 4755:1 9097:1 
0.3227863802506186 199:1 371:1 372:1 463:1 1616:1 1798:1 6303:1 9113:1 
0.9871991336788409 226:1 273:1 851:1 1352:1 2237:1 3438:1 4449:1 4969:1 
0.05349536272460369 134:1 1807:1 4091:1 5917:1 8910:1 9117:1 9118:1 9119:1 9120:1 
0.9113219584707941 134:1 1807:1 4091:1 5917:1 8910:1 9117:1 9118:1 9119:1 9120:1 
0.05411717174426346 251:1 453:1 639:1 1629:1 2533:1 9125:1 9126:1 9127:1 9128:1 
0.3516492897587884 199:1 318:1 319:1 371:1 372:1 463:1 859:1 8029:1 9113:1 
0.1379205840927548 4822:1 5266:1 9173:1 
0.1974391695474401 440:1 1842:1 3293:1 3345:1 5195:1 6400:1 
0.1650427480206094 28:1 52:1 199:1 371:1 372:1 463:1 2063:1 4708:1 8238:1 8382:1 9175:1 9176:1 9177:1 
0.9178173613924803 372:1 875:1 1035:1 1036:1 2192:1 9195:1 9196:1 9197:1 
1.400251616161135 551:1 1000:1 1376:1 8867:1 
0.8057723134167757 85:1 226:1 243:1 393:1 397:1 439:1 2086:1 3056:1 7428:1 7454:1 
0.6866676744277105 226:1 628:1 851:1 1907:1 3735:1 9209:1 9210:1 
0.01225562817850323 93:1 182:1 183:1 3024:1 3763:1 4188:1 7811:1 
0.7189792051097803 372:1 1641:1 4275:1 7377:1 9239:1 
2.102917188218347 199:1 318:1 319:1 371:1 372:1 463:1 1949:1 2254:1 7656:1 9211:1 9262:1 
0.6721570971138821 7394:1 
4.07757754633321 29:1 30:1 129:1 226:1 851:1 9278:1 
1.230550005488685 294:1 428:1 3250:1 6499:1 7819:1 8266:1 9282:1 9283:1 9284:1 9285:1 
4.33464345952753 28:1 128:1 591:1 609:1 1036:1 1053:1 2252:1 8893:1 9286:1 9287:1 
0.3134351238819496 7394:1 
1.919737128656171 288:1 392:1 397:1 467:1 2568:1 2899:1 4899:1 7357:1 9288:1 
0.8732385394185204 99:1 128:1 226:1 342:1 386:1 851:1 3684:1 9294:1 9295:1 9296:1 
0.2129452480933496 332:1 437:1 723:1 3744:1 9308:1 9309:1 9310:1 
3.750574751170626 68:1 199:1 215:1 299:1 372:1 428:1 801:1 1298:1 1616:1 3842:1 9311:1 
2.439305941165732 20:1 219:1 305:1 1862:1 2073:1 4709:1 4891:1 7698:1 9312:1 
0.6032469169636128 46:1 47:1 93:1 189:1 292:1 5819:1 
0.1547729063504229 47:1 436:1 437:1 1488:1 1850:1 4042:1 7610:1 
1.327038492502358 240:1 515:1 639:1 971:1 4321:1 4748:1 7721:1 8484:1 
0.7232524417695912 412:1 8796:1 9330:1 9339:1 9340:1 9341:1 
0.454216305614964 296:1 297:1 312:1 457:1 1281:1 1736:1 3308:1 
1.02992468613049 1161:1 1567:1 1741:1 1969:1 1970:1 3041:1 4772:1 4822:1 9351:1 
1.275640901479794 93:1 107:1 318:1 1781:1 1846:1 2531:1 2607:1 7418:1 9369:1 9370:1 
1.402031728118193 29:1 226:1 628:1 851:1 1112:1 1734:1 3837:1 4834:1 9203:1 
0.854863171395565 85:1 92:1 129:1 591:1 616:1 1049:1 1641:1 6593:1 7454:1 7916:1 9394:1 9395:1 
2.02322523692213 310:1 318:1 455:1 527:1 2688:1 3171:1 5116:1 6558:1 9437:1 
0.07874911072056982 372:1 437:1 457:1 1969:1 1970:1 3308:1 9351:1 9464:1 
0.6645006236425478 864:1 1156:1 3670:1 5266:1 9465:1 
0.465603453976451 851:1 1252:1 3274:1 4247:1 4890:1 5232:1 6333:1 9466:1 9467:1 9468:1 
0.06584885881636247 46:1 47:1 288:1 411:1 7610:1 9475:1 9476:1 
1.085637442106619 1405:1 1862:1 5198:1 5657:1 9354:1 9478:1 
0.5130119130132635 60:1 1112:1 1255:1 1816:1 1982:1 2920:1 9488:1 9489:1 
1.212965321741628 27:1 128:1 199:1 371:1 372:1 463:1 470:1 3506:1 5728:1 
0.1508459173424627 46:1 47:1 226:1 288:1 406:1 2291:1 7950:1 9545:1 
20.83436332452134 73:1 82:1 86:1 128:1 428:1 508:1 1052:1 
0.2789213822564157 146:1 204:1 864:1 3410:1 4153:1 4385:1 9556:1 9557:1 9558:1 
0.1348115059559159 75:1 226:1 9556:1 9559:1 9561:1 
0.151216672004702 128:1 371:1 386:1 470:1 1376:1 4742:1 9562:1 
2.870907343791184 411:1 428:1 801:1 974:1 1036:1 1281:1 2668:1 7846:1 9500:1 
18.25991573383061 4103:1 
1.318584167101787 70:1 88:1 508:1 1616:1 1864:1 2679:1 3045:1 3758:1 7986:1 8024:1 
2.321418637608331 199:1 1340:1 1614:1 2679:1 3312:1 6862:1 7469:1 
0.06977383663487005 199:1 226:1 463:1 6074:1 7469:1 9570:1 
46.28057598703222 184:1 199:1 371:1 372:1 463:1 
2.068106018073609 92:1 220:1 318:1 824:1 1795:1 1809:1 7808:1 
3.200602515439606 199:1 201:1 358:1 2966:1 3842:1 4589:1 7347:1 9627:1 
0.105895619872869 51:1 951:1 2135:1 7966:1 9623:1 9634:1 9636:1 9637:1 9638:1 
0.8497269930542395 46:1 47:1 101:1 145:1 189:1 4087:1 5991:1 9645:1 
0.1251431362656041 75:1 129:1 199:1 226:1 2773:1 3842:1 5482:1 9666:1 9667:1 
0.5549683704977699 136:1 199:1 661:1 2899:1 3358:1 3842:1 9629:1 
6.603765148285478 1246:1 
0.4182248371982022 419:1 1252:1 2352:1 8506:1 9684:1 
0.4063818018101344 199:1 201:1 394:1 1157:1 2979:1 5571:1 8302:1 
2.991191474762884 9:1 43:1 128:1 253:1 342:1 372:1 508:1 510:1 3939:1 4688:1 7378:1 
0.9060065072411518 21:1 194:1 195:1 3135:1 3137:1 4377:1 9699:1 9700:1 9701:1 
0.3980026544978346 199:1 371:1 372:1 463:1 1938:1 3952:1 4188:1 7628:1 9717:1 
0.4157149891586106 226:1 304:1 340:1 386:1 508:1 774:1 1913:1 5951:1 8250:1 9281:1 
50.02569426177849 7394:1 
0.697347956090096 29:1 129:1 175:1 628:1 1112:1 1659:1 4017:1 5555:1 5959:1 6426:1 
0.4110313697985724 276:1 2408:1 3131:1 3172:1 7804:1 9754:1 9755:1 
0.9366298780287868 85:1 276:1 342:1 386:1 1609:1 2570:1 8977:1 
0.653464728287356 88:1 199:1 342:1 372:1 463:1 515:1 2065:1 9790:1 9791:1 9792:1 
0.09811794994937159 10:1 199:1 342:1 463:1 825:1 2162:1 3285:1 4211:1 9798:1 9799:1 9800:1 
0.4748947344662865 199:1 342:1 463:1 825:1 2890:1 3000:1 3285:1 7378:1 9798:1 9802:1 9803:1 9804:1 9805:1 
0.3481805157311936 86:1 129:1 2197:1 6277:1 9765:1 
0.1990395798388591 199:1 342:1 372:1 463:1 859:1 2065:1 5214:1 8032:1 9807:1 9813:1 9817:1 9818:1 
1.247521535313416 199:1 342:1 372:1 386:1 460:1 463:1 1678:1 2065:1 4333:1 4595:1 9792:1 9840:1 
1.694389387215351 603:1 4188:1 9837:1 
59.29894665111841 7:1 8:1 
59.29894665111841 28:1 29:1 
59.29894665111841 7:1 44:1 45:1 46:1 47:1 
59.29894665111841 75:1 76:1 77:1 78:1 
59.29894665111841 88:1 89:1 90:1 91:1 92:1 93:1 
32.2558096271602 7:1 100:1 131:1 132:1 133:1 134:1 
59.29894665111841 135:1 136:1 137:1 138:1 139:1 140:1 
59.29894665111841 143:1 
6.73957991248295 144:1 145:1 146:1 147:1 148:1 149:1 
59.29894665111841 150:1 151:1 152:1 153:1 
55.4688796095842 184:1 185:1 186:1 187:1 188:1 189:1 
45.03246602925854 190:1 191:1 192:1 193:1 194:1 195:1 196:1 
59.29894665111841 88:1 89:1 90:1 91:1 92:1 93:1 
3.490127740630149 212:1 213:1 214:1 215:1 
17.56382373152496 125:1 209:1 226:1 227:1 228:1 229:1 
9.92767211881138 231:1 232:1 233:1 234:1 235:1 236:1 
38.42522895836017 294:1 295:1 296:1 297:1 298:1 299:1 300:1 301:1 302:1 303:1 
43.02654297011409 309:1 310:1 311:1 312:1 313:1 314:1 315:1 
11.38257271692243 42:1 43:1 158:1 197:1 316:1 317:1 318:1 
24.89574616428649 326:1 327:1 
16.64202086858242 45:1 298:1 333:1 334:1 335:1 336:1 337:1 338:1 
34.94503486774946 352:1 353:1 354:1 355:1 356:1 357:1 358:1 359:1 
19.70811539609209 381:1 382:1 383:1 384:1 385:1 386:1 387:1 388:1 389:1 
25.25102416160694 379:1 402:1 403:1 404:1 405:1 
48.98529293864739 189:1 406:1 407:1 408:1 409:1 410:1 411:1 412:1 413:1 414:1 
59.29894665111841 442:1 443:1 444:1 445:1 
14.62652302858282 446:1 447:1 448:1 449:1 450:1 451:1 
1.121466755111424 455:1 456:1 457:1 
59.29894665111841 456:1 458:1 459:1 460:1 461:1 
30.20265845804141 464:1 465:1 466:1 467:1 468:1 469:1 
40.1425787428816 11:1 12:1 107:1 470:1 471:1 472:1 473:1 
10.255917084693 100:1 240:1 368:1 485:1 486:1 487:1 488:1 489:1 490:1 491:1 
1.874326868836366 395:1 437:1 440:1 441:1 508:1 509:1 
11.02707763741307 158:1 260:1 515:1 516:1 517:1 518:1 
17.15011449136571 527:1 528:1 529:1 530:1 
28.28317634289281 119:1 451:1 531:1 532:1 533:1 534:1 535:1 536:1 537:1 
57.28071150763028 268:1 567:1 568:1 569:1 570:1 571:1 572:1 573:1 
3.448357297192402 94:1 598:1 599:1 600:1 601:1 602:1 603:1 604:1 
37.03635504952732 612:1 613:1 614:1 615:1 616:1 617:1 
54.44326064369181 625:1 626:1 627:1 628:1 
26.6327746099605 14:1 316:1 393:1 397:1 398:1 562:1 629:1 630:1 
59.29894665111841 633:1 634:1 635:1 636:1 637:1 638:1 639:1 
5.312040512239161 14:1 316:1 393:1 397:1 398:1 562:1 629:1 630:1 
37.79446868058333 7:1 107:1 189:1 640:1 
59.29894665111841 237:1 651:1 652:1 653:1 654:1 655:1 
59.29894665111841 345:1 552:1 656:1 657:1 658:1 659:1 660:1 
22.07252855443816 668:1 669:1 
17.60848264341832 706:1 707:1 708:1 709:1 
19.97957824452223 540:1 726:1 
3.448827011587883 19:1 339:1 737:1 
3.056947582470873 22:1 738:1 739:1 740:1 741:1 742:1 
59.29894665111841 119:1 
59.29894665111841 769:1 770:1 
53.17911017165287 7:1 721:1 777:1 
5.086447560519651 788:1 789:1 790:1 791:1 792:1 793:1 
1.492353312160572 799:1 800:1 801:1 802:1 
30.32068506930205 89:1 106:1 803:1 804:1 805:1 806:1 
3.040861994903293 106:1 574:1 819:1 820:1 821:1 822:1 
2.753507094635934 140:1 291:1 825:1 826:1 
5.893818994707884 115:1 840:1 841:1 842:1 
57.4439057707865 747:1 850:1 851:1 852:1 853:1 
24.99464849348673 44:1 246:1 863:1 
0.04219091332428333 24:1 119:1 783:1 869:1 
59.29894665111841 249:1 787:1 882:1 
59.29894665111841 883:1 884:1 885:1 886:1 
22.40176589475146 436:1 592:1 893:1 894:1 895:1 896:1 
14.17539555186481 269:1 713:1 917:1 918:1 919:1 
49.57875259002013 150:1 152:1 926:1 927:1 928:1 929:1 930:1 931:1 
1.437676898417143 328:1 949:1 950:1 951:1 952:1 953:1 954:1 955:1 956:1 957:1 
15.81224604672662 193:1 967:1 968:1 969:1 970:1 971:1 972:1 973:1 974:1 
5.99787701145481 247:1 999:1 1000:1 
11.13437048933912 19:1 35:1 1001:1 1002:1 
1.388179856440766 872:1 1003:1 1004:1 1005:1 1006:1 1007:1 
35.19200259003235 328:1 949:1 950:1 951:1 952:1 953:1 954:1 955:1 956:1 957:1 
12.46056162116743 35:1 89:1 151:1 180:1 181:1 303:1 1024:1 1025:1 
59.29894665111841 7:1 737:1 1041:1 1042:1 
40.15264847484963 114:1 1059:1 1060:1 
1.450642970364012 1033:1 1034:1 1061:1 1062:1 
11.84283928896575 316:1 398:1 867:1 1078:1 1079:1 1080:1 
2.493892620605417 944:1 965:1 1087:1 1088:1 1089:1 
18.74235859795237 540:1 558:1 945:1 950:1 1093:1 1094:1 1095:1 1096:1 
59.29894665111841 79:1 316:1 398:1 522:1 703:1 867:1 1080:1 1097:1 
59.29894665111841 952:1 1108:1 
58.5757118856578 1119:1 1120:1 1121:1 1122:1 
3.818785875842037 172:1 1123:1 1124:1 1125:1 
11.63484702617442 641:1 1106:1 1126:1 1127:1 1128:1 1129:1 1130:1 1131:1 1132:1 1133:1 
2.525243471557965 106:1 602:1 1029:1 1145:1 1146:1 1147:1 1148:1 
0.1654191470198565 106:1 574:1 819:1 820:1 821:1 822:1 
41.52558554762387 1104:1 1106:1 1107:1 1136:1 1149:1 
25.19916169339774 481:1 821:1 887:1 1164:1 1165:1 
54.14950102525975 540:1 1177:1 1178:1 1179:1 
0.5282650367964805 100:1 101:1 240:1 487:1 488:1 489:1 1201:1 
0.9675655748891626 704:1 1212:1 1213:1 
0.9271571552812687 1214:1 1215:1 1216:1 1217:1 1218:1 
29.8970040025712 94:1 1219:1 1220:1 1221:1 1222:1 1223:1 
25.83854179612135 1108:1 1120:1 1226:1 1227:1 1228:1 
0.3042340600212516 291:1 1158:1 1272:1 1273:1 1274:1 1275:1 1276:1 1277:1 
19.74969691210686 779:1 1291:1 
27.85554147244605 3:1 5:1 686:1 1311:1 1312:1 1313:1 
11.03480611292848 43:1 339:1 1328:1 1329:1 
42.97727092302515 1300:1 
41.56367796079051 380:1 787:1 851:1 1379:1 1380:1 1381:1 1382:1 
45.91532338246681 69:1 889:1 1155:1 1383:1 1384:1 
43.22341201789656 563:1 1385:1 
0.9160678751425929 1130:1 1131:1 1396:1 1397:1 1398:1 1399:1 
2.692372571596444 373:1 879:1 1400:1 1401:1 1402:1 1403:1 1404:1 
17.32455056824863 707:1 1405:1 
27.4947410447704 119:1 154:1 207:1 881:1 1302:1 1358:1 1419:1 
17.200031908398 71:1 1434:1 
42.64656856866593 173:1 409:1 548:1 1452:1 1453:1 
13.13169069242748 114:1 291:1 470:1 960:1 1138:1 1454:1 1455:1 
6.684928684358485 22:1 129:1 908:1 1457:1 1458:1 1459:1 1460:1 
30.48796190081001 86:1 388:1 1443:1 1461:1 1462:1 
49.09816302082015 1463:1 1464:1 1465:1 
33.60989259456152 542:1 1466:1 1467:1 1468:1 1469:1 1470:1 
2.843150195606067 347:1 387:1 1466:1 1475:1 1476:1 1477:1 1478:1 
59.29894665111841 7:1 42:1 1479:1 1480:1 
1.880114695274811 351:1 603:1 1357:1 1358:1 1490:1 1491:1 
41.4774116571481 1495:1 1496:1 
0.2644738652579156 159:1 351:1 1501:1 1502:1 1503:1 1504:1 1505:1 1506:1 
0.4571669485253135 355:1 913:1 1308:1 1523:1 1546:1 1547:1 
21.02735975465163 154:1 553:1 1548:1 1549:1 1550:1 1551:1 
18.78049254647268 369:1 
7.996634919473852 564:1 612:1 673:1 1555:1 
23.95695799759825 45:1 395:1 1556:1 1557:1 1558:1 1559:1 
44.25698534139485 322:1 323:1 1574:1 
44.32671601406214 159:1 351:1 1501:1 1502:1 1503:1 1504:1 1505:1 1506:1 
3.259604481235424 41:1 147:1 249:1 347:1 383:1 1617:1 1618:1 1619:1 
41.08212004581539 755:1 1411:1 1638:1 1639:1 1640:1 1641:1 1642:1 1643:1 1644:1 
37.09009351535275 377:1 1646:1 1647:1 1648:1 
6.534323468941581 597:1 1072:1 1338:1 1651:1 1652:1 1653:1 1654:1 1655:1 
35.65059658251148 180:1 181:1 1029:1 1072:1 1420:1 1600:1 
2.063212369235891 221:1 403:1 1678:1 
18.29894587771703 81:1 1679:1 1680:1 1681:1 1682:1 1683:1 1684:1 
51.01141335288564 268:1 1040:1 1339:1 1686:1 1687:1 
36.88769137386227 1688:1 1689:1 
0.0721764285948189 348:1 1259:1 1599:1 1710:1 1711:1 1712:1 
6.238883170488926 241:1 1106:1 1720:1 1722:1 
0.9197159723951124 146:1 262:1 383:1 1728:1 1735:1 1736:1 1737:1 1738:1 
1.96352626674428 210:1 365:1 745:1 877:1 1276:1 1740:1 1741:1 1742:1 
12.60340323398695 168:1 292:1 575:1 1443:1 1745:1 1746:1 
7.795152637353402 1749:1 
5.183947904719375 1079:1 1282:1 1376:1 1761:1 
12.1399761266405 426:1 1775:1 1776:1 1777:1 1778:1 
3.087924539506738 189:1 433:1 1263:1 1793:1 1794:1 1795:1 
1.362828878880053 174:1 408:1 630:1 1546:1 1807:1 1808:1 1809:1 1810:1 
1.764470718985658 269:1 600:1 1076:1 1140:1 1585:1 1811:1 
1.851217143771603 173:1 318:1 541:1 1092:1 1495:1 1823:1 1824:1 1825:1 
0.7528946078993297 291:1 292:1 1339:1 1826:1 1827:1 1828:1 
3.016951435475347 1832:1 1833:1 1834:1 
3.944055384867154 424:1 644:1 752:1 1109:1 1845:1 1846:1 1847:1 
10.3986827117313 7:1 1136:1 1850:1 1851:1 1852:1 1853:1 1854:1 1855:1 
23.40584856913489 1857:1 1858:1 1859:1 
59.29894665111841 292:1 1846:1 1890:1 1891:1 
11.82439542764068 316:1 318:1 329:1 1894:1 1895:1 1896:1 
1.729288845521235 1900:1 1901:1 
1.726795257419571 1902:1 1903:1 
20.7677133580819 1816:1 1912:1 
13.18451825684418 119:1 173:1 316:1 1913:1 1914:1 1915:1 
12.57996760100086 79:1 542:1 884:1 1948:1 
3.957709406354582 1949:1 1950:1 
