svm_type nu_svc
kernel_type linear
nr_class 2
total_sv 7783
rho -1.45059
label -1 4
nr_sv 4673 3110
SV
9.38919299166243 5:1 6:1 7:1 8:1 
9.38919299166243 34:1 35:1 36:1 37:1 
6.347582268141794 39:1 40:1 41:1 42:1 43:1 44:1 
8.577518531191755 81:1 82:1 
8.701630858750651 83:1 93:1 94:1 95:1 96:1 97:1 98:1 99:1 100:1 101:1 
9.38919299166243 115:1 
9.38919299166243 136:1 
9.38919299166243 164:1 
9.38919299166243 112:1 172:1 173:1 
9.38919299166243 238:1 
6.455750901001216 59:1 242:1 243:1 244:1 245:1 246:1 
9.38919299166243 247:1 
9.38919299166243 268:1 
9.38919299166243 269:1 
9.38919299166243 281:1 282:1 283:1 284:1 
9.38919299166243 34:1 292:1 
9.38919299166243 258:1 316:1 
0.6132870359372343 160:1 326:1 
9.38919299166243 338:1 339:1 
9.38919299166243 6:1 176:1 323:1 351:1 
9.38919299166243 353:1 354:1 
3.432205189313921 324:1 362:1 363:1 364:1 
9.38919299166243 365:1 366:1 367:1 
7.507285209568332 318:1 376:1 377:1 
5.229406579915113 124:1 125:1 127:1 318:1 379:1 380:1 
7.359733147532382 377:1 381:1 
9.38919299166243 318:1 383:1 
7.331188233440654 387:1 388:1 389:1 
4.775045462877838 19:1 309:1 391:1 
3.939738570433101 123:1 160:1 378:1 392:1 
9.38919299166243 393:1 
9.38919299166243 160:1 309:1 378:1 
0.3259311081520953 125:1 309:1 
9.38919299166243 408:1 409:1 
0.9682878923215702 276:1 427:1 
1.04902917418608 378:1 428:1 
4.096697506091872 224:1 331:1 436:1 437:1 
2.111309345955267 394:1 493:1 
9.38919299166243 108:1 
9.38919299166243 120:1 338:1 339:1 513:1 
0.3690574602236688 518:1 519:1 520:1 
9.38919299166243 125:1 348:1 521:1 
9.38919299166243 48:1 125:1 154:1 
9.38919299166243 542:1 
9.38919299166243 548:1 
9.38919299166243 552:1 
9.38919299166243 316:1 390:1 
9.38919299166243 554:1 
9.38919299166243 172:1 558:1 
6.010958476272191 384:1 578:1 579:1 580:1 
9.38919299166243 558:1 
2.75300150523221 558:1 
9.38919299166243 592:1 
9.38919299166243 596:1 
2.117322854764061 373:1 538:1 558:1 576:1 615:1 616:1 617:1 618:1 
7.727751135738768 521:1 
0.7064063240904246 635:1 636:1 
1.336351596959124 234:1 637:1 
5.937451928416901 18:1 645:1 646:1 
9.38919299166243 153:1 347:1 651:1 652:1 654:1 
7.692877126700549 495:1 
3.829471640591747 280:1 345:1 622:1 
5.478832377115068 676:1 677:1 
3.487065821690031 385:1 
9.38919299166243 641:1 
9.38919299166243 34:1 
9.38919299166243 692:1 693:1 
9.38919299166243 700:1 
0.474210847517018 701:1 702:1 
9.38919299166243 186:1 457:1 703:1 704:1 705:1 
9.38919299166243 716:1 
4.133303333034236 45:1 46:1 717:1 
5.027423723772982 303:1 
9.38919299166243 722:1 
9.38919299166243 731:1 
9.38919299166243 733:1 
9.38919299166243 34:1 
9.38919299166243 748:1 
4.29073738381882 121:1 633:1 754:1 755:1 756:1 
6.362606661223639 772:1 773:1 774:1 775:1 
9.38919299166243 34:1 
6.173443438975355 666:1 781:1 782:1 783:1 784:1 785:1 
5.160671669151836 34:1 137:1 239:1 522:1 
3.078574697796096 657:1 802:1 803:1 804:1 
1.269268563120204 809:1 
9.38919299166243 277:1 810:1 
7.216217251592274 444:1 535:1 820:1 821:1 822:1 
9.38919299166243 823:1 
1.067262750439263 34:1 293:1 311:1 636:1 824:1 
7.181702017289775 169:1 332:1 390:1 441:1 522:1 
8.211020500073108 154:1 827:1 
9.38919299166243 38:1 294:1 332:1 496:1 670:1 830:1 831:1 
3.893726358296158 69:1 173:1 836:1 837:1 
9.38919299166243 838:1 
7.682783648816796 34:1 180:1 384:1 752:1 865:1 866:1 
0.4581411728128556 867:1 868:1 869:1 
8.094900321463889 871:1 872:1 873:1 
9.38919299166243 878:1 
9.38919299166243 881:1 
6.98139252226327 881:1 
9.38919299166243 340:1 884:1 
1.211750703983682 469:1 885:1 886:1 
4.077096381894073 320:1 902:1 903:1 
1.625266848992452 912:1 
4.463163749496192 47:1 674:1 913:1 
8.615114832363776 487:1 919:1 920:1 
2.498257920055806 18:1 915:1 923:1 924:1 
9.38919299166243 345:1 869:1 
1.412910696955675 137:1 352:1 941:1 
8.226772081731749 34:1 125:1 154:1 772:1 917:1 918:1 
1.256756527240728 336:1 943:1 
7.245913686877486 944:1 
9.38919299166243 37:1 950:1 
4.750455338723797 104:1 332:1 395:1 
2.19678404350927 939:1 951:1 952:1 953:1 954:1 
9.38919299166243 42:1 
1.671833634895302 609:1 961:1 
9.143703010548387 48:1 668:1 963:1 
9.38919299166243 955:1 956:1 967:1 968:1 969:1 
9.38919299166243 331:1 973:1 974:1 975:1 976:1 977:1 978:1 
3.202785386974011 176:1 216:1 983:1 
9.38919299166243 340:1 884:1 
8.90790827790409 1013:1 
1.896026246270166 772:1 1016:1 
0.9316862645775047 1017:1 1018:1 
9.38919299166243 1029:1 
9.38919299166243 845:1 
3.605870436265527 107:1 959:1 1032:1 
9.38919299166243 1033:1 
4.664665284006881 108:1 959:1 1037:1 
4.200048927338151 263:1 604:1 1053:1 1054:1 
9.38919299166243 611:1 1057:1 1058:1 1059:1 
8.145168769135491 1066:1 
9.38919299166243 64:1 241:1 460:1 1067:1 1068:1 1069:1 1070:1 1071:1 1072:1 
4.126302290058244 27:1 874:1 1078:1 
0.7247521626839147 19:1 275:1 564:1 1050:1 1082:1 
9.38919299166243 169:1 183:1 493:1 1050:1 1083:1 
9.38919299166243 1089:1 
5.508885264010392 825:1 
9.38919299166243 1092:1 
9.38919299166243 1098:1 1099:1 
4.691560976981849 36:1 889:1 
6.900369064939643 1106:1 
9.38919299166243 843:1 1073:1 
1.324608587397948 1111:1 
1.616591561285034 1114:1 
3.252408783037838 127:1 1022:1 1122:1 
7.228973801179291 538:1 1123:1 
9.38919299166243 34:1 
5.930435534044328 1146:1 
6.338990057495715 113:1 395:1 1152:1 1153:1 
1.696260668054734 48:1 137:1 492:1 511:1 983:1 1154:1 1155:1 
9.38919299166243 1161:1 
7.200698565062511 716:1 
9.38919299166243 1173:1 
2.479816929375841 99:1 1182:1 
4.220999309582367 1185:1 
9.38919299166243 1022:1 1193:1 
5.417405767729084 490:1 1008:1 1009:1 1010:1 1184:1 
5.297417388680477 1226:1 
3.763606142830838 34:1 515:1 900:1 1179:1 1230:1 1231:1 
9.38919299166243 154:1 608:1 1177:1 
9.38919299166243 1036:1 
9.38919299166243 1036:1 
5.852802118347615 918:1 
9.38919299166243 600:1 755:1 756:1 1251:1 1252:1 
5.36685201511009 161:1 250:1 304:1 435:1 1073:1 1265:1 1266:1 
9.38919299166243 1276:1 1277:1 
7.549249259667586 1279:1 1280:1 
0.7137985779005467 336:1 1282:1 
0.9527304889147898 649:1 1267:1 
1.328603185548771 1284:1 
9.38919299166243 630:1 1023:1 1293:1 1294:1 
0.3229200292623451 1299:1 1300:1 
2.858980285271904 34:1 183:1 236:1 926:1 1022:1 1320:1 1321:1 1322:1 
8.544278187352257 176:1 1329:1 1343:1 
3.372928369533686 633:1 1344:1 1345:1 1346:1 1347:1 1348:1 
2.941652892362363 285:1 873:1 1132:1 1195:1 
9.38919299166243 1360:1 1361:1 1362:1 
9.38919299166243 1370:1 
9.38919299166243 269:1 
2.278339564524505 217:1 228:1 340:1 
1.552635575998328 147:1 302:1 727:1 731:1 1247:1 1372:1 1374:1 1375:1 1376:1 
4.253952204783247 241:1 690:1 1000:1 1309:1 1379:1 1385:1 1386:1 1387:1 
9.38919299166243 1390:1 
4.503874442371518 34:1 706:1 716:1 1391:1 1392:1 
9.38919299166243 285:1 1331:1 
9.38919299166243 121:1 176:1 690:1 1394:1 
4.682576849675202 1174:1 1397:1 1398:1 
3.981933988185584 1399:1 
0.5089779065514842 127:1 450:1 1400:1 
6.868541471248691 1403:1 
1.483953322787336 48:1 258:1 761:1 1120:1 1408:1 
3.995778891004585 34:1 181:1 1409:1 1410:1 1411:1 1412:1 1413:1 
9.38919299166243 42:1 90:1 1414:1 
7.148046499651448 1298:1 1406:1 
0.4637839063014829 42:1 48:1 121:1 131:1 234:1 288:1 670:1 1424:1 
9.38919299166243 1174:1 
9.38919299166243 154:1 
0.6516635170932532 130:1 174:1 410:1 489:1 865:1 
1.26915643253843 336:1 943:1 
9.38919299166243 34:1 1441:1 
5.611886821500277 202:1 1442:1 1443:1 
0.6286961163006526 800:1 918:1 
9.38919299166243 34:1 754:1 1409:1 
9.38919299166243 1029:1 
6.72735906890615 63:1 249:1 1194:1 1347:1 1456:1 1457:1 1458:1 
9.38919299166243 1463:1 1464:1 1465:1 
1.799006102914854 1449:1 1473:1 
4.076339201755315 361:1 768:1 1475:1 1476:1 
2.401828006752861 631:1 645:1 
9.019411310209323 34:1 441:1 793:1 
9.38919299166243 34:1 690:1 
4.82151549171677 80:1 
9.38919299166243 34:1 1493:1 
9.38919299166243 212:1 1495:1 
1.471875390956497 146:1 511:1 
9.279925400855957 99:1 1425:1 1496:1 1497:1 
0.4984136961921263 293:1 561:1 1499:1 1500:1 
9.38919299166243 84:1 283:1 978:1 1501:1 
9.38919299166243 212:1 1495:1 
6.964801221129622 146:1 511:1 
2.606631668518463 538:1 1502:1 
6.339642929726737 1503:1 
2.381688414280381 1075:1 
0.7800482342832169 206:1 293:1 475:1 638:1 1484:1 1500:1 1505:1 1506:1 1507:1 1508:1 
2.522306078757536 176:1 1218:1 1459:1 
0.589760797940739 1521:1 
9.38919299166243 1523:1 
0.1168805767240548 38:1 299:1 300:1 302:1 303:1 304:1 306:1 308:1 624:1 906:1 907:1 983:1 
4.610939812153539 7:1 1522:1 
9.38919299166243 7:1 94:1 1522:1 
1.329009513331515 288:1 311:1 383:1 1484:1 1536:1 1537:1 1538:1 
8.881396758222618 176:1 1425:1 1539:1 
2.863229236331874 1484:1 
9.38919299166243 1484:1 
9.38919299166243 1484:1 
9.38919299166243 1484:1 
9.38919299166243 1484:1 
9.227827106303931 1484:1 
3.052489124879919 523:1 638:1 1484:1 1560:1 1561:1 
6.288206366285372 18:1 293:1 674:1 1409:1 
2.01036631839661 34:1 134:1 316:1 710:1 911:1 1290:1 1564:1 
0.792808574520274 104:1 1353:1 
1.841902773919844 384:1 1115:1 1567:1 1574:1 1575:1 
7.965632951223896 330:1 716:1 1144:1 1585:1 1586:1 1587:1 
7.67190719068498 1104:1 
9.38919299166243 250:1 469:1 582:1 1064:1 1590:1 1591:1 
0.626978749228884 82:1 1111:1 1595:1 1596:1 
3.879733770743958 343:1 1193:1 
8.74378825491568 882:1 1605:1 1606:1 
0.06251655802810116 1473:1 1604:1 
0.1861858260715881 38:1 299:1 300:1 302:1 303:1 304:1 306:1 308:1 624:1 906:1 907:1 983:1 
9.38919299166243 1611:1 1615:1 1616:1 
0.2632113734738339 229:1 1321:1 
7.800660185750176 1577:1 
8.731106217853503 1577:1 
9.38919299166243 393:1 
4.019388055167791 625:1 1195:1 1627:1 
3.914038743710992 1636:1 1637:1 
6.939759542264248 224:1 241:1 744:1 1000:1 1058:1 1634:1 1640:1 1641:1 
9.38919299166243 285:1 692:1 
3.704950694144085 340:1 776:1 802:1 
4.395346716642459 66:1 369:1 726:1 973:1 1003:1 1055:1 1583:1 1647:1 
9.38919299166243 108:1 1460:1 
6.865446207056944 1660:1 
9.38919299166243 36:1 183:1 1661:1 
0.2401659156024648 892:1 1474:1 
8.661629879280067 121:1 236:1 828:1 1039:1 1669:1 1670:1 1671:1 
9.38919299166243 1672:1 
6.218375625852487 76:1 
0.2026117099709667 1675:1 
9.38919299166243 1682:1 
0.8328895581508341 496:1 768:1 1692:1 
0.1065732580720692 807:1 937:1 1697:1 1698:1 
9.38919299166243 1023:1 1702:1 
9.38919299166243 165:1 659:1 660:1 
0.07750757746956335 38:1 283:1 1713:1 1716:1 1720:1 1722:1 1723:1 
6.026468582411264 284:1 316:1 394:1 698:1 
9.38919299166243 641:1 
2.321001882988119 1728:1 1729:1 1730:1 1731:1 1732:1 
9.38919299166243 527:1 
2.876154957722878 1056:1 1737:1 
8.310629047313466 524:1 710:1 1087:1 1195:1 
9.38919299166243 527:1 
1.308067451492523 34:1 267:1 717:1 1228:1 1480:1 1745:1 
1.827210923436636 55:1 778:1 1747:1 
9.38919299166243 867:1 868:1 
0.5620599670620713 241:1 304:1 604:1 744:1 1645:1 1760:1 
9.38919299166243 34:1 320:1 1082:1 1766:1 
9.38919299166243 34:1 1777:1 
0.4411427651511504 686:1 1045:1 1777:1 
0.7812271107987672 1787:1 
5.949923143763683 7:1 509:1 510:1 1791:1 
9.38919299166243 1792:1 
6.668286685056516 197:1 509:1 668:1 1409:1 1446:1 1795:1 1796:1 
1.724417361514932 1798:1 
9.38919299166243 1362:1 1799:1 1800:1 
9.38919299166243 1801:1 
0.1404181852128883 161:1 250:1 1803:1 1806:1 1807:1 1808:1 
7.603117944838965 238:1 544:1 1812:1 1813:1 
1.053275457861032 1815:1 1816:1 
5.689413257954445 295:1 1825:1 
7.147102207542661 107:1 1032:1 1791:1 
1.604119876199068 18:1 295:1 1119:1 1215:1 1281:1 
5.487143354102758 153:1 347:1 1817:1 1818:1 
1.928398518629136 137:1 146:1 1848:1 1849:1 
2.572751502235292 48:1 125:1 154:1 169:1 176:1 798:1 1023:1 1851:1 
0.9585865239843128 144:1 496:1 1296:1 1853:1 1854:1 1855:1 
6.320687177982259 1823:1 1859:1 
9.38919299166243 1864:1 
9.38919299166243 288:1 631:1 
3.819531074920033 451:1 598:1 1055:1 
9.38919299166243 1579:1 
0.3168329172472431 103:1 169:1 332:1 539:1 1084:1 1174:1 
1.526258618471924 103:1 519:1 520:1 625:1 652:1 845:1 848:1 1029:1 1030:1 1552:1 1908:1 1909:1 
2.000884671285434 522:1 1910:1 
1.617374999217908 18:1 1917:1 1919:1 
2.923978883092337 56:1 191:1 351:1 561:1 1137:1 1173:1 1440:1 1849:1 1920:1 
0.9289949171396999 13:1 176:1 370:1 1922:1 1923:1 1924:1 
1.780192314070177 206:1 392:1 587:1 1524:1 1930:1 1931:1 
9.38919299166243 217:1 1020:1 1075:1 
1.972778735275491 112:1 795:1 1947:1 
0.05702921584921335 1948:1 1949:1 1950:1 1951:1 1952:1 1953:1 1954:1 1955:1 1956:1 1957:1 1958:1 1959:1 1960:1 
0.2962691654583566 897:1 1962:1 
2.451877412285316 132:1 383:1 827:1 1965:1 
9.38919299166243 351:1 
0.6137798437845956 34:1 900:1 
8.935662044999077 1118:1 
8.581638762835578 1977:1 
4.196473255298296 1936:1 1981:1 
7.365899689500043 313:1 581:1 
2.633259124786605 258:1 316:1 373:1 544:1 1132:1 
9.38919299166243 2004:1 
2.954787285975615 710:1 2005:1 2006:1 2007:1 
9.38919299166243 2008:1 2009:1 
2.973157966859298 995:1 1129:1 2012:1 2013:1 
1.911941351717485 1146:1 
1.496456346267261 920:1 2022:1 2023:1 
2.184179047127494 1409:1 
3.310014281808158 478:1 728:1 729:1 730:1 1450:1 1930:1 
9.38919299166243 122:1 176:1 217:1 913:1 917:1 
3.976652833005475 153:1 176:1 836:1 1428:1 1749:1 2026:1 
9.38919299166243 254:1 
9.38919299166243 1073:1 2032:1 
0.2851897027793356 2034:1 2035:1 
2.051564578730575 749:1 
1.306387890530212 2036:1 
5.39797424373769 778:1 2043:1 
5.063226418820125 69:1 418:1 2044:1 2045:1 2046:1 
1.457816940696363 668:1 
9.38919299166243 288:1 384:1 824:1 1332:1 2050:1 
9.38919299166243 2004:1 
9.38919299166243 2055:1 
4.248905607214083 1033:1 1256:1 
0.0260697557540954 2:1 326:1 2056:1 
7.083352891616027 667:1 2057:1 
5.26798190360065 36:1 1339:1 
4.368927604203851 39:1 48:1 50:1 295:1 824:1 1501:1 1886:1 
3.107344842512778 2075:1 
5.241552161979541 2083:1 
9.38919299166243 2084:1 2085:1 2086:1 
1.425292899149696 967:1 2087:1 2088:1 
0.4235417390948061 122:1 1082:1 1469:1 
3.518566227314285 444:1 1256:1 2055:1 
4.810559320832053 40:1 293:1 378:1 985:1 1327:1 2006:1 2089:1 2090:1 
7.472957860478587 1759:1 2091:1 2092:1 
3.897906193443371 1568:1 
9.38919299166243 1032:1 
9.38919299166243 336:1 337:1 623:1 
9.27353467733267 1568:1 
4.936601654994528 21:1 34:1 190:1 1169:1 2121:1 
9.38919299166243 917:1 1503:1 2125:1 
0.2516947271264151 2128:1 
6.547015761588804 61:1 843:1 2133:1 2134:1 
9.38919299166243 1374:1 
3.343276411124251 2136:1 
2.057114083478268 299:1 303:1 726:1 1054:1 1058:1 1059:1 2141:1 2142:1 2143:1 2144:1 
2.022938366415419 63:1 236:1 252:1 1000:1 1645:1 1706:1 2143:1 2150:1 
6.9249338234475 262:1 512:1 727:1 1073:1 1108:1 1168:1 2144:1 2151:1 
9.38919299166243 2004:1 
0.03858583358791936 313:1 2125:1 
9.38919299166243 45:1 69:1 2125:1 
8.834088027358131 2125:1 
1.611076556383764 383:1 1915:1 2021:1 2125:1 
9.38919299166243 686:1 
9.38919299166243 2125:1 
2.347034473992069 65:1 80:1 2155:1 
9.38919299166243 154:1 176:1 
1.012878381669021 38:1 190:1 1173:1 
4.389923577423502 50:1 2157:1 
9.38919299166243 351:1 1151:1 
9.38919299166243 351:1 2166:1 
9.38919299166243 654:1 
1.444324729187237 340:1 437:1 879:1 899:1 1030:1 1144:1 1357:1 2169:1 
8.437897161234238 38:1 620:1 621:1 1032:1 
0.07537384561341702 108:1 2177:1 
3.254511709745487 1556:1 2182:1 2183:1 
2.23711031375996 435:1 1290:1 1322:1 1564:1 2188:1 2189:1 
1.861421480778053 577:1 1127:1 2192:1 
9.38919299166243 641:1 1699:1 
0.1745290274400446 59:1 983:1 2198:1 
9.38919299166243 48:1 
9.38919299166243 395:1 
3.972646384436967 1004:1 2202:1 
2.856081778302163 14:1 379:1 2204:1 
3.506151062488267 2206:1 
2.021232361037164 666:1 
9.38919299166243 34:1 63:1 154:1 
7.34201309222953 206:1 317:1 576:1 2213:1 
9.38919299166243 2019:1 2210:1 
2.46355719896636 338:1 339:1 513:1 1488:1 2220:1 
9.38919299166243 180:1 234:1 
9.38919299166243 747:1 
1.974052239271924 2222:1 2223:1 
1.917322309899429 120:1 299:1 433:1 593:1 725:1 2028:1 2173:1 2228:1 
9.38919299166243 67:1 1859:1 
0.2450445064247187 169:1 2210:1 2229:1 
8.7862639917658 2210:1 
3.716156905372811 38:1 55:1 492:1 1104:1 2233:1 2234:1 
8.254850749516899 2210:1 
9.38919299166243 154:1 
0.8137556389942056 2236:1 
9.38919299166243 1195:1 
3.215462101627736 194:1 237:1 422:1 614:1 1238:1 2193:1 
2.988590680240364 2252:1 
1.068362109984285 2253:1 2254:1 2255:1 
9.359734969768782 2236:1 
1.006187672308621 410:1 2257:1 
1.865789584702513 1021:1 
2.430602384708024 554:1 2260:1 
2.673539120729553 710:1 1021:1 1448:1 2261:1 
4.461556896376869 2264:1 
9.38919299166243 1021:1 
8.594604937103464 1021:1 
9.38919299166243 2271:1 
5.326240518357851 1030:1 2161:1 
1.830226083445185 253:1 437:1 573:1 1070:1 1811:1 1979:1 2274:1 2275:1 
7.565367856477663 1460:1 2259:1 
9.38919299166243 48:1 107:1 285:1 
0.2188096879705584 485:1 2280:1 
3.885583582129741 1459:1 1690:1 2281:1 2282:1 2283:1 2284:1 2285:1 2286:1 
0.9812335597152765 978:1 2292:1 
0.3069125908809216 38:1 103:1 625:1 1552:1 1908:1 1992:1 1997:1 2302:1 2303:1 2304:1 2305:1 
9.38919299166243 2308:1 
4.327552449170583 116:1 382:1 1747:1 2315:1 2316:1 2317:1 2318:1 
9.38919299166243 2322:1 
9.38919299166243 451:1 
8.717979327072277 2325:1 2326:1 
7.927522280531774 63:1 69:1 99:1 707:1 1207:1 1656:1 
3.995449379752926 63:1 66:1 201:1 246:1 452:1 469:1 512:1 2331:1 
6.396926162591751 750:1 2332:1 
9.38919299166243 246:1 471:1 472:1 974:1 1227:1 
6.078725324661049 220:1 221:1 246:1 2313:1 2334:1 2337:1 2338:1 2339:1 2340:1 2341:1 2342:1 2343:1 2344:1 
2.158193218667251 288:1 791:1 1258:1 2231:1 
9.38919299166243 63:1 69:1 154:1 
9.38919299166243 630:1 
7.46863154029374 130:1 154:1 
4.579784801876211 447:1 1016:1 
9.38919299166243 130:1 154:1 
0.8420682393212471 2362:1 
3.498276461542174 669:1 2363:1 
9.38919299166243 978:1 2292:1 
8.107704769122254 956:1 1683:1 
9.38919299166243 190:1 367:1 2356:1 
0.9920403017600403 1114:1 
8.936017483349939 1912:1 
3.604343412354878 36:1 176:1 183:1 278:1 2387:1 2388:1 
3.874100750732135 176:1 2389:1 
0.07549151037440523 38:1 59:1 103:1 518:1 519:1 520:1 652:1 834:1 835:1 845:1 918:1 1079:1 2303:1 2395:1 
5.885663757403116 868:1 898:1 2398:1 2399:1 
3.910529821261768 477:1 744:1 745:1 1073:1 1519:1 1885:1 1941:1 
9.38919299166243 34:1 
6.338970806572639 1058:1 1059:1 2403:1 
3.716179865417045 107:1 2417:1 2418:1 
7.495316491945871 669:1 958:1 2423:1 2424:1 2425:1 2426:1 
3.426833489920854 544:1 660:1 
4.49090073065238 1124:1 2427:1 2428:1 
0.5833018408202039 1115:1 
4.616273048916562 2431:1 
9.38919299166243 234:1 322:1 496:1 
9.302906519280086 275:1 853:1 2417:1 2418:1 2444:1 
0.7962824657150228 137:1 390:1 638:1 719:1 1503:1 
3.834723131040791 59:1 102:1 499:1 1207:1 1457:1 2447:1 
0.8316784630931709 1223:1 1668:1 2449:1 2450:1 2451:1 
9.38919299166243 395:1 
0.8478533080500033 409:1 702:1 772:1 773:1 2289:1 
1.633000622212307 1608:1 2459:1 
0.9369139362516836 2460:1 
0.4721208311509075 63:1 2205:1 2425:1 
5.560101582770923 2463:1 2464:1 
4.207786458943255 1046:1 2465:1 
9.38919299166243 355:1 
0.5238573467641238 1911:1 2352:1 
9.38919299166243 625:1 2474:1 2475:1 
0.05642273666900958 185:1 641:1 964:1 2477:1 
9.38919299166243 2480:1 
8.285119280042444 121:1 
6.364426085073079 1404:1 
9.38919299166243 908:1 
1.575334361498398 763:1 2487:1 
0.3625542411216424 1837:1 2111:1 
0.4848185101724076 768:1 
4.436205088808547 27:1 45:1 680:1 2508:1 
9.38919299166243 1414:1 
9.38919299166243 673:1 2509:1 
4.963955967175749 18:1 466:1 
9.38919299166243 56:1 922:1 
9.38919299166243 2512:1 2513:1 
9.38919299166243 174:1 
9.38919299166243 174:1 
9.38919299166243 174:1 
9.38919299166243 174:1 
4.044614682802263 133:1 1324:1 1435:1 
6.309404599252364 34:1 258:1 1642:1 2514:1 
9.38919299166243 332:1 2515:1 
9.38919299166243 2519:1 
9.38919299166243 174:1 
9.38919299166243 63:1 154:1 
0.7923938050482151 63:1 2525:1 
8.627618950979539 181:1 340:1 686:1 
3.689824130364291 348:1 375:1 487:1 614:1 1294:1 
0.05994358817938696 159:1 701:1 
4.650182781992523 2534:1 
4.151100517476341 153:1 529:1 2413:1 2537:1 
2.118302478686839 84:1 1924:1 
0.7430326341019284 17:1 197:1 487:1 2538:1 2539:1 
3.077994128257411 2546:1 2547:1 
5.118071772391256 630:1 2532:1 
9.38919299166243 1540:1 
0.118578481407839 1860:1 
8.574053432873747 2553:1 2554:1 2555:1 
1.149423299045206 44:1 1860:1 
9.38919299166243 154:1 578:1 
0.5251393426476934 18:1 104:1 631:1 1286:1 2557:1 
2.150633561172387 34:1 281:1 561:1 898:1 1340:1 
9.38919299166243 154:1 578:1 
2.864615879036036 915:1 1860:1 2558:1 
9.017447500325934 130:1 2562:1 
0.6060260384361071 105:1 970:1 
9.38919299166243 529:1 1193:1 1351:1 
4.702282540940803 34:1 112:1 1031:1 2568:1 
5.081784805104783 34:1 48:1 153:1 2205:1 
2.397579210191887 34:1 63:1 69:1 
6.454149123520012 269:1 425:1 
0.6165224538251095 102:1 131:1 624:1 2563:1 2587:1 
2.498208927279564 176:1 344:1 345:1 589:1 2563:1 
1.637676486028796 184:1 1929:1 2377:1 
9.38919299166243 630:1 2563:1 2593:1 
9.38919299166243 322:1 328:1 2563:1 
0.2657260511666763 176:1 608:1 985:1 1054:1 1105:1 
6.285353755215501 360:1 361:1 504:1 950:1 2594:1 2595:1 
1.130709713083718 357:1 535:1 1183:1 
0.6183614822026425 18:1 1104:1 1105:1 2596:1 2599:1 
2.746751031498583 2596:1 2600:1 
0.4300436502781763 2563:1 
9.38919299166243 355:1 
9.38919299166243 7:1 
4.202304207914937 229:1 631:1 2601:1 
4.181940729572547 745:1 1117:1 2042:1 
9.38919299166243 34:1 148:1 1004:1 2605:1 2606:1 
9.38919299166243 1073:1 2032:1 
0.4483704591200753 69:1 1054:1 2608:1 
9.38919299166243 34:1 
1.378572805748222 1282:1 2386:1 2618:1 
4.52442060838998 323:1 932:1 
2.578750905937373 241:1 557:1 1168:1 1169:1 2164:1 2630:1 2659:1 2677:1 2678:1 2679:1 
1.004011387636409 45:1 54:1 55:1 552:1 778:1 
0.2344731898490149 602:1 924:1 1820:1 2677:1 2695:1 2707:1 2714:1 
9.38919299166243 79:1 2695:1 
9.38919299166243 183:1 623:1 2695:1 
5.363029119043541 1173:1 2307:1 2415:1 2732:1 
4.822865508197931 343:1 1082:1 1119:1 1396:1 1573:1 
9.176312963827455 1037:1 2401:1 
8.528250193501577 2739:1 2740:1 2741:1 
1.110511668872671 531:1 1332:1 
4.805914219308894 249:1 340:1 716:1 1207:1 2612:1 2651:1 2750:1 2751:1 
2.515316926344938 736:1 1070:1 1082:1 1207:1 1511:1 2630:1 2742:1 2760:1 2783:1 2784:1 
0.7284486263568823 216:1 241:1 604:1 725:1 902:1 1645:1 2798:1 
6.911938029329525 1946:1 2839:1 
9.38919299166243 674:1 
0.5471574681541237 2797:1 
5.051472992080202 355:1 531:1 2886:1 
9.38919299166243 383:1 1560:1 
9.38919299166243 2893:1 
0.1924748046222023 252:1 437:1 1070:1 1750:1 1939:1 2919:1 2926:1 2935:1 2936:1 2937:1 
0.1234965504704024 56:1 108:1 112:1 710:1 2959:1 2960:1 2961:1 2962:1 2963:1 2964:1 2965:1 
0.003746565809694689 59:1 361:1 1289:1 1303:1 1868:1 2973:1 
2.181186638854325 2967:1 3012:1 
4.955708228170287 538:1 610:1 1599:1 2331:1 2722:1 2841:1 2996:1 3000:1 3026:1 3027:1 
9.38919299166243 269:1 2395:1 3038:1 
0.6832740729293626 241:1 243:1 264:1 437:1 1364:1 1854:1 2911:1 3038:1 3073:1 3078:1 
9.38919299166243 3088:1 
9.38919299166243 108:1 
1.217881518523026 161:1 589:1 590:1 1073:1 1131:1 3098:1 
9.38919299166243 457:1 
1.079696937266458 437:1 1131:1 1932:1 2816:1 2833:1 3102:1 
0.5726649425371896 119:1 264:1 303:1 989:1 1131:1 1383:1 2816:1 2939:1 3112:1 
7.025791401260553 56:1 271:1 303:1 588:1 624:1 1131:1 1229:1 1683:1 3043:1 3058:1 3126:1 
9.38919299166243 34:1 564:1 643:1 2070:1 
5.765344074813538 133:1 2098:1 2124:1 2378:1 3135:1 3136:1 
9.38919299166243 34:1 
1.400868278281362 63:1 124:1 170:1 343:1 1059:1 1173:1 1645:1 2130:1 2277:1 
0.6966509724008717 94:1 122:1 133:1 275:1 292:1 1282:1 2628:1 3138:1 3166:1 
9.38919299166243 34:1 313:1 1233:1 
1.118692759193514 94:1 176:1 1007:1 1084:1 1282:1 2628:1 2640:1 3138:1 
0.0404914107307936 25:1 104:1 280:1 761:1 1282:1 1778:1 2197:1 3138:1 
1.745439376169623 273:1 274:1 2027:1 
3.606413547809454 557:1 685:1 898:1 1844:1 1845:1 1846:1 3176:1 3177:1 3178:1 
9.38919299166243 410:1 
0.9057569874935036 119:1 525:1 3186:1 3201:1 3202:1 3203:1 3204:1 
9.38919299166243 686:1 
0.1463648444981138 72:1 3187:1 
5.949750753947391 54:1 778:1 779:1 2620:1 
1.15373683719034 6:1 68:1 640:1 672:1 822:1 900:1 2238:1 3261:1 3262:1 3263:1 
0.03827026610019194 79:1 2274:1 
3.802212106989503 1179:1 3271:1 
0.4968408627720226 57:1 588:1 1099:1 2276:1 
0.1894530628073761 216:1 3267:1 3268:1 3274:1 
7.075447184561155 990:1 2328:1 3267:1 3275:1 
4.586587618674955 370:1 458:1 490:1 1073:1 1511:1 2719:1 2982:1 2997:1 3295:1 
0.07592735338375692 57:1 1383:1 1941:1 2805:1 2997:1 3267:1 3303:1 3304:1 
2.914743247103743 241:1 252:1 458:1 459:1 477:1 972:1 1064:1 1252:1 2539:1 2719:1 3267:1 3306:1 3307:1 
1.172096459070439 55:1 107:1 184:1 609:1 657:1 1178:1 1332:1 1458:1 3313:1 3314:1 
9.38919299166243 295:1 673:1 674:1 983:1 2035:1 2687:1 
9.38919299166243 348:1 
3.628686267751424 2955:1 
7.135266879465483 269:1 2395:1 2628:1 
1.173374445067114 2692:1 3352:1 
2.951190917725477 452:1 979:1 1603:1 1641:1 2513:1 2722:1 3352:1 
8.011287447570814 2742:1 2785:1 3352:1 3361:1 3362:1 3363:1 
0.01000345103529509 3101:1 3397:1 
2.260501543834005 285:1 1244:1 1773:1 
7.335419484491089 37:1 323:1 3407:1 
4.970686789493489 3408:1 
1.424972663832831 137:1 3419:1 
0.8037022839005085 1827:1 
9.005876161561941 1364:1 1508:1 
9.38919299166243 34:1 492:1 983:1 2035:1 2785:1 3426:1 
1.110743452936239 34:1 557:1 1669:1 2732:1 
9.38919299166243 34:1 
3.527094814775873 241:1 264:1 343:1 589:1 2367:1 2634:1 2772:1 3461:1 3462:1 
2.643386195721074 719:1 725:1 1264:1 2031:1 2453:1 2896:1 3344:1 3465:1 3466:1 
0.6759637263615382 561:1 649:1 667:1 2931:1 3471:1 3472:1 3473:1 3474:1 3475:1 
0.526918395606111 64:1 1108:1 1150:1 1357:1 1885:1 2580:1 2655:1 3476:1 3477:1 3478:1 3479:1 
4.66996939707028 121:1 1234:1 2984:1 
9.38919299166243 241:1 726:1 1881:1 2909:1 3503:1 3508:1 
6.220306847173553 367:1 539:1 593:1 1504:1 1813:1 
5.033699908591082 19:1 2307:1 3506:1 
1.532786957119141 63:1 555:1 2791:1 3320:1 3321:1 
1.839655081381529 250:1 410:1 3503:1 
3.808920879210386 48:1 49:1 65:1 361:1 409:1 1289:1 2611:1 3541:1 3542:1 
0.4842847824118612 3494:1 
9.324637450808476 3494:1 
2.243636000863364 674:1 807:1 1658:1 2687:1 3550:1 3551:1 3552:1 
2.307391402889091 50:1 341:1 409:1 
0.2781227043926831 153:1 173:1 181:1 361:1 1289:1 1571:1 1854:1 3419:1 
2.015870514040273 76:1 280:1 451:1 1131:1 1603:1 3576:1 
1.992455609412111 45:1 71:1 120:1 589:1 970:1 1131:1 1258:1 3098:1 3577:1 
5.123537711534583 269:1 1131:1 3007:1 3578:1 3579:1 
2.98100346887107 34:1 38:1 479:1 772:1 988:1 1324:1 1428:1 2035:1 2922:1 
0.4318513419555776 493:1 645:1 989:1 1131:1 
0.0700912283278021 34:1 63:1 492:1 1941:1 2141:1 2722:1 3099:1 3593:1 3602:1 
1.875117761244275 858:1 
5.931309848325199 1849:1 3606:1 
9.38919299166243 1131:1 1173:1 2732:1 
3.768830096153592 169:1 176:1 234:1 252:1 641:1 1131:1 3612:1 
9.38919299166243 7:1 34:1 2346:1 
1.21072674201604 183:1 2923:1 2934:1 3342:1 3613:1 3614:1 3615:1 
0.06132199704740924 1255:1 
4.287877109546865 68:1 457:1 535:1 704:1 2248:1 3623:1 
3.253313033764672 3629:1 
2.973871864560401 34:1 64:1 270:1 623:1 
0.5048755416330098 137:1 173:1 273:1 361:1 398:1 437:1 560:1 772:1 2904:1 3130:1 3633:1 
9.38919299166243 269:1 
2.568207467434081 250:1 989:1 1264:1 1472:1 1652:1 3639:1 
1.46251328686877 521:1 
3.824755194018318 258:1 719:1 1397:1 1852:1 
2.891501132546694 48:1 202:1 900:1 1687:1 2463:1 2611:1 3325:1 3689:1 
0.4736565560100395 1349:1 
4.183158237472933 3249:1 3694:1 3695:1 3696:1 
2.769788334906854 146:1 198:1 270:1 606:1 1168:1 1169:1 1205:1 2612:1 2722:1 
0.9736261062903105 269:1 3690:1 
9.328687939228201 269:1 3690:1 
3.497225484321139 84:1 340:1 466:1 525:1 2722:1 2816:1 3461:1 
9.38919299166243 292:1 1475:1 
0.08410617547361339 3559:1 3734:1 3738:1 
0.9334762766135398 638:1 3737:1 3769:1 
2.946213799259806 649:1 3739:1 
2.425103810481433 55:1 176:1 1290:1 1394:1 1630:1 
0.9603574703547442 693:1 
9.38919299166243 154:1 
3.173641059213494 51:1 680:1 2893:1 3780:1 
1.720469524197904 217:1 902:1 2785:1 2798:1 3261:1 3287:1 3796:1 
5.459003732814076 250:1 264:1 472:1 1001:1 1878:1 3016:1 3803:1 3804:1 
5.644381135654827 1054:1 
6.685218690030807 232:1 496:1 1918:1 2151:1 2630:1 3060:1 3396:1 3821:1 
9.38919299166243 282:1 
4.165082687308616 125:1 348:1 377:1 613:1 778:1 2908:1 2909:1 
0.3629996928350953 521:1 
3.654528844050578 282:1 288:1 1585:1 1642:1 3837:1 
4.580292734238739 3838:1 
3.263658944841713 1393:1 2454:1 
4.934685536349079 989:1 1250:1 1383:1 1639:1 1941:1 2762:1 3841:1 3860:1 
0.4680695312785834 458:1 996:1 1648:1 1651:1 2762:1 2818:1 3841:1 3853:1 
8.472465221081869 3876:1 
1.255361549817299 2622:1 
0.1455840963002945 269:1 3038:1 3880:1 
0.4394349568558125 61:1 84:1 369:1 872:1 3038:1 3056:1 3064:1 3065:1 3483:1 3890:1 
9.38919299166243 480:1 719:1 742:1 
5.661781965214725 1282:1 3908:1 3909:1 3910:1 
0.859297424258553 99:1 112:1 361:1 1289:1 3405:1 
3.215816110712335 63:1 241:1 271:1 477:1 744:1 1032:1 1203:1 2339:1 3093:1 3921:1 3922:1 
0.4146325269731821 217:1 1198:1 3470:1 3658:1 3912:1 3937:1 3938:1 3939:1 
1.835086544184897 241:1 606:1 812:1 2169:1 2982:1 3912:1 3937:1 3946:1 3947:1 
7.276343920242121 3912:1 3948:1 3949:1 
1.181203422163115 1023:1 1629:1 3912:1 
0.3358995464577174 19:1 3912:1 
0.9422074110187509 87:1 310:1 524:1 1032:1 3241:1 
9.38919299166243 1064:1 
0.5774432706763958 642:1 3554:1 
4.106258509123228 484:1 1624:1 3957:1 
1.014387738117702 165:1 1129:1 1548:1 1900:1 2611:1 
2.72708130759878 250:1 369:1 602:1 990:1 2677:1 3305:1 3962:1 3967:1 
6.802421718415582 369:1 436:1 670:1 990:1 1063:1 1143:1 1205:1 2807:1 2942:1 
0.02669195638946383 473:1 975:1 990:1 1070:1 1143:1 1603:1 1683:1 3962:1 3983:1 
0.3620752568140047 334:1 998:1 1322:1 2676:1 3990:1 
0.07207207161380096 38:1 556:1 1589:1 1591:1 2692:1 3962:1 3965:1 3967:1 3971:1 3973:1 3975:1 3987:1 3988:1 3994:1 
0.008339172997323806 1108:1 
5.344198248418345 153:1 422:1 556:1 990:1 1117:1 2157:1 2791:1 3799:1 
9.38919299166243 42:1 176:1 1087:1 
8.462821747961899 3999:1 
4.068190414855959 34:1 1283:1 1495:1 4000:1 
0.3886575924072572 3638:1 4006:1 
4.47728481430633 1711:1 4009:1 4010:1 
1.041596309802558 133:1 555:1 710:1 757:1 793:1 1087:1 3136:1 3778:1 
6.897831301007235 3167:1 
9.38919299166243 4016:1 
0.8282367088359373 1600:1 1685:1 2173:1 2268:1 2612:1 2659:1 2738:1 2903:1 3099:1 4030:1 
0.2467628976764566 538:1 1502:1 2244:1 2628:1 2659:1 2738:1 3395:1 3897:1 
2.098016844369313 48:1 49:1 361:1 409:1 486:1 1289:1 3541:1 
0.1500908344776877 176:1 206:1 347:1 390:1 589:1 1790:1 1876:1 2745:1 4036:1 
0.1731122195637551 610:1 979:1 1161:1 1652:1 4048:1 4049:1 
0.3462264944395452 369:1 557:1 561:1 730:1 2216:1 3631:1 4036:1 4050:1 4051:1 4052:1 
3.264741034891083 340:1 600:1 4036:1 
0.08980296263578305 241:1 573:1 988:1 1064:1 1159:1 2662:1 3381:1 4036:1 
3.217653643728089 264:1 374:1 608:1 736:1 982:1 1143:1 1511:1 3058:1 4036:1 4047:1 
4.325683913566662 250:1 606:1 654:1 783:1 1169:1 1381:1 2153:1 3107:1 3290:1 4036:1 
0.9820023695107736 175:1 347:1 884:1 1007:1 1129:1 1218:1 2656:1 2859:1 
2.223651089489028 57:1 241:1 261:1 826:1 990:1 1003:1 2277:1 4061:1 
6.974125731895623 176:1 292:1 4036:1 
0.6079713895716055 264:1 2483:1 3073:1 3631:1 3709:1 4074:1 
0.5259702171941839 57:1 63:1 241:1 2206:1 2630:1 2645:1 2831:1 3038:1 
0.07928874216696921 222:1 225:1 979:1 1073:1 2709:1 2924:1 2978:1 4122:1 
3.423294391263243 417:1 451:1 573:1 606:1 796:1 990:1 1683:1 2653:1 2709:1 2978:1 
1.507564557370613 105:1 206:1 583:1 4144:1 
0.5909830491977215 1349:1 
0.6543620354086025 176:1 441:1 2687:1 2692:1 3276:1 3499:1 3851:1 4083:1 4152:1 
1.220053036224551 398:1 538:1 606:1 988:1 990:1 1502:1 2722:1 2997:1 3135:1 4145:1 
1.027683898909603 27:1 264:1 330:1 437:1 441:1 990:1 1642:1 2425:1 2684:1 3336:1 4160:1 4161:1 
6.186941528582935 2622:1 
8.71955045056829 1772:1 2000:1 4145:1 
1.384549843699219 3092:1 4016:1 4182:1 
1.121363732723472 165:1 180:1 866:1 1828:1 1829:1 1844:1 1845:1 1846:1 4211:1 
4.795688486366343 2786:1 3905:1 4068:1 4103:1 4104:1 
7.918800875958844 104:1 690:1 3241:1 3398:1 3487:1 4214:1 
1.157229109357239 690:1 1376:1 1379:1 2753:1 4216:1 4218:1 4219:1 
1.473140140641445 241:1 437:1 480:1 2724:1 2843:1 4216:1 
0.5639631154485606 173:1 347:1 606:1 1387:1 1414:1 2612:1 
2.254230994628389 285:1 1685:1 2941:1 4216:1 4231:1 4232:1 
2.568063708165013 690:1 2392:1 2612:1 2747:1 3982:1 4236:1 
4.125786745062881 343:1 1778:1 2735:1 3905:1 4243:1 
0.9679263087827652 690:1 1366:1 1376:1 1380:1 1459:1 4216:1 4218:1 4221:1 4244:1 4245:1 4246:1 
0.222690121638717 162:1 1082:1 1685:1 2620:1 3038:1 3073:1 3889:1 4269:1 
0.6900781622892543 690:1 3130:1 3184:1 4283:1 
0.07704698041707272 285:1 406:1 646:1 674:1 916:1 1529:1 2687:1 3505:1 
0.8593461951645468 17:1 2687:1 2692:1 3499:1 4291:1 4292:1 4293:1 4294:1 4295:1 
2.4359567081286 4297:1 
1.551437177380813 4050:1 4302:1 
7.125376625796581 4304:1 
3.263926615607524 543:1 4304:1 
9.38919299166243 3843:1 3917:1 4307:1 
1.886367543829249 264:1 1070:1 2405:1 2834:1 3874:1 4306:1 4317:1 
0.2226183499211936 63:1 606:1 736:1 2149:1 2413:1 2722:1 3058:1 4312:1 4320:1 
0.560240735300148 43:1 121:1 241:1 264:1 437:1 589:1 988:1 1073:1 1820:1 2707:1 2851:1 2911:1 3516:1 4306:1 
2.956401993958866 1279:1 1773:1 2238:1 2477:1 2478:1 2612:1 4038:1 
2.508214701108807 217:1 258:1 285:1 557:1 3078:1 4078:1 4348:1 
1.242756736081593 557:1 599:1 1844:1 1845:1 3176:1 4349:1 4350:1 4351:1 4352:1 
0.3527143057437289 2955:1 
0.1577661526128179 13:1 56:1 69:1 236:1 1896:1 2971:1 3382:1 
0.6707016575293744 4395:1 
0.02114745911755331 119:1 1027:1 2130:1 3276:1 4386:1 4396:1 4397:1 
0.915494509398938 116:1 790:1 2130:1 2975:1 4396:1 4405:1 4406:1 4407:1 
2.305040507700574 417:1 4408:1 4409:1 
4.856657623230007 323:1 2279:1 4386:1 4410:1 4411:1 
0.2047412248591917 4412:1 4413:1 4414:1 4415:1 4416:1 
2.731452202630448 4432:1 4433:1 4435:1 
1.557606563089589 232:1 1168:1 2070:1 2130:1 2268:1 4412:1 4413:1 4428:1 4429:1 4440:1 
4.117934562021696 593:1 875:1 2266:1 3254:1 4164:1 4424:1 4425:1 4448:1 4449:1 4450:1 4451:1 
0.1543766337471474 1082:1 2082:1 4432:1 4443:1 4454:1 4455:1 4456:1 
0.1946473417368467 48:1 169:1 3629:1 4404:1 4431:1 
3.197229033074524 4407:1 4437:1 4443:1 4458:1 4468:1 
1.785262925736551 1477:1 4445:1 4479:1 4480:1 
9.38919299166243 4444:1 4488:1 
5.332644167818351 112:1 450:1 1253:1 2545:1 3522:1 4461:1 4489:1 
7.660953855828338 4459:1 4490:1 4491:1 4492:1 4493:1 4494:1 
2.622104860835242 417:1 1059:1 1177:1 3092:1 4444:1 4467:1 
2.966375325918464 4426:1 4486:1 4497:1 4498:1 4499:1 4500:1 4501:1 4502:1 4503:1 4504:1 
7.967127815700557 3522:1 4404:1 4515:1 
2.870826362875973 4518:1 
2.329626382624232 4522:1 
1.905934523012756 4526:1 
3.225249472452127 1599:1 4426:1 4442:1 4467:1 4472:1 4529:1 4531:1 4532:1 
9.38919299166243 355:1 
1.868323165348959 169:1 710:1 4543:1 4544:1 
1.316620437876978 4545:1 
1.405003385410373 27:1 786:1 2012:1 2027:1 2268:1 4563:1 4564:1 
0.8340827404390565 615:1 4432:1 4457:1 
5.170608962297011 641:1 1287:1 2613:1 2678:1 3036:1 4458:1 4588:1 
0.604585136129802 908:1 3036:1 4589:1 
9.212155540185682 4590:1 
2.928606220234724 460:1 1592:1 2613:1 3036:1 4437:1 4545:1 4554:1 4595:1 4596:1 4597:1 
1.077876288477531 2205:1 3036:1 4515:1 4542:1 4548:1 4568:1 4603:1 
1.562183584405471 390:1 478:1 1059:1 2093:1 3757:1 
0.1752785229539551 694:1 1478:1 2800:1 3016:1 4607:1 4608:1 
1.029073248181396 4620:1 
9.38919299166243 69:1 2545:1 
9.38919299166243 107:1 285:1 615:1 1961:1 4637:1 
0.1252372331751648 4563:1 4614:1 4640:1 4641:1 4642:1 4643:1 
6.114034284523357 35:1 4098:1 4457:1 4648:1 4649:1 4650:1 
0.8908715750862954 224:1 529:1 1253:1 4461:1 4651:1 4652:1 4653:1 
7.183304113525939 2793:1 
9.38919299166243 348:1 
0.8720005985370015 460:1 1253:1 2107:1 4013:1 4457:1 4539:1 4653:1 4676:1 4677:1 4678:1 
2.224114287785646 3166:1 3432:1 3794:1 4612:1 4637:1 
4.186239175074609 607:1 761:1 2744:1 2885:1 3191:1 4634:1 4635:1 
2.109802004771417 1010:1 1585:1 2321:1 2802:1 4409:1 4688:1 4689:1 
2.161144166680719 3947:1 4100:1 4437:1 4445:1 4488:1 4672:1 
0.478672731157097 104:1 660:1 1108:1 4457:1 4696:1 
5.871013109526118 1718:1 2454:1 2916:1 4469:1 4718:1 4719:1 4720:1 4721:1 4722:1 4723:1 
9.38919299166243 1073:1 2566:1 
0.9951763675077386 169:1 660:1 4736:1 4737:1 
0.5538431747234875 320:1 3462:1 4432:1 4532:1 4556:1 4741:1 
0.4969427930583748 1253:1 2269:1 4461:1 4468:1 4747:1 
1.657034350890775 120:1 2545:1 4409:1 4722:1 4762:1 
2.346910267257828 615:1 4457:1 
1.738259438715618 112:1 4479:1 4574:1 4575:1 4766:1 
2.400564704423851 4719:1 
5.673520086559957 154:1 4755:1 4756:1 
2.892119876406669 986:1 3522:1 4411:1 4754:1 4772:1 
0.7819748849851427 280:1 835:1 4515:1 4755:1 4771:1 
1.662052645416499 4393:1 4787:1 
0.9566524552081168 1103:1 4791:1 4792:1 4793:1 4794:1 
1.494794852121763 790:1 874:1 1010:1 4466:1 4467:1 4719:1 4800:1 
0.5020686591551149 3:1 4:1 5:1 6:1 7:1 8:1 
1.531171697434151 39:1 40:1 41:1 42:1 43:1 
7.71596990673154 3:1 4:1 5:1 6:1 7:1 8:1 
7.555900975490417 23:1 99:1 100:1 101:1 
1.900528208194054 68:1 102:1 103:1 104:1 105:1 106:1 
9.38919299166243 77:1 113:1 114:1 115:1 116:1 117:1 
0.0009551414078000499 7:1 92:1 136:1 137:1 
3.672969579684388 7:1 97:1 149:1 150:1 151:1 152:1 
9.029251207246736 160:1 161:1 162:1 163:1 
9.38919299166243 164:1 165:1 166:1 167:1 168:1 169:1 
5.028193302396457 128:1 170:1 171:1 172:1 173:1 174:1 
4.448100129995288 39:1 40:1 41:1 42:1 43:1 188:1 189:1 190:1 191:1 192:1 
9.38919299166243 7:1 18:1 19:1 20:1 21:1 146:1 147:1 
9.38919299166243 45:1 52:1 53:1 81:1 114:1 234:1 241:1 
7.080272794145804 89:1 268:1 269:1 270:1 271:1 272:1 273:1 
3.710811886406353 7:1 92:1 136:1 137:1 
9.38919299166243 281:1 282:1 283:1 284:1 285:1 
9.38919299166243 263:1 264:1 290:1 291:1 292:1 293:1 294:1 295:1 
6.227505189945242 7:1 286:1 306:1 
9.38919299166243 322:1 323:1 
7.102698336160737 7:1 197:1 213:1 214:1 216:1 327:1 328:1 
5.330892467658109 16:1 113:1 338:1 339:1 340:1 341:1 
1.405013367715208 329:1 330:1 342:1 343:1 344:1 345:1 346:1 347:1 348:1 349:1 350:1 351:1 352:1 353:1 
1.169814567887525 46:1 89:1 157:1 273:1 362:1 363:1 364:1 
9.38919299166243 294:1 365:1 366:1 367:1 
7.248018600997239 245:1 311:1 312:1 313:1 369:1 370:1 371:1 
0.5424338718206975 11:1 331:1 385:1 386:1 387:1 388:1 
1.583662549176881 316:1 395:1 396:1 397:1 
2.964824673966659 408:1 
8.887050529351191 46:1 249:1 413:1 414:1 415:1 
5.328076239179447 428:1 431:1 432:1 433:1 434:1 435:1 436:1 437:1 
7.630000514931757 168:1 169:1 416:1 417:1 460:1 461:1 462:1 
2.808316719370393 472:1 
9.38919299166243 487:1 
9.38919299166243 487:1 507:1 
2.6593625369923 168:1 169:1 416:1 417:1 460:1 461:1 462:1 
4.65293071856802 133:1 405:1 474:1 475:1 476:1 478:1 479:1 487:1 547:1 
0.3669847160983358 553:1 554:1 555:1 556:1 
1.382909587074929 46:1 579:1 580:1 
9.38919299166243 281:1 414:1 584:1 585:1 
4.573881283727395 553:1 554:1 555:1 556:1 
0.09142852752534435 148:1 628:1 629:1 630:1 631:1 
7.616880701937054 368:1 652:1 
2.725391396529356 46:1 119:1 289:1 316:1 458:1 602:1 603:1 606:1 607:1 622:1 623:1 673:1 
2.773883819593697 35:1 276:1 674:1 675:1 676:1 677:1 
0.3276252313395611 628:1 632:1 633:1 634:1 635:1 636:1 682:1 
6.207231664984135 148:1 628:1 629:1 630:1 631:1 
1.694910217047123 23:1 88:1 339:1 714:1 715:1 716:1 717:1 718:1 719:1 
3.662532075195911 133:1 138:1 144:1 773:1 
2.265718102581845 57:1 217:1 804:1 805:1 806:1 807:1 808:1 809:1 810:1 811:1 
9.38919299166243 29:1 119:1 158:1 842:1 843:1 
3.576618677278338 17:1 22:1 172:1 525:1 631:1 849:1 850:1 
2.716075196943997 28:1 107:1 151:1 339:1 832:1 877:1 
0.2273226519412484 10:1 784:1 884:1 885:1 886:1 887:1 888:1 889:1 
0.7428081161030158 94:1 927:1 928:1 
1.265051360520867 28:1 107:1 151:1 339:1 832:1 877:1 
3.144184135943443 22:1 537:1 638:1 943:1 944:1 945:1 946:1 
9.38919299166243 68:1 949:1 950:1 951:1 952:1 
4.690863882232623 10:1 784:1 884:1 885:1 886:1 887:1 888:1 889:1 
1.320492758711371 40:1 46:1 195:1 283:1 413:1 414:1 553:1 779:1 892:1 965:1 
4.241896993565076 118:1 247:1 248:1 668:1 997:1 998:1 
0.08470116118372603 78:1 283:1 284:1 285:1 1003:1 1004:1 1005:1 1006:1 1007:1 
3.473707869963285 434:1 553:1 554:1 589:1 1033:1 1034:1 1035:1 1036:1 
4.237584522206342 1058:1 1059:1 1060:1 1061:1 1062:1 1063:1 1064:1 1065:1 
1.619375844962232 107:1 426:1 528:1 1070:1 1071:1 1072:1 1073:1 1074:1 1075:1 
9.38919299166243 1076:1 
6.351916246774485 78:1 283:1 284:1 285:1 1003:1 1004:1 1005:1 1006:1 1007:1 
2.12547372651066 723:1 1078:1 1079:1 1080:1 1081:1 
3.734751996367017 159:1 552:1 1082:1 1083:1 1084:1 1085:1 1086:1 1087:1 1088:1 
8.688495833524069 150:1 567:1 642:1 1036:1 1103:1 1104:1 1105:1 1106:1 1107:1 
0.1522595853054423 118:1 260:1 393:1 539:1 668:1 669:1 670:1 920:1 
0.4367726893540835 321:1 1123:1 1124:1 1125:1 1126:1 1127:1 1128:1 1129:1 
0.215936045603827 53:1 119:1 919:1 1137:1 1138:1 1139:1 
2.351125004913912 653:1 1130:1 1155:1 
0.03925482316669251 1059:1 1060:1 1062:1 1156:1 1157:1 
0.4386835995829199 1160:1 1174:1 1175:1 1176:1 1177:1 1178:1 
3.52544952573909 321:1 1123:1 1124:1 1125:1 1126:1 1127:1 1128:1 1129:1 
1.891875063601891 1059:1 1060:1 1062:1 1156:1 1157:1 
9.38919299166243 363:1 1204:1 1205:1 
3.866888826811791 367:1 474:1 942:1 1206:1 
5.331747538443226 1160:1 1174:1 1175:1 1176:1 1177:1 1178:1 
0.7415820159661759 151:1 254:1 1225:1 1226:1 1227:1 
0.09743493980955824 29:1 927:1 1124:1 1125:1 1230:1 
0.6408450796864545 46:1 113:1 184:1 404:1 779:1 1237:1 1238:1 1239:1 
0.5356557340019591 46:1 113:1 184:1 404:1 779:1 1237:1 1238:1 1239:1 
0.7270616336129068 150:1 392:1 612:1 864:1 1267:1 1268:1 
0.05352470064330401 45:1 52:1 558:1 1016:1 1119:1 1279:1 1280:1 
1.152792484649457 1309:1 1310:1 1311:1 1312:1 
0.9644603744231445 44:1 832:1 1314:1 1315:1 1316:1 1317:1 
0.02362505250537379 119:1 381:1 644:1 683:1 717:1 1318:1 1319:1 
0.3974265776423153 222:1 612:1 1345:1 1346:1 1347:1 1348:1 1349:1 
6.86012239429265 819:1 1239:1 1362:1 
7.067834315284821 790:1 791:1 792:1 
9.38919299166243 1380:1 1381:1 1382:1 1383:1 1384:1 
0.9683668257680595 1236:1 1402:1 1403:1 1404:1 1405:1 1406:1 1407:1 1408:1 1409:1 
0.9733604562936181 77:1 567:1 1263:1 1264:1 1411:1 1412:1 
0.6614521173152119 329:1 330:1 507:1 1420:1 
1.769107933388963 77:1 119:1 1443:1 1444:1 1445:1 1446:1 
4.671207283196424 314:1 395:1 1458:1 
0.337452439951624 1430:1 1431:1 1462:1 
1.1075925557567 329:1 330:1 507:1 1420:1 
0.3067339379576101 180:1 431:1 456:1 458:1 459:1 1495:1 1496:1 1497:1 
0.4012725239296325 89:1 505:1 796:1 864:1 1498:1 
2.568334190069286 140:1 272:1 1503:1 1504:1 1505:1 1506:1 1507:1 
9.38919299166243 1523:1 
0.1647154564025478 89:1 302:1 355:1 1514:1 1515:1 1516:1 1517:1 1518:1 
2.085898732304372 365:1 1545:1 1546:1 1547:1 1548:1 1549:1 
2.085608152954549 426:1 509:1 510:1 1092:1 1313:1 1398:1 1559:1 1560:1 1561:1 1562:1 
0.7658809585371331 114:1 563:1 1564:1 
3.512409349169677 24:1 78:1 166:1 400:1 1368:1 1578:1 1579:1 1580:1 1581:1 
1.486781180904677 408:1 942:1 1611:1 1612:1 1613:1 1614:1 
9.38919299166243 69:1 119:1 603:1 960:1 1623:1 
4.611846642998392 1638:1 1639:1 1640:1 
9.38919299166243 1643:1 
1.990116711538438 86:1 88:1 558:1 664:1 1658:1 
1.631139004444845 916:1 1290:1 1557:1 1659:1 1660:1 1661:1 1662:1 
6.814878686565463 170:1 1469:1 1645:1 1677:1 1678:1 1679:1 1680:1 
0.3385680999687263 150:1 424:1 514:1 704:1 1714:1 1715:1 
9.38919299166243 122:1 294:1 627:1 1172:1 1749:1 
6.458057920071408 35:1 403:1 1752:1 1753:1 1754:1 1755:1 1756:1 
9.38919299166243 150:1 424:1 514:1 704:1 1714:1 1715:1 
9.38919299166243 159:1 1420:1 1773:1 1774:1 
9.38919299166243 112:1 118:1 668:1 808:1 1508:1 
1.318963605950745 78:1 159:1 864:1 919:1 1778:1 1779:1 1780:1 
6.307217339692556 189:1 291:1 935:1 1326:1 1721:1 1722:1 1723:1 1724:1 
1.035675827739747 575:1 651:1 801:1 1454:1 1785:1 
2.343651687217187 43:1 482:1 904:1 1487:1 1488:1 1800:1 1801:1 1802:1 1803:1 1804:1 1805:1 
4.374351226339696 526:1 678:1 997:1 1042:1 1261:1 1731:1 1732:1 1805:1 
5.571002195256266 19:1 233:1 960:1 1176:1 
2.396887710291612 43:1 1557:1 1643:1 1725:1 1822:1 1823:1 1824:1 1825:1 1826:1 
1.709043964444471 58:1 1845:1 1846:1 1847:1 1848:1 1849:1 1850:1 
1.883067802335116 42:1 199:1 1354:1 1557:1 1847:1 1853:1 1854:1 1855:1 1856:1 1857:1 
9.38919299166243 208:1 1502:1 1504:1 1557:1 1858:1 1859:1 1860:1 1861:1 1862:1 1863:1 
0.6627026100549533 437:1 627:1 1862:1 1917:1 1918:1 1919:1 1920:1 1921:1 
9.38919299166243 1557:1 
1.040642289377089 19:1 233:1 960:1 1176:1 
9.191053765061334 89:1 302:1 355:1 957:1 958:1 1002:1 1947:1 1948:1 1949:1 1950:1 
7.05842450376105 1003:1 1956:1 1957:1 1958:1 
2.236610088762159 370:1 1133:1 1940:1 1976:1 1977:1 1978:1 
9.38919299166243 349:1 779:1 1237:1 1989:1 1990:1 
9.38919299166243 1994:1 
1.497122349026021 133:1 391:1 1166:1 1617:1 1924:1 1926:1 2003:1 2004:1 
0.7710375142808992 386:1 544:1 1697:1 1741:1 1742:1 2023:1 
9.38919299166243 114:1 1121:1 1443:1 1533:1 2044:1 
4.170221379707042 172:1 552:1 741:1 2025:1 2026:1 
0.2459993542798579 195:1 331:1 1246:1 1503:1 2070:1 2071:1 
1.213263837730992 19:1 217:1 446:1 826:1 2078:1 2097:1 2098:1 2099:1 
1.415747277226912 23:1 331:1 1152:1 2103:1 2104:1 2105:1 2106:1 
4.151126074907472 1741:1 2123:1 
9.38919299166243 1928:1 
5.74151902090646 707:1 2147:1 2148:1 
3.405240658853349 45:1 153:1 1283:1 1400:1 2162:1 2163:1 2164:1 2165:1 
1.739710232777512 39:1 43:1 792:1 1259:1 2168:1 2171:1 2172:1 2173:1 2174:1 2175:1 
4.185771897568853 1188:1 2196:1 2197:1 2198:1 2199:1 
2.508768853547132 35:1 2016:1 2217:1 2227:1 2228:1 2229:1 2230:1 
9.38919299166243 2084:1 2233:1 
2.17629844118729 2236:1 2237:1 
1.958604840735112 1291:1 2234:1 2246:1 2247:1 
0.3203813407533552 77:1 883:1 1339:1 2238:1 2249:1 
9.38919299166243 393:1 2253:1 2254:1 2255:1 
0.9628469387704489 43:1 317:1 482:1 779:1 1990:1 2259:1 
2.591508184933879 210:1 531:1 537:1 704:1 1822:1 2010:1 2271:1 2272:1 2273:1 2274:1 2275:1 
7.49170280175418 151:1 616:1 2012:1 2277:1 
7.89651374180558 1188:1 2196:1 2197:1 2198:1 2199:1 
2.133915221485081 119:1 223:1 383:1 384:1 517:1 650:1 2279:1 
0.429886550872073 864:1 955:1 1779:1 2280:1 2281:1 
6.375422971401859 89:1 114:1 147:1 187:1 704:1 1181:1 2299:1 
6.613931629677052 89:1 481:1 1333:1 2166:1 2300:1 2301:1 2302:1 2303:1 
5.351607517920797 45:1 53:1 114:1 229:1 704:1 1306:1 1633:1 2260:1 2304:1 2305:1 2306:1 
6.407868677276654 107:1 902:1 1436:1 2240:1 2308:1 
0.4579258844409885 259:1 391:1 457:1 2309:1 2310:1 2311:1 
3.645208037056113 908:1 2121:1 
0.05999754686065953 138:1 637:1 2336:1 2337:1 
4.094587430123232 456:1 488:1 1072:1 1428:1 1762:1 2329:1 2338:1 2339:1 2340:1 
1.281744229658339 180:1 195:1 612:1 770:1 1196:1 1528:1 2009:1 2331:1 
8.16687206840666 1058:1 1454:1 1702:1 1849:1 1992:1 
0.2354357952830668 608:1 609:1 883:1 2042:1 2358:1 2359:1 
4.64766074616457 106:1 114:1 446:1 1508:1 2364:1 
0.3854337126719804 644:1 2365:1 2366:1 2367:1 
0.4582449320284937 79:1 86:1 88:1 1270:1 1694:1 2287:1 2368:1 2369:1 2370:1 2371:1 2372:1 
0.5470156584069739 219:1 442:1 443:1 2211:1 2376:1 
5.18952743915173 79:1 151:1 2382:1 
1.877369916328501 107:1 233:1 2388:1 2389:1 2390:1 2391:1 
0.8613367227899247 144:1 195:1 404:1 1029:1 1482:1 2404:1 
0.1898514134171447 994:1 1029:1 1030:1 1136:1 2413:1 
4.101149463762314 404:1 569:1 779:1 829:1 919:1 2431:1 2432:1 
2.513817104032195 81:1 1338:1 1480:1 2182:1 2433:1 
5.031377297152567 994:1 1029:1 1030:1 1136:1 2413:1 
3.8651411181102 151:1 294:1 333:1 2405:1 2406:1 2407:1 
0.4920348652831623 44:1 58:1 2438:1 2439:1 
6.135118145489341 2042:1 2444:1 2445:1 
0.5953778872044679 412:1 548:1 1541:1 1792:1 1793:1 2446:1 2447:1 
0.9453609069178962 138:1 637:1 2336:1 2337:1 
8.210333488250347 883:1 1120:1 1151:1 1955:1 2097:1 2476:1 2477:1 
3.148677157816962 17:1 505:1 1317:1 2480:1 2481:1 
0.2290399530574764 138:1 637:1 639:1 1952:1 2336:1 2337:1 2491:1 2492:1 
1.020246507874325 19:1 335:1 442:1 443:1 639:1 651:1 2027:1 2191:1 2497:1 2498:1 
2.701018637621746 412:1 548:1 1541:1 1792:1 1793:1 2446:1 2447:1 
2.558627349790046 1106:1 1610:1 1785:1 1786:1 2525:1 
0.04210932216374265 138:1 144:1 257:1 1251:1 1332:1 1809:1 2539:1 2540:1 2541:1 
1.312676131710172 289:1 525:1 2550:1 2551:1 2552:1 2553:1 
1.447133740056128 79:1 627:1 2502:1 
8.604524814417344 787:1 831:1 1475:1 2559:1 2560:1 2561:1 
4.1833827489769 151:1 612:1 773:1 2365:1 
6.152731139118332 2583:1 
3.189194278499893 1378:1 
1.588399883638398 756:1 1697:1 2023:1 2619:1 
3.006011392547169 614:1 1072:1 2352:1 2353:1 2354:1 
9.38919299166243 626:1 2635:1 2636:1 2637:1 
4.228199404214211 1775:1 2391:1 2638:1 2639:1 
2.563436820866727 77:1 236:1 268:1 1158:1 2154:1 2647:1 2648:1 
2.625520304869215 7:1 68:1 233:1 2601:1 2602:1 2603:1 
1.525086951349305 22:1 539:1 648:1 2673:1 2674:1 
4.589027221010068 515:1 864:1 1875:1 2280:1 2281:1 2643:1 2644:1 
4.990913621310364 7:1 68:1 233:1 2601:1 2602:1 2603:1 
0.0009486669771969367 28:1 1450:1 2675:1 2676:1 
1.675695861831804 77:1 960:1 1062:1 2447:1 2457:1 2688:1 2689:1 2690:1 
4.473908310982064 1382:1 2694:1 2695:1 2696:1 2697:1 2698:1 
6.711314691281422 2714:1 2715:1 2716:1 
2.716038378702582 539:1 2051:1 2052:1 2655:1 2673:1 2674:1 
0.577094013521686 44:1 195:1 302:1 597:1 1578:1 2005:1 2722:1 
1.683271942475202 648:1 1036:1 2738:1 2739:1 
0.7656743027008014 356:1 1786:1 2726:1 2727:1 
7.697404624494609 181:1 1634:1 2252:1 2735:1 
4.291171526784826 114:1 881:1 1062:1 1133:1 2552:1 2794:1 
1.316787019211345 79:1 715:1 
8.482045467860125 249:1 1653:1 
1.369690097328274 257:1 649:1 1148:1 2808:1 2809:1 
1.132623289386514 119:1 334:1 602:1 603:1 649:1 1496:1 2820:1 
8.20081763894437 430:1 1092:1 1687:1 2821:1 2822:1 2823:1 2824:1 2825:1 
5.026037956730807 1846:1 2826:1 
0.9930016827765878 22:1 474:1 1124:1 1125:1 1262:1 2828:1 2837:1 
3.998412105084848 19:1 1761:1 2040:1 2847:1 2848:1 2849:1 
1.039190630991164 119:1 334:1 602:1 603:1 649:1 1496:1 2820:1 
4.476773721349169 257:1 649:1 1148:1 2808:1 2809:1 
3.585947885552597 8:1 38:1 88:1 439:1 1099:1 2854:1 2855:1 
4.858059825575124 28:1 150:1 292:1 558:1 638:1 1188:1 2856:1 2857:1 2858:1 2859:1 2860:1 
9.38919299166243 249:1 1653:1 
0.4192477927284873 151:1 333:1 710:1 2872:1 2873:1 
1.681816807166423 528:1 637:1 983:1 2875:1 2876:1 
0.6672602919321409 29:1 927:1 1124:1 1125:1 1230:1 
0.2590168390636401 19:1 1761:1 2040:1 2847:1 2848:1 2849:1 
2.298353362648441 710:1 1818:1 2888:1 
0.9159853167609019 347:1 348:1 693:1 769:1 2169:1 2322:1 2894:1 2895:1 2896:1 2897:1 
0.4614463618447366 91:1 409:1 777:1 801:1 1644:1 2907:1 2908:1 2909:1 2910:1 
3.957118905035085 236:1 2453:1 2847:1 2848:1 2926:1 
9.38919299166243 1130:1 1155:1 
7.201693965208568 22:1 109:1 2962:1 2963:1 2964:1 
1.27777207054369 755:1 2966:1 
9.38919299166243 176:1 303:1 412:1 543:1 548:1 1541:1 
2.769891827315795 22:1 205:1 392:1 2981:1 
3.987016332565163 386:1 1651:1 2957:1 2974:1 
4.746979891152244 558:1 2988:1 
0.5840114124819568 119:1 602:1 603:1 1440:1 
0.1045356164495099 44:1 699:1 2649:1 2990:1 
3.811656112163233 331:1 2533:1 2994:1 
4.72986220816756 159:1 207:1 3004:1 3005:1 3006:1 
4.095894097857131 409:1 649:1 801:1 2043:1 3008:1 
0.681684204200813 558:1 2988:1 
2.377528796049158 46:1 445:1 649:1 1792:1 3009:1 3010:1 
2.079389400458456 15:1 537:1 944:1 960:1 1660:1 3015:1 3016:1 
1.348647587591459 19:1 527:1 741:1 847:1 2383:1 2572:1 3017:1 
8.439985129598284 3028:1 3029:1 
0.04593505150155729 2890:1 
4.178223889620813 38:1 723:1 1030:1 1813:1 1827:1 2156:1 3045:1 
5.19039288824875 110:1 567:1 2201:1 3047:1 3048:1 
0.2642799606559362 107:1 158:1 1725:1 2251:1 3050:1 
9.38919299166243 77:1 159:1 779:1 872:1 3054:1 
1.891141692560699 22:1 28:1 328:1 1449:1 3055:1 
3.511326409960088 77:1 542:1 1120:1 3060:1 3061:1 3062:1 
2.163381633546348 222:1 268:1 3074:1 
0.5446825152460948 2269:1 3075:1 3076:1 
1.008464728170152 119:1 180:1 458:1 1058:1 1697:1 1953:1 3082:1 3083:1 
0.1992545847824615 291:1 626:1 2273:1 2620:1 
9.38919299166243 180:1 249:1 414:1 
2.07042944098579 345:1 456:1 460:1 461:1 462:1 3079:1 
0.106466571567318 2691:1 2692:1 3096:1 
0.3701711970980467 713:1 3024:1 
3.4403570373377 43:1 45:1 1883:1 2689:1 2818:1 2819:1 3018:1 3106:1 
5.011969924942063 339:1 999:1 1041:1 2594:1 
0.02216235190799005 291:1 626:1 2273:1 2620:1 2621:1 2622:1 2623:1 
1.090960608882463 156:1 223:1 909:1 2201:1 2279:1 2434:1 2857:1 3112:1 
9.38919299166243 180:1 249:1 414:1 
0.009205958573360089 291:1 626:1 2273:1 2620:1 2621:1 2622:1 2623:1 
8.25653896506549 151:1 319:1 908:1 987:1 
6.467562593372866 43:1 143:1 189:1 814:1 881:1 1188:1 2818:1 2819:1 3018:1 
0.489249829455672 94:1 1352:1 
0.9404535517366428 118:1 517:1 668:1 1792:1 3153:1 
2.606630865451637 1453:1 1581:1 3122:1 3154:1 3155:1 
2.932870155081023 673:1 870:1 3134:1 3159:1 
4.972552435314803 2691:1 2692:1 3096:1 
3.61422815394199 11:1 488:1 641:1 3162:1 3163:1 3164:1 
2.234887628074157 11:1 68:1 78:1 395:1 3144:1 
0.6815188055179545 253:1 601:1 821:1 1130:1 3171:1 
4.956431090291794 249:1 604:1 3197:1 
3.924563202889621 22:1 72:1 119:1 2383:1 3166:1 
1.404295774717451 44:1 165:1 528:1 1469:1 1695:1 2740:1 3092:1 3198:1 
3.290920746639424 11:1 488:1 641:1 3162:1 3163:1 3164:1 
9.38919299166243 110:1 158:1 1761:1 2842:1 3199:1 3200:1 3201:1 
6.781492929800073 77:1 649:1 3203:1 
0.564236118303778 57:1 62:1 601:1 813:1 1156:1 1357:1 1496:1 1666:1 2357:1 3205:1 3206:1 
9.38919299166243 253:1 601:1 
2.234658909132114 77:1 114:1 445:1 3100:1 3211:1 
5.63437580240719 151:1 3212:1 3213:1 
0.0003042464064981802 44:1 699:1 2649:1 2990:1 
2.776076011633544 213:1 214:1 908:1 1445:1 2052:1 3214:1 
5.360679171029842 2576:1 3232:1 
1.257560905669418 327:1 804:1 3234:1 3235:1 
3.208987047295202 44:1 699:1 2649:1 2990:1 
7.524704860542912 713:1 3024:1 
5.53501619899329 234:1 656:1 3262:1 
9.38919299166243 339:1 999:1 1041:1 2594:1 
3.98057309827577 119:1 3265:1 3266:1 
1.302864515522415 15:1 49:1 128:1 340:1 1071:1 1080:1 3271:1 3272:1 3273:1 3274:1 
7.319518931436368 157:1 460:1 
0.3417406338754152 1133:1 3098:1 3280:1 3281:1 
3.876293867431126 15:1 49:1 128:1 340:1 1071:1 1080:1 3271:1 3272:1 3273:1 3274:1 
5.894815234814207 7:1 712:1 1200:1 2039:1 3296:1 
1.441699252000947 3299:1 3300:1 3301:1 3302:1 
0.8345251015494634 22:1 79:1 292:1 558:1 1176:1 1470:1 1584:1 3303:1 3304:1 3305:1 3306:1 3307:1 
0.0735586841729578 11:1 79:1 3315:1 3316:1 3317:1 
2.369077835790025 157:1 460:1 
1.27672462225873 106:1 305:1 537:1 944:1 1313:1 1684:1 3333:1 
1.145358844433239 498:1 1058:1 1120:1 1495:1 3338:1 
8.158944267671417 68:1 552:1 612:1 649:1 
5.307776300852275 11:1 79:1 3315:1 3316:1 3317:1 
0.2027671536548154 794:1 1503:1 1593:1 1670:1 2095:1 2731:1 3368:1 3369:1 3370:1 3371:1 
0.8463657416475434 794:1 1503:1 1593:1 1670:1 2095:1 2731:1 3368:1 3369:1 3370:1 3371:1 
1.110417090059313 77:1 119:1 1466:1 2044:1 2048:1 3313:1 3379:1 
2.278253996305329 253:1 952:1 1338:1 3351:1 3390:1 3391:1 
7.693106230044143 262:1 540:1 742:1 
0.3428133863194421 608:1 609:1 651:1 1928:1 3400:1 3401:1 
0.8248939956614497 128:1 172:1 259:1 528:1 3402:1 3403:1 
2.921289396871998 22:1 498:1 948:1 1121:1 2155:1 2681:1 3419:1 
0.6634787014326003 150:1 1104:1 1154:1 1195:1 3411:1 3420:1 
2.330736566802142 150:1 1104:1 1154:1 1195:1 3411:1 3420:1 
2.059085492743308 983:1 1775:1 2806:1 2845:1 
0.6556746670180105 1108:1 1121:1 1446:1 3431:1 3432:1 3439:1 3440:1 
6.80715687410074 44:1 2438:1 2439:1 3437:1 3438:1 
2.875486490743909 983:1 1775:1 2806:1 2845:1 
0.1942666096694799 2280:1 2530:1 3468:1 3473:1 3474:1 3475:1 3476:1 
6.549025252608931 604:1 612:1 3418:1 
1.079770145368561 358:1 742:1 779:1 932:1 1747:1 2651:1 3483:1 3484:1 3485:1 
1.306105228657131 616:1 2280:1 2293:1 3257:1 3468:1 3486:1 
0.1115828550353453 616:1 1532:1 2458:1 2616:1 3002:1 3063:1 3332:1 
0.6441760586187094 537:1 876:1 944:1 2106:1 3498:1 3499:1 3500:1 
1.546887181420469 3506:1 
2.28436881260262 118:1 303:1 461:1 528:1 668:1 787:1 915:1 3508:1 
3.069320226394332 93:1 1045:1 2410:1 3509:1 3510:1 3511:1 
0.003863210190804464 616:1 1532:1 2458:1 2616:1 3002:1 3063:1 3332:1 
1.782167185775544 409:1 971:1 1036:1 1529:1 
0.9535626188338058 1498:1 2117:1 2472:1 
2.094320986787632 455:1 3357:1 3523:1 3524:1 
0.8410783358622331 232:1 1192:1 1689:1 3489:1 3530:1 
4.985000726941158 151:1 254:1 3535:1 
2.054032134244069 44:1 341:1 706:1 2765:1 2956:1 3537:1 3538:1 
0.4257158794589368 2714:1 3542:1 3543:1 
1.689656042346997 558:1 856:1 954:1 955:1 1087:1 1088:1 3545:1 
3.829110831581599 94:1 927:1 928:1 
5.175339018197313 291:1 292:1 1898:1 2868:1 3577:1 3578:1 3579:1 
2.274077771722233 17:1 607:1 974:1 2982:1 3580:1 3581:1 3582:1 3583:1 
0.03363168329136457 386:1 2188:1 3593:1 3594:1 3595:1 3596:1 
0.475760720323228 113:1 128:1 339:1 3598:1 3599:1 
3.743868838556318 386:1 2188:1 3593:1 3594:1 3595:1 3596:1 
3.618434286171433 113:1 128:1 339:1 3598:1 3599:1 
1.673930520054593 627:1 1530:1 3439:1 3613:1 
6.799238532917633 3291:1 3614:1 3615:1 
0.06936723349296971 79:1 514:1 515:1 516:1 787:1 1181:1 3540:1 3541:1 
3.143450263443302 3625:1 3626:1 
2.487984702329058 596:1 597:1 3627:1 3628:1 
3.618946810826979 180:1 637:1 1105:1 1106:1 1495:1 1534:1 1535:1 2437:1 
0.0595301826400096 151:1 953:1 3643:1 3644:1 
0.2311651314282687 831:1 3660:1 3661:1 
9.094064124797393 653:1 1130:1 1155:1 
4.504105742918295 103:1 416:1 461:1 2702:1 3508:1 3662:1 
1.125792655868495 445:1 2374:1 3566:1 3663:1 3664:1 
5.38801900853117 19:1 79:1 833:1 904:1 3559:1 
0.08534132384345884 328:1 1005:1 3669:1 3670:1 3671:1 3672:1 
9.38919299166243 79:1 236:1 616:1 3357:1 
0.29401818412097 445:1 2374:1 3566:1 3663:1 3664:1 
0.1256459769467778 59:1 180:1 637:1 639:1 3689:1 
3.447373149422575 68:1 1996:1 3291:1 
0.07996047685894431 22:1 628:1 685:1 1464:1 2052:1 2991:1 3696:1 
0.2207399994317349 328:1 1005:1 3669:1 3670:1 3671:1 3672:1 
4.853428437526078 518:1 658:1 1686:1 1687:1 3537:1 
7.180241405504283 1310:1 1494:1 3712:1 
0.152890532531045 22:1 628:1 685:1 1464:1 2052:1 2991:1 3696:1 
1.784980020482397 109:1 860:1 875:1 876:1 1096:1 1211:1 
0.4202937341258303 76:1 77:1 648:1 2377:1 2447:1 3716:1 3717:1 3718:1 
3.735497114542286 118:1 542:1 648:1 668:1 2991:1 
0.7906333199737848 124:1 147:1 324:1 923:1 2672:1 3699:1 3700:1 3724:1 3725:1 
1.614928086114311 114:1 657:1 902:1 2266:1 2318:1 
0.2593866134631708 715:1 3735:1 
0.8307553209128066 406:1 629:1 850:1 2003:1 2079:1 2080:1 3743:1 
2.855098686941296 94:1 927:1 928:1 
1.426717724758437 43:1 2640:1 3749:1 3750:1 
2.135546154282321 342:1 531:1 2576:1 3752:1 
4.766008407910202 46:1 133:1 134:1 363:1 1686:1 2191:1 3753:1 
1.690785839555458 189:1 448:1 3754:1 
9.38919299166243 7:1 68:1 2457:1 3760:1 
2.407760793779353 19:1 222:1 237:1 1465:1 1687:1 1751:1 
0.2370592253524939 15:1 207:1 602:1 603:1 957:1 2055:1 3767:1 3768:1 
2.408088510178903 321:1 900:1 1099:1 2135:1 2290:1 3215:1 
9.254152139701503 38:1 612:1 1181:1 1313:1 1507:1 3773:1 3774:1 3775:1 3776:1 3777:1 
1.563228148371383 77:1 648:1 3049:1 3781:1 
2.836381246101307 1485:1 3788:1 
0.2704175551345708 43:1 2011:1 3755:1 3795:1 
0.6076752912193718 2051:1 2531:1 2532:1 3803:1 3804:1 3805:1 
3.089404841527823 642:1 1108:1 2141:1 2142:1 3049:1 3806:1 
0.181052560146342 567:1 1226:1 1928:1 3808:1 3809:1 3810:1 
0.4540899318219938 114:1 226:1 1443:1 3821:1 
3.060941252272253 29:1 409:1 873:1 875:1 2224:1 3823:1 3824:1 
4.74220382993041 331:1 540:1 1308:1 1600:1 3090:1 3825:1 
0.137789254282098 184:1 212:1 409:1 649:1 3676:1 3831:1 
1.477868291800343 331:1 2106:1 3280:1 3832:1 
8.974803726995784 158:1 1728:1 2554:1 3833:1 
0.7921594922818601 76:1 780:1 3649:1 3834:1 3835:1 3836:1 3837:1 3838:1 
1.644587939359969 19:1 71:1 223:1 1468:1 2192:1 3825:1 
0.02751127610559541 409:1 612:1 1313:1 3848:1 3849:1 3850:1 
1.635651465791375 315:1 3236:1 3419:1 3868:1 
1.340718921667763 22:1 156:1 1143:1 2148:1 3870:1 3871:1 3872:1 
3.727484998154448 151:1 496:1 3873:1 3874:1 
0.006441284198149358 409:1 612:1 1313:1 3848:1 3849:1 3850:1 
6.606992687062802 236:1 2453:1 
4.433438495298346 189:1 223:1 3656:1 3868:1 
0.527231936515865 756:1 899:1 1781:1 2023:1 2619:1 2884:1 3887:1 3888:1 3889:1 
0.9748661459131839 2495:1 2500:1 3893:1 3894:1 
1.815118264736848 113:1 917:1 923:1 955:1 3901:1 
0.6735319088879811 954:1 955:1 3715:1 3902:1 3903:1 
2.945162508504756 456:1 458:1 1539:1 1610:1 1643:1 3723:1 3913:1 
0.4668422895547091 561:1 562:1 563:1 3914:1 
0.3368131208416089 107:1 268:1 915:1 1113:1 3916:1 
1.732712653679398 1540:1 2269:1 
3.107263165178614 2689:1 3029:1 3910:1 3911:1 
1.461571937193693 43:1 482:1 953:1 955:1 1567:1 1828:1 2009:1 3858:1 3859:1 
0.5418083941698025 45:1 52:1 53:1 1000:1 3871:1 3938:1 3939:1 
1.039056041728568 528:1 1093:1 3941:1 
9.318236317422762 19:1 250:1 741:1 3945:1 
2.38041263814161 1532:1 3931:1 3932:1 
1.837666628902209 1062:1 2975:1 3947:1 3948:1 3949:1 3950:1 
9.38919299166243 2717:1 
0.4225274287780194 409:1 590:1 649:1 833:1 2689:1 2692:1 3948:1 3971:1 3972:1 3973:1 
1.412177329891047 150:1 184:1 393:1 424:1 704:1 2689:1 3318:1 
3.365299805472659 528:1 1093:1 3941:1 
1.366986257457763 45:1 52:1 53:1 1680:1 3981:1 
0.9361402822965326 409:1 590:1 649:1 833:1 2689:1 2692:1 3948:1 3971:1 3972:1 3973:1 
0.4790591702679153 322:1 3009:1 3798:1 3942:1 3990:1 3991:1 3992:1 
2.696670380427955 22:1 77:1 180:1 639:1 948:1 1443:1 
2.864718628987188 254:1 1326:1 1643:1 2201:1 3656:1 3958:1 
0.8451074209970293 1140:1 1653:1 3969:1 3970:1 
2.652703966312691 328:1 600:1 657:1 3624:1 3671:1 3672:1 4014:1 
3.453403171346687 44:1 218:1 974:1 1315:1 1316:1 4019:1 4020:1 4021:1 4022:1 4023:1 
0.4975113583653391 768:1 1558:1 1587:1 1949:1 4024:1 4025:1 4026:1 
9.38919299166243 156:1 321:1 426:1 4030:1 4031:1 
0.1313564728315268 233:1 2878:1 4032:1 4033:1 
9.38919299166243 323:1 458:1 459:1 1015:1 1438:1 2630:1 3247:1 
2.244975823048328 774:1 3656:1 4046:1 
0.7788106315965414 40:1 640:1 1313:1 3825:1 4053:1 4054:1 
0.06251858979256898 44:1 1680:1 2089:1 3501:1 4068:1 4069:1 4070:1 
4.965542290924764 292:1 627:1 1411:1 4087:1 
0.7350209076480902 289:1 612:1 639:1 2809:1 2950:1 4063:1 4097:1 
4.46318073399647 329:1 330:1 567:1 721:1 1312:1 2132:1 4100:1 4101:1 4102:1 
3.558760508015167 3902:1 4106:1 4107:1 4108:1 
3.72640084670643 1242:1 4113:1 4114:1 
2.681569508866728 39:1 40:1 78:1 266:1 1109:1 1136:1 1200:1 1288:1 2689:1 4115:1 4116:1 4117:1 4118:1 4119:1 
2.72942228240817 586:1 633:1 1643:1 4134:1 4135:1 4136:1 
2.455763517979308 245:1 699:1 775:1 859:1 1834:1 3347:1 3694:1 4140:1 4141:1 4142:1 4143:1 4144:1 
2.246387017235282 826:1 1505:1 4150:1 4151:1 
2.529602049181462 29:1 43:1 482:1 1079:1 2847:1 2848:1 4152:1 4153:1 4154:1 
1.619468263352334 323:1 2720:1 4167:1 4168:1 4169:1 
0.6349357493626898 44:1 1680:1 2089:1 3501:1 4068:1 4069:1 4070:1 
3.854362084110813 329:1 330:1 567:1 721:1 1312:1 2132:1 4100:1 4101:1 4102:1 
1.15026546556533 7:1 23:1 115:1 616:1 761:1 1828:1 4191:1 4192:1 4193:1 
4.427684726837127 39:1 40:1 530:1 4212:1 
0.1838258824171147 196:1 3441:1 4213:1 
2.458509355105991 289:1 612:1 639:1 2809:1 2950:1 4063:1 4097:1 
1.079946997276917 22:1 291:1 366:1 2291:1 2865:1 4217:1 
0.416255601616291 71:1 313:1 316:1 1828:1 4236:1 
1.728733345364086 765:1 941:1 956:1 1563:1 2019:1 2576:1 3752:1 4214:1 4240:1 
3.06290073407329 832:1 3621:1 4241:1 
2.365311038126648 7:1 23:1 89:1 94:1 194:1 335:1 1689:1 4294:1 
1.158032641401496 86:1 425:1 902:1 908:1 1784:1 1906:1 3064:1 3312:1 4315:1 4316:1 4317:1 4318:1 4319:1 4320:1 
0.2328175234095838 43:1 189:1 325:1 789:1 1518:1 1646:1 2519:1 3416:1 4263:1 4264:1 
9.38919299166243 46:1 81:1 436:1 3332:1 
1.649794085692843 4339:1 4340:1 
2.423537762711872 442:1 443:1 2306:1 3622:1 4343:1 
3.477346597503844 7:1 94:1 286:1 328:1 847:1 4344:1 
0.08934479804699068 62:1 2357:1 3205:1 4351:1 
5.124546369192181 426:1 821:1 908:1 4341:1 4354:1 4355:1 
2.656411989751594 4339:1 4340:1 
0.0491985085570717 1162:1 1163:1 1828:1 2856:1 3053:1 3108:1 3109:1 
0.0365285614037113 22:1 288:1 720:1 2658:1 2931:1 4381:1 4382:1 4383:1 4384:1 
6.53733452017533 329:1 528:1 1890:1 3577:1 
4.06821159932548 39:1 40:1 42:1 43:1 965:1 4397:1 
7.346743011746669 316:1 409:1 590:1 1576:1 
3.067423841035804 2343:1 4299:1 4424:1 4425:1 4426:1 
2.021502041322122 664:1 3892:1 4434:1 
1.8492032989283 71:1 2382:1 4109:1 4110:1 
9.018548265723778 100:1 288:1 636:1 638:1 1149:1 1846:1 
1.980729099646389 436:1 601:1 681:1 1666:1 4443:1 4444:1 
0.585011483913279 612:1 848:1 2558:1 2650:1 3763:1 4058:1 4327:1 
0.1192968588921907 53:1 254:1 472:1 2025:1 3093:1 4458:1 4459:1 
2.249290753269737 100:1 124:1 327:1 4474:1 4475:1 
4.521085705674493 100:1 1897:1 4481:1 4482:1 4483:1 4484:1 4485:1 
3.098479014446163 189:1 391:1 1666:1 2530:1 3414:1 4486:1 
1.246989855893508 39:1 40:1 266:1 412:1 548:1 1109:1 1115:1 1705:1 2072:1 2078:1 2306:1 4119:1 4283:1 4491:1 4492:1 4493:1 4494:1 4495:1 
0.9098315126963711 327:1 4505:1 
0.008280181943956359 22:1 288:1 720:1 2658:1 2931:1 4381:1 4382:1 4383:1 4384:1 
0.274062863239175 77:1 369:1 537:1 2010:1 
7.039904715180051 249:1 323:1 2404:1 2720:1 
0.05243461927832527 439:1 737:1 2629:1 4561:1 4562:1 4563:1 4564:1 4565:1 
4.927787469899635 406:1 1472:1 1898:1 2982:1 3522:1 4234:1 4566:1 
0.6161066108098975 193:1 291:1 3082:1 
1.825854491057439 2121:1 2353:1 2417:1 
0.9944015328239254 329:1 330:1 1645:1 1933:1 3784:1 4576:1 4577:1 
0.5634151326035834 144:1 1104:1 3077:1 4596:1 4597:1 4598:1 4599:1 4600:1 4601:1 
0.02120393197364682 22:1 288:1 720:1 2658:1 2931:1 4381:1 4382:1 4383:1 4384:1 
3.612290726871755 7:1 287:1 1363:1 4183:1 4608:1 
5.531410312493522 2721:1 4387:1 4388:1 4389:1 
0.2438581959257803 1294:1 1470:1 1471:1 4239:1 4629:1 
0.3577772513364699 136:1 196:1 1470:1 1471:1 2304:1 3237:1 4239:1 4633:1 
1.595748470881051 952:1 1072:1 4066:1 4067:1 
1.974334256757286 94:1 419:1 2417:1 3768:1 4640:1 4641:1 
0.05207997621043259 7:1 114:1 147:1 564:1 738:1 1319:1 1470:1 4271:1 4361:1 
2.482408168536017 210:1 558:1 1172:1 1223:1 4667:1 
9.38919299166243 388:1 787:1 2216:1 
7.588351001415775 119:1 923:1 4509:1 4510:1 4624:1 
2.435613515274708 286:1 709:1 809:1 3357:1 4639:1 4689:1 
1.809049360489354 914:1 1298:1 1314:1 1480:1 1760:1 2088:1 2278:1 4212:1 4691:1 
0.06902898881204449 22:1 79:1 210:1 229:1 1072:1 4699:1 4700:1 
5.116995955420851 7:1 147:1 210:1 213:1 214:1 569:1 832:1 
1.444297188607837 7:1 412:1 507:1 548:1 2823:1 4710:1 4711:1 
0.4367434444988469 272:1 557:1 1014:1 1270:1 1634:1 2721:1 4388:1 
1.304290857479806 419:1 558:1 2658:1 4627:1 4715:1 4716:1 
1.666557005345786 53:1 114:1 2549:1 3937:1 4030:1 4209:1 
0.1479145256599546 107:1 186:1 286:1 331:1 412:1 548:1 951:1 1188:1 2078:1 3361:1 4721:1 4722:1 
1.969516298686596 7:1 210:1 546:1 569:1 832:1 2304:1 4724:1 
0.3514211472780679 100:1 444:1 2005:1 3730:1 4753:1 4754:1 4755:1 
0.8918999621399626 1220:1 1646:1 4324:1 4351:1 4759:1 4760:1 
4.479185740389165 7:1 286:1 308:1 688:1 689:1 1789:1 4757:1 4758:1 
0.3245203265770066 147:1 459:1 625:1 1332:1 2403:1 4743:1 4766:1 4767:1 4768:1 
0.7484360255156294 444:1 1465:1 4616:1 
9.38919299166243 329:1 330:1 1645:1 
0.3628001340742426 133:1 231:1 422:1 810:1 987:1 3053:1 4784:1 
0.9211586777035095 22:1 251:1 700:1 4120:1 4796:1 
1.631565890431252 331:1 412:1 548:1 927:1 1188:1 3936:1 4800:1 
2.449657132573281 2074:1 2558:1 3300:1 3391:1 4010:1 4801:1 4802:1 4803:1 
2.798100481445363 226:1 381:1 542:1 884:1 1527:1 1890:1 4390:1 4812:1 4813:1 
0.8871743109699497 19:1 79:1 373:1 715:1 2614:1 4521:1 4833:1 
0.560752785658639 42:1 189:1 356:1 450:1 451:1 452:1 453:1 4834:1 
3.501868185080394 229:1 1519:1 1880:1 3049:1 3730:1 4843:1 4844:1 4845:1 4846:1 
3.222133128597469 43:1 262:1 378:1 379:1 1228:1 3513:1 3778:1 4118:1 4851:1 
1.597193074660712 317:1 768:1 1188:1 1301:1 2662:1 3261:1 
4.771345694500527 4863:1 
6.744731310867939 4113:1 4865:1 4866:1 
1.914162436257154 3222:1 4871:1 4873:1 4874:1 
0.3201698242046441 43:1 482:1 1089:1 1191:1 3085:1 3568:1 4875:1 4876:1 
1.0770119004159 77:1 442:1 443:1 1135:1 1631:1 1954:1 2675:1 4877:1 4878:1 
0.8188236309508113 201:1 451:1 4879:1 
0.8213547256003059 2395:1 4510:1 4887:1 4888:1 4889:1 4890:1 
5.95582803850245 957:1 1865:1 2055:1 2104:1 2255:1 2689:1 4893:1 
1.429817562835942 437:1 548:1 2078:1 4901:1 4902:1 
0.9921441282472483 586:1 1136:1 3575:1 4912:1 
9.38919299166243 569:1 575:1 1455:1 2366:1 4926:1 4927:1 
3.784779049702371 1387:1 4770:1 4928:1 4929:1 
0.9020341679763362 19:1 4932:1 4933:1 4934:1 4935:1 
9.38919299166243 454:1 601:1 831:1 935:1 1383:1 1721:1 
2.381547034346884 249:1 288:1 657:1 816:1 1140:1 1865:1 1882:1 3258:1 4363:1 4909:1 4945:1 
7.751903073883595 77:1 114:1 158:1 442:1 443:1 848:1 1631:1 
1.98014628028317 329:1 486:1 1259:1 1331:1 2233:1 4951:1 
3.498261069962853 41:1 419:1 558:1 575:1 2242:1 2410:1 4575:1 
0.8387930555224435 444:1 1261:1 1646:1 
0.7871372622805496 173:1 409:1 548:1 569:1 1043:1 1341:1 4955:1 4956:1 
1.466720647004899 43:1 587:1 2042:1 2078:1 4965:1 4966:1 4967:1 
2.404971587153832 409:1 509:1 548:1 569:1 575:1 1341:1 2760:1 3109:1 4198:1 4968:1 
4.014109688514631 119:1 133:1 1343:1 1567:1 1721:1 2373:1 3053:1 3229:1 4977:1 
1.865384913855513 1761:1 4980:1 4981:1 4982:1 
0.962802641843201 119:1 639:1 683:1 1438:1 4761:1 4983:1 
0.4109240975340289 24:1 119:1 850:1 1338:1 4987:1 
0.01248733015623509 184:1 482:1 1789:1 3008:1 4149:1 4447:1 4448:1 5015:1 
1.384778932944886 329:1 330:1 1176:1 3534:1 3686:1 5032:1 5033:1 
0.5379329221416369 233:1 405:1 527:1 980:1 2616:1 5034:1 5035:1 
0.1010678931045468 329:1 330:1 614:1 1894:1 5041:1 5044:1 
9.38919299166243 329:1 330:1 1278:1 1408:1 5067:1 
7.991501479400728 316:1 409:1 590:1 931:1 2613:1 5068:1 5069:1 5070:1 5071:1 
1.963159467158815 289:1 329:1 330:1 444:1 5078:1 5079:1 
0.3950500305955413 233:1 329:1 330:1 1161:1 4215:1 4399:1 5084:1 
0.0219188456626677 4012:1 4058:1 4247:1 5099:1 5100:1 5101:1 
0.3005523760927976 124:1 561:1 956:1 1505:1 2019:1 
0.454301734383403 2681:1 2683:1 5105:1 5106:1 5107:1 
7.470443494125157 329:1 330:1 436:1 1261:1 2867:1 4821:1 5110:1 5111:1 
3.08686831988879 43:1 1089:1 1191:1 3568:1 4854:1 4875:1 5114:1 
0.01761537097671868 30:1 39:1 119:1 1673:1 2459:1 4321:1 5122:1 
2.009180248646589 316:1 5126:1 5127:1 
0.8413652701609682 329:1 330:1 501:1 1146:1 1422:1 5131:1 5132:1 5133:1 
1.545229809050712 703:1 2704:1 4465:1 5048:1 5134:1 
0.7348284181731799 140:1 678:1 3050:1 5148:1 5149:1 5150:1 5151:1 5152:1 5153:1 5154:1 5155:1 
0.3543341562927538 29:1 289:1 358:1 472:1 1319:1 1582:1 
1.969924202789815 688:1 769:1 1928:1 2511:1 2878:1 5156:1 5157:1 
6.946423148834693 423:1 1655:1 1953:1 5161:1 
3.675073696910558 367:1 769:1 1396:1 4743:1 5202:1 5203:1 5204:1 
4.712225648964706 232:1 1148:1 3010:1 5229:1 
1.134384155251912 520:1 590:1 591:1 2637:1 3260:1 3772:1 4296:1 5213:1 5248:1 5249:1 5250:1 
1.402508692552421 233:1 436:1 4378:1 4593:1 5254:1 5255:1 
3.958108586985206 329:1 330:1 345:1 1740:1 3678:1 
2.822722484989467 406:1 992:1 2675:1 2865:1 2866:1 3053:1 3219:1 5269:1 5270:1 5271:1 
0.1419121926480687 78:1 791:1 863:1 2160:1 3522:1 4950:1 5272:1 5273:1 
7.716256909927923 405:1 1646:1 3577:1 4601:1 4912:1 
3.479976554478793 1188:1 1698:1 4018:1 5275:1 5276:1 5277:1 
1.081503962149873 329:1 330:1 467:1 2377:1 3648:1 
1.622362992125527 1337:1 1518:1 2519:1 3078:1 3286:1 5280:1 5281:1 5282:1 
0.4227989789859087 329:1 330:1 405:1 862:1 1505:1 5298:1 5299:1 
1.00448511496669 821:1 1152:1 1496:1 3809:1 
6.520516425501166 114:1 233:1 1675:1 2666:1 4920:1 
1.417684942606878 291:1 327:1 1822:1 2829:1 3785:1 4533:1 5041:1 5211:1 5303:1 
0.4183173600951237 22:1 79:1 329:1 330:1 468:1 5226:1 5304:1 
9.38919299166243 48:1 308:1 518:1 
4.631024353955155 900:1 1466:1 1546:1 1833:1 2258:1 2871:1 5316:1 
0.8541396026069905 70:1 106:1 501:1 804:1 2078:1 4050:1 4051:1 4052:1 
0.374804955359997 1167:1 2637:1 4063:1 4303:1 4417:1 4418:1 5358:1 5359:1 
0.2557021569813631 67:1 747:1 1226:1 1587:1 1842:1 3902:1 4737:1 
3.338384450698129 46:1 605:1 829:1 1207:1 4137:1 
6.491049798612227 43:1 119:1 291:1 829:1 2668:1 2712:1 4197:1 5400:1 5401:1 
0.1117722728844816 39:1 40:1 409:1 1647:1 5409:1 5410:1 5411:1 5412:1 
1.795950918896202 2488:1 4058:1 4899:1 5415:1 5416:1 
8.760173244692565 367:1 409:1 467:1 1072:1 5256:1 
3.357155750728165 42:1 199:1 605:1 1643:1 1865:1 5424:1 
3.039349026394659 704:1 931:1 4188:1 
0.4119501943943643 289:1 482:1 1898:1 4025:1 4039:1 4040:1 4619:1 4728:1 5425:1 5426:1 5427:1 
0.9329690191248564 329:1 330:1 614:1 1894:1 5041:1 5044:1 
0.2836467143198779 39:1 40:1 702:1 858:1 1647:1 5103:1 5436:1 5437:1 5438:1 
4.919214161273523 1283:1 1632:1 5023:1 5024:1 5445:1 5446:1 
1.763046152710879 513:1 591:1 801:1 2637:1 4130:1 4196:1 4260:1 4693:1 4799:1 4911:1 5451:1 
3.25122239799513 1391:1 5467:1 5468:1 5469:1 5470:1 5471:1 
6.191690397058728 109:1 268:1 1353:1 1782:1 4517:1 
0.9004562500483148 617:1 1624:1 3318:1 5479:1 5480:1 5481:1 5482:1 
1.874011961412372 109:1 268:1 578:1 2860:1 4125:1 4517:1 5489:1 
0.9467014740467146 233:1 405:1 527:1 980:1 2616:1 5034:1 5035:1 
0.02537637886653575 143:1 287:1 419:1 882:1 3463:1 4837:1 5048:1 5168:1 5494:1 
0.1181707282174611 405:1 1205:1 1999:1 4066:1 4944:1 5057:1 5499:1 5500:1 
0.3233581477938625 409:1 1526:1 5388:1 5501:1 5502:1 5503:1 5504:1 5505:1 
3.116219150094621 46:1 291:1 309:1 403:1 821:1 1042:1 1666:1 1700:1 1723:1 1753:1 2044:1 3222:1 3315:1 3936:1 4323:1 4379:1 5509:1 
1.273276111978407 71:1 327:1 2673:1 3231:1 5403:1 
2.534765173486804 124:1 1113:1 5524:1 5525:1 
1.138092622071384 819:1 2202:1 5534:1 
0.3524277406165363 79:1 1470:1 5351:1 5537:1 
0.2076331734729766 2798:1 5483:1 5485:1 
3.518620564060303 109:1 210:1 268:1 578:1 1253:1 1305:1 1443:1 2203:1 2860:1 4125:1 4517:1 5489:1 
1.666268815297191 43:1 133:1 610:1 612:1 1438:1 1631:1 1944:1 2969:1 5539:1 
0.9250591067077618 821:1 1496:1 
0.4181755970203007 322:1 414:1 1480:1 1983:1 2061:1 2871:1 4411:1 5168:1 5541:1 
0.3639379273849385 103:1 780:1 3030:1 5550:1 
0.2328287165354425 890:1 3682:1 4393:1 5552:1 5553:1 5554:1 
0.06750835498445294 45:1 46:1 579:1 605:1 746:1 960:1 1237:1 4940:1 
1.977467453144787 10:1 86:1 157:1 398:1 654:1 3366:1 
0.9064747495287188 499:1 509:1 1587:1 1810:1 1811:1 5562:1 5563:1 
0.07765006161893442 1335:1 2504:1 2597:1 3170:1 4025:1 5564:1 
2.482960784560499 484:1 3571:1 4058:1 5565:1 5566:1 5567:1 
1.182446656232682 370:1 1499:1 1694:1 2245:1 4480:1 5568:1 5569:1 
4.152306186693809 370:1 1499:1 1694:1 2245:1 4480:1 5568:1 5569:1 
3.276233221746272 499:1 509:1 1587:1 1810:1 1811:1 5562:1 5563:1 
1.850602228138467 114:1 601:1 1225:1 1478:1 4054:1 5587:1 
9.38919299166243 7:1 442:1 443:1 527:1 1579:1 2572:1 
6.756548458382275 201:1 207:1 419:1 3234:1 4852:1 5589:1 5590:1 
2.296151158131876 189:1 538:1 1307:1 1747:1 2011:1 5507:1 5571:1 5591:1 
2.476820141671015 7:1 140:1 401:1 940:1 5593:1 
1.413767110598249 323:1 2720:1 5545:1 
2.937863730136015 591:1 2438:1 2624:1 2870:1 2951:1 3300:1 4799:1 4802:1 5170:1 5596:1 5597:1 5598:1 
5.058009215478672 704:1 904:1 1412:1 1888:1 2154:1 3771:1 4552:1 
9.38919299166243 22:1 176:1 398:1 789:1 
0.1717677416878744 1219:1 1385:1 1478:1 5615:1 5616:1 5617:1 5618:1 
0.9827156652590479 173:1 590:1 657:1 904:1 
0.175616185635078 365:1 3167:1 5417:1 5418:1 5419:1 
1.199420099045098 426:1 4236:1 4549:1 5632:1 5633:1 5634:1 
5.39848275588959 753:1 935:1 1251:1 1721:1 5640:1 
2.052297289635297 292:1 627:1 1411:1 1905:1 5642:1 5643:1 
1.039360398893949 1006:1 2639:1 3284:1 5622:1 5623:1 5653:1 5654:1 
0.03428456932344525 590:1 633:1 799:1 1526:1 1567:1 1866:1 1958:1 3463:1 5452:1 5656:1 
8.958460129052428 78:1 115:1 1318:1 2896:1 5130:1 
0.7289536993713407 452:1 1116:1 5113:1 5233:1 
0.9605549659531434 953:1 1221:1 1643:1 1822:1 1831:1 4247:1 5668:1 
4.182368456084382 24:1 423:1 852:1 1223:1 4170:1 5676:1 
1.581522852324327 1323:1 2074:1 3271:1 5146:1 5363:1 
0.2769803333779501 233:1 2611:1 2681:1 3085:1 3284:1 5683:1 5684:1 
0.4625179371921775 205:1 655:1 657:1 860:1 2936:1 4081:1 5697:1 
5.222811631930293 72:1 89:1 119:1 683:1 1319:1 1443:1 1634:1 2041:1 2148:1 4925:1 
0.3628062604364906 46:1 176:1 225:1 305:1 472:1 1508:1 2357:1 3093:1 
0.02208653535451029 11:1 527:1 571:1 849:1 1117:1 2976:1 
0.3810241093459195 69:1 1131:1 1434:1 1929:1 5705:1 5706:1 
0.3986501781620045 210:1 3926:1 5709:1 
0.05495444940414217 769:1 814:1 857:1 1953:1 3117:1 3887:1 5359:1 5610:1 5723:1 
0.8722492543425905 22:1 48:1 114:1 172:1 631:1 849:1 2006:1 2245:1 3816:1 
5.105955575074792 720:1 1567:1 1813:1 
4.824442479360571 167:1 283:1 285:1 412:1 414:1 548:1 780:1 2722:1 5496:1 
0.347501159705321 5787:1 5788:1 5789:1 
0.1560940202690637 294:1 804:1 4892:1 5822:1 
0.0869137736305932 61:1 1004:1 1219:1 3141:1 5492:1 5649:1 5823:1 5824:1 
0.04769997733871052 1676:1 3078:1 4057:1 5656:1 5835:1 5836:1 5837:1 5838:1 
1.640244480624797 35:1 259:1 373:1 2277:1 2395:1 2569:1 3714:1 
7.067608390933963 1311:1 4160:1 4846:1 5848:1 5849:1 
2.034074131505876 213:1 1707:1 1828:1 1829:1 5518:1 5520:1 
0.2533091861940371 816:1 930:1 932:1 1558:1 1950:1 2585:1 4045:1 4592:1 5861:1 5862:1 5863:1 5864:1 5865:1 
0.8940886246707137 169:1 953:1 4039:1 4040:1 5881:1 5882:1 
0.0932828667179578 709:1 1890:1 4203:1 4639:1 5883:1 
6.394516637360231 322:1 757:1 1291:1 1496:1 2061:1 2702:1 5901:1 
3.434349201319598 908:1 1633:1 2187:1 2306:1 5758:1 
4.858941079612809 29:1 58:1 1036:1 1468:1 1705:1 2781:1 3429:1 3940:1 
1.043532349313641 393:1 709:1 3589:1 5723:1 5805:1 5909:1 
0.7959279241225014 292:1 4153:1 4241:1 5742:1 5913:1 
1.107908712118362 3969:1 3970:1 5922:1 5923:1 5924:1 
2.765464233705447 231:1 283:1 285:1 1006:1 1007:1 3050:1 3087:1 
0.9871385374406657 292:1 4153:1 4241:1 4704:1 4705:1 5642:1 5742:1 
1.871028590122886 329:1 330:1 1434:1 
0.572258305058077 329:1 330:1 1434:1 
1.085448563284866 482:1 2029:1 3611:1 4594:1 4993:1 5893:1 5894:1 
0.6075520311351849 393:1 3589:1 5548:1 5723:1 5805:1 5965:1 5966:1 
1.954708291901042 254:1 1126:1 1857:1 2245:1 2863:1 3016:1 4514:1 
2.928359546625167 563:1 831:1 1152:1 2154:1 3417:1 4010:1 4821:1 5967:1 5975:1 5976:1 
1.679378252506164 327:1 800:1 801:1 882:1 1822:1 2090:1 2637:1 4446:1 
0.4770706208867003 1631:1 2104:1 2637:1 4247:1 5456:1 5710:1 5984:1 5985:1 
3.396787549919777 43:1 2011:1 6012:1 6013:1 6014:1 
0.5810823162813222 251:1 424:1 458:1 838:1 5241:1 5983:1 
5.494669372135059 333:1 2357:1 
0.5399407312812812 213:1 1828:1 3053:1 3884:1 4976:1 5518:1 
3.1595705360133 210:1 1634:1 4965:1 6044:1 6045:1 
1.109566853994155 30:1 528:1 896:1 1675:1 1775:1 6051:1 6052:1 6053:1 6054:1 
1.140117514165306 233:1 268:1 527:1 2839:1 2845:1 4585:1 5769:1 5770:1 6059:1 
0.8288025583050341 861:1 4407:1 4524:1 
1.031295406856091 27:1 39:1 40:1 1109:1 4119:1 6063:1 
0.8365511455598479 444:1 558:1 953:1 2488:1 4753:1 5440:1 5714:1 
0.300200073103281 114:1 115:1 257:1 291:1 358:1 553:1 554:1 3751:1 4254:1 4323:1 5319:1 
0.9931035645585575 291:1 414:1 553:1 554:1 612:1 927:1 3222:1 3751:1 4323:1 
1.977987689718988 369:1 422:1 2428:1 
6.11656176626298 528:1 1088:1 4104:1 4711:1 6075:1 6076:1 6077:1 
1.127065372440429 1847:1 1855:1 2503:1 3667:1 4455:1 5897:1 5898:1 6078:1 6079:1 6080:1 
0.6717076160355677 184:1 454:1 563:1 600:1 601:1 4030:1 6081:1 
4.240143265255556 100:1 173:1 174:1 766:1 859:1 1634:1 6082:1 6083:1 
7.524899496113356 821:1 1496:1 1994:1 2181:1 2575:1 
0.1163297843577795 578:1 597:1 743:1 2533:1 2681:1 5491:1 6094:1 6095:1 6096:1 
1.26781650624386 43:1 79:1 558:1 1378:1 5911:1 6101:1 6102:1 
1.221198152044927 114:1 283:1 284:1 285:1 1004:1 1005:1 1006:1 1007:1 4409:1 
4.947266045895148 690:1 1152:1 2038:1 2151:1 2673:1 4781:1 5297:1 6108:1 
1.018693375356595 94:1 340:1 1472:1 2000:1 6109:1 6110:1 6111:1 
0.4702366333728417 100:1 2585:1 4650:1 5350:1 6120:1 6121:1 
1.373183983477081 3257:1 4221:1 5802:1 6122:1 6123:1 6124:1 6125:1 
5.050270206844291 1079:1 1505:1 
3.341790162260584 365:1 366:1 507:1 1181:1 2723:1 3340:1 6137:1 
0.3011811970084621 79:1 527:1 1493:1 1803:1 3735:1 4956:1 6150:1 6151:1 
2.251100414424236 405:1 1493:1 2519:1 4071:1 4514:1 5534:1 6065:1 6066:1 
0.07119006584888861 518:1 708:1 769:1 1260:1 1837:1 4950:1 6152:1 
0.1887820330045553 612:1 863:1 967:1 1312:1 5866:1 6153:1 6154:1 6155:1 6156:1 
1.879547439300084 189:1 639:1 2635:1 3225:1 4058:1 6159:1 6160:1 
1.329657820868245 356:1 2050:1 4025:1 4058:1 4082:1 4997:1 5371:1 6159:1 6164:1 
0.01998996565686013 107:1 720:1 3611:1 4527:1 5683:1 
2.393956511319297 79:1 756:1 1697:1 2023:1 3008:1 6185:1 6186:1 
0.01869787187869439 119:1 181:1 542:1 3585:1 6197:1 6198:1 6199:1 
1.483348845554824 906:1 1636:1 5530:1 6204:1 6205:1 6206:1 6207:1 
0.3009703460056333 492:1 946:1 4736:1 5687:1 5824:1 6213:1 
1.553784164865029 260:1 4497:1 4619:1 4620:1 5813:1 5814:1 6217:1 6218:1 
0.210663092977037 42:1 45:1 161:1 1716:1 1740:1 3679:1 4497:1 4619:1 4620:1 4728:1 5813:1 5814:1 5826:1 6116:1 6163:1 6222:1 
0.363677583603977 119:1 181:1 542:1 3585:1 6197:1 6198:1 6199:1 
2.120855586126313 35:1 167:1 576:1 838:1 1160:1 1205:1 6235:1 
4.67250710206029 133:1 1148:1 2192:1 3770:1 
0.6908613427646104 6:1 1465:1 1832:1 2037:1 2088:1 2398:1 4887:1 5529:1 
4.365235430016344 952:1 1238:1 4238:1 6291:1 6292:1 
1.569589399452682 484:1 2717:1 4018:1 6297:1 
3.279531450440032 34:1 558:1 3621:1 
4.50888836128212 39:1 40:1 43:1 965:1 1212:1 1883:1 2078:1 4494:1 4495:1 5414:1 5496:1 6270:1 
0.5865670437612455 11:1 28:1 638:1 832:1 1585:1 2121:1 5282:1 6321:1 6322:1 
8.853145151526631 40:1 114:1 965:1 4698:1 
2.387963239760161 5756:1 6335:1 6336:1 6337:1 6338:1 6339:1 
1.396811869767801 3844:1 4159:1 5187:1 5254:1 5476:1 
0.6718225600437591 231:1 253:1 305:1 454:1 601:1 1305:1 2486:1 2809:1 4075:1 
4.311543303353473 43:1 354:1 440:1 1107:1 2645:1 
1.063967464180249 48:1 119:1 130:1 2059:1 2060:1 4616:1 6349:1 6350:1 
0.09619622298078422 236:1 539:1 3501:1 4762:1 5897:1 6220:1 6354:1 
0.04989071059676532 657:1 3656:1 4623:1 5604:1 6244:1 6245:1 6246:1 6251:1 
1.548050815736518 119:1 2059:1 2060:1 6350:1 
2.79441383614771 27:1 3570:1 4970:1 6364:1 6365:1 
0.2199664266661625 103:1 2488:1 2766:1 3291:1 4639:1 6387:1 6388:1 
5.008445591985238 755:1 1131:1 1387:1 2019:1 3458:1 5075:1 
1.6373171579956 103:1 2766:1 3877:1 4639:1 6391:1 
1.663168256772363 291:1 768:1 769:1 836:1 1822:1 2258:1 
0.1465798834229439 291:1 1242:1 3082:1 
0.426698047949025 459:1 769:1 1275:1 3211:1 4768:1 6403:1 6404:1 6405:1 6406:1 
0.65990894052634 100:1 1131:1 3845:1 6412:1 
1.192867327757791 287:1 1167:1 6438:1 
2.34086651711459 79:1 287:1 1259:1 4605:1 4862:1 
2.284894232889067 291:1 409:1 564:1 873:1 875:1 876:1 1453:1 1822:1 2029:1 4166:1 
5.173682102462358 292:1 607:1 627:1 2968:1 
0.1653176891129955 323:1 2720:1 6463:1 6464:1 
2.421683901698352 11:1 756:1 799:1 1301:1 1689:1 
0.6837088821505025 1469:1 3267:1 4936:1 6466:1 6467:1 
0.1716732220357942 3077:1 6114:1 6468:1 6469:1 6470:1 6471:1 6472:1 6473:1 
0.03081765685470663 484:1 799:1 1088:1 2298:1 2804:1 3762:1 6076:1 6474:1 
0.9479033214443356 559:1 2338:1 2339:1 4853:1 6482:1 6483:1 6484:1 
0.8868190776137834 567:1 891:1 926:1 941:1 1323:1 2404:1 3933:1 4013:1 
0.3726342483378797 4403:1 4645:1 6489:1 
3.262393361442248 724:1 1059:1 1060:1 6513:1 6522:1 
0.09276429507517757 768:1 1164:1 4094:1 6375:1 
0.01877600816926466 1167:1 4653:1 5534:1 6426:1 6427:1 6428:1 6429:1 6430:1 
1.158219213951237 41:1 294:1 419:1 1682:1 1827:1 3102:1 
0.833169492018085 43:1 169:1 322:1 987:1 1200:1 6527:1 
9.118292423702744 43:1 724:1 764:1 881:1 4077:1 5706:1 6543:1 
5.606610735318704 278:1 671:1 715:1 1106:1 4994:1 6557:1 6558:1 6559:1 
0.2478066272299175 79:1 271:1 419:1 612:1 639:1 4025:1 4052:1 4208:1 5399:1 5761:1 5960:1 6560:1 
0.6568696714475932 365:1 366:1 2681:1 6561:1 6562:1 
9.38919299166243 1294:1 1297:1 1952:1 
1.696578387860673 78:1 228:1 1357:1 1406:1 1857:1 3416:1 4997:1 5457:1 6589:1 
0.1711865856386238 34:1 128:1 229:1 2984:1 
1.441139323778975 100:1 444:1 805:1 1233:1 4344:1 4514:1 4753:1 
1.218237788018979 327:1 1558:1 1950:1 2878:1 6608:1 6609:1 
0.9939950592972807 419:1 775:1 987:1 1878:1 2009:1 4555:1 
0.06361505617903776 43:1 1283:1 1567:1 1827:1 4359:1 6624:1 6625:1 
1.243461144657037 255:1 392:1 509:1 776:1 1079:1 
0.731029942294389 133:1 409:1 552:1 590:1 867:1 3462:1 6644:1 
0.4584133643779105 43:1 86:1 119:1 561:1 612:1 1064:1 3063:1 6648:1 
0.2698153350291329 1891:1 5186:1 5397:1 6657:1 6658:1 
0.7343000660570025 268:1 612:1 915:1 1136:1 1180:1 5266:1 5630:1 5631:1 6600:1 6661:1 6662:1 
0.01293725151687551 653:1 1109:1 1857:1 3778:1 4208:1 5895:1 6285:1 
6.533853076983828 770:1 817:1 1892:1 1907:1 4926:1 
0.8469681150191187 29:1 1544:1 3147:1 4236:1 
8.594796125213987 419:1 775:1 987:1 1878:1 2009:1 4555:1 
5.857343834672438 1228:1 1510:1 2745:1 5314:1 
3.939582840481075 22:1 48:1 79:1 769:1 1235:1 1493:1 3103:1 3666:1 3968:1 
2.296600372713463 419:1 2518:1 3102:1 3218:1 
0.6450051370083545 419:1 1113:1 2924:1 3102:1 3218:1 
0.5030390068008737 327:1 1236:1 2860:1 5552:1 5708:1 
2.514193143541051 6:1 1236:1 3061:1 5533:1 6683:1 6684:1 
4.261081505873959 709:1 919:1 1558:1 1950:1 2511:1 4355:1 4446:1 4573:1 5496:1 
1.361742068810195 1106:1 4027:1 6689:1 6690:1 
1.533122577679945 115:1 322:1 852:1 2466:1 3030:1 4255:1 
0.9139816204355182 79:1 169:1 294:1 904:1 1283:1 4699:1 5217:1 6698:1 
6.311604904633213 19:1 596:1 597:1 1806:1 4625:1 6701:1 6702:1 
1.884151687658813 638:1 1040:1 2626:1 4917:1 
0.8201021573604816 690:1 1558:1 1822:1 3491:1 4024:1 4446:1 6705:1 6706:1 
0.8502974957345437 79:1 863:1 1716:1 3948:1 4619:1 4728:1 5826:1 6163:1 6708:1 
4.687182868863918 43:1 276:1 955:1 1136:1 1542:1 3050:1 6711:1 6712:1 6713:1 
9.159766290349964 638:1 1040:1 2626:1 4917:1 
1.098972263128253 35:1 510:1 528:1 2420:1 4080:1 4939:1 6718:1 6719:1 
2.174627105421196 294:1 1803:1 3879:1 4839:1 6696:1 
1.3335531875801 114:1 1643:1 2074:1 3103:1 4356:1 4357:1 4711:1 6721:1 6722:1 
8.79857290845403 114:1 253:1 431:1 953:1 1283:1 2041:1 2044:1 4847:1 
0.6013892934478919 321:1 955:1 2000:1 3879:1 6696:1 6743:1 6744:1 
0.161938277189905 106:1 229:1 537:1 804:1 1827:1 2010:1 2061:1 4827:1 6749:1 6750:1 
0.7161358419987133 768:1 1567:1 4439:1 6754:1 6755:1 
4.424453451564704 459:1 1517:1 2504:1 3077:1 4448:1 4768:1 6760:1 6761:1 
3.198649785425888 100:1 456:1 586:1 689:1 1172:1 1435:1 1651:1 2464:1 3050:1 4186:1 4514:1 
0.4882150547717697 29:1 100:1 1592:1 3194:1 4514:1 6007:1 6511:1 6772:1 
3.024820532124747 22:1 271:1 832:1 1762:1 2258:1 2820:1 6047:1 
0.6959776455160085 1561:1 3078:1 4702:1 6793:1 6794:1 
0.6129828519596497 30:1 68:1 339:1 509:1 4117:1 4895:1 
0.4069909579713143 488:1 1176:1 2274:1 3467:1 6795:1 
1.352774882391268 2360:1 2519:1 5168:1 6799:1 6800:1 6801:1 6802:1 
0.6672663893301396 955:1 1077:1 1084:1 3050:1 5218:1 5560:1 5561:1 
2.178188775269907 77:1 2182:1 2296:1 5069:1 5466:1 6809:1 
0.6035934960487563 44:1 287:1 3204:1 4922:1 6810:1 6811:1 
0.8222270865941931 1430:1 4339:1 
0.7054032331546068 409:1 952:1 1181:1 2723:1 3284:1 3285:1 3686:1 3848:1 
2.098957572013297 1241:1 1344:1 2098:1 2637:1 4193:1 4296:1 6836:1 
0.04820286935757945 107:1 174:1 482:1 563:1 1803:1 5728:1 6861:1 
1.158424616606433 904:1 1310:1 1841:1 2175:1 4077:1 
3.391280167352089 904:1 1310:1 1841:1 2175:1 4077:1 
8.700182247553494 918:1 3594:1 5013:1 
0.1983455860845234 44:1 1251:1 3768:1 6811:1 6870:1 6871:1 
0.9218756835924508 1878:1 5200:1 6874:1 
1.844953576842648 213:1 313:1 1116:1 6882:1 
0.06750836617471759 43:1 177:1 567:1 1263:1 1264:1 1865:1 3222:1 4156:1 6863:1 
0.2844518772753436 831:1 1236:1 1795:1 1991:1 2525:1 4065:1 
0.4027200989393215 831:1 1236:1 1795:1 1991:1 2525:1 4065:1 
0.112699045238486 228:1 1149:1 4533:1 4925:1 6539:1 6908:1 6909:1 6910:1 
0.05664347186232369 935:1 1022:1 2769:1 3751:1 4533:1 4594:1 6911:1 6912:1 
0.09188907540171991 156:1 229:1 900:1 1130:1 1579:1 3692:1 4972:1 5727:1 
1.832069762653199 6913:1 
0.8089016823231402 184:1 355:1 527:1 927:1 2281:1 2656:1 2799:1 6914:1 6915:1 6916:1 6917:1 
1.034626431778234 381:1 5340:1 5957:1 6920:1 
0.07888102760621424 605:1 1381:1 4079:1 5072:1 6924:1 6925:1 6926:1 
2.816616786056011 717:1 4025:1 4057:1 4379:1 6933:1 
1.06416681690678 107:1 720:1 3611:1 4527:1 5683:1 
9.38919299166243 918:1 960:1 
1.494092668518086 43:1 419:1 1136:1 1493:1 2074:1 6934:1 
2.27121178756466 1138:1 3079:1 6232:1 6918:1 6929:1 6940:1 
0.5658084916493679 27:1 313:1 855:1 4993:1 6267:1 6950:1 6951:1 
2.764672230709607 11:1 42:1 575:1 1313:1 2203:1 2988:1 
0.05718858729103913 233:1 935:1 1319:1 2188:1 4946:1 6956:1 6957:1 
0.05659510433016094 119:1 2395:1 5920:1 6715:1 6964:1 6965:1 
2.514151856197152 5:1 30:1 100:1 612:1 2666:1 6970:1 6971:1 6972:1 6973:1 6974:1 
0.8500378521525682 43:1 697:1 3575:1 4245:1 4337:1 6141:1 6642:1 
1.587346837242229 444:1 1306:1 2181:1 3732:1 4333:1 6994:1 6995:1 6996:1 
0.8437047066853993 91:1 445:1 590:1 777:1 1466:1 4390:1 5158:1 
0.6374468617807684 207:1 1813:1 2037:1 3469:1 4284:1 5197:1 
9.38919299166243 713:1 
3.062127298653447 338:1 765:1 2967:1 4812:1 4934:1 7021:1 7022:1 7023:1 7024:1 
0.1089181707285158 4619:1 4620:1 4950:1 6660:1 6808:1 
0.4050350459826588 3594:1 3932:1 7026:1 
0.2563020032887843 437:1 2427:1 3155:1 4174:1 7027:1 
0.2089690664556631 436:1 561:1 777:1 824:1 5752:1 7034:1 7035:1 
0.9886889935720573 90:1 813:1 2067:1 4688:1 5857:1 
1.166181254048146 2209:1 4039:1 4040:1 4143:1 7037:1 7038:1 7039:1 
0.04282489886177757 3573:1 4025:1 4619:1 4728:1 5188:1 5316:1 6654:1 
1.218127082595292 119:1 2395:1 5920:1 6715:1 6964:1 6965:1 
2.632294938787624 90:1 193:1 800:1 801:1 882:1 946:1 2067:1 3154:1 4297:1 4298:1 
3.42217485154761 341:1 947:1 948:1 7043:1 7044:1 7045:1 
1.66268890715317 801:1 1869:1 2037:1 3025:1 3053:1 
0.09633086307502475 625:1 897:1 3568:1 3848:1 4212:1 7056:1 
2.95582579940975 276:1 567:1 1085:1 1119:1 1772:1 1894:1 2007:1 2188:1 3774:1 7057:1 
5.315584891410636 48:1 57:1 1131:1 2968:1 3371:1 4939:1 7021:1 
2.854724063257476 90:1 1174:1 2437:1 4295:1 4633:1 
0.01302057611186614 625:1 897:1 3568:1 3848:1 4212:1 7056:1 
0.4406718052458494 288:1 2230:1 4533:1 6461:1 6462:1 6489:1 
0.1974666531575386 508:1 509:1 952:1 1313:1 1561:1 7069:1 7070:1 7071:1 
0.224007123096321 289:1 1520:1 2121:1 7072:1 
9.38919299166243 552:1 657:1 4685:1 5847:1 
1.88973570111055 627:1 6676:1 6677:1 7076:1 7077:1 
1.173791588235781 4147:1 4180:1 5723:1 
1.183908336237925 74:1 1131:1 1469:1 7095:1 
0.2174689760288937 316:1 322:1 388:1 437:1 708:1 863:1 1409:1 4584:1 7098:1 
0.2941416022729705 7100:1 7101:1 7102:1 7103:1 7104:1 7105:1 7106:1 7107:1 7108:1 
0.2137919279785139 3173:1 5220:1 7111:1 7112:1 7113:1 7114:1 
3.83954658574813 2596:1 
2.122576620785289 6220:1 
0.08805686203966012 3379:1 
3.377118857741491 737:1 1435:1 1824:1 3998:1 
1.934361229912925 656:1 1458:1 4918:1 
9.38919299166243 27:1 194:1 369:1 4970:1 
0.3236307065054207 2962:1 6372:1 
9.38919299166243 2250:1 2980:1 3155:1 
1.487530147337774 3049:1 4940:1 
0.9557649872560205 3847:1 5577:1 7175:1 7176:1 
3.103050968713002 48:1 1784:1 7149:1 
1.56275925258421 5220:1 7114:1 7181:1 7182:1 7183:1 
3.319595121091785 3122:1 3847:1 5190:1 
8.448945776490188 631:1 1162:1 2417:1 4441:1 
4.608253305815035 48:1 147:1 246:1 437:1 1219:1 1784:1 5850:1 6187:1 7149:1 
0.6336213949974518 22:1 89:1 114:1 133:1 226:1 227:1 426:1 445:1 1471:1 3279:1 3382:1 5603:1 
1.916541031413864 46:1 327:1 563:1 883:1 1188:1 1219:1 7229:1 
9.38919299166243 45:1 46:1 212:1 323:1 1219:1 
2.777518495798941 191:1 1643:1 2192:1 3647:1 6446:1 6953:1 7239:1 
0.5819943137131808 883:1 7241:1 
1.277311674180371 48:1 316:1 819:1 2626:1 4175:1 7242:1 
3.655497828418729 48:1 228:1 437:1 1784:1 3188:1 
7.71807474919159 89:1 1433:1 1602:1 
2.078015246352495 327:1 456:1 472:1 7255:1 
2.43690506661722 114:1 1740:1 1847:1 4235:1 
3.660945061936 1580:1 7275:1 
2.464546329663804 499:1 819:1 1643:1 1880:1 3783:1 4638:1 5515:1 5760:1 7239:1 7277:1 
0.4256724235544985 3137:1 7278:1 
1.443458780975074 429:1 1568:1 3525:1 
0.7271023785711139 569:1 573:1 1291:1 1472:1 1643:1 2422:1 7239:1 
0.915867537365088 107:1 211:1 233:1 254:1 709:1 2039:1 5878:1 
5.195296783105891 48:1 316:1 673:1 821:1 851:1 929:1 2709:1 7098:1 7303:1 
0.6583220467787178 7314:1 
0.9702615403875711 387:1 391:1 612:1 913:1 7321:1 
0.7873758766657704 322:1 3692:1 4584:1 4601:1 4717:1 7098:1 7326:1 7327:1 
0.1682706175601398 658:1 787:1 808:1 1270:1 2078:1 3348:1 4239:1 4999:1 7330:1 
0.2900606598522631 303:1 3734:1 3925:1 7154:1 7258:1 
1.258361862006111 22:1 3734:1 5492:1 5823:1 6623:1 7154:1 
0.4964905932730871 291:1 503:1 4723:1 
0.3152126939149329 11:1 3030:1 3292:1 7360:1 
0.1053800947180675 22:1 44:1 314:1 437:1 2129:1 3734:1 7154:1 7207:1 7375:1 
0.6028775105888221 1949:1 2736:1 4393:1 7381:1 
0.04733449188547714 211:1 233:1 316:1 532:1 1036:1 1994:1 4630:1 5397:1 7412:1 
4.337709953048887 5491:1 
1.845050782764197 302:1 908:1 3198:1 5391:1 5491:1 
0.3050215695673461 441:1 621:1 985:1 3861:1 5037:1 5861:1 7164:1 
0.4314732106429528 114:1 233:1 621:1 3016:1 3268:1 3771:1 4709:1 7419:1 
1.718891303300209 2670:1 5127:1 7436:1 
9.38919299166243 3741:1 
9.38919299166243 983:1 
2.013517869831628 316:1 322:1 445:1 863:1 1645:1 2629:1 7098:1 7184:1 7464:1 
0.2329720540970503 107:1 507:1 1040:1 2438:1 6022:1 7481:1 7482:1 7483:1 
0.2284728009515795 92:1 641:1 1096:1 1645:1 2039:1 3302:1 4796:1 4972:1 6203:1 7434:1 7497:1 
0.5335087385804491 46:1 883:1 1219:1 2290:1 4562:1 7116:1 
1.914593574137263 287:1 3222:1 3292:1 4862:1 7530:1 
1.32432754281736 149:1 151:1 2670:1 2671:1 4225:1 4869:1 7369:1 
9.142528614378572 19:1 1183:1 4663:1 5150:1 7136:1 
2.031586128012071 195:1 316:1 1032:1 1379:1 1689:1 2707:1 3783:1 7098:1 
4.28977399499845 780:1 1130:1 1475:1 1628:1 4099:1 
4.086856908828042 660:1 852:1 
7.345859059345495 1711:1 7538:1 7539:1 
0.0436317889441649 322:1 787:1 923:1 6061:1 6815:1 7098:1 7205:1 7206:1 
4.171130482584535 1106:1 2007:1 2188:1 5811:1 6944:1 7547:1 7548:1 
0.2070753894772878 266:1 386:1 563:1 1438:1 2960:1 3783:1 7549:1 
0.6823917103569616 186:1 386:1 1438:1 2188:1 7005:1 7550:1 
1.506142061986641 89:1 222:1 437:1 621:1 3188:1 3685:1 7137:1 7149:1 
1.666446712638463 118:1 233:1 323:1 329:1 330:1 1357:1 1661:1 1776:1 6039:1 6258:1 6447:1 6481:1 
2.737111465087582 621:1 4239:1 
7.632421298225107 612:1 7555:1 
2.275129412095489 555:1 612:1 7084:1 
2.487777572550621 7567:1 
0.4077655770110937 30:1 4034:1 4093:1 7156:1 7573:1 
1.895624187054215 46:1 147:1 323:1 1376:1 1377:1 5408:1 7116:1 
0.9266314917374138 46:1 107:1 212:1 1176:1 1219:1 1686:1 1766:1 
0.3882031810889348 2088:1 3441:1 7581:1 7582:1 
1.518696855614637 1478:1 1580:1 2294:1 2613:1 
0.4328862470267735 58:1 316:1 863:1 2707:1 5408:1 7098:1 7413:1 7487:1 7585:1 7586:1 
4.458881171501242 46:1 373:1 826:1 927:1 4175:1 5408:1 7116:1 
1.880161320325194 19:1 53:1 225:1 2528:1 7589:1 7590:1 
2.424751243762497 46:1 212:1 541:1 951:1 1219:1 2088:1 5661:1 7116:1 7137:1 
1.135359078804556 7598:1 7599:1 
3.665702998435099 564:1 
9.38919299166243 305:1 2290:1 2395:1 
3.57829278445051 437:1 3540:1 
0.09409133168644288 7281:1 
0.4592620750205854 4495:1 4524:1 7625:1 7626:1 7627:1 7628:1 
1.553797251112517 69:1 98:1 150:1 157:1 217:1 316:1 322:1 387:1 445:1 831:1 2707:1 3800:1 7098:1 
1.415446700356417 210:1 409:1 861:1 1475:1 5953:1 7646:1 
0.9762831081614228 861:1 2128:1 2396:1 2528:1 4668:1 4918:1 7654:1 
1.410373562070807 212:1 233:1 652:1 1219:1 1268:1 7657:1 7658:1 
0.01475808864264862 863:1 1188:1 2647:1 2689:1 2702:1 3666:1 4495:1 7098:1 7625:1 
1.549064485698421 286:1 395:1 652:1 1025:1 1401:1 1917:1 3624:1 4054:1 4546:1 5465:1 5599:1 6447:1 
0.2054277389352955 1485:1 2672:1 4569:1 5333:1 7666:1 7667:1 
2.095283475042155 322:1 545:1 1270:1 2601:1 2707:1 2861:1 3139:1 3171:1 7297:1 7668:1 
0.08833479796464061 228:1 426:1 612:1 1706:1 2073:1 4294:1 7109:1 7315:1 
0.1220798471854835 927:1 2202:1 
1.606499623625413 147:1 445:1 652:1 1401:1 4254:1 4723:1 
0.9220539266260006 737:1 1917:1 
9.38919299166243 4337:1 4439:1 4885:1 
1.808180466402728 2689:1 4530:1 
2.301289887588623 115:1 6623:1 
0.6701959982086445 787:1 2394:1 
1.437219446792856 147:1 1746:1 3279:1 
8.972653445096942 79:1 624:1 4723:1 
2.244778613441156 261:1 398:1 925:1 1313:1 1745:1 4563:1 
2.604160107309553 1383:1 2625:1 7718:1 
9.38919299166243 2389:1 
6.24003294297727 7720:1 
0.2147036617788404 29:1 567:1 836:1 1542:1 1808:1 1832:1 1859:1 4107:1 4120:1 6141:1 
1.73402767081423 288:1 1138:1 1816:1 6677:1 7724:1 7725:1 7726:1 7727:1 
1.741742913807358 594:1 652:1 1115:1 2833:1 5404:1 7730:1 
3.320973062308134 322:1 419:1 445:1 703:1 1981:1 2689:1 2707:1 2709:1 3364:1 7098:1 7736:1 7737:1 
0.2879713740106268 380:1 621:1 2458:1 
0.6898710929175059 48:1 533:1 635:1 3286:1 4594:1 5603:1 7283:1 
1.0219219190323 103:1 955:1 1479:1 2525:1 6640:1 7124:1 7240:1 
0.1002291933410468 233:1 621:1 1797:1 2714:1 5217:1 7743:1 
3.586186167875526 1643:1 1750:1 7754:1 7755:1 
4.390952674876728 48:1 204:1 5933:1 7149:1 
0.1762165532206929 1501:1 7761:1 
1.781797902098874 316:1 1408:1 1420:1 1769:1 2689:1 7762:1 7763:1 7764:1 
0.5599414979371196 1183:1 2894:1 
5.516619692823967 999:1 1096:1 1645:1 6953:1 
0.3006806838625216 46:1 184:1 393:1 472:1 1190:1 3357:1 3400:1 7674:1 7771:1 
0.6561331582036352 100:1 589:1 822:1 1582:1 7772:1 
1.402779125115025 107:1 158:1 658:1 1200:1 1409:1 2039:1 2144:1 2286:1 3988:1 4717:1 
1.549084651207176 3552:1 7658:1 
5.388658135514593 596:1 
5.39168699139463 316:1 2856:1 5535:1 
3.488048253612544 316:1 322:1 2426:1 5875:1 7098:1 7737:1 
5.813505735474896 233:1 282:1 289:1 445:1 587:1 683:1 717:1 820:1 
7.462909479950963 69:1 316:1 322:1 863:1 1136:1 1240:1 2040:1 2409:1 
2.812511344683936 313:1 437:1 1379:1 4093:1 4239:1 4495:1 4692:1 4867:1 
1.645673341310838 1006:1 1212:1 2669:1 5659:1 7620:1 7803:1 7804:1 7805:1 7806:1 7807:1 7808:1 7809:1 
9.38919299166243 1631:1 
0.9343496538764547 58:1 1962:1 2689:1 4586:1 4587:1 7073:1 7620:1 7811:1 7812:1 
1.482169063302136 46:1 89:1 133:1 134:1 393:1 3540:1 7814:1 7815:1 
0.3905002374778744 445:1 2285:1 5688:1 7818:1 7819:1 
9.38919299166243 3578:1 
1.207265780502394 316:1 322:1 819:1 1240:1 1466:1 1989:1 5316:1 5512:1 
1.197035041615594 79:1 124:1 567:1 624:1 1021:1 1570:1 1706:1 1921:1 2988:1 4723:1 
5.508154938108111 458:1 459:1 2918:1 5642:1 
0.652076686694689 286:1 316:1 527:1 908:1 1681:1 1989:1 4578:1 7764:1 7806:1 
9.38919299166243 747:1 1683:1 1684:1 7721:1 
0.1441953351840921 685:1 821:1 1119:1 2396:1 
2.752649854827775 22:1 999:1 1824:1 2116:1 2969:1 
7.811026864434482 89:1 621:1 3525:1 
0.1661518564583948 35:1 1687:1 3139:1 3157:1 4665:1 4717:1 5007:1 7098:1 7860:1 
4.409799219475863 2396:1 7866:1 
2.968135674119699 7484:1 
0.6793249256529456 150:1 217:1 327:1 752:1 753:1 1073:1 1706:1 5094:1 
2.050051274798864 222:1 612:1 621:1 2430:1 3174:1 7675:1 
1.31674603590868 152:1 458:1 941:1 1000:1 1205:1 1720:1 4546:1 7581:1 7888:1 7889:1 
0.1217937373353484 1769:1 2689:1 4093:1 5094:1 6802:1 7411:1 7764:1 7897:1 7898:1 
0.1301830977876391 1513:1 2445:1 7901:1 
0.2447512846564452 79:1 115:1 244:1 533:1 1522:1 5945:1 7169:1 7904:1 
0.3514966936281035 458:1 621:1 4495:1 4552:1 7415:1 7905:1 7906:1 
0.5505198500659577 444:1 601:1 649:1 736:1 1994:1 2872:1 5060:1 5517:1 7912:1 
0.1701475450371532 2689:1 2707:1 5952:1 7098:1 7226:1 7446:1 
1.478960846728967 189:1 537:1 1972:1 2010:1 2281:1 
9.38919299166243 387:1 4584:1 
1.53924026906904 640:1 963:1 1173:1 3918:1 4493:1 7925:1 7926:1 
0.279354232866487 1096:1 4546:1 
1.702732795908601 204:1 7928:1 
2.703527917436385 147:1 380:1 1183:1 1270:1 3129:1 7137:1 
0.3777582618440137 1021:1 1201:1 7925:1 
3.69289156888601 94:1 408:1 5803:1 
0.6808438361948178 327:1 591:1 1074:1 2626:1 3655:1 3735:1 4860:1 5496:1 5859:1 
0.8794836575662454 426:1 528:1 1615:1 1809:1 4336:1 
0.07432545279273392 579:1 7942:1 
3.200305578128837 249:1 395:1 751:1 
0.4129509501141741 8:1 89:1 294:1 558:1 579:1 1176:1 1610:1 1991:1 2757:1 4734:1 7140:1 7141:1 7957:1 
0.4900268209527634 7160:1 
1.922915286933541 157:1 445:1 652:1 1401:1 2989:1 7484:1 7962:1 
0.3974821854312617 327:1 673:1 2458:1 3724:1 6290:1 
2.464098826207739 3155:1 
0.09383546751812535 107:1 309:1 321:1 2078:1 2422:1 4789:1 7581:1 7968:1 
1.015072470115097 123:1 1096:1 1928:1 2186:1 3259:1 3618:1 7421:1 7785:1 
0.8003127573868655 119:1 454:1 612:1 2343:1 
1.539227230227955 119:1 1496:1 3762:1 7334:1 
0.4339781125557922 511:1 621:1 737:1 7304:1 7765:1 
1.354611582405514 291:1 2389:1 7394:1 7994:1 7995:1 
0.8874166521494397 1130:1 2710:1 8003:1 8004:1 8005:1 8006:1 
0.31032459665529 89:1 1021:1 1475:1 4530:1 6717:1 7752:1 8007:1 8008:1 
0.08174616191842676 2078:1 2692:1 5752:1 8015:1 
